~o
<STREAMINFO> 1 39
<VECSIZE> 39<NULLD><MFCC_D_A_0><DIAGC>
~s "silst"
<MEAN> 39
 -2.600130e+01 1.763336e+00 -1.022213e+01 4.057176e+00 -7.109127e+00 5.290072e+00 -3.603868e+00 1.254143e+00 6.143214e-01 -9.049197e-01 1.155735e+00 -4.071262e-01 2.271920e+01 1.523056e-03 -2.426710e-03 -3.871564e-03 -3.235782e-03 1.947215e-02 2.756301e-02 -4.072689e-03 -1.663899e-02 -1.379207e-02 -1.111295e-02 -7.582437e-03 -4.702643e-03 1.297332e-03 1.076022e-02 -6.001734e-03 1.745469e-02 1.845148e-05 -3.425238e-03 -1.709903e-02 2.904979e-03 2.857615e-03 -4.564947e-03 -3.141616e-03 -1.745211e-02 -1.750019e-02 1.986995e-02
<VARIANCE> 39
 8.422131e-01 1.228586e+00 2.079680e+00 3.201415e+00 5.608961e+00 6.532925e+00 8.232764e+00 9.174253e+00 8.859824e+00 7.717730e+00 8.571884e+00 7.515157e+00 4.210256e+00 6.428193e-02 1.478959e-01 2.433778e-01 3.559951e-01 7.118376e-01 8.081267e-01 1.230170e+00 1.387954e+00 9.969739e-01 8.359563e-01 9.506775e-01 8.685077e-01 5.594233e-02 1.788503e-02 3.179149e-02 5.340224e-02 7.524911e-02 1.455402e-01 1.598657e-01 2.931833e-01 3.246760e-01 2.088108e-01 1.685956e-01 2.002000e-01 1.808836e-01 1.321854e-02
<GCONST> 5.089117e+01
~h "a"
<BEGINHMM>
<NUMSTATES> 5
<STATE> 2
<MEAN> 39
 -7.570592e+00 -1.324459e+01 8.171377e+00 -1.143453e+01 -3.685203e-01 -6.875147e+00 -2.568103e+00 -6.256693e+00 -6.550462e+00 -1.842143e+00 -1.573702e+00 -8.003948e+00 7.234854e+01 2.620024e-01 -9.402510e-01 -1.646785e-01 -2.586074e-01 3.312586e-01 -4.136627e-01 2.211660e-01 6.601327e-01 2.504438e-01 -3.357785e-01 -7.922666e-01 -5.882196e-02 9.700124e-01 -1.699451e-02 1.064585e-01 1.823528e-02 1.684483e-01 6.379070e-02 -3.139030e-03 4.352387e-04 -7.837268e-02 6.854984e-02 -1.478222e-01 -9.866086e-02 5.037848e-02 -1.581393e-01
<VARIANCE> 39
 2.505812e+01 2.721903e+01 1.032514e+02 3.971104e+01 5.399974e+01 7.262219e+01 3.447603e+01 3.732949e+01 3.833693e+01 3.788578e+01 2.964064e+01 2.212195e+01 6.068459e+01 2.018312e+00 2.859068e+00 2.686086e+00 3.387836e+00 2.311526e+00 3.074539e+00 2.020747e+00 2.841295e+00 1.676924e+00 2.771953e+00 2.271535e+00 1.685530e+00 5.242593e+00 2.114202e-01 3.776759e-01 3.258052e-01 5.100262e-01 4.266260e-01 4.434027e-01 3.783894e-01 4.157041e-01 3.242669e-01 4.224207e-01 3.282337e-01 2.727513e-01 3.947445e-01
<GCONST> 1.188657e+02
<STATE> 3
<MEAN> 39
 -6.636134e+00 -1.897528e+01 7.254123e+00 -1.200442e+01 3.677016e+00 -1.066405e+01 -2.369455e+00 -2.099231e+00 -3.794593e+00 -4.645576e+00 -8.650239e+00 -8.162673e+00 7.622893e+01 3.564079e-01 -4.345270e-01 2.267398e-01 9.171327e-02 3.705302e-01 -3.788638e-01 2.315279e-01 4.398828e-01 2.279203e-01 -5.130580e-01 -6.442986e-01 3.331436e-01 7.040023e-01 -1.689069e-01 6.882980e-01 4.562360e-02 3.571781e-01 -2.778912e-01 1.928724e-01 -9.471899e-02 -4.001043e-01 -2.006407e-02 2.504063e-01 4.563397e-01 6.883281e-02 -7.138424e-01
<VARIANCE> 39
 8.391757e+00 1.544668e+01 3.431195e+01 2.187927e+01 4.134935e+01 3.402398e+01 3.832211e+01 3.184563e+01 2.277777e+01 3.519057e+01 3.346397e+01 2.317636e+01 2.403794e+01 1.532713e+00 2.508059e+00 2.873327e+00 1.980434e+00 2.996490e+00 1.857812e+00 2.154168e+00 2.308408e+00 1.611485e+00 2.222859e+00 2.132768e+00 1.507025e+00 4.498572e+00 2.641473e-01 2.953447e-01 2.655699e-01 3.522451e-01 2.706764e-01 2.940862e-01 3.431963e-01 4.233300e-01 2.177717e-01 3.851614e-01 3.522042e-01 3.251839e-01 5.180390e-01
<GCONST> 1.097092e+02
<STATE> 4
<MEAN> 39
 -7.202986e+00 -1.466778e+01 7.193111e+00 -8.472706e+00 4.795076e+00 -9.388006e+00 1.542007e+00 -4.859377e+00 -3.368339e+00 -6.191179e+00 -6.715301e+00 -7.482163e+00 7.372701e+01 -1.720566e-01 9.743524e-01 2.617937e-01 8.673136e-01 -1.971506e-01 1.168187e-01 -8.247817e-02 -3.747259e-01 8.110676e-02 6.155612e-02 2.776105e-01 1.279666e-01 -9.813229e-01 -9.835742e-02 2.141815e-01 4.474486e-02 2.354280e-01 -5.338672e-02 1.255158e-01 -9.845223e-02 -1.192593e-01 2.279831e-02 -2.344366e-03 5.998379e-02 -2.159934e-02 -3.777325e-01
<VARIANCE> 39
 1.338512e+01 3.607656e+01 5.345656e+01 5.852675e+01 5.810406e+01 4.296629e+01 4.173951e+01 4.233317e+01 2.205367e+01 4.923703e+01 3.568726e+01 2.411971e+01 4.321056e+01 5.567233e-01 2.416988e+00 2.045599e+00 2.758627e+00 2.060621e+00 1.723152e+00 1.694386e+00 1.962110e+00 1.550061e+00 1.861911e+00 1.673162e+00 1.479976e+00 2.437044e+00 1.423201e-01 3.374251e-01 2.744125e-01 5.527344e-01 2.788468e-01 2.963090e-01 2.901981e-01 4.041061e-01 2.699468e-01 3.337287e-01 2.765362e-01 2.473285e-01 3.367376e-01
<GCONST> 1.103355e+02
<TRANSP> 5
 0.000000e+00 1.000000e+00 0.000000e+00 0.000000e+00 0.000000e+00
 0.000000e+00 6.613538e-01 3.386462e-01 0.000000e+00 0.000000e+00
 0.000000e+00 0.000000e+00 6.398732e-01 3.601268e-01 0.000000e+00
 0.000000e+00 0.000000e+00 0.000000e+00 7.498785e-01 2.501215e-01
 0.000000e+00 0.000000e+00 0.000000e+00 0.000000e+00 0.000000e+00
<ENDHMM>
~h "b"
<BEGINHMM>
<NUMSTATES> 5
<STATE> 2
<MEAN> 39
 -1.414439e+01 -7.743544e+00 2.981896e+00 -3.338959e+00 -1.236701e+00 -4.557664e+00 -2.877691e+00 -5.862136e+00 -3.202762e+00 -3.443379e+00 -1.721877e+00 -6.371274e+00 5.579076e+01 6.232359e-03 -1.184804e-02 5.264054e-03 -6.519258e-03 1.211933e-02 -4.235122e-03 -3.513063e-03 -1.805109e-02 -5.453553e-03 -6.036517e-03 -7.011238e-03 -6.053182e-03 2.423620e-02 -9.010879e-04 1.120917e-04 9.610619e-04 -2.967312e-04 -9.533982e-04 -8.676147e-04 1.872286e-03 1.397449e-03 1.512503e-03 6.096156e-04 -1.876927e-03 -2.391097e-03 8.105883e-05
<VARIANCE> 39
 8.422131e+01 6.084932e+01 1.073184e+02 6.955961e+01 5.446898e+01 7.079699e+01 4.003558e+01 5.404599e+01 3.966318e+01 3.654010e+01 3.580028e+01 3.070767e+01 4.210256e+02 2.718939e+00 2.774098e+00 2.577951e+00 3.647006e+00 2.640604e+00 2.721262e+00 2.408642e+00 3.156995e+00 2.811726e+00 2.666955e+00 2.489032e+00 1.730701e+00 5.594233e+00 4.269344e-01 4.867565e-01 4.137163e-01 6.318190e-01 4.706055e-01 4.998690e-01 4.513081e-01 5.820021e-01 5.208251e-01 5.037160e-01 4.586603e-01 3.360357e-01 8.262613e-01
<GCONST> 1.297615e+02
<STATE> 3
<MEAN> 39
 -1.414439e+01 -7.743544e+00 2.981896e+00 -3.338959e+00 -1.236701e+00 -4.557664e+00 -2.877691e+00 -5.862136e+00 -3.202762e+00 -3.443379e+00 -1.721877e+00 -6.371274e+00 5.579076e+01 6.232359e-03 -1.184804e-02 5.264054e-03 -6.519258e-03 1.211933e-02 -4.235122e-03 -3.513063e-03 -1.805109e-02 -5.453553e-03 -6.036517e-03 -7.011238e-03 -6.053182e-03 2.423620e-02 -9.010879e-04 1.120917e-04 9.610619e-04 -2.967312e-04 -9.533982e-04 -8.676147e-04 1.872286e-03 1.397449e-03 1.512503e-03 6.096156e-04 -1.876927e-03 -2.391097e-03 8.105883e-05
<VARIANCE> 39
 8.422131e+01 6.084932e+01 1.073184e+02 6.955961e+01 5.446898e+01 7.079699e+01 4.003558e+01 5.404599e+01 3.966318e+01 3.654010e+01 3.580028e+01 3.070767e+01 4.210256e+02 2.718939e+00 2.774098e+00 2.577951e+00 3.647006e+00 2.640604e+00 2.721262e+00 2.408642e+00 3.156995e+00 2.811726e+00 2.666955e+00 2.489032e+00 1.730701e+00 5.594233e+00 4.269344e-01 4.867565e-01 4.137163e-01 6.318190e-01 4.706055e-01 4.998690e-01 4.513081e-01 5.820021e-01 5.208251e-01 5.037160e-01 4.586603e-01 3.360357e-01 8.262613e-01
<GCONST> 1.297615e+02
<STATE> 4
<MEAN> 39
 -1.414439e+01 -7.743544e+00 2.981896e+00 -3.338959e+00 -1.236701e+00 -4.557664e+00 -2.877691e+00 -5.862136e+00 -3.202762e+00 -3.443379e+00 -1.721877e+00 -6.371274e+00 5.579076e+01 6.232359e-03 -1.184804e-02 5.264054e-03 -6.519258e-03 1.211933e-02 -4.235122e-03 -3.513063e-03 -1.805109e-02 -5.453553e-03 -6.036517e-03 -7.011238e-03 -6.053182e-03 2.423620e-02 -9.010879e-04 1.120917e-04 9.610619e-04 -2.967312e-04 -9.533982e-04 -8.676147e-04 1.872286e-03 1.397449e-03 1.512503e-03 6.096156e-04 -1.876927e-03 -2.391097e-03 8.105883e-05
<VARIANCE> 39
 8.422131e+01 6.084932e+01 1.073184e+02 6.955961e+01 5.446898e+01 7.079699e+01 4.003558e+01 5.404599e+01 3.966318e+01 3.654010e+01 3.580028e+01 3.070767e+01 4.210256e+02 2.718939e+00 2.774098e+00 2.577951e+00 3.647006e+00 2.640604e+00 2.721262e+00 2.408642e+00 3.156995e+00 2.811726e+00 2.666955e+00 2.489032e+00 1.730701e+00 5.594233e+00 4.269344e-01 4.867565e-01 4.137163e-01 6.318190e-01 4.706055e-01 4.998690e-01 4.513081e-01 5.820021e-01 5.208251e-01 5.037160e-01 4.586603e-01 3.360357e-01 8.262613e-01
<GCONST> 1.297615e+02
<TRANSP> 5
 0.000000e+00 1.000000e+00 0.000000e+00 0.000000e+00 0.000000e+00
 0.000000e+00 6.000000e-01 4.000000e-01 0.000000e+00 0.000000e+00
 0.000000e+00 0.000000e+00 6.000000e-01 4.000000e-01 0.000000e+00
 0.000000e+00 0.000000e+00 0.000000e+00 7.000000e-01 3.000000e-01
 0.000000e+00 0.000000e+00 0.000000e+00 0.000000e+00 0.000000e+00
<ENDHMM>
~h "e"
<BEGINHMM>
<NUMSTATES> 5
<STATE> 2
<MEAN> 39
 -2.032049e+01 -3.805179e+00 -2.200366e+00 3.602684e+00 -2.127171e+00 -1.212100e+00 -5.379539e-02 -6.716953e+00 -5.745976e-01 -3.201865e+00 9.332895e-02 -3.527302e+00 4.382856e+01 -1.472321e-01 3.813817e-02 -2.074564e-01 -7.298548e-01 1.154179e-01 -6.783142e-01 1.030645e-01 3.454423e-02 1.200312e-01 9.126503e-01 -1.268515e-01 1.467963e-01 -2.438383e-01 4.228952e-01 -5.364482e-01 3.143595e-01 -7.850119e-01 1.204035e-01 -8.357021e-01 -1.759517e-01 -2.473782e-01 -1.549703e-01 4.261841e-02 -2.262551e-01 -1.985740e-01 1.237545e+00
<VARIANCE> 39
 9.643555e+01 3.068128e+01 6.129868e+01 2.733601e+01 5.239199e+01 5.710182e+01 4.293890e+01 8.225345e+01 1.138478e+01 4.207177e+01 2.904547e+01 2.362404e+01 3.215761e+02 3.878267e+00 4.295824e+00 2.990962e+00 5.510611e+00 4.586829e+00 9.432115e+00 1.667468e+00 3.364273e+00 9.956717e-01 4.309360e+00 3.539366e+00 1.263995e+00 1.702501e+01 6.698817e-01 5.817441e-01 4.632789e-01 5.377539e-01 8.120536e-01 1.207361e+00 4.389796e-01 6.427540e-01 1.220077e-01 5.316510e-01 4.323971e-01 1.448248e-01 1.880782e+00
<GCONST> 1.301478e+02
<STATE> 3
<MEAN> 39
 -1.081546e+01 -9.585811e+00 5.474530e+00 -3.807467e+00 1.256738e+00 -1.292166e+01 -9.432225e-01 -9.886616e+00 -3.588493e+00 3.141531e+00 -4.105255e+00 -6.992992e+00 6.173786e+01 8.526267e-01 -8.892335e-01 1.702204e+00 -2.033404e+00 1.355683e+00 -7.586898e-01 -5.712848e-01 -1.261947e-02 -3.353126e-01 6.626204e-01 -5.578371e-02 -5.050284e-01 3.120609e+00 -3.400040e-01 1.709966e-02 1.626606e-02 1.684105e-01 -1.420219e-01 1.077969e+00 -4.682399e-02 1.784326e-01 2.543642e-02 -8.031471e-01 7.758293e-02 1.050777e-01 -3.843853e-01
<VARIANCE> 39
 3.682524e+01 3.379678e+01 9.602440e+01 7.174390e+01 4.194841e+01 7.094061e+01 3.936273e+01 3.101459e+01 1.492968e+01 3.124847e+01 3.519941e+01 1.727820e+01 8.796389e+01 6.161419e+00 3.244458e+00 1.995156e+00 6.721953e+00 4.294383e+00 6.824375e+00 3.591495e+00 5.002396e+00 1.234623e+00 6.899718e+00 3.291204e+00 1.262063e+00 8.238677e+00 6.120413e-01 1.108046e+00 5.634484e-01 1.213601e+00 7.659510e-01 8.320401e-01 5.879111e-01 3.956527e-01 2.591363e-01 1.128442e+00 7.561947e-01 3.188813e-01 1.827092e+00
<GCONST> 1.325859e+02
<STATE> 4
<MEAN> 39
 -1.123003e+01 -6.484845e+00 1.797412e+01 -1.099661e+01 -4.679584e+00 -5.105466e+00 4.330556e-01 -1.366807e+01 -3.894562e+00 4.564053e+00 -4.457720e+00 -8.744787e+00 7.039935e+01 -6.320150e-02 -1.068297e-01 -7.436779e-02 1.387834e-01 1.254654e-01 1.726346e-01 -1.869194e-01 1.473482e-01 8.434729e-02 -2.114143e-01 7.076374e-02 1.405531e-01 -1.599953e-01 -1.099220e-03 -8.957881e-03 -1.673910e-01 6.200228e-02 2.189782e-02 4.631677e-02 6.091291e-02 -4.621882e-03 -1.652816e-02 -9.741875e-02 1.933556e-04 -1.223461e-02 -2.404492e-02
<VARIANCE> 39
 2.491566e+01 2.992206e+01 5.188145e+01 1.038734e+02 2.912898e+01 5.531310e+01 5.576703e+01 3.247146e+01 1.235909e+01 1.699776e+01 2.019688e+01 6.407487e+00 8.890480e+01 2.531751e-01 6.863303e-01 1.096544e+00 9.629801e-01 6.556908e-01 2.215590e+00 1.047180e+00 9.475688e-01 6.326931e-01 1.277383e+00 9.092562e-01 4.095060e-01 1.375184e+00 5.542783e-02 1.451728e-01 1.690820e-01 2.109352e-01 1.365258e-01 3.789702e-01 9.251122e-02 1.445059e-01 8.876663e-02 1.507352e-01 1.720921e-01 7.497463e-02 1.683458e-01
<GCONST> 8.837700e+01
<TRANSP> 5
 0.000000e+00 1.000000e+00 0.000000e+00 0.000000e+00 0.000000e+00
 0.000000e+00 6.402442e-01 3.597558e-01 0.000000e+00 0.000000e+00
 0.000000e+00 0.000000e+00 5.828713e-01 4.171287e-01 0.000000e+00
 0.000000e+00 0.000000e+00 0.000000e+00 8.947791e-01 1.052209e-01
 0.000000e+00 0.000000e+00 0.000000e+00 0.000000e+00 0.000000e+00
<ENDHMM>
~h "h"
<BEGINHMM>
<NUMSTATES> 5
<STATE> 2
<MEAN> 39
 -7.851365e+00 -1.135354e+01 7.876469e+00 -6.998316e+00 4.936294e+00 -7.855808e+00 -4.916883e-01 -9.509469e+00 -2.910488e+00 -6.371039e+00 -4.687047e+00 -9.102487e+00 7.206360e+01 -4.595327e-01 1.232953e+00 -3.148783e-01 1.663420e+00 8.524566e-01 1.613569e+00 9.621575e-01 -9.528435e-01 3.610262e-01 -6.764034e-01 3.807688e-02 -5.192835e-01 -1.462516e+00 -2.522541e-01 1.727878e-01 -1.031155e-01 1.681323e-01 -1.494794e-01 -1.613171e-02 -9.220828e-02 4.662603e-03 -2.678100e-02 1.868609e-01 1.939999e-01 5.909447e-02 -3.572196e-01
<VARIANCE> 39
 2.171131e+01 4.827176e+01 5.347345e+01 4.050501e+01 3.659916e+01 4.991801e+01 2.894623e+01 4.338636e+01 3.966481e+01 5.191223e+01 4.691622e+01 1.922610e+01 4.012601e+01 1.365913e+00 2.757083e+00 2.368883e+00 4.411496e+00 2.066236e+00 1.710932e+00 2.370476e+00 3.546280e+00 2.957770e+00 4.019911e+00 2.745507e+00 1.634899e+00 3.036905e+00 3.266739e-01 5.713207e-01 2.983689e-01 7.524234e-01 4.115503e-01 3.213120e-01 3.983214e-01 7.411266e-01 6.761383e-01 6.451265e-01 5.116065e-01 3.286067e-01 2.782380e-01
<GCONST> 1.209299e+02
<STATE> 3
<MEAN> 39
 -1.118082e+01 -8.736512e+00 6.602448e+00 -2.038497e+00 6.436119e+00 -4.508099e+00 3.113006e+00 -1.083047e+01 -1.727228e+00 -8.932440e+00 -5.359849e+00 -9.834886e+00 6.787403e+01 -9.565750e-01 8.738242e-01 -5.626473e-01 7.144357e-01 6.950361e-02 5.176277e-01 -1.396549e-01 -2.803482e-01 4.662778e-01 4.110048e-01 1.608783e-01 1.158343e-01 -1.853062e+00 -6.655487e-02 -1.180931e-01 -7.183403e-02 -2.927466e-01 -2.881773e-01 -2.679329e-01 -3.300881e-01 1.005619e-01 -8.974942e-02 1.846234e-01 2.108179e-01 2.823066e-01 -9.038975e-02
<VARIANCE> 39
 3.749616e+01 3.661193e+01 4.476315e+01 4.202710e+01 3.763235e+01 5.453883e+01 3.469814e+01 2.826943e+01 5.246880e+01 5.458947e+01 3.566912e+01 1.750902e+01 5.100498e+01 3.394289e+00 2.531945e+00 2.350492e+00 4.257474e+00 2.905399e+00 2.839498e+00 2.445797e+00 4.228089e+00 3.263333e+00 3.015149e+00 3.599193e+00 2.048651e+00 2.897866e+00 2.955506e-01 4.764495e-01 4.049084e-01 7.700554e-01 3.664691e-01 4.229745e-01 4.046069e-01 4.800033e-01 7.155424e-01 4.676605e-01 3.715171e-01 3.291713e-01 4.187693e-01
<GCONST> 1.228394e+02
<STATE> 4
<MEAN> 39
 -1.656906e+01 -6.136415e+00 2.995948e+00 -3.268795e+00 9.973086e-01 -3.532336e-01 9.792373e-01 -1.029358e+01 -2.400405e+00 -6.723969e+00 -2.330827e+00 -6.889750e+00 5.504166e+01 -4.675257e-01 4.463919e-01 -5.705825e-01 4.988528e-01 -3.844344e-01 1.704009e-01 -3.567575e-01 2.949390e-01 1.630627e-01 3.258367e-01 4.092719e-01 3.354712e-01 -1.664749e+00 1.468154e-02 -1.814681e-01 2.318397e-03 -1.100371e-01 -6.374087e-02 -1.785905e-01 -4.549382e-02 4.200975e-02 -5.037573e-02 -8.522537e-02 7.980619e-02 2.158286e-02 2.528357e-01
<VARIANCE> 39
 4.819002e+01 2.085680e+01 1.095618e+02 3.141214e+01 3.488237e+01 3.937547e+01 2.070701e+01 3.796341e+01 3.508940e+01 4.084766e+01 3.024882e+01 2.285832e+01 1.636110e+02 1.801087e+00 1.730382e+00 1.527508e+00 2.246089e+00 1.760724e+00 2.302181e+00 1.920404e+00 2.480800e+00 2.777904e+00 3.366141e+00 2.656899e+00 1.725190e+00 1.784950e+00 2.304982e-01 3.689650e-01 2.850255e-01 5.104101e-01 3.407989e-01 3.282832e-01 3.336673e-01 4.101054e-01 5.221004e-01 6.216405e-01 5.115376e-01 4.588340e-01 5.254726e-01
<GCONST> 1.174078e+02
<TRANSP> 5
 0.000000e+00 1.000000e+00 0.000000e+00 0.000000e+00 0.000000e+00
 0.000000e+00 4.228580e-01 5.771421e-01 0.000000e+00 0.000000e+00
 0.000000e+00 0.000000e+00 5.268752e-01 4.731248e-01 0.000000e+00
 0.000000e+00 0.000000e+00 0.000000e+00 6.400843e-01 3.599157e-01
 0.000000e+00 0.000000e+00 0.000000e+00 0.000000e+00 0.000000e+00
<ENDHMM>
~h "i"
<BEGINHMM>
<NUMSTATES> 5
<STATE> 2
<MEAN> 39
 -1.230593e+01 -8.293320e+00 1.351268e+01 -5.221077e+00 -6.987843e+00 -7.770621e+00 -1.611567e+00 -4.575758e+00 -6.382236e+00 -2.019491e+00 -1.964360e-01 -6.941607e+00 6.575151e+01 -3.245803e-01 6.500013e-01 9.914822e-01 -2.455510e-01 -8.226337e-01 2.322076e-01 -4.992931e-02 -4.786369e-01 -4.583735e-01 1.628114e-02 7.642351e-01 -8.388206e-02 1.460854e-01 9.099877e-02 -1.530867e-01 1.992188e-01 -2.880691e-01 7.628903e-03 1.331364e-01 7.611431e-03 -1.561569e-01 -1.706235e-01 -1.843936e-02 -2.561798e-02 -1.827088e-01 2.627349e-01
<VARIANCE> 39
 4.095218e+01 5.272492e+01 1.056246e+02 5.304522e+01 3.115881e+01 5.167159e+01 2.328104e+01 8.738701e+01 3.271064e+01 2.137236e+01 2.922613e+01 1.592919e+01 2.953131e+02 1.513947e+00 1.816758e+00 2.159622e+00 2.066403e+00 2.074194e+00 1.946255e+00 2.027910e+00 1.798479e+00 1.740490e+00 2.442382e+00 1.682452e+00 9.893931e-01 3.084126e+00 2.656589e-01 4.281952e-01 8.091557e-01 6.538578e-01 4.127893e-01 4.485477e-01 3.193789e-01 6.500277e-01 4.426353e-01 4.687824e-01 3.925739e-01 2.616956e-01 1.074005e+00
<GCONST> 1.198028e+02
<STATE> 3
<MEAN> 39
 -1.599553e+01 -4.875685e+00 7.278180e+00 -1.178990e+00 -6.985641e+00 -4.935248e+00 -1.310361e+00 -4.874785e+00 -3.783854e+00 -1.676192e+00 1.320122e+00 -5.669093e+00 5.252696e+01 3.601055e-01 -7.151557e-01 2.496096e+00 -2.043231e+00 -9.908816e-01 -4.002397e-01 4.881117e-01 -1.016273e+00 -1.379237e+00 -3.767304e-02 4.628407e-01 -8.383245e-01 2.719093e+00 4.008938e-01 -4.390796e-01 7.290753e-01 -4.354376e-01 -4.747577e-02 -5.864392e-02 3.798766e-02 -8.785567e-02 -5.372851e-01 1.010933e-01 -2.971218e-01 -3.093985e-01 8.255019e-01
<VARIANCE> 39
 5.598863e+01 4.081762e+01 1.746477e+02 4.423485e+01 1.987121e+01 6.718701e+01 2.496399e+01 6.235342e+01 4.195423e+01 1.853839e+01 2.223061e+01 2.147126e+01 4.840437e+02 3.933374e+00 3.446989e+00 8.986808e+00 5.140565e+00 2.819690e+00 4.484956e+00 2.247221e+00 3.901211e+00 3.407134e+00 3.396606e+00 2.367166e+00 2.088959e+00 1.545376e+01 4.498923e-01 3.828616e-01 1.538893e+00 7.331957e-01 4.579813e-01 5.294400e-01 4.237992e-01 5.919253e-01 8.274530e-01 3.288974e-01 3.475346e-01 4.053378e-01 2.036253e+00
<GCONST> 1.328626e+02
<STATE> 4
<MEAN> 39
 -1.025689e+01 -1.002694e+01 1.967193e+01 -5.965590e+00 -9.316139e+00 -7.020413e+00 -4.470980e-01 -5.416527e+00 -1.110691e+01 1.541966e-01 1.907340e+00 -8.561259e+00 6.568454e+01 7.334092e-01 -3.224645e-01 1.313887e+00 -6.699670e-01 8.652100e-02 -8.762640e-02 5.374259e-02 -3.119845e-01 -6.892273e-01 -3.737862e-02 -1.984362e-01 -3.274800e-01 1.660695e+00 -1.261391e-01 1.545374e-01 -5.854959e-01 2.232814e-01 3.021828e-01 1.044359e-01 -1.210384e-03 6.626415e-02 3.738310e-01 -1.010324e-01 -1.235871e-01 1.318070e-01 -4.110556e-01
<VARIANCE> 39
 2.546816e+01 2.802538e+01 4.956477e+01 5.926336e+01 3.558670e+01 3.625337e+01 2.364335e+01 3.930772e+01 3.740313e+01 3.057542e+01 2.805177e+01 1.933406e+01 1.078180e+02 3.633642e+00 4.202595e+00 1.135363e+01 9.981713e+00 4.132177e+00 3.280291e+00 1.711869e+00 3.893818e+00 5.261319e+00 3.483997e+00 2.876151e+00 1.927893e+00 1.479001e+01 4.244947e-01 5.850707e-01 1.035416e+00 1.397748e+00 6.163556e-01 6.047696e-01 4.154225e-01 6.267393e-01 6.377823e-01 6.807863e-01 6.015573e-01 3.394832e-01 1.362737e+00
<GCONST> 1.320546e+02
<TRANSP> 5
 0.000000e+00 1.000000e+00 0.000000e+00 0.000000e+00 0.000000e+00
 0.000000e+00 5.017198e-01 4.982801e-01 0.000000e+00 0.000000e+00
 0.000000e+00 0.000000e+00 2.319680e-01 7.680320e-01 0.000000e+00
 0.000000e+00 0.000000e+00 0.000000e+00 7.244068e-01 2.755932e-01
 0.000000e+00 0.000000e+00 0.000000e+00 0.000000e+00 0.000000e+00
<ENDHMM>
~h "k"
<BEGINHMM>
<NUMSTATES> 5
<STATE> 2
<MEAN> 39
 -1.401524e+01 -3.785051e+00 -8.771971e-01 -5.135394e+00 -3.051861e-01 -6.480943e+00 -6.596995e+00 -8.833772e+00 -2.987978e+00 -3.567068e+00 -5.123075e-01 -5.736090e+00 5.222564e+01 -9.680448e-01 -1.081618e-01 -1.547269e-01 9.550475e-01 -8.205184e-02 -1.051631e-01 2.465863e-01 1.414817e-01 3.494983e-01 -6.703451e-01 -4.716962e-01 -6.830662e-03 -1.211716e+00 3.729034e-02 -3.134625e-01 2.303729e-01 -1.482217e-01 9.993181e-03 -2.162602e-01 -2.611041e-03 -6.095615e-02 -1.345273e-01 -8.905505e-02 1.399100e-01 -8.519219e-02 5.679234e-01
<VARIANCE> 39
 2.851175e+01 3.760379e+01 3.489276e+01 6.026031e+01 4.140336e+01 5.543929e+01 2.857332e+01 3.788265e+01 5.791962e+01 3.563899e+01 2.980768e+01 2.253705e+01 1.315508e+02 1.958248e+00 5.032491e+00 3.396854e+00 4.558131e+00 3.220527e+00 7.418853e+00 3.094254e+00 4.108647e+00 4.570430e+00 3.969671e+00 2.890639e+00 1.744306e+00 1.479582e+01 4.175537e-01 1.016142e+00 6.817276e-01 8.127940e-01 7.590673e-01 1.629366e+00 6.088182e-01 8.562847e-01 9.993064e-01 7.595638e-01 6.733148e-01 3.902709e-01 3.141570e+00
<GCONST> 1.356534e+02
<STATE> 3
<MEAN> 39
 -1.546090e+01 -6.824385e+00 2.632467e+00 -4.695138e+00 3.491221e+00 -8.492700e+00 -4.083659e+00 -1.088316e+01 -3.080812e+00 -6.429164e+00 -9.958521e-01 -8.623505e+00 5.882071e+01 3.991306e-01 8.416388e-01 8.857077e-01 3.513379e-02 8.751333e-02 -2.345257e-01 -1.684121e-02 -2.585291e-01 -7.518018e-01 9.094226e-02 2.405334e-01 -8.870331e-02 2.348351e-01 3.538574e-01 -3.163099e-03 6.799652e-02 -2.493833e-01 -4.458275e-01 8.647240e-02 -9.098305e-02 4.714704e-01 1.447333e-01 4.912886e-01 1.957748e-01 2.542214e-01 -7.916650e-02
<VARIANCE> 39
 3.506742e+01 4.535702e+01 4.358417e+01 4.259913e+01 5.175872e+01 7.116943e+01 5.707412e+01 3.646658e+01 3.756847e+01 3.517460e+01 2.146591e+01 1.754887e+01 8.146114e+01 4.228102e+00 5.445963e+00 6.847666e+00 7.909499e+00 2.890127e+00 7.265866e+00 5.932045e+00 6.256279e+00 5.621393e+00 5.406670e+00 1.431628e+00 2.944574e+00 1.733377e+01 1.087569e+00 1.662990e+00 1.181605e+00 8.791214e-01 7.448258e-01 1.249976e+00 1.623219e+00 8.912876e-01 1.029686e+00 1.156938e+00 3.367543e-01 5.770069e-01 2.619120e+00
<GCONST> 1.418668e+02
<STATE> 4
<MEAN> 39
 -1.797816e+01 -2.386375e+00 -1.126210e+00 1.412858e+00 -3.183022e+00 -3.227906e+00 -4.680816e+00 -4.890071e+00 -3.321101e+00 -2.977483e+00 -5.013115e-01 -5.049785e+00 4.117388e+01 1.218196e-01 -4.043157e-01 8.524714e-02 -3.523623e-01 -5.532503e-01 -4.164295e-01 1.050606e-01 5.587881e-01 1.217354e-01 3.347960e-01 3.502740e-01 1.060206e-01 2.236477e-01 1.496034e-01 -2.801654e-01 4.873656e-02 -3.313679e-01 4.413470e-02 -8.665667e-02 6.505438e-02 -1.395156e-01 -4.649885e-02 -7.950116e-02 -3.675238e-02 -8.017455e-02 6.202055e-01
<VARIANCE> 39
 3.296663e+01 3.363646e+01 4.404593e+01 4.512601e+01 3.025610e+01 7.183302e+01 3.563012e+01 4.394271e+01 3.969577e+01 2.420695e+01 2.347715e+01 1.568528e+01 1.924222e+02 4.806430e+00 3.922244e+00 5.944286e+00 3.862050e+00 3.472487e+00 6.715556e+00 4.480298e+00 6.209203e+00 5.564146e+00 3.730512e+00 2.649909e+00 1.794781e+00 1.800198e+01 5.466049e-01 7.903409e-01 8.426778e-01 9.503734e-01 4.834059e-01 1.746330e+00 8.060154e-01 1.348947e+00 9.555190e-01 7.095542e-01 6.051255e-01 3.614330e-01 2.615672e+00
<GCONST> 1.372933e+02
<TRANSP> 5
 0.000000e+00 1.000000e+00 0.000000e+00 0.000000e+00 0.000000e+00
 0.000000e+00 7.216581e-01 2.783419e-01 0.000000e+00 0.000000e+00
 0.000000e+00 0.000000e+00 4.993171e-01 5.006829e-01 0.000000e+00
 0.000000e+00 0.000000e+00 0.000000e+00 6.647124e-01 3.352876e-01
 0.000000e+00 0.000000e+00 0.000000e+00 0.000000e+00 0.000000e+00
<ENDHMM>
~h "l"
<BEGINHMM>
<NUMSTATES> 5
<STATE> 2
<MEAN> 39
 -3.549788e+00 -1.315644e+01 -4.588505e-01 -2.237782e+01 5.107712e+00 3.893263e+00 2.105090e-01 -1.588820e+01 -2.829098e+00 -5.585711e+00 -1.979056e+00 -9.228605e+00 7.457061e+01 7.510033e-03 -5.436093e-02 1.597030e-01 -5.433294e-02 -2.555928e-01 -5.352364e-02 -3.527009e-01 1.293527e-01 -1.896891e-01 1.087387e-01 2.240111e-01 4.206680e-02 2.582293e-02 -3.685775e-02 1.110803e-01 6.296029e-02 6.038414e-02 2.840113e-02 -8.335793e-02 -3.081051e-02 1.779366e-02 -3.231591e-02 -1.993430e-02 -5.643732e-02 2.576791e-02 -7.711575e-02
<VARIANCE> 39
 9.563214e+00 4.347625e+01 3.534310e+01 2.826208e+01 5.483496e+01 7.324217e+00 1.839804e+01 1.112049e+01 1.110543e+01 2.373240e+01 1.775272e+01 6.855747e+00 4.558680e+01 4.200538e-01 3.094687e+00 1.032027e+00 1.559002e+00 2.668598e+00 1.173023e+00 1.544350e+00 1.540382e+00 9.445384e-01 6.968120e-01 7.187933e-01 7.715548e-01 1.322621e+00 8.035883e-02 3.169816e-01 2.558283e-01 3.235614e-01 4.113950e-01 1.778107e-01 3.242458e-01 2.273154e-01 1.461110e-01 1.202745e-01 1.157452e-01 1.406413e-01 1.688032e-01
<GCONST> 9.082051e+01
<STATE> 3
<MEAN> 39
 -9.339521e+00 -6.504612e+00 1.603525e+01 -1.373243e+01 -5.721681e+00 4.201339e-01 -8.537204e+00 -1.666910e+01 -8.083761e+00 -5.183257e+00 -2.514813e-01 -1.125648e+01 7.166158e+01 -1.020613e-01 2.440239e-01 -2.813210e-02 -6.252639e-02 -8.070144e-02 -5.116984e-01 9.574786e-03 -2.963312e-01 -4.827875e-02 -1.962204e-01 -3.587697e-01 2.266038e-02 -4.051284e-01 -6.767653e-02 4.470058e-03 -2.406727e-01 1.986038e-01 5.005635e-02 -6.878185e-02 2.129150e-01 -1.213858e-01 1.107233e-01 -5.619540e-02 -5.389434e-02 2.129522e-02 4.862126e-02
<VARIANCE> 39
 3.448475e+01 3.345903e+01 1.899920e+02 6.008531e+01 3.695719e+01 7.112694e+00 4.576941e+00 1.683126e+01 1.202871e+01 2.493122e+01 2.772035e+01 5.758518e+00 4.227779e+01 3.415706e-01 8.075743e-01 8.599823e-01 1.166886e+00 1.375931e+00 1.031136e+00 1.454955e+00 1.298884e+00 9.831386e-01 1.238311e+00 9.785638e-01 3.849908e-01 5.441729e-01 5.047975e-02 1.682181e-01 1.194279e-01 3.053538e-01 1.588666e-01 1.669310e-01 2.121476e-01 4.133874e-01 3.515078e-01 2.670246e-01 1.598879e-01 8.089066e-02 8.587126e-02
<GCONST> 8.750862e+01
<STATE> 4
<MEAN> 39
 -8.612325e+00 -8.686181e+00 1.710942e+00 -1.094596e+01 -4.687247e-01 -3.224346e+00 -7.216729e+00 -1.993948e+01 -8.463839e+00 -1.090757e+01 -5.097471e+00 -1.253336e+01 6.534351e+01 -6.533543e-01 1.893570e-01 -2.386792e-01 1.633896e+00 4.902492e-01 -8.482427e-01 -8.745080e-02 1.579709e-01 8.442115e-02 -9.817742e-02 6.449142e-01 -2.200990e-02 -7.878630e-01 -5.337741e-03 -1.846696e-01 1.384289e-01 5.207815e-02 -5.765844e-02 -4.245295e-02 1.488501e-01 2.816437e-01 2.009484e-01 6.221741e-02 4.679711e-02 1.088172e-01 1.328886e-01
<VARIANCE> 39
 1.734142e+01 1.354504e+01 4.800431e+01 3.947350e+01 1.678238e+01 3.802232e+01 2.178176e+01 2.135211e+01 1.558530e+01 4.431895e+01 8.304829e+00 2.158686e+01 6.105019e+01 8.354301e-01 1.819413e+00 1.193598e+00 1.928775e+00 7.001513e-01 1.633146e+00 3.161465e+00 1.080401e+00 2.338578e+00 3.788975e+00 9.079712e-01 2.145942e+00 1.475554e+00 2.268152e-01 2.667624e-01 1.888248e-01 5.379639e-01 1.476973e-01 3.565986e-01 4.352051e-01 3.297922e-01 2.980535e-01 4.844973e-01 2.132116e-01 2.217342e-01 1.107081e-01
<GCONST> 1.018104e+02
<TRANSP> 5
 0.000000e+00 1.000000e+00 0.000000e+00 0.000000e+00 0.000000e+00
 0.000000e+00 8.820458e-01 1.179542e-01 0.000000e+00 0.000000e+00
 0.000000e+00 0.000000e+00 7.656154e-01 2.343846e-01 0.000000e+00
 0.000000e+00 0.000000e+00 0.000000e+00 7.237359e-01 2.762642e-01
 0.000000e+00 0.000000e+00 0.000000e+00 0.000000e+00 0.000000e+00
<ENDHMM>
~h "m"
<BEGINHMM>
<NUMSTATES> 5
<STATE> 2
<MEAN> 39
 -4.723922e+00 -1.234512e+01 5.404598e+00 -7.859638e+00 3.621419e+00 -3.402086e+00 -4.070199e+00 -8.098445e+00 -3.578707e+00 -2.624684e+00 -9.962545e-01 -9.150182e+00 6.983617e+01 3.592203e-01 3.528244e-01 1.077531e+00 6.470979e-01 1.621945e-01 6.852608e-01 -5.125840e-01 -1.096528e+00 -6.174455e-01 3.250165e-01 8.742471e-01 1.031994e-01 -2.049468e-01 -4.460617e-01 2.392101e-01 4.450019e-01 4.331505e-01 -2.183798e-01 -2.056465e-01 -1.345226e-01 -2.322312e-01 -1.336704e-01 -2.208356e-03 1.441419e-01 1.639689e-01 -3.943923e-01
<VARIANCE> 39
 1.751846e+01 4.274113e+01 4.301167e+01 6.642676e+01 3.328172e+01 4.281263e+01 3.752563e+01 4.148193e+01 2.158524e+01 1.890005e+01 3.418669e+01 2.010170e+01 5.240493e+01 2.688292e+00 3.416092e+00 4.627281e+00 7.112531e+00 3.614693e+00 4.020445e+00 3.276511e+00 4.290195e+00 2.465257e+00 2.042831e+00 4.674142e+00 2.250945e+00 8.020798e+00 5.478055e-01 5.170042e-01 7.264385e-01 9.624267e-01 5.180653e-01 6.126199e-01 4.825477e-01 6.486453e-01 4.779117e-01 3.835486e-01 7.206951e-01 3.208556e-01 7.546567e-01
<GCONST> 1.270799e+02
<STATE> 3
<MEAN> 39
 -5.017128e+00 -9.975615e+00 1.153515e+01 -4.622196e+00 1.825594e+00 -1.118873e+00 -8.848398e+00 -1.159526e+01 -8.256351e+00 -3.128234e-01 2.571775e+00 -9.440475e+00 6.904737e+01 -2.384655e-01 3.946194e-01 7.699325e-01 6.346689e-01 2.005093e-02 -2.711233e-01 -5.331702e-01 -3.177553e-01 -1.864295e-01 1.529229e-01 4.512133e-02 5.591767e-02 -4.849996e-01 -1.915616e-02 -2.727558e-02 -1.886170e-01 -1.256820e-01 4.289016e-03 -1.162761e-01 1.084039e-01 1.609949e-01 1.993840e-01 -1.120738e-01 -2.703837e-01 1.757805e-02 5.980938e-02
<VARIANCE> 39
 5.951406e+00 2.554255e+01 3.794704e+01 6.391596e+01 3.987550e+01 4.386483e+01 3.705880e+01 4.320824e+01 3.481848e+01 3.373459e+01 3.373351e+01 1.411711e+01 3.389894e+01 5.222008e-01 2.592555e+00 4.230694e+00 6.646042e+00 3.216297e+00 2.539639e+00 2.930325e+00 5.185738e+00 3.352717e+00 2.930854e+00 2.885280e+00 1.480378e+00 3.604747e+00 9.885993e-02 3.928847e-01 6.674595e-01 1.128051e+00 6.260982e-01 4.077071e-01 6.123985e-01 8.940906e-01 5.560277e-01 5.689231e-01 5.721727e-01 2.921972e-01 5.354130e-01
<GCONST> 1.205140e+02
<STATE> 4
<MEAN> 39
 -5.620664e+00 -7.648831e+00 1.081686e+01 -1.582544e+00 2.480319e+00 -4.576624e+00 -8.064527e+00 -1.305483e+01 -5.274293e+00 -2.412605e+00 -1.486894e+00 -8.028645e+00 6.503633e+01 -2.277284e-01 7.311898e-01 -1.250377e-02 4.539417e-01 -1.161681e-01 -2.330756e-01 3.055909e-01 -1.651376e-01 2.735201e-01 -2.495895e-01 -3.749700e-01 1.448377e-01 -6.648308e-01 -8.734177e-02 -1.109940e-03 -2.256012e-01 -1.571523e-01 2.816124e-02 -2.451353e-03 2.093353e-01 2.250880e-01 1.009901e-01 -1.405410e-01 -1.385435e-05 -7.502776e-02 5.268558e-02
<VARIANCE> 39
 5.434300e+00 3.325517e+01 3.224865e+01 4.409207e+01 2.601982e+01 4.018866e+01 3.719497e+01 5.127136e+01 3.402480e+01 2.912198e+01 4.672300e+01 1.815797e+01 4.855359e+01 3.521747e-01 1.733825e+00 1.399785e+00 2.125410e+00 1.266291e+00 1.201570e+00 1.793670e+00 2.241910e+00 1.772301e+00 2.044311e+00 2.363752e+00 1.382661e+00 1.539348e+00 1.002747e-01 2.956342e-01 2.537373e-01 4.216476e-01 2.787742e-01 2.260612e-01 3.036352e-01 3.982321e-01 3.342862e-01 3.809105e-01 4.458403e-01 2.537788e-01 2.516554e-01
<GCONST> 1.052253e+02
<TRANSP> 5
 0.000000e+00 1.000000e+00 0.000000e+00 0.000000e+00 0.000000e+00
 0.000000e+00 6.549326e-01 3.450674e-01 0.000000e+00 0.000000e+00
 0.000000e+00 0.000000e+00 7.562214e-01 2.437786e-01 0.000000e+00
 0.000000e+00 0.000000e+00 0.000000e+00 8.595086e-01 1.404915e-01
 0.000000e+00 0.000000e+00 0.000000e+00 0.000000e+00 0.000000e+00
<ENDHMM>
~h "n"
<BEGINHMM>
<NUMSTATES> 5
<STATE> 2
<MEAN> 39
 -5.600554e+00 -1.276919e+01 1.113284e+01 -1.936903e+00 -6.607910e-01 -1.021933e+01 -3.926473e+00 -7.445908e+00 -4.710236e+00 -2.462224e+00 -9.983616e+00 -9.044285e+00 6.937832e+01 1.301691e-02 1.491828e+00 7.108395e-01 1.286417e+00 -5.343651e-01 -1.356288e-01 -3.525448e-01 -1.435149e+00 4.844642e-02 4.942937e-01 -3.006499e-01 4.086635e-02 -1.681566e+00 -8.219100e-02 -5.108434e-03 -1.067748e-01 -1.481870e-01 -6.975475e-02 4.206401e-02 3.536377e-02 3.474862e-02 -3.621731e-03 -1.608159e-01 1.644458e-01 7.599214e-02 6.539573e-02
<VARIANCE> 39
 5.896102e+00 3.217844e+01 3.176150e+01 3.715081e+01 4.778521e+01 3.126048e+01 3.286557e+01 5.043298e+01 3.004089e+01 3.529184e+01 3.321830e+01 1.702764e+01 4.272142e+01 3.796855e-01 2.230705e+00 2.450554e+00 3.032711e+00 2.345235e+00 2.002115e+00 1.243703e+00 3.100685e+00 1.824839e+00 3.046101e+00 2.201075e+00 1.442345e+00 2.352104e+00 7.117087e-02 3.712610e-01 3.071615e-01 4.225301e-01 2.905963e-01 2.758260e-01 1.792476e-01 5.333335e-01 2.986862e-01 5.367200e-01 3.535875e-01 2.342342e-01 3.792038e-01
<GCONST> 1.084007e+02
<STATE> 3
<MEAN> 39
 -7.055130e+00 -4.809912e+00 1.286454e+01 3.896124e+00 -3.111505e+00 -9.234630e+00 -4.815508e+00 -1.243202e+01 -3.706419e+00 -3.398530e+00 -8.924758e+00 -7.223748e+00 5.959747e+01 -4.786679e-01 7.570656e-01 -4.281703e-01 3.812528e-01 9.722422e-02 2.880111e-01 6.495404e-02 -4.061446e-01 4.234663e-02 -3.997177e-01 6.754356e-01 8.032880e-02 -9.834099e-01 -1.730694e-01 -2.948225e-01 -3.383745e-01 -3.720051e-01 3.500043e-01 8.811553e-02 1.646895e-01 3.978089e-01 -6.205458e-03 -1.972663e-01 2.275789e-01 -5.297437e-02 2.708286e-01
<VARIANCE> 39
 1.442825e+01 1.805318e+01 3.793592e+01 1.919621e+01 2.851760e+01 3.229950e+01 3.369903e+01 2.607203e+01 3.582381e+01 4.913762e+01 3.427809e+01 1.895867e+01 3.137436e+01 5.826104e-01 1.529524e+00 1.290099e+00 1.338172e+00 2.207305e+00 1.281122e+00 1.296005e+00 2.012051e+00 1.911074e+00 2.004396e+00 2.093427e+00 1.348416e+00 1.047283e+00 1.222631e-01 2.775899e-01 2.868327e-01 3.458403e-01 3.875158e-01 2.959589e-01 3.064846e-01 3.804517e-01 4.088402e-01 4.925965e-01 3.998075e-01 2.941312e-01 2.119963e-01
<GCONST> 1.043833e+02
<STATE> 4
<MEAN> 39
 -1.334805e+01 -3.614045e+00 4.952991e+00 3.385839e+00 -4.583231e-01 -4.880163e+00 -3.797891e+00 -8.933889e+00 -3.105717e+00 -5.496632e+00 -3.864892e+00 -6.990199e+00 5.093500e+01 -1.364680e+00 -3.268706e-01 -1.386829e+00 -9.053112e-01 4.533780e-01 4.045484e-01 6.605777e-01 9.620618e-01 5.198860e-01 -4.295353e-01 1.132923e+00 3.868815e-01 -6.233059e-01 2.737903e-02 -3.920282e-01 2.706853e-02 -5.755438e-01 -5.872037e-02 -2.634310e-01 -7.340287e-02 -1.737185e-02 3.934078e-02 6.187528e-02 -7.988570e-02 -5.337860e-03 5.902135e-01
<VARIANCE> 39
 4.907163e+01 3.416568e+01 6.958629e+01 2.948086e+01 3.395725e+01 4.602245e+01 2.833094e+01 4.332999e+01 2.919234e+01 3.936271e+01 2.916014e+01 2.217997e+01 1.567903e+02 1.930597e+00 3.796360e+00 2.481691e+00 4.639794e+00 3.280382e+00 4.251051e+00 2.603992e+00 3.419537e+00 3.134864e+00 4.070476e+00 3.281051e+00 2.425085e+00 6.779768e+00 3.710262e-01 7.664464e-01 3.264869e-01 7.590001e-01 5.172592e-01 7.196414e-01 3.859132e-01 7.441965e-01 4.808978e-01 6.699896e-01 5.489753e-01 4.851617e-01 1.216212e+00
<GCONST> 1.284119e+02
<TRANSP> 5
 0.000000e+00 1.000000e+00 0.000000e+00 0.000000e+00 0.000000e+00
 0.000000e+00 7.974312e-01 2.025688e-01 0.000000e+00 0.000000e+00
 0.000000e+00 0.000000e+00 7.672807e-01 2.327193e-01 0.000000e+00
 0.000000e+00 0.000000e+00 0.000000e+00 5.845671e-01 4.154329e-01
 0.000000e+00 0.000000e+00 0.000000e+00 0.000000e+00 0.000000e+00
<ENDHMM>
~h "o"
<BEGINHMM>
<NUMSTATES> 5
<STATE> 2
<MEAN> 39
 -1.794238e+01 -3.307912e+00 -2.331434e+00 9.598818e-01 -2.996504e+00 -1.480356e+00 -3.248473e+00 -3.603208e+00 -1.732978e+00 -1.504813e+00 -1.824899e-01 -4.359049e+00 4.214917e+01 -3.406427e-01 2.054586e-01 -4.616939e-01 -1.227086e-01 7.996391e-02 2.633552e-01 -2.773782e-01 -6.426675e-02 -9.566255e-02 -7.807308e-02 2.741129e-01 3.414652e-01 -6.405557e-01 4.263861e-01 -3.698587e-01 1.631922e-01 -5.944965e-01 2.750398e-01 -1.167219e-01 6.633376e-03 -3.325074e-01 -1.253883e-01 -2.007777e-01 -7.836314e-02 -2.466813e-01 1.041266e+00
<VARIANCE> 39
 8.247332e+01 3.690691e+01 7.770322e+01 5.871190e+01 2.910468e+01 5.863523e+01 1.628173e+01 4.015591e+01 2.411852e+01 2.420000e+01 2.220382e+01 3.884964e+01 3.681746e+02 1.411386e+00 1.486874e+00 1.135703e+00 2.347494e+00 1.851012e+00 2.994154e+00 1.252942e+00 3.065772e+00 1.906266e+00 1.984052e+00 1.891504e+00 1.805616e+00 4.237729e+00 5.673579e-01 3.485944e-01 3.022512e-01 8.316888e-01 4.313803e-01 4.272375e-01 2.909940e-01 6.613644e-01 3.177129e-01 6.414428e-01 3.436822e-01 4.693094e-01 1.260002e+00
<GCONST> 1.203446e+02
<STATE> 3
<MEAN> 39
 -2.037629e+01 -1.364524e+00 -5.795963e+00 1.211652e+00 -4.398166e+00 1.321851e+00 -4.389978e+00 -1.552611e+00 -1.453650e+00 -1.543451e+00 7.479668e-01 -2.864115e+00 3.544747e+01 1.969117e+00 -1.540671e+00 2.689017e-01 -2.462905e+00 1.494705e+00 -5.777572e-01 -2.577273e-01 -1.482458e+00 -9.271643e-01 -7.573889e-01 -2.169984e-01 -8.891651e-01 4.096972e+00 1.013217e+00 -5.269839e-01 5.535623e-01 -1.000660e+00 6.403995e-01 -2.671208e-02 4.902325e-02 -4.005729e-01 -4.421660e-01 -3.484085e-02 -2.369633e-01 -4.321954e-01 1.838344e+00
<VARIANCE> 39
 7.900893e+01 3.282138e+01 8.543629e+01 4.576392e+01 2.488367e+01 4.810147e+01 1.975515e+01 3.628814e+01 2.646852e+01 1.498138e+01 1.283262e+01 2.361462e+01 3.706717e+02 5.365016e+00 2.889091e+00 2.131931e+00 5.159080e+00 4.020246e+00 2.356131e+00 2.838059e+00 3.016505e+00 2.994031e+00 2.440795e+00 1.821752e+00 2.598171e+00 1.409582e+01 6.178917e-01 4.140506e-01 2.848079e-01 1.021473e+00 3.642050e-01 3.334779e-01 6.175384e-01 3.809898e-01 3.718700e-01 5.100818e-01 3.885200e-01 2.947829e-01 1.200574e+00
<GCONST> 1.250074e+02
<STATE> 4
<MEAN> 39
 -5.551967e+00 -5.961174e+00 -3.045968e-01 -1.507481e+01 7.852122e+00 1.615925e+00 -1.794446e+00 -7.401468e+00 -9.938883e+00 -9.811821e-01 7.586819e-01 -5.974441e+00 6.014642e+01 5.556047e-01 1.138419e-01 6.428986e-01 -4.868478e-02 5.273007e-01 -1.600128e-02 2.883602e-01 -4.151277e-01 -4.190441e-01 3.589246e-02 -8.624883e-02 -1.596895e-01 9.001319e-01 -4.329478e-01 1.242486e-01 -1.390492e-01 4.409591e-01 -3.331564e-01 -2.336334e-02 -2.819566e-03 1.745877e-01 2.822006e-01 -3.003820e-02 -3.014119e-02 6.051458e-02 -6.954315e-01
<VARIANCE> 39
 3.096347e+01 2.531616e+01 3.087779e+01 9.067927e+01 4.444123e+01 2.281741e+01 3.947786e+01 1.901947e+01 3.263861e+01 3.089658e+01 2.006361e+01 1.462578e+01 1.145627e+02 6.579205e+00 3.309048e+00 2.792679e+00 1.216815e+01 4.853716e+00 1.666009e+00 1.843603e+00 2.014747e+00 4.550704e+00 2.908147e+00 1.939753e+00 1.616293e+00 2.070213e+01 4.531274e-01 5.090681e-01 3.543903e-01 1.093856e+00 4.911001e-01 3.690786e-01 3.361042e-01 2.499577e-01 6.745648e-01 5.261675e-01 3.408965e-01 2.640122e-01 1.293147e+00
<GCONST> 1.241395e+02
<TRANSP> 5
 0.000000e+00 1.000000e+00 0.000000e+00 0.000000e+00 0.000000e+00
 0.000000e+00 3.118699e-01 6.881301e-01 0.000000e+00 0.000000e+00
 0.000000e+00 0.000000e+00 3.732247e-01 6.267753e-01 0.000000e+00
 0.000000e+00 0.000000e+00 0.000000e+00 8.570111e-01 1.429889e-01
 0.000000e+00 0.000000e+00 0.000000e+00 0.000000e+00 0.000000e+00
<ENDHMM>
~h "p"
<BEGINHMM>
<NUMSTATES> 5
<STATE> 2
<MEAN> 39
 -6.503961e+00 -3.802276e+00 4.455472e+00 -1.289182e+01 3.435342e+00 -4.064476e+00 -3.830689e+00 -8.406500e+00 -8.783051e+00 -3.179558e+00 -8.815196e-02 -6.371881e+00 6.413042e+01 -1.308874e+00 1.212882e+00 6.049654e-02 3.946858e+00 -4.315138e-01 -2.817425e-02 5.304736e-01 4.302429e-02 1.679499e+00 -1.200878e+00 1.527933e-01 -4.211351e-03 -3.783549e+00 -4.992415e-01 -2.586598e-01 -1.481852e-01 -9.168589e-02 -4.457655e-01 -5.434533e-01 4.092403e-02 -5.754106e-02 1.270585e-01 -8.083129e-02 -1.193758e-02 2.139060e-01 -2.493484e-01
<VARIANCE> 39
 3.910939e+01 3.825056e+01 1.035452e+01 7.894239e+01 1.999976e+01 2.658922e+01 4.195732e+01 2.392150e+01 5.479296e+01 1.777938e+01 1.872989e+01 1.888139e+01 4.752290e+01 3.660242e+00 3.718837e+00 1.515673e+00 5.551990e+00 2.191303e+00 3.287638e+00 1.852608e+00 1.833518e+00 5.312489e+00 2.425462e+00 1.348138e+00 1.325739e+00 7.228215e+00 1.151022e+00 4.617216e-01 4.819922e-01 1.270442e+00 6.064845e-01 2.370666e-01 4.708154e-01 2.616488e-01 1.005108e+00 5.751878e-01 2.341834e-01 2.473494e-01 1.267586e+00
<GCONST> 1.202303e+02
<STATE> 3
<MEAN> 39
 -7.044369e+00 -6.415524e-01 5.278230e+00 -6.088247e+00 3.292903e+00 -2.873735e+00 -2.949569e+00 -7.418833e+00 -7.485838e+00 -4.350126e+00 -1.421261e-01 -6.236697e+00 5.849826e+01 -2.030262e+00 8.559952e-01 -7.790237e-01 3.477201e+00 -1.326722e+00 -6.912594e-01 4.411494e-01 -3.446038e-01 1.827959e+00 -1.013140e+00 1.994737e-01 3.474521e-01 -4.476143e+00 -5.373526e-01 -8.464090e-01 -3.648795e-01 -1.141185e+00 -4.701849e-01 -6.806295e-01 -1.389578e-01 -1.011148e-01 -2.696878e-02 4.987890e-02 -1.907703e-02 1.009366e-01 6.666059e-01
<VARIANCE> 39
 8.287333e+00 3.562479e+01 1.607395e+01 7.644281e+01 2.862706e+01 3.680454e+01 3.000576e+01 3.122277e+01 4.273886e+01 1.861029e+01 2.336020e+01 1.258386e+01 3.792969e+01 2.159963e+00 2.512946e+00 2.203635e+00 5.850052e+00 2.726992e+00 1.419201e+00 1.721174e+00 1.545232e+00 3.848432e+00 1.684924e+00 1.471541e+00 1.281133e+00 5.406675e+00 2.906003e-01 3.394240e-01 2.095810e-01 9.139309e-01 4.563971e-01 4.035654e-01 3.572960e-01 4.625309e-01 6.564405e-01 4.088034e-01 3.012940e-01 2.523099e-01 7.017014e-01
<GCONST> 1.133424e+02
<STATE> 4
<MEAN> 39
 -1.576964e+01 -2.593159e+00 -9.573624e-01 -3.613307e+00 -2.106879e+00 -5.083177e+00 -3.639033e+00 -7.679094e+00 -2.993919e+00 -4.994141e+00 8.648167e-01 -4.527012e+00 4.812706e+01 -1.525271e+00 -9.238883e-01 -3.649164e-01 3.293321e-01 -5.222084e-01 -8.540983e-01 1.257690e-01 -2.654625e-01 8.658662e-01 -5.852013e-01 1.512141e-01 -4.430188e-01 -2.906169e-01 3.488210e-01 -2.635757e-01 3.410740e-01 -4.376559e-01 4.870378e-01 8.541375e-02 4.231281e-02 5.795997e-03 -2.788486e-01 2.606277e-02 -3.933020e-02 -1.878520e-01 1.066257e+00
<VARIANCE> 39
 2.864998e+01 2.936736e+01 3.395008e+01 4.171411e+01 1.899571e+01 4.038391e+01 1.719024e+01 4.479232e+01 2.576537e+01 2.630664e+01 2.103956e+01 2.722534e+01 1.238190e+02 3.655457e+00 3.410810e+00 3.774258e+00 4.124846e+00 3.998165e+00 4.182418e+00 2.205975e+00 5.713840e+00 4.789797e+00 4.168118e+00 2.368177e+00 3.085249e+00 1.178949e+01 6.252237e-01 7.309986e-01 6.538477e-01 9.231361e-01 6.663924e-01 7.882566e-01 4.716463e-01 1.006850e+00 6.446677e-01 8.026626e-01 3.672632e-01 5.539092e-01 1.673636e+00
<GCONST> 1.303017e+02
<TRANSP> 5
 0.000000e+00 1.000000e+00 0.000000e+00 0.000000e+00 0.000000e+00
 0.000000e+00 3.514276e-01 6.485724e-01 0.000000e+00 0.000000e+00
 0.000000e+00 0.000000e+00 2.189269e-01 7.810731e-01 0.000000e+00
 0.000000e+00 0.000000e+00 0.000000e+00 8.002155e-01 1.997845e-01
 0.000000e+00 0.000000e+00 0.000000e+00 0.000000e+00 0.000000e+00
<ENDHMM>
~h "r"
<BEGINHMM>
<NUMSTATES> 5
<STATE> 2
<MEAN> 39
 -4.791465e+00 -1.626737e+01 2.999121e+00 -5.613840e+00 4.169261e+00 -1.071556e+01 -2.108123e+00 -8.459188e+00 -1.019139e+00 1.603128e+00 -4.365200e+00 -1.184585e+01 7.609744e+01 -6.950556e-01 9.180772e-01 -4.357404e-01 1.671051e+00 -4.115352e-02 -5.113068e-01 1.174867e+00 -1.094060e+00 1.182257e+00 -1.363921e+00 6.710865e-01 2.746116e-01 -9.847634e-01 -2.944594e-01 1.879586e-01 2.058844e-01 3.147746e-02 -4.863480e-02 -6.469827e-02 -4.812004e-02 7.692837e-02 -1.403448e-02 -3.837074e-01 2.358045e-01 2.034425e-02 -2.708809e-01
<VARIANCE> 39
 7.045089e+00 3.037090e+01 2.697376e+01 5.067665e+01 4.663902e+01 2.983573e+01 4.724516e+01 4.996518e+01 1.946967e+01 2.314797e+01 1.829091e+01 1.899842e+01 1.688689e+01 1.556416e+00 1.976429e+00 2.588935e+00 2.731400e+00 2.867055e+00 2.103689e+00 2.516415e+00 2.641307e+00 2.819558e+00 4.223017e+00 2.038294e+00 1.445773e+00 1.778415e+00 2.513643e-01 3.612787e-01 4.701410e-01 4.765107e-01 4.503427e-01 2.541120e-01 3.843414e-01 4.870303e-01 3.964600e-01 5.412661e-01 3.413066e-01 2.294701e-01 2.636693e-01
<GCONST> 1.118033e+02
<STATE> 3
<MEAN> 39
 -1.064658e+01 -9.781217e+00 3.678080e+00 7.233626e-01 2.779681e+00 -1.460289e+01 8.560777e-02 -1.183837e+01 1.728304e+00 -8.317953e+00 9.564018e-02 -1.056263e+01 6.925352e+01 -6.410718e-01 4.266048e-01 5.158513e-01 4.364349e-01 -1.479870e-01 -2.461012e-01 1.324028e-02 1.019609e-01 -5.438671e-01 -8.760773e-01 -2.698156e-01 -6.886679e-02 -1.109355e+00 3.142868e-01 -1.538604e-01 4.780228e-02 -2.197232e-01 -5.903866e-02 2.410618e-01 -3.352687e-01 1.507737e-01 -4.427155e-01 6.515288e-01 -3.114284e-01 -2.251393e-02 7.358788e-02
<VARIANCE> 39
 2.332772e+01 2.648181e+01 1.582917e+01 2.059250e+01 2.194357e+01 2.225822e+01 2.368442e+01 4.237617e+01 3.202701e+01 4.259946e+01 2.779920e+01 3.566052e+01 2.530463e+01 3.028254e+00 2.610714e+00 1.661742e+00 1.724213e+00 2.412455e+00 1.548809e+00 2.135003e+00 2.213614e+00 2.264373e+00 4.797185e+00 2.248358e+00 1.531228e+00 1.361155e+00 5.859478e-01 4.639125e-01 4.937292e-01 4.648351e-01 5.453495e-01 3.840694e-01 3.671584e-01 4.334848e-01 6.514397e-01 9.373282e-01 4.751278e-01 3.850407e-01 2.869619e-01
<GCONST> 1.146467e+02
<STATE> 4
<MEAN> 39
 -1.214816e+01 -1.016548e+01 2.389983e+00 2.363043e+00 1.811201e+00 -1.117252e+01 -1.817389e+00 -9.671639e+00 -1.409871e+00 -6.257831e+00 -2.829809e+00 -8.528743e+00 6.144022e+01 -1.728111e-01 3.235895e-01 -3.095090e-01 2.639790e-02 -3.067410e-01 7.430434e-01 -3.636115e-01 1.614559e-01 -2.728830e-01 6.820577e-01 -2.028738e-01 2.936836e-01 -1.504677e+00 -6.391739e-03 1.340962e-02 1.400899e-02 -2.082396e-01 3.144107e-02 1.436338e-03 3.652245e-02 -4.209209e-02 1.189799e-01 1.048888e-01 3.310709e-02 4.610895e-02 1.456121e-01
<VARIANCE> 39
 5.822533e+01 2.726228e+01 2.046246e+01 4.685218e+01 2.229008e+01 3.346027e+01 6.499439e+01 3.440995e+01 3.028685e+01 5.475219e+01 4.333899e+01 2.148587e+01 7.680814e+01 2.690636e+00 2.626101e+00 2.275679e+00 3.246087e+00 2.456068e+00 2.765280e+00 2.685421e+00 2.309984e+00 4.207701e+00 3.131294e+00 2.158490e+00 1.589397e+00 3.640329e+00 4.348565e-01 5.488050e-01 3.192567e-01 5.456825e-01 4.907300e-01 3.849090e-01 4.692062e-01 4.331411e-01 6.822714e-01 5.786148e-01 4.461414e-01 2.744480e-01 7.179248e-01
<GCONST> 1.218289e+02
<TRANSP> 5
 0.000000e+00 1.000000e+00 0.000000e+00 0.000000e+00 0.000000e+00
 0.000000e+00 7.668859e-01 2.331140e-01 0.000000e+00 0.000000e+00
 0.000000e+00 0.000000e+00 7.592283e-01 2.407717e-01 0.000000e+00
 0.000000e+00 0.000000e+00 0.000000e+00 7.481732e-01 2.518269e-01
 0.000000e+00 0.000000e+00 0.000000e+00 0.000000e+00 0.000000e+00
<ENDHMM>
~h "s"
<BEGINHMM>
<NUMSTATES> 5
<STATE> 2
<MEAN> 39
 -2.566617e+01 -5.441045e+00 4.573995e+00 -3.509819e+00 8.468092e+00 -1.315573e+01 3.814592e+00 -9.583817e+00 6.370353e-01 -1.141173e+01 -1.718367e-01 -7.955420e+00 6.905370e+01 -2.874907e+00 -4.527733e-03 -8.047934e-01 5.597170e-01 4.445094e-01 3.702605e-01 1.284597e+00 -4.603259e-02 1.063110e+00 -5.818430e-01 1.896937e+00 8.537339e-01 -7.263309e-01 6.139320e-01 -5.303506e-01 -1.617441e-01 -3.786933e-01 -1.788056e-01 6.075846e-02 -4.544922e-01 2.319378e-01 -1.992434e-01 6.002054e-01 -2.264495e-01 7.422896e-02 2.557224e-02
<VARIANCE> 39
 5.892128e+01 1.235389e+01 1.499318e+01 1.965721e+01 3.915674e+01 2.744093e+01 4.155686e+01 2.310946e+01 1.721800e+01 3.000159e+01 6.058449e+01 3.780539e+01 1.442251e+01 6.212505e+00 3.441022e+00 1.357287e+00 2.844134e+00 1.859204e+00 1.520272e+00 3.950429e+00 3.880810e+00 2.247834e+00 5.761085e+00 4.072008e+00 3.682142e+00 5.187321e-01 9.279326e-01 5.304886e-01 3.141504e-01 5.214717e-01 3.684291e-01 3.427146e-01 6.589574e-01 5.674151e-01 3.742047e-01 1.055873e+00 9.039940e-01 8.208694e-01 1.083005e-01
<GCONST> 1.182266e+02
<STATE> 3
<MEAN> 39
 -2.884061e+01 -1.044006e+01 6.850464e-01 -3.091926e+00 7.483683e+00 -1.112068e+01 5.146545e+00 -7.766723e+00 2.679456e+00 -9.339952e+00 1.673295e+00 -6.595408e+00 6.327701e+01 1.346382e+00 -9.094301e-02 -4.184166e-02 3.895114e-01 -9.745748e-01 -2.634689e-01 -8.534217e-01 -2.405021e-01 -1.620948e-01 3.903495e-01 -7.085910e-01 -4.187701e-01 -1.472697e+00 6.302478e-01 3.623840e-01 2.565014e-01 8.683282e-02 -1.774405e-01 -1.211658e-01 -3.044508e-01 -4.068132e-02 -3.518360e-01 5.973728e-02 -2.029200e-01 -1.016656e-01 -1.106610e-01
<VARIANCE> 39
 1.869743e+01 1.033254e+01 1.088816e+01 2.613025e+01 5.126727e+01 2.552117e+01 1.810809e+01 2.605741e+01 2.165039e+01 2.616670e+01 1.489473e+01 1.811807e+01 3.181153e+01 2.549963e+00 1.832449e+00 1.584339e+00 1.860938e+00 2.965861e+00 2.247588e+00 2.218875e+00 2.040890e+00 2.051438e+00 2.201609e+00 1.569687e+00 1.619832e+00 1.794918e+00 3.901664e-01 2.641560e-01 3.793530e-01 4.362010e-01 6.027465e-01 4.270501e-01 3.814970e-01 4.377238e-01 5.338973e-01 4.127435e-01 3.958533e-01 4.132096e-01 3.382450e-01
<GCONST> 1.087532e+02
<STATE> 4
<MEAN> 39
 -1.658191e+01 -5.578316e+00 3.069477e+00 4.614403e-01 1.706013e+00 -1.223961e+01 -2.993467e+00 -9.398527e+00 -5.001740e-01 -6.368251e+00 -1.898607e+00 -8.700735e+00 5.685237e+01 1.996854e+00 1.279949e-01 2.963155e-01 -3.007924e-01 -1.002761e+00 2.870415e-01 -7.193369e-01 2.985932e-01 -7.358422e-01 6.615083e-01 -1.706580e-01 2.560769e-01 3.369644e-02 -2.523219e-01 -4.393719e-01 3.910504e-03 -4.441412e-01 1.076448e-01 1.108855e-01 1.747863e-01 1.390718e-01 -5.918858e-02 -5.859775e-03 2.360846e-01 2.251095e-01 6.961045e-01
<VARIANCE> 39
 5.862409e+01 4.105600e+01 4.747878e+01 4.242451e+01 5.207837e+01 5.272221e+01 2.350477e+01 5.061983e+01 3.654057e+01 3.198457e+01 2.130243e+01 2.063594e+01 1.248889e+02 5.296896e+00 7.847890e+00 4.751600e+00 4.897758e+00 4.693334e+00 3.749966e+00 2.296635e+00 3.667783e+00 3.606815e+00 2.690350e+00 2.785376e+00 2.588701e+00 9.034030e+00 5.680205e-01 1.570287e+00 5.807361e-01 7.741171e-01 6.334503e-01 5.193409e-01 5.108272e-01 9.454166e-01 7.388883e-01 5.916265e-01 6.007765e-01 4.587825e-01 1.274125e+00
<GCONST> 1.337428e+02
<TRANSP> 5
 0.000000e+00 1.000000e+00 0.000000e+00 0.000000e+00 0.000000e+00
 0.000000e+00 8.273148e-01 1.726852e-01 0.000000e+00 0.000000e+00
 0.000000e+00 0.000000e+00 7.819734e-01 2.180266e-01 0.000000e+00
 0.000000e+00 0.000000e+00 0.000000e+00 6.585506e-01 3.414494e-01
 0.000000e+00 0.000000e+00 0.000000e+00 0.000000e+00 0.000000e+00
<ENDHMM>
~h "t"
<BEGINHMM>
<NUMSTATES> 5
<STATE> 2
<MEAN> 39
 -4.881494e+00 -1.321273e+01 5.538139e+00 -1.318722e+01 5.364063e+00 -7.360631e+00 -6.726778e+00 -8.876875e+00 -2.433585e+00 1.518979e+00 -4.136143e+00 -9.051341e+00 7.295789e+01 -7.146715e-02 4.149642e-01 2.174417e-01 1.932634e-01 3.534466e-01 5.356351e-02 -1.529749e-01 1.948896e-01 3.581631e-01 1.223343e-01 -1.536567e-01 -3.895571e-02 -4.720812e-01 -2.258770e-01 3.061854e-01 -7.956816e-02 4.186920e-01 -7.035010e-02 7.833046e-02 1.812796e-01 -4.284343e-02 4.117962e-02 -1.984121e-01 1.698676e-01 4.253516e-02 -4.991949e-01
<VARIANCE> 39
 1.645772e+01 4.422309e+01 1.630094e+01 7.234080e+01 2.374295e+01 4.476569e+01 2.425515e+01 7.092581e+01 5.451233e+01 3.194724e+01 5.640078e+01 1.706633e+01 5.907731e+01 1.470490e+00 5.657546e+00 2.139899e+00 9.146853e+00 3.401996e+00 3.862160e+00 2.074914e+00 5.419399e+00 3.573828e+00 4.507363e+00 3.825269e+00 2.587590e+00 8.495554e+00 3.166738e-01 1.108641e+00 3.995603e-01 1.817958e+00 5.992053e-01 6.050130e-01 4.359587e-01 8.104951e-01 7.292617e-01 9.770029e-01 7.545332e-01 4.997478e-01 1.780117e+00
<GCONST> 1.313103e+02
<STATE> 3
<MEAN> 39
 -9.814138e+00 -9.567132e+00 3.875201e+00 -3.988860e+00 1.915766e+00 -9.112295e+00 -3.783345e+00 -3.009988e+00 2.391467e+00 -1.535702e+00 -7.383059e+00 -8.809783e+00 6.148190e+01 -1.620530e+00 1.147683e+00 -1.512007e+00 1.346778e+00 -9.744152e-01 5.848822e-01 3.437295e-01 -2.016951e-01 8.757281e-01 -6.515074e-01 7.014163e-01 1.090374e-01 -3.602619e+00 -2.646783e-01 -4.099106e-01 -1.327153e-01 -4.920251e-01 -1.179439e-01 -2.244177e-01 1.252555e-01 -2.859721e-01 -9.805900e-02 -1.888973e-01 2.095938e-01 1.089459e-01 6.027459e-01
<VARIANCE> 39
 1.614954e+01 2.193719e+01 3.033207e+01 3.266953e+01 3.325923e+01 2.986355e+01 2.013843e+01 2.789011e+01 2.890688e+01 2.885175e+01 2.865580e+01 2.093278e+01 7.690862e+01 8.441120e-01 3.243212e+00 1.413422e+00 4.426401e+00 2.475447e+00 2.383848e+00 1.487847e+00 1.914567e+00 2.250846e+00 1.894648e+00 2.214669e+00 2.062888e+00 4.808724e+00 1.908400e-01 4.732038e-01 5.525137e-01 7.619439e-01 7.155076e-01 5.501871e-01 2.784000e-01 4.952604e-01 5.680957e-01 3.953067e-01 4.761821e-01 4.367457e-01 1.337502e+00
<GCONST> 1.163895e+02
<STATE> 4
<MEAN> 39
 -1.611448e+01 -7.696295e+00 2.960714e+00 -4.231128e+00 7.062905e-01 -1.011973e+01 -5.774828e-01 -8.209555e+00 8.745135e-01 -6.031419e+00 -1.738840e+00 -7.404619e+00 6.022290e+01 -1.881211e-01 -1.109036e-01 1.001115e+00 -4.374428e-01 6.165388e-02 -3.114785e-01 1.113640e-01 -8.884320e-01 -9.703782e-01 -3.336183e-01 5.083808e-01 2.037791e-01 1.187820e+00 4.761138e-01 -1.582591e-01 3.887071e-01 -1.508762e-01 5.309857e-02 1.485607e-01 -1.198062e-01 2.475020e-01 -2.242506e-01 3.176665e-01 -2.054981e-01 -1.067947e-01 4.778647e-01
<VARIANCE> 39
 4.825360e+01 2.834945e+01 4.755461e+01 2.881565e+01 4.571764e+01 3.001381e+01 4.629372e+01 4.170850e+01 4.973290e+01 3.392580e+01 3.872116e+01 2.035051e+01 6.752618e+01 7.540570e+00 3.735322e+00 5.017595e+00 2.877008e+00 3.678287e+00 4.072792e+00 4.133949e+00 6.584800e+00 4.526871e+00 3.126062e+00 4.880600e+00 1.929267e+00 5.387236e+00 8.876719e-01 7.997962e-01 8.221368e-01 5.905315e-01 8.839877e-01 8.384297e-01 7.395107e-01 1.190335e+00 8.317533e-01 5.821974e-01 8.303646e-01 4.096164e-01 8.906935e-01
<GCONST> 1.344071e+02
<TRANSP> 5
 0.000000e+00 1.000000e+00 0.000000e+00 0.000000e+00 0.000000e+00
 0.000000e+00 7.863724e-01 2.136276e-01 0.000000e+00 0.000000e+00
 0.000000e+00 0.000000e+00 7.760751e-01 2.239249e-01 0.000000e+00
 0.000000e+00 0.000000e+00 0.000000e+00 7.729790e-01 2.270210e-01
 0.000000e+00 0.000000e+00 0.000000e+00 0.000000e+00 0.000000e+00
<ENDHMM>
~h "u"
<BEGINHMM>
<NUMSTATES> 5
<STATE> 2
<MEAN> 39
 -4.989581e+00 -1.075497e+01 2.064688e+00 -1.590126e+01 4.609886e+00 -2.340482e+00 -5.628792e+00 -7.581613e+00 -8.436487e+00 1.258427e+00 -4.943419e-01 -9.844082e+00 6.668524e+01 1.799204e+00 -6.822635e-01 1.339111e+00 -1.727236e+00 5.511793e-01 1.294442e+00 -7.051343e-01 -2.792509e-01 -1.430191e+00 1.163936e+00 2.098657e-01 7.757440e-02 2.240222e+00 -4.402454e-01 2.459325e-01 -1.354572e-01 7.748442e-01 -3.799120e-01 2.386501e-01 4.524716e-02 -2.663963e-02 3.489152e-01 -1.923726e-01 1.558647e-03 2.782885e-01 -8.301603e-01
<VARIANCE> 39
 1.880555e+01 7.783733e+01 2.161145e+01 5.945179e+01 5.547627e+01 2.951919e+01 3.761549e+01 3.233336e+01 5.084190e+01 2.073819e+01 1.982377e+01 2.222139e+01 1.596052e+02 4.951430e+00 2.695874e+00 2.740376e+00 3.884978e+00 3.886391e+00 3.514751e+00 2.701752e+00 2.555860e+00 5.497315e+00 2.098059e+00 2.040640e+00 2.622353e+00 9.080842e+00 4.825303e-01 5.543392e-01 3.907284e-01 9.401608e-01 4.962753e-01 5.779490e-01 6.122809e-01 5.141969e-01 1.100814e+00 4.146422e-01 5.051448e-01 3.897731e-01 6.690615e-01
<GCONST> 1.270463e+02
<STATE> 3
<MEAN> 39
 -2.883148e+00 -1.591636e+01 5.300097e+00 -1.948870e+01 3.410578e+00 2.409970e+00 -4.023409e+00 -1.107050e+01 -5.952955e+00 2.546241e+00 -8.552034e-01 -8.295269e+00 7.392066e+01 3.209285e-01 7.773900e-02 5.258136e-01 -7.678109e-02 -1.163751e+00 1.239960e+00 -1.147185e-02 -7.088698e-01 3.087647e-01 -7.008944e-02 4.376415e-01 9.664545e-01 2.183961e-01 -2.239877e-01 3.055598e-01 -2.198376e-01 4.725426e-01 4.915237e-03 -2.919430e-01 -3.145785e-02 8.373097e-02 9.567139e-02 -3.370750e-01 3.577958e-02 -1.114976e-01 -3.367749e-01
<VARIANCE> 39
 5.540678e+00 2.908980e+01 1.678295e+01 2.489541e+01 8.311931e+01 3.573594e+01 3.589589e+01 3.580142e+01 2.467340e+01 1.457931e+01 1.820709e+01 1.949510e+01 2.927540e+01 7.549866e-01 2.062773e+00 1.053936e+00 3.794030e+00 5.893841e+00 1.963008e+00 1.533876e+00 2.779344e+00 2.415522e+00 1.932552e+00 1.632457e+00 2.637381e+00 1.782946e+00 2.090571e-01 2.478734e-01 2.014602e-01 8.017566e-01 1.287863e+00 3.133643e-01 3.220143e-01 4.379707e-01 5.309784e-01 3.702989e-01 4.257509e-01 4.612257e-01 4.263698e-01
<GCONST> 1.106342e+02
<STATE> 4
<MEAN> 39
 -2.790209e+00 -1.325987e+01 4.038499e+00 -2.092757e+01 2.246388e+00 5.295965e+00 -5.756362e+00 -8.107836e+00 -6.710565e+00 -2.699078e-01 2.109699e+00 -7.980655e+00 7.414685e+01 -6.292930e-02 4.789714e-01 -2.601074e-02 5.271969e-01 4.540787e-02 -2.171499e-01 -8.663299e-02 6.197201e-02 2.074530e-02 -7.954593e-02 -1.306906e-04 -5.524081e-02 -3.093957e-01 -7.500502e-02 4.423148e-02 -1.336610e-03 2.721156e-01 1.793868e-02 -1.685874e-01 6.466441e-02 -3.790046e-02 9.958463e-02 -3.849001e-02 -1.011026e-01 -6.022190e-02 -1.553156e-01
<VARIANCE> 39
 5.491957e+00 3.226134e+01 1.394914e+01 4.293533e+01 3.313802e+01 2.981499e+01 3.268765e+01 3.243791e+01 2.167111e+01 3.304862e+01 2.464306e+01 1.750330e+01 1.617818e+01 3.882235e-01 1.595405e+00 7.551503e-01 3.774390e+00 2.783102e+00 1.573721e+00 1.234591e+00 2.170044e+00 1.654616e+00 1.333223e+00 1.574307e+00 1.310452e+00 1.678085e+00 1.172785e-01 2.278750e-01 1.433159e-01 4.652574e-01 4.568870e-01 2.493154e-01 2.479620e-01 3.698965e-01 2.856185e-01 3.185301e-01 3.094890e-01 2.511873e-01 2.306381e-01
<GCONST> 1.002900e+02
<TRANSP> 5
 0.000000e+00 1.000000e+00 0.000000e+00 0.000000e+00 0.000000e+00
 0.000000e+00 2.920780e-01 7.079220e-01 0.000000e+00 0.000000e+00
 0.000000e+00 0.000000e+00 5.204521e-01 4.795479e-01 0.000000e+00
 0.000000e+00 0.000000e+00 0.000000e+00 9.101865e-01 8.981352e-02
 0.000000e+00 0.000000e+00 0.000000e+00 0.000000e+00 0.000000e+00
<ENDHMM>
~h "ah"
<BEGINHMM>
<NUMSTATES> 5
<STATE> 2
<MEAN> 39
 -3.242606e+00 4.907040e+00 4.612100e+00 -2.434045e+01 3.771944e-01 -3.181374e+00 -5.266341e+00 -1.370862e+00 -1.170190e+01 -9.824934e+00 2.162427e+00 -8.970494e+00 7.010810e+01 -1.325174e-01 -1.023138e+00 -5.279021e-01 -8.534093e-01 7.839258e-01 1.195174e+00 -3.287372e-01 -1.048402e+00 -4.944732e-01 1.281088e+00 9.401053e-01 4.309855e-01 1.046970e+00 -1.162820e-01 -4.589305e-01 -3.057965e-02 3.327830e-01 1.744752e-01 4.710438e-02 -2.774097e-03 -2.649876e-01 3.013173e-01 4.867573e-01 -6.004444e-02 -6.573793e-02 7.853349e-02
<VARIANCE> 39
 2.073388e+00 2.502272e+01 1.106732e+01 1.137050e+01 9.537140e+00 2.232032e+01 2.829123e+00 1.395474e+01 4.520871e+00 1.733715e+01 7.533594e+00 7.916420e+00 5.857240e+00 1.175762e-01 2.123098e+00 1.374576e-01 6.355659e-01 8.569145e-01 1.152419e+00 3.531161e-01 8.123139e-01 5.249750e-01 3.523006e+00 3.220181e-01 1.103843e+00 4.355554e-01 2.751575e-02 1.117361e-01 4.625868e-02 9.528352e-02 1.804236e-01 3.442329e-01 8.883967e-02 1.471544e-01 2.251888e-01 4.392823e-01 2.268778e-01 4.613028e-01 7.256193e-02
<GCONST> 6.785892e+01
<STATE> 3
<MEAN> 39
 -5.778648e+00 -1.034897e+01 1.482942e+00 -2.193631e+01 7.995107e+00 -1.418868e+00 -5.691952e+00 -5.449049e+00 -7.006172e+00 5.520476e+00 -1.475528e+00 -9.647937e+00 7.917732e+01 -5.299841e-01 -2.105565e+00 2.659016e-01 1.247756e+00 1.003309e+00 -1.836654e+00 1.145857e+00 8.653834e-01 1.278688e+00 8.817990e-01 -2.634025e+00 -7.562342e-01 9.742272e-01 4.026584e-02 3.797768e-01 3.041301e-01 1.343107e-01 -3.094905e-01 -3.091246e-01 3.851566e-01 3.343189e-01 -1.335326e-01 -9.350013e-01 -3.179242e-01 2.382488e-01 -3.839838e-01
<VARIANCE> 39
 4.291308e+00 2.598377e+01 6.443124e+00 1.010139e+01 3.849722e+00 1.958046e+01 7.570071e+00 2.004253e+01 2.467865e+01 9.713925e+00 7.619183e+01 1.160291e+01 7.207307e+00 2.945606e-01 1.683177e+00 7.715185e-01 4.717920e-01 4.526088e-01 6.617441e-01 8.400759e-01 1.615211e+00 2.076840e+00 5.691220e+00 3.438775e+00 2.104047e+00 6.680530e-01 6.559134e-02 8.390042e-02 1.224470e-01 9.372365e-02 3.925689e-02 4.121048e-01 8.765715e-02 5.138751e-01 6.268253e-01 2.791883e-01 1.125442e+00 5.550300e-01 7.696051e-02
<GCONST> 8.391135e+01
<STATE> 4
<MEAN> 39
 -5.727565e+00 -1.544868e+01 3.698185e+00 -1.261626e+01 1.009209e+01 -4.692979e+00 -4.842300e+00 -5.846816e+00 -2.368724e+00 -4.827523e+00 -7.020638e+00 -8.657557e+00 7.469993e+01 -1.680307e-01 1.291924e-01 7.629357e-02 6.025649e-01 -2.214529e-01 -3.213159e-01 8.624063e-02 -1.982158e-01 2.835303e-01 -5.036391e-01 -3.275324e-01 2.085383e-01 -2.669279e-01 -8.121017e-02 7.528691e-02 -3.149971e-02 6.305388e-02 -9.781051e-02 8.658261e-02 -6.273051e-02 -4.511257e-02 6.941207e-02 -5.142290e-03 1.682881e-01 3.324347e-02 -7.714856e-02
<VARIANCE> 39
 1.496948e+01 5.735375e+01 1.897331e+01 7.361642e+01 2.601299e+01 3.846997e+01 5.413910e+01 4.546191e+01 3.335550e+01 3.036130e+01 6.956249e+01 1.983043e+01 4.906268e+01 2.324639e+00 4.860115e+00 1.671715e+00 5.875354e+00 2.470835e+00 2.427733e+00 3.996157e+00 3.823271e+00 3.566743e+00 3.443067e+00 3.434522e+00 2.133919e+00 4.953551e+00 5.521321e-01 6.474255e-01 3.162782e-01 1.008723e+00 5.007750e-01 5.605260e-01 6.192647e-01 5.452808e-01 6.055079e-01 5.843664e-01 4.879885e-01 3.035211e-01 7.097512e-01
<GCONST> 1.259425e+02
<TRANSP> 5
 0.000000e+00 1.000000e+00 0.000000e+00 0.000000e+00 0.000000e+00
 0.000000e+00 8.075579e-01 1.924421e-01 0.000000e+00 0.000000e+00
 0.000000e+00 0.000000e+00 7.625451e-01 2.374549e-01 0.000000e+00
 0.000000e+00 0.000000e+00 0.000000e+00 9.511819e-01 4.881809e-02
 0.000000e+00 0.000000e+00 0.000000e+00 0.000000e+00 0.000000e+00
<ENDHMM>
~h "al"
<BEGINHMM>
<NUMSTATES> 5
<STATE> 2
<MEAN> 39
 -3.482286e+00 -7.925333e+00 -2.053241e+00 -1.017111e+01 5.764554e+00 1.187345e-01 -5.766594e-01 -7.707651e+00 -6.966227e+00 -4.326735e+00 -9.550581e-01 -9.718503e+00 6.489259e+01 1.129008e-01 -3.436157e-01 -1.055840e+00 -6.220067e-01 -2.237639e-01 4.953429e-01 4.147260e-01 -3.968098e-01 -7.006179e-01 -5.143067e-01 1.725187e-02 7.993814e-01 -2.611884e-01 -1.071514e-01 -4.804637e-02 4.437127e-01 4.694718e-01 1.918496e-01 1.550613e-01 -1.620458e-01 -1.686702e-01 -2.716972e-01 6.882764e-02 -1.408623e-01 5.594160e-02 -3.218471e-02
<VARIANCE> 39
 3.397624e+01 2.225280e+01 2.412145e+01 4.361369e+01 4.368067e+01 2.876206e+01 2.271708e+01 4.069574e+01 1.205661e+01 1.008926e+01 1.005551e+01 1.534973e+01 5.817492e+01 1.096328e+00 1.329061e+00 4.835419e+00 9.213213e+00 5.936401e+00 2.738640e+00 1.951611e+00 6.451882e+00 2.370095e+00 8.895625e-01 1.113900e+00 9.831744e-01 2.582828e+00 8.929589e-02 2.417780e-01 3.147004e-01 5.953526e-01 4.867707e-01 5.067098e-01 4.647386e-01 4.888892e-01 3.162510e-01 1.793492e-01 2.921676e-01 2.194787e-01 1.331103e-01
<GCONST> 1.083880e+02
<STATE> 3
<MEAN> 39
 -1.017119e+00 -8.085118e+00 9.184231e-01 -1.220820e+01 4.956760e+00 3.559473e-01 -1.780299e+00 -3.119236e+00 -7.889583e+00 -5.235667e+00 -1.555701e+00 -8.422920e+00 6.854204e+01 -3.048146e-03 -4.110669e-01 -8.009508e-02 -9.668852e-01 -2.107954e-01 1.367477e+00 1.119716e-01 4.407281e-01 -2.133490e-01 -4.396862e-01 -3.165391e-02 5.449923e-01 5.953108e-01 -8.311659e-02 2.428125e-02 6.217397e-02 1.922623e-01 -7.802714e-02 6.308484e-02 -8.630513e-02 -4.717918e-01 1.069398e-01 1.202812e-01 2.300890e-01 5.965707e-02 -4.213766e-02
<VARIANCE> 39
 7.849620e+00 3.285219e+01 1.516673e+01 8.757985e+01 7.187312e+01 3.617265e+01 1.228492e+01 7.775533e+01 1.265218e+01 1.342948e+01 5.470492e+00 9.616356e+00 4.352059e+01 1.798394e-01 5.635867e-01 1.214327e+00 4.063012e+00 3.713741e+00 2.582833e+00 6.023408e-01 4.617393e+00 1.753206e+00 1.356653e+00 1.198876e+00 1.318904e+00 1.070345e+00 5.457928e-02 1.089698e-01 2.917744e-01 9.559237e-01 7.681861e-01 5.075023e-01 2.240096e-01 1.036548e+00 3.020036e-01 3.972159e-01 1.535756e-01 2.505289e-01 1.603003e-01
<GCONST> 9.998845e+01
<STATE> 4
<MEAN> 39
 -3.131228e+00 -1.307115e+01 4.052054e+00 -1.516818e+01 3.256765e+00 6.924363e+00 -4.766970e+00 -7.659174e+00 -6.568958e+00 -2.149749e+00 -3.602320e+00 -9.979025e+00 7.321274e+01 -5.102181e-02 -3.791787e-03 1.121025e-01 2.344404e-01 -6.822558e-02 -9.197318e-02 -8.650815e-02 -7.208043e-01 1.022948e-01 7.570407e-02 -1.863366e-01 1.215108e-01 -2.336761e-01 -3.170181e-02 1.090596e-01 3.106881e-02 6.478733e-02 3.560070e-03 -1.418439e-01 -1.893903e-02 1.221612e-01 1.605511e-03 -4.686535e-02 2.794010e-02 -4.602069e-02 -1.244498e-01
<VARIANCE> 39
 7.004119e+00 1.638707e+01 4.279243e+01 2.615936e+01 4.515113e+01 3.310490e+01 3.397454e+01 7.919817e+01 2.688115e+01 2.569993e+01 2.036678e+01 2.459961e+01 1.360860e+01 4.286197e-01 1.338606e+00 1.676393e+00 1.967480e+00 4.629553e+00 2.278695e+00 2.106606e+00 3.070495e+00 3.097783e+00 2.143320e+00 1.755132e+00 1.644586e+00 8.472846e-01 8.275787e-02 1.225409e-01 2.919471e-01 2.636505e-01 7.706143e-01 4.386234e-01 3.592932e-01 3.958957e-01 5.979750e-01 4.108320e-01 2.805254e-01 2.918934e-01 8.933629e-02
<GCONST> 1.051495e+02
<TRANSP> 5
 0.000000e+00 1.000000e+00 0.000000e+00 0.000000e+00 0.000000e+00
 0.000000e+00 4.990002e-01 5.009998e-01 0.000000e+00 0.000000e+00
 0.000000e+00 0.000000e+00 7.261509e-01 2.738490e-01 0.000000e+00
 0.000000e+00 0.000000e+00 0.000000e+00 9.324232e-01 6.757678e-02
 0.000000e+00 0.000000e+00 0.000000e+00 0.000000e+00 0.000000e+00
<ENDHMM>
~h "an"
<BEGINHMM>
<NUMSTATES> 5
<STATE> 2
<MEAN> 39
 -4.850859e+00 -1.580084e+01 5.129224e+00 -8.930865e+00 1.156935e+01 -7.781247e+00 -6.117489e+00 -1.776572e+00 -6.226256e+00 2.214109e+00 -3.188516e+00 -1.390412e+01 7.286088e+01 -5.676270e-02 -2.183000e-01 -1.750365e-01 -8.118168e-03 4.131196e-01 -2.405714e-01 -7.854928e-02 5.344840e-01 9.293813e-02 -6.454772e-01 -3.061323e-01 3.115635e-01 3.180986e-01 -2.553864e-02 -5.895001e-02 1.785378e-01 7.369290e-02 -2.661257e-01 8.390147e-02 -7.563184e-02 -3.435154e-02 1.654137e-01 -1.357730e-01 -1.150889e-01 2.194239e-01 3.987473e-03
<VARIANCE> 39
 7.143524e+00 2.339726e+01 1.930964e+01 1.830927e+01 3.357038e+01 1.654922e+01 2.191820e+01 2.327006e+01 2.251649e+01 2.538371e+01 1.941528e+01 1.118259e+01 3.438284e+01 7.333286e-01 3.045295e+00 1.899406e+00 2.525292e+00 2.105991e+00 1.994377e+00 1.664616e+00 3.556758e+00 3.045383e+00 2.837580e+00 1.768700e+00 1.024390e+00 5.513407e+00 1.423147e-01 5.992374e-01 4.257997e-01 5.635271e-01 4.109742e-01 3.174153e-01 3.119652e-01 6.159105e-01 4.375703e-01 4.386013e-01 3.322025e-01 1.772015e-01 1.033578e+00
<GCONST> 1.085023e+02
<STATE> 3
<MEAN> 39
 -5.338119e+00 -1.518383e+01 1.115245e+01 -2.855965e+00 3.196560e+00 -7.799202e+00 -5.797058e+00 -1.605342e+00 -2.048889e+00 -4.218802e+00 -6.576036e+00 -5.849942e+00 7.319633e+01 5.891977e-02 8.401917e-01 1.215493e+00 1.545016e+00 -1.416162e+00 -3.456604e-01 1.904951e-01 -1.040985e+00 -1.161491e-01 7.715214e-01 -2.338413e-01 2.997209e-01 -1.164394e+00 -6.194277e-02 2.043107e-01 4.450481e-02 -2.914812e-02 -9.307503e-02 -1.431654e-02 1.774256e-01 -2.529424e-01 -2.603339e-01 1.589082e-01 3.795700e-01 -1.873132e-01 -1.225594e-01
<VARIANCE> 39
 4.430912e+00 2.447327e+01 2.381055e+01 4.680661e+01 4.488933e+01 1.567192e+01 2.800193e+01 3.914239e+01 1.640510e+01 2.866119e+01 1.547847e+01 1.563342e+01 2.819425e+01 4.836493e-01 3.039766e+00 1.193063e+00 2.851583e+00 1.823690e+00 1.908227e+00 1.385432e+00 4.890425e+00 1.795315e+00 3.591942e+00 2.091743e+00 2.494632e+00 3.036010e+00 1.248105e-01 6.391676e-01 2.949435e-01 9.164191e-01 2.851677e-01 3.781351e-01 2.062083e-01 1.101441e+00 3.037971e-01 9.077941e-01 2.364659e-01 4.156271e-01 8.025973e-01
<GCONST> 1.099387e+02
<STATE> 4
<MEAN> 39
 -7.785611e+00 -9.390227e+00 1.837162e+01 -3.977380e-01 -5.604838e+00 -6.398898e+00 -4.848579e-01 -9.347628e+00 -8.004365e+00 2.933902e-01 -1.492454e+00 -8.946309e+00 6.898029e+01 -1.309630e-01 3.673640e-01 -2.637582e-01 -1.613170e-03 1.260497e-02 1.403844e-01 1.419768e-01 -3.667068e-01 -1.415197e-01 -6.522270e-02 2.102787e-02 -1.360966e-01 -3.546737e-01 -2.320118e-02 -5.026677e-02 -1.342572e-01 -9.185129e-02 8.846135e-02 8.468679e-02 -8.803691e-02 4.813508e-02 9.041952e-02 -1.393796e-01 -4.551736e-02 1.598933e-02 1.970933e-02
<VARIANCE> 39
 1.031441e+01 2.869069e+01 2.454870e+01 5.798293e+01 3.160106e+01 5.617667e+01 2.706237e+01 3.269450e+01 2.099091e+01 2.483538e+01 3.997446e+01 2.117157e+01 3.719529e+01 9.926787e-01 1.837655e+00 2.449301e+00 5.663444e+00 2.472602e+00 3.148961e+00 1.722334e+00 2.546259e+00 2.470486e+00 2.490639e+00 3.824231e+00 1.276215e+00 3.242030e+00 1.851960e-01 3.935896e-01 4.350289e-01 1.217894e+00 4.517190e-01 6.202282e-01 2.934941e-01 5.355464e-01 4.401387e-01 6.015249e-01 6.455378e-01 2.627777e-01 5.977987e-01
<GCONST> 1.168543e+02
<TRANSP> 5
 0.000000e+00 1.000000e+00 0.000000e+00 0.000000e+00 0.000000e+00
 0.000000e+00 8.452967e-01 1.547033e-01 0.000000e+00 0.000000e+00
 0.000000e+00 0.000000e+00 8.676327e-01 1.323673e-01 0.000000e+00
 0.000000e+00 0.000000e+00 0.000000e+00 8.972684e-01 1.027316e-01
 0.000000e+00 0.000000e+00 0.000000e+00 0.000000e+00 0.000000e+00
<ENDHMM>
~h "ar"
<BEGINHMM>
<NUMSTATES> 5
<STATE> 2
<MEAN> 39
 -8.785999e+00 -7.802380e+00 1.999326e+01 -4.979496e+00 -1.004785e+01 -1.131563e+01 -1.286239e+00 -9.543858e+00 -1.051483e+01 -2.272476e+00 3.150506e+00 -5.404034e+00 6.577255e+01 7.678421e-01 -7.447969e-01 -1.619420e-01 -3.782190e-01 -1.300198e-01 -1.134592e+00 -6.062375e-01 1.959248e+00 -1.119973e+00 7.284542e-01 -1.398428e-01 6.615335e-01 2.346996e+00 -3.017491e-01 2.018526e-01 -1.913910e+00 7.260147e-01 1.739625e-01 1.994644e-01 1.919499e-01 8.367234e-01 4.692728e-01 2.802655e-01 -6.150396e-01 7.300959e-02 -1.292714e+00
<VARIANCE> 39
 3.013761e+00 1.606430e+00 8.670399e+01 5.309151e+01 3.330006e+01 6.703947e+01 8.099213e+00 7.554102e+00 1.713305e+01 1.857904e+01 1.361017e+01 1.959041e+01 1.074797e+01 4.596055e-01 1.129356e+00 6.997446e+00 7.428608e+00 4.234772e+00 1.527109e+00 1.009054e+00 1.770909e+00 6.720601e-01 2.919866e+00 1.488300e+00 1.896353e-01 7.684256e+00 3.058545e-01 2.044227e-01 1.901974e+00 7.999437e-01 8.078054e-02 4.083304e-01 1.304111e-01 4.966102e-01 9.941018e-02 3.089940e-01 1.478254e-01 5.107069e-01 1.183068e+00
<GCONST> 1.000282e+02
<STATE> 3
<MEAN> 39
 -5.729247e+00 -7.521183e+00 1.273837e+01 -7.995361e-01 -9.469228e+00 -1.134476e+01 -1.940036e+00 -3.327472e+00 -1.032399e+01 1.514644e+00 -3.906349e+00 -2.173199e+00 6.591223e+01 5.685426e-04 -7.234792e-01 -1.325017e+00 2.738734e-01 2.581216e-01 9.792806e-02 1.758975e-01 9.059920e-01 9.608604e-01 -6.715291e-01 -1.206401e+00 -2.546358e-01 8.234144e-01 -2.799870e-01 -3.432685e-02 2.342888e-01 -5.177699e-01 1.518774e-01 2.600952e-01 1.781508e-01 -6.159872e-01 4.862540e-01 -6.043232e-01 1.213270e-01 -2.877427e-01 5.471970e-02
<VARIANCE> 39
 1.022646e+01 3.203891e+01 2.179302e+01 2.965902e+01 1.219762e+01 4.356114e+01 5.854042e+00 3.770670e+01 1.828600e+01 1.655292e+01 3.377329e+01 7.815719e+00 1.253319e+02 1.206413e+00 1.472620e+00 5.281074e+00 6.361936e+00 1.845966e+00 1.089560e+00 1.283247e+00 3.261023e+00 2.683140e+00 5.053297e+00 3.261743e+00 8.531170e-01 3.798664e+00 8.443179e-02 1.555294e-01 6.769477e-01 7.504286e-01 4.502070e-01 1.495993e-01 1.117675e-01 1.519937e-01 5.805170e-01 9.106029e-01 6.048843e-01 6.616199e-02 6.157573e-01
<GCONST> 1.067929e+02
<STATE> 4
<MEAN> 39
 -1.120145e+01 -1.067347e+01 1.350006e+01 -1.297442e+01 -9.591431e+00 -5.043475e+00 -9.430589e-01 -1.414168e+01 -4.276428e+00 -1.135292e+01 -5.917720e+00 -9.823420e+00 7.319123e+01 1.076749e-01 -6.699069e-01 -6.392416e-01 -3.299903e-01 6.963054e-01 -3.680505e-01 2.210647e-01 1.667440e-01 3.183814e-01 2.939736e-01 -3.910908e-01 -8.344390e-02 4.488397e-01 2.866874e-02 4.226728e-02 -4.630819e-02 1.025368e-01 9.014963e-02 -4.330880e-02 4.922966e-02 -2.320580e-02 -5.386141e-02 2.634287e-01 -1.611665e-02 7.642772e-03 -1.317547e-01
<VARIANCE> 39
 1.757155e+01 3.697589e+01 5.583993e+01 6.710240e+01 5.395330e+01 6.688589e+01 5.727520e+01 1.295899e+02 9.275814e+00 2.405025e+01 1.786284e+01 3.315744e+01 3.033420e+01 9.349862e-01 7.500746e-01 1.758448e+00 3.370601e+00 2.403755e+00 1.341940e+00 2.212255e+00 3.737221e+00 1.818157e+00 2.608283e+00 1.410900e+00 2.098589e+00 1.646184e+00 1.487019e-01 1.225861e-01 2.529719e-01 3.249048e-01 1.977504e-01 1.336614e-01 3.246434e-01 4.223171e-01 3.349618e-01 2.845659e-01 2.835221e-01 2.637584e-01 1.382772e-01
<GCONST> 1.074924e+02
<TRANSP> 5
 0.000000e+00 1.000000e+00 0.000000e+00 0.000000e+00 0.000000e+00
 0.000000e+00 2.889551e-01 7.110449e-01 0.000000e+00 0.000000e+00
 0.000000e+00 0.000000e+00 7.429132e-01 2.570868e-01 0.000000e+00
 0.000000e+00 0.000000e+00 0.000000e+00 8.933020e-01 1.066980e-01
 0.000000e+00 0.000000e+00 0.000000e+00 0.000000e+00 0.000000e+00
<ENDHMM>
~h "at"
<BEGINHMM>
<NUMSTATES> 5
<STATE> 2
<MEAN> 39
 -6.060111e+00 -1.420201e+01 1.457180e+01 -1.635490e+00 2.410995e-01 8.676480e-02 -6.375529e+00 -9.830791e+00 -6.478689e+00 -3.476427e-01 3.824262e+00 -1.188087e+01 7.178128e+01 1.228994e-02 -1.979381e-02 -2.975499e-01 -2.087573e-01 4.536603e-01 -3.965145e-02 -1.826253e-02 1.349488e-02 2.116942e-01 1.047379e-01 -2.133784e-01 5.740769e-03 2.066442e-02 -2.059895e-02 -8.523086e-02 -7.085122e-02 -1.132093e-01 6.307486e-02 -3.124426e-02 1.801963e-02 1.265916e-02 1.023863e-02 -7.229388e-03 -2.938951e-02 1.416269e-02 1.183097e-01
<VARIANCE> 39
 6.490971e+00 4.011087e+01 4.338944e+01 2.564220e+01 2.958107e+01 3.434515e+01 2.567349e+01 4.285004e+01 6.174802e+01 2.383639e+01 3.431040e+01 8.404646e+00 2.779563e+01 1.148871e+00 3.106751e+00 4.339258e+00 6.350863e+00 2.204730e+00 3.636237e+00 3.400314e+00 5.113840e+00 6.772197e+00 4.101570e+00 4.275393e+00 8.368291e-01 2.767426e+00 2.392038e-01 7.985363e-01 7.810155e-01 1.120481e+00 3.697131e-01 6.570713e-01 6.570627e-01 1.029397e+00 1.266290e+00 8.368810e-01 7.388782e-01 1.662837e-01 5.944551e-01
<GCONST> 1.234532e+02
<STATE> 3
<MEAN> 39
 -5.668593e+00 -1.327541e+01 6.474048e+00 -1.221974e+01 1.279168e+01 -3.676981e+00 -5.818448e+00 -6.294987e+00 -3.890681e+00 1.102547e+00 -2.161003e+00 -1.059515e+01 7.396038e+01 -1.102975e-02 -5.921519e-01 1.503049e-02 -1.462263e-01 3.222214e-01 -2.309089e-01 -5.650342e-01 8.502676e-01 5.515725e-01 5.343118e-01 -5.955374e-01 -4.268427e-01 3.361261e-01 -3.945048e-02 3.567522e-01 7.505298e-02 6.453224e-01 -1.525611e-01 1.263217e-01 -5.205743e-03 -1.853379e-01 3.592952e-02 -3.132724e-03 1.107812e-03 -1.289586e-01 -5.677489e-01
<VARIANCE> 39
 1.835370e+00 2.621904e+01 7.483597e+00 8.351866e+01 1.330883e+01 2.469659e+01 1.525116e+01 3.350872e+01 3.565810e+01 4.550315e+01 5.307334e+01 2.500165e+01 1.958838e+01 2.548123e-01 5.587373e+00 6.087862e-01 1.056733e+01 2.753354e+00 1.839991e+00 1.539582e+00 2.914781e+00 3.311024e+00 3.741141e+00 3.948252e+00 1.182318e+00 7.221081e+00 6.716151e-02 5.624273e-01 1.317065e-01 9.433424e-01 5.614472e-01 3.509097e-01 3.868514e-01 5.740966e-01 4.962046e-01 7.569019e-01 7.241801e-01 1.892326e-01 6.437393e-01
<GCONST> 1.110526e+02
<STATE> 4
<MEAN> 39
 -1.039960e+01 -4.288002e+00 5.791449e+00 7.132390e-01 8.362389e+00 -3.804982e+00 -8.630774e+00 -7.507905e+00 2.137469e+00 1.021966e+00 -4.001209e+00 -1.315731e+01 5.601564e+01 -5.911540e-01 9.316867e-01 -3.150429e-01 6.468171e-01 -9.054766e-01 -2.549393e-01 3.842096e-01 -1.044975e+00 1.266736e-02 -1.368058e+00 5.357640e-01 6.942636e-01 -1.216181e+00 2.236314e-01 -6.286926e-01 9.128089e-02 -8.852804e-01 -1.956429e-01 -4.294270e-01 7.914019e-02 1.866421e-01 -2.204195e-01 -6.723201e-02 6.686847e-02 3.000827e-01 1.167857e+00
<VARIANCE> 39
 7.463903e+00 2.442023e+01 2.347711e+01 1.420285e+01 1.888321e+01 1.179548e+01 2.342529e+01 1.331924e+01 1.325307e+01 2.788608e+01 1.502939e+01 1.561613e+01 1.532483e+01 1.530275e+00 2.836848e+00 3.932210e+00 7.390266e+00 9.685313e-01 2.757919e+00 1.872302e+00 1.615766e+00 3.009934e+00 1.312124e+00 2.100131e+00 3.796483e+00 1.087860e+01 1.757878e-01 4.766517e-01 6.495242e-01 5.479359e-01 1.860829e-01 3.661639e-01 4.312809e-01 3.550307e-01 2.400882e-01 4.444938e-01 7.115450e-01 6.226361e-01 3.429068e-01
<GCONST> 1.085074e+02
<TRANSP> 5
 0.000000e+00 1.000000e+00 0.000000e+00 0.000000e+00 0.000000e+00
 0.000000e+00 9.471397e-01 5.286033e-02 0.000000e+00 0.000000e+00
 0.000000e+00 0.000000e+00 9.262084e-01 7.379162e-02 0.000000e+00
 0.000000e+00 0.000000e+00 0.000000e+00 8.580574e-01 1.419427e-01
 0.000000e+00 0.000000e+00 0.000000e+00 0.000000e+00 0.000000e+00
<ENDHMM>
~h "ba"
<BEGINHMM>
<NUMSTATES> 5
<STATE> 2
<MEAN> 39
 -1.163056e+01 -4.600434e+00 2.897983e+00 -6.297957e-01 -3.161171e-01 -4.240013e+00 -5.506765e+00 -9.373303e+00 -5.218155e+00 -2.682733e+00 4.964693e-01 -6.881334e+00 5.333279e+01 1.689582e+00 -3.859836e-02 8.595989e-01 -1.581659e-01 7.907735e-01 -7.585084e-01 -9.987438e-01 -1.348130e+00 -5.895383e-01 -1.493818e-01 -3.315502e-01 -9.928662e-01 1.988800e+00 3.249769e-01 -4.974669e-01 4.189490e-01 -5.512355e-01 6.598672e-02 -3.999701e-01 1.022065e-01 3.260533e-01 1.100120e-01 1.311407e-01 -2.624365e-01 -1.413519e-01 1.101899e+00
<VARIANCE> 39
 7.669640e+01 4.344347e+01 8.162173e+01 4.868965e+01 4.154417e+01 5.227052e+01 2.621252e+01 5.250899e+01 3.026499e+01 2.721157e+01 2.642186e+01 2.751368e+01 2.881841e+02 6.120423e+00 7.688422e+00 4.138495e+00 8.753689e+00 2.352714e+00 5.546838e+00 3.017473e+00 4.859138e+00 3.147565e+00 3.959879e+00 3.327142e+00 1.800081e+00 2.351611e+01 6.536086e-01 8.842694e-01 6.394342e-01 9.491930e-01 4.690592e-01 7.046672e-01 4.588667e-01 9.359868e-01 5.214238e-01 5.769642e-01 6.397841e-01 4.057446e-01 1.606429e+00
<GCONST> 1.370427e+02
<STATE> 3
<MEAN> 39
 -5.540011e+00 -6.028843e+00 6.910888e+00 -2.630903e+00 2.784915e+00 -6.724600e+00 -7.834875e+00 -1.314928e+01 -5.636413e+00 -1.356014e+00 9.431024e-01 -1.035490e+01 6.387724e+01 5.370453e-01 -1.890654e+00 1.514677e-01 -1.971903e+00 3.139715e-01 -9.734371e-01 -1.764175e-02 1.260502e+00 1.212045e+00 6.230642e-01 -7.445295e-01 -3.345963e-01 3.021909e+00 -2.720395e-01 -5.289611e-01 -4.208846e-02 -4.341490e-01 -1.850448e-01 -8.051673e-02 3.188594e-01 7.950990e-01 2.689043e-01 -6.761234e-02 -3.422811e-01 2.436445e-01 3.344390e-01
<VARIANCE> 39
 1.158265e+01 5.447705e+01 2.246204e+01 7.359808e+01 2.145564e+01 3.177139e+01 3.001361e+01 6.487398e+01 4.724792e+01 4.358185e+01 3.113556e+01 1.740341e+01 7.335999e+01 3.439223e+00 8.755572e+00 4.238150e+00 9.853986e+00 2.729816e+00 4.132591e+00 2.839275e+00 8.537759e+00 4.604591e+00 4.515851e+00 4.401691e+00 2.233098e+00 1.514700e+01 4.174238e-01 1.319239e+00 4.558607e-01 1.837732e+00 4.399429e-01 7.719367e-01 5.398523e-01 9.875119e-01 8.454351e-01 9.699337e-01 8.475055e-01 5.014550e-01 2.057136e+00
<GCONST> 1.358246e+02
<STATE> 4
<MEAN> 39
 -6.969386e+00 -1.547711e+01 9.647249e+00 -1.045028e+01 1.389894e+00 -1.113400e+01 -1.145168e+00 -1.572428e+00 -2.009727e+00 -3.403994e+00 -5.831795e+00 -6.616314e+00 7.619405e+01 -9.415004e-02 -2.560441e-01 3.088856e-01 -3.375593e-02 -2.704926e-02 -1.555426e-01 4.535455e-01 6.794722e-01 -1.529838e-01 -5.188247e-01 -4.682164e-01 4.063981e-01 3.823052e-01 -7.432013e-02 5.676750e-01 -1.572167e-02 4.946222e-01 -4.156599e-02 2.394555e-01 -1.097559e-01 -4.860770e-01 -1.940432e-01 1.736888e-02 3.529934e-01 -1.038107e-02 -7.328140e-01
<VARIANCE> 39
 8.398829e+00 2.951952e+01 3.985748e+01 3.050273e+01 3.684657e+01 2.170279e+01 4.202059e+01 3.530007e+01 4.381886e+01 4.252288e+01 3.265253e+01 2.945587e+01 3.146233e+01 8.085251e-01 3.129924e+00 2.098398e+00 3.233136e+00 2.115148e+00 1.495099e+00 2.510821e+00 4.088929e+00 2.628942e+00 2.223377e+00 2.865873e+00 1.540097e+00 4.545818e+00 2.002604e-01 4.836382e-01 3.569791e-01 6.562055e-01 3.857932e-01 2.798868e-01 3.804789e-01 6.174023e-01 5.842087e-01 5.100888e-01 4.338563e-01 2.781487e-01 6.054392e-01
<GCONST> 1.159279e+02
<TRANSP> 5
 0.000000e+00 1.000000e+00 0.000000e+00 0.000000e+00 0.000000e+00
 0.000000e+00 3.029314e-01 6.970687e-01 0.000000e+00 0.000000e+00
 0.000000e+00 0.000000e+00 7.512169e-01 2.487831e-01 0.000000e+00
 0.000000e+00 0.000000e+00 0.000000e+00 8.379837e-01 1.620162e-01
 0.000000e+00 0.000000e+00 0.000000e+00 0.000000e+00 0.000000e+00
<ENDHMM>
~h "be"
<BEGINHMM>
<NUMSTATES> 5
<STATE> 2
<MEAN> 39
 -1.582267e+01 -4.360904e+00 -6.818155e-01 1.519574e+00 2.518964e-02 -3.008686e+00 -6.356475e+00 -8.382209e+00 -3.311763e+00 -3.523657e+00 -1.116893e+00 -5.145175e+00 4.581577e+01 -7.497662e-02 3.643942e-01 5.871356e-02 2.249348e-01 -2.177811e-01 3.325539e-01 2.109373e-01 -3.670845e-01 -3.533910e-01 -1.807386e-01 5.040326e-02 1.757948e-01 -6.304442e-01 1.916942e-01 -2.406524e-01 9.717681e-02 -1.944315e-01 -1.159861e-02 -2.725576e-01 -2.861023e-06 3.903912e-02 1.937317e-01 3.731026e-03 -1.692949e-01 -2.057247e-01 5.903771e-01
<VARIANCE> 39
 7.432140e+01 3.089887e+01 6.500903e+01 2.674329e+01 2.643032e+01 3.951916e+01 1.757244e+01 4.759320e+01 3.385557e+01 3.358329e+01 2.487252e+01 2.586955e+01 2.207784e+02 5.148371e-01 1.069078e+00 1.427817e+00 1.869112e+00 1.042921e+00 1.516915e+00 1.095007e+00 2.419751e+00 1.903286e+00 1.505003e+00 1.946219e+00 2.101067e+00 2.646050e+00 2.623915e-01 3.202349e-01 4.192056e-01 3.417848e-01 2.925800e-01 4.864325e-01 3.467907e-01 4.248825e-01 4.683220e-01 2.830320e-01 3.865114e-01 5.002601e-01 8.597502e-01
<GCONST> 1.126096e+02
<STATE> 3
<MEAN> 39
 -1.241868e+01 -7.272521e+00 1.109481e+01 -6.645897e+00 -3.723309e+00 -3.992599e+00 1.088214e-01 -9.396021e+00 -4.897559e+00 -1.188051e+00 1.982988e+00 -6.461764e+00 5.983872e+01 4.064299e-01 -2.175634e-01 3.156504e-01 3.122805e-02 -2.748515e-02 -5.192813e-01 2.747115e-02 -4.821332e-01 -4.242638e-02 -2.057890e-01 -2.092376e-01 -2.568624e-01 8.373496e-01 3.181694e-01 -2.354749e-01 1.614108e-01 -1.232402e-01 3.052152e-02 -3.536473e-01 -1.826317e-01 -2.242468e-01 1.468699e-01 1.053371e-01 -2.382489e-01 -1.689206e-01 6.698371e-01
<VARIANCE> 39
 6.188126e+01 5.948177e+01 1.947226e+02 1.027264e+02 4.357425e+01 4.892723e+01 7.394193e+01 3.222741e+01 1.759006e+01 2.512368e+01 1.897942e+01 1.976895e+01 4.376283e+02 1.444302e+00 1.366397e+00 1.672267e+00 1.082233e+00 1.095996e+00 2.052993e+00 1.322357e+00 2.087604e+00 2.505604e+00 1.458831e+00 1.634107e+00 6.958945e-01 3.389695e+00 4.902301e-01 5.148431e-01 7.516434e-01 4.386384e-01 2.637984e-01 3.705948e-01 2.829172e-01 3.889710e-01 3.121458e-01 2.749852e-01 2.658858e-01 1.976486e-01 1.337102e+00
<GCONST> 1.169483e+02
<STATE> 4
<MEAN> 39
 -1.638190e+01 -1.126456e+00 -1.134754e+00 1.417716e+00 -3.551430e+00 2.992501e-01 -6.410495e+00 -7.469829e+00 -3.861358e+00 -1.548308e+00 4.295219e-01 -3.678499e+00 4.016400e+01 1.878655e+00 -6.881424e-01 1.681503e+00 -3.328390e-01 -1.355488e-02 -1.091489e+00 -7.496636e-01 -1.653983e+00 -7.581762e-02 3.900892e-01 -3.710833e-01 -6.269308e-01 3.161762e+00 2.762494e-01 -2.561705e-01 1.562923e-01 -3.597969e-02 1.102902e-01 -5.646206e-03 -1.772311e-01 4.539114e-02 1.210884e-01 1.660481e-01 -1.186206e-01 -5.100903e-02 5.457971e-01
<VARIANCE> 39
 7.804698e+01 2.115716e+01 9.572337e+01 3.928518e+01 3.051279e+01 5.656802e+01 3.431115e+01 7.485932e+01 4.330524e+01 2.872547e+01 2.630258e+01 2.307030e+01 2.718327e+02 7.267288e+00 3.962838e+00 1.030829e+01 3.594351e+00 2.327825e+00 5.116875e+00 4.123765e+00 6.054368e+00 5.595597e+00 2.215379e+00 2.664088e+00 1.616197e+00 1.989622e+01 6.499482e-01 3.601887e-01 1.033522e+00 7.072669e-01 4.570006e-01 9.684900e-01 5.536098e-01 1.024437e+00 9.750448e-01 4.926574e-01 3.788413e-01 2.619471e-01 1.707794e+00
<GCONST> 1.357426e+02
<TRANSP> 5
 0.000000e+00 1.000000e+00 0.000000e+00 0.000000e+00 0.000000e+00
 0.000000e+00 5.785495e-01 4.214505e-01 0.000000e+00 0.000000e+00
 0.000000e+00 0.000000e+00 4.620376e-01 5.379624e-01 0.000000e+00
 0.000000e+00 0.000000e+00 0.000000e+00 6.136239e-01 3.863762e-01
 0.000000e+00 0.000000e+00 0.000000e+00 0.000000e+00 0.000000e+00
<ENDHMM>
~h "bi"
<BEGINHMM>
<NUMSTATES> 5
<STATE> 2
<MEAN> 39
 -8.403434e+00 -2.846104e+00 1.192377e+01 2.318590e+00 -3.597934e-01 -9.548101e+00 -6.266464e+00 -1.109585e+01 -6.947527e+00 -3.511527e+00 2.252084e+00 -8.797635e+00 6.001017e+01 -4.518199e-01 -1.242201e+00 2.975536e+00 -1.252854e+00 -1.459540e+00 -1.756590e+00 4.234290e-01 5.817304e-01 -1.383234e+00 -2.341222e-01 8.261465e-01 4.386006e-01 3.104375e+00 -1.485515e-01 -4.105811e-01 4.216862e-01 -7.722518e-01 -4.316511e-01 8.682787e-02 9.633297e-02 2.023662e-01 -2.820247e-01 2.445974e-01 -1.634958e-01 1.849139e-01 7.159011e-01
<VARIANCE> 39
 3.356137e+01 4.264252e+01 6.407280e+01 2.972853e+01 4.524912e+01 4.773698e+01 3.229973e+01 5.801859e+01 3.457343e+01 3.472004e+01 2.551001e+01 3.057251e+01 1.338777e+02 5.520144e+00 3.735444e+00 7.657023e+00 6.800961e+00 4.640677e+00 5.800072e+00 1.650630e+00 3.730312e+00 3.736479e+00 3.131383e+00 1.960041e+00 2.933820e+00 1.444328e+01 4.492382e-01 7.856513e-01 1.161015e+00 7.223563e-01 7.013143e-01 8.051258e-01 5.042874e-01 6.969875e-01 6.093501e-01 6.272070e-01 3.131045e-01 3.713104e-01 1.486766e+00
<GCONST> 1.337725e+02
<STATE> 3
<MEAN> 39
 -1.029028e+01 -9.051151e+00 2.198228e+01 -6.426728e+00 -7.480230e+00 -1.402210e+01 -3.471491e+00 -8.041618e+00 -1.260021e+01 -2.528974e-01 3.347735e+00 -5.996247e+00 7.358779e+01 -5.055205e-01 1.624708e-01 -6.893283e-02 -5.948538e-01 1.564673e-01 -4.142930e-01 1.162911e+00 4.440580e-01 5.085171e-01 -5.240560e-01 -1.218465e-01 7.305205e-01 1.098884e+00 -1.248375e-01 3.738298e-01 -9.733947e-01 5.481603e-01 7.699261e-01 4.942480e-01 1.755322e-01 -2.463677e-01 7.971371e-01 -4.718139e-01 -1.238827e-01 -2.581384e-01 -7.639256e-01
<VARIANCE> 39
 8.199115e+00 1.919550e+01 3.525201e+01 2.850758e+01 4.067752e+01 3.481132e+01 3.452975e+01 2.990830e+01 3.344336e+01 2.005733e+01 1.658046e+01 1.781771e+01 2.432167e+01 2.496542e+00 3.558765e+00 5.635587e+00 3.463746e+00 4.455092e+00 2.502928e+00 3.072971e+00 3.304945e+00 5.824668e+00 5.457496e+00 1.377983e+00 1.709484e+00 4.226333e+00 3.980564e-01 3.848210e-01 6.147529e-01 4.881569e-01 5.785638e-01 7.473404e-01 4.003373e-01 6.005720e-01 6.046461e-01 4.998106e-01 2.959206e-01 4.008025e-01 4.791985e-01
<GCONST> 1.194672e+02
<STATE> 4
<MEAN> 39
 -1.391197e+01 -9.022013e+00 1.022588e+01 -5.197898e+00 2.288988e-01 -1.135148e+01 3.875396e+00 -7.742096e+00 -3.365202e+00 -6.812271e+00 6.332316e-01 -6.785640e+00 7.083306e+01 -1.274040e-01 1.831786e-01 -6.195687e-01 3.760234e-01 4.773652e-01 4.885044e-01 1.567264e-01 -2.186088e-01 4.711280e-01 -5.389168e-01 -2.168075e-01 -1.927218e-01 -3.911862e-01 -2.780435e-02 -3.871161e-02 -8.780080e-03 -2.908177e-02 -2.812620e-02 6.784245e-02 -8.909392e-02 8.074403e-03 -6.092331e-02 1.262593e-01 -3.242685e-03 -4.513600e-02 -8.503257e-02
<VARIANCE> 39
 8.292207e+01 3.243677e+01 5.726954e+01 4.096238e+01 4.237128e+01 3.908337e+01 4.240691e+01 3.199476e+01 4.144030e+01 3.113377e+01 3.648228e+01 2.745307e+01 3.520681e+01 6.133564e+00 2.562961e+00 3.035850e+00 2.908738e+00 3.297616e+00 2.771579e+00 2.805173e+00 2.790990e+00 3.048649e+00 3.951846e+00 3.405132e+00 2.053035e+00 3.185269e+00 6.642978e-01 4.952940e-01 4.412170e-01 4.532398e-01 5.700895e-01 5.439306e-01 3.951631e-01 4.662802e-01 4.383337e-01 5.700510e-01 5.851161e-01 4.433918e-01 4.611415e-01
<GCONST> 1.252950e+02
<TRANSP> 5
 0.000000e+00 1.000000e+00 0.000000e+00 0.000000e+00 0.000000e+00
 0.000000e+00 6.518165e-01 3.481835e-01 0.000000e+00 0.000000e+00
 0.000000e+00 0.000000e+00 7.080902e-01 2.919098e-01 0.000000e+00
 0.000000e+00 0.000000e+00 0.000000e+00 7.669368e-01 2.330633e-01
 0.000000e+00 0.000000e+00 0.000000e+00 0.000000e+00 0.000000e+00
<ENDHMM>
~h "bo"
<BEGINHMM>
<NUMSTATES> 5
<STATE> 2
<MEAN> 39
 -2.131340e+01 -4.095935e+00 6.850991e+00 2.222960e+00 -1.926249e+00 -1.401258e+00 2.440834e+00 -6.634177e+00 -3.389524e+00 -6.952194e+00 -3.835121e+00 -6.964643e+00 4.323829e+01 1.023432e+00 -6.277320e-01 7.247923e-01 5.643179e-01 6.682454e-01 9.632134e-01 -2.443164e-01 5.190275e-01 -6.294547e-01 -3.088151e-01 9.869866e-02 6.709273e-01 1.031485e+00 9.336638e-03 -4.325577e-01 -1.568416e-01 -4.062024e-01 2.548314e-01 1.515203e-01 -5.120711e-01 -1.571641e-01 -4.186704e-03 -4.669144e-02 3.362634e-01 2.069782e-01 3.245616e-01
<VARIANCE> 39
 2.400059e+01 2.198897e+01 5.840948e+01 4.017680e+01 2.467416e+01 4.341617e+01 4.367563e+01 1.395920e+01 8.962729e+00 2.368508e+01 7.416061e+00 1.416193e+01 1.489194e+02 4.701647e-01 1.917285e+00 1.961577e+00 2.570021e+00 1.251448e+00 2.533436e+00 1.135935e+01 2.238484e+00 4.707316e-01 6.265463e-01 5.926871e-01 2.627584e+00 3.212836e+00 4.811083e-01 3.531388e-01 6.830202e-01 5.695686e-01 2.675008e-01 5.636039e-01 1.597461e+00 4.221806e-01 4.839696e-01 2.912482e-01 1.007151e-01 5.315403e-01 1.304317e+00
<GCONST> 1.107807e+02
<STATE> 3
<MEAN> 39
 -1.840343e+01 -9.071213e+00 5.843019e+00 -8.670582e-01 -2.379683e-01 3.543543e+00 -6.438251e+00 -3.888091e+00 -2.440537e+00 -3.853316e+00 1.527388e+00 -4.448389e+00 4.639532e+01 2.073410e+00 -6.195744e-01 -9.732538e-01 -3.133586e+00 1.247761e+00 -4.192516e-01 -1.783938e+00 -7.431105e-01 -4.370663e-01 9.304833e-01 1.059924e+00 -1.954495e+00 3.203811e+00 7.268379e-01 2.392306e-01 9.839126e-02 -1.018008e+00 5.900232e-01 -4.960058e-01 7.315828e-01 -5.274856e-01 -5.785112e-01 8.424130e-02 -4.370956e-01 -8.632894e-01 1.450070e+00
<VARIANCE> 39
 3.581865e+01 3.415464e+01 1.456125e+02 9.413931e+01 4.418307e+01 1.848802e+01 9.055134e+00 7.313194e+00 1.704648e+01 3.052294e+01 1.099935e+01 3.607689e+01 2.846518e+02 3.712610e+00 6.328488e-01 5.994330e+00 2.610410e+00 2.002060e+00 1.171865e+00 1.891725e+00 2.866590e+00 2.833078e+00 2.547570e+00 1.023754e+00 4.171299e+00 6.611589e+00 7.700438e-01 1.851942e-01 5.218903e-01 9.410449e-01 5.438989e-01 1.372383e-01 2.227590e-01 2.791654e-01 7.827652e-01 3.613292e-01 2.459280e-01 1.074952e+00 1.511549e+00
<GCONST> 1.183534e+02
<STATE> 4
<MEAN> 39
 -7.543290e+00 -5.378583e+00 3.316772e+00 -1.333990e+01 5.773169e+00 4.557386e-01 -7.736255e+00 -6.919717e+00 -8.142153e+00 -2.191494e+00 -3.956842e-01 -8.018675e+00 5.830192e+01 3.697477e+00 -5.899203e-01 1.706545e+00 -4.953875e+00 3.420180e+00 -1.334087e+00 4.621660e-01 -3.850111e-01 -2.517244e+00 5.454879e-01 -5.900850e-01 -7.604170e-01 7.033711e+00 -8.027809e-01 -1.872304e-01 3.185675e-01 6.739665e-01 -7.985908e-02 1.978733e-02 5.573012e-01 3.631371e-03 3.364701e-01 2.743934e-01 -2.526631e-01 2.192619e-01 -4.897674e-01
<VARIANCE> 39
 1.926321e+01 4.129671e+01 7.633899e+01 4.293732e+01 7.003459e+01 1.902771e+01 4.622007e+01 2.863908e+01 1.072571e+01 9.438433e+00 1.876111e+01 5.268531e+01 1.338481e+02 4.174042e+00 1.460721e+00 1.893784e+00 5.186625e+00 6.239950e+00 1.493360e+00 1.834830e+00 1.944160e+00 2.461662e+00 9.188729e-01 1.382636e+00 1.855469e+00 1.092959e+01 5.333955e-01 1.859784e-01 7.612036e-01 1.089270e+00 6.108859e-01 2.385001e-01 3.362656e-01 3.811011e-01 1.080145e+00 3.177022e-01 3.947078e-01 2.923780e-01 1.521208e+00
<GCONST> 1.197024e+02
<TRANSP> 5
 0.000000e+00 1.000000e+00 0.000000e+00 0.000000e+00 0.000000e+00
 0.000000e+00 6.999914e-01 3.000086e-01 0.000000e+00 0.000000e+00
 0.000000e+00 0.000000e+00 4.000461e-01 5.999540e-01 0.000000e+00
 0.000000e+00 0.000000e+00 0.000000e+00 5.683687e-01 4.316313e-01
 0.000000e+00 0.000000e+00 0.000000e+00 0.000000e+00 0.000000e+00
<ENDHMM>
~h "bu"
<BEGINHMM>
<NUMSTATES> 5
<STATE> 2
<MEAN> 39
 -4.858319e+00 -2.518157e+00 8.174078e+00 -8.379930e+00 2.245092e+00 -7.166541e-02 -4.090813e+00 -9.725732e+00 -9.142491e+00 -3.857370e+00 1.389518e+00 -9.096998e+00 6.422229e+01 1.543117e-02 3.814163e-01 -5.434765e-01 -6.940876e-01 -2.074245e-02 6.834356e-02 -1.682261e-01 -4.358139e-03 1.085615e-01 -1.279777e-01 2.676318e-01 -1.773857e-02 1.113861e-01 -1.711192e-02 -9.120438e-02 9.082534e-02 -5.759702e-02 -6.776986e-02 -2.402633e-02 -5.951000e-02 3.594612e-02 3.675016e-02 5.158876e-02 7.477356e-05 4.284116e-02 9.830635e-02
<VARIANCE> 39
 1.219168e+01 3.584332e+01 2.618687e+01 1.167632e+02 3.909462e+01 4.541535e+01 2.598829e+01 5.089189e+01 4.458069e+01 4.243293e+01 3.513129e+01 2.011773e+01 3.558145e+01 1.239522e+00 3.967190e+00 3.435886e+00 1.142099e+01 3.611481e+00 4.408050e+00 2.579125e+00 6.592666e+00 4.753073e+00 2.862054e+00 3.643062e+00 1.950194e+00 3.662925e+00 2.605773e-01 5.150850e-01 5.905170e-01 1.771260e+00 6.842351e-01 8.216544e-01 4.345013e-01 1.149884e+00 9.491603e-01 5.071756e-01 7.235326e-01 3.284464e-01 5.093410e-01
<GCONST> 1.287864e+02
<STATE> 3
<MEAN> 39
 -4.294740e+00 1.676004e-01 5.274348e+00 -1.745115e+01 -5.887793e-01 -3.232930e+00 -5.920544e+00 -9.612104e+00 -9.881048e+00 -6.363581e+00 1.191994e+00 -8.007959e+00 6.708519e+01 -2.394502e-01 -3.732437e-01 -1.298002e-01 4.787167e-01 9.833388e-02 -9.411085e-02 2.292098e-02 4.178301e-02 5.279406e-01 2.905392e-01 6.449200e-03 2.482240e-01 -2.873958e-01 -1.887413e-01 -1.384413e-01 -1.469006e-01 1.225453e-01 1.087125e-01 -1.271626e-01 1.760463e-01 9.162757e-02 9.361962e-02 -9.025672e-02 -2.618433e-02 9.562138e-03 -1.162589e-01
<VARIANCE> 39
 4.525570e+00 3.279946e+01 2.320340e+01 1.030311e+02 2.829742e+01 3.589809e+01 2.321849e+01 4.925443e+01 4.193470e+01 3.359239e+01 2.047074e+01 2.329357e+01 2.546755e+01 7.387558e-01 1.729322e+00 1.523876e+00 3.557595e+00 7.488186e-01 1.796144e+00 1.552707e+00 1.633792e+00 2.756637e+00 2.104342e+00 2.031302e+00 1.527972e+00 8.429529e-01 8.912162e-02 3.044485e-01 2.273915e-01 8.617814e-01 1.958721e-01 2.610790e-01 1.750701e-01 6.278557e-01 3.976790e-01 4.619991e-01 3.043736e-01 2.707414e-01 1.191864e-01
<GCONST> 1.042239e+02
<STATE> 4
<MEAN> 39
 -1.101649e+01 -6.512929e+00 8.237008e-01 -9.381081e+00 2.612699e+00 -2.153734e+00 -3.001402e+00 -1.219772e+01 -2.503921e+00 -3.951168e+00 2.438564e+00 -6.414565e+00 5.992577e+01 -7.604672e-01 -4.652020e-01 -6.788070e-01 5.571413e-01 -2.479447e-01 -4.141587e-01 1.322155e-01 2.176069e-01 6.977617e-01 -5.759268e-01 -1.573526e-01 -6.345406e-01 -7.166559e-01 1.349438e-01 2.044601e-01 1.332147e-01 -2.491261e-01 4.778862e-03 -3.619660e-02 -2.072537e-01 1.915766e-01 -4.415623e-01 -1.038892e-01 -1.640060e-01 -2.236533e-01 4.905950e-02
<VARIANCE> 39
 2.873155e+01 3.845361e+01 8.977845e+01 6.121107e+01 2.160317e+01 3.947532e+01 3.819238e+01 4.212603e+01 3.352460e+01 3.905819e+01 2.468795e+01 3.086610e+01 3.532343e+01 7.980567e-01 2.987797e+00 2.192710e+00 3.652648e+00 1.593476e+00 1.771688e+00 1.531796e+00 4.890413e+00 2.966760e+00 2.876775e+00 2.703484e+00 2.780134e+00 1.255947e+00 1.557585e-01 5.693712e-01 3.934637e-01 9.311348e-01 3.630083e-01 4.485390e-01 3.283077e-01 6.318617e-01 7.753057e-01 3.793937e-01 5.430127e-01 5.547814e-01 3.891388e-01
<GCONST> 1.190141e+02
<TRANSP> 5
 0.000000e+00 1.000000e+00 0.000000e+00 0.000000e+00 0.000000e+00
 0.000000e+00 9.142685e-01 8.573152e-02 0.000000e+00 0.000000e+00
 0.000000e+00 0.000000e+00 7.879934e-01 2.120065e-01 0.000000e+00
 0.000000e+00 0.000000e+00 0.000000e+00 6.671282e-01 3.328718e-01
 0.000000e+00 0.000000e+00 0.000000e+00 0.000000e+00 0.000000e+00
<ENDHMM>
~h "ca"
<BEGINHMM>
<NUMSTATES> 5
<STATE> 2
<MEAN> 39
 -1.305363e+01 -2.606231e+00 1.197808e+01 3.594295e+00 -8.259811e+00 -1.166366e+01 -6.009584e+00 -1.052749e+01 -6.350142e+00 -8.775644e+00 3.527021e+00 -5.746564e+00 6.490264e+01 -1.848390e+00 7.756337e-01 4.827712e-01 -2.960458e-01 2.552006e-01 3.959992e-01 1.871575e+00 9.275931e-02 4.664046e-01 -1.156599e+00 6.251528e-01 5.896344e-01 4.870646e-01 -7.187333e-01 -2.305726e-01 -2.786779e-01 -2.600528e-01 5.310847e-01 1.960937e-01 6.339205e-01 1.193213e-01 4.678745e-01 -6.887479e-02 -5.310248e-02 -2.269625e-01 9.801815e-02
<VARIANCE> 39
 2.278889e+01 2.282467e+01 4.264085e+01 7.225801e+00 6.964644e+01 2.540153e+01 3.840557e+01 1.106782e+01 2.752904e+01 1.845385e+01 1.973594e+01 1.478075e+01 8.688216e+01 1.974890e+00 3.919616e+00 3.574977e+00 4.829352e-01 1.375217e+01 3.696671e+00 3.290441e+00 2.204707e+00 5.024194e+00 3.377493e+00 2.055189e+00 2.320969e+00 6.895236e+00 6.878305e-01 8.731367e-01 5.508720e-01 1.845562e-01 1.830303e+00 1.110297e+00 9.055318e-01 3.875613e-01 1.030618e+00 5.651427e-01 3.097983e-01 4.785746e-01 1.449136e+00
<GCONST> 1.231783e+02
<STATE> 3
<MEAN> 39
 -2.841532e+01 -4.543722e+00 4.137024e+00 -2.750188e+00 2.031646e+00 -7.922044e+00 5.222954e+00 -9.245468e+00 1.420274e+00 -1.021923e+01 2.525656e+00 -4.710158e+00 6.266374e+01 -1.296916e+00 -1.297279e+00 -1.288753e+00 -1.594839e+00 1.471435e-02 1.720858e-01 3.658213e-01 2.921029e-01 8.537886e-01 2.644493e-01 -2.515049e-01 1.394241e-01 8.908890e-01 1.380472e+00 -1.132886e-01 1.889799e-01 8.080872e-02 -7.159008e-01 -5.229691e-01 -7.478752e-01 3.293075e-02 -2.878445e-01 1.235482e-01 -3.503488e-01 3.386763e-02 1.009155e-01
<VARIANCE> 39
 2.321551e+01 3.600596e+01 1.772252e+01 1.582252e+01 9.786386e+00 3.224334e+01 2.347846e+01 2.155127e+01 2.751083e+01 1.529309e+01 7.634135e+00 1.543833e+01 2.356317e+01 8.968151e+00 3.834654e+00 2.362020e+00 1.262184e+00 2.576032e+00 6.319226e+00 3.939085e+00 2.019876e+00 2.437527e+00 1.350633e+00 1.487132e+00 1.124224e+00 5.982481e+00 1.081319e+00 8.433365e-01 7.879055e-01 3.659829e-01 3.492814e-01 1.013608e+00 2.811179e-01 3.842710e-01 4.872514e-01 5.657397e-01 3.492662e-01 2.179340e-01 1.191698e+00
<GCONST> 1.146941e+02
<STATE> 4
<MEAN> 39
 -1.430552e+01 -8.828448e+00 6.817331e+00 -6.829073e+00 -3.079802e+00 -1.271050e+01 1.489453e+00 -6.046171e+00 1.052551e+00 -9.947251e+00 -1.014195e+00 -3.766691e+00 6.852383e+01 2.061028e+00 -7.656676e-01 3.767567e-01 -9.562150e-02 -2.263200e-01 -3.198841e-01 -1.846765e-02 2.233666e-01 -1.092997e-01 -7.948178e-02 -9.092185e-01 -3.317139e-01 1.180857e+00 -2.879384e-01 1.206700e-01 -1.116626e-01 1.940273e-01 2.384665e-01 2.143469e-01 1.570948e-01 -1.307357e-01 3.782805e-02 -3.023148e-03 1.021121e-01 -1.099910e-01 -1.186693e-01
<VARIANCE> 39
 8.496072e+01 3.254351e+01 2.669447e+01 1.629224e+01 1.846337e+01 2.603251e+01 1.848515e+01 2.938187e+01 1.084163e+01 1.932164e+01 3.773562e+01 8.346699e+00 8.320282e+01 9.676062e+00 3.463678e+00 4.964342e+00 2.688302e+00 2.678753e+00 2.787691e+00 1.936958e+00 2.942072e+00 1.231015e+00 3.398313e+00 3.348035e+00 1.178293e+00 7.576305e+00 1.669092e+00 5.724161e-01 9.701888e-01 5.271088e-01 4.470745e-01 6.038967e-01 2.674379e-01 6.393812e-01 2.335738e-01 6.074865e-01 6.670358e-01 1.886257e-01 1.373132e+00
<GCONST> 1.208503e+02
<TRANSP> 5
 0.000000e+00 1.000000e+00 0.000000e+00 0.000000e+00 0.000000e+00
 0.000000e+00 7.982950e-01 2.017051e-01 0.000000e+00 0.000000e+00
 0.000000e+00 0.000000e+00 7.927747e-01 2.072252e-01 0.000000e+00
 0.000000e+00 0.000000e+00 0.000000e+00 9.013506e-01 9.864941e-02
 0.000000e+00 0.000000e+00 0.000000e+00 0.000000e+00 0.000000e+00
<ENDHMM>
~h "ce"
<BEGINHMM>
<NUMSTATES> 5
<STATE> 2
<MEAN> 39
 -1.414439e+01 -7.743544e+00 2.981896e+00 -3.338959e+00 -1.236701e+00 -4.557664e+00 -2.877691e+00 -5.862136e+00 -3.202762e+00 -3.443379e+00 -1.721877e+00 -6.371274e+00 5.579076e+01 6.232359e-03 -1.184804e-02 5.264054e-03 -6.519258e-03 1.211933e-02 -4.235122e-03 -3.513063e-03 -1.805109e-02 -5.453553e-03 -6.036517e-03 -7.011238e-03 -6.053182e-03 2.423620e-02 -9.010879e-04 1.120917e-04 9.610619e-04 -2.967312e-04 -9.533982e-04 -8.676147e-04 1.872286e-03 1.397449e-03 1.512503e-03 6.096156e-04 -1.876927e-03 -2.391097e-03 8.105883e-05
<VARIANCE> 39
 8.422131e+01 6.084932e+01 1.073184e+02 6.955961e+01 5.446898e+01 7.079699e+01 4.003558e+01 5.404599e+01 3.966318e+01 3.654010e+01 3.580028e+01 3.070767e+01 4.210256e+02 2.718939e+00 2.774098e+00 2.577951e+00 3.647006e+00 2.640604e+00 2.721262e+00 2.408642e+00 3.156995e+00 2.811726e+00 2.666955e+00 2.489032e+00 1.730701e+00 5.594233e+00 4.269344e-01 4.867565e-01 4.137163e-01 6.318190e-01 4.706055e-01 4.998690e-01 4.513081e-01 5.820021e-01 5.208251e-01 5.037160e-01 4.586603e-01 3.360357e-01 8.262613e-01
<GCONST> 1.297615e+02
<STATE> 3
<MEAN> 39
 -1.414439e+01 -7.743544e+00 2.981896e+00 -3.338959e+00 -1.236701e+00 -4.557664e+00 -2.877691e+00 -5.862136e+00 -3.202762e+00 -3.443379e+00 -1.721877e+00 -6.371274e+00 5.579076e+01 6.232359e-03 -1.184804e-02 5.264054e-03 -6.519258e-03 1.211933e-02 -4.235122e-03 -3.513063e-03 -1.805109e-02 -5.453553e-03 -6.036517e-03 -7.011238e-03 -6.053182e-03 2.423620e-02 -9.010879e-04 1.120917e-04 9.610619e-04 -2.967312e-04 -9.533982e-04 -8.676147e-04 1.872286e-03 1.397449e-03 1.512503e-03 6.096156e-04 -1.876927e-03 -2.391097e-03 8.105883e-05
<VARIANCE> 39
 8.422131e+01 6.084932e+01 1.073184e+02 6.955961e+01 5.446898e+01 7.079699e+01 4.003558e+01 5.404599e+01 3.966318e+01 3.654010e+01 3.580028e+01 3.070767e+01 4.210256e+02 2.718939e+00 2.774098e+00 2.577951e+00 3.647006e+00 2.640604e+00 2.721262e+00 2.408642e+00 3.156995e+00 2.811726e+00 2.666955e+00 2.489032e+00 1.730701e+00 5.594233e+00 4.269344e-01 4.867565e-01 4.137163e-01 6.318190e-01 4.706055e-01 4.998690e-01 4.513081e-01 5.820021e-01 5.208251e-01 5.037160e-01 4.586603e-01 3.360357e-01 8.262613e-01
<GCONST> 1.297615e+02
<STATE> 4
<MEAN> 39
 -1.414439e+01 -7.743544e+00 2.981896e+00 -3.338959e+00 -1.236701e+00 -4.557664e+00 -2.877691e+00 -5.862136e+00 -3.202762e+00 -3.443379e+00 -1.721877e+00 -6.371274e+00 5.579076e+01 6.232359e-03 -1.184804e-02 5.264054e-03 -6.519258e-03 1.211933e-02 -4.235122e-03 -3.513063e-03 -1.805109e-02 -5.453553e-03 -6.036517e-03 -7.011238e-03 -6.053182e-03 2.423620e-02 -9.010879e-04 1.120917e-04 9.610619e-04 -2.967312e-04 -9.533982e-04 -8.676147e-04 1.872286e-03 1.397449e-03 1.512503e-03 6.096156e-04 -1.876927e-03 -2.391097e-03 8.105883e-05
<VARIANCE> 39
 8.422131e+01 6.084932e+01 1.073184e+02 6.955961e+01 5.446898e+01 7.079699e+01 4.003558e+01 5.404599e+01 3.966318e+01 3.654010e+01 3.580028e+01 3.070767e+01 4.210256e+02 2.718939e+00 2.774098e+00 2.577951e+00 3.647006e+00 2.640604e+00 2.721262e+00 2.408642e+00 3.156995e+00 2.811726e+00 2.666955e+00 2.489032e+00 1.730701e+00 5.594233e+00 4.269344e-01 4.867565e-01 4.137163e-01 6.318190e-01 4.706055e-01 4.998690e-01 4.513081e-01 5.820021e-01 5.208251e-01 5.037160e-01 4.586603e-01 3.360357e-01 8.262613e-01
<GCONST> 1.297615e+02
<TRANSP> 5
 0.000000e+00 1.000000e+00 0.000000e+00 0.000000e+00 0.000000e+00
 0.000000e+00 6.000000e-01 4.000000e-01 0.000000e+00 0.000000e+00
