~o
<STREAMINFO> 1 39
<VECSIZE> 39<NULLD><MFCC_D_A_0><DIAGC>
~s "silst"
<MEAN> 39
 -2.600416e+01 1.766395e+00 -1.022132e+01 4.055699e+00 -7.113907e+00 5.296000e+00 -3.600346e+00 1.261439e+00 6.200063e-01 -9.046795e-01 1.156860e+00 -4.079641e-01 2.271501e+01 1.473025e-03 -1.247097e-03 -4.213076e-03 -3.420308e-03 2.128781e-02 2.854743e-02 -3.948463e-03 -1.681256e-02 -1.365001e-02 -1.249610e-02 -7.262917e-03 -4.355397e-03 9.805699e-04 4.745611e-03 -1.654976e-03 1.246646e-02 1.005596e-03 -5.930756e-03 -1.286338e-02 5.519333e-03 8.561207e-03 -1.298301e-04 -5.956107e-04 -1.242515e-02 -1.290356e-02 9.232630e-03
<VARIANCE> 39
 8.422131e-01 1.224724e+00 2.072569e+00 3.203140e+00 5.603276e+00 6.512760e+00 8.214408e+00 9.170472e+00 8.871201e+00 7.721925e+00 8.573219e+00 7.510553e+00 4.210256e+00 6.409282e-02 1.476136e-01 2.431933e-01 3.567078e-01 7.122544e-01 8.083206e-01 1.230041e+00 1.386527e+00 9.951655e-01 8.352123e-01 9.475161e-01 8.658487e-01 5.594234e-02 1.550855e-02 2.999505e-02 5.109546e-02 7.400837e-02 1.439858e-01 1.579925e-01 2.923833e-01 3.225422e-01 2.076107e-01 1.672911e-01 1.975656e-01 1.792188e-01 8.262611e-03
<GCONST> 5.006744e+01
~h "a"
<BEGINHMM>
<NUMSTATES> 5
<STATE> 2
<MEAN> 39
 -6.767636e+00 -1.345504e+01 5.499343e+00 -1.188971e+01 6.704641e-01 -5.489534e+00 -3.147742e+00 -6.890168e+00 -5.502563e+00 -2.432933e+00 -2.374617e+00 -9.003627e+00 7.181381e+01 4.215792e-01 -1.060209e+00 -1.394576e-01 -4.506244e-01 5.461050e-01 -2.626953e-01 6.524274e-02 6.699039e-01 3.355120e-01 -3.084311e-01 -9.228778e-01 -1.636840e-01 1.171512e+00 -5.503773e-02 1.003966e-01 1.113416e-01 2.289469e-01 3.530082e-02 -4.773635e-03 9.817315e-03 -3.990343e-02 2.868107e-02 -8.324029e-02 -5.115883e-02 1.119219e-01 -1.733808e-01
<VARIANCE> 39
 2.431084e+01 2.451544e+01 8.526445e+01 4.354353e+01 4.516444e+01 6.735559e+01 3.363385e+01 3.908182e+01 4.117559e+01 3.890561e+01 3.390400e+01 2.198623e+01 5.499770e+01 2.458778e+00 2.966697e+00 3.014355e+00 3.793100e+00 2.469966e+00 3.218519e+00 1.761651e+00 2.821618e+00 1.894335e+00 2.732251e+00 2.691796e+00 1.635645e+00 6.438888e+00 2.420978e-01 4.212469e-01 3.520147e-01 5.519553e-01 4.028453e-01 4.399077e-01 3.785963e-01 4.711627e-01 3.466285e-01 4.170963e-01 3.414347e-01 3.044096e-01 4.357488e-01
<GCONST> 1.201735e+02
<STATE> 3
<MEAN> 39
 -5.946366e+00 -1.968848e+01 6.444794e+00 -1.223076e+01 4.905252e+00 -1.002043e+01 -3.208798e+00 -2.206999e+00 -2.871124e+00 -5.030007e+00 -9.058509e+00 -8.607626e+00 7.695013e+01 1.676925e-01 -3.827295e-01 4.735906e-01 1.955116e-01 3.736176e-02 -3.864567e-01 3.467917e-01 6.216409e-01 8.426675e-02 -4.999249e-01 -4.523899e-01 5.399615e-01 6.179491e-01 -1.736555e-01 6.914546e-01 9.991421e-02 3.814400e-01 -3.666996e-01 1.822551e-01 -5.931449e-02 -4.192841e-01 -8.036823e-02 2.119112e-01 5.221961e-01 1.007493e-01 -7.219613e-01
<VARIANCE> 39
 6.345723e+00 1.432295e+01 2.718329e+01 1.883080e+01 3.765906e+01 3.133912e+01 3.768549e+01 3.138432e+01 2.215181e+01 3.154190e+01 2.826909e+01 2.121448e+01 1.307260e+01 1.044044e+00 2.195387e+00 2.632990e+00 1.767096e+00 3.063663e+00 2.000679e+00 2.106801e+00 2.572550e+00 1.633598e+00 2.339204e+00 2.223610e+00 1.431246e+00 2.455859e+00 2.561057e-01 2.907957e-01 2.948878e-01 3.762341e-01 2.769559e-01 2.768784e-01 3.461322e-01 4.392135e-01 2.400840e-01 4.066887e-01 3.548263e-01 2.752780e-01 4.897635e-01
<GCONST> 1.067428e+02
<STATE> 4
<MEAN> 39
 -7.230176e+00 -1.504387e+01 8.479231e+00 -9.811213e+00 3.515795e+00 -9.975753e+00 1.410256e+00 -3.801419e+00 -4.468939e+00 -6.230289e+00 -5.402501e+00 -6.697349e+00 7.541581e+01 -1.528290e-01 1.245860e+00 4.409810e-01 1.051854e+00 -2.049913e-01 1.697545e-03 -1.404637e-01 -5.349011e-01 6.119052e-02 5.061121e-02 2.455408e-01 1.854039e-01 -1.127747e+00 -1.075537e-01 2.815790e-01 -1.856717e-02 3.680813e-01 2.717492e-02 1.557017e-01 -1.000524e-01 -1.770488e-01 1.124495e-01 -3.162567e-02 2.460258e-02 -1.061775e-01 -4.688786e-01
<VARIANCE> 39
 1.267072e+01 3.082022e+01 5.994088e+01 4.435439e+01 6.873528e+01 4.604258e+01 3.661382e+01 4.178968e+01 2.221434e+01 4.475215e+01 3.777440e+01 2.408064e+01 2.365990e+01 4.610367e-01 2.259521e+00 1.854506e+00 2.425862e+00 2.147133e+00 1.419114e+00 1.625537e+00 1.775875e+00 1.537177e+00 1.878337e+00 1.774784e+00 1.406603e+00 2.310324e+00 1.542414e-01 2.997952e-01 2.780581e-01 4.642093e-01 3.061606e-01 2.655974e-01 2.862102e-01 4.040727e-01 2.628973e-01 3.395131e-01 2.898845e-01 2.420894e-01 3.044264e-01
<GCONST> 1.082833e+02
<TRANSP> 5
 0.000000e+00 1.000000e+00 0.000000e+00 0.000000e+00 0.000000e+00
 0.000000e+00 6.545447e-01 3.454553e-01 0.000000e+00 0.000000e+00
 0.000000e+00 0.000000e+00 6.376616e-01 3.623383e-01 0.000000e+00
 0.000000e+00 0.000000e+00 0.000000e+00 7.275645e-01 2.724355e-01
 0.000000e+00 0.000000e+00 0.000000e+00 0.000000e+00 0.000000e+00
<ENDHMM>
~h "b"
<BEGINHMM>
<NUMSTATES> 5
<STATE> 2
<MEAN> 39
 -1.414439e+01 -7.743544e+00 2.981896e+00 -3.338959e+00 -1.236701e+00 -4.557664e+00 -2.877691e+00 -5.862136e+00 -3.202762e+00 -3.443379e+00 -1.721877e+00 -6.371274e+00 5.579076e+01 6.232237e-03 -1.184823e-02 5.264243e-03 -6.519453e-03 1.211909e-02 -4.235385e-03 -3.512999e-03 -1.805082e-02 -5.453523e-03 -6.036744e-03 -7.011249e-03 -6.053052e-03 2.423646e-02 -9.010978e-04 1.120651e-04 9.610648e-04 -2.967558e-04 -9.534184e-04 -8.676232e-04 1.872276e-03 1.397487e-03 1.512468e-03 6.095680e-04 -1.876877e-03 -2.391075e-03 8.105070e-05
<VARIANCE> 39
 8.422131e+01 6.084932e+01 1.073184e+02 6.955961e+01 5.446898e+01 7.079699e+01 4.003558e+01 5.404599e+01 3.966318e+01 3.654010e+01 3.580028e+01 3.070767e+01 4.210256e+02 2.718938e+00 2.774098e+00 2.577952e+00 3.647003e+00 2.640600e+00 2.721259e+00 2.408645e+00 3.156996e+00 2.811730e+00 2.666958e+00 2.489032e+00 1.730705e+00 5.594234e+00 4.269334e-01 4.867562e-01 4.137151e-01 6.318184e-01 4.706049e-01 4.998694e-01 4.513086e-01 5.820031e-01 5.208243e-01 5.037161e-01 4.586620e-01 3.360353e-01 8.262612e-01
<GCONST> 1.297615e+02
<STATE> 3
<MEAN> 39
 -1.414439e+01 -7.743544e+00 2.981896e+00 -3.338959e+00 -1.236701e+00 -4.557664e+00 -2.877691e+00 -5.862136e+00 -3.202762e+00 -3.443379e+00 -1.721877e+00 -6.371274e+00 5.579076e+01 6.232237e-03 -1.184823e-02 5.264243e-03 -6.519453e-03 1.211909e-02 -4.235385e-03 -3.512999e-03 -1.805082e-02 -5.453523e-03 -6.036744e-03 -7.011249e-03 -6.053052e-03 2.423646e-02 -9.010978e-04 1.120651e-04 9.610648e-04 -2.967558e-04 -9.534184e-04 -8.676232e-04 1.872276e-03 1.397487e-03 1.512468e-03 6.095680e-04 -1.876877e-03 -2.391075e-03 8.105070e-05
<VARIANCE> 39
 8.422131e+01 6.084932e+01 1.073184e+02 6.955961e+01 5.446898e+01 7.079699e+01 4.003558e+01 5.404599e+01 3.966318e+01 3.654010e+01 3.580028e+01 3.070767e+01 4.210256e+02 2.718938e+00 2.774098e+00 2.577952e+00 3.647003e+00 2.640600e+00 2.721259e+00 2.408645e+00 3.156996e+00 2.811730e+00 2.666958e+00 2.489032e+00 1.730705e+00 5.594234e+00 4.269334e-01 4.867562e-01 4.137151e-01 6.318184e-01 4.706049e-01 4.998694e-01 4.513086e-01 5.820031e-01 5.208243e-01 5.037161e-01 4.586620e-01 3.360353e-01 8.262612e-01
<GCONST> 1.297615e+02
<STATE> 4
<MEAN> 39
 -1.414439e+01 -7.743544e+00 2.981896e+00 -3.338959e+00 -1.236701e+00 -4.557664e+00 -2.877691e+00 -5.862136e+00 -3.202762e+00 -3.443379e+00 -1.721877e+00 -6.371274e+00 5.579076e+01 6.232237e-03 -1.184823e-02 5.264243e-03 -6.519453e-03 1.211909e-02 -4.235385e-03 -3.512999e-03 -1.805082e-02 -5.453523e-03 -6.036744e-03 -7.011249e-03 -6.053052e-03 2.423646e-02 -9.010978e-04 1.120651e-04 9.610648e-04 -2.967558e-04 -9.534184e-04 -8.676232e-04 1.872276e-03 1.397487e-03 1.512468e-03 6.095680e-04 -1.876877e-03 -2.391075e-03 8.105070e-05
<VARIANCE> 39
 8.422131e+01 6.084932e+01 1.073184e+02 6.955961e+01 5.446898e+01 7.079699e+01 4.003558e+01 5.404599e+01 3.966318e+01 3.654010e+01 3.580028e+01 3.070767e+01 4.210256e+02 2.718938e+00 2.774098e+00 2.577952e+00 3.647003e+00 2.640600e+00 2.721259e+00 2.408645e+00 3.156996e+00 2.811730e+00 2.666958e+00 2.489032e+00 1.730705e+00 5.594234e+00 4.269334e-01 4.867562e-01 4.137151e-01 6.318184e-01 4.706049e-01 4.998694e-01 4.513086e-01 5.820031e-01 5.208243e-01 5.037161e-01 4.586620e-01 3.360353e-01 8.262612e-01
<GCONST> 1.297615e+02
<TRANSP> 5
 0.000000e+00 1.000000e+00 0.000000e+00 0.000000e+00 0.000000e+00
 0.000000e+00 6.000000e-01 4.000000e-01 0.000000e+00 0.000000e+00
 0.000000e+00 0.000000e+00 6.000000e-01 4.000000e-01 0.000000e+00
 0.000000e+00 0.000000e+00 0.000000e+00 7.000000e-01 3.000000e-01
 0.000000e+00 0.000000e+00 0.000000e+00 0.000000e+00 0.000000e+00
<ENDHMM>
~h "e"
<BEGINHMM>
<NUMSTATES> 5
<STATE> 2
<MEAN> 39
 -1.961681e+01 -7.325582e+00 -3.203818e-01 2.487498e+00 8.390162e-01 -5.611571e+00 2.636203e+00 -9.557877e+00 4.892539e-01 -5.486789e+00 1.774282e-02 -5.337667e+00 5.567007e+01 2.750108e-01 1.213208e-01 1.700108e-01 -1.330679e-01 -3.458333e-01 -9.289095e-01 8.811053e-02 1.667769e-01 1.102558e-01 1.280587e+00 -7.178875e-01 7.304449e-02 -6.852047e-01 5.901330e-01 -5.770085e-01 6.491376e-01 -3.911244e-01 -6.887553e-02 -6.868601e-01 -5.019862e-01 -1.359484e-02 -1.927261e-01 2.742262e-01 -3.569131e-01 -1.623821e-01 7.253654e-01
<VARIANCE> 39
 1.030470e+02 3.445238e+01 3.949663e+01 3.315144e+01 3.387712e+01 5.230611e+01 4.881783e+01 6.087122e+01 1.271022e+01 3.611642e+01 3.120644e+01 2.722062e+01 3.105293e+02 4.474815e+00 4.655306e+00 3.832193e+00 2.538753e+00 2.954198e+00 9.230269e+00 1.968490e+00 3.629735e+00 9.410532e-01 5.243666e+00 2.661070e+00 1.636543e+00 1.114428e+01 5.880582e-01 5.085018e-01 8.866500e-01 3.579295e-01 5.528511e-01 1.436722e+00 3.323584e-01 6.102930e-01 1.836742e-01 8.938026e-01 3.306833e-01 1.399389e-01 2.296228e+00
<GCONST> 1.289509e+02
<STATE> 3
<MEAN> 39
 -7.921385e+00 -1.384265e+01 8.168318e+00 1.934553e-01 7.011057e-01 -1.568122e+01 -3.393380e+00 -7.162174e+00 -2.991650e+00 4.190431e+00 -6.945446e+00 -9.129956e+00 6.496301e+01 1.128803e+00 -1.319869e+00 1.758726e+00 -6.446543e-01 5.683826e-01 -9.185206e-01 -1.012006e+00 4.379945e-01 -4.359396e-01 1.476242e+00 -2.010816e-01 -2.637377e-01 1.407648e+00 -4.417454e-01 1.844702e-02 -2.862580e-01 -1.392502e-01 1.433477e-01 9.417403e-01 8.842646e-02 -5.053529e-02 7.466611e-02 -9.844994e-01 3.719517e-01 2.216260e-01 -5.118514e-02
<VARIANCE> 39
 3.096498e+01 4.225077e+01 3.430975e+01 1.816289e+01 1.334879e+01 4.305511e+01 1.758760e+01 4.707880e+01 1.431268e+01 2.894966e+01 8.918759e+00 1.373270e+01 1.024534e+02 4.335494e+00 3.944495e+00 2.129973e+00 1.389958e+00 2.269284e+00 5.971783e+00 2.305065e+00 3.678800e+00 1.538371e+00 5.641232e+00 2.847209e+00 1.260835e+00 8.136658e+00 3.808052e-01 1.401588e+00 3.810518e-01 5.627298e-01 2.132092e-01 9.952073e-01 4.733015e-01 5.841705e-01 2.739734e-01 9.546631e-01 4.418281e-01 3.142474e-01 1.205487e+00
<GCONST> 1.198974e+02
<STATE> 4
<MEAN> 39
 -5.610734e+00 -1.186404e+01 1.376946e+01 1.946095e+00 1.359510e-01 -1.160853e+01 -8.002867e+00 -9.284874e+00 -1.545098e+00 4.613183e+00 -7.221442e+00 -8.236838e+00 6.491068e+01 2.210110e-02 -1.890499e-01 4.122117e-01 -7.470919e-02 3.223930e-01 4.008981e-01 -3.347551e-01 1.587475e-01 1.175919e-01 -7.584404e-02 3.239293e-01 3.798128e-01 3.268690e-01 -2.170048e-02 -3.966578e-02 -4.214164e-01 -5.636475e-02 1.697496e-01 2.139909e-01 2.401377e-01 2.017918e-02 2.465865e-02 -1.991296e-01 7.801469e-02 -9.293811e-02 1.423677e-01
<VARIANCE> 39
 1.228701e+01 2.473460e+01 3.416703e+01 1.710417e+01 1.639827e+01 1.173924e+01 1.686446e+01 1.385563e+01 7.619003e+00 1.341312e+01 8.854450e+00 7.423306e+00 4.288642e+01 1.837293e-01 9.661692e-01 1.015651e+00 9.339843e-01 6.815748e-01 1.822027e+00 9.095277e-01 1.304680e+00 7.609069e-01 1.389789e+00 8.224044e-01 4.720124e-01 1.167881e+00 8.766398e-02 3.268433e-01 2.297967e-01 2.159610e-01 9.526986e-02 2.553052e-01 9.599938e-02 1.545399e-01 1.325783e-01 1.825094e-01 1.641693e-01 1.038738e-01 1.650939e-01
<GCONST> 8.084364e+01
<TRANSP> 5
 0.000000e+00 1.000000e+00 0.000000e+00 0.000000e+00 0.000000e+00
 0.000000e+00 5.770687e-01 4.229313e-01 0.000000e+00 0.000000e+00
 0.000000e+00 0.000000e+00 5.263691e-01 4.736309e-01 0.000000e+00
 0.000000e+00 0.000000e+00 0.000000e+00 7.226892e-01 2.773109e-01
 0.000000e+00 0.000000e+00 0.000000e+00 0.000000e+00 0.000000e+00
<ENDHMM>
~h "h"
<BEGINHMM>
<NUMSTATES> 5
<STATE> 2
<MEAN> 39
 -7.105745e+00 -1.208579e+01 8.256217e+00 -7.758690e+00 5.131389e+00 -9.378240e+00 -1.421766e+00 -7.372825e+00 -3.654324e+00 -5.192229e+00 -5.221204e+00 -8.730530e+00 7.258549e+01 -3.246610e-01 1.377811e+00 -1.900916e-01 1.665336e+00 1.024900e+00 1.684324e+00 9.678524e-01 -1.405078e+00 5.877210e-01 -7.612607e-01 1.375412e-01 -6.679552e-01 -1.511498e+00 -3.413243e-01 3.665104e-01 -1.425894e-01 3.627609e-01 -1.882465e-01 2.154662e-01 1.258523e-01 -2.866918e-01 1.647377e-02 5.579206e-02 3.364951e-01 -5.638181e-02 -4.231875e-01
<VARIANCE> 39
 1.948619e+01 4.982969e+01 6.145911e+01 3.034214e+01 4.563364e+01 4.561819e+01 2.793484e+01 3.867422e+01 3.530135e+01 3.916166e+01 5.209254e+01 2.172433e+01 3.148109e+01 1.176389e+00 2.263449e+00 2.231806e+00 4.342076e+00 1.760542e+00 1.580550e+00 2.468139e+00 3.449963e+00 2.258655e+00 4.657497e+00 2.483471e+00 1.547319e+00 2.934325e+00 3.556766e-01 5.503829e-01 3.048474e-01 5.508528e-01 5.488227e-01 2.872558e-01 4.240732e-01 6.725619e-01 5.848916e-01 5.899518e-01 5.228737e-01 3.192941e-01 2.215043e-01
<GCONST> 1.187381e+02
<STATE> 3
<MEAN> 39
 -9.886859e+00 -9.261807e+00 7.055248e+00 -1.697912e+00 6.600994e+00 -4.721797e+00 2.925654e+00 -1.176898e+01 -2.316004e+00 -9.257640e+00 -5.115560e+00 -1.001748e+01 6.849367e+01 -9.436281e-01 1.135847e+00 -5.911728e-01 1.101688e+00 1.216906e-02 8.962082e-01 3.095362e-01 -4.178632e-01 6.279304e-01 1.101169e-01 3.565022e-01 -1.713903e-01 -1.801322e+00 -1.651813e-01 -1.338164e-01 -1.979653e-01 -3.797082e-01 -2.764322e-01 -2.232027e-01 -2.441002e-01 2.399946e-01 -4.779282e-02 2.831205e-01 1.404552e-01 2.883259e-01 -1.037628e-01
<VARIANCE> 39
 2.585485e+01 4.187178e+01 4.290051e+01 3.870264e+01 4.308189e+01 5.278671e+01 3.835192e+01 2.461407e+01 4.997718e+01 4.991986e+01 3.791432e+01 1.624270e+01 3.980775e+01 2.866609e+00 2.318081e+00 2.170807e+00 4.388053e+00 2.734822e+00 3.048178e+00 2.763335e+00 5.085438e+00 3.432526e+00 3.916829e+00 2.982711e+00 1.732458e+00 2.733293e+00 3.245999e-01 4.659121e-01 3.087242e-01 7.542598e-01 3.637530e-01 3.648034e-01 4.753685e-01 4.791597e-01 6.718520e-01 3.608223e-01 3.618573e-01 2.785234e-01 3.986374e-01
<GCONST> 1.212685e+02
<STATE> 4
<MEAN> 39
 -1.623969e+01 -6.666120e+00 6.439965e+00 -4.536883e+00 1.808019e+00 -2.071584e+00 1.704147e+00 -1.195611e+01 -1.034972e+00 -6.314232e+00 -1.825138e+00 -8.527551e+00 6.072261e+01 -4.835002e-01 3.629621e-01 -8.263303e-01 3.048396e-01 -3.498529e-01 3.779461e-01 -1.359501e-01 2.388390e-02 4.027698e-02 3.421494e-01 2.256291e-01 2.813542e-01 -1.547537e+00 4.070002e-02 -2.613403e-01 4.402183e-02 -1.494362e-01 -1.224529e-01 -2.616937e-01 -1.791969e-01 5.590033e-02 -1.872362e-01 -3.906810e-02 8.681367e-02 1.227456e-01 2.657256e-01
<VARIANCE> 39
 5.193636e+01 2.228842e+01 8.541019e+01 3.895792e+01 3.281670e+01 2.997301e+01 1.967402e+01 3.367704e+01 3.060352e+01 4.703309e+01 3.385565e+01 1.898983e+01 8.457982e+01 2.893434e+00 2.035797e+00 1.788972e+00 2.409946e+00 2.244522e+00 2.664178e+00 1.975622e+00 3.131731e+00 2.047567e+00 2.512253e+00 3.683735e+00 1.965528e+00 1.663813e+00 1.852883e-01 4.364485e-01 3.492202e-01 6.771901e-01 3.326951e-01 3.785514e-01 3.390173e-01 4.574137e-01 3.606846e-01 6.096643e-01 5.647506e-01 4.801719e-01 4.830296e-01
<GCONST> 1.179365e+02
<TRANSP> 5
 0.000000e+00 1.000000e+00 0.000000e+00 0.000000e+00 0.000000e+00
 0.000000e+00 3.700788e-01 6.299212e-01 0.000000e+00 0.000000e+00
 0.000000e+00 0.000000e+00 5.095898e-01 4.904102e-01 0.000000e+00
 0.000000e+00 0.000000e+00 0.000000e+00 5.809615e-01 4.190385e-01
 0.000000e+00 0.000000e+00 0.000000e+00 0.000000e+00 0.000000e+00
<ENDHMM>
~h "i"
<BEGINHMM>
<NUMSTATES> 5
<STATE> 2
<MEAN> 39
 -1.080009e+01 -9.245355e+00 1.233832e+01 -4.708817e+00 -5.323278e+00 -9.468958e+00 -6.519943e-01 -4.707557e+00 -5.225039e+00 -2.905922e+00 -1.854007e+00 -5.929297e+00 6.623666e+01 -2.125358e-01 6.824488e-01 9.631001e-01 -1.989564e-01 -7.326737e-01 9.347992e-02 1.811477e-01 -5.870013e-01 -4.769384e-01 1.217344e-01 7.311803e-01 1.493011e-02 1.418617e-01 -1.302871e-02 -1.245909e-01 2.375354e-01 -3.723374e-01 -1.211640e-01 2.867442e-01 -3.967775e-02 -5.384070e-02 -2.241735e-01 2.902304e-02 6.282628e-02 -1.985031e-01 2.597728e-01
<VARIANCE> 39
 4.868150e+01 4.791160e+01 9.559663e+01 5.835707e+01 4.796610e+01 4.973702e+01 2.313854e+01 7.803604e+01 3.293931e+01 2.268157e+01 3.886525e+01 1.716373e+01 2.644879e+02 2.093354e+00 2.179312e+00 1.989529e+00 3.216514e+00 2.367474e+00 2.041216e+00 1.816828e+00 2.167704e+00 1.664032e+00 2.263304e+00 2.128715e+00 1.120419e+00 4.485769e+00 3.378212e-01 4.191141e-01 7.159114e-01 7.783871e-01 3.783716e-01 4.538347e-01 3.128382e-01 7.049962e-01 3.966520e-01 4.608970e-01 3.666418e-01 3.097975e-01 1.089190e+00
<GCONST> 1.224455e+02
<STATE> 3
<MEAN> 39
 -1.669038e+01 -5.804393e+00 8.040611e+00 -1.884487e+00 -6.869111e+00 -5.679503e+00 3.560573e-02 -6.073308e+00 -3.439545e+00 -1.983428e+00 1.926608e+00 -5.170795e+00 5.300285e+01 8.831022e-01 -1.127680e+00 4.109683e+00 -2.803580e+00 -1.453472e+00 -2.992350e-01 6.116777e-01 -1.061003e+00 -2.128583e+00 3.223744e-01 4.092514e-01 -1.163015e+00 4.022985e+00 4.910888e-01 -3.609334e-01 6.780821e-01 -4.445795e-01 -9.897751e-02 1.817167e-01 -1.356127e-01 1.619308e-01 -5.422254e-01 1.757937e-01 -2.670682e-01 -2.500131e-01 7.479587e-01
<VARIANCE> 39
 5.910310e+01 3.600026e+01 1.416262e+02 3.664877e+01 2.139211e+01 5.889911e+01 2.987924e+01 5.725498e+01 3.769953e+01 2.290324e+01 1.942594e+01 2.012247e+01 3.882828e+02 5.184069e+00 3.745397e+00 1.105406e+01 4.905282e+00 2.643820e+00 4.441773e+00 2.167129e+00 3.586970e+00 3.472361e+00 2.916318e+00 3.157598e+00 1.833496e+00 1.639745e+01 4.483440e-01 4.767144e-01 1.459900e+00 7.013772e-01 5.086750e-01 5.365000e-01 4.308197e-01 6.998975e-01 7.229267e-01 3.367646e-01 3.804982e-01 3.856800e-01 1.607121e+00
<GCONST> 1.326365e+02
<STATE> 4
<MEAN> 39
 -9.147573e+00 -9.461871e+00 2.052792e+01 -5.813916e+00 -9.607671e+00 -6.862165e+00 -2.631937e-01 -6.252929e+00 -1.133971e+01 5.158050e-01 1.815735e+00 -8.289436e+00 6.717881e+01 4.024042e-01 -1.556450e-01 7.584417e-01 -6.227724e-01 1.135312e-03 6.563136e-02 4.397094e-02 -1.676672e-01 -4.733378e-01 -7.551756e-03 -4.655486e-02 -2.532073e-01 1.322001e+00 -1.573760e-01 9.261805e-02 -5.406547e-01 2.242970e-01 2.717437e-01 7.039338e-03 -4.455009e-02 2.014856e-02 3.743344e-01 -1.264656e-01 -1.333947e-01 6.594048e-02 -3.746258e-01
<VARIANCE> 39
 1.575697e+01 2.616458e+01 3.030764e+01 6.518063e+01 2.914127e+01 3.509265e+01 2.491263e+01 3.579679e+01 2.907515e+01 3.250205e+01 3.326608e+01 2.038651e+01 7.718106e+01 3.312016e+00 2.995658e+00 6.333850e+00 1.011196e+01 3.204278e+00 3.325774e+00 2.096653e+00 3.235984e+00 4.571382e+00 3.892722e+00 3.246940e+00 1.539786e+00 8.815721e+00 4.063313e-01 5.634223e-01 1.152220e+00 1.685512e+00 5.421645e-01 5.745057e-01 4.702133e-01 5.744007e-01 6.826645e-01 7.949557e-01 7.547432e-01 3.059219e-01 1.355090e+00
<GCONST> 1.290685e+02
<TRANSP> 5
 0.000000e+00 1.000000e+00 0.000000e+00 0.000000e+00 0.000000e+00
 0.000000e+00 5.472746e-01 4.527254e-01 0.000000e+00 0.000000e+00
 0.000000e+00 0.000000e+00 3.711339e-01 6.288661e-01 0.000000e+00
 0.000000e+00 0.000000e+00 0.000000e+00 7.948157e-01 2.051843e-01
 0.000000e+00 0.000000e+00 0.000000e+00 0.000000e+00 0.000000e+00
<ENDHMM>
~h "k"
<BEGINHMM>
<NUMSTATES> 5
<STATE> 2
<MEAN> 39
 -1.286119e+01 -2.766502e+00 2.020652e-01 -6.012643e+00 7.193418e-01 -5.712852e+00 -7.408601e+00 -9.937340e+00 -3.981299e+00 -2.858666e+00 1.260922e+00 -6.468489e+00 5.410627e+01 -1.075696e+00 -3.687523e-02 -6.413088e-01 9.139362e-01 -2.837125e-01 2.097035e-02 4.521749e-01 1.656986e-01 5.215718e-01 -6.802585e-01 -5.090557e-01 2.120914e-01 -1.820012e+00 -3.969063e-02 -3.828484e-01 1.130503e-01 -1.149761e-01 -9.451323e-02 -2.845555e-01 6.349050e-02 -7.393240e-03 -9.005739e-02 -1.074770e-01 4.986716e-02 -3.043348e-02 5.013309e-01
<VARIANCE> 39
 2.668472e+01 2.540551e+01 3.635093e+01 6.493536e+01 4.418484e+01 3.681603e+01 3.218764e+01 2.943985e+01 5.627670e+01 2.763943e+01 2.993561e+01 2.109752e+01 1.147399e+02 1.457427e+00 4.259417e+00 2.531218e+00 3.553411e+00 2.676747e+00 4.537085e+00 2.622548e+00 2.839819e+00 3.525245e+00 2.366473e+00 2.896789e+00 1.580830e+00 7.824296e+00 3.830101e-01 7.156867e-01 7.094428e-01 7.700293e-01 7.385527e-01 9.766087e-01 6.102012e-01 6.330194e-01 9.595179e-01 4.595453e-01 6.228300e-01 4.292921e-01 1.642541e+00
<GCONST> 1.281604e+02
<STATE> 3
<MEAN> 39
 -1.643682e+01 -8.441013e+00 1.210421e+00 -4.146852e+00 1.425209e+00 -9.467188e+00 -2.967345e+00 -1.103892e+01 -2.694825e+00 -6.309052e+00 -1.054847e+00 -7.712814e+00 5.754118e+01 2.698194e-01 6.526257e-01 9.411825e-01 -3.204382e-01 -1.972649e-01 -6.667099e-01 2.368974e-01 -2.709750e-01 -9.926043e-01 -3.046066e-01 1.308515e-01 1.306772e-01 7.577131e-01 3.920149e-01 3.674098e-01 3.193398e-01 -1.629668e-01 -3.288736e-01 2.706589e-01 -1.989012e-01 4.556077e-01 2.437392e-02 4.942242e-01 2.785639e-01 1.602970e-01 -1.314091e-01
<VARIANCE> 39
 2.545091e+01 3.816983e+01 4.417454e+01 3.853284e+01 4.565427e+01 7.276057e+01 6.333244e+01 3.628671e+01 2.777268e+01 4.308648e+01 2.061821e+01 1.702231e+01 7.997978e+01 4.269831e+00 5.074782e+00 7.656912e+00 7.347415e+00 3.080328e+00 7.099834e+00 6.310744e+00 5.658289e+00 5.693764e+00 5.064128e+00 1.435807e+00 2.874139e+00 1.750721e+01 9.479231e-01 1.267823e+00 1.463083e+00 8.097428e-01 5.887262e-01 1.155987e+00 1.391141e+00 8.727934e-01 7.896020e-01 1.211128e+00 3.275647e-01 3.798403e-01 2.615928e+00
<GCONST> 1.395769e+02
<STATE> 4
<MEAN> 39
 -1.796677e+01 -2.980966e+00 -9.266578e-01 4.818225e-02 -3.486764e+00 -5.688006e+00 -5.421241e+00 -5.332463e+00 -2.422617e+00 -2.389655e+00 1.754930e-01 -5.403204e+00 4.336480e+01 4.006055e-01 -4.619649e-01 4.739324e-01 -3.375243e-01 -3.947659e-01 -4.353162e-01 -1.530315e-01 4.232386e-01 -6.807034e-02 1.458707e-01 6.120738e-02 -6.213940e-02 7.718345e-01 2.361597e-01 -3.412021e-01 1.735294e-01 -2.820818e-01 2.353676e-01 -4.672565e-02 3.716117e-02 -1.697820e-01 -3.537770e-03 -1.143767e-01 -1.153533e-01 -1.496655e-01 8.182361e-01
<VARIANCE> 39
 3.074270e+01 3.988455e+01 5.223893e+01 4.564568e+01 3.294618e+01 9.055305e+01 3.326216e+01 4.568863e+01 4.423784e+01 2.655784e+01 2.029979e+01 1.681461e+01 2.102547e+02 5.267994e+00 4.346777e+00 7.710988e+00 4.182077e+00 3.733341e+00 8.740628e+00 3.679858e+00 6.791966e+00 5.438197e+00 4.904645e+00 2.203455e+00 1.984609e+00 2.241711e+01 6.439791e-01 9.761000e-01 9.330377e-01 9.554488e-01 4.790867e-01 2.350645e+00 5.740817e-01 1.380313e+00 1.230599e+00 8.310909e-01 4.432925e-01 3.308542e-01 4.059138e+00
<GCONST> 1.401309e+02
<TRANSP> 5
 0.000000e+00 1.000000e+00 0.000000e+00 0.000000e+00 0.000000e+00
 0.000000e+00 7.519160e-01 2.480841e-01 0.000000e+00 0.000000e+00
 0.000000e+00 0.000000e+00 5.095130e-01 4.904870e-01 0.000000e+00
 0.000000e+00 0.000000e+00 0.000000e+00 6.352315e-01 3.647685e-01
 0.000000e+00 0.000000e+00 0.000000e+00 0.000000e+00 0.000000e+00
<ENDHMM>
~h "l"
<BEGINHMM>
<NUMSTATES> 5
<STATE> 2
<MEAN> 39
 -3.559654e+00 -1.278445e+01 -4.434156e-01 -2.254074e+01 5.265894e+00 3.651553e+00 3.305510e-01 -1.568068e+01 -3.034134e+00 -5.632466e+00 -1.837304e+00 -9.317738e+00 7.447195e+01 2.467407e-02 -1.444622e-01 1.562756e-01 -5.903161e-02 -2.432074e-01 -9.272674e-02 -3.576299e-01 9.441414e-02 -1.918053e-01 1.587500e-01 2.774065e-01 3.323546e-02 8.799583e-02 -5.260903e-02 9.264462e-02 5.907972e-02 9.294868e-02 3.910236e-03 -5.071024e-02 -4.037722e-02 -9.867383e-03 -2.029843e-02 -2.552120e-02 -7.281391e-02 3.383166e-02 -7.337265e-02
<VARIANCE> 39
 9.248096e+00 4.636096e+01 3.402438e+01 2.845287e+01 5.522052e+01 8.802330e+00 1.884673e+01 1.139210e+01 1.195707e+01 2.326245e+01 1.709642e+01 6.923524e+00 4.445723e+01 4.484211e-01 3.340685e+00 1.071996e+00 1.643421e+00 2.668170e+00 1.188955e+00 1.631319e+00 1.400247e+00 9.228377e-01 6.793799e-01 8.044935e-01 7.613282e-01 1.389774e+00 9.080248e-02 3.215954e-01 2.491019e-01 3.528690e-01 4.133518e-01 2.020178e-01 3.078615e-01 2.547337e-01 1.475211e-01 1.237455e-01 1.136723e-01 1.420862e-01 1.709345e-01
<GCONST> 9.179936e+01
<STATE> 3
<MEAN> 39
 -9.739116e+00 -6.166948e+00 1.664437e+01 -1.353931e+01 -5.808287e+00 3.949128e-01 -8.764783e+00 -1.675814e+01 -8.232734e+00 -4.840961e+00 1.402503e-01 -1.121707e+01 7.168716e+01 -8.365631e-02 2.508607e-01 1.155028e-02 -5.198897e-02 -8.739368e-02 -5.359556e-01 2.359519e-02 -3.805759e-01 -1.098942e-02 -2.018702e-01 -4.586263e-01 6.273859e-02 -4.448330e-01 -4.941777e-02 6.802488e-03 -2.623183e-01 1.794968e-01 3.506653e-02 -6.964325e-02 2.634693e-01 -1.073514e-01 1.400054e-01 -1.071688e-01 -9.309949e-02 2.840230e-02 3.856203e-02
<VARIANCE> 39
 3.333175e+01 3.156230e+01 1.898088e+02 5.960386e+01 3.527323e+01 6.653155e+00 3.989219e+00 1.711526e+01 1.185699e+01 2.321665e+01 2.550916e+01 5.833373e+00 4.418193e+01 3.430039e-01 8.375838e-01 8.351190e-01 1.116204e+00 1.372626e+00 1.120740e+00 1.483978e+00 1.243321e+00 9.669698e-01 1.314969e+00 6.903201e-01 3.670204e-01 4.980778e-01 5.010247e-02 1.736080e-01 1.075167e-01 3.251069e-01 1.521998e-01 1.713978e-01 1.736268e-01 3.935973e-01 3.498307e-01 2.285130e-01 1.623293e-01 6.264995e-02 1.037366e-01
<GCONST> 8.614732e+01
<STATE> 4
<MEAN> 39
 -8.548256e+00 -8.534580e+00 1.850861e+00 -1.099713e+01 -3.633032e-01 -2.771141e+00 -7.036890e+00 -1.988625e+01 -8.280925e+00 -1.112912e+01 -5.116581e+00 -1.241210e+01 6.539416e+01 -6.870335e-01 1.646287e-01 -3.667865e-01 1.529230e+00 4.718846e-01 -8.056353e-01 -6.708235e-05 1.954283e-01 1.150023e-01 -6.852240e-02 6.093008e-01 -5.152903e-02 -7.536043e-01 -3.393719e-03 -2.074825e-01 1.143516e-01 1.016279e-01 -2.519696e-02 -4.335868e-02 1.037885e-01 3.039819e-01 1.613986e-01 7.519361e-02 8.582692e-02 6.177365e-02 1.204687e-01
<VARIANCE> 39
 1.866722e+01 1.294852e+01 5.059892e+01 3.957068e+01 1.667026e+01 3.877625e+01 2.149090e+01 2.217153e+01 1.641310e+01 4.447572e+01 8.507343e+00 2.164865e+01 6.289988e+01 7.792366e-01 1.789813e+00 1.121871e+00 2.116182e+00 5.833261e-01 1.497113e+00 2.840507e+00 1.035357e+00 2.227387e+00 3.760675e+00 8.469538e-01 2.171713e+00 1.511195e+00 2.303557e-01 2.566754e-01 1.932693e-01 5.324806e-01 1.604866e-01 3.649609e-01 4.591796e-01 2.997600e-01 3.238688e-01 5.143059e-01 2.143651e-01 2.223801e-01 1.075665e-01
<GCONST> 1.016556e+02
<TRANSP> 5
 0.000000e+00 1.000000e+00 0.000000e+00 0.000000e+00 0.000000e+00
 0.000000e+00 8.859414e-01 1.140585e-01 0.000000e+00 0.000000e+00
 0.000000e+00 0.000000e+00 7.588102e-01 2.411899e-01 0.000000e+00
 0.000000e+00 0.000000e+00 0.000000e+00 7.171662e-01 2.828339e-01
 0.000000e+00 0.000000e+00 0.000000e+00 0.000000e+00 0.000000e+00
<ENDHMM>
~h "m"
<BEGINHMM>
<NUMSTATES> 5
<STATE> 2
<MEAN> 39
 -3.260741e+00 -1.420106e+01 3.827983e+00 -1.025758e+01 5.481076e+00 -3.048276e+00 -3.564773e+00 -7.627518e+00 -2.620622e+00 -2.208666e+00 -2.456846e+00 -9.925919e+00 7.200599e+01 2.605896e-01 6.584299e-01 1.331271e+00 1.237711e+00 -1.682781e-02 7.162150e-01 -4.190837e-01 -1.384875e+00 -6.862288e-01 3.156113e-01 1.178585e+00 1.647606e-01 -7.470926e-01 -5.242881e-01 2.911500e-01 4.436350e-01 5.450165e-01 -1.708312e-01 -2.546797e-01 -1.999620e-01 -3.037915e-01 -1.034788e-01 -2.498043e-02 1.274800e-01 1.477842e-01 -5.001448e-01
<VARIANCE> 39
 5.622546e+00 1.765423e+01 1.897166e+01 3.438857e+01 3.724207e+01 3.740954e+01 3.419130e+01 3.191764e+01 2.360228e+01 1.501938e+01 3.613737e+01 1.584746e+01 2.519570e+01 1.216882e+00 2.137760e+00 3.050302e+00 4.206528e+00 2.266599e+00 2.562707e+00 2.570697e+00 2.870313e+00 2.221167e+00 1.937081e+00 2.954123e+00 1.508840e+00 4.252003e+00 3.570774e-01 3.285772e-01 4.730662e-01 4.783083e-01 4.058938e-01 4.368853e-01 3.513367e-01 3.728815e-01 4.568554e-01 3.326351e-01 4.184763e-01 2.525374e-01 3.491771e-01
<GCONST> 1.115302e+02
<STATE> 3
<MEAN> 39
 -4.510413e+00 -1.016215e+01 1.181556e+01 -2.902259e+00 1.820775e+00 -3.786577e-01 -8.033532e+00 -1.321882e+01 -9.158818e+00 -1.325923e+00 2.989519e+00 -9.774731e+00 6.789256e+01 -5.461340e-01 8.825172e-01 1.842528e+00 1.794639e+00 2.025001e-01 -2.640859e-01 -1.045137e+00 -1.445218e+00 -7.294208e-01 2.517101e-01 3.827165e-01 1.826418e-01 -1.364461e+00 -2.853484e-02 -1.117868e-01 -4.279438e-01 -4.059246e-01 5.779988e-02 -2.725318e-01 1.445882e-01 4.100181e-01 3.319269e-01 -9.219024e-02 -4.759557e-01 -2.121869e-03 2.865461e-01
<VARIANCE> 39
 3.151286e+00 1.799196e+01 2.586370e+01 3.881808e+01 1.981647e+01 3.407966e+01 3.943311e+01 2.919631e+01 2.254636e+01 2.370836e+01 2.755313e+01 1.221888e+01 1.552732e+01 3.179872e-01 1.406760e+00 3.198431e+00 3.386718e+00 1.864077e+00 2.100318e+00 2.536211e+00 2.690381e+00 2.426849e+00 2.147512e+00 2.622711e+00 1.481365e+00 1.384220e+00 6.668042e-02 1.958495e-01 5.033392e-01 5.996003e-01 3.536140e-01 2.499775e-01 5.305436e-01 4.160643e-01 4.711753e-01 3.519499e-01 6.119581e-01 2.424769e-01 2.127374e-01
<GCONST> 1.045048e+02
<STATE> 4
<MEAN> 39
 -5.789492e+00 -7.110678e+00 1.328726e+01 5.220143e-01 2.376630e+00 -2.518268e+00 -9.477923e+00 -1.531761e+01 -6.709395e+00 -1.495153e+00 3.569402e-01 -8.322577e+00 6.330002e+01 -2.399959e-01 8.087823e-01 -1.202466e-01 3.127783e-01 -2.075513e-01 -3.102255e-01 3.159192e-01 -2.054027e-01 3.425842e-01 -2.425201e-01 -4.908222e-01 1.084003e-01 -6.479270e-01 -5.904819e-02 -2.994953e-02 -3.691623e-01 -2.817594e-01 2.469940e-02 -2.408436e-02 3.156818e-01 3.060176e-01 1.744244e-01 -1.917615e-01 -4.674985e-02 -5.179799e-02 1.372046e-01
<VARIANCE> 39
 4.486677e+00 2.056449e+01 2.154645e+01 2.090837e+01 1.801788e+01 3.715105e+01 2.767317e+01 2.564418e+01 2.844136e+01 2.706326e+01 3.669571e+01 1.660663e+01 2.410390e+01 2.803573e-01 1.154042e+00 1.305723e+00 1.534119e+00 1.059377e+00 1.065700e+00 1.807126e+00 1.598490e+00 1.638188e+00 1.719762e+00 2.155834e+00 1.187563e+00 8.210561e-01 9.799093e-02 2.589384e-01 2.363764e-01 3.354324e-01 2.548004e-01 2.210345e-01 2.975464e-01 3.637247e-01 3.021068e-01 3.293511e-01 4.784547e-01 2.519991e-01 1.770738e-01
<GCONST> 9.668806e+01
<TRANSP> 5
 0.000000e+00 1.000000e+00 0.000000e+00 0.000000e+00 0.000000e+00
 0.000000e+00 6.255596e-01 3.744404e-01 0.000000e+00 0.000000e+00
 0.000000e+00 0.000000e+00 5.685770e-01 4.314230e-01 0.000000e+00
 0.000000e+00 0.000000e+00 0.000000e+00 8.278982e-01 1.721018e-01
 0.000000e+00 0.000000e+00 0.000000e+00 0.000000e+00 0.000000e+00
<ENDHMM>
~h "n"
<BEGINHMM>
<NUMSTATES> 5
<STATE> 2
<MEAN> 39
 -5.158796e+00 -1.389857e+01 1.106802e+01 -1.755404e+00 6.197327e-01 -9.265403e+00 -3.355505e+00 -5.697830e+00 -3.609050e+00 -2.623659e+00 -9.306537e+00 -8.627474e+00 7.051476e+01 4.334231e-02 2.306499e+00 1.460142e+00 2.277288e+00 -1.166265e+00 -4.005983e-01 -4.967771e-01 -2.241417e+00 2.719351e-01 1.232574e+00 -2.567579e-01 -8.641174e-02 -2.549185e+00 -1.030102e-01 5.806584e-02 -5.730898e-02 -2.392382e-01 -1.068321e-01 -5.554554e-02 4.463401e-02 1.904432e-02 -3.763461e-02 -1.127540e-01 1.861553e-02 9.547016e-02 2.986053e-02
<VARIANCE> 39
 5.275382e+00 3.454457e+01 3.115657e+01 3.025308e+01 4.313860e+01 2.912837e+01 2.381157e+01 4.225726e+01 2.558612e+01 3.478436e+01 2.795708e+01 2.092430e+01 3.277751e+01 4.165606e-01 1.825884e+00 2.575668e+00 2.272911e+00 2.609789e+00 2.452213e+00 1.538107e+00 2.736101e+00 2.189504e+00 2.642715e+00 2.329467e+00 1.806877e+00 1.712844e+00 7.003357e-02 4.389210e-01 4.131766e-01 4.376173e-01 3.788885e-01 3.025691e-01 2.263610e-01 6.132984e-01 3.427731e-01 6.000248e-01 2.626293e-01 2.904973e-01 4.235149e-01
<GCONST> 1.086047e+02
<STATE> 3
<MEAN> 39
 -5.938622e+00 -5.971106e+00 1.376863e+01 3.345339e+00 -3.752618e+00 -9.915573e+00 -5.159218e+00 -1.233624e+01 -4.265437e+00 -2.327318e+00 -1.001044e+01 -7.571511e+00 6.173570e+01 -2.612348e-01 7.989408e-01 -3.218473e-01 3.026031e-01 7.136941e-02 2.294703e-01 -6.125830e-02 -6.011254e-01 -1.902925e-01 -4.090918e-01 2.449791e-01 7.463999e-02 -8.800414e-01 -1.461646e-01 -2.862175e-01 -3.360872e-01 -3.180880e-01 3.089775e-01 1.478651e-01 1.254324e-01 3.316262e-01 -2.799807e-02 -2.786529e-01 3.219552e-01 -3.693235e-02 2.861591e-01
<VARIANCE> 39
 4.823533e+00 1.905084e+01 2.633558e+01 1.634019e+01 2.584475e+01 3.307890e+01 3.178829e+01 2.376221e+01 3.493095e+01 4.464911e+01 3.377388e+01 1.829429e+01 2.398364e+01 3.555053e-01 1.139339e+00 1.034189e+00 1.035449e+00 1.803854e+00 1.253053e+00 1.175794e+00 1.570729e+00 1.660506e+00 1.920860e+00 1.897212e+00 1.392299e+00 7.389844e-01 1.034616e-01 2.707313e-01 2.830539e-01 3.441631e-01 3.511795e-01 2.810694e-01 2.811229e-01 3.826441e-01 3.734046e-01 4.768807e-01 4.043560e-01 2.917933e-01 2.421942e-01
<GCONST> 9.928894e+01
<STATE> 4
<MEAN> 39
 -1.099100e+01 -4.511269e+00 8.280950e+00 2.899621e+00 2.900362e-01 -7.966102e+00 -3.790854e+00 -1.107592e+01 -3.806578e+00 -6.255772e+00 -4.949139e+00 -8.077866e+00 5.686877e+01 -1.493559e+00 -9.035073e-01 -1.468426e+00 -1.601230e+00 6.641601e-01 -1.140558e-01 6.087587e-01 7.174261e-01 5.162794e-01 -9.079075e-01 1.508820e+00 2.251402e-01 4.359607e-01 1.028385e-01 -4.023733e-01 9.332113e-03 -6.204937e-01 -1.675094e-01 -1.466580e-01 -4.349163e-02 1.100819e-01 8.575356e-02 2.099081e-01 -1.199735e-01 2.542910e-02 6.059827e-01
<VARIANCE> 39
 3.425460e+01 3.763076e+01 4.349894e+01 3.540747e+01 3.591561e+01 4.126021e+01 3.669855e+01 3.652500e+01 3.421217e+01 5.008283e+01 2.966311e+01 2.040471e+01 7.300716e+01 2.090904e+00 3.424222e+00 2.463432e+00 4.531673e+00 2.985540e+00 4.477913e+00 3.017390e+00 3.549805e+00 3.029568e+00 4.231456e+00 3.385825e+00 2.486861e+00 5.226639e+00 5.842594e-01 7.885294e-01 3.285896e-01 6.680309e-01 4.574202e-01 8.043320e-01 5.354973e-01 7.313356e-01 5.193759e-01 8.290414e-01 6.066378e-01 4.563762e-01 6.731707e-01
<GCONST> 1.277522e+02
<TRANSP> 5
 0.000000e+00 1.000000e+00 0.000000e+00 0.000000e+00 0.000000e+00
 0.000000e+00 6.902894e-01 3.097105e-01 0.000000e+00 0.000000e+00
 0.000000e+00 0.000000e+00 8.080899e-01 1.919100e-01 0.000000e+00
 0.000000e+00 0.000000e+00 0.000000e+00 6.210053e-01 3.789947e-01
 0.000000e+00 0.000000e+00 0.000000e+00 0.000000e+00 0.000000e+00
<ENDHMM>
~h "o"
<BEGINHMM>
<NUMSTATES> 5
<STATE> 2
<MEAN> 39
 -1.807469e+01 -4.248874e+00 -2.504628e+00 -1.197408e+00 -1.487284e+00 -2.717106e+00 -4.705620e+00 -2.988076e+00 -8.268014e-01 -3.803850e-01 -1.141229e+00 -4.829355e+00 4.389983e+01 -3.354838e-02 3.179070e-01 -7.291786e-01 -5.607860e-01 1.156795e-01 7.225550e-01 -2.973755e-01 -2.589667e-01 -1.016124e-01 4.091918e-02 3.108751e-01 6.613535e-02 -5.647602e-01 5.351309e-01 -2.781591e-01 2.380165e-01 -4.468117e-01 1.954661e-01 -1.522131e-02 1.257520e-02 -3.572483e-01 -2.978400e-01 -2.080604e-01 -1.602490e-02 -1.802736e-01 8.813968e-01
<VARIANCE> 39
 8.349805e+01 5.920905e+01 6.466193e+01 7.797902e+01 4.362512e+01 8.105254e+01 1.981516e+01 3.839758e+01 1.660830e+01 2.970353e+01 3.719767e+01 4.346971e+01 4.873591e+02 1.510636e+00 1.562863e+00 1.708712e+00 2.943252e+00 3.057132e+00 3.089040e+00 1.135992e+00 3.166712e+00 2.237151e+00 2.161167e+00 1.987943e+00 2.309131e+00 4.768616e+00 5.575186e-01 4.830096e-01 2.722832e-01 8.028845e-01 6.779675e-01 5.373518e-01 5.015467e-01 4.835181e-01 5.140797e-01 6.647589e-01 4.699864e-01 7.002338e-01 1.594651e+00
<GCONST> 1.269767e+02
<STATE> 3
<MEAN> 39
 -1.747406e+01 -4.032711e+00 -6.998551e+00 -3.997960e+00 -1.992954e+00 1.140012e+00 -5.889468e+00 -3.106112e+00 -2.673747e+00 -2.373186e+00 7.319063e-03 -4.784664e+00 4.053788e+01 3.404309e+00 -1.713456e+00 8.884727e-01 -3.433264e+00 2.445748e+00 3.153440e-02 -2.155002e-01 -1.975058e+00 -1.507989e+00 -3.423591e-01 -3.283535e-01 -1.326822e+00 5.775533e+00 7.252480e-01 -1.714576e-01 5.882043e-01 -5.180892e-01 4.389743e-01 1.050121e-01 2.516085e-01 -1.907633e-01 -2.714199e-01 1.356489e-01 -1.025010e-01 -1.236800e-01 1.138139e+00
<VARIANCE> 39
 7.115755e+01 4.823942e+01 4.182743e+01 8.031546e+01 3.588111e+01 4.675060e+01 2.369765e+01 3.185121e+01 2.044356e+01 2.010591e+01 1.667304e+01 2.993013e+01 3.441846e+02 4.394133e+00 3.385738e+00 3.524514e+00 5.934879e+00 3.602888e+00 3.199849e+00 4.430465e+00 2.961154e+00 2.534268e+00 2.378076e+00 2.249116e+00 2.535711e+00 1.501673e+01 6.886340e-01 6.520039e-01 2.906326e-01 1.320437e+00 6.367251e-01 5.503423e-01 6.289428e-01 3.832593e-01 5.234041e-01 6.491655e-01 3.928177e-01 4.736210e-01 2.021758e+00
<GCONST> 1.307804e+02
<STATE> 4
<MEAN> 39
 -3.081397e+00 -7.750179e+00 1.195788e+00 -1.865957e+01 9.196039e+00 1.290632e+00 -2.570733e+00 -8.590120e+00 -1.025435e+01 -7.166300e-01 5.236439e-01 -7.384133e+00 6.624812e+01 5.709486e-01 6.897742e-01 7.200975e-01 5.912117e-01 4.741403e-01 2.566048e-01 3.635607e-01 -4.170686e-01 -6.909285e-01 2.060280e-01 2.350903e-01 1.523352e-01 2.938498e-01 -6.129732e-01 2.376565e-01 -1.880793e-01 8.210031e-01 -4.528819e-01 -4.669955e-02 -1.685573e-02 1.602549e-01 3.809889e-01 -1.256033e-01 1.821909e-02 1.076440e-01 -1.033814e+00
<VARIANCE> 39
 9.644853e+00 2.518892e+01 1.504272e+01 6.212396e+01 3.634973e+01 2.272378e+01 4.634064e+01 2.553906e+01 3.508725e+01 3.030626e+01 2.587020e+01 1.925875e+01 5.763085e+01 3.877222e+00 2.856673e+00 2.308069e+00 1.134256e+01 3.541308e+00 2.056445e+00 1.393512e+00 2.001247e+00 3.250118e+00 2.974574e+00 1.908326e+00 1.386757e+00 1.443385e+01 3.178246e-01 4.376602e-01 3.186785e-01 8.533840e-01 4.607590e-01 3.123052e-01 3.206097e-01 4.143471e-01 5.885439e-01 5.642415e-01 3.351600e-01 3.062747e-01 9.159393e-01
<GCONST> 1.189311e+02
<TRANSP> 5
 0.000000e+00 1.000000e+00 0.000000e+00 0.000000e+00 0.000000e+00
 0.000000e+00 3.121098e-01 6.878902e-01 0.000000e+00 0.000000e+00
 0.000000e+00 0.000000e+00 5.562822e-01 4.437177e-01 0.000000e+00
 0.000000e+00 0.000000e+00 0.000000e+00 8.487775e-01 1.512225e-01
 0.000000e+00 0.000000e+00 0.000000e+00 0.000000e+00 0.000000e+00
<ENDHMM>
~h "p"
<BEGINHMM>
<NUMSTATES> 5
<STATE> 2
<MEAN> 39
 -3.175050e+00 -3.786996e+00 5.279201e+00 -2.042061e+01 4.728398e+00 -2.753686e+00 -5.434126e+00 -8.888331e+00 -1.349797e+01 -5.404794e-01 -6.309430e-02 -5.680372e+00 6.979600e+01 -6.236066e-01 2.136762e+00 -3.509859e-03 4.650418e+00 2.861856e-01 9.591035e-01 8.063645e-01 -2.198026e-01 1.579708e+00 -1.253397e+00 4.424884e-01 -1.920763e-01 -4.298263e+00 -8.821393e-01 1.082517e-01 -4.589853e-01 8.585783e-01 -3.803788e-01 -4.503010e-01 1.454559e-01 -2.200710e-02 6.077245e-01 -4.158548e-01 -7.441929e-02 6.153739e-02 -1.294308e+00
<VARIANCE> 39
 3.063746e+00 3.017108e+01 9.404644e+00 5.308943e+01 1.610467e+01 1.409049e+01 2.988613e+01 2.297791e+01 2.954867e+01 1.200374e+01 1.361636e+01 2.039282e+01 1.379299e+01 6.598606e-01 7.896997e-01 6.123597e-01 2.470841e+00 1.246649e+00 1.122510e+00 7.899382e-01 1.429324e+00 2.412146e+00 1.221648e+00 1.092223e+00 9.032034e-01 2.297406e+00 1.216790e-01 4.135358e-01 3.255384e-01 8.182856e-01 5.493881e-01 1.780046e-01 2.987586e-01 2.263555e-01 2.869753e-01 2.263444e-01 1.456875e-01 2.660147e-01 5.814305e-01
<GCONST> 9.475627e+01
<STATE> 3
<MEAN> 39
 -7.642914e+00 9.537349e-01 4.335103e+00 -4.614969e+00 3.703718e+00 -1.940526e+00 -2.274710e+00 -7.658388e+00 -7.299159e+00 -4.558540e+00 -2.250410e-01 -5.274709e+00 5.545400e+01 -2.569726e+00 2.787297e-01 -1.300065e+00 3.044737e+00 -1.791109e+00 -1.231558e+00 1.002149e-01 -7.608875e-02 2.290312e+00 -8.519545e-01 6.379633e-02 4.387149e-01 -4.482179e+00 -4.934933e-01 -1.054152e+00 -2.636116e-01 -1.490347e+00 -4.541262e-01 -7.474446e-01 -2.575961e-01 -4.062491e-02 -9.788038e-03 1.787181e-01 1.326287e-02 5.874155e-03 1.141946e+00
<VARIANCE> 39
 7.429077e+00 2.511996e+01 1.449739e+01 3.252135e+01 2.165595e+01 2.069099e+01 1.760413e+01 2.933050e+01 3.262620e+01 1.905679e+01 2.125156e+01 1.388103e+01 1.835067e+01 4.897756e-01 2.149902e+00 1.140725e+00 4.796154e+00 2.300819e+00 1.420407e+00 1.973206e+00 1.071372e+00 1.553339e+00 1.912809e+00 1.183246e+00 1.085060e+00 1.770843e+00 2.415306e-01 1.863925e-01 2.698179e-01 2.224722e-01 3.433823e-01 1.915853e-01 1.954069e-01 5.287486e-01 5.720652e-01 4.171244e-01 3.127063e-01 3.054814e-01 5.075855e-01
<GCONST> 1.006731e+02
<STATE> 4
<MEAN> 39
 -1.694952e+01 -4.541427e+00 -1.217221e+00 -3.439965e+00 -1.722317e+00 -6.159518e+00 -3.600282e+00 -8.101653e+00 -1.960524e+00 -5.684524e+00 3.678557e-01 -5.215905e+00 4.896312e+01 -9.680551e-01 -1.048398e+00 1.846303e-01 1.322966e-01 4.353763e-02 -5.716438e-01 1.267414e-01 -3.271901e-01 4.108734e-01 -7.113572e-01 -6.948291e-02 -6.807311e-01 7.787488e-01 5.400298e-01 -1.616326e-02 4.778944e-01 -1.851364e-01 4.534442e-01 1.865766e-01 1.035724e-01 9.720691e-02 -3.535522e-01 7.588318e-02 -4.859828e-02 -1.622142e-01 8.816532e-01
<VARIANCE> 39
 2.514408e+01 3.538822e+01 2.992751e+01 4.057725e+01 2.362909e+01 4.419178e+01 1.749713e+01 4.346068e+01 2.322063e+01 2.757770e+01 2.756290e+01 3.189334e+01 1.274146e+02 5.864070e+00 3.803951e+00 4.512595e+00 3.595091e+00 4.204115e+00 4.774150e+00 2.292826e+00 6.182428e+00 6.023587e+00 4.268761e+00 2.986166e+00 3.072551e+00 1.013218e+01 6.858793e-01 6.615148e-01 5.512372e-01 8.246453e-01 7.452613e-01 8.158867e-01 4.691505e-01 9.872933e-01 7.361309e-01 8.048599e-01 4.664708e-01 5.552370e-01 1.579935e+00
<GCONST> 1.323020e+02
<TRANSP> 5
 0.000000e+00 1.000000e+00 0.000000e+00 0.000000e+00 0.000000e+00
 0.000000e+00 4.782241e-01 5.217759e-01 0.000000e+00 0.000000e+00
 0.000000e+00 0.000000e+00 5.317150e-01 4.682851e-01 0.000000e+00
 0.000000e+00 0.000000e+00 0.000000e+00 8.096843e-01 1.903157e-01
 0.000000e+00 0.000000e+00 0.000000e+00 0.000000e+00 0.000000e+00
<ENDHMM>
~h "r"
<BEGINHMM>
<NUMSTATES> 5
<STATE> 2
<MEAN> 39
 -4.508478e+00 -1.746412e+01 2.669572e+00 -7.415444e+00 5.173691e+00 -9.448468e+00 -3.120407e+00 -7.087656e+00 -2.017046e+00 2.210467e+00 -4.135955e+00 -1.267590e+01 7.699480e+01 -6.012269e-01 8.823556e-01 -4.242414e-01 1.620576e+00 4.000969e-03 -5.454454e-01 1.192594e+00 -1.135008e+00 1.119262e+00 -1.181800e+00 5.785084e-01 2.244492e-01 -9.670959e-01 -2.932885e-01 2.086238e-01 1.670982e-01 6.650287e-02 -6.718852e-02 -9.031153e-02 2.363729e-02 -2.388609e-02 8.440074e-02 -4.793281e-01 2.477257e-01 6.148550e-02 -2.728761e-01
<VARIANCE> 39
 4.973947e+00 3.818063e+01 1.910052e+01 4.516893e+01 4.323093e+01 2.799727e+01 4.813063e+01 5.127428e+01 1.677152e+01 1.784557e+01 1.549440e+01 1.842637e+01 1.262089e+01 1.205514e+00 1.939444e+00 1.635118e+00 2.745108e+00 1.982622e+00 2.128970e+00 2.037476e+00 2.464994e+00 2.762560e+00 3.960147e+00 1.981149e+00 1.209448e+00 1.476467e+00 2.289832e-01 3.060488e-01 3.066171e-01 4.533720e-01 3.919763e-01 2.041556e-01 3.101549e-01 4.856548e-01 3.384133e-01 4.630096e-01 2.944973e-01 1.794520e-01 1.962211e-01
<GCONST> 1.060734e+02
<STATE> 3
<MEAN> 39
 -1.031650e+01 -9.200098e+00 3.194963e+00 7.958590e-01 3.415529e+00 -1.435938e+01 -2.609386e-01 -1.274760e+01 2.087062e+00 -8.156035e+00 4.864036e-01 -9.876723e+00 6.915844e+01 -7.489406e-01 4.550551e-01 3.859784e-01 5.057192e-01 -2.351888e-01 -3.048651e-01 9.877025e-02 1.175405e-01 -2.114429e-01 -1.196664e+00 -1.167071e-01 1.768353e-02 -1.101373e+00 3.125159e-01 -2.213158e-01 4.494170e-02 -2.801156e-01 -9.094715e-02 1.985949e-01 -3.570696e-01 2.468951e-01 -4.856290e-01 5.851232e-01 -3.519199e-01 -9.035294e-02 1.172477e-01
<VARIANCE> 39
 2.266978e+01 1.817550e+01 1.593984e+01 1.945833e+01 2.258890e+01 2.304724e+01 2.751322e+01 3.709871e+01 2.942224e+01 3.744763e+01 2.771403e+01 3.595448e+01 2.034351e+01 3.066321e+00 2.317256e+00 1.552249e+00 1.782616e+00 3.057533e+00 1.669120e+00 2.459390e+00 1.895735e+00 2.601433e+00 4.221791e+00 2.509815e+00 1.583290e+00 1.264066e+00 5.554596e-01 4.873028e-01 3.806096e-01 4.833629e-01 5.012170e-01 3.853690e-01 3.803497e-01 4.293209e-01 6.080907e-01 8.210863e-01 4.519396e-01 3.561249e-01 2.706262e-01
<GCONST> 1.134142e+02
<STATE> 4
<MEAN> 39
 -1.211996e+01 -1.056416e+01 1.699585e+00 2.735213e+00 8.953772e-01 -1.085512e+01 -1.427361e+00 -8.855279e+00 -1.568541e+00 -4.991767e+00 -2.696453e+00 -9.244416e+00 6.023921e+01 -1.568831e-01 2.571802e-01 -2.954709e-01 8.381791e-02 -2.509500e-01 6.674600e-01 -4.308222e-01 9.711814e-02 -3.114741e-01 6.407023e-01 -1.981531e-01 2.466115e-01 -1.452101e+00 -3.187640e-02 8.327375e-02 8.673346e-02 -1.813582e-01 1.053461e-01 3.011558e-02 6.766355e-03 -1.329200e-01 1.107613e-01 6.918802e-02 8.694551e-02 3.126693e-02 1.793967e-01
<VARIANCE> 39
 6.281348e+01 2.884188e+01 2.511706e+01 3.902421e+01 2.130922e+01 4.007290e+01 5.704681e+01 3.255607e+01 3.021963e+01 6.443546e+01 4.321634e+01 2.262554e+01 1.012437e+02 3.425719e+00 3.253404e+00 2.439685e+00 3.224965e+00 2.480022e+00 2.661523e+00 2.720505e+00 2.729781e+00 4.265326e+00 3.285207e+00 2.166382e+00 1.673481e+00 4.736230e+00 6.665090e-01 6.072121e-01 4.057573e-01 5.503017e-01 5.442834e-01 4.406354e-01 4.971382e-01 4.582870e-01 7.059321e-01 6.651236e-01 4.198080e-01 3.120691e-01 1.011849e+00
<GCONST> 1.251822e+02
<TRANSP> 5
 0.000000e+00 1.000000e+00 0.000000e+00 0.000000e+00 0.000000e+00
 0.000000e+00 7.247634e-01 2.752365e-01 0.000000e+00 0.000000e+00
 0.000000e+00 0.000000e+00 7.761928e-01 2.238071e-01 0.000000e+00
 0.000000e+00 0.000000e+00 0.000000e+00 7.656716e-01 2.343285e-01
 0.000000e+00 0.000000e+00 0.000000e+00 0.000000e+00 0.000000e+00
<ENDHMM>
~h "s"
<BEGINHMM>
<NUMSTATES> 5
<STATE> 2
<MEAN> 39
 -2.315627e+01 -4.979780e+00 5.810585e+00 -2.984127e+00 8.214181e+00 -1.281236e+01 2.865655e+00 -1.077455e+01 -1.547412e-01 -1.181763e+01 -2.473259e+00 -9.854710e+00 6.984654e+01 -4.033791e+00 2.738940e-01 -8.888422e-01 8.121916e-01 6.468650e-01 3.613906e-01 1.666088e+00 -2.270288e-01 1.153688e+00 -9.625582e-01 2.716263e+00 1.090848e+00 -8.619595e-01 5.717965e-01 -7.625424e-01 -3.228193e-01 -5.673674e-01 -1.383744e-01 8.347744e-02 -5.545368e-01 4.485860e-01 -2.371248e-01 9.045256e-01 -9.261511e-02 3.204586e-01 9.420519e-02
<VARIANCE> 39
 6.169048e+01 1.181736e+01 1.262032e+01 1.561363e+01 4.303357e+01 3.000737e+01 4.496958e+01 1.937777e+01 1.827802e+01 3.198531e+01 5.872220e+01 3.512064e+01 1.510511e+01 4.367451e+00 4.368133e+00 1.276554e+00 3.342753e+00 1.803728e+00 1.560402e+00 4.779664e+00 4.601312e+00 2.141462e+00 6.990800e+00 2.912315e+00 3.971794e+00 4.267970e-01 1.181839e+00 4.968163e-01 2.492285e-01 4.815896e-01 3.230867e-01 3.547929e-01 7.407416e-01 4.941407e-01 3.810983e-01 9.184054e-01 1.045401e+00 7.214455e-01 8.292200e-02
<GCONST> 1.173859e+02
<STATE> 3
<MEAN> 39
 -3.024078e+01 -9.374371e+00 1.036955e+00 -4.158931e+00 8.090206e+00 -1.230492e+01 5.871041e+00 -6.947589e+00 2.741617e+00 -1.026947e+01 2.888345e+00 -5.491344e+00 6.506183e+01 7.514509e-01 -4.287091e-01 -1.029244e-01 2.344512e-01 -7.311065e-01 -1.848874e-01 -4.383363e-01 1.103109e-02 1.455507e-01 2.014955e-01 -4.689527e-01 -1.659277e-01 -1.030174e+00 7.103333e-01 2.537864e-01 2.527779e-01 1.311770e-01 -2.181530e-01 -8.749278e-02 -3.192909e-01 -1.951047e-01 -2.940471e-01 6.185878e-02 -3.191983e-01 -2.406012e-01 -1.386717e-01
<VARIANCE> 39
 6.467672e+00 1.394019e+01 6.229820e+00 1.990608e+01 3.648160e+01 2.497194e+01 1.951737e+01 2.337998e+01 1.766142e+01 2.244628e+01 1.928544e+01 1.714494e+01 2.273921e+01 2.316216e+00 1.059345e+00 1.792550e+00 1.783390e+00 2.863737e+00 2.237252e+00 2.535062e+00 1.991898e+00 2.244573e+00 2.515654e+00 1.669593e+00 1.899124e+00 1.265987e+00 3.608585e-01 2.666536e-01 3.264289e-01 2.929051e-01 4.476959e-01 3.937081e-01 3.837094e-01 3.761862e-01 5.071065e-01 5.399550e-01 4.010635e-01 4.695716e-01 2.334190e-01
<GCONST> 1.047222e+02
<STATE> 4
<MEAN> 39
 -1.600416e+01 -6.562215e+00 4.226759e+00 1.618350e-01 9.610654e-01 -1.423736e+01 -3.047338e+00 -1.096709e+01 -1.225008e+00 -7.768903e+00 -1.759317e+00 -8.454882e+00 5.980700e+01 2.293609e+00 2.796286e-01 4.715324e-01 -1.087030e-01 -8.038731e-01 3.593622e-01 -8.488194e-01 -3.549069e-02 -9.632425e-01 6.360742e-01 -3.260865e-01 -1.334168e-01 -7.248120e-02 -2.732436e-01 -2.527976e-01 -4.536904e-02 -3.261249e-01 1.421562e-01 3.156912e-01 2.576707e-01 2.973278e-01 2.391130e-02 4.325268e-02 2.579007e-01 2.353881e-01 4.295150e-01
<VARIANCE> 39
 5.613232e+01 3.954640e+01 4.720822e+01 3.930337e+01 6.833543e+01 2.407625e+01 2.163889e+01 3.377924e+01 3.961891e+01 2.398024e+01 2.044258e+01 2.219752e+01 7.206862e+01 5.195630e+00 7.702503e+00 4.230031e+00 4.590329e+00 4.092257e+00 3.169905e+00 2.520033e+00 3.577018e+00 4.348326e+00 3.233107e+00 3.045400e+00 2.394941e+00 8.167475e+00 5.438490e-01 1.643873e+00 6.311713e-01 8.692416e-01 8.112919e-01 4.256762e-01 4.338594e-01 8.006299e-01 8.051717e-01 5.236660e-01 6.620061e-01 4.595280e-01 1.393823e+00
<GCONST> 1.317530e+02
<TRANSP> 5
 0.000000e+00 1.000000e+00 0.000000e+00 0.000000e+00 0.000000e+00
 0.000000e+00 7.527230e-01 2.472769e-01 0.000000e+00 0.000000e+00
 0.000000e+00 0.000000e+00 8.272496e-01 1.727503e-01 0.000000e+00
 0.000000e+00 0.000000e+00 0.000000e+00 7.125227e-01 2.874773e-01
 0.000000e+00 0.000000e+00 0.000000e+00 0.000000e+00 0.000000e+00
<ENDHMM>
~h "t"
<BEGINHMM>
<NUMSTATES> 5
<STATE> 2
<MEAN> 39
 -5.372306e+00 -1.493470e+01 7.147026e+00 -1.181111e+01 4.778486e+00 -1.216962e+01 -4.611443e+00 -5.322124e+00 -2.892979e-01 1.044933e+00 -7.471285e+00 -9.624544e+00 7.576562e+01 -6.603614e-01 2.751658e+00 1.100697e-01 2.365732e+00 7.639027e-01 6.930454e-01 -2.091288e-01 8.429572e-03 5.006890e-01 -2.094924e-03 5.468310e-01 -4.015526e-01 -3.499177e+00 -5.306792e-01 4.308584e-01 -6.411712e-01 8.059559e-01 -4.369769e-01 6.285162e-01 2.832108e-01 -2.219316e-01 3.320892e-01 -3.146441e-01 3.965073e-01 5.843101e-02 -1.319471e+00
<VARIANCE> 39
 5.443767e+00 2.438711e+01 1.937290e+01 3.858528e+01 2.195203e+01 2.929994e+01 3.121433e+01 6.032599e+01 3.187018e+01 2.775317e+01 4.156550e+01 1.886013e+01 1.477828e+01 9.294775e-01 2.036834e+00 1.212217e+00 4.803024e+00 2.686097e+00 2.873211e+00 1.699740e+00 2.402852e+00 1.860161e+00 1.728669e+00 1.668582e+00 1.922942e+00 5.067295e+00 1.486669e-01 5.558253e-01 3.200561e-01 5.902927e-01 4.427082e-01 3.314542e-01 3.163623e-01 6.483193e-01 4.112707e-01 4.033153e-01 3.753926e-01 5.142334e-01 3.119685e-01
<GCONST> 1.108700e+02
<STATE> 3
<MEAN> 39
 -1.057747e+01 -7.493023e+00 3.290027e+00 -1.654382e+00 1.990089e+00 -7.990173e+00 -3.509171e+00 -3.768340e+00 2.326675e+00 -1.450450e+00 -6.200771e+00 -8.971028e+00 5.793267e+01 -1.898305e+00 5.975039e-01 -1.894270e+00 7.459487e-01 -1.478292e+00 3.547410e-01 1.773127e-01 -1.373523e-01 9.599317e-01 -6.190741e-01 6.122851e-01 3.786683e-01 -3.589884e+00 -2.081162e-01 -6.491534e-01 -2.919332e-02 -8.535224e-01 -8.347565e-02 -4.673949e-01 1.059865e-01 -3.004918e-01 -2.700293e-01 -2.290902e-01 1.990827e-01 1.666527e-01 1.096230e+00
<VARIANCE> 39
 1.217276e+01 1.711094e+01 2.879628e+01 2.651534e+01 3.717467e+01 2.806060e+01 2.221927e+01 3.212334e+01 3.348204e+01 3.056920e+01 3.187588e+01 2.181454e+01 2.861764e+01 7.043177e-01 2.429880e+00 9.905325e-01 3.883545e+00 2.188689e+00 2.422130e+00 1.856212e+00 2.051297e+00 2.309291e+00 2.001275e+00 2.131917e+00 2.387426e+00 4.094438e+00 1.947256e-01 3.839481e-01 4.316022e-01 5.869414e-01 7.674814e-01 3.609453e-01 3.576908e-01 4.329151e-01 5.236408e-01 4.238260e-01 5.590490e-01 4.289696e-01 6.874221e-01
<GCONST> 1.130377e+02
<STATE> 4
<MEAN> 39
 -1.807747e+01 -7.395429e+00 6.852298e-01 -3.783010e+00 6.277502e-03 -1.006002e+01 -1.368557e+00 -8.552723e+00 1.834730e+00 -5.716177e+00 -9.022341e-01 -7.188613e+00 5.719235e+01 -3.754572e-01 -6.741631e-02 8.959917e-01 -5.087172e-01 1.640272e-01 -4.592425e-01 2.838451e-01 -1.032147e+00 -9.805753e-01 -7.400998e-01 4.850742e-01 -2.918596e-02 1.220712e+00 5.958854e-01 -8.566369e-02 5.495607e-01 -1.616640e-02 1.972749e-01 1.286378e-01 -1.109190e-01 2.670245e-01 -2.315534e-01 3.027975e-01 -2.624317e-01 -1.595805e-01 6.020630e-01
<VARIANCE> 39
 3.850000e+01 2.036051e+01 2.959835e+01 3.129586e+01 3.507751e+01 2.916517e+01 3.819285e+01 4.110478e+01 4.032896e+01 3.453618e+01 3.794033e+01 2.328940e+01 5.215242e+01 7.652195e+00 2.533465e+00 4.352751e+00 2.800619e+00 3.039697e+00 3.229297e+00 4.411586e+00 5.607340e+00 4.431451e+00 3.342311e+00 4.962632e+00 2.164665e+00 4.400273e+00 6.913055e-01 5.779356e-01 5.851324e-01 4.243248e-01 7.375026e-01 7.732139e-01 6.910127e-01 1.127749e+00 7.746997e-01 5.499806e-01 7.539161e-01 4.341058e-01 6.692140e-01
<GCONST> 1.294546e+02
<TRANSP> 5
 0.000000e+00 1.000000e+00 0.000000e+00 0.000000e+00 0.000000e+00
 0.000000e+00 5.681623e-01 4.318378e-01 0.000000e+00 0.000000e+00
 0.000000e+00 0.000000e+00 7.324338e-01 2.675662e-01 0.000000e+00
 0.000000e+00 0.000000e+00 0.000000e+00 7.727107e-01 2.272892e-01
 0.000000e+00 0.000000e+00 0.000000e+00 0.000000e+00 0.000000e+00
<ENDHMM>
~h "u"
<BEGINHMM>
<NUMSTATES> 5
<STATE> 2
<MEAN> 39
 -4.130227e+00 -1.127862e+01 2.714597e+00 -1.739876e+01 6.262600e+00 -1.484021e+00 -5.903816e+00 -7.357131e+00 -9.447651e+00 2.322490e+00 -4.522887e-02 -1.064386e+01 6.880032e+01 1.408328e+00 -4.767789e-01 1.034262e+00 -7.587135e-01 1.521633e-01 1.375204e+00 -5.470365e-01 -3.573912e-01 -7.982641e-01 1.058011e+00 6.570558e-02 4.460475e-01 1.502010e+00 -4.444056e-01 2.460031e-01 -1.236114e-01 9.794577e-01 -5.863479e-01 9.879187e-03 8.505473e-02 -1.026852e-01 5.703026e-01 -3.223171e-01 -1.207175e-01 3.737613e-01 -9.024544e-01
<VARIANCE> 39
 9.850368e+00 7.421796e+01 9.401472e+00 4.907407e+01 4.165277e+01 2.442802e+01 3.974173e+01 2.461268e+01 4.968948e+01 2.092640e+01 2.562783e+01 2.340209e+01 1.069712e+02 3.675530e+00 2.632305e+00 2.224339e+00 3.933532e+00 3.674106e+00 2.973862e+00 2.469395e+00 2.498854e+00 6.083784e+00 2.368607e+00 2.104678e+00 2.850248e+00 5.968127e+00 4.415571e-01 4.869659e-01 3.628290e-01 9.153555e-01 3.604690e-01 5.776266e-01 6.364849e-01 5.009450e-01 1.006455e+00 4.303272e-01 6.191424e-01 4.266220e-01 6.143720e-01
<GCONST> 1.231213e+02
<STATE> 3
<MEAN> 39
 -1.902994e+00 -1.651044e+01 4.702606e+00 -1.850701e+01 1.383551e+00 4.759901e+00 -3.298514e+00 -1.217115e+01 -5.045160e+00 2.806299e+00 -1.587494e+00 -7.165908e+00 7.436658e+01 2.829797e-01 2.863277e-01 4.395069e-01 3.198120e-01 -1.669889e+00 1.176514e+00 4.366031e-02 -8.100913e-01 4.605581e-01 -3.275919e-01 2.381178e-01 9.144143e-01 -1.411380e-01 -1.752823e-01 1.816230e-01 -1.599429e-01 1.341622e-01 2.825764e-01 -3.174800e-01 -7.192673e-02 2.347215e-01 -2.935155e-02 -2.945735e-01 8.598159e-02 -2.398188e-01 -1.402669e-01
<VARIANCE> 39
 6.227335e+00 2.021160e+01 1.290001e+01 2.952574e+01 7.281490e+01 3.400201e+01 3.145590e+01 3.813203e+01 1.763179e+01 1.679481e+01 1.700973e+01 1.747397e+01 1.666645e+01 4.136215e-01 1.185883e+00 7.436988e-01 3.511966e+00 3.873825e+00 2.041468e+00 1.499171e+00 2.301500e+00 2.117362e+00 1.490278e+00 1.706522e+00 2.003768e+00 7.069950e-01 1.306338e-01 2.077540e-01 1.402576e-01 6.293262e-01 1.099131e+00 2.902434e-01 3.013307e-01 4.102168e-01 3.202266e-01 2.969724e-01 3.108728e-01 3.750953e-01 2.652533e-01
<GCONST> 1.020474e+02
<STATE> 4
<MEAN> 39
 -2.840032e+00 -1.341315e+01 3.824352e+00 -2.225578e+01 2.751412e+00 5.593517e+00 -5.601428e+00 -7.572622e+00 -7.118136e+00 -5.434166e-01 2.559019e+00 -8.096931e+00 7.454936e+01 -7.246482e-02 5.487201e-01 -5.769287e-02 4.317987e-01 2.001672e-01 -3.151839e-01 -1.230072e-01 2.308390e-01 -1.023039e-01 -9.297074e-02 -7.326434e-03 -9.878749e-02 -3.561209e-01 -4.023517e-02 5.434717e-02 2.975731e-02 3.086911e-01 -4.198884e-02 -1.414499e-01 6.328220e-02 -6.385000e-02 9.561857e-02 2.305351e-02 -1.213329e-01 -4.207119e-02 -1.792529e-01
<VARIANCE> 39
 4.905233e+00 3.007777e+01 1.312522e+01 3.213240e+01 2.956505e+01 2.828822e+01 3.334290e+01 3.011651e+01 2.067106e+01 3.045127e+01 2.343294e+01 1.821911e+01 1.289810e+01 3.694628e-01 1.606284e+00 7.420703e-01 3.296152e+00 2.932231e+00 1.227138e+00 1.115749e+00 1.939583e+00 1.585427e+00 1.250120e+00 1.558394e+00 1.147659e+00 1.548221e+00 9.867225e-02 2.164416e-01 1.320641e-01 3.611166e-01 4.470088e-01 2.212238e-01 2.240933e-01 3.150380e-01 2.600213e-01 2.623423e-01 2.901972e-01 2.281766e-01 2.151296e-01
<GCONST> 9.675255e+01
<TRANSP> 5
 0.000000e+00 1.000000e+00 0.000000e+00 0.000000e+00 0.000000e+00
 0.000000e+00 3.693710e-01 6.306291e-01 0.000000e+00 0.000000e+00
 0.000000e+00 0.000000e+00 6.742899e-01 3.257101e-01 0.000000e+00
 0.000000e+00 0.000000e+00 0.000000e+00 8.927156e-01 1.072844e-01
 0.000000e+00 0.000000e+00 0.000000e+00 0.000000e+00 0.000000e+00
<ENDHMM>
~h "ah"
<BEGINHMM>
<NUMSTATES> 5
<STATE> 2
<MEAN> 39
 -3.284817e+00 4.914427e+00 4.770352e+00 -2.425663e+01 2.754944e-01 -3.255459e+00 -5.304032e+00 -1.196520e+00 -1.150627e+01 -9.997375e+00 2.016340e+00 -8.923815e+00 6.996913e+01 -1.287499e-01 -9.775216e-01 -5.721977e-01 -8.450440e-01 8.200362e-01 1.116768e+00 -3.004168e-01 -9.930445e-01 -5.535833e-01 1.288162e+00 9.379587e-01 3.867197e-01 1.071607e+00 -1.098181e-01 -4.663895e-01 -5.305548e-02 3.149112e-01 1.921455e-01 5.490888e-02 9.285014e-04 -2.748335e-01 2.667492e-01 5.003287e-01 -4.108005e-02 -6.472546e-02 9.461358e-02
<VARIANCE> 39
 1.784265e+00 2.513582e+01 9.759007e+00 1.140943e+01 7.399112e+00 2.316717e+01 2.604228e+00 1.462562e+01 2.664216e+00 1.363087e+01 7.561846e+00 7.848434e+00 6.486576e+00 1.134298e-01 2.147989e+00 1.920848e-01 8.514161e-01 8.684227e-01 1.335894e+00 3.768490e-01 8.823216e-01 6.123889e-01 3.439131e+00 3.025455e-01 1.129651e+00 4.284269e-01 2.739937e-02 8.780411e-02 1.846641e-02 1.140633e-01 1.655390e-01 3.383598e-01 8.726031e-02 1.471402e-01 2.001726e-01 3.661748e-01 2.210232e-01 4.591530e-01 6.105921e-02
<GCONST> 6.604375e+01
<STATE> 3
<MEAN> 39
 -6.184984e+00 -1.176336e+01 2.032375e+00 -2.135966e+01 8.389683e+00 -2.894148e+00 -4.619423e+00 -4.652018e+00 -6.604655e+00 5.213388e+00 -3.527965e+00 -9.510509e+00 7.960000e+01 -4.148856e-01 -1.971111e+00 2.294654e-01 1.230933e+00 8.863543e-01 -1.826260e+00 1.331331e+00 7.526963e-01 9.488896e-01 5.988183e-01 -2.358944e+00 -4.774410e-01 7.636727e-01 8.054820e-02 3.683253e-01 2.049166e-01 6.770411e-02 -3.006355e-01 -2.352546e-01 3.305835e-01 2.113843e-01 -1.396913e-01 -8.173250e-01 -1.939811e-01 2.346577e-01 -3.277281e-01
<VARIANCE> 39
 4.831832e+00 3.231342e+01 6.291700e+00 1.023358e+01 4.227278e+00 2.739931e+01 1.197195e+01 2.009792e+01 2.293895e+01 8.015473e+00 8.430655e+01 1.064131e+01 7.231789e+00 3.152146e-01 1.284642e+00 7.366001e-01 4.855274e-01 4.861518e-01 5.812300e-01 8.916791e-01 1.776975e+00 2.289306e+00 5.192823e+00 3.480163e+00 2.143800e+00 7.787375e-01 5.568535e-02 7.316241e-02 1.372687e-01 6.941272e-02 2.909869e-02 3.504658e-01 9.775304e-02 5.016898e-01 5.128548e-01 3.202413e-01 1.019708e+00 5.088149e-01 5.457804e-02
<GCONST> 8.349126e+01
<STATE> 4
<MEAN> 39
 -5.622811e+00 -1.512150e+01 3.576423e+00 -1.215130e+01 9.992732e+00 -4.478841e+00 -5.024558e+00 -5.864725e+00 -2.355915e+00 -5.209985e+00 -6.668828e+00 -8.669958e+00 7.419570e+01 -2.105573e-01 1.991649e-01 6.052174e-02 5.948362e-01 -2.573772e-01 -2.430536e-01 1.450294e-02 -2.246533e-01 3.349912e-01 -4.709572e-01 -2.189043e-01 1.970802e-01 -3.285007e-01 -1.087386e-01 4.683226e-02 -1.634478e-02 4.116424e-02 -8.707676e-02 8.698836e-02 -6.218757e-02 -4.926996e-02 7.979973e-02 -7.472591e-03 1.589511e-01 3.070082e-02 -4.876663e-02
<VARIANCE> 39
 1.549043e+01 5.896756e+01 1.982154e+01 7.904349e+01 2.702397e+01 3.787058e+01 5.387705e+01 4.658299e+01 3.703652e+01 2.883026e+01 7.054551e+01 1.998561e+01 5.003909e+01 2.439250e+00 4.908259e+00 1.687150e+00 5.997665e+00 2.552701e+00 2.383953e+00 3.867213e+00 3.790757e+00 3.657166e+00 3.495885e+00 3.756148e+00 2.173219e+00 5.285212e+00 5.649650e-01 6.899490e-01 3.324669e-01 1.101373e+00 5.160019e-01 5.752079e-01 6.298309e-01 5.683885e-01 6.330166e-01 6.015272e-01 4.946525e-01 2.984995e-01 8.018118e-01
<GCONST> 1.270602e+02
<TRANSP> 5
 0.000000e+00 1.000000e+00 0.000000e+00 0.000000e+00 0.000000e+00
 0.000000e+00 8.124999e-01 1.875001e-01 0.000000e+00 0.000000e+00
 0.000000e+00 0.000000e+00 8.035963e-01 1.964037e-01 0.000000e+00
 0.000000e+00 0.000000e+00 0.000000e+00 9.504057e-01 4.959435e-02
 0.000000e+00 0.000000e+00 0.000000e+00 0.000000e+00 0.000000e+00
<ENDHMM>
~h "al"
<BEGINHMM>
<NUMSTATES> 5
<STATE> 2
<MEAN> 39
 -3.668986e+00 -7.830492e+00 -1.599993e+00 -9.180582e+00 6.331737e+00 4.371888e-01 -1.914580e-01 -8.232522e+00 -7.405839e+00 -3.994020e+00 -1.114656e+00 -9.568202e+00 6.435287e+01 -4.113842e-02 -3.372559e-01 -9.118516e-01 -4.012111e-01 -1.272204e-01 1.271750e-01 2.010765e-01 -4.994482e-01 -3.991772e-01 -4.030861e-01 -1.784858e-01 6.360415e-01 -3.191604e-01 -8.118196e-02 -8.003448e-02 4.053067e-01 2.585120e-01 7.894945e-02 1.153942e-01 -9.324585e-02 -6.167867e-02 -1.173655e-01 4.912675e-03 -2.175490e-01 4.357401e-02 2.397735e-02
<VARIANCE> 39
 3.409429e+01 2.318023e+01 2.235052e+01 4.746478e+01 5.067588e+01 4.283496e+01 2.272458e+01 4.775463e+01 1.849614e+01 7.543082e+00 1.302326e+01 1.697767e+01 5.800061e+01 1.067697e+00 9.283551e-01 5.008627e+00 7.443600e+00 4.687809e+00 1.756641e+00 2.037708e+00 5.093116e+00 1.887419e+00 9.396422e-01 1.085191e+00 1.198777e+00 2.221016e+00 8.517391e-02 2.388009e-01 3.678381e-01 6.864552e-01 5.939692e-01 5.515491e-01 3.556185e-01 4.502765e-01 4.199428e-01 1.653421e-01 1.930259e-01 1.619250e-01 1.237181e-01
<GCONST> 1.076359e+02
<STATE> 3
<MEAN> 39
 -7.515867e-01 -6.804220e+00 4.067928e-01 -1.220145e+01 2.901553e+00 -8.118591e-02 -2.138877e+00 -2.744281e+00 -6.903397e+00 -5.998926e+00 -1.364896e+00 -8.064888e+00 6.823905e+01 -4.180641e-02 -4.997187e-01 -1.870640e-01 -9.228755e-01 -1.928477e-01 1.498676e+00 1.789379e-01 2.733432e-02 -1.971421e-01 -5.009229e-01 1.223996e-01 5.693820e-01 6.354930e-01 -8.736377e-02 -7.053033e-02 3.682480e-02 7.728395e-02 1.085012e-01 1.034616e-01 -1.898062e-01 -3.870361e-01 2.251706e-02 1.941775e-01 2.416649e-01 7.521071e-03 1.807089e-02
<VARIANCE> 39
 7.816603e+00 2.137394e+01 1.152952e+01 7.714627e+01 7.567062e+01 2.628686e+01 1.293392e+01 7.538826e+01 1.175264e+01 1.544679e+01 6.333547e+00 1.004521e+01 3.469448e+01 1.717944e-01 6.782389e-01 1.327389e+00 3.529543e+00 2.989850e+00 2.582088e+00 7.507568e-01 5.438452e+00 1.793970e+00 1.476014e+00 1.298786e+00 1.479098e+00 1.001981e+00 5.053686e-02 1.166315e-01 2.210724e-01 7.714927e-01 6.234385e-01 4.416867e-01 2.607116e-01 1.013254e+00 2.230138e-01 4.798969e-01 1.481382e-01 2.910114e-01 1.292403e-01
<GCONST> 9.849107e+01
<STATE> 4
<MEAN> 39
 -3.365300e+00 -1.332722e+01 4.274949e+00 -1.513249e+01 3.524035e+00 6.922097e+00 -5.304349e+00 -7.481259e+00 -6.614010e+00 -1.984286e+00 -3.809742e+00 -1.040077e+01 7.341544e+01 -3.971195e-02 -1.686552e-02 1.182492e-01 1.964513e-01 -4.136654e-02 -1.406786e-01 -8.893503e-02 -7.015200e-01 8.027133e-02 1.146501e-01 -2.652479e-01 1.290624e-01 -2.278025e-01 -1.933646e-02 1.254180e-01 2.172926e-02 6.729495e-02 -3.191202e-02 -1.282606e-01 1.914903e-02 1.204163e-01 -3.035465e-03 -7.624691e-02 4.240618e-02 -2.415508e-02 -1.337964e-01
<VARIANCE> 39
 6.454735e+00 1.514863e+01 4.491594e+01 2.737039e+01 4.517721e+01 3.366490e+01 3.096239e+01 7.622914e+01 2.730355e+01 2.591895e+01 2.049398e+01 2.303282e+01 1.341594e+01 4.363208e-01 1.294104e+00 1.743306e+00 2.003614e+00 4.690770e+00 2.270781e+00 2.135221e+00 3.068064e+00 3.233391e+00 2.189961e+00 1.710643e+00 1.707163e+00 7.935556e-01 8.551490e-02 1.222671e-01 3.036926e-01 2.541378e-01 7.736355e-01 4.587004e-01 3.504182e-01 4.048704e-01 6.279017e-01 3.958123e-01 2.979428e-01 2.990715e-01 9.194250e-02
<GCONST> 1.051979e+02
<TRANSP> 5
 0.000000e+00 1.000000e+00 0.000000e+00 0.000000e+00 0.000000e+00
 0.000000e+00 5.187796e-01 4.812204e-01 0.000000e+00 0.000000e+00
 0.000000e+00 0.000000e+00 7.437837e-01 2.562163e-01 0.000000e+00
 0.000000e+00 0.000000e+00 0.000000e+00 9.269812e-01 7.301886e-02
 0.000000e+00 0.000000e+00 0.000000e+00 0.000000e+00 0.000000e+00
<ENDHMM>
~h "an"
<BEGINHMM>
<NUMSTATES> 5
<STATE> 2
<MEAN> 39
 -4.776359e+00 -1.578701e+01 4.842653e+00 -8.724425e+00 1.178078e+01 -7.284315e+00 -4.664685e+00 -1.601022e+00 -5.790658e+00 -1.519580e+00 -2.673939e+00 -1.239254e+01 7.441705e+01 -2.318338e-01 -6.247149e-01 7.782510e-02 -1.471452e-01 1.929574e-01 -9.154918e-02 -2.082051e-01 8.605843e-01 9.700500e-01 -1.480288e+00 -9.103222e-01 1.011384e+00 9.316365e-01 -1.973933e-02 -6.963442e-02 3.362983e-01 1.429878e-01 -3.613466e-01 1.328206e-01 -4.716992e-02 -4.259922e-02 3.537569e-02 4.771619e-02 -2.591170e-01 3.189531e-01 -8.818723e-02
<VARIANCE> 39
 6.102328e+00 1.668260e+01 1.872879e+01 1.124661e+01 4.603442e+01 1.458711e+01 2.692279e+01 2.398274e+01 2.419220e+01 3.096407e+01 1.955813e+01 1.514075e+01 1.020514e+01 3.770030e-01 1.054854e+00 1.555918e+00 8.081630e-01 2.521363e+00 1.852747e+00 1.311583e+00 2.089455e+00 2.140598e+00 1.659109e+00 1.404654e+00 1.395757e+00 1.389621e+00 7.016471e-02 2.196106e-01 2.816811e-01 1.994245e-01 3.602388e-01 2.191942e-01 2.615173e-01 4.364929e-01 4.673050e-01 4.430615e-01 2.045098e-01 1.606292e-01 2.855441e-01
<GCONST> 9.538383e+01
<STATE> 3
<MEAN> 39
 -5.580872e+00 -1.713238e+01 1.040529e+01 -5.125528e+00 3.685347e+00 -6.564688e+00 -5.650826e+00 5.507846e-01 -2.019713e+00 -6.211695e+00 -7.158633e+00 -4.514663e+00 7.537946e+01 2.914361e-01 9.715630e-01 1.386283e+00 2.068070e+00 -1.332664e+00 -3.028731e-01 -5.785586e-02 -1.306265e+00 -8.375887e-02 1.238481e+00 -6.222960e-01 1.268213e-01 -1.621381e+00 -4.638981e-03 6.059048e-01 9.040248e-02 3.801754e-01 -1.388612e-01 -2.646657e-01 1.058850e-01 -6.738319e-01 -1.872332e-01 5.300388e-01 4.091281e-01 -4.488133e-01 -5.200997e-01
<VARIANCE> 39
 4.958975e+00 1.601139e+01 1.680602e+01 3.045968e+01 3.493732e+01 1.258488e+01 3.306392e+01 3.092633e+01 1.769982e+01 1.670001e+01 1.482285e+01 1.362002e+01 1.636600e+01 3.784708e-01 3.145758e+00 1.099296e+00 2.232234e+00 2.524893e+00 1.847692e+00 1.370131e+00 5.057141e+00 1.380640e+00 2.751359e+00 1.683016e+00 2.257488e+00 2.659788e+00 9.160003e-02 3.124588e-01 2.493619e-01 4.204831e-01 2.483224e-01 2.713459e-01 2.551107e-01 7.105492e-01 3.234126e-01 5.686246e-01 2.113485e-01 3.135577e-01 3.824972e-01
<GCONST> 1.017111e+02
<STATE> 4
<MEAN> 39
 -6.137202e+00 -9.131671e+00 1.642197e+01 3.032252e+00 -3.383043e+00 -8.818538e+00 -1.862591e+00 -9.815183e+00 -6.328412e+00 4.972507e-01 -4.206304e+00 -7.642692e+00 6.683040e+01 -1.522666e-01 7.113013e-01 -1.824343e-01 2.725244e-01 -1.808527e-01 -7.008384e-02 2.551531e-01 -6.952569e-01 -1.700874e-01 -1.718490e-02 3.465208e-01 -1.051756e-01 -6.281543e-01 -1.273242e-01 -2.738379e-01 -1.778788e-01 -4.651425e-01 1.075880e-01 2.121836e-01 2.059105e-02 3.280497e-01 -7.418200e-03 -3.900453e-01 1.470796e-01 7.879131e-02 3.355860e-01
<VARIANCE> 39
 6.260701e+00 2.373557e+01 2.397168e+01 3.169230e+01 3.025554e+01 3.174150e+01 3.227192e+01 2.596572e+01 2.284599e+01 2.713267e+01 3.227261e+01 1.442138e+01 2.913444e+01 7.703560e-01 1.875262e+00 2.257548e+00 4.958041e+00 2.285997e+00 2.376289e+00 1.817089e+00 3.015585e+00 2.165049e+00 3.020960e+00 3.350270e+00 1.246889e+00 2.646722e+00 1.792825e-01 4.233645e-01 4.032210e-01 1.314881e+00 3.913496e-01 4.995288e-01 2.847951e-01 6.720551e-01 4.269328e-01 6.297649e-01 6.113392e-01 2.987857e-01 6.639122e-01
<GCONST> 1.133898e+02
<TRANSP> 5
 0.000000e+00 1.000000e+00 0.000000e+00 0.000000e+00 0.000000e+00
 0.000000e+00 7.730972e-01 2.269029e-01 0.000000e+00 0.000000e+00
 0.000000e+00 0.000000e+00 7.981773e-01 2.018227e-01 0.000000e+00
 0.000000e+00 0.000000e+00 0.000000e+00 8.743436e-01 1.256563e-01
 0.000000e+00 0.000000e+00 0.000000e+00 0.000000e+00 0.000000e+00
<ENDHMM>
~h "ar"
<BEGINHMM>
<NUMSTATES> 5
<STATE> 2
<MEAN> 39
 -9.663925e+00 -8.032674e+00 1.832497e+01 -5.238040e+00 -8.866980e+00 -1.354521e+01 -1.678411e+00 -8.253358e+00 -1.177283e+01 -4.776151e+00 3.356180e+00 -6.612470e+00 6.877487e+01 -9.891227e-02 -1.209216e+00 4.383251e-03 -1.826956e+00 -1.231832e+00 -4.300862e-01 -4.231906e-01 1.802002e+00 -1.488832e+00 1.118506e+00 -5.782394e-02 5.200458e-01 2.523373e+00 2.880729e-01 -4.522424e-02 -9.649353e-01 4.362601e-01 8.358177e-02 4.846356e-01 -3.572538e-02 2.475558e-01 6.912791e-01 2.589774e-01 -8.974171e-01 -1.966759e-01 -4.991784e-01
<VARIANCE> 39
 5.153077e+00 1.687483e+00 6.937505e+01 5.063350e+01 3.957759e+01 5.650481e+01 6.677830e+00 1.587820e+01 1.474737e+01 4.564482e+01 4.482964e+00 2.607357e+01 8.847939e+00 7.377431e-01 1.072446e+00 4.860047e+00 6.848569e+00 1.421077e+00 2.044658e+00 1.053390e+00 7.316624e+00 4.759253e-01 3.573186e+00 1.495480e+00 1.103161e+00 3.958247e+00 1.593259e-01 1.741575e-01 4.992921e-01 3.816557e-01 7.934817e-02 3.506431e-01 5.374720e-01 1.582931e-01 9.307919e-02 8.574402e-01 2.349166e-01 3.200870e-01 2.229861e-01
<GCONST> 9.871601e+01
<STATE> 3
<MEAN> 39
 -8.420465e+00 -1.207348e+01 1.365735e+01 -5.114833e+00 -1.023352e+01 -1.465363e+01 -1.141279e+00 -6.400112e-01 -1.051630e+01 -1.646701e+00 -1.120505e+00 -3.882701e+00 7.533073e+01 1.949851e-01 -1.142381e+00 -1.580750e+00 -8.354294e-01 5.770599e-01 7.087795e-01 -4.641672e-02 1.141093e+00 1.874462e+00 -5.065155e-01 -1.793554e+00 -1.895112e-01 1.518746e+00 5.022579e-02 2.402114e-01 -3.724515e-01 2.096252e-01 6.949138e-01 5.911725e-02 -3.314422e-03 -7.085952e-01 8.437590e-01 -3.671164e-01 -3.437300e-01 -3.775076e-01 -5.540983e-01
<VARIANCE> 39
 2.610851e+00 1.279055e+01 2.670345e+01 3.311646e+01 1.479270e+01 5.304850e+01 9.556170e+00 6.333428e+01 2.381464e+01 2.140982e+01 7.786653e+00 1.116392e+01 2.873363e+01 3.219735e-01 7.931082e-01 3.096979e+00 3.566113e+00 2.008584e+00 7.810091e-01 2.327326e+00 3.679661e+00 2.597295e+00 1.700952e+00 4.467779e-01 6.547359e-01 1.681589e+00 3.360947e-02 4.472634e-02 3.333517e-01 4.157264e-01 6.926773e-02 1.905887e-01 6.792910e-02 2.244825e-01 5.310429e-01 9.608683e-01 1.721925e-01 6.168257e-02 8.856046e-02
<GCONST> 8.888062e+01
<STATE> 4
<MEAN> 39
 -1.151523e+01 -1.070680e+01 1.276469e+01 -1.279013e+01 -9.377077e+00 -4.958919e+00 -1.096381e+00 -1.490293e+01 -3.728470e+00 -1.152910e+01 -6.400592e+00 -1.037361e+01 7.300917e+01 2.099950e-01 -7.033396e-01 -8.710304e-01 1.445429e-01 6.822553e-01 -5.392795e-01 3.813165e-01 4.214382e-01 2.944157e-01 5.185623e-01 -4.404019e-01 9.243961e-02 9.980090e-02 -2.003709e-02 -1.224641e-02 1.048446e-03 5.052645e-02 8.697832e-02 -6.406343e-02 1.563145e-01 1.977213e-02 -8.442179e-02 1.507680e-01 6.805333e-02 2.811336e-02 -6.885016e-02
<VARIANCE> 39
 1.745492e+01 3.559211e+01 5.291462e+01 8.255252e+01 5.876105e+01 6.885995e+01 6.127172e+01 1.253696e+02 6.816537e+00 2.339452e+01 1.454069e+01 3.346758e+01 3.385365e+01 7.691190e-01 7.672039e-01 6.492723e-01 1.119936e+00 2.402272e+00 1.121273e+00 1.845339e+00 3.435326e+00 1.772319e+00 2.010556e+00 7.496185e-01 2.125436e+00 6.911075e-01 1.326683e-01 1.111845e-01 1.283913e-01 2.519759e-01 1.977828e-01 1.382926e-01 2.249642e-01 4.457760e-01 2.988548e-01 1.530885e-01 1.096813e-01 2.860397e-01 9.196231e-02
<GCONST> 9.940417e+01
<TRANSP> 5
 0.000000e+00 1.000000e+00 0.000000e+00 0.000000e+00 0.000000e+00
 0.000000e+00 2.038241e-01 7.961759e-01 0.000000e+00 0.000000e+00
 0.000000e+00 0.000000e+00 5.589989e-01 4.410011e-01 0.000000e+00
 0.000000e+00 0.000000e+00 0.000000e+00 8.818499e-01 1.181501e-01
 0.000000e+00 0.000000e+00 0.000000e+00 0.000000e+00 0.000000e+00
<ENDHMM>
~h "at"
<BEGINHMM>
<NUMSTATES> 5
<STATE> 2
<MEAN> 39
 -6.510078e+00 -1.412329e+01 1.474325e+01 -1.643424e+00 -1.789744e-01 -7.054056e-01 -5.715141e+00 -9.587900e+00 -6.310127e+00 -8.861597e-01 4.430336e+00 -1.191589e+01 7.218952e+01 -8.138089e-02 -4.342997e-02 -1.809113e-01 -2.961450e-01 2.935948e-01 -7.895005e-03 1.003480e-01 3.042797e-02 1.595288e-01 -5.806535e-03 -1.675934e-01 -3.265352e-02 1.687836e-01 4.866379e-02 -6.419428e-02 -5.019804e-02 -3.716769e-02 9.876639e-02 1.412004e-02 -7.564680e-02 2.070088e-04 -1.583598e-02 5.499335e-02 -8.893921e-02 3.193605e-02 1.486104e-02
<VARIANCE> 39
 8.997763e+00 3.466940e+01 4.230657e+01 2.301640e+01 3.462310e+01 3.711978e+01 3.163754e+01 4.157502e+01 5.842917e+01 2.545917e+01 4.101440e+01 7.434805e+00 2.395452e+01 1.490294e+00 3.027251e+00 4.225834e+00 6.169122e+00 2.834586e+00 3.489534e+00 4.125777e+00 4.870965e+00 6.280595e+00 4.021451e+00 4.153407e+00 8.441225e-01 3.133035e+00 3.376453e-01 7.471349e-01 7.177153e-01 1.012042e+00 3.795531e-01 6.395692e-01 8.107422e-01 9.802394e-01 1.166060e+00 8.352655e-01 7.610744e-01 1.685662e-01 6.523082e-01
<GCONST> 1.246785e+02
<STATE> 3
<MEAN> 39
 -5.499233e+00 -1.373635e+01 6.420324e+00 -1.287433e+01 1.296661e+01 -3.515354e+00 -6.237422e+00 -5.919691e+00 -4.145530e+00 1.685610e+00 -2.335210e+00 -1.054988e+01 7.428735e+01 -8.177988e-03 -5.682571e-01 6.215452e-02 7.378580e-03 2.065038e-01 -2.185421e-01 -5.678326e-01 8.268387e-01 6.115408e-01 6.307287e-01 -6.233945e-01 -4.592089e-01 2.825450e-01 -6.668016e-02 4.021859e-01 7.209772e-02 6.948295e-01 -1.726496e-01 1.233583e-01 5.698874e-02 -1.864771e-01 5.382672e-02 -7.678653e-02 2.677593e-02 -1.351463e-01 -5.995355e-01
<VARIANCE> 39
 1.278190e+00 2.112094e+01 7.616889e+00 7.959251e+01 1.298504e+01 2.556099e+01 1.182354e+01 3.144345e+01 3.610297e+01 4.084366e+01 4.906840e+01 2.523882e+01 1.713228e+01 2.526427e-01 5.822505e+00 5.691993e-01 9.860522e+00 2.502409e+00 1.913039e+00 1.577663e+00 3.004753e+00 3.264489e+00 3.591113e+00 3.760397e+00 1.205950e+00 7.390299e+00 5.271272e-02 5.296534e-01 1.381033e-01 9.298822e-01 5.729922e-01 3.643661e-01 3.262919e-01 5.896730e-01 5.197335e-01 6.679440e-01 7.374715e-01 1.932472e-01 6.372265e-01
<GCONST> 1.092662e+02
<STATE> 4
<MEAN> 39
 -1.049356e+01 -5.343461e+00 5.042463e+00 8.204169e-01 8.961148e+00 -3.977378e+00 -8.887913e+00 -6.933419e+00 2.473265e+00 1.874307e+00 -4.025598e+00 -1.341072e+01 5.631565e+01 -7.886676e-01 1.235986e+00 -7.019585e-01 9.838094e-01 -9.665201e-01 -2.281597e-01 5.772378e-01 -1.376260e+00 3.184045e-02 -1.416136e+00 3.896482e-01 3.205052e-01 -1.795695e+00 2.463954e-01 -4.693707e-01 1.970687e-01 -8.447500e-01 -2.322407e-01 -3.573513e-01 1.439020e-01 4.004716e-02 -3.037301e-01 -1.988281e-01 4.063285e-02 2.893204e-01 1.147047e+00
<VARIANCE> 39
 8.035686e+00 1.553206e+01 1.975603e+01 1.545424e+01 1.542665e+01 1.263410e+01 2.518447e+01 8.995610e+00 1.340077e+01 2.234266e+01 1.673849e+01 1.561101e+01 1.579824e+01 1.295135e+00 1.986539e+00 2.718547e+00 6.826169e+00 9.699908e-01 2.983667e+00 1.655699e+00 5.135686e-01 3.096826e+00 1.334956e+00 2.096988e+00 2.624858e+00 8.580648e+00 1.897940e-01 2.663080e-01 5.911019e-01 5.819955e-01 1.873915e-01 3.460771e-01 4.220364e-01 1.496483e-01 1.932684e-01 3.133970e-01 7.655887e-01 6.456411e-01 3.661136e-01
<GCONST> 1.029258e+02
<TRANSP> 5
 0.000000e+00 1.000000e+00 0.000000e+00 0.000000e+00 0.000000e+00
 0.000000e+00 9.515129e-01 4.848713e-02 0.000000e+00 0.000000e+00
 0.000000e+00 0.000000e+00 9.229778e-01 7.702221e-02 0.000000e+00
 0.000000e+00 0.000000e+00 0.000000e+00 8.423152e-01 1.576848e-01
 0.000000e+00 0.000000e+00 0.000000e+00 0.000000e+00 0.000000e+00
<ENDHMM>
~h "ba"
<BEGINHMM>
<NUMSTATES> 5
<STATE> 2
<MEAN> 39
 -1.113531e+01 -3.953006e+00 2.566690e+00 1.450917e+00 -3.146334e-01 -3.873266e+00 -5.277676e+00 -1.002763e+01 -6.219434e+00 -4.022672e+00 3.588912e-02 -5.914880e+00 5.099791e+01 1.471887e+00 9.065088e-02 1.019999e+00 3.916827e-01 6.847922e-01 -4.994260e-01 -4.238111e-01 -9.623540e-01 -4.105476e-01 5.699876e-02 -1.323736e-01 -5.905162e-01 1.500561e+00 -3.073832e-02 -5.170161e-01 9.467089e-02 -6.096464e-01 6.445185e-02 -2.411371e-01 1.341828e-01 4.662180e-01 2.536051e-01 1.770530e-01 -8.198734e-02 -7.730669e-02 7.297060e-01
<VARIANCE> 39
 5.993716e+01 3.463630e+01 6.022879e+01 3.257980e+01 3.010939e+01 4.697614e+01 3.041289e+01 7.090066e+01 3.104755e+01 2.949416e+01 2.493023e+01 2.164196e+01 1.858370e+02 6.142071e+00 7.470044e+00 4.775196e+00 8.148266e+00 3.184995e+00 6.679447e+00 3.051088e+00 5.114818e+00 2.598387e+00 3.619226e+00 3.522211e+00 2.102026e+00 2.682384e+01 4.884974e-01 6.389974e-01 6.196896e-01 8.076338e-01 4.724064e-01 9.415245e-01 6.029046e-01 8.357543e-01 5.301932e-01 5.274057e-01 7.129324e-01 3.493293e-01 1.443306e+00
<GCONST> 1.353385e+02
<STATE> 3
<MEAN> 39
 -4.701015e+00 -5.753281e+00 7.134696e+00 -2.408607e+00 3.496960e+00 -5.492391e+00 -8.249979e+00 -1.412606e+01 -5.472424e+00 -4.562471e-01 2.132317e+00 -1.016693e+01 6.482609e+01 4.862009e-02 -2.224778e+00 -4.079791e-01 -2.485946e+00 2.230828e-01 -1.135442e+00 -6.396671e-02 1.743379e+00 1.916164e+00 7.915395e-01 -8.935944e-01 -3.601962e-01 2.987379e+00 -2.251559e-01 -6.784050e-01 -1.589172e-04 -5.564513e-01 -1.996103e-01 -2.206575e-01 2.569543e-01 8.812654e-01 3.165293e-01 -1.207782e-01 -5.396207e-01 1.857668e-01 5.415803e-01
<VARIANCE> 39
 5.988951e+00 4.887275e+01 1.659482e+01 7.394649e+01 1.534100e+01 3.381853e+01 2.883329e+01 5.646872e+01 4.273120e+01 3.906644e+01 2.492469e+01 1.516691e+01 6.066865e+01 1.353541e+00 7.548829e+00 2.706078e+00 8.231923e+00 2.080173e+00 3.011646e+00 2.843681e+00 7.178646e+00 4.145523e+00 4.312581e+00 4.367122e+00 1.903143e+00 1.066076e+01 2.876450e-01 1.247754e+00 4.184499e-01 1.987386e+00 3.790432e-01 6.448472e-01 5.367199e-01 9.121002e-01 8.632951e-01 9.504893e-01 7.103478e-01 4.512218e-01 1.989378e+00
<GCONST> 1.292427e+02
<STATE> 4
<MEAN> 39
 -6.429744e+00 -1.632812e+01 8.437383e+00 -1.106772e+01 2.503971e+00 -1.062769e+01 -1.743072e+00 -8.010407e-01 -5.819038e-01 -3.139230e+00 -6.636146e+00 -6.859883e+00 7.705782e+01 -9.693862e-02 -1.863690e-01 4.737946e-01 8.701839e-02 -9.946300e-02 -2.099574e-01 5.135254e-01 7.410837e-01 -2.920593e-01 -4.666321e-01 -4.201811e-01 4.424660e-01 3.028017e-01 -6.107906e-02 6.465685e-01 1.463274e-02 5.760962e-01 -5.938117e-02 2.492730e-01 -1.189890e-01 -5.453723e-01 -2.420340e-01 1.026201e-03 3.991775e-01 -2.045863e-02 -8.188569e-01
<VARIANCE> 39
 7.136690e+00 2.510663e+01 3.131188e+01 2.469628e+01 3.713342e+01 2.143663e+01 3.976943e+01 3.263921e+01 3.834803e+01 3.952105e+01 2.997786e+01 2.880882e+01 2.184960e+01 5.817022e-01 3.171122e+00 1.661589e+00 2.960005e+00 2.014755e+00 1.360467e+00 2.193669e+00 4.311980e+00 2.238271e+00 2.112674e+00 2.919933e+00 1.460802e+00 4.013053e+00 1.768633e-01 4.655845e-01 3.350523e-01 6.201794e-01 3.649550e-01 2.696950e-01 3.922144e-01 5.832629e-01 5.570393e-01 5.054942e-01 4.332139e-01 2.639474e-01 5.523455e-01
<GCONST> 1.124966e+02
<TRANSP> 5
 0.000000e+00 1.000000e+00 0.000000e+00 0.000000e+00 0.000000e+00
 0.000000e+00 5.693622e-01 4.306378e-01 0.000000e+00 0.000000e+00
 0.000000e+00 0.000000e+00 7.525011e-01 2.474990e-01 0.000000e+00
 0.000000e+00 0.000000e+00 0.000000e+00 8.624756e-01 1.375245e-01
 0.000000e+00 0.000000e+00 0.000000e+00 0.000000e+00 0.000000e+00
<ENDHMM>
~h "be"
<BEGINHMM>
<NUMSTATES> 5
<STATE> 2
<MEAN> 39
 -1.357328e+01 -3.887927e+00 6.524373e-01 2.412685e+00 2.634859e-01 -3.033898e+00 -7.005192e+00 -1.001005e+01 -4.982773e+00 -3.552592e+00 5.867559e-02 -5.214291e+00 4.798516e+01 -1.005044e-01 7.844694e-01 4.605847e-02 6.325152e-01 -1.815080e-01 4.428487e-01 2.468517e-01 -8.134191e-01 -4.624668e-01 -1.592613e-01 2.390490e-01 1.810335e-01 -1.041801e+00 8.822149e-02 -3.188845e-01 2.730739e-02 -3.632535e-01 -5.267294e-02 -3.182201e-01 7.841983e-02 2.035943e-01 3.238668e-01 -5.446652e-02 -2.381432e-01 -1.664480e-01 6.259832e-01
<VARIANCE> 39
 8.777254e+01 2.968317e+01 6.461752e+01 1.601645e+01 2.482641e+01 3.868530e+01 1.754381e+01 6.015290e+01 4.755702e+01 3.430715e+01 3.177580e+01 2.434687e+01 2.276843e+02 3.843916e-01 1.768593e+00 1.301844e+00 2.221657e+00 1.272421e+00 1.635105e+00 1.326966e+00 3.173679e+00 1.963249e+00 1.341009e+00 2.006480e+00 1.816521e+00 2.855926e+00 2.349296e-01 3.529760e-01 3.595656e-01 5.298219e-01 2.517914e-01 4.580531e-01 3.341520e-01 5.333118e-01 4.998135e-01 3.160588e-01 3.830431e-01 4.145083e-01 7.934609e-01
<GCONST> 1.139976e+02
<STATE> 3
<MEAN> 39
 -1.331135e+01 -2.138072e+00 6.891267e-01 2.577941e+00 6.484669e-02 1.130275e+00 -5.953558e+00 -1.056496e+01 -6.253648e+00 -1.554971e+00 1.639292e+00 -4.649821e+00 4.594739e+01 6.026413e-01 -4.416402e-01 2.021881e-01 -4.992031e-01 -2.060008e-01 -1.041473e+00 1.938884e-01 -4.613057e-01 8.054670e-01 -7.421650e-02 -3.606674e-01 -2.946872e-01 1.578020e+00 6.264934e-01 -6.505738e-01 3.481466e-01 -5.630540e-01 2.905947e-02 -6.549559e-01 -4.237213e-01 -1.397862e-01 3.527164e-01 1.998227e-01 -3.794335e-01 -2.285913e-01 1.544240e+00
<VARIANCE> 39
 1.103090e+02 3.855423e+01 9.838027e+01 2.294583e+01 3.993124e+01 5.654454e+01 1.879034e+01 7.718823e+01 3.350120e+01 4.170164e+01 2.997329e+01 2.038669e+01 3.500657e+02 1.898909e+00 1.814683e+00 3.318900e+00 1.653427e+00 1.157422e+00 2.320768e+00 2.607294e+00 2.565184e+00 4.178124e+00 2.686995e+00 2.627926e+00 7.467550e-01 4.228971e+00 6.299028e-01 6.782966e-01 1.123245e+00 6.854637e-01 4.418869e-01 4.411117e-01 3.154062e-01 1.079680e+00 6.280007e-01 4.575863e-01 3.375751e-01 2.625636e-01 1.068767e+00
<GCONST> 1.252063e+02
<STATE> 4
<MEAN> 39
 -1.455996e+01 -1.102967e+00 -2.951927e-01 1.245651e+00 -2.722854e+00 -4.033362e-02 -7.278347e+00 -9.550842e+00 -4.540534e+00 -1.530831e+00 4.884084e-02 -3.956864e+00 4.270841e+01 2.111905e+00 -8.560391e-01 1.568390e+00 -7.364480e-01 4.066687e-01 -1.333819e+00 -8.454178e-01 -1.074470e+00 2.390296e-01 6.723502e-01 -3.244205e-01 -5.720235e-01 3.728497e+00 1.205215e-01 -3.512493e-01 1.123404e-01 -1.553827e-02 1.561152e-01 -2.239530e-02 -1.024230e-01 2.315636e-01 1.530236e-01 2.739280e-01 -6.931738e-02 -5.193755e-02 4.003237e-01
<VARIANCE> 39
 8.173251e+01 1.999203e+01 8.394554e+01 4.464506e+01 3.501682e+01 4.871982e+01 4.153377e+01 8.534942e+01 4.384641e+01 2.408559e+01 2.354505e+01 2.074808e+01 2.725617e+02 6.678718e+00 4.031686e+00 1.077360e+01 5.764297e+00 2.813894e+00 5.085498e+00 4.005694e+00 8.795222e+00 6.050727e+00 2.272189e+00 3.049229e+00 1.682824e+00 1.567833e+01 7.650727e-01 3.622799e-01 1.098523e+00 7.380226e-01 6.120470e-01 9.543144e-01 8.380653e-01 1.135268e+00 9.872797e-01 5.524903e-01 4.255046e-01 2.698911e-01 1.573747e+00
<GCONST> 1.379376e+02
<TRANSP> 5
 0.000000e+00 1.000000e+00 0.000000e+00 0.000000e+00 0.000000e+00
 0.000000e+00 6.827345e-01 3.172655e-01 0.000000e+00 0.000000e+00
 0.000000e+00 0.000000e+00 5.780795e-02 9.421921e-01 0.000000e+00
 0.000000e+00 0.000000e+00 0.000000e+00 6.819927e-01 3.180072e-01
 0.000000e+00 0.000000e+00 0.000000e+00 0.000000e+00 0.000000e+00
<ENDHMM>
~h "bi"
<BEGINHMM>
<NUMSTATES> 5
<STATE> 2
<MEAN> 39
 -6.409507e+00 -2.436178e+00 1.141489e+01 3.511785e+00 1.236937e+00 -9.435416e+00 -7.109352e+00 -1.282415e+01 -6.833580e+00 -3.067999e+00 2.135349e+00 -1.029794e+01 6.034330e+01 -5.219240e-01 -8.737458e-01 2.239442e+00 -6.935542e-01 -1.133587e+00 -1.448740e+00 3.293444e-01 4.756812e-01 -6.922346e-01 -5.888557e-01 6.454545e-01 5.147561e-01 2.229975e+00 -3.138629e-01 -6.339988e-01 5.244269e-01 -9.125411e-01 -6.618126e-01 -6.785047e-02 1.427313e-01 5.104159e-01 -3.162983e-01 1.737668e-01 -1.268211e-01 3.446678e-01 8.774427e-01
<VARIANCE> 39
 1.508469e+01 3.189032e+01 2.101071e+01 2.266825e+01 3.131491e+01 2.871452e+01 3.214527e+01 4.880333e+01 2.432396e+01 3.443328e+01 2.638372e+01 2.589383e+01 4.568203e+01 4.054348e+00 4.601289e+00 7.948305e+00 6.726851e+00 4.208893e+00 5.015855e+00 1.502706e+00 4.561435e+00 3.390437e+00 2.675892e+00 1.895651e+00 2.675488e+00 1.477975e+01 2.803678e-01 6.001270e-01 6.720431e-01 5.016195e-01 5.159353e-01 6.585990e-01 3.862257e-01 6.060869e-01 5.411386e-01 6.591575e-01 3.090005e-01 3.524642e-01 8.901998e-01
<GCONST> 1.248943e+02
<STATE> 3
<MEAN> 39
 -1.013323e+01 -9.698254e+00 2.266668e+01 -6.193153e+00 -8.903397e+00 -1.289523e+01 -4.822213e+00 -7.166275e+00 -1.352478e+01 -1.418573e-01 3.731262e+00 -6.370639e+00 7.392059e+01 -4.072652e-01 -1.929913e-01 3.682346e-01 -9.762157e-01 -3.489275e-01 -6.578113e-01 9.483027e-01 7.583600e-01 4.126064e-02 -1.649261e-01 -2.251932e-01 8.780093e-01 1.495313e+00 -4.026252e-02 5.165601e-01 -1.023888e+00 5.949975e-01 8.870618e-01 3.507000e-01 1.870532e-01 -3.538664e-01 8.287079e-01 -4.249894e-01 -1.366308e-01 -1.831071e-01 -8.188868e-01
<VARIANCE> 39
 7.893336e+00 1.610765e+01 2.837770e+01 2.575755e+01 3.958844e+01 3.019432e+01 2.687946e+01 2.781791e+01 2.613678e+01 2.020728e+01 1.638013e+01 1.605225e+01 1.488260e+01 1.686918e+00 3.014556e+00 5.857826e+00 3.444377e+00 5.824735e+00 2.519987e+00 2.463658e+00 2.757968e+00 5.542459e+00 4.212569e+00 1.343414e+00 1.633192e+00 3.523830e+00 3.841786e-01 3.568062e-01 6.161368e-01 3.861723e-01 6.009344e-01 6.744983e-01 4.003514e-01 6.621643e-01 5.274860e-01 5.265507e-01 2.614221e-01 3.535239e-01 4.555728e-01
<GCONST> 1.156884e+02
<STATE> 4
<MEAN> 39
 -1.365797e+01 -9.851747e+00 9.725502e+00 -4.932278e+00 3.986787e-01 -1.152168e+01 1.305035e+00 -7.940042e+00 -1.637082e+00 -6.674204e+00 -2.222459e-01 -6.329520e+00 7.169733e+01 -2.313399e-01 3.374067e-01 -6.648732e-01 3.687296e-01 5.854550e-01 3.854468e-01 3.387007e-01 -3.391805e-01 6.750897e-01 -6.013275e-01 -2.565319e-01 -1.615121e-01 -4.171027e-01 -6.952175e-02 -3.532483e-02 4.809087e-02 -2.492180e-02 -5.217107e-02 1.880558e-01 -6.394805e-02 2.339128e-02 -1.320322e-01 8.775965e-02 5.726988e-02 -1.305974e-01 -7.327570e-02
<VARIANCE> 39
 8.676962e+01 2.880701e+01 5.372284e+01 3.390158e+01 4.088834e+01 4.631258e+01 7.724339e+01 3.175133e+01 3.979459e+01 3.385780e+01 4.987582e+01 2.786484e+01 2.539417e+01 6.253510e+00 2.732964e+00 2.551657e+00 2.498826e+00 3.535205e+00 3.114406e+00 3.522987e+00 2.424904e+00 4.130851e+00 4.882983e+00 4.283126e+00 2.052928e+00 2.392935e+00 6.902257e-01 4.076478e-01 4.412326e-01 4.415937e-01 5.020148e-01 7.641444e-01 4.441326e-01 3.999237e-01 5.046378e-01 6.609061e-01 6.860374e-01 4.983598e-01 4.479449e-01
<GCONST> 1.267583e+02
<TRANSP> 5
 0.000000e+00 1.000000e+00 0.000000e+00 0.000000e+00 0.000000e+00
 0.000000e+00 6.804335e-01 3.195665e-01 0.000000e+00 0.000000e+00
 0.000000e+00 0.000000e+00 7.474709e-01 2.525291e-01 0.000000e+00
 0.000000e+00 0.000000e+00 0.000000e+00 7.732801e-01 2.267199e-01
 0.000000e+00 0.000000e+00 0.000000e+00 0.000000e+00 0.000000e+00
<ENDHMM>
~h "bo"
<BEGINHMM>
<NUMSTATES> 5
<STATE> 2
<MEAN> 39
 -2.129322e+01 -4.115587e+00 6.882255e+00 2.247305e+00 -1.903378e+00 -1.390526e+00 2.457189e+00 -6.645477e+00 -3.410134e+00 -6.944045e+00 -3.849758e+00 -6.964089e+00 4.326913e+01 1.023498e+00 -6.420166e-01 7.345854e-01 5.581204e-01 6.715076e-01 9.731941e-01 -2.498167e-01 5.101211e-01 -6.287413e-01 -3.082902e-01 1.003411e-01 6.776730e-01 1.044135e+00 9.282949e-03 -4.303673e-01 -1.575660e-01 -4.119938e-01 2.555991e-01 1.513286e-01 -5.158565e-01 -1.559560e-01 -2.416766e-03 -4.602032e-02 3.373387e-01 2.057729e-01 3.248504e-01
<VARIANCE> 39
 2.401867e+01 2.200047e+01 5.845571e+01 4.023061e+01 2.467830e+01 4.358863e+01 4.381484e+01 1.399995e+01 8.912534e+00 2.378065e+01 7.403595e+00 1.422724e+01 1.493781e+02 4.725741e-01 1.880753e+00 1.949744e+00 2.573444e+00 1.255024e+00 2.523136e+00 1.140543e+01 2.231096e+00 4.729586e-01 6.294970e-01 5.947613e-01 2.630114e+00 3.192159e+00 4.832757e-01 3.536685e-01 6.859968e-01 5.647883e-01 2.686187e-01 5.661891e-01 1.601532e+00 4.238235e-01 4.854743e-01 2.925013e-01 1.009640e-01 5.337362e-01 1.310256e+00
<GCONST> 1.108225e+02
<STATE> 3
<MEAN> 39
 -1.840315e+01 -9.071221e+00 5.842657e+00 -8.673053e-01 -2.385481e-01 3.542794e+00 -6.437991e+00 -3.888215e+00 -2.440079e+00 -3.852127e+00 1.527229e+00 -4.448359e+00 4.639541e+01 2.073768e+00 -6.196565e-01 -9.730555e-01 -3.134078e+00 1.247827e+00 -4.194188e-01 -1.783785e+00 -7.432869e-01 -4.373562e-01 9.306477e-01 1.059869e+00 -1.954733e+00 3.204479e+00 7.268361e-01 2.391589e-01 9.846070e-02 -1.018032e+00 5.900987e-01 -4.959408e-01 7.315809e-01 -5.274279e-01 -5.785740e-01 8.412292e-02 -4.370917e-01 -8.632550e-01 1.450151e+00
<VARIANCE> 39
 3.582077e+01 3.415971e+01 1.456141e+02 9.413187e+01 4.417864e+01 1.850393e+01 9.059458e+00 7.316572e+00 1.704409e+01 3.051887e+01 1.099784e+01 3.607430e+01 2.846644e+02 3.712599e+00 6.329200e-01 5.995036e+00 2.609586e+00 2.002792e+00 1.171642e+00 1.891139e+00 2.866363e+00 2.833441e+00 2.546990e+00 1.023815e+00 4.169490e+00 6.611292e+00 7.702026e-01 1.852684e-01 5.218265e-01 9.410193e-01 5.438619e-01 1.373164e-01 2.227682e-01 2.791865e-01 7.827098e-01 3.613836e-01 2.460145e-01 1.074939e+00 1.511467e+00
<GCONST> 1.183553e+02
<STATE> 4
<MEAN> 39
 -6.374001e+00 -5.311233e+00 3.282198e+00 -1.647244e+01 8.272043e+00 1.080347e-01 -7.542246e+00 -6.996306e+00 -8.419301e+00 -1.019142e+00 -9.957416e-01 -6.344443e+00 6.050830e+01 2.954245e+00 -8.938890e-01 1.553036e+00 -4.216675e+00 3.014834e+00 -9.641810e-01 2.714494e-01 -4.537123e-01 -1.354880e+00 4.681726e-01 -9.812539e-01 -7.838640e-01 6.251328e+00 -8.309712e-01 -1.412467e-01 2.207056e-01 9.875649e-01 -4.625071e-01 7.771217e-02 4.140063e-01 4.340263e-02 5.236387e-01 1.440921e-01 -2.161946e-01 1.264119e-01 -8.348537e-01
<VARIANCE> 39
 1.936151e+01 3.261656e+01 5.888679e+01 6.610246e+01 7.464641e+01 1.510562e+01 3.569486e+01 2.205908e+01 9.110955e+00 1.197488e+01 1.645486e+01 5.147041e+01 1.199408e+02 5.099207e+00 1.452284e+00 1.543008e+00 6.117830e+00 5.524596e+00 1.688456e+00 1.647014e+00 1.524882e+00 6.612716e+00 9.824688e-01 1.731948e+00 1.502857e+00 1.061117e+01 4.561761e-01 1.514598e-01 6.326043e-01 1.178423e+00 9.589741e-01 2.075731e-01 3.269418e-01 3.187141e-01 1.012382e+00 3.123836e-01 3.189194e-01 2.673513e-01 1.600829e+00
<GCONST> 1.189162e+02
<TRANSP> 5
 0.000000e+00 1.000000e+00 0.000000e+00 0.000000e+00 0.000000e+00
 0.000000e+00 6.986275e-01 3.013725e-01 0.000000e+00 0.000000e+00
 0.000000e+00 0.000000e+00 4.000130e-01 5.999870e-01 0.000000e+00
 0.000000e+00 0.000000e+00 0.000000e+00 6.682534e-01 3.317466e-01
 0.000000e+00 0.000000e+00 0.000000e+00 0.000000e+00 0.000000e+00
<ENDHMM>
~h "bu"
<BEGINHMM>
<NUMSTATES> 5
<STATE> 2
<MEAN> 39
 -4.925969e+00 -1.892887e+00 8.255854e+00 -7.619304e+00 1.702974e+00 -4.446572e-01 -3.763595e+00 -1.028536e+01 -8.914675e+00 -4.187946e+00 1.771841e+00 -9.042441e+00 6.382893e+01 4.678072e-02 3.986423e-01 -7.368827e-01 -8.887560e-01 1.488652e-01 -2.474690e-02 -7.958174e-02 3.497636e-02 -6.731963e-02 -2.714582e-04 2.788391e-01 -5.440865e-02 2.104951e-01 -1.643456e-02 -1.580202e-01 7.206158e-02 -1.181381e-01 -2.453069e-02 -1.652225e-02 -7.911371e-02 7.339671e-02 9.171877e-03 7.559799e-02 -2.105903e-02 1.763483e-02 1.687435e-01
<VARIANCE> 39
 1.327403e+01 3.431963e+01 2.576801e+01 1.201739e+02 3.996815e+01 4.397084e+01 2.471158e+01 5.254470e+01 4.413845e+01 4.157650e+01 3.391444e+01 2.040681e+01 3.472305e+01 1.327654e+00 4.042135e+00 3.049469e+00 1.176013e+01 3.687490e+00 4.938735e+00 2.705450e+00 7.183572e+00 4.612638e+00 2.982888e+00 3.872871e+00 2.134637e+00 3.868550e+00 2.859624e-01 5.189610e-01 5.408018e-01 1.754045e+00 6.687378e-01 8.214352e-01 4.542348e-01 1.137741e+00 9.943402e-01 4.846667e-01 6.791192e-01 3.313162e-01 4.744576e-01
<GCONST> 1.291082e+02
<STATE> 3
<MEAN> 39
 -3.986022e+00 1.195557e+00 4.577591e+00 -2.003933e+01 7.373482e-03 -4.582712e+00 -4.818505e+00 -8.907338e+00 -1.213792e+01 -6.648907e+00 2.829248e-01 -8.145059e+00 6.667091e+01 -1.430672e-01 -1.533632e-01 -7.485341e-02 -1.631454e-02 -8.981234e-02 9.146521e-02 -2.736917e-01 1.377354e-01 3.605086e-01 2.113320e-01 -1.178771e-01 1.944895e-01 -1.090901e-01 -2.072710e-01 -1.315141e-01 -1.260054e-02 3.620661e-01 3.561722e-02 -2.239182e-02 1.283232e-01 -1.203192e-02 2.303026e-01 -1.323373e-01 -3.265392e-03 4.067471e-02 -1.910895e-01
<VARIANCE> 39
 2.911427e+00 2.384886e+01 1.290232e+01 8.262321e+01 2.975694e+01 2.271049e+01 1.674537e+01 3.228849e+01 3.189191e+01 3.886307e+01 1.910491e+01 2.753441e+01 2.337121e+01 5.677221e-01 1.363084e+00 1.081828e+00 3.252320e+00 1.122702e+00 1.129788e+00 1.043934e+00 1.296470e+00 1.846919e+00 1.756793e+00 1.261819e+00 1.368130e+00 9.118165e-01 8.846348e-02 2.782747e-01 3.613513e-01 1.017623e+00 2.608753e-01 3.093491e-01 1.721691e-01 5.621934e-01 3.538786e-01 2.902693e-01 4.097525e-01 2.745324e-01 2.046904e-01
<GCONST> 9.980620e+01
<STATE> 4
<MEAN> 39
 -1.099694e+01 -6.364285e+00 -1.721620e+00 -9.994364e+00 2.891107e+00 -3.891854e+00 -4.173513e+00 -1.216610e+01 -4.139059e+00 -3.703028e+00 2.443114e+00 -7.304556e+00 6.030157e+01 -1.060842e+00 -1.455953e+00 -7.025091e-01 1.121667e+00 -6.329970e-02 -5.170575e-01 4.825877e-02 1.709322e-01 1.483680e+00 -7.188619e-01 3.884506e-01 -5.364295e-01 -4.286340e-01 1.660570e-01 1.219161e-01 2.959603e-01 -4.032862e-01 5.675182e-04 -7.929198e-02 -9.726649e-02 1.286661e-01 -4.402571e-01 -1.249359e-01 -1.656300e-01 -6.965811e-02 1.501404e-01
<VARIANCE> 39
 2.658856e+01 4.669920e+01 4.657210e+01 7.936819e+01 3.851494e+01 3.189806e+01 3.900634e+01 5.750660e+01 4.965799e+01 4.183639e+01 3.158688e+01 3.064894e+01 5.709758e+01 1.133516e+00 3.397407e+00 3.202073e+00 6.997990e+00 1.774991e+00 2.823688e+00 1.940771e+00 4.989724e+00 5.550812e+00 3.468549e+00 3.762307e+00 3.045191e+00 2.359107e+00 2.000100e-01 7.424761e-01 4.289761e-01 1.317469e+00 5.812638e-01 5.207409e-01 4.121498e-01 1.132967e+00 9.009852e-01 8.396774e-01 7.093810e-01 7.602592e-01 7.354785e-01
<GCONST> 1.293613e+02
<TRANSP> 5
 0.000000e+00 1.000000e+00 0.000000e+00 0.000000e+00 0.000000e+00
 0.000000e+00 9.035588e-01 9.644119e-02 0.000000e+00 0.000000e+00
 0.000000e+00 0.000000e+00 7.610370e-01 2.389630e-01 0.000000e+00
 0.000000e+00 0.000000e+00 0.000000e+00 6.450720e-01 3.549280e-01
 0.000000e+00 0.000000e+00 0.000000e+00 0.000000e+00 0.000000e+00
<ENDHMM>
~h "ca"
<BEGINHMM>
<NUMSTATES> 5
<STATE> 2
<MEAN> 39
 -1.322850e+01 -3.407865e+00 7.356752e+00 1.343501e+00 -4.045720e+00 -1.376122e+01 -5.198236e+00 -8.267512e+00 -3.149737e+00 -7.993919e+00 1.634782e+00 -2.881966e+00 6.049644e+01 -2.484109e+00 1.316532e+00 5.229543e-01 1.739845e-01 1.272275e+00 1.007016e+00 1.874492e+00 -1.414896e-01 9.100370e-01 -1.644353e+00 1.072428e+00 5.452450e-01 -3.318538e-01 -9.596438e-01 -2.359035e-01 -2.790688e-01 -3.377499e-01 6.016325e-01 9.453012e-02 8.617638e-01 5.518677e-02 6.438753e-01 8.946470e-02 -1.126942e-01 -2.058485e-01 2.456144e-01
<VARIANCE> 39
 1.633447e+01 1.774534e+01 2.410660e+01 1.453481e+01 6.739969e+00 2.025082e+01 2.241683e+01 3.210884e+01 1.827319e+01 1.397727e+01 5.823341e+00 9.071671e+00 1.047103e+02 2.438526e+00 4.240729e+00 2.458036e+00 1.160498e+00 2.930520e+00 1.616024e+00 3.049589e+00 3.160003e+00 4.664411e+00 3.647892e+00 1.318342e+00 6.789207e-01 8.508349e+00 3.836001e-01 4.046115e-01 5.684822e-01 2.491318e-01 2.798633e-01 6.418131e-01 7.091586e-01 3.771531e-01 6.821031e-01 6.315259e-01 1.902692e-01 2.057632e-01 1.624483e+00
<GCONST> 1.104807e+02
<STATE> 3
<MEAN> 39
 -2.927862e+01 -3.885287e+00 3.804940e+00 -3.982344e+00 2.635661e+00 -8.658082e+00 4.206002e+00 -1.015294e+01 1.974300e+00 -9.270893e+00 2.694289e+00 -2.688496e+00 6.149207e+01 -9.091526e-01 -4.482547e-01 -9.486213e-01 -1.290695e+00 1.407461e-02 8.028967e-01 5.002819e-01 -1.997582e-01 4.876131e-01 1.281904e-01 -2.261912e-01 1.631208e-03 2.220488e-01 1.316179e+00 -3.895957e-01 1.358656e-01 1.342951e-01 -6.454433e-01 -1.980396e-01 -6.659529e-01 1.599190e-01 -3.137653e-01 5.767991e-02 -3.580388e-01 -1.860069e-01 8.320928e-03
<VARIANCE> 39
 2.851146e+01 3.676119e+01 2.401166e+01 1.450654e+01 6.068466e+00 2.829217e+01 1.730381e+01 1.224168e+01 2.812093e+01 1.405011e+01 7.700986e+00 1.009396e+01 2.635787e+01 8.654223e+00 4.293579e+00 1.651469e+00 2.588549e+00 2.299775e+00 1.977462e+00 2.773621e+00 9.755652e-01 2.040923e+00 1.525970e+00 1.685159e+00 7.552982e-01 1.014046e+01 1.133868e+00 8.211816e-01 8.536922e-01 4.030980e-01 1.508398e-01 4.134613e-01 2.011758e-01 2.541270e-01 5.677704e-01 6.846673e-01 4.377686e-01 8.081555e-02 1.466455e+00
<GCONST> 1.090725e+02
<STATE> 4
<MEAN> 39
 -1.461559e+01 -9.260531e+00 6.693441e+00 -7.452214e+00 -2.936415e+00 -1.170428e+01 1.549419e+00 -7.194053e+00 1.352055e+00 -1.075519e+01 -1.177717e+00 -4.226586e+00 6.855376e+01 2.314346e+00 -1.539106e+00 1.772389e-01 -2.052495e-01 -3.632634e-01 -6.059966e-01 2.118322e-01 3.778712e-01 -2.008172e-02 -1.941858e-01 -1.351832e+00 -6.586252e-01 2.056874e+00 -2.871854e-01 1.627988e-01 -1.987713e-01 1.696945e-01 2.576602e-01 1.138950e-01 1.496736e-01 -1.790788e-01 7.054704e-02 4.225375e-02 4.932154e-02 -9.380280e-02 -4.447336e-02
<VARIANCE> 39
 7.518359e+01 3.780042e+01 2.256977e+01 1.830899e+01 2.148567e+01 2.276775e+01 1.932751e+01 2.294786e+01 1.128080e+01 1.550402e+01 4.697506e+01 6.976146e+00 9.293243e+01 1.060235e+01 1.896226e+00 6.324792e+00 2.769852e+00 3.013156e+00 2.638191e+00 2.133148e+00 3.068023e+00 1.551461e+00 2.963383e+00 2.856586e+00 1.038783e+00 5.277351e+00 1.957881e+00 5.428613e-01 1.126438e+00 6.278182e-01 5.547522e-01 5.688791e-01 2.913503e-01 6.588250e-01 2.704658e-01 4.872471e-01 7.093831e-01 2.096334e-01 1.567470e+00
<GCONST> 1.209495e+02
<TRANSP> 5
 0.000000e+00 1.000000e+00 0.000000e+00 0.000000e+00 0.000000e+00
 0.000000e+00 6.425178e-01 3.574822e-01 0.000000e+00 0.000000e+00
 0.000000e+00 0.000000e+00 7.665455e-01 2.334545e-01 0.000000e+00
 0.000000e+00 0.000000e+00 0.000000e+00 8.604386e-01 1.395613e-01
 0.000000e+00 0.000000e+00 0.000000e+00 0.000000e+00 0.000000e+00
<ENDHMM>
~h "ce"
<BEGINHMM>
<NUMSTATES> 5
<STATE> 2
<MEAN> 39
 -1.414439e+01 -7.743544e+00 2.981896e+00 -3.338959e+00 -1.236701e+00 -4.557664e+00 -2.877691e+00 -5.862136e+00 -3.202762e+00 -3.443379e+00 -1.721877e+00 -6.371274e+00 5.579076e+01 6.232237e-03 -1.184823e-02 5.264243e-03 -6.519453e-03 1.211909e-02 -4.235385e-03 -3.512999e-03 -1.805082e-02 -5.453523e-03 -6.036744e-03 -7.011249e-03 -6.053052e-03 2.423646e-02 -9.010978e-04 1.120651e-04 9.610648e-04 -2.967558e-04 -9.534184e-04 -8.676232e-04 1.872276e-03 1.397487e-03 1.512468e-03 6.095680e-04 -1.876877e-03 -2.391075e-03 8.105070e-05
<VARIANCE> 39
 8.422131e+01 6.084932e+01 1.073184e+02 6.955961e+01 5.446898e+01 7.079699e+01 4.003558e+01 5.404599e+01 3.966318e+01 3.654010e+01 3.580028e+01 3.070767e+01 4.210256e+02 2.718938e+00 2.774098e+00 2.577952e+00 3.647003e+00 2.640600e+00 2.721259e+00 2.408645e+00 3.156996e+00 2.811730e+00 2.666958e+00 2.489032e+00 1.730705e+00 5.594234e+00 4.269334e-01 4.867562e-01 4.137151e-01 6.318184e-01 4.706049e-01 4.998694e-01 4.513086e-01 5.820031e-01 5.208243e-01 5.037161e-01 4.586620e-01 3.360353e-01 8.262612e-01
<GCONST> 1.297615e+02
<STATE> 3
<MEAN> 39
 -1.414439e+01 -7.743544e+00 2.981896e+00 -3.338959e+00 -1.236701e+00 -4.557664e+00 -2.877691e+00 -5.862136e+00 -3.202762e+00 -3.443379e+00 -1.721877e+00 -6.371274e+00 5.579076e+01 6.232237e-03 -1.184823e-02 5.264243e-03 -6.519453e-03 1.211909e-02 -4.235385e-03 -3.512999e-03 -1.805082e-02 -5.453523e-03 -6.036744e-03 -7.011249e-03 -6.053052e-03 2.423646e-02 -9.010978e-04 1.120651e-04 9.610648e-04 -2.967558e-04 -9.534184e-04 -8.676232e-04 1.872276e-03 1.397487e-03 1.512468e-03 6.095680e-04 -1.876877e-03 -2.391075e-03 8.105070e-05
<VARIANCE> 39
 8.422131e+01 6.084932e+01 1.073184e+02 6.955961e+01 5.446898e+01 7.079699e+01 4.003558e+01 5.404599e+01 3.966318e+01 3.654010e+01 3.580028e+01 3.070767e+01 4.210256e+02 2.718938e+00 2.774098e+00 2.577952e+00 3.647003e+00 2.640600e+00 2.721259e+00 2.408645e+00 3.156996e+00 2.811730e+00 2.666958e+00 2.489032e+00 1.730705e+00 5.594234e+00 4.269334e-01 4.867562e-01 4.137151e-01 6.318184e-01 4.706049e-01 4.998694e-01 4.513086e-01 5.820031e-01 5.208243e-01 5.037161e-01 4.586620e-01 3.360353e-01 8.262612e-01
<GCONST> 1.297615e+02
<STATE> 4
<MEAN> 39
 -1.414439e+01 -7.743544e+00 2.981896e+00 -3.338959e+00 -1.236701e+00 -4.557664e+00 -2.877691e+00 -5.862136e+00 -3.202762e+00 -3.443379e+00 -1.721877e+00 -6.371274e+00 5.579076e+01 6.232237e-03 -1.184823e-02 5.264243e-03 -6.519453e-03 1.211909e-02 -4.235385e-03 -3.512999e-03 -1.805082e-02 -5.453523e-03 -6.036744e-03 -7.011249e-03 -6.053052e-03 2.423646e-02 -9.010978e-04 1.120651e-04 9.610648e-04 -2.967558e-04 -9.534184e-04 -8.676232e-04 1.872276e-03 1.397487e-03 1.512468e-03 6.095680e-04 -1.876877e-03 -2.391075e-03 8.105070e-05
<VARIANCE> 39
 8.422131e+01 6.084932e+01 1.073184e+02 6.955961e+01 5.446898e+01 7.079699e+01 4.003558e+01 5.404599e+01 3.966318e+01 3.654010e+01 3.580028e+01 3.070767e+01 4.210256e+02 2.718938e+00 2.774098e+00 2.577952e+00 3.647003e+00 2.640600e+00 2.721259e+00 2.408645e+00 3.156996e+00 2.811730e+00 2.666958e+00 2.489032e+00 1.730705e+00 5.594234e+00 4.269334e-01 4.867562e-01 4.137151e-01 6.318184e-01 4.706049e-01 4.998694e-01 4.513086e-01 5.820031e-01 5.208243e-01 5.037161e-01 4.586620e-01 3.360353e-01 8.262612e-01
<GCONST> 1.297615e+02
<TRANSP> 5
 0.000000e+00 1.000000e+00 0.000000e+00 0.000000e+00 0.000000e+00
 0.000000e+00 6.000000e-01 4.000000e-01 0.000000e+00 0.000000e+00
