~o
<STREAMINFO> 1 39
<VECSIZE> 39<NULLD><MFCC_D_A_0><DIAGC>
~s "silst"
<MEAN> 39
 -2.600390e+01 1.766431e+00 -1.022145e+01 4.056117e+00 -7.114451e+00 5.295237e+00 -3.600545e+00 1.262334e+00 6.211038e-01 -9.050369e-01 1.156036e+00 -4.085189e-01 2.271507e+01 1.405183e-03 -1.511385e-03 -4.536108e-03 -3.424965e-03 2.163260e-02 2.887351e-02 -3.124208e-03 -1.601015e-02 -1.381982e-02 -1.253969e-02 -7.407182e-03 -4.120710e-03 9.569067e-04 4.212313e-03 -1.338466e-03 1.210670e-02 9.343935e-04 -6.170405e-03 -1.247280e-02 5.753877e-03 8.693657e-03 1.239867e-04 -4.806803e-04 -1.185708e-02 -1.251213e-02 8.438669e-03
<VARIANCE> 39
 8.422131e-01 1.225017e+00 2.073060e+00 3.205730e+00 5.604783e+00 6.512400e+00 8.211436e+00 9.174182e+00 8.867597e+00 7.727807e+00 8.574373e+00 7.506348e+00 4.210256e+00 6.410742e-02 1.474469e-01 2.431241e-01 3.568199e-01 7.119689e-01 8.085074e-01 1.229989e+00 1.385795e+00 9.953213e-01 8.349693e-01 9.475516e-01 8.658025e-01 5.594233e-02 1.532258e-02 2.987665e-02 5.095793e-02 7.395798e-02 1.439726e-01 1.579362e-01 2.924207e-01 3.225085e-01 2.074576e-01 1.672923e-01 1.975191e-01 1.789592e-01 8.262613e-03
<GCONST> 5.004492e+01
~h "a"
<BEGINHMM>
<NUMSTATES> 5
<STATE> 2
<MEAN> 39
 -6.665856e+00 -1.336982e+01 5.111867e+00 -1.199414e+01 1.004019e+00 -5.162247e+00 -3.144567e+00 -7.114804e+00 -5.048973e+00 -2.609052e+00 -2.568358e+00 -8.935194e+00 7.159551e+01 4.662510e-01 -1.071055e+00 -1.274935e-01 -5.262234e-01 6.101410e-01 -2.481937e-01 7.419316e-02 6.317672e-01 3.105610e-01 -3.039052e-01 -9.196446e-01 -1.942664e-01 1.228143e+00 -6.415109e-02 9.051450e-02 1.141314e-01 2.399119e-01 3.023484e-02 -1.228501e-02 5.125646e-04 -1.302149e-02 1.647531e-02 -6.314705e-02 -3.778762e-02 1.023204e-01 -1.696634e-01
<VARIANCE> 39
 2.437720e+01 2.569644e+01 8.071529e+01 4.504080e+01 4.339302e+01 6.484453e+01 3.440142e+01 4.087411e+01 4.341882e+01 3.961682e+01 3.512533e+01 2.203872e+01 5.586295e+01 2.571302e+00 3.019144e+00 3.034279e+00 3.805157e+00 2.622270e+00 3.153056e+00 1.761798e+00 2.939755e+00 1.954100e+00 2.774360e+00 2.764187e+00 1.669919e+00 6.752128e+00 2.534798e-01 4.297173e-01 3.525988e-01 5.673270e-01 4.251782e-01 4.339344e-01 3.757640e-01 5.248618e-01 3.528586e-01 4.271503e-01 3.559001e-01 3.174042e-01 4.564689e-01
<GCONST> 1.210168e+02
<STATE> 3
<MEAN> 39
 -5.761523e+00 -1.991877e+01 6.335759e+00 -1.236806e+01 5.234299e+00 -9.766857e+00 -3.173270e+00 -2.174942e+00 -2.695075e+00 -4.977937e+00 -9.136420e+00 -8.611938e+00 7.722714e+01 9.999418e-02 -3.699423e-01 4.864298e-01 2.099663e-01 -5.107658e-02 -4.077418e-01 3.374839e-01 6.255656e-01 4.139489e-02 -4.715408e-01 -3.693065e-01 5.051992e-01 5.747734e-01 -1.503889e-01 6.458837e-01 1.119927e-01 3.637049e-01 -3.585748e-01 1.583575e-01 -7.412602e-02 -3.990831e-01 -7.094465e-02 1.956702e-01 4.821394e-01 9.987073e-02 -6.601119e-01
<VARIANCE> 39
 6.433313e+00 1.410363e+01 2.522877e+01 1.812364e+01 3.793869e+01 3.058571e+01 3.743925e+01 3.152956e+01 2.139127e+01 3.103362e+01 2.609212e+01 1.941607e+01 1.095206e+01 8.742853e-01 1.989782e+00 2.430157e+00 1.565908e+00 2.965568e+00 1.858287e+00 1.994452e+00 2.508766e+00 1.632686e+00 2.176975e+00 2.098932e+00 1.372879e+00 2.045566e+00 2.282437e-01 3.014335e-01 2.763262e-01 3.604600e-01 2.862322e-01 2.580643e-01 3.216230e-01 4.316005e-01 2.299670e-01 3.792359e-01 3.402042e-01 2.509026e-01 4.610299e-01
<GCONST> 1.045711e+02
<STATE> 4
<MEAN> 39
 -7.468340e+00 -1.472305e+01 9.206433e+00 -1.003374e+01 2.818565e+00 -1.045444e+01 1.417073e+00 -3.644770e+00 -4.916348e+00 -5.857656e+00 -4.899448e+00 -6.426302e+00 7.553664e+01 -1.433991e-01 1.408172e+00 4.759578e-01 1.182218e+00 -1.982838e-01 3.903698e-02 -1.706682e-01 -6.569637e-01 4.048856e-02 5.488767e-02 2.653146e-01 2.081044e-01 -1.283262e+00 -1.106578e-01 3.047999e-01 -4.805312e-02 4.435790e-01 5.843941e-02 1.747081e-01 -8.948190e-02 -2.047434e-01 1.370344e-01 -7.642190e-02 4.308581e-03 -1.399324e-01 -5.120496e-01
<VARIANCE> 39
 1.244692e+01 2.882073e+01 6.267748e+01 4.070086e+01 6.949204e+01 4.637947e+01 3.802201e+01 4.133508e+01 2.247095e+01 4.460035e+01 3.780283e+01 2.478723e+01 2.168260e+01 4.644551e-01 2.271711e+00 1.950471e+00 2.431815e+00 2.264553e+00 1.487285e+00 1.737689e+00 1.732138e+00 1.632618e+00 1.944722e+00 1.901043e+00 1.471166e+00 2.375708e+00 1.629717e-01 3.122106e-01 2.836772e-01 4.530642e-01 3.228061e-01 2.731656e-01 3.006461e-01 4.270006e-01 2.772693e-01 3.459243e-01 2.973970e-01 2.570232e-01 3.215026e-01
<GCONST> 1.090854e+02
<TRANSP> 5
 0.000000e+00 1.000000e+00 0.000000e+00 0.000000e+00 0.000000e+00
 0.000000e+00 6.603472e-01 3.396528e-01 0.000000e+00 0.000000e+00
 0.000000e+00 0.000000e+00 6.728113e-01 3.271887e-01 0.000000e+00
 0.000000e+00 0.000000e+00 0.000000e+00 7.044978e-01 2.955022e-01
 0.000000e+00 0.000000e+00 0.000000e+00 0.000000e+00 0.000000e+00
<ENDHMM>
~h "b"
<BEGINHMM>
<NUMSTATES> 5
<STATE> 2
<MEAN> 39
 -1.414439e+01 -7.743544e+00 2.981896e+00 -3.338959e+00 -1.236701e+00 -4.557664e+00 -2.877691e+00 -5.862136e+00 -3.202762e+00 -3.443379e+00 -1.721877e+00 -6.371274e+00 5.579076e+01 6.232359e-03 -1.184804e-02 5.264054e-03 -6.519258e-03 1.211933e-02 -4.235122e-03 -3.513063e-03 -1.805109e-02 -5.453553e-03 -6.036517e-03 -7.011238e-03 -6.053182e-03 2.423620e-02 -9.010879e-04 1.120917e-04 9.610619e-04 -2.967312e-04 -9.533982e-04 -8.676147e-04 1.872286e-03 1.397449e-03 1.512503e-03 6.096156e-04 -1.876927e-03 -2.391097e-03 8.105883e-05
<VARIANCE> 39
 8.422131e+01 6.084932e+01 1.073184e+02 6.955961e+01 5.446898e+01 7.079699e+01 4.003558e+01 5.404599e+01 3.966318e+01 3.654010e+01 3.580028e+01 3.070767e+01 4.210256e+02 2.718939e+00 2.774098e+00 2.577951e+00 3.647006e+00 2.640604e+00 2.721262e+00 2.408642e+00 3.156995e+00 2.811726e+00 2.666955e+00 2.489032e+00 1.730701e+00 5.594233e+00 4.269344e-01 4.867565e-01 4.137163e-01 6.318190e-01 4.706055e-01 4.998690e-01 4.513081e-01 5.820021e-01 5.208251e-01 5.037160e-01 4.586603e-01 3.360357e-01 8.262613e-01
<GCONST> 1.297615e+02
<STATE> 3
<MEAN> 39
 -1.414439e+01 -7.743544e+00 2.981896e+00 -3.338959e+00 -1.236701e+00 -4.557664e+00 -2.877691e+00 -5.862136e+00 -3.202762e+00 -3.443379e+00 -1.721877e+00 -6.371274e+00 5.579076e+01 6.232359e-03 -1.184804e-02 5.264054e-03 -6.519258e-03 1.211933e-02 -4.235122e-03 -3.513063e-03 -1.805109e-02 -5.453553e-03 -6.036517e-03 -7.011238e-03 -6.053182e-03 2.423620e-02 -9.010879e-04 1.120917e-04 9.610619e-04 -2.967312e-04 -9.533982e-04 -8.676147e-04 1.872286e-03 1.397449e-03 1.512503e-03 6.096156e-04 -1.876927e-03 -2.391097e-03 8.105883e-05
<VARIANCE> 39
 8.422131e+01 6.084932e+01 1.073184e+02 6.955961e+01 5.446898e+01 7.079699e+01 4.003558e+01 5.404599e+01 3.966318e+01 3.654010e+01 3.580028e+01 3.070767e+01 4.210256e+02 2.718939e+00 2.774098e+00 2.577951e+00 3.647006e+00 2.640604e+00 2.721262e+00 2.408642e+00 3.156995e+00 2.811726e+00 2.666955e+00 2.489032e+00 1.730701e+00 5.594233e+00 4.269344e-01 4.867565e-01 4.137163e-01 6.318190e-01 4.706055e-01 4.998690e-01 4.513081e-01 5.820021e-01 5.208251e-01 5.037160e-01 4.586603e-01 3.360357e-01 8.262613e-01
<GCONST> 1.297615e+02
<STATE> 4
<MEAN> 39
 -1.414439e+01 -7.743544e+00 2.981896e+00 -3.338959e+00 -1.236701e+00 -4.557664e+00 -2.877691e+00 -5.862136e+00 -3.202762e+00 -3.443379e+00 -1.721877e+00 -6.371274e+00 5.579076e+01 6.232359e-03 -1.184804e-02 5.264054e-03 -6.519258e-03 1.211933e-02 -4.235122e-03 -3.513063e-03 -1.805109e-02 -5.453553e-03 -6.036517e-03 -7.011238e-03 -6.053182e-03 2.423620e-02 -9.010879e-04 1.120917e-04 9.610619e-04 -2.967312e-04 -9.533982e-04 -8.676147e-04 1.872286e-03 1.397449e-03 1.512503e-03 6.096156e-04 -1.876927e-03 -2.391097e-03 8.105883e-05
<VARIANCE> 39
 8.422131e+01 6.084932e+01 1.073184e+02 6.955961e+01 5.446898e+01 7.079699e+01 4.003558e+01 5.404599e+01 3.966318e+01 3.654010e+01 3.580028e+01 3.070767e+01 4.210256e+02 2.718939e+00 2.774098e+00 2.577951e+00 3.647006e+00 2.640604e+00 2.721262e+00 2.408642e+00 3.156995e+00 2.811726e+00 2.666955e+00 2.489032e+00 1.730701e+00 5.594233e+00 4.269344e-01 4.867565e-01 4.137163e-01 6.318190e-01 4.706055e-01 4.998690e-01 4.513081e-01 5.820021e-01 5.208251e-01 5.037160e-01 4.586603e-01 3.360357e-01 8.262613e-01
<GCONST> 1.297615e+02
<TRANSP> 5
 0.000000e+00 1.000000e+00 0.000000e+00 0.000000e+00 0.000000e+00
 0.000000e+00 6.000000e-01 4.000000e-01 0.000000e+00 0.000000e+00
 0.000000e+00 0.000000e+00 6.000000e-01 4.000000e-01 0.000000e+00
 0.000000e+00 0.000000e+00 0.000000e+00 7.000000e-01 3.000000e-01
 0.000000e+00 0.000000e+00 0.000000e+00 0.000000e+00 0.000000e+00
<ENDHMM>
~h "e"
<BEGINHMM>
<NUMSTATES> 5
<STATE> 2
<MEAN> 39
 -1.935388e+01 -7.988228e+00 -1.004856e+00 2.397362e+00 1.222355e+00 -5.676303e+00 2.858787e+00 -9.627888e+00 3.436832e-01 -5.974683e+00 1.592009e-01 -5.936447e+00 5.659538e+01 2.453514e-01 -2.314140e-02 6.307806e-02 -9.419126e-02 -3.619716e-01 -9.546184e-01 1.157935e-01 2.183341e-01 -1.732911e-01 1.351025e+00 -6.518335e-01 -6.946670e-02 -7.761926e-01 5.951199e-01 -5.413713e-01 7.449222e-01 -4.363573e-01 -1.202454e-01 -6.612558e-01 -5.578229e-01 1.920502e-02 -1.622384e-01 3.898507e-01 -4.002637e-01 -1.265180e-01 6.898052e-01
<VARIANCE> 39
 1.053724e+02 3.607747e+01 3.059239e+01 3.193047e+01 3.543863e+01 5.646382e+01 4.391391e+01 6.390029e+01 1.339777e+01 2.496607e+01 2.873166e+01 3.335632e+01 3.115375e+02 4.630846e+00 4.269773e+00 4.157622e+00 2.359538e+00 2.899513e+00 8.828576e+00 2.161346e+00 3.439351e+00 1.107026e+00 5.075171e+00 2.681032e+00 1.641477e+00 1.118327e+01 5.527549e-01 5.089869e-01 7.293420e-01 3.873664e-01 5.609118e-01 1.424437e+00 2.933363e-01 6.556679e-01 2.561835e-01 8.072911e-01 3.020985e-01 1.709288e-01 2.230560e+00
<GCONST> 1.287612e+02
<STATE> 3
<MEAN> 39
 -7.724902e+00 -1.473836e+01 7.310982e+00 1.083766e-02 6.547872e-01 -1.545426e+01 -2.921468e+00 -7.009424e+00 -3.674470e+00 4.378220e+00 -6.796842e+00 -9.661541e+00 6.539710e+01 1.100884e+00 -1.209342e+00 2.000331e+00 -5.666067e-01 4.565565e-01 -7.424737e-01 -1.141034e+00 4.586643e-01 -5.777263e-01 1.862559e+00 -2.852985e-01 -2.569261e-01 1.075946e+00 -4.438606e-01 1.881212e-01 -2.121134e-01 -1.034561e-01 1.307167e-01 9.008602e-01 5.640553e-02 -8.502023e-02 2.254511e-01 -9.339634e-01 3.559551e-01 2.645897e-01 -9.805445e-02
<VARIANCE> 39
 3.052782e+01 3.646960e+01 3.579586e+01 2.237143e+01 1.143837e+01 4.198758e+01 1.247793e+01 4.400233e+01 1.325606e+01 2.844218e+01 1.078617e+01 1.746897e+01 9.721461e+01 4.144576e+00 4.075509e+00 1.914953e+00 1.305737e+00 2.340720e+00 6.183845e+00 2.288948e+00 3.442350e+00 1.434627e+00 4.804540e+00 2.755279e+00 1.392422e+00 8.901070e+00 3.623523e-01 1.276516e+00 3.856607e-01 5.872386e-01 2.133154e-01 9.882932e-01 4.652924e-01 6.400426e-01 3.227874e-01 9.898989e-01 4.673715e-01 3.270818e-01 1.104686e+00
<GCONST> 1.196058e+02
<STATE> 4
<MEAN> 39
 -5.472875e+00 -1.154366e+01 1.321228e+01 1.937470e+00 2.909818e-01 -1.165049e+01 -8.028922e+00 -1.001068e+01 -1.456360e+00 5.265643e+00 -6.852175e+00 -8.826655e+00 6.457172e+01 4.772859e-03 3.325452e-02 4.650602e-01 -7.510165e-02 2.714553e-01 2.783810e-01 -3.464069e-01 1.404110e-01 2.704524e-01 -1.255007e-01 2.023757e-01 4.135208e-01 2.258272e-01 -1.623876e-02 -1.089284e-01 -4.186465e-01 -7.086378e-02 1.529181e-01 1.506099e-01 2.348250e-01 3.910526e-02 4.227849e-02 -2.772099e-01 4.246276e-02 -3.775139e-02 2.272764e-01
<VARIANCE> 39
 1.091071e+01 2.656234e+01 3.150489e+01 1.687073e+01 1.702390e+01 1.123759e+01 1.593108e+01 1.926861e+01 7.064045e+00 1.300877e+01 8.977185e+00 8.551440e+00 4.285464e+01 1.758674e-01 1.332576e+00 1.106243e+00 9.982613e-01 6.325576e-01 1.675566e+00 9.681239e-01 1.417978e+00 7.946476e-01 1.307624e+00 9.018229e-01 4.757492e-01 1.248913e+00 8.216148e-02 3.640883e-01 2.144908e-01 2.149750e-01 8.666582e-02 3.268856e-01 8.737900e-02 1.648863e-01 1.423932e-01 1.966665e-01 1.786184e-01 1.258820e-01 1.878395e-01
<GCONST> 8.222732e+01
<TRANSP> 5
 0.000000e+00 1.000000e+00 0.000000e+00 0.000000e+00 0.000000e+00
 0.000000e+00 5.908456e-01 4.091544e-01 0.000000e+00 0.000000e+00
 0.000000e+00 0.000000e+00 5.404203e-01 4.595797e-01 0.000000e+00
 0.000000e+00 0.000000e+00 0.000000e+00 7.691032e-01 2.308969e-01
 0.000000e+00 0.000000e+00 0.000000e+00 0.000000e+00 0.000000e+00
<ENDHMM>
~h "h"
<BEGINHMM>
<NUMSTATES> 5
<STATE> 2
<MEAN> 39
 -7.055944e+00 -1.235211e+01 8.439512e+00 -7.997119e+00 4.615289e+00 -1.013898e+01 -1.875070e+00 -6.786394e+00 -3.856132e+00 -4.935703e+00 -5.118455e+00 -8.272496e+00 7.291962e+01 -3.076023e-01 1.370447e+00 -2.384988e-01 1.617668e+00 1.067066e+00 1.617846e+00 9.177117e-01 -1.426464e+00 7.589061e-01 -8.268739e-01 6.796402e-02 -7.169719e-01 -1.473490e+00 -3.764894e-01 4.157230e-01 -1.298682e-01 3.824961e-01 -1.712134e-01 2.908267e-01 2.053768e-01 -3.301730e-01 4.283408e-02 4.642988e-02 3.758978e-01 -1.109039e-01 -4.381278e-01
<VARIANCE> 39
 1.803399e+01 5.057051e+01 6.414559e+01 2.689957e+01 4.620454e+01 4.529958e+01 2.537209e+01 4.073308e+01 3.319847e+01 3.588505e+01 5.113726e+01 2.208285e+01 3.026785e+01 1.321109e+00 2.624929e+00 2.353175e+00 4.328602e+00 1.695449e+00 1.676944e+00 2.477004e+00 3.199720e+00 2.422249e+00 4.712301e+00 2.596292e+00 1.612613e+00 3.015469e+00 3.848399e-01 5.238363e-01 3.090113e-01 5.276842e-01 5.571170e-01 2.879565e-01 4.098904e-01 7.141154e-01 5.616235e-01 6.019942e-01 5.268385e-01 3.284599e-01 2.281794e-01
<GCONST> 1.189157e+02
<STATE> 3
<MEAN> 39
 -9.506244e+00 -9.394847e+00 7.152342e+00 -1.625489e+00 6.832145e+00 -4.893380e+00 2.874402e+00 -1.168036e+01 -2.324505e+00 -9.231252e+00 -5.176962e+00 -1.006720e+01 6.868469e+01 -9.373960e-01 1.162263e+00 -5.150806e-01 1.237356e+00 8.463047e-02 9.754021e-01 4.122354e-01 -4.626696e-01 6.427040e-01 2.269010e-02 3.698748e-01 -2.980646e-01 -1.812547e+00 -1.780151e-01 -1.270003e-01 -2.373644e-01 -3.896025e-01 -2.722380e-01 -1.961095e-01 -2.229658e-01 2.462331e-01 -2.876015e-02 3.077182e-01 1.298792e-01 2.705873e-01 -1.118924e-01
<VARIANCE> 39
 2.397824e+01 4.179708e+01 4.351424e+01 3.622688e+01 4.338390e+01 5.351166e+01 3.932056e+01 2.318567e+01 5.104079e+01 4.668632e+01 3.885204e+01 1.610975e+01 3.709695e+01 2.614285e+00 2.099113e+00 2.010697e+00 4.392402e+00 2.865710e+00 2.901749e+00 2.735863e+00 5.079285e+00 3.312079e+00 4.152398e+00 2.669499e+00 1.702492e+00 2.705344e+00 3.164370e-01 5.010539e-01 2.971834e-01 7.341619e-01 3.577338e-01 3.585693e-01 4.486894e-01 4.888952e-01 6.676960e-01 3.491512e-01 3.683849e-01 2.617995e-01 3.902055e-01
<GCONST> 1.204344e+02
<STATE> 4
<MEAN> 39
 -1.610951e+01 -6.560151e+00 6.859601e+00 -4.764601e+00 1.866491e+00 -2.274363e+00 1.730797e+00 -1.220810e+01 -1.091938e+00 -6.607658e+00 -1.919965e+00 -8.759268e+00 6.118513e+01 -4.547129e-01 3.065383e-01 -9.027008e-01 2.682575e-01 -3.158892e-01 4.566594e-01 -1.453332e-01 6.004778e-02 8.213694e-02 3.456115e-01 1.438495e-01 2.606126e-01 -1.520883e+00 3.573760e-02 -2.630615e-01 4.869489e-02 -1.699898e-01 -1.447307e-01 -2.639867e-01 -2.157854e-01 3.812235e-02 -2.074361e-01 1.107022e-02 1.029963e-01 1.506929e-01 2.617004e-01
<VARIANCE> 39
 4.839946e+01 2.529112e+01 8.418896e+01 4.022720e+01 3.220474e+01 2.988439e+01 1.939830e+01 3.669736e+01 3.079593e+01 4.811879e+01 3.628344e+01 1.888148e+01 8.233480e+01 3.110142e+00 2.141607e+00 1.934259e+00 2.464798e+00 2.367002e+00 2.680574e+00 2.175467e+00 3.372295e+00 2.070311e+00 2.385854e+00 3.991782e+00 1.997401e+00 1.781334e+00 1.650288e-01 4.600269e-01 3.450409e-01 6.880451e-01 3.484876e-01 3.862758e-01 3.472888e-01 4.527286e-01 3.897321e-01 6.050220e-01 5.746326e-01 5.057943e-01 4.723347e-01
<GCONST> 1.188407e+02
<TRANSP> 5
 0.000000e+00 1.000000e+00 0.000000e+00 0.000000e+00 0.000000e+00
 0.000000e+00 3.522845e-01 6.477155e-01 0.000000e+00 0.000000e+00
 0.000000e+00 0.000000e+00 5.165154e-01 4.834846e-01 0.000000e+00
 0.000000e+00 0.000000e+00 0.000000e+00 5.868092e-01 4.131909e-01
 0.000000e+00 0.000000e+00 0.000000e+00 0.000000e+00 0.000000e+00
<ENDHMM>
~h "i"
<BEGINHMM>
<NUMSTATES> 5
<STATE> 2
<MEAN> 39
 -1.082866e+01 -9.417996e+00 1.226604e+01 -4.628115e+00 -5.043897e+00 -9.446215e+00 -5.533357e-01 -4.525122e+00 -4.951221e+00 -3.034813e+00 -1.827046e+00 -5.741617e+00 6.615701e+01 -2.211013e-01 6.626481e-01 1.007096e+00 -2.053204e-01 -7.493358e-01 9.115478e-02 2.341710e-01 -5.426743e-01 -4.794405e-01 1.421737e-01 7.808810e-01 1.099820e-02 1.773202e-01 1.074824e-03 -1.235109e-01 2.461702e-01 -3.802266e-01 -1.365491e-01 2.960131e-01 -4.749503e-02 -4.958350e-02 -2.441932e-01 5.903954e-02 7.422899e-02 -2.188976e-01 2.619559e-01
<VARIANCE> 39
 4.878015e+01 4.662467e+01 9.559757e+01 5.754119e+01 4.792150e+01 4.932282e+01 2.387681e+01 7.527415e+01 3.316456e+01 2.226590e+01 3.813670e+01 1.681598e+01 2.685956e+02 2.195614e+00 2.384572e+00 2.092644e+00 3.461582e+00 2.423315e+00 2.168104e+00 1.838576e+00 2.422524e+00 1.701676e+00 2.271706e+00 2.329043e+00 1.147042e+00 4.867198e+00 3.368425e-01 4.147383e-01 7.343761e-01 7.620919e-01 3.766672e-01 4.593946e-01 3.102155e-01 7.345870e-01 4.177251e-01 4.434738e-01 3.555222e-01 3.066373e-01 1.116199e+00
<GCONST> 1.230741e+02
<STATE> 3
<MEAN> 39
 -1.677081e+01 -6.016813e+00 8.618780e+00 -2.519434e+00 -7.276824e+00 -5.582389e+00 3.464266e-01 -6.186305e+00 -3.675125e+00 -2.013193e+00 2.091884e+00 -5.288976e+00 5.335041e+01 1.089413e+00 -1.264748e+00 4.383925e+00 -2.864816e+00 -1.499412e+00 -3.110922e-01 6.334340e-01 -9.736912e-01 -2.339273e+00 3.536197e-01 4.200143e-01 -1.213895e+00 4.330413e+00 4.998133e-01 -2.942980e-01 5.548715e-01 -3.079033e-01 -5.100191e-02 2.095849e-01 -1.881478e-01 1.906970e-01 -5.122948e-01 2.059721e-01 -2.817218e-01 -2.028380e-01 6.037583e-01
<VARIANCE> 39
 5.450869e+01 3.587436e+01 1.392691e+02 3.645407e+01 2.441600e+01 5.790999e+01 2.840403e+01 5.662046e+01 3.490608e+01 2.453060e+01 1.932627e+01 2.002885e+01 3.767194e+02 5.697896e+00 3.784557e+00 1.145706e+01 4.778848e+00 2.512810e+00 4.264766e+00 2.140759e+00 4.012102e+00 3.642040e+00 2.751620e+00 3.265030e+00 1.817370e+00 1.702973e+01 4.253439e-01 5.090411e-01 1.581144e+00 9.185714e-01 5.398424e-01 5.281949e-01 4.225670e-01 7.093565e-01 6.837630e-01 3.792523e-01 4.033826e-01 4.230565e-01 1.714463e+00
<GCONST> 1.333891e+02
<STATE> 4
<MEAN> 39
 -8.964399e+00 -9.574128e+00 2.075449e+01 -5.741259e+00 -9.429680e+00 -6.744081e+00 -4.343346e-01 -6.584737e+00 -1.151307e+01 4.251714e-01 1.626641e+00 -8.480309e+00 6.798370e+01 2.803465e-01 -5.561052e-02 4.971952e-01 -5.498226e-01 -1.107489e-03 1.083593e-01 1.509005e-02 -2.049816e-01 -3.756000e-01 -3.565560e-02 -1.276758e-01 -2.571243e-01 1.021766e+00 -1.417278e-01 8.375794e-02 -4.909381e-01 2.034893e-01 2.500214e-01 -3.112657e-02 -2.805538e-02 -4.032938e-03 3.465765e-01 -1.327453e-01 -1.427370e-01 5.672940e-02 -3.336809e-01
<VARIANCE> 39
 1.416302e+01 2.724055e+01 2.924702e+01 6.709511e+01 2.783624e+01 3.499855e+01 2.421158e+01 3.809363e+01 2.823035e+01 3.102313e+01 3.344088e+01 1.949737e+01 6.933440e+01 2.751756e+00 2.679933e+00 5.005790e+00 9.855342e+00 3.155282e+00 3.386456e+00 2.104450e+00 3.127987e+00 4.142677e+00 3.877990e+00 3.264993e+00 1.445923e+00 7.262558e+00 3.841247e-01 5.318378e-01 1.079319e+00 1.706835e+00 5.486572e-01 6.069340e-01 4.739107e-01 5.837699e-01 6.961853e-01 7.872877e-01 7.521909e-01 2.861936e-01 1.268982e+00
<GCONST> 1.276177e+02
<TRANSP> 5
 0.000000e+00 1.000000e+00 0.000000e+00 0.000000e+00 0.000000e+00
 0.000000e+00 5.414397e-01 4.585603e-01 0.000000e+00 0.000000e+00
 0.000000e+00 0.000000e+00 3.934422e-01 6.065578e-01 0.000000e+00
 0.000000e+00 0.000000e+00 0.000000e+00 8.188965e-01 1.811035e-01
 0.000000e+00 0.000000e+00 0.000000e+00 0.000000e+00 0.000000e+00
<ENDHMM>
~h "k"
<BEGINHMM>
<NUMSTATES> 5
<STATE> 2
<MEAN> 39
 -1.266787e+01 -2.562637e+00 3.203539e-01 -6.301768e+00 1.273279e+00 -5.997712e+00 -7.935680e+00 -1.048127e+01 -4.450449e+00 -2.638676e+00 1.963638e+00 -6.570350e+00 5.479102e+01 -1.029206e+00 1.364482e-01 -6.737317e-01 9.586070e-01 -4.270334e-01 8.096293e-02 4.807673e-01 2.111802e-01 6.271337e-01 -6.223022e-01 -6.100847e-01 1.540862e-01 -2.024388e+00 -2.176264e-02 -3.322033e-01 2.684431e-02 -6.130410e-02 -1.491206e-01 -1.811118e-01 8.994044e-02 -1.954725e-04 -9.450568e-02 -1.133184e-01 5.660959e-03 9.205541e-03 3.434675e-01
<VARIANCE> 39
 2.261735e+01 2.143871e+01 3.447819e+01 6.395605e+01 4.382330e+01 3.160872e+01 3.567205e+01 2.473233e+01 4.679232e+01 2.434118e+01 2.853177e+01 1.964616e+01 1.007464e+02 1.293198e+00 3.397022e+00 2.105334e+00 2.984226e+00 2.670126e+00 3.779959e+00 2.452604e+00 2.364899e+00 3.189153e+00 1.870686e+00 2.836310e+00 1.461656e+00 5.524115e+00 3.417996e-01 5.963592e-01 6.147600e-01 6.677813e-01 6.790844e-01 7.452326e-01 6.463747e-01 4.956185e-01 8.396715e-01 3.930945e-01 5.845956e-01 3.904742e-01 1.053734e+00
<GCONST> 1.230264e+02
<STATE> 3
<MEAN> 39
 -1.668170e+01 -7.917246e+00 5.693897e-01 -2.686919e+00 -3.266333e-01 -9.334232e+00 -2.139390e+00 -1.089347e+01 -2.919984e+00 -6.675749e+00 -1.394359e+00 -7.166167e+00 5.452458e+01 5.791838e-02 5.036379e-01 7.624592e-01 3.157675e-03 -5.589380e-01 -6.427020e-01 4.263290e-01 -2.491790e-01 -8.451411e-01 -5.075441e-01 2.890650e-02 2.271532e-01 2.544420e-01 3.416947e-01 2.465891e-01 4.459533e-01 -3.629900e-01 -2.724782e-01 1.643584e-01 -2.201981e-01 4.674821e-01 -1.785220e-02 4.808467e-01 3.554090e-01 1.315871e-01 2.002886e-01
<VARIANCE> 39
 1.663456e+01 3.571344e+01 4.011478e+01 2.809523e+01 3.563182e+01 6.634550e+01 5.807335e+01 3.578731e+01 1.421280e+01 3.378961e+01 1.845801e+01 1.410975e+01 5.418250e+01 2.852364e+00 4.391139e+00 8.388721e+00 6.812053e+00 2.482773e+00 4.298144e+00 5.822656e+00 5.171032e+00 3.974754e+00 3.770317e+00 1.723774e+00 2.302870e+00 1.281846e+01 5.842081e-01 1.085213e+00 1.419729e+00 6.372214e-01 5.152057e-01 7.859550e-01 1.299998e+00 8.465904e-01 5.223062e-01 9.180397e-01 3.355370e-01 3.276373e-01 2.029150e+00
<GCONST> 1.316110e+02
<STATE> 4
<MEAN> 39
 -1.829732e+01 -3.254469e+00 -1.086132e+00 -6.284885e-02 -3.683038e+00 -5.755128e+00 -5.609979e+00 -5.300208e+00 -2.157175e+00 -2.583784e+00 2.965204e-01 -5.232066e+00 4.325837e+01 3.593435e-01 -5.941974e-01 5.255983e-01 -4.516431e-01 -2.213363e-01 -5.383015e-01 -2.257058e-01 4.063780e-01 3.437100e-02 2.256423e-01 4.067836e-02 -1.790923e-01 1.100376e+00 2.732870e-01 -2.952217e-01 1.885360e-01 -2.829601e-01 3.015892e-01 -6.047777e-02 2.050171e-02 -1.977467e-01 -4.111743e-02 -8.442556e-02 -1.272767e-01 -1.799709e-01 8.416479e-01
<VARIANCE> 39
 2.747618e+01 4.143532e+01 4.926073e+01 4.270603e+01 2.808018e+01 9.293928e+01 3.258892e+01 4.447360e+01 4.413267e+01 2.572116e+01 2.012167e+01 1.790718e+01 2.094617e+02 4.896977e+00 4.671317e+00 7.495510e+00 4.056424e+00 4.038737e+00 1.018689e+01 3.677913e+00 6.852780e+00 5.332759e+00 5.034662e+00 2.043679e+00 2.313616e+00 2.451188e+01 6.221242e-01 1.139476e+00 9.139552e-01 9.770883e-01 4.835047e-01 2.570401e+00 5.316467e-01 1.379938e+00 1.275418e+00 8.514392e-01 4.493608e-01 3.780732e-01 4.730295e+00
<GCONST> 1.406240e+02
<TRANSP> 5
 0.000000e+00 1.000000e+00 0.000000e+00 0.000000e+00 0.000000e+00
 0.000000e+00 7.509103e-01 2.490897e-01 0.000000e+00 0.000000e+00
 0.000000e+00 0.000000e+00 4.811505e-01 5.188495e-01 0.000000e+00
 0.000000e+00 0.000000e+00 0.000000e+00 6.673941e-01 3.326059e-01
 0.000000e+00 0.000000e+00 0.000000e+00 0.000000e+00 0.000000e+00
<ENDHMM>
~h "l"
<BEGINHMM>
<NUMSTATES> 5
<STATE> 2
<MEAN> 39
 -3.683415e+00 -1.271358e+01 -4.293221e-01 -2.267529e+01 5.330820e+00 3.450496e+00 2.360189e-01 -1.549133e+01 -2.739729e+00 -5.542388e+00 -1.916355e+00 -9.301129e+00 7.463175e+01 4.036603e-02 -2.008310e-01 1.489533e-01 -7.791758e-02 -2.409796e-01 -8.731789e-02 -4.156659e-01 6.177154e-02 -1.764272e-01 2.553997e-01 2.721749e-01 3.155716e-02 1.322523e-01 -4.380967e-02 8.762231e-02 5.402093e-02 1.122868e-01 1.686584e-03 -3.537759e-02 -5.027705e-02 -2.711911e-02 -4.918975e-02 -9.187393e-03 -6.261417e-02 4.009926e-02 -8.815590e-02
<VARIANCE> 39
 9.552685e+00 4.795268e+01 3.274100e+01 2.636844e+01 5.588356e+01 1.048146e+01 2.194081e+01 1.197458e+01 1.407338e+01 2.310777e+01 1.766427e+01 6.918041e+00 4.455362e+01 4.695735e-01 3.303699e+00 1.085717e+00 1.696633e+00 2.614223e+00 1.284665e+00 1.581954e+00 1.697567e+00 1.013761e+00 7.686893e-01 8.480797e-01 8.552812e-01 1.369008e+00 9.515595e-02 3.326842e-01 2.539196e-01 3.732382e-01 4.371639e-01 1.913901e-01 3.025352e-01 2.428841e-01 1.676424e-01 1.257011e-01 1.135375e-01 1.502171e-01 1.802152e-01
<GCONST> 9.334344e+01
<STATE> 3
<MEAN> 39
 -1.111298e+01 -5.352896e+00 1.758325e+01 -1.440555e+01 -6.145071e+00 -3.954251e-01 -9.425919e+00 -1.667969e+01 -8.211923e+00 -3.587101e+00 1.072765e+00 -1.093989e+01 7.258695e+01 -6.443660e-02 1.833212e-01 5.763756e-02 1.251119e-01 4.926775e-02 -5.442378e-01 -5.797382e-02 -5.360946e-01 -1.392693e-01 6.592441e-02 -4.467628e-01 1.074431e-01 -5.313717e-01 -6.358009e-03 3.490166e-02 -2.108877e-01 2.351937e-01 -2.172595e-02 -5.989815e-02 3.595268e-01 -1.658596e-01 2.224626e-01 -1.861725e-01 -1.523146e-01 6.989398e-02 -5.644381e-02
<VARIANCE> 39
 2.725354e+01 3.003695e+01 2.118104e+02 5.825000e+01 3.920575e+01 7.982532e+00 3.452982e+00 1.899173e+01 3.176557e+01 2.272472e+01 2.354997e+01 7.172297e+00 5.213977e+01 4.120315e-01 9.121087e-01 8.358027e-01 9.917986e-01 1.429573e+00 1.451844e+00 1.610672e+00 1.852364e+00 7.530575e-01 1.805044e+00 6.875435e-01 5.616931e-01 4.820243e-01 5.221995e-02 1.955135e-01 1.305773e-01 3.574182e-01 1.266377e-01 1.724181e-01 1.301436e-01 4.132684e-01 3.394971e-01 2.382402e-01 1.131950e-01 5.527735e-02 1.060034e-01
<GCONST> 8.845335e+01
<STATE> 4
<MEAN> 39
 -9.521545e+00 -8.487234e+00 1.358422e+00 -1.103210e+01 -1.729595e-01 -4.436556e+00 -7.448125e+00 -2.048147e+01 -7.586871e+00 -1.052972e+01 -5.985577e+00 -1.173642e+01 6.465797e+01 -6.159042e-01 2.302799e-01 -1.003664e-01 1.662200e+00 1.661581e-01 -7.018319e-01 4.187045e-01 -2.560435e-02 4.378327e-01 -3.306608e-01 3.639816e-01 3.738200e-01 -1.084568e+00 -2.679885e-04 -1.834776e-01 2.717022e-02 -6.260606e-02 4.644264e-03 1.034711e-01 2.534065e-01 3.806381e-01 9.714857e-02 -1.051008e-02 1.743461e-01 2.122047e-02 1.698653e-01
<VARIANCE> 39
 1.595966e+01 1.782379e+01 5.653880e+01 4.612458e+01 1.953226e+01 2.951605e+01 2.938066e+01 2.352566e+01 3.558752e+01 6.557743e+01 1.140769e+01 2.933783e+01 7.472483e+01 1.051497e+00 1.943575e+00 9.850415e-01 2.151675e+00 7.389320e-01 1.856299e+00 1.898106e+00 1.479831e+00 1.864549e+00 3.629079e+00 8.048198e-01 2.072153e+00 1.151845e+00 2.668417e-01 2.912473e-01 1.054072e-01 5.484867e-01 2.371508e-01 2.428936e-01 3.632396e-01 5.057830e-01 3.232411e-01 4.967191e-01 1.620360e-01 2.676798e-01 1.109546e-01
<GCONST> 1.042319e+02
<TRANSP> 5
 0.000000e+00 1.000000e+00 0.000000e+00 0.000000e+00 0.000000e+00
 0.000000e+00 8.871270e-01 1.128730e-01 0.000000e+00 0.000000e+00
 0.000000e+00 0.000000e+00 7.330495e-01 2.669505e-01 0.000000e+00
 0.000000e+00 0.000000e+00 0.000000e+00 6.673642e-01 3.326358e-01
 0.000000e+00 0.000000e+00 0.000000e+00 0.000000e+00 0.000000e+00
<ENDHMM>
~h "m"
<BEGINHMM>
<NUMSTATES> 5
<STATE> 2
<MEAN> 39
 -3.084570e+00 -1.410948e+01 3.825815e+00 -1.030224e+01 5.177051e+00 -2.580860e+00 -3.925239e+00 -7.273967e+00 -3.136311e+00 -2.118997e+00 -2.512083e+00 -9.805655e+00 7.194513e+01 1.545846e-01 7.098908e-01 1.281764e+00 1.294128e+00 -1.093463e-01 6.770660e-01 -2.870296e-01 -1.435156e+00 -6.373034e-01 2.523375e-01 1.123346e+00 1.852090e-01 -9.074385e-01 -4.784028e-01 2.992396e-01 4.582708e-01 5.570634e-01 -1.567913e-01 -2.655461e-01 -2.028208e-01 -3.510541e-01 -7.789299e-02 -4.071260e-02 1.006601e-01 1.218801e-01 -4.878078e-01
<VARIANCE> 39
 4.797959e+00 1.716270e+01 1.744217e+01 3.259467e+01 3.775068e+01 3.687747e+01 3.701641e+01 2.918954e+01 2.676496e+01 1.596700e+01 3.467977e+01 1.505151e+01 2.491372e+01 7.304628e-01 1.831567e+00 2.896909e+00 3.436616e+00 2.038510e+00 2.431461e+00 2.568671e+00 2.734356e+00 2.286086e+00 1.787044e+00 2.773822e+00 1.376597e+00 3.028034e+00 3.118252e-01 2.911337e-01 4.418311e-01 4.366966e-01 4.271949e-01 4.091134e-01 3.696416e-01 3.434235e-01 4.518055e-01 3.175284e-01 3.789495e-01 2.386853e-01 3.064476e-01
<GCONST> 1.087997e+02
<STATE> 3
<MEAN> 39
 -4.527923e+00 -1.046393e+01 1.210750e+01 -1.954304e+00 2.157225e+00 -1.846930e-01 -8.534903e+00 -1.436622e+01 -8.650343e+00 -2.127371e+00 2.923939e+00 -9.680121e+00 6.704440e+01 -6.444696e-01 9.507034e-01 2.054288e+00 1.982413e+00 3.267170e-01 -2.811038e-01 -1.340118e+00 -1.624766e+00 -9.047784e-01 2.540030e-01 5.453354e-01 2.373847e-01 -1.485401e+00 -2.994688e-02 -1.629078e-01 -4.797870e-01 -5.277860e-01 2.774177e-02 -2.765168e-01 1.458138e-01 5.109055e-01 3.337287e-01 -4.612618e-02 -4.760224e-01 -1.419812e-02 3.751197e-01
<VARIANCE> 39
 3.212303e+00 1.546701e+01 2.314367e+01 2.416298e+01 1.690871e+01 3.263431e+01 3.287382e+01 2.452928e+01 1.781285e+01 2.221644e+01 2.616028e+01 1.102010e+01 1.307076e+01 2.317511e-01 1.220976e+00 2.317817e+00 2.089958e+00 1.338168e+00 1.826776e+00 1.664256e+00 1.796209e+00 1.781703e+00 1.841170e+00 2.114394e+00 1.610317e+00 1.014075e+00 6.194658e-02 1.596424e-01 4.052955e-01 3.003900e-01 2.468208e-01 1.952812e-01 4.265655e-01 2.629432e-01 3.849778e-01 2.807957e-01 5.320159e-01 2.177023e-01 1.231853e-01
<GCONST> 9.544488e+01
<STATE> 4
<MEAN> 39
 -5.870968e+00 -7.177281e+00 1.384060e+01 6.849466e-01 2.343652e+00 -2.371518e+00 -9.573956e+00 -1.538500e+01 -6.940423e+00 -1.213007e+00 6.782486e-01 -8.385600e+00 6.345531e+01 -2.081989e-01 8.226861e-01 -1.946903e-01 2.856522e-01 -2.751232e-01 -3.043185e-01 4.202477e-01 -1.921931e-01 3.987758e-01 -2.499613e-01 -5.544033e-01 7.193430e-02 -6.200034e-01 -5.398811e-02 -1.100701e-02 -3.904657e-01 -2.798060e-01 3.446504e-02 -3.070766e-02 3.407070e-01 3.031689e-01 1.881097e-01 -2.168500e-01 -5.292360e-02 -5.080795e-02 1.280719e-01
<VARIANCE> 39
 4.220807e+00 2.117484e+01 1.785661e+01 1.985544e+01 1.708108e+01 3.814650e+01 2.652613e+01 2.336529e+01 2.948671e+01 2.626038e+01 3.699224e+01 1.694175e+01 2.464908e+01 2.619956e-01 1.112436e+00 1.165966e+00 1.388569e+00 1.036014e+00 1.066200e+00 1.687192e+00 1.478331e+00 1.553844e+00 1.725846e+00 2.124731e+00 1.132784e+00 7.492310e-01 9.855635e-02 2.555742e-01 2.286721e-01 3.353011e-01 2.618189e-01 2.214561e-01 2.950474e-01 3.737520e-01 2.967421e-01 3.299988e-01 4.770264e-01 2.586672e-01 1.718997e-01
<GCONST> 9.560663e+01
<TRANSP> 5
 0.000000e+00 1.000000e+00 0.000000e+00 0.000000e+00 0.000000e+00
 0.000000e+00 6.539913e-01 3.460087e-01 0.000000e+00 0.000000e+00
 0.000000e+00 0.000000e+00 5.646418e-01 4.353582e-01 0.000000e+00
 0.000000e+00 0.000000e+00 0.000000e+00 8.188972e-01 1.811028e-01
 0.000000e+00 0.000000e+00 0.000000e+00 0.000000e+00 0.000000e+00
<ENDHMM>
~h "n"
<BEGINHMM>
<NUMSTATES> 5
<STATE> 2
<MEAN> 39
 -5.031394e+00 -1.404940e+01 1.099746e+01 -1.360182e+00 1.075321e+00 -8.951113e+00 -3.418272e+00 -5.301810e+00 -2.943092e+00 -2.917247e+00 -8.894850e+00 -8.295173e+00 7.062518e+01 6.297834e-02 2.538619e+00 1.640285e+00 2.592329e+00 -1.283927e+00 -4.236117e-01 -5.443895e-01 -2.508798e+00 2.881927e-01 1.400223e+00 -2.328280e-01 -1.103524e-01 -2.837306e+00 -1.081087e-01 1.067776e-01 -4.462004e-02 -2.567649e-01 -1.275983e-01 -5.875482e-02 2.514223e-02 -2.379446e-02 -5.778272e-02 -8.620450e-02 -4.109401e-03 8.945607e-02 -2.011983e-02
<VARIANCE> 39
 4.855463e+00 3.629466e+01 2.917559e+01 3.036604e+01 4.162217e+01 2.929392e+01 2.623336e+01 4.186017e+01 2.188552e+01 3.406725e+01 2.662459e+01 2.218246e+01 3.096190e+01 4.564921e-01 1.499080e+00 2.672360e+00 1.698692e+00 2.612528e+00 2.677221e+00 1.691470e+00 2.410590e+00 2.327229e+00 2.598536e+00 2.481796e+00 1.931253e+00 1.192953e+00 7.935101e-02 4.857049e-01 4.496526e-01 4.656333e-01 4.122650e-01 3.502364e-01 2.625234e-01 6.802099e-01 3.775198e-01 6.351464e-01 2.477217e-01 2.991299e-01 4.565847e-01
<GCONST> 1.089063e+02
<STATE> 3
<MEAN> 39
 -5.792040e+00 -6.369083e+00 1.403336e+01 3.046012e+00 -3.752859e+00 -9.922172e+00 -5.014824e+00 -1.222521e+01 -4.345522e+00 -1.859816e+00 -1.008558e+01 -7.756845e+00 6.247438e+01 -2.021175e-01 8.229710e-01 -2.787520e-01 2.904682e-01 4.177672e-02 2.062271e-01 -6.914483e-02 -6.091722e-01 -1.891408e-01 -3.414548e-01 1.555501e-01 6.367254e-02 -8.568146e-01 -1.360345e-01 -2.782295e-01 -3.382685e-01 -3.085892e-01 2.984284e-01 1.494338e-01 1.124078e-01 3.203747e-01 -4.283212e-02 -3.162299e-01 3.125022e-01 -3.097653e-02 2.868294e-01
<VARIANCE> 39
 3.894077e+00 1.961275e+01 2.288681e+01 1.764961e+01 2.475251e+01 3.148192e+01 2.965891e+01 2.245361e+01 3.442618e+01 4.222564e+01 3.313074e+01 1.838148e+01 2.370817e+01 2.847867e-01 1.120145e+00 1.036734e+00 9.965827e-01 1.755927e+00 1.253129e+00 1.170277e+00 1.517991e+00 1.586539e+00 1.951619e+00 1.869792e+00 1.384947e+00 7.341369e-01 1.002909e-01 2.734738e-01 2.900379e-01 3.445402e-01 3.344300e-01 2.749664e-01 2.607590e-01 3.684999e-01 3.371147e-01 4.507725e-01 3.847237e-01 2.821615e-01 2.496222e-01
<GCONST> 9.793829e+01
<STATE> 4
<MEAN> 39
 -1.103257e+01 -4.389383e+00 8.860083e+00 2.525120e+00 1.935596e-01 -8.612534e+00 -3.859440e+00 -1.176119e+01 -3.978681e+00 -6.942120e+00 -5.058301e+00 -8.093348e+00 5.796064e+01 -1.389248e+00 -8.830939e-01 -1.412836e+00 -1.661860e+00 6.720305e-01 -1.822214e-01 4.564732e-01 6.167040e-01 4.822490e-01 -8.085092e-01 1.478017e+00 4.689154e-02 6.351579e-01 1.508241e-01 -3.772634e-01 1.614259e-02 -5.620161e-01 -1.382428e-01 -6.917604e-02 -4.055536e-02 1.681363e-01 8.997589e-02 2.700247e-01 -1.240097e-01 2.995813e-02 5.570156e-01
<VARIANCE> 39
 3.635862e+01 3.654381e+01 3.503512e+01 3.787423e+01 3.918131e+01 4.516348e+01 4.340443e+01 3.581778e+01 3.858557e+01 5.291047e+01 2.950104e+01 1.976710e+01 6.226812e+01 3.031904e+00 3.274298e+00 2.476733e+00 4.191462e+00 2.953679e+00 4.343155e+00 3.605874e+00 3.660662e+00 3.125585e+00 4.626647e+00 3.167761e+00 2.577046e+00 4.884190e+00 7.504579e-01 8.159212e-01 3.591282e-01 6.686907e-01 5.054587e-01 9.910081e-01 6.209483e-01 7.204307e-01 5.857893e-01 8.775946e-01 5.837373e-01 4.819509e-01 6.528111e-01
<GCONST> 1.293601e+02
<TRANSP> 5
 0.000000e+00 1.000000e+00 0.000000e+00 0.000000e+00 0.000000e+00
 0.000000e+00 6.656088e-01 3.343912e-01 0.000000e+00 0.000000e+00
 0.000000e+00 0.000000e+00 8.148293e-01 1.851708e-01 0.000000e+00
 0.000000e+00 0.000000e+00 0.000000e+00 6.552804e-01 3.447196e-01
 0.000000e+00 0.000000e+00 0.000000e+00 0.000000e+00 0.000000e+00
<ENDHMM>
~h "o"
<BEGINHMM>
<NUMSTATES> 5
<STATE> 2
<MEAN> 39
 -1.800700e+01 -4.393216e+00 -2.340154e+00 -1.355430e+00 -1.469061e+00 -3.029397e+00 -4.861282e+00 -2.942162e+00 -7.543348e-01 -4.313567e-01 -1.321181e+00 -4.862796e+00 4.417739e+01 -2.121460e-02 3.103577e-01 -7.658576e-01 -5.939619e-01 1.737941e-01 7.457293e-01 -2.923186e-01 -3.107893e-01 -9.414180e-02 4.284456e-02 2.838273e-01 6.065235e-02 -5.249056e-01 5.426120e-01 -2.871999e-01 2.411953e-01 -4.929048e-01 2.091752e-01 1.869246e-02 3.041609e-02 -3.481179e-01 -3.138589e-01 -1.806056e-01 1.122240e-03 -1.776462e-01 9.085571e-01
<VARIANCE> 39
 8.282868e+01 6.105405e+01 6.545554e+01 7.740124e+01 4.365046e+01 8.625845e+01 2.046128e+01 3.503586e+01 1.614683e+01 2.929604e+01 3.724738e+01 4.314029e+01 4.870466e+02 1.512471e+00 1.560510e+00 1.711725e+00 2.917521e+00 3.078333e+00 3.152853e+00 1.217707e+00 3.213335e+00 2.222296e+00 2.290549e+00 1.959509e+00 2.379069e+00 4.742176e+00 5.586767e-01 4.935260e-01 2.622769e-01 7.727565e-01 7.358623e-01 5.570423e-01 5.259854e-01 4.813343e-01 5.183655e-01 6.501508e-01 4.815820e-01 7.029448e-01 1.619682e+00
<GCONST> 1.272628e+02
<STATE> 3
<MEAN> 39
 -1.656498e+01 -4.319915e+00 -6.732472e+00 -4.663412e+00 -1.289842e+00 1.272566e+00 -5.875794e+00 -3.822477e+00 -3.036975e+00 -2.654601e+00 -1.735380e-01 -5.218874e+00 4.191462e+01 3.638069e+00 -1.772849e+00 1.150438e+00 -3.608286e+00 2.610605e+00 2.164851e-02 -1.706906e-01 -1.986205e+00 -1.584106e+00 -2.234723e-01 -4.388916e-01 -1.314848e+00 6.192136e+00 5.543997e-01 -7.543013e-02 5.388522e-01 -3.845871e-01 3.382126e-01 9.262902e-02 2.878826e-01 -5.374278e-02 -2.228202e-01 1.644610e-01 -4.277286e-02 -2.254760e-02 8.504477e-01
<VARIANCE> 39
 7.076421e+01 4.594576e+01 4.148569e+01 7.834436e+01 3.883106e+01 4.285152e+01 2.729002e+01 3.493472e+01 2.200400e+01 2.074112e+01 1.759614e+01 3.025594e+01 3.271802e+02 4.381357e+00 3.134598e+00 3.925124e+00 5.866241e+00 3.603096e+00 3.050259e+00 4.408409e+00 2.884987e+00 2.750507e+00 2.393490e+00 2.238424e+00 2.352660e+00 1.408994e+01 8.537056e-01 6.689639e-01 3.137623e-01 1.264386e+00 6.322182e-01 5.301600e-01 6.697748e-01 5.177053e-01 5.538840e-01 6.459994e-01 4.114089e-01 4.974664e-01 2.409480e+00
<GCONST> 1.318348e+02
<STATE> 4
<MEAN> 39
 -2.770391e+00 -8.100780e+00 1.419152e+00 -1.936083e+01 9.445005e+00 1.126312e+00 -2.533529e+00 -8.511064e+00 -1.040137e+01 -4.485627e-01 5.678914e-01 -7.417949e+00 6.717124e+01 4.171705e-01 8.262266e-01 6.328775e-01 7.423941e-01 3.601599e-01 2.983883e-01 3.585909e-01 -3.554780e-01 -6.855437e-01 2.096801e-01 3.266276e-01 2.173111e-01 -2.908975e-02 -6.095631e-01 2.460229e-01 -1.916701e-01 8.826218e-01 -4.634192e-01 -4.312846e-02 -3.196895e-02 1.259051e-01 3.818596e-01 -1.543843e-01 4.995984e-03 8.224807e-02 -1.054240e+00
<VARIANCE> 39
 7.905246e+00 2.473478e+01 1.269683e+01 5.485033e+01 3.521477e+01 2.362881e+01 4.554425e+01 2.492589e+01 3.511250e+01 2.966317e+01 2.643526e+01 1.917733e+01 4.796923e+01 2.836280e+00 2.590952e+00 2.052244e+00 1.014399e+01 3.032449e+00 2.106294e+00 1.278346e+00 1.890233e+00 2.958807e+00 3.031443e+00 1.834269e+00 1.339659e+00 1.147524e+01 3.235024e-01 4.118160e-01 3.229336e-01 7.993973e-01 4.651515e-01 3.014512e-01 2.782809e-01 3.992562e-01 5.782128e-01 5.551627e-01 3.352547e-01 3.008440e-01 8.873808e-01
<GCONST> 1.165233e+02
<TRANSP> 5
 0.000000e+00 1.000000e+00 0.000000e+00 0.000000e+00 0.000000e+00
 0.000000e+00 3.220077e-01 6.779923e-01 0.000000e+00 0.000000e+00
 0.000000e+00 0.000000e+00 6.017315e-01 3.982685e-01 0.000000e+00
 0.000000e+00 0.000000e+00 0.000000e+00 8.404020e-01 1.595980e-01
 0.000000e+00 0.000000e+00 0.000000e+00 0.000000e+00 0.000000e+00
<ENDHMM>
~h "p"
<BEGINHMM>
<NUMSTATES> 5
<STATE> 2
<MEAN> 39
 -3.276326e+00 -3.709551e+00 5.225848e+00 -2.127617e+01 4.812213e+00 -2.708528e+00 -5.125824e+00 -8.963336e+00 -1.385600e+01 -1.672912e-01 -9.279221e-02 -5.121011e+00 7.016927e+01 -4.915926e-01 1.931473e+00 5.657423e-02 4.269206e+00 2.630454e-01 8.760169e-01 7.820721e-01 -1.400563e-01 1.466922e+00 -1.145538e+00 4.367911e-01 -1.955611e-01 -3.827223e+00 -8.459266e-01 1.819722e-01 -4.770020e-01 1.004378e+00 -3.082242e-01 -3.816708e-01 1.678861e-01 -1.353358e-02 6.291520e-01 -4.647478e-01 -6.524745e-02 2.886690e-04 -1.390578e+00
<VARIANCE> 39
 3.096126e+00 2.830118e+01 9.160127e+00 5.289663e+01 1.685302e+01 1.294721e+01 2.917624e+01 2.328298e+01 2.821738e+01 1.222201e+01 1.353927e+01 2.094234e+01 1.409053e+01 7.242910e-01 1.002268e+00 5.887487e-01 3.262714e+00 1.199039e+00 1.089247e+00 7.689424e-01 1.377486e+00 2.312775e+00 1.245505e+00 1.006882e+00 8.562461e-01 3.667791e+00 1.315743e-01 4.213777e-01 3.269190e-01 9.227287e-01 5.513739e-01 2.060176e-01 3.010149e-01 2.109334e-01 3.004983e-01 2.452969e-01 1.475480e-01 2.809457e-01 6.358607e-01
<GCONST> 9.597585e+01
<STATE> 3
<MEAN> 39
 -7.793967e+00 8.359283e-01 4.261672e+00 -4.609341e+00 3.657133e+00 -2.100478e+00 -2.322396e+00 -7.762757e+00 -7.141012e+00 -4.697532e+00 -3.800303e-01 -5.457685e+00 5.538565e+01 -2.596965e+00 1.835935e-01 -1.315731e+00 2.906793e+00 -1.849592e+00 -1.266038e+00 9.420560e-02 -5.109580e-02 2.277552e+00 -8.573183e-01 6.668851e-02 4.195591e-01 -4.365286e+00 -4.744587e-01 -1.049669e+00 -2.415587e-01 -1.485534e+00 -4.409845e-01 -7.253665e-01 -2.461917e-01 -3.371985e-02 -2.595730e-02 1.868139e-01 3.335408e-02 8.412607e-03 1.164632e+00
<VARIANCE> 39
 7.596989e+00 2.573808e+01 1.408489e+01 3.206723e+01 2.126194e+01 2.067696e+01 1.872876e+01 3.160197e+01 3.222946e+01 1.997767e+01 2.150092e+01 1.433402e+01 1.769722e+01 5.055578e-01 2.278119e+00 1.100668e+00 5.028318e+00 2.273150e+00 1.433545e+00 1.943557e+00 1.120423e+00 1.606439e+00 1.868979e+00 1.134209e+00 1.072638e+00 2.011574e+00 2.562495e-01 2.060565e-01 2.729143e-01 2.157669e-01 3.418097e-01 2.009970e-01 1.981011e-01 5.687752e-01 5.788975e-01 4.206374e-01 3.123013e-01 2.945017e-01 5.029978e-01
<GCONST> 1.012923e+02
<STATE> 4
<MEAN> 39
 -1.709805e+01 -4.501865e+00 -1.360495e+00 -3.425040e+00 -1.869240e+00 -6.152600e+00 -3.580081e+00 -8.082577e+00 -1.877719e+00 -5.688936e+00 3.717436e-01 -5.138852e+00 4.876632e+01 -9.591991e-01 -1.040628e+00 1.791109e-01 1.971912e-01 1.185656e-01 -5.252354e-01 1.397754e-01 -3.781036e-01 3.994979e-01 -7.319139e-01 -5.476108e-02 -6.828723e-01 7.735846e-01 5.599849e-01 3.351733e-03 4.871979e-01 -1.552017e-01 4.637731e-01 2.033013e-01 9.586085e-02 9.332415e-02 -3.676059e-01 8.562910e-02 -5.537232e-02 -1.658517e-01 8.595418e-01
<VARIANCE> 39
 2.455165e+01 3.446481e+01 2.913582e+01 4.020266e+01 2.244974e+01 4.297190e+01 1.723675e+01 4.272652e+01 2.255202e+01 2.727862e+01 2.765184e+01 3.139504e+01 1.260352e+02 5.871065e+00 3.844686e+00 4.487572e+00 3.529541e+00 4.091573e+00 4.777801e+00 2.365082e+00 6.272563e+00 5.929705e+00 4.335142e+00 3.047419e+00 3.115314e+00 1.009992e+01 6.628931e-01 6.526746e-01 5.573169e-01 8.043456e-01 7.478840e-01 8.123692e-01 4.626553e-01 9.712724e-01 7.094033e-01 8.161947e-01 4.694934e-01 5.629897e-01 1.601333e+00
<GCONST> 1.319967e+02
<TRANSP> 5
 0.000000e+00 1.000000e+00 0.000000e+00 0.000000e+00 0.000000e+00
 0.000000e+00 5.453235e-01 4.546765e-01 0.000000e+00 0.000000e+00
 0.000000e+00 0.000000e+00 5.490283e-01 4.509717e-01 0.000000e+00
 0.000000e+00 0.000000e+00 0.000000e+00 8.079149e-01 1.920851e-01
 0.000000e+00 0.000000e+00 0.000000e+00 0.000000e+00 0.000000e+00
<ENDHMM>
~h "r"
<BEGINHMM>
<NUMSTATES> 5
<STATE> 2
<MEAN> 39
 -4.398370e+00 -1.793785e+01 2.973989e+00 -8.108343e+00 5.234989e+00 -9.218976e+00 -3.510227e+00 -6.475593e+00 -2.418070e+00 2.494330e+00 -4.305376e+00 -1.277014e+01 7.751776e+01 -5.748404e-01 9.147930e-01 -4.350362e-01 1.578679e+00 4.889241e-02 -4.952735e-01 1.206140e+00 -1.156736e+00 1.079389e+00 -1.095798e+00 5.543098e-01 1.508890e-01 -9.372263e-01 -3.083398e-01 2.419970e-01 1.454972e-01 1.141773e-01 -7.587704e-02 -9.210692e-02 4.362590e-02 -8.121973e-02 1.514323e-01 -5.485938e-01 2.669430e-01 8.163758e-02 -3.053863e-01
<VARIANCE> 39
 4.326739e+00 3.825629e+01 1.873642e+01 4.387348e+01 4.357869e+01 2.707186e+01 5.095788e+01 4.861322e+01 1.514756e+01 1.811050e+01 1.590340e+01 1.825027e+01 9.177441e+00 1.042741e+00 1.909070e+00 1.503856e+00 2.702174e+00 1.971018e+00 2.157850e+00 1.965038e+00 2.476291e+00 2.730229e+00 3.711848e+00 1.938432e+00 1.153305e+00 1.497671e+00 2.020712e-01 2.713346e-01 3.108059e-01 4.456980e-01 3.779002e-01 1.923339e-01 3.083715e-01 4.750558e-01 3.049989e-01 4.444070e-01 2.919693e-01 1.667154e-01 1.620423e-01
<GCONST> 1.042691e+02
<STATE> 3
<MEAN> 39
 -1.003546e+01 -9.272520e+00 3.118372e+00 7.727228e-01 3.635934e+00 -1.407001e+01 -2.046111e-01 -1.277059e+01 2.006595e+00 -7.811974e+00 3.323947e-01 -9.836944e+00 6.918780e+01 -7.696224e-01 4.452652e-01 3.506865e-01 5.942433e-01 -2.612051e-01 -3.506283e-01 1.377269e-01 6.352413e-02 -8.545627e-02 -1.282480e+00 -8.723800e-02 1.126646e-01 -1.099449e+00 2.896875e-01 -2.302203e-01 5.230635e-02 -2.783332e-01 -1.004159e-01 1.721922e-01 -3.354810e-01 2.565219e-01 -4.788073e-01 5.463392e-01 -3.283385e-01 -9.803988e-02 1.306780e-01
<VARIANCE> 39
 2.264555e+01 1.800503e+01 1.680427e+01 2.045570e+01 2.344720e+01 2.505263e+01 2.739424e+01 3.631805e+01 2.993086e+01 3.821944e+01 2.721829e+01 3.455860e+01 2.052876e+01 2.962809e+00 2.242133e+00 1.673693e+00 1.975273e+00 2.986478e+00 1.727789e+00 2.509273e+00 1.950437e+00 2.759559e+00 4.282872e+00 2.551318e+00 1.589546e+00 1.279462e+00 5.458887e-01 4.959773e-01 3.710518e-01 4.884645e-01 5.012100e-01 3.795390e-01 3.748968e-01 4.197781e-01 6.083704e-01 8.080556e-01 4.465744e-01 3.451229e-01 2.785856e-01
<GCONST> 1.137699e+02
<STATE> 4
<MEAN> 39
 -1.238354e+01 -1.063954e+01 1.365955e+00 2.528800e+00 7.973581e-01 -1.084629e+01 -1.433456e+00 -8.719049e+00 -1.438290e+00 -5.190874e+00 -2.567128e+00 -9.223312e+00 6.015031e+01 -8.252145e-02 1.694577e-01 -3.193115e-01 -7.049739e-05 -2.343617e-01 6.177978e-01 -4.505050e-01 1.507530e-02 -3.477277e-01 5.617644e-01 -1.284720e-01 1.753126e-01 -1.266489e+00 -3.653078e-02 1.074364e-01 1.110504e-01 -1.841942e-01 1.321658e-01 5.456876e-02 9.349445e-03 -1.236152e-01 7.632758e-02 7.799842e-02 9.038087e-02 2.583776e-02 1.561958e-01
<VARIANCE> 39
 6.271481e+01 2.891542e+01 2.492864e+01 3.845049e+01 2.064084e+01 4.067196e+01 5.832825e+01 3.072948e+01 3.049757e+01 6.154979e+01 4.406203e+01 2.221051e+01 1.069904e+02 4.041193e+00 3.400179e+00 2.446195e+00 3.471385e+00 2.540390e+00 2.833824e+00 3.156887e+00 2.954114e+00 4.270733e+00 3.465219e+00 2.296691e+00 1.756260e+00 6.408883e+00 7.068833e-01 5.933212e-01 4.206509e-01 5.452377e-01 5.300738e-01 4.561760e-01 5.194082e-01 4.529751e-01 7.069833e-01 6.717668e-01 4.265568e-01 3.206957e-01 1.090507e+00
<GCONST> 1.264240e+02
<TRANSP> 5
 0.000000e+00 1.000000e+00 0.000000e+00 0.000000e+00 0.000000e+00
 0.000000e+00 7.072838e-01 2.927162e-01 0.000000e+00 0.000000e+00
 0.000000e+00 0.000000e+00 7.896799e-01 2.103201e-01 0.000000e+00
 0.000000e+00 0.000000e+00 0.000000e+00 7.637100e-01 2.362900e-01
 0.000000e+00 0.000000e+00 0.000000e+00 0.000000e+00 0.000000e+00
<ENDHMM>
~h "s"
<BEGINHMM>
<NUMSTATES> 5
<STATE> 2
<MEAN> 39
 -2.159594e+01 -4.729598e+00 6.122764e+00 -2.710480e+00 8.428562e+00 -1.246203e+01 2.627544e+00 -1.103939e+01 -3.562642e-01 -1.182448e+01 -3.647351e+00 -1.093203e+01 7.016885e+01 -4.566454e+00 3.952846e-01 -8.453687e-01 1.061908e+00 7.497709e-01 3.544357e-01 1.754466e+00 -5.272639e-01 1.187085e+00 -1.254370e+00 2.923799e+00 1.074172e+00 -9.128774e-01 4.756455e-01 -8.704282e-01 -4.062327e-01 -6.628308e-01 -1.661016e-01 7.639680e-02 -5.989398e-01 5.339721e-01 -2.664281e-01 1.091460e+00 7.883179e-02 5.114437e-01 8.633126e-02
<VARIANCE> 39
 6.098644e+01 1.212761e+01 1.269666e+01 1.660375e+01 4.600666e+01 3.062158e+01 4.371199e+01 2.081838e+01 2.015135e+01 3.446051e+01 5.602451e+01 3.160527e+01 1.529540e+01 3.033810e+00 4.725069e+00 1.350246e+00 3.555029e+00 2.047524e+00 1.638179e+00 5.205261e+00 4.448280e+00 2.291146e+00 7.554124e+00 2.609892e+00 4.228140e+00 4.303635e-01 1.306392e+00 4.476481e-01 2.218596e-01 4.558691e-01 3.442970e-01 3.726114e-01 7.271858e-01 4.704178e-01 3.936846e-01 7.260234e-01 1.022862e+00 5.958428e-01 8.850782e-02
<GCONST> 1.173147e+02
<STATE> 3
<MEAN> 39
 -3.048349e+01 -8.932521e+00 1.228057e+00 -4.546649e+00 8.154816e+00 -1.242424e+01 5.691762e+00 -7.274456e+00 2.450656e+00 -1.040983e+01 3.073764e+00 -5.291735e+00 6.552686e+01 4.786904e-01 -4.946263e-01 -2.192219e-01 1.182409e-01 -6.317050e-01 -9.547801e-02 -1.653929e-01 2.218531e-01 3.181904e-01 1.589387e-01 -2.798014e-01 -3.399359e-02 -9.154602e-01 7.343321e-01 1.940916e-01 2.517379e-01 1.667301e-01 -2.055647e-01 -7.394685e-02 -3.041677e-01 -1.731427e-01 -2.277916e-01 2.702181e-02 -4.018920e-01 -2.947401e-01 -1.473424e-01
<VARIANCE> 39
 5.494898e+00 1.370449e+01 6.359640e+00 1.620065e+01 3.404254e+01 2.481883e+01 2.346749e+01 2.169880e+01 1.640234e+01 2.014687e+01 2.009908e+01 1.714252e+01 2.158115e+01 2.027776e+00 9.441337e-01 1.667528e+00 1.694523e+00 2.627393e+00 2.142852e+00 2.771297e+00 2.044153e+00 1.933701e+00 2.494704e+00 1.990040e+00 2.113272e+00 9.542732e-01 3.687465e-01 2.509839e-01 2.903927e-01 2.422117e-01 4.007969e-01 3.833353e-01 4.186344e-01 3.684625e-01 4.593059e-01 5.131059e-01 4.273852e-01 4.638861e-01 2.026509e-01
<GCONST> 1.029977e+02
<STATE> 4
<MEAN> 39
 -1.679876e+01 -6.931043e+00 4.057273e+00 4.246982e-01 1.026859e+00 -1.406478e+01 -2.522790e+00 -1.065515e+01 -7.658864e-01 -7.986981e+00 -1.478730e+00 -8.385417e+00 5.979525e+01 2.267988e+00 3.165859e-01 4.861147e-01 3.258124e-02 -8.063392e-01 3.316674e-01 -9.102277e-01 -1.122634e-01 -9.506235e-01 5.794811e-01 -3.463546e-01 -1.606489e-01 -3.010304e-01 -2.016465e-01 -1.926310e-01 -4.107908e-02 -3.509298e-01 1.404426e-01 2.865455e-01 2.111950e-01 2.485100e-01 -5.024450e-02 7.015368e-02 2.342481e-01 2.101025e-01 4.231271e-01
<VARIANCE> 39
 6.194882e+01 4.085980e+01 4.495412e+01 3.796281e+01 6.661851e+01 2.299871e+01 2.543198e+01 3.714355e+01 4.168856e+01 2.251367e+01 1.861053e+01 2.146855e+01 6.891006e+01 4.917377e+00 7.657252e+00 4.092584e+00 4.516064e+00 4.142556e+00 3.339776e+00 2.640144e+00 3.572494e+00 3.998553e+00 2.970007e+00 2.919113e+00 2.324224e+00 8.442689e+00 6.209975e-01 1.664934e+00 6.579334e-01 8.552614e-01 8.923155e-01 3.906825e-01 4.473110e-01 7.881197e-01 8.758759e-01 5.419534e-01 6.425520e-01 4.660448e-01 1.314352e+00
<GCONST> 1.318320e+02
<TRANSP> 5
 0.000000e+00 1.000000e+00 0.000000e+00 0.000000e+00 0.000000e+00
 0.000000e+00 7.181721e-01 2.818279e-01 0.000000e+00 0.000000e+00
 0.000000e+00 0.000000e+00 8.359421e-01 1.640579e-01 0.000000e+00
 0.000000e+00 0.000000e+00 0.000000e+00 7.227508e-01 2.772492e-01
 0.000000e+00 0.000000e+00 0.000000e+00 0.000000e+00 0.000000e+00
<ENDHMM>
~h "t"
<BEGINHMM>
<NUMSTATES> 5
<STATE> 2
<MEAN> 39
 -5.443571e+00 -1.483152e+01 7.370920e+00 -1.119508e+01 4.692091e+00 -1.264736e+01 -4.520437e+00 -5.066602e+00 -5.552790e-01 7.490615e-01 -8.241078e+00 -9.132669e+00 7.569114e+01 -6.538211e-01 2.901510e+00 5.189439e-02 2.662925e+00 5.505422e-01 8.597962e-01 -1.631033e-01 -1.425691e-01 5.770674e-01 8.445264e-02 5.762789e-01 -3.381986e-01 -3.896220e+00 -5.445934e-01 3.489486e-01 -6.749204e-01 7.205501e-01 -4.462670e-01 6.287057e-01 2.313610e-01 -1.492829e-01 3.797625e-01 -2.690198e-01 4.161216e-01 3.006641e-03 -1.321669e+00
<VARIANCE> 39
 5.373748e+00 2.415324e+01 2.029815e+01 3.579166e+01 2.098204e+01 2.440627e+01 3.086338e+01 4.655107e+01 3.216905e+01 2.756310e+01 3.569293e+01 2.041590e+01 1.388918e+01 1.028452e+00 1.596451e+00 1.166238e+00 3.585782e+00 2.201959e+00 2.539109e+00 1.634576e+00 2.063522e+00 1.927012e+00 1.609679e+00 1.677507e+00 1.775657e+00 3.731967e+00 1.379364e-01 5.817946e-01 2.741676e-01 6.910581e-01 4.506516e-01 2.808368e-01 3.004972e-01 5.708098e-01 3.751773e-01 4.209289e-01 3.547388e-01 5.225831e-01 3.062145e-01
<GCONST> 1.083232e+02
<STATE> 3
<MEAN> 39
 -1.070036e+01 -7.392931e+00 3.408601e+00 -1.419069e+00 1.655141e+00 -7.752360e+00 -3.324387e+00 -3.950588e+00 2.447933e+00 -1.091973e+00 -5.882034e+00 -8.883249e+00 5.746899e+01 -1.917414e+00 5.025016e-01 -1.984743e+00 6.330361e-01 -1.555095e+00 2.397576e-01 8.788115e-02 -1.658792e-01 9.221691e-01 -5.720401e-01 6.063254e-01 4.884469e-01 -3.586897e+00 -1.891139e-01 -6.692718e-01 -2.184445e-02 -9.011592e-01 -6.761693e-02 -5.154400e-01 9.334892e-02 -3.064502e-01 -3.004724e-01 -2.732323e-01 1.958863e-01 1.826153e-01 1.184481e+00
<VARIANCE> 39
 1.182925e+01 1.649491e+01 2.869098e+01 2.680619e+01 3.729848e+01 2.793936e+01 2.389809e+01 3.273939e+01 3.185239e+01 3.218973e+01 3.652286e+01 2.208794e+01 2.451055e+01 6.913307e-01 2.225180e+00 9.627823e-01 3.694770e+00 2.125874e+00 2.192927e+00 1.788151e+00 2.116567e+00 2.354278e+00 2.108163e+00 2.119943e+00 2.248918e+00 4.113197e+00 1.980483e-01 3.795983e-01 4.119512e-01 5.451776e-01 7.405291e-01 3.234070e-01 3.881050e-01 3.865763e-01 5.004784e-01 4.736702e-01 5.722575e-01 4.172462e-01 6.322242e-01
<GCONST> 1.124427e+02
<STATE> 4
<MEAN> 39
 -1.754579e+01 -7.773240e+00 1.339390e+00 -3.459561e+00 -1.026147e+00 -1.032329e+01 -1.188257e+00 -8.507846e+00 1.487338e+00 -5.251078e+00 -7.388088e-01 -6.687556e+00 5.727421e+01 -2.892560e-01 -4.508214e-02 8.070375e-01 -4.165985e-01 2.659277e-01 -4.071796e-01 2.489516e-01 -8.756195e-01 -8.834711e-01 -7.303828e-01 3.793246e-01 -8.099627e-02 1.128009e+00 5.757555e-01 -2.012004e-02 5.401942e-01 -6.335756e-03 2.280984e-01 1.534128e-01 -1.065384e-01 2.310915e-01 -2.269664e-01 2.701975e-01 -2.465174e-01 -1.898087e-01 5.551873e-01
<VARIANCE> 39
 4.280743e+01 1.746927e+01 4.229504e+01 3.264010e+01 3.284300e+01 2.732488e+01 3.648588e+01 4.067764e+01 4.122714e+01 3.489633e+01 3.674435e+01 2.385044e+01 5.162236e+01 7.077537e+00 2.379549e+00 4.701493e+00 2.979764e+00 3.141233e+00 3.002349e+00 4.181242e+00 5.407476e+00 4.306525e+00 3.791312e+00 4.850694e+00 2.407978e+00 4.551419e+00 6.562356e-01 5.469571e-01 7.037873e-01 4.628162e-01 7.071502e-01 7.070492e-01 6.622767e-01 1.067859e+00 7.385448e-01 6.473300e-01 7.145920e-01 4.656269e-01 7.665958e-01
<GCONST> 1.299200e+02
<TRANSP> 5
 0.000000e+00 1.000000e+00 0.000000e+00 0.000000e+00 0.000000e+00
 0.000000e+00 5.772816e-01 4.227184e-01 0.000000e+00 0.000000e+00
 0.000000e+00 0.000000e+00 7.242839e-01 2.757161e-01 0.000000e+00
 0.000000e+00 0.000000e+00 0.000000e+00 7.882140e-01 2.117860e-01
 0.000000e+00 0.000000e+00 0.000000e+00 0.000000e+00 0.000000e+00
<ENDHMM>
~h "u"
<BEGINHMM>
<NUMSTATES> 5
<STATE> 2
<MEAN> 39
 -4.128968e+00 -1.131591e+01 2.829558e+00 -1.761011e+01 6.261204e+00 -1.136944e+00 -5.954780e+00 -7.277685e+00 -9.436702e+00 2.282906e+00 1.247195e-01 -1.058542e+01 6.905216e+01 1.329181e+00 -4.269466e-01 9.922563e-01 -6.132588e-01 4.330526e-02 1.362533e+00 -5.368196e-01 -4.684873e-01 -7.125576e-01 9.942895e-01 9.393537e-02 5.566788e-01 1.356524e+00 -4.061055e-01 2.029444e-01 -9.184359e-02 9.641790e-01 -5.894629e-01 -4.600491e-02 1.032164e-01 -9.820276e-02 5.508808e-01 -2.807491e-01 -1.492872e-01 3.448560e-01 -8.415091e-01
<VARIANCE> 39
 9.825207e+00 7.291345e+01 9.074734e+00 4.705820e+01 4.072330e+01 2.489197e+01 3.909908e+01 2.435534e+01 4.879471e+01 1.923029e+01 2.481794e+01 2.538848e+01 1.079122e+02 3.495723e+00 2.652038e+00 2.184389e+00 3.881967e+00 3.628345e+00 2.886311e+00 2.441450e+00 2.638771e+00 6.104568e+00 2.366853e+00 2.149464e+00 2.886795e+00 5.841249e+00 4.514600e-01 4.484999e-01 3.558885e-01 8.853372e-01 3.798129e-01 6.068517e-01 6.267866e-01 4.900784e-01 9.959651e-01 4.281229e-01 6.183053e-01 4.699889e-01 5.932256e-01
<GCONST> 1.228866e+02
<STATE> 3
<MEAN> 39
 -1.528921e+00 -1.643588e+01 4.823997e+00 -1.861524e+01 1.561978e-01 6.471764e+00 -3.362508e+00 -1.258106e+01 -4.933512e+00 2.330066e+00 -1.258703e+00 -6.464493e+00 7.429606e+01 1.724437e-01 2.288158e-01 4.776730e-01 2.208030e-01 -1.402136e+00 9.391626e-01 -4.869850e-02 -5.625091e-01 3.732716e-01 -2.728919e-01 2.043111e-01 6.805987e-01 -9.218012e-02 -1.586991e-01 1.146977e-01 -1.469946e-01 3.881834e-02 4.148569e-01 -3.411716e-01 -7.376216e-02 2.794877e-01 -5.974495e-02 -2.019586e-01 8.129367e-02 -2.821707e-01 -5.892779e-02
<VARIANCE> 39
 5.718416e+00 1.740766e+01 1.379486e+01 2.609513e+01 6.235979e+01 3.557264e+01 3.305389e+01 3.632612e+01 1.861943e+01 1.755905e+01 1.678970e+01 1.475519e+01 1.343276e+01 4.354753e-01 1.078238e+00 6.798623e-01 3.114952e+00 3.974815e+00 1.998510e+00 1.580082e+00 2.269180e+00 1.866740e+00 1.273519e+00 1.507611e+00 1.950002e+00 5.906327e-01 1.053492e-01 1.822448e-01 1.305302e-01 5.315642e-01 9.076099e-01 2.998008e-01 3.054373e-01 3.889124e-01 2.814428e-01 2.729881e-01 2.831582e-01 2.891393e-01 2.094583e-01
<GCONST> 9.893533e+01
<STATE> 4
<MEAN> 39
 -3.036089e+00 -1.314003e+01 3.786071e+00 -2.253251e+01 3.156642e+00 5.167486e+00 -5.800621e+00 -7.087178e+00 -7.352189e+00 -6.140757e-01 2.829077e+00 -8.314797e+00 7.460789e+01 -7.602059e-02 6.087715e-01 -1.156649e-01 5.193262e-01 2.771940e-01 -4.067029e-01 -1.219556e-01 2.787734e-01 -1.212188e-01 -7.579330e-02 -1.188312e-02 -1.431589e-01 -4.356537e-01 -3.477766e-02 6.868175e-02 3.820900e-02 3.573060e-01 -1.093244e-01 -1.186726e-01 7.170153e-02 -9.723935e-02 1.237623e-01 6.728159e-03 -1.392345e-01 -2.496280e-02 -2.122543e-01
<VARIANCE> 39
 4.226251e+00 3.133163e+01 1.218996e+01 3.431093e+01 2.640425e+01 2.606289e+01 3.298161e+01 2.794751e+01 1.961856e+01 3.235023e+01 2.361028e+01 1.795840e+01 1.324430e+01 3.460092e-01 1.637511e+00 7.350846e-01 3.421458e+00 2.849630e+00 1.163164e+00 1.131397e+00 1.947391e+00 1.649588e+00 1.282047e+00 1.570830e+00 1.105835e+00 1.549363e+00 9.818325e-02 2.299521e-01 1.355224e-01 3.352280e-01 3.944575e-01 2.159340e-01 2.243325e-01 3.017247e-01 2.565692e-01 2.751189e-01 2.791319e-01 2.223201e-01 2.127337e-01
<GCONST> 9.611084e+01
<TRANSP> 5
 0.000000e+00 1.000000e+00 0.000000e+00 0.000000e+00 0.000000e+00
 0.000000e+00 4.020154e-01 5.979847e-01 0.000000e+00 0.000000e+00
 0.000000e+00 0.000000e+00 7.413760e-01 2.586240e-01 0.000000e+00
 0.000000e+00 0.000000e+00 0.000000e+00 8.794702e-01 1.205299e-01
 0.000000e+00 0.000000e+00 0.000000e+00 0.000000e+00 0.000000e+00
<ENDHMM>
~h "ah"
<BEGINHMM>
<NUMSTATES> 5
<STATE> 2
<MEAN> 39
 -3.285148e+00 4.914752e+00 4.771457e+00 -2.425801e+01 2.734061e-01 -3.255393e+00 -5.304355e+00 -1.196592e+00 -1.150372e+01 -1.000104e+01 2.017725e+00 -8.923582e+00 6.996930e+01 -1.286927e-01 -9.774874e-01 -5.720776e-01 -8.447287e-01 8.199120e-01 1.116256e+00 -3.001208e-01 -9.925338e-01 -5.538799e-01 1.288418e+00 9.378589e-01 3.863168e-01 1.071396e+00 -1.097647e-01 -4.666104e-01 -5.347041e-02 3.151609e-01 1.924406e-01 5.493524e-02 8.847823e-04 -2.748456e-01 2.662703e-01 5.009306e-01 -4.118789e-02 -6.454113e-02 9.469841e-02
<VARIANCE> 39
 1.782892e+00 2.512431e+01 9.748998e+00 1.139792e+01 7.368334e+00 2.316787e+01 2.603479e+00 1.462455e+01 2.656068e+00 1.358005e+01 7.570354e+00 7.849059e+00 6.488163e+00 1.134396e-01 2.148142e+00 1.918059e-01 8.526036e-01 8.683006e-01 1.338273e+00 3.774622e-01 8.834326e-01 6.132799e-01 3.439219e+00 3.026879e-01 1.130258e+00 4.290009e-01 2.740925e-02 8.758537e-02 1.830437e-02 1.137139e-01 1.654390e-01 3.383414e-01 8.727118e-02 1.471522e-01 2.002915e-01 3.651691e-01 2.210159e-01 4.592610e-01 6.106054e-02
<GCONST> 6.602267e+01
<STATE> 3
<MEAN> 39
 -6.294237e+00 -1.236857e+01 2.262637e+00 -2.082486e+01 8.390237e+00 -3.595270e+00 -3.820560e+00 -4.378202e+00 -6.419688e+00 4.908632e+00 -4.511313e+00 -9.350085e+00 7.970055e+01 -3.479216e-01 -1.791469e+00 2.138845e-01 1.249992e+00 7.739148e-01 -1.799448e+00 1.451127e+00 6.948745e-01 7.996183e-01 3.892852e-01 -2.259564e+00 -2.997715e-01 6.164775e-01 7.649422e-02 3.758665e-01 1.709187e-01 5.830249e-02 -3.054559e-01 -1.833420e-01 2.521062e-01 1.614188e-01 -1.448161e-01 -7.585977e-01 -1.312299e-01 2.388737e-01 -3.055684e-01
<VARIANCE> 39
 4.543792e+00 3.425473e+01 6.359286e+00 1.217419e+01 4.025556e+00 3.061635e+01 1.691849e+01 1.892655e+01 2.111357e+01 8.244667e+00 8.626218e+01 1.075218e+01 6.900953e+00 3.259568e-01 1.492428e+00 7.090718e-01 5.211341e-01 5.636830e-01 5.370250e-01 9.411669e-01 1.807537e+00 2.319534e+00 5.101351e+00 3.248393e+00 2.347628e+00 9.275157e-01 5.080086e-02 6.666149e-02 1.381530e-01 6.450534e-02 2.920466e-02 3.413452e-01 1.457207e-01 4.758566e-01 4.633717e-01 3.213094e-01 9.938073e-01 4.872965e-01 5.382632e-02
<GCONST> 8.439124e+01
<STATE> 4
<MEAN> 39
 -5.570416e+00 -1.506999e+01 3.537845e+00 -1.202623e+01 1.003555e+01 -4.285402e+00 -5.333125e+00 -5.986734e+00 -2.259564e+00 -5.454617e+00 -6.465503e+00 -8.719012e+00 7.398483e+01 -2.281789e-01 2.136968e-01 5.423366e-02 5.668145e-01 -2.481889e-01 -2.015504e-01 -5.780163e-02 -2.479960e-01 3.654488e-01 -4.309659e-01 -1.817013e-01 1.438417e-01 -3.238073e-01 -1.139640e-01 3.707127e-02 -1.616643e-02 4.306916e-02 -7.236016e-02 7.939758e-02 -4.581844e-02 -4.213208e-02 8.468700e-02 -5.552919e-03 1.515937e-01 2.467690e-02 -4.722055e-02
<VARIANCE> 39
 1.591705e+01 6.002776e+01 2.037437e+01 8.160731e+01 2.783700e+01 3.760351e+01 5.267655e+01 4.764619e+01 3.807394e+01 2.805272e+01 7.115360e+01 2.026720e+01 5.058125e+01 2.519926e+00 5.052547e+00 1.728327e+00 6.149305e+00 2.620738e+00 2.410518e+00 3.806893e+00 3.839378e+00 3.743534e+00 3.564739e+00 3.867485e+00 2.092645e+00 5.464256e+00 5.833727e-01 7.089816e-01 3.406675e-01 1.142134e+00 5.236633e-01 5.925400e-01 6.428407e-01 5.866287e-01 6.519276e-01 6.178310e-01 4.979256e-01 2.987756e-01 8.333324e-01
<GCONST> 1.277522e+02
<TRANSP> 5
 0.000000e+00 1.000000e+00 0.000000e+00 0.000000e+00 0.000000e+00
 0.000000e+00 8.124996e-01 1.875004e-01 0.000000e+00 0.000000e+00
 0.000000e+00 0.000000e+00 8.227639e-01 1.772362e-01 0.000000e+00
 0.000000e+00 0.000000e+00 0.000000e+00 9.487700e-01 5.123005e-02
 0.000000e+00 0.000000e+00 0.000000e+00 0.000000e+00 0.000000e+00
<ENDHMM>
~h "al"
<BEGINHMM>
<NUMSTATES> 5
<STATE> 2
<MEAN> 39
 -3.992389e+00 -7.298802e+00 -1.308472e+00 -8.344374e+00 6.514254e+00 3.279950e-01 -3.439524e-01 -8.122849e+00 -7.734487e+00 -3.936299e+00 -8.147224e-01 -9.514979e+00 6.346916e+01 -9.119650e-02 -3.434999e-01 -8.743082e-01 -4.064505e-01 -1.471671e-02 1.141931e-01 4.296841e-02 -4.579194e-01 -3.248971e-01 -5.462805e-01 -2.881164e-01 4.972660e-01 -3.468189e-01 -2.516600e-02 -1.164212e-01 3.278480e-01 1.117848e-01 1.016873e-01 9.189872e-02 -8.789488e-02 -7.450592e-02 -8.681849e-02 1.827533e-03 -2.706695e-01 3.064385e-02 1.380955e-01
<VARIANCE> 39
 3.528444e+01 2.031254e+01 2.353183e+01 5.122686e+01 5.119563e+01 4.255086e+01 2.373806e+01 4.972623e+01 1.800804e+01 6.803553e+00 1.775007e+01 1.748099e+01 5.123135e+01 1.039463e+00 1.010668e+00 4.815130e+00 6.937539e+00 4.360244e+00 1.700821e+00 1.878714e+00 4.751329e+00 1.840601e+00 1.106783e+00 1.619455e+00 1.268476e+00 2.222214e+00 1.268455e-01 2.442004e-01 4.264826e-01 9.245704e-01 5.505505e-01 5.349721e-01 3.516041e-01 5.188493e-01 4.428641e-01 1.726200e-01 1.913325e-01 1.476037e-01 2.245468e-01
<GCONST> 1.096085e+02
<STATE> 3
<MEAN> 39
 -8.333456e-01 -6.704712e+00 3.374877e-01 -1.263990e+01 2.346848e+00 2.147904e-02 -2.156842e+00 -2.474068e+00 -6.599529e+00 -6.082392e+00 -1.265727e+00 -8.114465e+00 6.833996e+01 -1.067600e-02 -5.454996e-01 -2.521719e-01 -1.000770e+00 -6.461027e-02 1.476727e+00 1.420997e-01 -7.004420e-02 -2.387897e-01 -4.409928e-01 3.739685e-02 4.934919e-01 7.052091e-01 -8.223838e-02 -7.989251e-02 5.221268e-02 1.008118e-01 1.652454e-01 6.525012e-02 -2.048205e-01 -3.842965e-01 -1.579998e-02 2.202750e-01 2.361113e-01 -3.241558e-03 3.679845e-02
<VARIANCE> 39
 8.706333e+00 1.861359e+01 1.121428e+01 7.068829e+01 7.404950e+01 2.629147e+01 1.329272e+01 7.091718e+01 1.156712e+01 1.545496e+01 6.288396e+00 1.096606e+01 3.072562e+01 2.251785e-01 7.361165e-01 1.295136e+00 3.340212e+00 3.155885e+00 2.541703e+00 8.437770e-01 5.509983e+00 1.775041e+00 1.619492e+00 1.906456e+00 1.703589e+00 1.173583e+00 5.428198e-02 1.120443e-01 2.037724e-01 7.199627e-01 5.941588e-01 4.551532e-01 2.577383e-01 9.927313e-01 2.142275e-01 4.907951e-01 1.567663e-01 3.147228e-01 1.244583e-01
<GCONST> 9.935036e+01
<STATE> 4
<MEAN> 39
 -3.409617e+00 -1.347943e+01 4.233721e+00 -1.532034e+01 3.676221e+00 6.828005e+00 -5.349697e+00 -7.522567e+00 -6.564608e+00 -1.858244e+00 -3.869505e+00 -1.058807e+01 7.355100e+01 -1.490583e-02 -4.232689e-02 1.279409e-01 1.929848e-01 -5.274980e-02 -1.231066e-01 -7.694751e-02 -6.946824e-01 1.011624e-01 1.043445e-01 -2.862786e-01 1.497086e-01 -1.742319e-01 -2.223441e-02 1.324142e-01 2.311780e-02 6.943412e-02 -5.745609e-02 -1.117568e-01 3.809730e-02 1.110201e-01 -1.822874e-03 -7.584700e-02 6.237653e-02 4.507948e-03 -1.461533e-01
<VARIANCE> 39
 6.297282e+00 1.493616e+01 4.494128e+01 2.910333e+01 4.529874e+01 3.445947e+01 2.979482e+01 7.495529e+01 2.716811e+01 2.599963e+01 2.001348e+01 2.280431e+01 1.347488e+01 4.694709e-01 1.275992e+00 1.742036e+00 2.012268e+00 4.655474e+00 2.272513e+00 2.134342e+00 3.038737e+00 3.214110e+00 2.118282e+00 1.722632e+00 1.762570e+00 9.257575e-01 8.688626e-02 1.209501e-01 3.006653e-01 2.622105e-01 7.915800e-01 4.618767e-01 3.402214e-01 3.936849e-01 6.241880e-01 3.866683e-01 3.148068e-01 3.150730e-01 9.904980e-02
<GCONST> 1.055112e+02
<TRANSP> 5
 0.000000e+00 1.000000e+00 0.000000e+00 0.000000e+00 0.000000e+00
 0.000000e+00 5.530921e-01 4.469079e-01 0.000000e+00 0.000000e+00
 0.000000e+00 0.000000e+00 7.512522e-01 2.487477e-01 0.000000e+00
 0.000000e+00 0.000000e+00 0.000000e+00 9.270911e-01 7.290898e-02
 0.000000e+00 0.000000e+00 0.000000e+00 0.000000e+00 0.000000e+00
<ENDHMM>
~h "an"
<BEGINHMM>
<NUMSTATES> 5
<STATE> 2
<MEAN> 39
 -5.015403e+00 -1.512064e+01 4.988336e+00 -8.294136e+00 1.104528e+01 -7.397672e+00 -4.876832e+00 -1.633821e+00 -4.908958e+00 -2.788795e+00 -2.296914e+00 -1.139859e+01 7.453212e+01 -2.592226e-01 -7.083724e-01 7.568800e-02 -1.764389e-01 7.702002e-02 -1.247316e-01 -3.930646e-01 1.091685e+00 1.217029e+00 -1.757574e+00 -1.041201e+00 1.279015e+00 9.862541e-01 1.094254e-03 -9.208935e-02 3.871262e-01 1.633522e-01 -4.083724e-01 1.200057e-01 -2.686765e-02 -6.826471e-02 -2.626387e-02 1.024718e-01 -2.773336e-01 3.483167e-01 -1.114141e-01
<VARIANCE> 39
 6.756135e+00 1.274627e+01 2.162915e+01 1.099798e+01 5.575543e+01 1.403474e+01 2.904077e+01 2.454486e+01 2.471423e+01 2.749339e+01 1.927786e+01 1.454589e+01 9.322767e+00 3.930666e-01 6.952203e-01 1.792497e+00 6.952887e-01 2.834489e+00 1.876859e+00 1.110622e+00 1.549809e+00 1.874455e+00 1.175093e+00 1.425152e+00 1.379161e+00 8.752487e-01 8.102600e-02 1.856999e-01 2.723994e-01 1.930341e-01 3.299063e-01 2.121582e-01 2.548204e-01 4.074470e-01 5.247741e-01 4.884554e-01 2.166491e-01 1.674990e-01 2.063945e-01
<GCONST> 9.337407e+01
<STATE> 3
<MEAN> 39
 -5.670567e+00 -1.797686e+01 1.014286e+01 -6.201227e+00 3.926467e+00 -6.443178e+00 -5.672466e+00 1.568416e+00 -2.081861e+00 -7.073145e+00 -7.263076e+00 -4.086431e+00 7.636672e+01 3.394563e-01 8.097964e-01 1.378112e+00 2.012648e+00 -1.239055e+00 -2.440223e-01 -1.216365e-01 -1.135552e+00 -1.283464e-01 1.212684e+00 -7.243016e-01 1.867911e-01 -1.538655e+00 1.464969e-02 7.498888e-01 1.271494e-01 5.388989e-01 -1.731108e-01 -2.879527e-01 8.332220e-02 -8.554222e-01 -1.666677e-01 6.640180e-01 4.237079e-01 -5.442623e-01 -6.763271e-01
<VARIANCE> 39
 5.142308e+00 1.102345e+01 1.556040e+01 2.110480e+01 3.437830e+01 1.341775e+01 3.434889e+01 2.591775e+01 1.881345e+01 1.068766e+01 1.539329e+01 1.234093e+01 9.097037e+00 3.925993e-01 2.925417e+00 1.133466e+00 2.270053e+00 2.709509e+00 1.853061e+00 1.477918e+00 5.068778e+00 1.457840e+00 2.542366e+00 1.615867e+00 1.960521e+00 2.589706e+00 8.714998e-02 1.910421e-01 2.647367e-01 2.579524e-01 2.570855e-01 2.936240e-01 2.650220e-01 5.174421e-01 3.369130e-01 4.120714e-01 2.077327e-01 2.462087e-01 2.273841e-01
<GCONST> 9.753983e+01
<STATE> 4
<MEAN> 39
 -5.809081e+00 -8.738974e+00 1.589618e+01 3.605652e+00 -2.778806e+00 -8.800070e+00 -2.106773e+00 -1.005690e+01 -5.612042e+00 6.301474e-01 -4.711858e+00 -7.289940e+00 6.637067e+01 -1.573619e-01 9.038677e-01 -6.682230e-02 4.457912e-01 -2.943355e-01 -1.396516e-01 2.690941e-01 -9.118510e-01 -1.562375e-01 8.980909e-02 3.651707e-01 -1.580627e-01 -7.957804e-01 -1.611122e-01 -3.193675e-01 -1.723448e-01 -5.530978e-01 1.124266e-01 2.138850e-01 4.401698e-02 3.995332e-01 -2.124215e-02 -4.544191e-01 1.999572e-01 9.051274e-02 4.116822e-01
<VARIANCE> 39
 5.201465e+00 2.154921e+01 2.205054e+01 2.607511e+01 3.021864e+01 2.935826e+01 3.256266e+01 2.206738e+01 2.188137e+01 2.499239e+01 2.863967e+01 1.365826e+01 2.258826e+01 6.878015e-01 2.028922e+00 2.385133e+00 4.657613e+00 2.388734e+00 2.239713e+00 1.690855e+00 2.825890e+00 2.001479e+00 3.361125e+00 2.890270e+00 1.312379e+00 2.751143e+00 1.667121e-01 3.979109e-01 4.016998e-01 1.107521e+00 3.667198e-01 4.538848e-01 2.518198e-01 5.553525e-01 3.894691e-01 5.790309e-01 5.486982e-01 3.017853e-01 6.184429e-01
<GCONST> 1.106891e+02
<TRANSP> 5
 0.000000e+00 1.000000e+00 0.000000e+00 0.000000e+00 0.000000e+00
 0.000000e+00 7.412837e-01 2.587163e-01 0.000000e+00 0.000000e+00
 0.000000e+00 0.000000e+00 7.666423e-01 2.333577e-01 0.000000e+00
 0.000000e+00 0.000000e+00 0.000000e+00 8.723717e-01 1.276283e-01
 0.000000e+00 0.000000e+00 0.000000e+00 0.000000e+00 0.000000e+00
<ENDHMM>
~h "ar"
<BEGINHMM>
<NUMSTATES> 5
<STATE> 2
<MEAN> 39
 -9.956464e+00 -7.769556e+00 1.873931e+01 -5.085027e+00 -9.008010e+00 -1.254449e+01 -1.148413e+00 -8.709692e+00 -1.146090e+01 -5.919196e+00 3.181524e+00 -6.368415e+00 6.800266e+01 -3.522345e-01 -1.182555e+00 5.171423e-01 -2.320383e+00 -1.205834e+00 -2.264640e-01 -3.362767e-01 1.335784e+00 -1.416362e+00 4.216463e-01 3.950725e-01 3.127068e-01 2.787351e+00 3.170926e-01 1.732852e-02 -9.038760e-01 2.977047e-01 1.049284e-01 4.646267e-01 -1.945427e-01 1.601639e-01 6.473755e-01 4.011573e-01 -9.138248e-01 -1.821827e-01 -4.230058e-01
<VARIANCE> 39
 5.191837e+00 2.013553e+00 6.268774e+01 4.478923e+01 3.517273e+01 5.763525e+01 7.962336e+00 1.559919e+01 1.374833e+01 5.023807e+01 4.174460e+00 2.352300e+01 1.228734e+01 1.133230e+00 9.526255e-01 6.257530e+00 7.898267e+00 1.260753e+00 2.111978e+00 9.779827e-01 8.116093e+00 4.579999e-01 6.831188e+00 2.853395e+00 1.301257e+00 4.032542e+00 1.469472e-01 1.831852e-01 4.668022e-01 4.765366e-01 7.355173e-02 3.130560e-01 6.650225e-01 1.965652e-01 9.702374e-02 9.128603e-01 2.099236e-01 2.848375e-01 2.386996e-01
<GCONST> 1.013114e+02
<STATE> 3
<MEAN> 39
 -8.414997e+00 -1.207062e+01 1.366291e+01 -5.113363e+00 -1.023850e+01 -1.464513e+01 -1.138397e+00 -6.414500e-01 -1.052539e+01 -1.645857e+00 -1.115247e+00 -3.881132e+00 7.532040e+01 1.961358e-01 -1.142492e+00 -1.580580e+00 -8.364632e-01 5.758049e-01 7.096416e-01 -4.834636e-02 1.143756e+00 1.871134e+00 -5.033141e-01 -1.795794e+00 -1.879202e-01 1.520456e+00 4.969788e-02 2.409759e-01 -3.732596e-01 2.094286e-01 6.960160e-01 5.955748e-02 -3.498465e-03 -7.093417e-01 8.460081e-01 -3.674326e-01 -3.447888e-01 -3.780363e-01 -5.536861e-01
<VARIANCE> 39
 2.595344e+00 1.278649e+01 2.674293e+01 3.314356e+01 1.479243e+01 5.308891e+01 9.551729e+00 6.330993e+01 2.379735e+01 2.142734e+01 7.779668e+00 1.117585e+01 2.871756e+01 3.217145e-01 7.943329e-01 3.102472e+00 3.575935e+00 2.011013e+00 7.821671e-01 2.331588e+00 3.680191e+00 2.595428e+00 1.697041e+00 4.440244e-01 6.538808e-01 1.683480e+00 3.340258e-02 4.449105e-02 3.340071e-01 4.160916e-01 6.861393e-02 1.907025e-01 6.774162e-02 2.243097e-01 5.288067e-01 9.628471e-01 1.724344e-01 6.156602e-02 8.858452e-02
<GCONST> 8.885335e+01
<STATE> 4
<MEAN> 39
 -1.160209e+01 -1.056791e+01 1.285795e+01 -1.278276e+01 -9.504276e+00 -4.882898e+00 -1.201084e+00 -1.506271e+01 -3.738998e+00 -1.162037e+01 -6.325095e+00 -1.043392e+01 7.291380e+01 2.118367e-01 -7.058115e-01 -8.821409e-01 1.553628e-01 6.595378e-01 -5.422018e-01 3.761085e-01 4.295323e-01 2.960321e-01 5.177290e-01 -4.480773e-01 8.599287e-02 8.336346e-02 -1.741364e-02 -1.704151e-02 -1.464732e-03 5.227189e-02 8.978479e-02 -5.658305e-02 1.531338e-01 2.739764e-02 -8.220493e-02 1.513305e-01 6.880836e-02 2.823243e-02 -6.890541e-02
<VARIANCE> 39
 1.677191e+01 3.399404e+01 5.225006e+01 8.407050e+01 5.717324e+01 6.864133e+01 6.081907e+01 1.237014e+02 6.842041e+00 2.248266e+01 1.409604e+01 3.334660e+01 3.446529e+01 7.712205e-01 7.666934e-01 6.388447e-01 1.113046e+00 2.376653e+00 1.127934e+00 1.854181e+00 3.454038e+00 1.788133e+00 2.049328e+00 7.417312e-01 2.126807e+00 6.822407e-01 1.312670e-01 1.085888e-01 1.286330e-01 2.541359e-01 1.993774e-01 1.359367e-01 2.237685e-01 4.443999e-01 2.993908e-01 1.536079e-01 1.100410e-01 2.873352e-01 9.259149e-02
<GCONST> 9.918837e+01
<TRANSP> 5
 0.000000e+00 1.000000e+00 0.000000e+00 0.000000e+00 0.000000e+00
 0.000000e+00 2.953480e-01 7.046520e-01 0.000000e+00 0.000000e+00
 0.000000e+00 0.000000e+00 5.583730e-01 4.416270e-01 0.000000e+00
 0.000000e+00 0.000000e+00 0.000000e+00 8.809221e-01 1.190779e-01
 0.000000e+00 0.000000e+00 0.000000e+00 0.000000e+00 0.000000e+00
<ENDHMM>
~h "at"
<BEGINHMM>
<NUMSTATES> 5
<STATE> 2
<MEAN> 39
 -5.881001e+00 -1.723447e+00 7.031525e+00 -1.641583e+00 7.398356e+00 -1.378667e+00 -1.170463e+00 -1.464463e+01 -8.950297e+00 -3.192431e+00 7.408274e+00 -1.128508e+01 6.291975e+01 -4.738817e-01 -1.994131e+00 -1.218429e+00 -5.865513e+00 2.313574e+00 -9.942944e-01 -1.340246e+00 1.614750e+00 -1.056904e-01 1.198800e+00 1.475688e+00 6.526037e-01 3.107387e+00 2.293968e-01 -1.238290e+00 -6.782711e-04 -9.973315e-01 3.896461e-01 -2.964995e-03 -7.290466e-01 3.849100e-01 -9.411755e-02 9.660501e-01 -8.149015e-01 8.482103e-02 1.019358e+00
<VARIANCE> 39
 5.171734e+00 8.502911e+01 5.920010e+00 9.468865e+00 1.293985e+01 1.868678e+01 4.799194e+00 9.626419e+00 3.055821e+01 3.326649e+01 2.605048e+01 2.017523e+01 6.054655e+01 2.718939e-02 1.957257e+00 9.321747e-01 7.221153e+00 8.120155e-02 1.515792e-01 7.284975e-01 3.914640e-01 5.500799e-01 2.788666e+00 2.284466e+00 3.557212e-01 1.606527e+00 7.884103e-02 3.803165e-01 2.944558e-02 2.257786e-01 1.195352e-01 1.216841e-01 1.079561e-01 9.075058e-01 3.618483e-01 4.979120e-01 1.261592e-01 1.048064e-01 4.196074e-01
<GCONST> 8.043650e+01
<STATE> 3
<MEAN> 39
 -5.827489e+00 -1.402605e+01 7.211167e+00 -1.775969e+01 1.200841e+01 -4.665074e+00 -7.751938e+00 -6.453194e+00 -3.520761e+00 3.495675e+00 -4.774534e-01 -9.304024e+00 7.589666e+01 -9.772114e-02 -6.699881e-01 2.916009e-01 3.974514e-01 2.812506e-01 -5.760282e-01 -6.764727e-01 1.274781e+00 1.178020e+00 6.599482e-01 -1.430036e+00 -4.938021e-01 2.055901e-01 -7.174839e-02 6.283364e-01 5.831910e-02 1.137952e+00 -2.329867e-01 2.310033e-01 1.039721e-01 -3.096245e-01 6.259642e-02 -1.573827e-01 -2.481629e-02 -1.946163e-01 -9.867572e-01
<VARIANCE> 39
 9.712570e-01 2.540804e+01 7.989737e+00 3.998979e+01 9.309454e+00 2.939638e+01 5.307945e+00 3.614636e+01 4.146991e+01 3.309546e+01 3.947712e+01 2.411690e+01 1.380866e+01 1.985442e-01 8.220223e+00 5.609336e-01 1.304616e+01 1.705117e+00 2.054185e+00 1.410082e+00 2.117550e+00 2.403268e+00 3.598712e+00 2.276714e+00 9.395246e-01 1.078744e+01 7.088397e-02 4.931997e-01 1.916316e-01 5.011331e-01 2.784538e-01 4.028579e-01 3.001095e-01 3.636164e-01 4.075615e-01 6.092235e-01 8.052898e-01 1.498775e-01 4.081327e-01
<GCONST> 1.038473e+02
<STATE> 4
<MEAN> 39
 -1.050025e+01 -5.356626e+00 5.041529e+00 8.156627e-01 8.961613e+00 -3.973438e+00 -8.885256e+00 -6.921744e+00 2.481157e+00 1.884367e+00 -4.026863e+00 -1.340704e+01 5.631617e+01 -7.919217e-01 1.237484e+00 -7.024283e-01 9.840019e-01 -9.639511e-01 -2.279921e-01 5.762271e-01 -1.374906e+00 3.592298e-02 -1.420179e+00 3.858956e-01 3.224371e-01 -1.799064e+00 2.469581e-01 -4.686992e-01 1.970780e-01 -8.453209e-01 -2.325166e-01 -3.578385e-01 1.442926e-01 4.012367e-02 -3.054848e-01 -2.001771e-01 3.941647e-02 2.890900e-01 1.147449e+00
<VARIANCE> 39
 8.009450e+00 1.542925e+01 1.978227e+01 1.545854e+01 1.543959e+01 1.263950e+01 2.521344e+01 8.908700e+00 1.337252e+01 2.230082e+01 1.675574e+01 1.562226e+01 1.581703e+01 1.289380e+00 1.986797e+00 2.719911e+00 6.835761e+00 9.653015e-01 2.987373e+00 1.657101e+00 5.129031e-01 3.089322e+00 1.322818e+00 2.088044e+00 2.625163e+00 8.585045e+00 1.898185e-01 2.663296e-01 5.919006e-01 5.825307e-01 1.875593e-01 3.463781e-01 4.223732e-01 1.496801e-01 1.912495e-01 3.125541e-01 7.655742e-01 6.463090e-01 3.664903e-01
<GCONST> 1.028815e+02
<TRANSP> 5
 0.000000e+00 1.000000e+00 0.000000e+00 0.000000e+00 0.000000e+00
 0.000000e+00 3.703769e-02 9.629623e-01 0.000000e+00 0.000000e+00
 0.000000e+00 0.000000e+00 8.804434e-01 1.195566e-01 0.000000e+00
 0.000000e+00 0.000000e+00 0.000000e+00 8.420982e-01 1.579018e-01
 0.000000e+00 0.000000e+00 0.000000e+00 0.000000e+00 0.000000e+00
<ENDHMM>
~h "ba"
<BEGINHMM>
<NUMSTATES> 5
<STATE> 2
<MEAN> 39
 -1.053199e+01 -4.166446e+00 3.348365e+00 1.132547e+00 -2.563413e-01 -4.454213e+00 -5.419122e+00 -1.039622e+01 -6.394469e+00 -4.244952e+00 -2.488683e-01 -6.256530e+00 5.235627e+01 1.465643e+00 7.241065e-02 1.016703e+00 3.457266e-01 7.502795e-01 -3.983054e-01 -3.244314e-01 -8.429872e-01 -3.698518e-01 1.620264e-01 -1.129079e-01 -5.282024e-01 1.507434e+00 -1.018102e-01 -4.604973e-01 9.262376e-03 -5.652241e-01 4.051808e-02 -1.562666e-01 1.621825e-01 4.491723e-01 2.411463e-01 1.817546e-01 -2.032422e-02 -3.920395e-02 5.839831e-01
<VARIANCE> 39
 5.422998e+01 3.673083e+01 5.862032e+01 3.364278e+01 2.896395e+01 5.027788e+01 3.133591e+01 7.498285e+01 3.213376e+01 3.213153e+01 2.653378e+01 2.182950e+01 1.726876e+02 6.047135e+00 7.519649e+00 4.879630e+00 8.088625e+00 3.240272e+00 6.939071e+00 3.148158e+00 5.110723e+00 2.587009e+00 3.671733e+00 3.622845e+00 2.166549e+00 2.671914e+01 4.820614e-01 7.028607e-01 6.283715e-01 8.130996e-01 4.703430e-01 9.827062e-01 6.374467e-01 8.523141e-01 5.248801e-01 5.484358e-01 7.162380e-01 3.642223e-01 1.505096e+00
<GCONST> 1.360242e+02
<STATE> 3
<MEAN> 39
 -4.628340e+00 -5.721090e+00 7.128576e+00 -2.445175e+00 3.633087e+00 -5.440480e+00 -8.219110e+00 -1.425768e+01 -5.519681e+00 -2.988509e-01 2.254749e+00 -1.015834e+01 6.493841e+01 -4.288677e-02 -2.235774e+00 -4.893031e-01 -2.511187e+00 1.730675e-01 -1.139038e+00 -3.650752e-02 1.786701e+00 1.988139e+00 7.717103e-01 -8.826662e-01 -3.443891e-01 2.934768e+00 -2.127297e-01 -6.887601e-01 1.906409e-02 -5.538393e-01 -2.101242e-01 -2.474412e-01 2.381403e-01 8.921186e-01 3.187830e-01 -1.325609e-01 -5.663229e-01 1.758016e-01 5.674371e-01
<VARIANCE> 39
 5.833701e+00 4.802216e+01 1.627664e+01 7.588020e+01 1.564581e+01 3.354013e+01 2.898908e+01 5.428196e+01 4.246601e+01 3.774356e+01 2.482880e+01 1.540845e+01 6.031417e+01 9.678729e-01 7.421766e+00 2.357289e+00 8.111839e+00 1.886745e+00 2.807771e+00 2.894449e+00 7.185480e+00 4.083051e+00 4.308741e+00 4.261276e+00 1.920176e+00 9.763288e+00 2.700925e-01 1.202120e+00 4.016667e-01 2.014567e+00 3.784509e-01 6.129612e-01 5.267492e-01 8.923513e-01 8.734478e-01 9.520516e-01 6.799254e-01 4.481438e-01 1.932349e+00
<GCONST> 1.280875e+02
<STATE> 4
<MEAN> 39
 -6.420832e+00 -1.630116e+01 8.461711e+00 -1.107005e+01 2.453923e+00 -1.055624e+01 -1.760037e+00 -8.286803e-01 -6.011996e-01 -3.102191e+00 -6.499301e+00 -6.875032e+00 7.706676e+01 -9.890853e-02 -1.872679e-01 4.650085e-01 8.650626e-02 -1.095633e-01 -1.872139e-01 5.056947e-01 7.297745e-01 -3.037145e-01 -4.600643e-01 -4.024061e-01 4.445534e-01 2.901062e-01 -5.468827e-02 6.397892e-01 1.992871e-02 5.653822e-01 -5.216927e-02 2.398631e-01 -1.185758e-01 -5.464394e-01 -2.477675e-01 1.275768e-03 3.944867e-01 -1.530319e-02 -8.039333e-01
<VARIANCE> 39
 7.178648e+00 2.501437e+01 3.129878e+01 2.524895e+01 3.741784e+01 2.142499e+01 4.002258e+01 3.317200e+01 3.819342e+01 3.972698e+01 3.029935e+01 2.875344e+01 2.158589e+01 5.653453e-01 3.136927e+00 1.661044e+00 2.907616e+00 1.997444e+00 1.350007e+00 2.142629e+00 4.300426e+00 2.230732e+00 2.091729e+00 2.924546e+00 1.461425e+00 3.858476e+00 1.705033e-01 4.665903e-01 3.291237e-01 6.159182e-01 3.546476e-01 2.622465e-01 3.895344e-01 5.790226e-01 5.531966e-01 5.024055e-01 4.312401e-01 2.647390e-01 5.371152e-01
<GCONST> 1.122246e+02
<TRANSP> 5
 0.000000e+00 1.000000e+00 0.000000e+00 0.000000e+00 0.000000e+00
 0.000000e+00 6.062205e-01 3.937795e-01 0.000000e+00 0.000000e+00
 0.000000e+00 0.000000e+00 7.458274e-01 2.541726e-01 0.000000e+00
 0.000000e+00 0.000000e+00 0.000000e+00 8.620222e-01 1.379778e-01
 0.000000e+00 0.000000e+00 0.000000e+00 0.000000e+00 0.000000e+00
<ENDHMM>
~h "be"
<BEGINHMM>
<NUMSTATES> 5
<STATE> 2
<MEAN> 39
 -1.330454e+01 -3.925130e+00 8.627071e-01 2.310815e+00 3.625150e-01 -3.048929e+00 -7.064668e+00 -1.017870e+01 -4.989338e+00 -3.585808e+00 1.226568e-01 -5.286920e+00 4.838760e+01 -1.086519e-01 8.305878e-01 1.103191e-02 6.581150e-01 -1.963820e-01 4.209181e-01 2.782075e-01 -7.855328e-01 -4.071489e-01 -1.315416e-01 2.883486e-01 1.923166e-01 -1.099059e+00 6.491764e-02 -3.081039e-01 1.058616e-03 -3.497192e-01 -5.865299e-02 -3.228439e-01 8.456582e-02 2.178202e-01 3.274362e-01 -3.778899e-02 -2.354694e-01 -1.558376e-01 5.972659e-01
<VARIANCE> 39
 8.813923e+01 2.884703e+01 6.316299e+01 1.588628e+01 2.512634e+01 3.824597e+01 1.786378e+01 5.866908e+01 4.565783e+01 3.326443e+01 3.133935e+01 2.397063e+01 2.252968e+02 3.943636e-01 1.861515e+00 1.406331e+00 2.441119e+00 1.372820e+00 1.729117e+00 1.355284e+00 3.426256e+00 2.123039e+00 1.371810e+00 2.100868e+00 1.840256e+00 3.027444e+00 2.421489e-01 3.708807e-01 3.677443e-01 5.721955e-01 2.663358e-01 4.889003e-01 3.260280e-01 5.474893e-01 4.917626e-01 3.408545e-01 3.808624e-01 4.199878e-01 8.453056e-01
<GCONST> 1.149525e+02
<STATE> 3
<MEAN> 39
 -1.308077e+01 -1.457088e+00 7.007936e-01 3.082778e+00 -2.271580e-01 1.151909e+00 -5.635601e+00 -1.058251e+01 -6.396111e+00 -1.438312e+00 1.993077e+00 -4.645197e+00 4.558253e+01 4.901204e-01 -6.115073e-01 -1.122879e-01 -8.007199e-01 -1.722522e-01 -1.229252e+00 2.505334e-01 -2.284274e-01 9.859933e-01 -1.290470e-03 -4.344652e-01 -2.801238e-01 1.713228e+00 6.268795e-01 -7.385436e-01 4.134258e-01 -5.740899e-01 4.264934e-02 -7.043880e-01 -5.247306e-01 -1.724917e-01 3.130932e-01 1.800917e-01 -4.061834e-01 -2.231493e-01 1.629792e+00
<VARIANCE> 39
 1.107099e+02 3.518144e+01 9.593395e+01 1.894293e+01 3.755817e+01 5.556747e+01 1.695681e+01 8.248323e+01 3.781200e+01 4.018767e+01 3.269695e+01 2.308657e+01 3.430157e+02 2.060095e+00 1.989881e+00 3.960456e+00 2.949866e+00 1.204521e+00 2.681341e+00 2.538431e+00 3.432359e+00 4.852399e+00 2.772888e+00 2.439272e+00 8.172475e-01 5.341566e+00 6.022467e-01 6.219977e-01 1.020308e+00 5.513164e-01 5.025740e-01 4.562438e-01 3.165741e-01 1.095837e+00 7.330728e-01 5.017144e-01 3.505624e-01 2.534523e-01 9.272386e-01
<GCONST> 1.267126e+02
<STATE> 4
<MEAN> 39
 -1.411293e+01 -1.413716e+00 -2.326496e-01 8.467451e-01 -2.424817e+00 -3.524082e-01 -7.633070e+00 -9.627436e+00 -4.511389e+00 -1.285489e+00 4.092418e-03 -4.131364e+00 4.362323e+01 2.200520e+00 -9.573622e-01 1.703922e+00 -6.881970e-01 5.068976e-01 -1.359641e+00 -9.800221e-01 -1.090923e+00 2.684942e-01 7.938244e-01 -4.118396e-01 -6.285533e-01 3.939845e+00 7.083859e-02 -3.041509e-01 1.201975e-01 7.739330e-02 9.900616e-02 5.007508e-02 -3.998748e-02 2.204251e-01 1.707757e-01 2.379453e-01 -5.813286e-02 -3.919781e-02 2.694871e-01
<VARIANCE> 39
 8.274345e+01 2.015798e+01 8.031185e+01 5.645253e+01 3.911801e+01 5.054354e+01 4.481242e+01 8.554716e+01 4.432991e+01 2.471729e+01 2.285776e+01 2.024623e+01 2.841670e+02 6.460403e+00 4.292807e+00 1.023952e+01 5.414973e+00 3.133077e+00 5.190872e+00 4.000888e+00 8.707627e+00 6.130272e+00 2.344714e+00 3.117447e+00 1.738187e+00 1.428915e+01 8.023534e-01 3.466491e-01 1.131302e+00 8.801963e-01 6.307750e-01 9.092076e-01 8.760715e-01 1.165795e+00 1.004883e+00 5.715121e-01 4.328585e-01 2.742871e-01 1.561408e+00
<GCONST> 1.387765e+02
<TRANSP> 5
 0.000000e+00 1.000000e+00 0.000000e+00 0.000000e+00 0.000000e+00
 0.000000e+00 6.956219e-01 3.043781e-01 0.000000e+00 0.000000e+00
 0.000000e+00 0.000000e+00 1.375660e-01 8.624340e-01 0.000000e+00
 0.000000e+00 0.000000e+00 0.000000e+00 6.834044e-01 3.165955e-01
 0.000000e+00 0.000000e+00 0.000000e+00 0.000000e+00 0.000000e+00
<ENDHMM>
~h "bi"
<BEGINHMM>
<NUMSTATES> 5
<STATE> 2
<MEAN> 39
 -6.034621e+00 -2.320175e+00 1.137043e+01 3.727269e+00 1.631142e+00 -9.195213e+00 -7.346881e+00 -1.321570e+01 -6.989066e+00 -2.735643e+00 2.070843e+00 -1.059650e+01 6.041470e+01 -5.407200e-01 -5.981170e-01 1.985853e+00 -4.080324e-01 -1.013958e+00 -1.255935e+00 3.210105e-01 3.235862e-01 -6.105236e-01 -6.543362e-01 6.635851e-01 3.992037e-01 1.790587e+00 -3.349864e-01 -6.704554e-01 5.324647e-01 -9.503394e-01 -6.670548e-01 -1.151125e-01 1.410429e-01 5.520700e-01 -2.830828e-01 1.266350e-01 -1.193989e-01 3.559682e-01 9.248773e-01
<VARIANCE> 39
 1.376328e+01 2.917858e+01 1.637046e+01 2.014874e+01 2.909944e+01 2.567076e+01 3.208825e+01 4.544732e+01 2.372520e+01 3.525533e+01 2.732635e+01 2.406610e+01 3.326693e+01 3.538303e+00 5.104048e+00 7.621524e+00 6.982342e+00 4.247978e+00 5.012836e+00 1.600435e+00 4.797551e+00 3.280165e+00 2.487189e+00 1.900970e+00 2.730285e+00 1.478271e+01 2.491639e-01 5.579100e-01 5.752147e-01 4.289547e-01 4.984702e-01 6.234760e-01 3.710717e-01 5.432813e-01 5.379512e-01 6.641539e-01 2.955657e-01 3.478735e-01 7.620403e-01
<GCONST> 1.227803e+02
<STATE> 3
<MEAN> 39
 -1.014985e+01 -9.754761e+00 2.255393e+01 -6.237532e+00 -8.938832e+00 -1.283709e+01 -5.028621e+00 -7.117157e+00 -1.345557e+01 -2.631429e-01 3.741028e+00 -6.479553e+00 7.386250e+01 -3.752926e-01 -2.791379e-01 5.036097e-01 -1.044466e+00 -4.258229e-01 -7.183368e-01 8.961732e-01 8.497993e-01 -7.686725e-02 -5.991171e-02 -2.119475e-01 9.102312e-01 1.594008e+00 -2.665954e-02 5.168351e-01 -1.001135e+00 5.950496e-01 8.596870e-01 3.445932e-01 2.052713e-01 -3.558218e-01 7.889664e-01 -3.999794e-01 -1.525056e-01 -1.558298e-01 -8.176278e-01
<VARIANCE> 39
 7.951305e+00 1.544997e+01 2.878126e+01 2.614855e+01 4.009159e+01 2.893899e+01 2.561277e+01 2.862324e+01 2.738033e+01 2.130546e+01 1.577105e+01 1.609081e+01 1.598572e+01 1.724042e+00 2.957675e+00 6.119747e+00 3.583029e+00 5.756029e+00 2.698322e+00 2.365218e+00 2.743066e+00 5.315207e+00 4.066746e+00 1.316920e+00 1.621983e+00 3.877311e+00 3.856217e-01 3.506658e-01 6.594391e-01 3.870753e-01 6.200502e-01 6.476684e-01 4.196537e-01 6.746346e-01 5.728815e-01 5.602253e-01 2.681588e-01 3.496282e-01 4.622102e-01
<GCONST> 1.161435e+02
<STATE> 4
<MEAN> 39
 -1.352472e+01 -9.952431e+00 9.785779e+00 -4.916078e+00 3.938442e-01 -1.166650e+01 1.278572e+00 -7.897765e+00 -1.703200e+00 -6.501466e+00 -3.420792e-01 -6.209167e+00 7.175678e+01 -2.407375e-01 3.517898e-01 -6.709212e-01 3.663870e-01 5.965845e-01 3.509879e-01 3.574238e-01 -3.305682e-01 7.033013e-01 -6.516969e-01 -2.567206e-01 -1.391457e-01 -4.070188e-01 -8.082082e-02 -2.659985e-02 4.289999e-02 -2.057450e-02 -4.777864e-02 2.094273e-01 -6.179012e-02 1.445063e-02 -1.214712e-01 7.058903e-02 6.902917e-02 -1.490188e-01 -7.433856e-02
<VARIANCE> 39
 8.613557e+01 2.852387e+01 5.260057e+01 3.383699e+01 4.016054e+01 4.670541e+01 7.652116e+01 3.192580e+01 4.015678e+01 3.433992e+01 4.957863e+01 2.775315e+01 2.535348e+01 6.194271e+00 2.801488e+00 2.499835e+00 2.465393e+00 3.519336e+00 3.122092e+00 3.543203e+00 2.518925e+00 4.168796e+00 5.002152e+00 4.279656e+00 2.062387e+00 2.372445e+00 6.885527e-01 3.918123e-01 4.435864e-01 4.284032e-01 4.956469e-01 7.942733e-01 4.385200e-01 4.095783e-01 5.144333e-01 6.562554e-01 6.813170e-01 4.983669e-01 4.381709e-01
<GCONST> 1.267209e+02
<TRANSP> 5
 0.000000e+00 1.000000e+00 0.000000e+00 0.000000e+00 0.000000e+00
 0.000000e+00 6.873939e-01 3.126060e-01 0.000000e+00 0.000000e+00
 0.000000e+00 0.000000e+00 7.521589e-01 2.478410e-01 0.000000e+00
 0.000000e+00 0.000000e+00 0.000000e+00 7.767822e-01 2.232178e-01
 0.000000e+00 0.000000e+00 0.000000e+00 0.000000e+00 0.000000e+00
<ENDHMM>
~h "bo"
<BEGINHMM>
<NUMSTATES> 5
<STATE> 2
<MEAN> 39
 -2.115276e+01 -4.252725e+00 7.100222e+00 2.416838e+00 -1.745837e+00 -1.317276e+00 2.572787e+00 -6.723691e+00 -3.552917e+00 -6.885409e+00 -3.951642e+00 -6.962073e+00 4.348401e+01 1.023755e+00 -7.417935e-01 8.033568e-01 5.150135e-01 6.945270e-01 1.042840e+00 -2.872547e-01 4.476659e-01 -6.241477e-01 -3.045972e-01 1.118762e-01 7.240956e-01 1.132751e+00 8.854081e-03 -4.149808e-01 -1.623975e-01 -4.524041e-01 2.611500e-01 1.501427e-01 -5.423938e-01 -1.474682e-01 9.798017e-03 -4.168088e-02 3.446891e-01 1.977190e-01 3.269500e-01
<VARIANCE> 39
 2.412833e+01 2.206793e+01 5.874168e+01 4.057634e+01 2.465796e+01 4.479032e+01 4.477490e+01 1.427363e+01 8.536438e+00 2.442909e+01 7.306893e+00 1.467720e+01 1.525659e+02 4.890739e-01 1.614763e+00 1.860761e+00 2.595532e+00 1.278665e+00 2.445170e+00 1.172290e+01 2.175438e+00 4.879960e-01 6.499589e-01 6.088874e-01 2.643918e+00 3.036150e+00 4.985055e-01 3.572499e-01 7.070945e-01 5.298060e-01 2.761099e-01 5.841911e-01 1.629647e+00 4.352635e-01 4.959099e-01 3.011279e-01 1.025772e-01 5.485210e-01 1.351695e+00
<GCONST> 1.110438e+02
<STATE> 3
<MEAN> 39
 -1.840184e+01 -9.067737e+00 5.840147e+00 -8.661293e-01 -2.388243e-01 3.540305e+00 -6.435373e+00 -3.888992e+00 -2.439623e+00 -3.849642e+00 1.523982e+00 -4.445804e+00 4.639264e+01 2.075396e+00 -6.203429e-01 -9.719886e-01 -3.135449e+00 1.248591e+00 -4.201064e-01 -1.783785e+00 -7.432467e-01 -4.391444e-01 9.311785e-01 1.059637e+00 -1.953529e+00 3.207064e+00 7.265331e-01 2.385409e-01 9.832153e-02 -1.018234e+00 5.903424e-01 -4.956685e-01 7.312419e-01 -5.271389e-01 -5.785248e-01 8.380126e-02 -4.367169e-01 -8.633013e-01 1.450319e+00
<VARIANCE> 39
 3.581793e+01 3.420529e+01 1.455492e+02 9.405814e+01 4.416246e+01 1.857294e+01 9.080341e+00 7.337791e+00 1.703266e+01 3.053600e+01 1.099698e+01 3.605182e+01 2.845833e+02 3.715129e+00 6.335636e-01 5.998458e+00 2.611421e+00 2.008006e+00 1.171895e+00 1.890011e+00 2.867467e+00 2.837892e+00 2.544827e+00 1.023239e+00 4.171711e+00 6.621274e+00 7.705963e-01 1.857003e-01 5.218720e-01 9.404620e-01 5.438036e-01 1.376925e-01 2.229688e-01 2.791625e-01 7.824776e-01 3.618712e-01 2.464385e-01 1.074539e+00 1.510333e+00
<GCONST> 1.183780e+02
<STATE> 4
<MEAN> 39
 -6.265785e+00 -5.593143e+00 3.372054e+00 -1.656211e+01 8.681310e+00 2.362745e-02 -7.590367e+00 -6.962681e+00 -8.757096e+00 -1.024513e+00 -1.100270e+00 -6.788574e+00 6.107666e+01 2.820042e+00 -8.864846e-01 1.570140e+00 -4.078616e+00 2.975519e+00 -9.974424e-01 3.334480e-01 -4.951106e-01 -1.414829e+00 6.255782e-01 -8.873440e-01 -8.316353e-01 6.129029e+00 -8.464602e-01 -1.151519e-01 2.052118e-01 1.059777e+00 -5.193150e-01 9.458863e-02 3.959273e-01 -1.560251e-02 5.395653e-01 1.792500e-01 -1.909358e-01 1.441522e-01 -9.141649e-01
<VARIANCE> 39
 1.880115e+01 3.301728e+01 5.659129e+01 6.351509e+01 7.520373e+01 1.461797e+01 3.421202e+01 2.114098e+01 1.132396e+01 1.148346e+01 1.601362e+01 5.390946e+01 1.220284e+02 5.285749e+00 1.393222e+00 1.484982e+00 6.286014e+00 5.324558e+00 1.644028e+00 1.669603e+00 1.501793e+00 6.437412e+00 1.519566e+00 1.865182e+00 1.489702e+00 1.049343e+01 4.424035e-01 1.604117e-01 6.114119e-01 1.245140e+00 9.904606e-01 2.052701e-01 3.205771e-01 3.854122e-01 9.751259e-01 3.284955e-01 3.197850e-01 2.633160e-01 1.674529e+00
<GCONST> 1.195869e+02
<TRANSP> 5
 0.000000e+00 1.000000e+00 0.000000e+00 0.000000e+00 0.000000e+00
 0.000000e+00 6.890462e-01 3.109538e-01 0.000000e+00 0.000000e+00
 0.000000e+00 0.000000e+00 4.001527e-01 5.998473e-01 0.000000e+00
 0.000000e+00 0.000000e+00 0.000000e+00 6.822881e-01 3.177120e-01
 0.000000e+00 0.000000e+00 0.000000e+00 0.000000e+00 0.000000e+00
<ENDHMM>
~h "bu"
<BEGINHMM>
<NUMSTATES> 5
<STATE> 2
<MEAN> 39
 -5.093137e+00 -2.058055e+00 8.480135e+00 -7.200085e+00 2.063197e+00 -6.769302e-01 -3.299836e+00 -1.043391e+01 -8.594890e+00 -3.765149e+00 1.328931e+00 -8.958974e+00 6.369556e+01 7.080983e-02 5.559204e-01 -8.181522e-01 -9.588255e-01 2.220990e-01 -8.192175e-02 4.062513e-02 1.864114e-01 -1.957166e-01 -8.907527e-02 2.044266e-01 -3.994072e-02 9.432766e-02 -4.607659e-03 -1.337999e-01 4.754686e-02 -1.807721e-01 -1.185631e-02 1.505955e-02 -7.906685e-02 9.034201e-02 -5.307781e-02 6.512479e-02 -1.444658e-02 2.369734e-02 1.719438e-01
<VARIANCE> 39
 1.403798e+01 3.457306e+01 2.653599e+01 1.262320e+02 3.857508e+01 4.321761e+01 2.291073e+01 5.030758e+01 4.474894e+01 3.925283e+01 3.071041e+01 2.021349e+01 3.364436e+01 1.435535e+00 3.887542e+00 3.230645e+00 1.189827e+01 3.921014e+00 5.024667e+00 2.641002e+00 7.185954e+00 4.608384e+00 2.752417e+00 3.936588e+00 2.140964e+00 3.947091e+00 2.999060e-01 5.163031e-01 5.635383e-01 1.750727e+00 7.122756e-01 8.243372e-01 4.727026e-01 1.166296e+00 1.007503e+00 4.831729e-01 6.599811e-01 3.275915e-01 4.859876e-01
<GCONST> 1.292227e+02
<STATE> 3
<MEAN> 39
 -3.755152e+00 1.632110e+00 4.606168e+00 -1.910004e+01 8.822768e-02 -4.614646e+00 -4.598919e+00 -7.849383e+00 -1.260079e+01 -7.401194e+00 3.188628e-01 -8.618453e+00 6.591814e+01 -8.192402e-02 2.835575e-02 -9.958440e-02 -4.395997e-01 -1.669824e-01 1.750644e-01 -3.634635e-01 1.183750e-01 1.379999e-01 1.925597e-01 2.058687e-02 2.430919e-01 -8.868009e-03 -2.103363e-01 -1.623311e-01 5.122406e-02 3.609290e-01 -2.721362e-04 2.306346e-04 5.791800e-02 -1.183346e-01 2.734275e-01 -7.068466e-02 4.950873e-02 4.325307e-02 -1.057236e-01
<VARIANCE> 39
 2.654327e+00 1.944717e+01 1.173988e+01 8.670764e+01 2.662431e+01 2.129557e+01 1.228928e+01 2.751151e+01 2.698706e+01 3.731557e+01 1.349012e+01 2.781343e+01 2.319148e+01 4.751942e-01 9.471860e-01 9.192740e-01 3.398629e+00 1.268003e+00 1.105142e+00 9.126834e-01 1.435788e+00 1.174917e+00 1.855412e+00 1.231540e+00 1.257964e+00 9.652091e-01 8.949509e-02 2.840549e-01 3.542848e-01 1.081572e+00 2.766274e-01 2.984132e-01 1.925390e-01 4.521093e-01 3.635785e-01 2.472954e-01 3.325045e-01 2.299374e-01 2.516560e-01
<GCONST> 9.689992e+01
<STATE> 4
<MEAN> 39
 -9.995347e+00 -5.564698e+00 -8.850932e-02 -1.037481e+01 1.670939e+00 -2.842933e+00 -5.244436e+00 -1.265248e+01 -4.999589e+00 -3.684767e+00 3.048290e+00 -7.352297e+00 6.130274e+01 -1.023395e+00 -1.700662e+00 -7.009835e-01 1.288943e+00 -3.863636e-02 -3.569049e-01 -1.888699e-01 -3.901889e-01 1.604983e+00 -3.964153e-01 6.791425e-01 -3.993334e-01 -1.625800e-01 1.665953e-01 -6.863612e-02 2.750970e-01 -2.872768e-01 9.648751e-03 -1.510346e-01 -6.358323e-02 1.756152e-01 -2.677206e-01 -7.754768e-02 -2.126605e-01 -7.800543e-02 2.165763e-01
<VARIANCE> 39
 2.983973e+01 4.846800e+01 5.162299e+01 8.317812e+01 4.603514e+01 4.554613e+01 3.657192e+01 6.159348e+01 5.671148e+01 3.910650e+01 4.526580e+01 2.873021e+01 6.597124e+01 1.153103e+00 3.133110e+00 2.731831e+00 7.524704e+00 1.592771e+00 3.318224e+00 2.431339e+00 5.844209e+00 5.715512e+00 3.996845e+00 3.860144e+00 3.522737e+00 3.323810e+00 2.898633e-01 8.245348e-01 4.654600e-01 1.485358e+00 5.045385e-01 5.909459e-01 3.891394e-01 1.177470e+00 9.762077e-01 8.913074e-01 8.907311e-01 8.027803e-01 9.131950e-01
<GCONST> 1.329608e+02
<TRANSP> 5
 0.000000e+00 1.000000e+00 0.000000e+00 0.000000e+00 0.000000e+00
 0.000000e+00 8.930961e-01 1.069039e-01 0.000000e+00 0.000000e+00
 0.000000e+00 0.000000e+00 7.772264e-01 2.227736e-01 0.000000e+00
 0.000000e+00 0.000000e+00 0.000000e+00 7.126341e-01 2.873659e-01
 0.000000e+00 0.000000e+00 0.000000e+00 0.000000e+00 0.000000e+00
<ENDHMM>
~h "ca"
<BEGINHMM>
<NUMSTATES> 5
<STATE> 2
<MEAN> 39
 -1.263846e+01 -3.797394e+00 7.837064e+00 4.911906e-01 -3.952477e+00 -1.385395e+01 -4.258555e+00 -7.607023e+00 -3.138669e+00 -7.978206e+00 1.544622e+00 -2.585674e+00 6.137206e+01 -2.218739e+00 1.402861e+00 6.023746e-01 3.799460e-01 1.216928e+00 9.341015e-01 1.539081e+00 -1.845830e-01 7.665915e-01 -1.552774e+00 1.118303e+00 6.049326e-01 -5.148787e-01 -8.938748e-01 -1.958629e-01 -2.791444e-01 -2.694335e-01 5.627715e-01 1.287362e-01 7.927766e-01 3.967898e-02 5.919062e-01 8.565512e-02 -1.206352e-01 -2.170627e-01 1.610991e-01
<VARIANCE> 39
 1.732117e+01 1.803625e+01 2.575143e+01 1.869346e+01 6.450856e+00 2.206520e+01 2.646599e+01 3.151499e+01 1.697625e+01 1.961187e+01 5.920687e+00 9.858891e+00 1.112258e+02 2.531368e+00 3.785363e+00 2.281103e+00 1.403805e+00 2.659643e+00 1.752480e+00 3.600093e+00 2.897788e+00 4.214401e+00 3.425936e+00 1.314231e+00 7.252276e-01 8.516700e+00 3.711461e-01 4.968942e-01 5.147350e-01 2.640508e-01 2.879396e-01 5.716717e-01 6.598275e-01 4.011645e-01 6.495761e-01 7.637058e-01 1.644610e-01 1.897283e-01 1.535409e+00
<GCONST> 1.113818e+02
<STATE> 3
<MEAN> 39
 -2.885292e+01 -3.652463e+00 3.923373e+00 -3.695496e+00 2.763099e+00 -8.501270e+00 4.019121e+00 -9.775945e+00 2.102722e+00 -8.945213e+00 2.641166e+00 -2.911360e+00 6.115671e+01 -9.667192e-01 -4.540851e-01 -1.019810e+00 -1.269161e+00 1.946956e-02 8.103462e-01 4.973188e-01 -1.732006e-01 5.832301e-01 1.998483e-01 -2.186086e-01 1.462269e-02 9.098029e-02 1.248833e+00 -4.282002e-01 9.549443e-02 4.793443e-02 -6.739206e-01 -2.285975e-01 -6.760176e-01 1.113095e-01 -3.289425e-01 1.778089e-02 -3.304070e-01 -1.886910e-01 9.757866e-02
<VARIANCE> 39
 3.489011e+01 3.755971e+01 2.282439e+01 1.564765e+01 5.638535e+00 2.664939e+01 1.753888e+01 1.623876e+01 2.528787e+01 1.127156e+01 7.345216e+00 8.963094e+00 2.494203e+01 8.317178e+00 4.061930e+00 1.613559e+00 2.419210e+00 2.178311e+00 1.818351e+00 2.718359e+00 1.010000e+00 2.007171e+00 1.656337e+00 1.633884e+00 7.325072e-01 1.030645e+01 1.238966e+00 8.463717e-01 8.741326e-01 5.430775e-01 1.528140e-01 4.078907e-01 1.938937e-01 2.451758e-01 5.215678e-01 6.055434e-01 4.341600e-01 7.689627e-02 1.557747e+00
<GCONST> 1.088081e+02
<STATE> 4
<MEAN> 39
 -1.482828e+01 -9.598219e+00 6.488598e+00 -7.780071e+00 -3.117477e+00 -1.179350e+01 1.513907e+00 -7.406894e+00 1.451665e+00 -1.079816e+01 -1.249023e+00 -4.244714e+00 6.884137e+01 2.445638e+00 -1.614177e+00 2.327362e-01 -3.070911e-01 -4.182696e-01 -7.030742e-01 2.123712e-01 3.627357e-01 -7.517754e-02 -2.652538e-01 -1.391945e+00 -6.743405e-01 2.312741e+00 -2.626293e-01 2.181284e-01 -1.700817e-01 2.303227e-01 2.969355e-01 1.348943e-01 1.723250e-01 -1.704539e-01 6.361914e-02 2.886102e-02 3.649206e-02 -8.770241e-02 -9.606266e-02
<VARIANCE> 39
 7.773280e+01 3.509217e+01 2.254854e+01 1.621352e+01 2.101605e+01 2.336288e+01 1.996224e+01 2.251226e+01 1.154251e+01 1.577697e+01 4.790726e+01 7.123770e+00 9.271127e+01 1.066722e+01 1.800930e+00 6.448304e+00 2.616283e+00 3.078901e+00 2.544226e+00 2.222752e+00 3.195933e+00 1.551510e+00 2.918248e+00 2.935052e+00 1.056852e+00 3.788483e+00 2.022112e+00 4.624621e-01 1.156670e+00 5.440510e-01 5.142319e-01 5.757197e-01 2.827230e-01 6.844545e-01 2.795075e-01 5.015439e-01 7.307383e-01 2.114056e-01 1.534141e+00
<GCONST> 1.203410e+02
<TRANSP> 5
 0.000000e+00 1.000000e+00 0.000000e+00 0.000000e+00 0.000000e+00
 0.000000e+00 6.838748e-01 3.161251e-01 0.000000e+00 0.000000e+00
 0.000000e+00 0.000000e+00 7.722392e-01 2.277608e-01 0.000000e+00
 0.000000e+00 0.000000e+00 0.000000e+00 8.550984e-01 1.449016e-01
 0.000000e+00 0.000000e+00 0.000000e+00 0.000000e+00 0.000000e+00
<ENDHMM>
~h "ce"
<BEGINHMM>
<NUMSTATES> 5
<STATE> 2
<MEAN> 39
 -1.414439e+01 -7.743544e+00 2.981896e+00 -3.338959e+00 -1.236701e+00 -4.557664e+00 -2.877691e+00 -5.862136e+00 -3.202762e+00 -3.443379e+00 -1.721877e+00 -6.371274e+00 5.579076e+01 6.232359e-03 -1.184804e-02 5.264054e-03 -6.519258e-03 1.211933e-02 -4.235122e-03 -3.513063e-03 -1.805109e-02 -5.453553e-03 -6.036517e-03 -7.011238e-03 -6.053182e-03 2.423620e-02 -9.010879e-04 1.120917e-04 9.610619e-04 -2.967312e-04 -9.533982e-04 -8.676147e-04 1.872286e-03 1.397449e-03 1.512503e-03 6.096156e-04 -1.876927e-03 -2.391097e-03 8.105883e-05
<VARIANCE> 39
 8.422131e+01 6.084932e+01 1.073184e+02 6.955961e+01 5.446898e+01 7.079699e+01 4.003558e+01 5.404599e+01 3.966318e+01 3.654010e+01 3.580028e+01 3.070767e+01 4.210256e+02 2.718939e+00 2.774098e+00 2.577951e+00 3.647006e+00 2.640604e+00 2.721262e+00 2.408642e+00 3.156995e+00 2.811726e+00 2.666955e+00 2.489032e+00 1.730701e+00 5.594233e+00 4.269344e-01 4.867565e-01 4.137163e-01 6.318190e-01 4.706055e-01 4.998690e-01 4.513081e-01 5.820021e-01 5.208251e-01 5.037160e-01 4.586603e-01 3.360357e-01 8.262613e-01
<GCONST> 1.297615e+02
<STATE> 3
<MEAN> 39
 -1.414439e+01 -7.743544e+00 2.981896e+00 -3.338959e+00 -1.236701e+00 -4.557664e+00 -2.877691e+00 -5.862136e+00 -3.202762e+00 -3.443379e+00 -1.721877e+00 -6.371274e+00 5.579076e+01 6.232359e-03 -1.184804e-02 5.264054e-03 -6.519258e-03 1.211933e-02 -4.235122e-03 -3.513063e-03 -1.805109e-02 -5.453553e-03 -6.036517e-03 -7.011238e-03 -6.053182e-03 2.423620e-02 -9.010879e-04 1.120917e-04 9.610619e-04 -2.967312e-04 -9.533982e-04 -8.676147e-04 1.872286e-03 1.397449e-03 1.512503e-03 6.096156e-04 -1.876927e-03 -2.391097e-03 8.105883e-05
<VARIANCE> 39
 8.422131e+01 6.084932e+01 1.073184e+02 6.955961e+01 5.446898e+01 7.079699e+01 4.003558e+01 5.404599e+01 3.966318e+01 3.654010e+01 3.580028e+01 3.070767e+01 4.210256e+02 2.718939e+00 2.774098e+00 2.577951e+00 3.647006e+00 2.640604e+00 2.721262e+00 2.408642e+00 3.156995e+00 2.811726e+00 2.666955e+00 2.489032e+00 1.730701e+00 5.594233e+00 4.269344e-01 4.867565e-01 4.137163e-01 6.318190e-01 4.706055e-01 4.998690e-01 4.513081e-01 5.820021e-01 5.208251e-01 5.037160e-01 4.586603e-01 3.360357e-01 8.262613e-01
<GCONST> 1.297615e+02
<STATE> 4
<MEAN> 39
 -1.414439e+01 -7.743544e+00 2.981896e+00 -3.338959e+00 -1.236701e+00 -4.557664e+00 -2.877691e+00 -5.862136e+00 -3.202762e+00 -3.443379e+00 -1.721877e+00 -6.371274e+00 5.579076e+01 6.232359e-03 -1.184804e-02 5.264054e-03 -6.519258e-03 1.211933e-02 -4.235122e-03 -3.513063e-03 -1.805109e-02 -5.453553e-03 -6.036517e-03 -7.011238e-03 -6.053182e-03 2.423620e-02 -9.010879e-04 1.120917e-04 9.610619e-04 -2.967312e-04 -9.533982e-04 -8.676147e-04 1.872286e-03 1.397449e-03 1.512503e-03 6.096156e-04 -1.876927e-03 -2.391097e-03 8.105883e-05
<VARIANCE> 39
 8.422131e+01 6.084932e+01 1.073184e+02 6.955961e+01 5.446898e+01 7.079699e+01 4.003558e+01 5.404599e+01 3.966318e+01 3.654010e+01 3.580028e+01 3.070767e+01 4.210256e+02 2.718939e+00 2.774098e+00 2.577951e+00 3.647006e+00 2.640604e+00 2.721262e+00 2.408642e+00 3.156995e+00 2.811726e+00 2.666955e+00 2.489032e+00 1.730701e+00 5.594233e+00 4.269344e-01 4.867565e-01 4.137163e-01 6.318190e-01 4.706055e-01 4.998690e-01 4.513081e-01 5.820021e-01 5.208251e-01 5.037160e-01 4.586603e-01 3.360357e-01 8.262613e-01
<GCONST> 1.297615e+02
<TRANSP> 5
 0.000000e+00 1.000000e+00 0.000000e+00 0.000000e+00 0.000000e+00
 0.000000e+00 6.000000e-01 4.000000e-01 0.000000e+00 0.000000e+00
