~o
<STREAMINFO> 1 39
<VECSIZE> 39<NULLD><MFCC_D_A_0><DIAGC>
~s "silst"
<MEAN> 39
 -2.592445e+01 1.646366e+00 -1.013688e+01 4.033383e+00 -7.044711e+00 5.191933e+00 -3.638117e+00 1.136450e+00 5.500993e-01 -9.657013e-01 1.098431e+00 -4.631076e-01 2.294571e+01 7.780688e-04 -7.323483e-04 -5.786183e-03 -4.022020e-03 1.846515e-02 3.165221e-02 -6.588308e-03 -1.732403e-02 -1.136541e-02 -7.753137e-03 -9.376471e-03 -6.565362e-03 -2.082311e-03 9.330638e-03 -4.754771e-03 1.694159e-02 -1.559276e-03 -1.867170e-03 -1.654891e-02 6.243014e-03 5.802304e-03 -2.808059e-03 -3.620168e-03 -1.570139e-02 -1.520003e-02 1.919789e-02
<VARIANCE> 39
 9.742178e-01 2.334742e+00 2.603431e+00 3.499818e+00 6.033429e+00 7.430765e+00 8.454788e+00 1.005798e+01 9.136667e+00 8.141000e+00 8.920259e+00 7.923609e+00 4.212197e+00 7.419180e-02 1.614573e-01 2.558366e-01 3.639079e-01 7.229269e-01 8.271509e-01 1.250743e+00 1.415887e+00 1.019126e+00 8.576592e-01 9.718224e-01 8.949612e-01 5.594233e-02 2.054751e-02 3.468696e-02 5.604598e-02 7.715976e-02 1.488500e-01 1.659136e-01 2.955771e-01 3.292120e-01 2.129747e-01 1.721407e-01 2.020529e-01 1.848898e-01 2.368231e-02
<GCONST> 5.400382e+01
~h "a"
<BEGINHMM>
<NUMSTATES> 5
<STATE> 2
<MEAN> 39
 -8.130421e+00 -1.378491e+01 9.398549e+00 -1.173660e+01 2.813011e-02 -8.057749e+00 -1.718623e+00 -5.687891e+00 -5.629259e+00 -1.656905e+00 -1.716699e+00 -7.874270e+00 7.284177e+01 1.455423e-01 -8.572488e-01 -2.234496e-01 -1.070105e-01 2.871896e-01 -4.206369e-01 3.226294e-01 6.537354e-01 2.992856e-01 -4.402229e-01 -7.574688e-01 -5.937450e-02 7.912339e-01 -1.386294e-02 1.442091e-01 -3.851662e-02 1.596056e-01 3.359529e-02 4.885782e-02 -2.665061e-02 -1.184174e-01 4.273991e-02 -1.163055e-01 -2.963381e-02 -2.134326e-02 -1.693197e-01
<VARIANCE> 39
 2.509664e+01 3.144062e+01 9.693462e+01 3.941750e+01 5.164747e+01 7.514908e+01 4.068178e+01 4.334878e+01 3.439454e+01 3.899559e+01 3.564617e+01 2.150582e+01 7.666686e+01 1.740288e+00 2.246764e+00 2.422544e+00 3.069247e+00 2.484835e+00 2.773591e+00 2.047116e+00 2.652561e+00 1.447369e+00 2.614599e+00 1.995071e+00 1.551139e+00 4.522103e+00 2.538536e-01 3.539564e-01 3.242465e-01 4.893523e-01 4.841633e-01 4.648848e-01 3.425809e-01 4.533691e-01 2.972678e-01 4.285981e-01 3.400503e-01 2.589972e-01 5.411744e-01
<GCONST> 1.187716e+02
<STATE> 3
<MEAN> 39
 -7.331064e+00 -1.748486e+01 7.644429e+00 -1.126642e+01 1.810199e+00 -1.055691e+01 -9.589134e-01 -3.227191e+00 -4.335533e+00 -5.007006e+00 -6.968017e+00 -7.947458e+00 7.517603e+01 4.089482e-01 -4.580974e-01 -7.630777e-02 2.096730e-01 4.310891e-01 -2.591093e-01 2.374806e-01 2.957739e-01 2.145853e-01 -5.256789e-01 -7.618580e-01 7.585470e-02 6.560427e-01 -1.042455e-01 4.925789e-01 4.880267e-02 2.509316e-01 -1.228214e-01 1.740360e-01 -9.118314e-02 -2.983126e-01 -2.147118e-02 2.021462e-01 2.753279e-01 6.794187e-02 -4.993397e-01
<VARIANCE> 39
 1.252675e+01 2.141024e+01 4.674202e+01 2.781634e+01 4.655198e+01 4.567272e+01 4.653488e+01 4.084282e+01 2.437034e+01 3.878016e+01 3.975854e+01 2.371097e+01 4.326113e+01 1.864297e+00 2.632095e+00 2.977242e+00 2.322720e+00 3.098976e+00 2.149181e+00 1.804730e+00 2.004853e+00 1.573319e+00 2.081134e+00 2.157635e+00 1.525701e+00 5.675730e+00 2.415954e-01 3.314539e-01 2.733700e-01 3.606184e-01 3.165048e-01 3.295625e-01 3.432443e-01 4.379963e-01 2.357502e-01 3.871201e-01 3.391429e-01 3.176393e-01 4.440131e-01
<GCONST> 1.135078e+02
<STATE> 4
<MEAN> 39
 -8.385384e+00 -1.424694e+01 5.628385e+00 -6.697637e+00 4.743835e+00 -8.893353e+00 1.435362e+00 -5.041966e+00 -3.005928e+00 -7.319202e+00 -6.986248e+00 -7.624597e+00 7.110791e+01 -1.980158e-01 6.965156e-01 2.261735e-04 6.413759e-01 -1.052117e-01 1.155375e-01 -1.446801e-01 -1.882943e-01 1.279307e-01 7.776801e-02 1.482973e-01 1.374988e-01 -9.253041e-01 -9.402782e-02 1.982093e-01 5.397062e-02 1.369611e-01 -9.207940e-02 9.181926e-02 -7.177281e-02 -9.454409e-02 1.978252e-02 4.674800e-02 1.160063e-01 3.948491e-04 -3.017870e-01
<VARIANCE> 39
 2.133221e+01 3.855339e+01 5.290164e+01 5.910073e+01 5.526740e+01 4.760212e+01 4.472078e+01 3.829111e+01 2.236535e+01 4.648671e+01 3.392934e+01 2.165513e+01 8.333588e+01 8.759946e-01 2.460418e+00 2.103751e+00 2.970596e+00 2.350908e+00 2.085038e+00 1.978648e+00 2.103563e+00 1.588137e+00 2.179477e+00 1.808143e+00 1.572741e+00 3.161391e+00 1.644836e-01 3.900286e-01 2.533561e-01 5.513813e-01 3.109711e-01 3.381090e-01 3.124380e-01 3.969130e-01 2.661668e-01 4.093251e-01 3.081841e-01 2.648002e-01 4.020763e-01
<GCONST> 1.140923e+02
<TRANSP> 5
 0.000000e+00 1.000000e+00 0.000000e+00 0.000000e+00 0.000000e+00
 0.000000e+00 6.869020e-01 3.130980e-01 0.000000e+00 0.000000e+00
 0.000000e+00 0.000000e+00 5.461978e-01 4.538022e-01 0.000000e+00
 0.000000e+00 0.000000e+00 0.000000e+00 8.115517e-01 1.884483e-01
 0.000000e+00 0.000000e+00 0.000000e+00 0.000000e+00 0.000000e+00
<ENDHMM>
~h "b"
<BEGINHMM>
<NUMSTATES> 5
<STATE> 2
<MEAN> 39
 -1.414439e+01 -7.743544e+00 2.981896e+00 -3.338959e+00 -1.236701e+00 -4.557664e+00 -2.877691e+00 -5.862136e+00 -3.202762e+00 -3.443379e+00 -1.721877e+00 -6.371274e+00 5.579076e+01 6.232359e-03 -1.184804e-02 5.264054e-03 -6.519258e-03 1.211933e-02 -4.235122e-03 -3.513063e-03 -1.805109e-02 -5.453553e-03 -6.036517e-03 -7.011238e-03 -6.053182e-03 2.423620e-02 -9.010879e-04 1.120917e-04 9.610619e-04 -2.967312e-04 -9.533982e-04 -8.676147e-04 1.872286e-03 1.397449e-03 1.512503e-03 6.096156e-04 -1.876927e-03 -2.391097e-03 8.105883e-05
<VARIANCE> 39
 8.422131e+01 6.084932e+01 1.073184e+02 6.955961e+01 5.446898e+01 7.079699e+01 4.003558e+01 5.404599e+01 3.966318e+01 3.654010e+01 3.580028e+01 3.070767e+01 4.210256e+02 2.718939e+00 2.774098e+00 2.577951e+00 3.647006e+00 2.640604e+00 2.721262e+00 2.408642e+00 3.156995e+00 2.811726e+00 2.666955e+00 2.489032e+00 1.730701e+00 5.594233e+00 4.269344e-01 4.867565e-01 4.137163e-01 6.318190e-01 4.706055e-01 4.998690e-01 4.513081e-01 5.820021e-01 5.208251e-01 5.037160e-01 4.586603e-01 3.360357e-01 8.262613e-01
<GCONST> 1.297615e+02
<STATE> 3
<MEAN> 39
 -1.414439e+01 -7.743544e+00 2.981896e+00 -3.338959e+00 -1.236701e+00 -4.557664e+00 -2.877691e+00 -5.862136e+00 -3.202762e+00 -3.443379e+00 -1.721877e+00 -6.371274e+00 5.579076e+01 6.232359e-03 -1.184804e-02 5.264054e-03 -6.519258e-03 1.211933e-02 -4.235122e-03 -3.513063e-03 -1.805109e-02 -5.453553e-03 -6.036517e-03 -7.011238e-03 -6.053182e-03 2.423620e-02 -9.010879e-04 1.120917e-04 9.610619e-04 -2.967312e-04 -9.533982e-04 -8.676147e-04 1.872286e-03 1.397449e-03 1.512503e-03 6.096156e-04 -1.876927e-03 -2.391097e-03 8.105883e-05
<VARIANCE> 39
 8.422131e+01 6.084932e+01 1.073184e+02 6.955961e+01 5.446898e+01 7.079699e+01 4.003558e+01 5.404599e+01 3.966318e+01 3.654010e+01 3.580028e+01 3.070767e+01 4.210256e+02 2.718939e+00 2.774098e+00 2.577951e+00 3.647006e+00 2.640604e+00 2.721262e+00 2.408642e+00 3.156995e+00 2.811726e+00 2.666955e+00 2.489032e+00 1.730701e+00 5.594233e+00 4.269344e-01 4.867565e-01 4.137163e-01 6.318190e-01 4.706055e-01 4.998690e-01 4.513081e-01 5.820021e-01 5.208251e-01 5.037160e-01 4.586603e-01 3.360357e-01 8.262613e-01
<GCONST> 1.297615e+02
<STATE> 4
<MEAN> 39
 -1.414439e+01 -7.743544e+00 2.981896e+00 -3.338959e+00 -1.236701e+00 -4.557664e+00 -2.877691e+00 -5.862136e+00 -3.202762e+00 -3.443379e+00 -1.721877e+00 -6.371274e+00 5.579076e+01 6.232359e-03 -1.184804e-02 5.264054e-03 -6.519258e-03 1.211933e-02 -4.235122e-03 -3.513063e-03 -1.805109e-02 -5.453553e-03 -6.036517e-03 -7.011238e-03 -6.053182e-03 2.423620e-02 -9.010879e-04 1.120917e-04 9.610619e-04 -2.967312e-04 -9.533982e-04 -8.676147e-04 1.872286e-03 1.397449e-03 1.512503e-03 6.096156e-04 -1.876927e-03 -2.391097e-03 8.105883e-05
<VARIANCE> 39
 8.422131e+01 6.084932e+01 1.073184e+02 6.955961e+01 5.446898e+01 7.079699e+01 4.003558e+01 5.404599e+01 3.966318e+01 3.654010e+01 3.580028e+01 3.070767e+01 4.210256e+02 2.718939e+00 2.774098e+00 2.577951e+00 3.647006e+00 2.640604e+00 2.721262e+00 2.408642e+00 3.156995e+00 2.811726e+00 2.666955e+00 2.489032e+00 1.730701e+00 5.594233e+00 4.269344e-01 4.867565e-01 4.137163e-01 6.318190e-01 4.706055e-01 4.998690e-01 4.513081e-01 5.820021e-01 5.208251e-01 5.037160e-01 4.586603e-01 3.360357e-01 8.262613e-01
<GCONST> 1.297615e+02
<TRANSP> 5
 0.000000e+00 1.000000e+00 0.000000e+00 0.000000e+00 0.000000e+00
 0.000000e+00 6.000000e-01 4.000000e-01 0.000000e+00 0.000000e+00
 0.000000e+00 0.000000e+00 6.000000e-01 4.000000e-01 0.000000e+00
 0.000000e+00 0.000000e+00 0.000000e+00 7.000000e-01 3.000000e-01
 0.000000e+00 0.000000e+00 0.000000e+00 0.000000e+00 0.000000e+00
<ENDHMM>
~h "e"
<BEGINHMM>
<NUMSTATES> 5
<STATE> 2
<MEAN> 39
 -1.856595e+01 -3.192611e+00 -7.417159e-01 3.836152e+00 -3.620543e+00 -1.903355e+00 -6.592035e-02 -6.572478e+00 -9.434636e-01 -3.304279e+00 -6.125503e-01 -3.793851e+00 4.363625e+01 -2.575201e-01 2.064383e-01 -2.782659e-01 -5.681705e-01 1.204309e-01 -4.138798e-01 8.101588e-02 1.760152e-01 1.279155e-01 9.924054e-01 -5.546992e-02 2.459082e-01 -5.127990e-01 3.344910e-01 -6.521834e-01 2.355512e-01 -9.249527e-01 2.983761e-01 -7.928821e-01 -1.272672e-01 -1.501511e-01 -1.884144e-01 4.295700e-02 -1.225532e-01 -1.543622e-01 1.334307e+00
<VARIANCE> 39
 9.927838e+01 2.876336e+01 8.140280e+01 2.717230e+01 3.570930e+01 6.601205e+01 4.364967e+01 7.998731e+01 1.240016e+01 4.937093e+01 2.424099e+01 2.424476e+01 3.187393e+02 3.755282e+00 3.623463e+00 2.507962e+00 6.024048e+00 4.540875e+00 7.992919e+00 1.677238e+00 3.346631e+00 8.662970e-01 3.463442e+00 3.420557e+00 8.763976e-01 1.484974e+01 7.593839e-01 7.066641e-01 4.725200e-01 6.401376e-01 8.136302e-01 1.316998e+00 4.206949e-01 6.462540e-01 1.267072e-01 5.912812e-01 4.263261e-01 1.911485e-01 1.946669e+00
<GCONST> 1.298700e+02
<STATE> 3
<MEAN> 39
 -1.135148e+01 -9.215209e+00 5.758258e+00 -2.562587e+00 -5.136229e-01 -1.312204e+01 -7.512022e-01 -9.717894e+00 -2.766117e+00 2.074322e+00 -3.836162e+00 -6.308845e+00 6.051320e+01 9.276026e-01 -1.350725e+00 1.645376e+00 -2.375798e+00 1.679166e+00 -1.211569e+00 -4.279371e-01 -1.630818e-01 -3.151504e-01 6.296005e-01 2.151440e-02 -5.138439e-01 3.924552e+00 -2.474933e-01 -1.022143e-01 4.262315e-02 -2.728286e-02 5.448644e-02 9.782045e-01 4.911526e-02 1.524479e-01 2.108850e-03 -7.021567e-01 8.910769e-02 9.675130e-02 -7.784495e-02
<VARIANCE> 39
 4.554509e+01 2.912537e+01 9.319796e+01 6.648273e+01 2.785979e+01 5.593009e+01 4.685281e+01 3.330808e+01 1.391172e+01 3.866450e+01 2.807119e+01 1.980099e+01 1.324014e+02 6.557546e+00 4.522938e+00 2.209200e+00 6.644941e+00 3.458675e+00 8.809776e+00 3.861024e+00 5.146041e+00 1.417288e+00 6.967528e+00 3.454534e+00 1.850299e+00 7.328111e+00 6.395272e-01 1.125784e+00 5.769515e-01 1.082808e+00 5.859286e-01 1.179403e+00 5.328484e-01 3.551622e-01 2.801679e-01 1.121501e+00 6.691285e-01 3.173420e-01 1.898491e+00
<GCONST> 1.335167e+02
<STATE> 4
<MEAN> 39
 -1.045180e+01 -7.793615e+00 1.749008e+01 -1.083014e+01 -3.501002e+00 -6.459277e+00 1.187151e+00 -1.319353e+01 -3.438151e+00 3.222744e+00 -4.500737e+00 -8.328059e+00 7.156771e+01 -3.391378e-02 -2.864622e-01 -1.899356e-01 -3.850853e-02 2.311795e-01 2.756585e-01 -1.043324e-01 2.209184e-01 8.632962e-02 -2.077888e-01 -8.213588e-03 1.062683e-01 1.228970e-01 -2.175222e-02 1.989215e-02 -1.605055e-01 1.065216e-01 -5.443372e-03 7.833797e-02 2.924276e-02 2.589793e-02 4.663958e-03 -1.178540e-01 -2.327070e-02 -2.399809e-02 -8.833396e-02
<VARIANCE> 39
 2.318822e+01 3.967188e+01 4.448742e+01 9.234930e+01 3.731114e+01 6.207589e+01 6.403204e+01 3.154801e+01 1.418053e+01 4.399553e+01 1.815205e+01 8.273478e+00 7.140581e+01 2.652368e-01 9.795418e-01 1.309660e+00 1.392630e+00 7.065601e-01 2.236669e+00 1.091236e+00 9.332988e-01 6.082285e-01 1.174451e+00 9.023221e-01 4.991617e-01 1.680064e+00 7.384114e-02 1.906836e-01 1.771589e-01 2.966951e-01 1.733743e-01 3.803849e-01 1.396132e-01 1.642913e-01 8.518532e-02 2.030611e-01 1.807266e-01 8.556326e-02 2.801205e-01
<GCONST> 9.380930e+01
<TRANSP> 5
 0.000000e+00 1.000000e+00 0.000000e+00 0.000000e+00 0.000000e+00
 0.000000e+00 6.091613e-01 3.908387e-01 0.000000e+00 0.000000e+00
 0.000000e+00 0.000000e+00 5.693148e-01 4.306852e-01 0.000000e+00
 0.000000e+00 0.000000e+00 0.000000e+00 9.078293e-01 9.217069e-02
 0.000000e+00 0.000000e+00 0.000000e+00 0.000000e+00 0.000000e+00
<ENDHMM>
~h "h"
<BEGINHMM>
<NUMSTATES> 5
<STATE> 2
<MEAN> 39
 -9.921125e+00 -8.774510e+00 6.725414e+00 -4.908383e+00 3.994566e+00 -7.203793e+00 -3.322691e-01 -9.837332e+00 -2.217450e+00 -8.057827e+00 -4.293290e+00 -8.471616e+00 6.923405e+01 -6.813155e-01 7.908859e-01 -3.642220e-01 8.707011e-01 7.780617e-01 8.616109e-01 6.577710e-01 -4.968534e-01 6.681510e-01 -4.453734e-01 -9.660509e-02 -4.934269e-01 -1.195076e+00 -1.596175e-01 -5.330387e-02 -6.726916e-02 -7.541458e-02 -1.678240e-01 -6.153782e-02 -5.135778e-02 1.427030e-01 -3.314767e-02 3.141022e-01 1.460929e-01 1.733904e-01 -1.981962e-01
<VARIANCE> 39
 4.487711e+01 4.669620e+01 4.603735e+01 4.193842e+01 3.522687e+01 6.044178e+01 3.248570e+01 4.494821e+01 4.257501e+01 4.672112e+01 4.269261e+01 2.139562e+01 7.421118e+01 3.615720e+00 4.769461e+00 2.725333e+00 5.160759e+00 2.320612e+00 3.200557e+00 2.657732e+00 3.819756e+00 3.043904e+00 3.519699e+00 3.788269e+00 2.205408e+00 4.606749e+00 4.884393e-01 7.406703e-01 3.032791e-01 9.934456e-01 3.720173e-01 5.067330e-01 4.176251e-01 7.436202e-01 8.611220e-01 6.868847e-01 5.797938e-01 3.605039e-01 5.540580e-01
<GCONST> 1.286604e+02
<STATE> 3
<MEAN> 39
 -1.157562e+01 -8.360907e+00 6.514388e+00 -3.522744e+00 5.333264e+00 -6.454160e+00 1.505252e+00 -9.115396e+00 -9.882214e-01 -7.955407e+00 -4.646158e+00 -9.265832e+00 6.740406e+01 -7.851195e-01 6.583824e-01 -5.707185e-01 5.831616e-01 4.914042e-02 5.527228e-01 2.042811e-01 -1.004538e-01 4.756646e-01 3.943139e-01 1.382995e-01 2.355997e-01 -1.737622e+00 -4.578811e-02 -1.774051e-01 -6.278757e-02 -1.573305e-01 -2.967310e-01 -1.803272e-01 -2.953062e-01 1.831576e-02 -1.022659e-01 1.943775e-01 2.284149e-01 2.629436e-01 -9.120244e-02
<VARIANCE> 39
 5.381318e+01 3.532493e+01 5.329709e+01 4.775769e+01 3.165275e+01 6.034694e+01 3.351230e+01 3.743853e+01 5.391599e+01 5.192226e+01 3.792588e+01 1.988562e+01 8.248869e+01 3.842995e+00 2.943145e+00 2.728515e+00 4.156321e+00 2.753439e+00 3.080403e+00 2.511431e+00 4.101366e+00 3.019294e+00 2.348091e+00 3.874082e+00 2.035014e+00 3.769912e+00 3.378706e-01 6.260445e-01 4.861435e-01 7.728646e-01 3.772267e-01 4.803652e-01 3.663928e-01 4.543443e-01 7.882068e-01 5.449484e-01 4.608392e-01 4.071452e-01 5.545772e-01
<GCONST> 1.262678e+02
<STATE> 4
<MEAN> 39
 -1.851045e+01 -5.416663e+00 -1.783768e+00 -1.679189e+00 -8.825438e-01 -6.265361e-01 -1.163461e+00 -7.241572e+00 -2.085208e+00 -5.458759e+00 -2.627364e+00 -5.625509e+00 4.658984e+01 -2.899012e-01 2.776196e-01 -4.308759e-01 2.478040e-01 -3.508252e-01 1.044263e-01 -1.927067e-01 3.501925e-01 1.033281e-01 2.563581e-01 2.068279e-01 2.138409e-01 -1.117329e+00 -5.589802e-03 -6.051071e-02 3.811123e-02 -1.617876e-02 -3.748340e-02 -7.255130e-02 -4.640670e-02 -1.067328e-02 4.150509e-03 -3.664219e-02 4.244258e-02 -1.923399e-03 9.559901e-02
<VARIANCE> 39
 3.523551e+01 2.450653e+01 8.539660e+01 3.186897e+01 3.194163e+01 4.017430e+01 2.404973e+01 4.164248e+01 2.482186e+01 2.905632e+01 2.389586e+01 2.077063e+01 2.205121e+02 1.698321e+00 1.784132e+00 1.369165e+00 2.051494e+00 1.793344e+00 2.670718e+00 1.750806e+00 2.269923e+00 2.612194e+00 2.400850e+00 2.302822e+00 2.030340e+00 4.458063e+00 3.330800e-01 3.971296e-01 2.977750e-01 4.234724e-01 3.766930e-01 4.993944e-01 3.432692e-01 4.581856e-01 5.156389e-01 4.678926e-01 4.900213e-01 4.618090e-01 9.908516e-01
<GCONST> 1.180274e+02
<TRANSP> 5
 0.000000e+00 1.000000e+00 0.000000e+00 0.000000e+00 0.000000e+00
 0.000000e+00 3.889141e-01 6.110859e-01 0.000000e+00 0.000000e+00
 0.000000e+00 0.000000e+00 3.610125e-01 6.389875e-01 0.000000e+00
 0.000000e+00 0.000000e+00 0.000000e+00 8.231918e-01 1.768082e-01
 0.000000e+00 0.000000e+00 0.000000e+00 0.000000e+00 0.000000e+00
<ENDHMM>
~h "i"
<BEGINHMM>
<NUMSTATES> 5
<STATE> 2
<MEAN> 39
 -1.418033e+01 -7.639837e+00 1.125478e+01 -6.370522e+00 -6.410757e+00 -5.863111e+00 -1.536714e+00 -4.975315e+00 -6.960552e+00 -2.147583e+00 1.297892e-01 -7.113841e+00 6.271862e+01 -3.773436e-01 3.904527e-01 6.700217e-01 -2.400390e-02 -6.617675e-01 7.229155e-02 1.043007e-01 -1.708097e-01 -2.796099e-01 9.446017e-02 4.704308e-01 3.839519e-02 -3.635306e-03 1.547232e-01 -1.332511e-01 2.429574e-01 -1.480706e-01 6.347377e-02 -8.227504e-02 3.251012e-02 -1.415999e-01 -1.406120e-01 1.569245e-02 -8.215278e-02 -1.127537e-01 2.841057e-01
<VARIANCE> 39
 3.641954e+01 5.021887e+01 1.464324e+02 4.785287e+01 4.893848e+01 5.103182e+01 2.402931e+01 8.226816e+01 2.501814e+01 2.032739e+01 2.574537e+01 1.739279e+01 3.447381e+02 9.035863e-01 1.824390e+00 2.011305e+00 1.646675e+00 1.807755e+00 2.162877e+00 1.596343e+00 2.144743e+00 1.621916e+00 2.310741e+00 1.548318e+00 9.328712e-01 2.311774e+00 2.257325e-01 3.841995e-01 8.707039e-01 6.152876e-01 3.987609e-01 4.238702e-01 3.185316e-01 6.002610e-01 3.556745e-01 4.020911e-01 3.146907e-01 2.617945e-01 1.214228e+00
<GCONST> 1.177045e+02
<STATE> 3
<MEAN> 39
 -1.582756e+01 -5.665879e+00 9.184792e+00 -3.885320e+00 -7.735261e+00 -4.220327e+00 -1.177310e+00 -5.304116e+00 -6.135902e+00 -1.867018e+00 1.299761e+00 -6.523458e+00 5.565882e+01 1.020164e-01 -4.932728e-01 1.367784e+00 -8.970361e-01 -5.211786e-01 -6.459736e-01 2.829985e-01 -5.693977e-01 -8.523688e-01 1.378088e-01 6.568663e-02 -3.472389e-01 1.427946e+00 3.424654e-01 -3.677868e-01 5.493993e-01 -2.589835e-01 5.191085e-02 -3.039117e-01 6.322096e-02 -1.960150e-01 -2.973413e-01 2.032963e-02 -2.936414e-01 -1.834217e-01 6.970201e-01
<VARIANCE> 39
 4.846800e+01 4.938771e+01 1.890483e+02 6.492967e+01 2.835235e+01 6.220980e+01 2.590726e+01 6.205848e+01 3.547749e+01 1.491699e+01 1.985110e+01 2.170626e+01 4.659016e+02 2.204691e+00 2.904266e+00 6.234502e+00 4.608649e+00 2.189803e+00 3.511950e+00 2.178231e+00 4.356468e+00 2.052255e+00 2.828466e+00 1.469294e+00 1.782928e+00 1.255877e+01 4.284194e-01 4.217109e-01 1.626704e+00 8.996418e-01 4.706339e-01 5.566918e-01 3.952745e-01 6.201265e-01 6.455262e-01 3.716686e-01 2.610984e-01 4.013660e-01 2.299527e+00
<GCONST> 1.300431e+02
<STATE> 4
<MEAN> 39
 -1.211275e+01 -9.998276e+00 1.734618e+01 -6.756616e+00 -8.894128e+00 -6.715304e+00 -1.207065e+00 -4.873722e+00 -9.642374e+00 8.598801e-02 1.657436e+00 -7.660412e+00 6.429006e+01 9.628206e-01 -5.818025e-01 1.539582e+00 -5.205001e-01 1.055764e-01 -7.014267e-01 7.564303e-02 -2.369857e-01 -5.000432e-01 1.374253e-02 -1.469060e-01 -3.441822e-01 2.012948e+00 1.133521e-02 1.115245e-01 -4.594114e-01 2.295902e-01 2.940261e-01 9.004122e-02 3.402446e-02 5.739826e-02 2.651062e-01 -1.578620e-01 -1.117184e-01 5.966122e-02 -3.304639e-01
<VARIANCE> 39
 3.589673e+01 3.753746e+01 9.502219e+01 6.810852e+01 3.814248e+01 4.247992e+01 2.330279e+01 5.084317e+01 4.126995e+01 2.041895e+01 2.372301e+01 1.989032e+01 1.904927e+02 3.425184e+00 4.561306e+00 1.401655e+01 8.380431e+00 3.590380e+00 2.886963e+00 1.900477e+00 3.848419e+00 4.370347e+00 2.482350e+00 1.978121e+00 1.851842e+00 1.931842e+01 4.390053e-01 6.367684e-01 1.304013e+00 9.804545e-01 5.530868e-01 5.516481e-01 3.993408e-01 6.490555e-01 6.178727e-01 4.558808e-01 3.544501e-01 3.019741e-01 1.536917e+00
<GCONST> 1.321175e+02
<TRANSP> 5
 0.000000e+00 1.000000e+00 0.000000e+00 0.000000e+00 0.000000e+00
 0.000000e+00 4.904374e-01 5.095626e-01 0.000000e+00 0.000000e+00
 0.000000e+00 0.000000e+00 1.806704e-01 8.193296e-01 0.000000e+00
 0.000000e+00 0.000000e+00 0.000000e+00 6.786009e-01 3.213991e-01
 0.000000e+00 0.000000e+00 0.000000e+00 0.000000e+00 0.000000e+00
<ENDHMM>
~h "k"
<BEGINHMM>
<NUMSTATES> 5
<STATE> 2
<MEAN> 39
 -1.439785e+01 -5.086669e+00 1.747494e-01 -3.667024e+00 -8.770493e-02 -7.250043e+00 -6.320577e+00 -7.808266e+00 -1.851627e+00 -3.413986e+00 -1.553310e+00 -5.936928e+00 5.292671e+01 -5.553061e-01 -9.124205e-02 1.726137e-01 5.774825e-01 3.038667e-01 -9.857444e-02 6.684196e-02 -2.409437e-03 1.027240e-01 -6.346778e-01 -2.617442e-01 -2.797179e-01 -2.736373e-01 1.321921e-01 -2.244876e-01 1.420095e-01 -2.230793e-01 7.442378e-02 -2.014977e-01 3.794404e-02 -1.238320e-01 -1.074788e-01 -3.309016e-02 1.747442e-01 -1.034994e-01 5.892228e-01
<VARIANCE> 39
 3.554653e+01 4.896045e+01 4.123391e+01 5.707892e+01 3.514847e+01 7.147234e+01 2.841591e+01 3.864983e+01 5.499697e+01 4.232851e+01 2.489044e+01 2.580209e+01 1.702937e+02 3.289296e+00 6.377208e+00 4.083082e+00 5.392381e+00 3.265310e+00 8.590452e+00 3.628187e+00 4.936911e+00 4.537100e+00 4.948299e+00 2.630435e+00 2.137120e+00 1.973475e+01 6.597395e-01 1.302885e+00 7.802103e-01 9.532363e-01 7.309768e-01 1.864635e+00 6.975549e-01 8.959019e-01 9.232498e-01 1.040342e+00 6.251141e-01 4.471302e-01 3.946961e+00
<GCONST> 1.407135e+02
<STATE> 3
<MEAN> 39
 -1.269897e+01 -7.457487e+00 3.453577e+00 -4.078946e+00 2.916507e+00 -9.814864e+00 -4.132289e+00 -8.718834e+00 -2.224933e+00 -6.078267e+00 -1.561727e+00 -9.318506e+00 6.146785e+01 4.181025e-01 3.077621e-01 2.067192e-01 -1.921072e-01 2.725519e-01 8.273253e-02 6.946052e-02 -2.522328e-01 -4.243517e-01 1.250831e-01 1.907036e-01 -1.038583e-01 2.452254e-01 1.694934e-01 -1.030372e-01 7.183179e-02 -3.175151e-01 -3.370346e-01 5.999449e-02 5.369826e-02 2.574446e-01 -6.016475e-02 3.109305e-01 8.795714e-02 2.644628e-01 -1.008163e-02
<VARIANCE> 39
 3.696361e+01 5.155822e+01 3.814928e+01 5.338545e+01 4.974307e+01 5.450583e+01 4.557531e+01 4.499924e+01 3.565443e+01 3.744373e+01 2.467919e+01 2.740548e+01 1.117862e+02 4.883467e+00 7.294789e+00 4.296650e+00 7.751933e+00 3.906800e+00 6.147954e+00 5.432731e+00 4.298485e+00 5.292212e+00 5.975859e+00 2.014507e+00 4.350402e+00 1.596005e+01 1.103259e+00 1.859363e+00 8.944485e-01 1.094595e+00 7.624780e-01 1.238164e+00 1.368240e+00 8.420414e-01 1.067129e+00 1.298760e+00 4.044929e-01 8.549343e-01 2.521085e+00
<GCONST> 1.435837e+02
<STATE> 4
<MEAN> 39
 -1.808874e+01 -1.899367e+00 -1.814782e+00 1.719304e+00 -3.348137e+00 -1.908685e+00 -4.667507e+00 -4.504545e+00 -3.060956e+00 -2.812209e+00 -7.109244e-01 -4.566146e+00 3.979715e+01 -5.143552e-02 -1.711833e-01 6.036643e-02 -2.742091e-01 -4.013832e-01 -7.933655e-02 1.879551e-01 2.006742e-01 7.972530e-02 2.298323e-01 1.534892e-01 2.263240e-01 -1.843163e-02 -7.520312e-03 -1.641175e-01 2.008272e-02 -2.281290e-01 -9.058826e-04 -3.526432e-02 7.502346e-02 -4.472325e-02 -6.644156e-02 -7.692304e-02 1.543416e-04 -1.576182e-02 3.353050e-01
<VARIANCE> 39
 4.744236e+01 3.653963e+01 5.339788e+01 4.432507e+01 2.853334e+01 6.926102e+01 3.157660e+01 4.318955e+01 3.523967e+01 2.223482e+01 2.083847e+01 2.214836e+01 2.305912e+02 3.801810e+00 3.722171e+00 4.995384e+00 3.548701e+00 3.422134e+00 6.676702e+00 3.765988e+00 5.200030e+00 5.158406e+00 3.121395e+00 2.395916e+00 1.972611e+00 1.488420e+01 5.779979e-01 7.582694e-01 6.731786e-01 8.649428e-01 5.618912e-01 1.576782e+00 7.037587e-01 1.147969e+00 9.783725e-01 6.867312e-01 5.439699e-01 4.322265e-01 2.602008e+00
<GCONST> 1.360220e+02
<TRANSP> 5
 0.000000e+00 1.000000e+00 0.000000e+00 0.000000e+00 0.000000e+00
 0.000000e+00 6.696351e-01 3.303649e-01 0.000000e+00 0.000000e+00
 0.000000e+00 0.000000e+00 6.119025e-01 3.880975e-01 0.000000e+00
 0.000000e+00 0.000000e+00 0.000000e+00 7.654220e-01 2.345780e-01
 0.000000e+00 0.000000e+00 0.000000e+00 0.000000e+00 0.000000e+00
<ENDHMM>
~h "l"
<BEGINHMM>
<NUMSTATES> 5
<STATE> 2
<MEAN> 39
 -3.552874e+00 -1.333093e+01 -3.448344e-01 -2.212219e+01 5.002171e+00 4.106822e+00 8.242726e-03 -1.592957e+01 -2.717846e+00 -5.596629e+00 -2.113307e+00 -9.263848e+00 7.454948e+01 2.941079e-02 9.066716e-03 1.393913e-01 -7.790117e-02 -2.500308e-01 -1.653960e-02 -3.010812e-01 1.175723e-01 -1.745817e-01 8.493103e-02 2.059303e-01 3.898608e-02 -1.673578e-02 -3.140368e-02 1.153415e-01 6.216118e-02 5.294915e-02 3.806339e-02 -1.065022e-01 -1.770705e-02 3.357087e-02 -4.215104e-02 -2.724508e-02 -4.701632e-02 3.117271e-02 -7.784633e-02
<VARIANCE> 39
 9.669689e+00 4.351225e+01 3.675737e+01 3.086292e+01 5.474606e+01 5.419152e+00 1.757119e+01 1.144176e+01 1.082615e+01 2.387522e+01 1.818281e+01 7.229996e+00 4.622946e+01 4.279721e-01 2.858168e+00 1.020806e+00 1.517002e+00 2.600470e+00 1.273255e+00 1.485658e+00 1.785645e+00 9.487289e-01 7.212889e-01 6.928982e-01 7.814835e-01 1.299570e+00 7.832437e-02 3.224581e-01 2.681382e-01 3.297228e-01 4.311411e-01 1.585248e-01 3.390783e-01 2.158583e-01 1.450668e-01 1.275038e-01 1.199143e-01 1.471986e-01 1.708839e-01
<GCONST> 9.090129e+01
<STATE> 3
<MEAN> 39
 -9.043877e+00 -6.817518e+00 1.522778e+01 -1.407206e+01 -5.538596e+00 3.326993e-01 -8.303528e+00 -1.663632e+01 -7.976665e+00 -5.189904e+00 -5.644916e-01 -1.118219e+01 7.163492e+01 -1.354770e-01 2.867060e-01 1.367852e-02 2.054371e-02 2.200130e-02 -5.926124e-01 -1.290348e-01 -2.243865e-01 -9.227733e-02 -1.402103e-01 -2.199487e-01 7.473111e-03 -4.225498e-01 -7.244876e-02 -8.688746e-03 -2.062632e-01 2.032888e-01 4.165503e-02 -8.352017e-02 1.892053e-01 -1.520213e-01 1.124946e-01 -2.233791e-02 -5.423791e-02 2.857125e-02 5.777515e-02
<VARIANCE> 39
 3.436699e+01 3.450651e+01 1.926695e+02 6.050630e+01 4.095944e+01 7.887959e+00 5.241782e+00 1.654044e+01 1.146473e+01 2.520743e+01 2.933341e+01 5.510340e+00 4.084330e+01 3.526231e-01 8.600696e-01 9.749470e-01 1.386143e+00 1.529118e+00 1.130495e+00 1.924303e+00 1.345195e+00 1.012129e+00 1.149780e+00 1.215068e+00 4.429116e-01 5.875035e-01 5.092437e-02 1.653606e-01 1.331736e-01 2.943322e-01 1.688796e-01 1.617994e-01 2.268300e-01 4.339171e-01 3.349284e-01 2.815854e-01 1.609621e-01 9.075563e-02 8.513436e-02
<GCONST> 8.944228e+01
<STATE> 4
<MEAN> 39
 -8.976447e+00 -8.754061e+00 1.646170e+00 -1.053746e+01 -2.783141e-01 -3.566278e+00 -7.133194e+00 -1.980478e+01 -8.475299e+00 -1.090929e+01 -4.786229e+00 -1.235972e+01 6.494630e+01 -6.243171e-01 1.352489e-01 -1.713083e-01 1.580899e+00 4.598492e-01 -7.622482e-01 -2.704642e-02 2.967741e-01 7.274593e-02 -1.154110e-01 6.062484e-01 1.218708e-02 -7.543052e-01 -5.439639e-03 -1.499869e-01 1.398161e-01 2.697966e-02 -5.570781e-02 -2.006917e-02 1.604328e-01 2.894759e-01 2.035256e-01 3.804144e-02 3.068791e-02 1.056218e-01 1.325759e-01
<VARIANCE> 39
 1.958550e+01 1.314254e+01 4.688452e+01 4.053889e+01 1.723232e+01 3.689568e+01 2.360774e+01 2.082232e+01 1.598094e+01 4.245851e+01 9.220168e+00 2.344186e+01 6.354272e+01 8.490879e-01 1.741065e+00 1.095313e+00 1.853922e+00 6.562014e-01 1.615166e+00 2.885924e+00 1.390095e+00 2.335016e+00 3.805808e+00 9.589086e-01 2.075308e+00 1.442708e+00 2.259548e-01 2.711431e-01 1.923435e-01 5.292259e-01 1.514805e-01 3.414315e-01 4.245626e-01 3.118452e-01 2.998629e-01 4.697630e-01 2.063495e-01 2.471292e-01 1.072322e-01
<GCONST> 1.020337e+02
<TRANSP> 5
 0.000000e+00 1.000000e+00 0.000000e+00 0.000000e+00 0.000000e+00
 0.000000e+00 8.795905e-01 1.204095e-01 0.000000e+00 0.000000e+00
 0.000000e+00 0.000000e+00 7.792865e-01 2.207135e-01 0.000000e+00
 0.000000e+00 0.000000e+00 0.000000e+00 7.377014e-01 2.622987e-01
 0.000000e+00 0.000000e+00 0.000000e+00 0.000000e+00 0.000000e+00
<ENDHMM>
~h "m"
<BEGINHMM>
<NUMSTATES> 5
<STATE> 2
<MEAN> 39
 -5.246891e+00 -1.134267e+01 6.997225e+00 -5.654955e+00 2.403623e+00 -3.352801e+00 -4.700225e+00 -8.565727e+00 -4.510240e+00 -2.191588e+00 -8.117318e-03 -9.111865e+00 6.850394e+01 2.158139e-01 2.284229e-01 7.646257e-01 4.268289e-01 2.256918e-01 6.856892e-01 -4.967537e-01 -9.419397e-01 -5.544285e-01 3.254662e-01 6.168841e-01 1.040588e-02 -2.207385e-01 -3.364872e-01 1.492600e-01 3.239423e-01 1.975001e-01 -1.548350e-01 -1.934100e-01 -7.433923e-02 -1.407759e-01 -6.036264e-02 -4.645878e-02 1.779656e-02 9.022856e-02 -2.106177e-01
<VARIANCE> 39
 2.105874e+01 4.306748e+01 4.168473e+01 7.607607e+01 2.984715e+01 4.237050e+01 3.599069e+01 4.795172e+01 2.787500e+01 2.474599e+01 3.291985e+01 2.009883e+01 6.692372e+01 2.513145e+00 3.831173e+00 4.827953e+00 6.943427e+00 2.898194e+00 3.602259e+00 3.004786e+00 5.045324e+00 3.094792e+00 2.052894e+00 4.485171e+00 2.185787e+00 7.695693e+00 5.020921e-01 6.326212e-01 7.464629e-01 1.133737e+00 4.800808e-01 4.707055e-01 4.388805e-01 8.240743e-01 5.088675e-01 4.280856e-01 6.747533e-01 3.199082e-01 8.867336e-01
<GCONST> 1.283981e+02
<STATE> 3
<MEAN> 39
 -5.273559e+00 -1.051627e+01 1.141688e+01 -5.191842e+00 1.988563e+00 -1.369744e+00 -8.376886e+00 -1.061259e+01 -8.187574e+00 -6.395494e-01 2.795042e+00 -9.368855e+00 6.953103e+01 -1.833012e-01 2.943543e-01 5.718768e-01 1.833243e-01 2.654903e-03 -1.683300e-01 -3.481558e-01 -1.466427e-01 -1.289462e-01 1.336055e-01 -1.118810e-01 3.834277e-02 -2.007908e-01 -4.492815e-02 1.850648e-02 -1.105059e-01 -3.578286e-02 -2.148450e-02 -1.064645e-01 1.140338e-01 1.130870e-01 1.607845e-01 -8.109418e-02 -2.088375e-01 5.044382e-02 -1.819219e-02
<VARIANCE> 39
 8.827920e+00 2.652618e+01 4.835907e+01 6.473331e+01 4.072268e+01 4.390054e+01 3.548503e+01 4.520238e+01 3.492385e+01 3.297192e+01 3.535350e+01 1.538499e+01 3.650492e+01 7.367343e-01 2.483330e+00 4.407082e+00 7.118906e+00 3.242318e+00 2.467594e+00 2.774047e+00 5.362542e+00 3.367875e+00 3.050559e+00 2.818958e+00 1.449324e+00 3.973504e+00 1.382758e-01 4.020716e-01 8.025215e-01 1.185230e+00 6.343800e-01 4.259539e-01 5.821818e-01 9.654636e-01 6.060086e-01 6.057059e-01 5.683525e-01 2.992191e-01 5.674554e-01
<GCONST> 1.227775e+02
<STATE> 4
<MEAN> 39
 -6.106099e+00 -7.926584e+00 1.111610e+01 -2.966805e+00 1.215436e+00 -4.929629e+00 -8.533503e+00 -1.272720e+01 -5.139137e+00 -2.433292e+00 -1.849624e+00 -8.554953e+00 6.603994e+01 -2.322484e-01 6.297798e-01 -7.927588e-02 3.677331e-01 -9.314825e-02 -2.740470e-01 3.403930e-01 -5.198174e-02 3.524694e-01 -2.314852e-01 -3.405097e-01 9.449557e-02 -5.568832e-01 -1.021245e-01 -6.522911e-03 -2.046276e-01 -1.103265e-01 5.548079e-02 -2.991566e-02 1.809537e-01 1.905572e-01 7.193510e-02 -1.347375e-01 2.233643e-02 -5.997976e-02 4.430192e-02
<VARIANCE> 39
 8.842812e+00 3.679617e+01 3.765363e+01 4.746433e+01 2.897959e+01 3.811277e+01 3.839736e+01 6.295033e+01 3.965083e+01 3.077360e+01 4.575518e+01 1.902104e+01 5.328437e+01 4.990398e-01 2.188030e+00 1.601593e+00 2.700803e+00 1.525438e+00 1.267036e+00 2.070570e+00 2.592566e+00 1.914127e+00 2.180773e+00 2.535505e+00 1.523208e+00 2.353232e+00 1.210855e-01 3.399053e-01 2.730187e-01 4.831659e-01 3.154945e-01 2.446587e-01 3.241413e-01 4.169566e-01 3.419023e-01 3.949137e-01 4.496143e-01 2.686011e-01 3.264501e-01
<GCONST> 1.101127e+02
<TRANSP> 5
 0.000000e+00 1.000000e+00 0.000000e+00 0.000000e+00 0.000000e+00
 0.000000e+00 6.572646e-01 3.427354e-01 0.000000e+00 0.000000e+00
 0.000000e+00 0.000000e+00 7.666522e-01 2.333478e-01 0.000000e+00
 0.000000e+00 0.000000e+00 0.000000e+00 8.534425e-01 1.465575e-01
 0.000000e+00 0.000000e+00 0.000000e+00 0.000000e+00 0.000000e+00
<ENDHMM>
~h "n"
<BEGINHMM>
<NUMSTATES> 5
<STATE> 2
<MEAN> 39
 -5.957342e+00 -1.098206e+01 1.025821e+01 -1.712601e+00 -1.105934e+00 -1.066408e+01 -4.223830e+00 -8.445405e+00 -5.440491e+00 -3.570056e+00 -1.016728e+01 -8.787924e+00 6.794035e+01 -8.051921e-02 1.113082e+00 3.787808e-01 8.843010e-01 -3.304032e-01 3.110455e-02 -2.371828e-01 -1.096658e+00 -7.087088e-02 7.918134e-02 -2.013728e-01 1.485953e-01 -1.316255e+00 -8.508299e-02 -1.985585e-02 -9.015233e-02 -1.103652e-01 -2.825474e-02 6.715260e-02 1.209567e-02 3.201530e-02 2.790936e-02 -1.202458e-01 2.133955e-01 5.092405e-02 1.756582e-02
<VARIANCE> 39
 8.002597e+00 3.818584e+01 3.580057e+01 4.241225e+01 5.000103e+01 3.271746e+01 3.465753e+01 5.408245e+01 3.331941e+01 4.327291e+01 4.108685e+01 1.621039e+01 5.976369e+01 5.326168e-01 2.015424e+00 2.230248e+00 2.846199e+00 2.283180e+00 1.825558e+00 1.237654e+00 3.036972e+00 1.691407e+00 3.194775e+00 2.546742e+00 1.402664e+00 2.240746e+00 8.619773e-02 3.360525e-01 2.972021e-01 4.197325e-01 3.299983e-01 2.910120e-01 2.150767e-01 5.424076e-01 3.138194e-01 5.618708e-01 3.932131e-01 2.402387e-01 3.683310e-01
<GCONST> 1.107554e+02
<STATE> 3
<MEAN> 39
 -8.509008e+00 -5.130508e+00 1.117325e+01 3.032872e+00 -2.158283e+00 -8.379853e+00 -4.798265e+00 -1.228516e+01 -3.447731e+00 -4.180285e+00 -7.431620e+00 -7.334307e+00 5.889573e+01 -5.389900e-01 6.645360e-01 -3.695809e-01 3.553517e-01 1.383336e-02 2.981586e-01 7.591316e-02 -3.181542e-01 1.811272e-01 -2.006862e-01 7.034931e-01 1.534041e-01 -1.044651e+00 -1.065374e-01 -2.169067e-01 -2.874097e-01 -2.971190e-01 2.907384e-01 8.481721e-02 1.497341e-01 3.843752e-01 -3.043178e-02 -1.484269e-01 8.613169e-02 -2.691314e-02 1.831821e-01
<VARIANCE> 39
 2.674235e+01 2.401455e+01 5.219481e+01 2.813092e+01 3.354849e+01 3.126830e+01 3.765250e+01 3.241533e+01 3.111629e+01 5.408418e+01 3.345375e+01 2.483662e+01 5.070234e+01 7.583529e-01 1.662339e+00 1.733444e+00 1.853742e+00 2.422254e+00 1.469355e+00 1.389024e+00 2.395051e+00 1.848795e+00 2.202378e+00 2.393392e+00 1.565019e+00 1.328613e+00 1.299846e-01 3.108514e-01 2.874317e-01 3.738458e-01 3.944494e-01 3.085564e-01 2.901371e-01 4.634981e-01 3.386993e-01 4.719718e-01 4.427858e-01 3.368430e-01 2.266124e-01
<GCONST> 1.096799e+02
<STATE> 4
<MEAN> 39
 -1.595407e+01 -3.560982e+00 1.423401e+00 3.477490e+00 -1.676730e+00 -3.709644e+00 -3.601080e+00 -7.251940e+00 -2.636755e+00 -5.315237e+00 -3.245731e+00 -5.586229e+00 4.577654e+01 -7.918639e-01 2.401586e-01 -9.282965e-01 -1.469999e-01 8.965203e-02 7.075278e-01 2.066014e-01 7.946087e-01 3.099931e-01 4.648855e-02 6.472309e-01 3.647887e-01 -1.215711e+00 -4.425924e-02 -2.035468e-01 -1.525090e-02 -3.143169e-01 2.666027e-02 -1.513969e-01 8.609405e-03 -1.037514e-02 -2.771629e-02 -3.362540e-02 -5.720627e-03 -3.489107e-02 2.764437e-01
<VARIANCE> 39
 5.029161e+01 3.109886e+01 7.931046e+01 2.872940e+01 3.023732e+01 4.830953e+01 3.048760e+01 4.908697e+01 2.865307e+01 3.377965e+01 2.656305e+01 2.239778e+01 1.897023e+02 1.556488e+00 2.468406e+00 2.216615e+00 3.105677e+00 2.812768e+00 3.538946e+00 2.481125e+00 3.415149e+00 2.815071e+00 3.219948e+00 2.218383e+00 2.107870e+00 5.604985e+00 3.299187e-01 5.938542e-01 3.941551e-01 6.331527e-01 4.960819e-01 6.981111e-01 4.111606e-01 6.902226e-01 4.593503e-01 5.465397e-01 4.115378e-01 4.173523e-01 1.183942e+00
<GCONST> 1.247379e+02
<TRANSP> 5
 0.000000e+00 1.000000e+00 0.000000e+00 0.000000e+00 0.000000e+00
 0.000000e+00 8.162037e-01 1.837963e-01 0.000000e+00 0.000000e+00
 0.000000e+00 0.000000e+00 6.957188e-01 3.042812e-01 0.000000e+00
 0.000000e+00 0.000000e+00 0.000000e+00 7.021566e-01 2.978434e-01
 0.000000e+00 0.000000e+00 0.000000e+00 0.000000e+00 0.000000e+00
<ENDHMM>
~h "o"
<BEGINHMM>
<NUMSTATES> 5
<STATE> 2
<MEAN> 39
 -1.972290e+01 -6.206292e+00 -2.470298e+00 1.292856e+00 -2.650497e+00 -2.780024e+00 -2.133526e+00 -4.083187e+00 -2.805398e+00 -4.897345e+00 -1.003151e+00 -3.139967e+00 4.188237e+01 -1.022485e-01 1.521521e-01 -3.611067e-01 -6.229952e-03 2.895897e-02 2.388899e-01 -1.554277e-01 1.246955e-01 4.222770e-02 1.220368e-03 1.537086e-01 2.059777e-01 -4.796855e-01 1.597789e-01 -1.702949e-01 6.821659e-02 -3.099400e-01 9.565337e-02 -3.724859e-02 5.041365e-03 -1.386323e-01 -5.603768e-02 -5.549553e-02 -2.264977e-02 -1.008100e-01 4.438128e-01
<VARIANCE> 39
 3.952548e+01 3.467518e+01 5.225175e+01 3.157011e+01 2.262406e+01 3.878998e+01 1.954083e+01 2.436404e+01 2.316001e+01 3.029749e+01 2.825624e+01 2.397840e+01 1.881360e+02 9.162791e-01 1.147035e+00 1.930424e+00 1.983069e+00 1.462419e+00 2.491901e+00 1.635793e+00 2.285216e+00 1.741087e+00 1.884241e+00 2.139636e+00 1.999559e+00 4.415823e+00 3.220210e-01 2.836333e-01 4.181369e-01 6.111629e-01 3.385704e-01 4.541422e-01 3.728857e-01 5.881384e-01 3.777961e-01 5.142161e-01 4.403664e-01 5.038147e-01 1.425339e+00
<GCONST> 1.157540e+02
<STATE> 3
<MEAN> 39
 -2.053169e+01 -1.679116e+00 -4.382598e+00 1.476196e+00 -4.062759e+00 9.923829e-01 -3.675571e+00 -1.660355e+00 -1.107626e+00 -1.376734e+00 5.910253e-01 -2.973501e+00 3.630846e+01 9.113330e-01 -8.548945e-01 -1.762086e-01 -1.538431e+00 5.019798e-01 -4.434131e-01 -1.362877e-01 -7.000037e-01 -4.223565e-01 -3.186663e-01 6.758098e-02 -3.247164e-01 1.878792e+00 8.039423e-01 -5.232221e-01 4.248459e-01 -8.350775e-01 4.914764e-01 -1.501417e-01 1.997308e-02 -4.592580e-01 -4.230556e-01 -1.721179e-01 -3.132189e-01 -4.316360e-01 1.602760e+00
<VARIANCE> 39
 7.634180e+01 3.608859e+01 9.645986e+01 4.546467e+01 2.468713e+01 5.349157e+01 1.509457e+01 3.084613e+01 2.870905e+01 1.624955e+01 1.656500e+01 1.981308e+01 3.761906e+02 3.498619e+00 2.456769e+00 2.845324e+00 3.625638e+00 4.062960e+00 2.786646e+00 1.473490e+00 2.674429e+00 2.201416e+00 2.148875e+00 2.072137e+00 2.192032e+00 1.206244e+01 6.600239e-01 3.710227e-01 5.888563e-01 1.042818e+00 4.453510e-01 3.587209e-01 5.311144e-01 4.574339e-01 3.927593e-01 5.231517e-01 4.327520e-01 3.980593e-01 1.493921e+00
<GCONST> 1.249398e+02
<STATE> 4
<MEAN> 39
 -1.031133e+01 -4.651180e+00 -1.233068e+00 -1.153163e+01 4.000532e+00 1.594578e+00 -1.938754e+00 -4.904070e+00 -6.618793e+00 -1.442763e+00 4.267646e-01 -4.378428e+00 5.280935e+01 5.254905e-01 -3.341198e-01 4.254569e-01 -5.265443e-01 3.864469e-01 -2.034914e-01 8.729294e-02 -5.115266e-01 -3.488432e-01 -3.007249e-01 -2.455122e-01 -3.151438e-01 1.213561e+00 -7.612777e-02 3.182952e-02 4.503915e-02 1.524582e-01 -4.478315e-02 -2.694833e-02 3.839992e-03 -1.197531e-02 2.210774e-03 -1.722175e-02 -5.714685e-02 -4.546620e-02 -8.988243e-02
<VARIANCE> 39
 7.580972e+01 3.274760e+01 4.966428e+01 1.438746e+02 7.294839e+01 2.745135e+01 1.982840e+01 2.199903e+01 4.389455e+01 2.355129e+01 1.921024e+01 1.297613e+01 2.837140e+02 6.661662e+00 3.793889e+00 2.830111e+00 1.103066e+01 4.795290e+00 1.860091e+00 1.639187e+00 2.155895e+00 3.543372e+00 2.806530e+00 1.946908e+00 1.851862e+00 2.051048e+01 6.186955e-01 4.310868e-01 3.940314e-01 1.124935e+00 5.301422e-01 3.148467e-01 3.034559e-01 2.629313e-01 4.904672e-01 4.585150e-01 3.722899e-01 2.523021e-01 1.729358e+00
<GCONST> 1.271146e+02
<TRANSP> 5
 0.000000e+00 1.000000e+00 0.000000e+00 0.000000e+00 0.000000e+00
 0.000000e+00 6.712545e-01 3.287455e-01 0.000000e+00 0.000000e+00
 0.000000e+00 0.000000e+00 2.793564e-01 7.206436e-01 0.000000e+00
 0.000000e+00 0.000000e+00 0.000000e+00 7.567679e-01 2.432321e-01
 0.000000e+00 0.000000e+00 0.000000e+00 0.000000e+00 0.000000e+00
<ENDHMM>
~h "p"
<BEGINHMM>
<NUMSTATES> 5
<STATE> 2
<MEAN> 39
 -9.677579e+00 -5.582142e+00 3.898468e+00 -9.995562e+00 1.332185e+00 -5.764183e+00 -1.713217e+00 -7.981371e+00 -4.994154e+00 -4.916580e+00 1.632311e-01 -6.491109e+00 6.209164e+01 -6.818091e-01 -8.311047e-02 3.818458e-01 1.717947e+00 -8.476820e-01 -3.651453e-01 3.002617e-01 3.385684e-02 8.142928e-01 -5.417981e-01 -1.743647e-02 -1.964493e-01 -9.990970e-01 -3.571470e-02 -1.021339e-01 4.608722e-02 -1.358584e-01 -1.027047e-01 -1.049638e-01 3.977971e-02 -1.527234e-01 -2.862839e-02 1.972748e-02 -3.388509e-03 1.168295e-01 9.326121e-02
<VARIANCE> 39
 4.435914e+01 5.773967e+01 2.361935e+01 7.183212e+01 1.911706e+01 3.086816e+01 4.005867e+01 3.153395e+01 5.614022e+01 3.152556e+01 2.333551e+01 3.058196e+01 1.033113e+02 5.725761e+00 6.092862e+00 3.184534e+00 7.589405e+00 3.033699e+00 3.481591e+00 3.061716e+00 4.010432e+00 6.097458e+00 3.874801e+00 2.255928e+00 3.646191e+00 1.374973e+01 1.283410e+00 8.865674e-01 6.539506e-01 1.753685e+00 7.243143e-01 5.678854e-01 7.705580e-01 8.341745e-01 1.037093e+00 8.700479e-01 4.742623e-01 8.398405e-01 2.091541e+00
<GCONST> 1.373137e+02
<STATE> 3
<MEAN> 39
 -9.607460e+00 -3.597608e+00 4.882965e+00 -7.839471e+00 -8.403239e-02 -4.765277e+00 -2.908305e+00 -7.495372e+00 -6.098055e+00 -3.641182e+00 -3.855681e-02 -6.334723e+00 5.934341e+01 -9.743513e-01 2.546959e-01 1.329924e-01 1.516080e+00 -8.500038e-01 -1.535007e-01 -1.863895e-01 -1.066094e+00 7.182829e-01 -5.584468e-01 3.383461e-01 1.527423e-01 -1.671963e+00 -1.152131e-01 -2.784228e-01 -5.805256e-02 -2.685896e-01 1.336143e-01 -3.704247e-01 7.934628e-02 -2.245753e-01 -4.071215e-02 -1.352340e-01 -3.629547e-02 1.857554e-02 3.199649e-01
<VARIANCE> 39
 3.758156e+01 3.410893e+01 5.349028e+01 1.146680e+02 3.288567e+01 3.449998e+01 4.918749e+01 3.588255e+01 5.440394e+01 2.134668e+01 2.293437e+01 1.737432e+01 1.519441e+02 4.334978e+00 4.227292e+00 3.909313e+00 1.170249e+01 3.329710e+00 3.138618e+00 2.021099e+00 3.839333e+00 5.354822e+00 3.375810e+00 2.187436e+00 1.972448e+00 1.410576e+01 8.483833e-01 6.558865e-01 8.712415e-01 1.983239e+00 9.984049e-01 6.493152e-01 7.370386e-01 7.642835e-01 1.057647e+00 5.841793e-01 5.125622e-01 3.679206e-01 2.191136e+00
<GCONST> 1.358515e+02
<STATE> 4
<MEAN> 39
 -1.414757e+01 -2.765388e+00 1.776779e-01 -4.498881e+00 -1.680332e+00 -5.144320e+00 -3.874139e+00 -8.465616e+00 -4.434731e+00 -5.330771e+00 1.155467e-01 -5.135180e+00 5.076822e+01 -1.518035e+00 -4.546324e-01 -4.237300e-01 6.823838e-01 -4.141455e-01 -6.840433e-01 2.858011e-01 -1.031195e-01 1.112975e+00 -5.011076e-01 1.467974e-01 -7.877854e-02 -1.055741e+00 8.374858e-02 -2.873112e-01 1.635358e-01 -5.026101e-01 3.674905e-01 -5.229854e-02 3.498011e-02 5.990525e-02 -8.106680e-02 5.275125e-02 3.300847e-02 -1.106158e-01 8.598650e-01
<VARIANCE> 39
 3.699300e+01 3.102091e+01 5.046572e+01 6.087544e+01 2.635433e+01 4.187669e+01 2.539908e+01 4.500611e+01 3.327420e+01 2.475096e+01 2.112598e+01 2.102748e+01 1.545085e+02 3.310627e+00 3.879190e+00 3.196320e+00 6.169036e+00 3.833760e+00 4.234992e+00 2.329434e+00 4.942555e+00 3.751561e+00 3.525034e+00 2.221920e+00 1.980463e+00 1.134924e+01 5.834004e-01 7.419366e-01 6.920642e-01 8.613970e-01 8.587566e-01 7.873936e-01 4.410313e-01 9.150231e-01 6.074288e-01 6.817448e-01 3.492994e-01 3.465829e-01 1.756244e+00
<GCONST> 1.308255e+02
<TRANSP> 5
 0.000000e+00 1.000000e+00 0.000000e+00 0.000000e+00 0.000000e+00
 0.000000e+00 6.219584e-01 3.780416e-01 0.000000e+00 0.000000e+00
 0.000000e+00 0.000000e+00 3.612242e-01 6.387758e-01 0.000000e+00
 0.000000e+00 0.000000e+00 0.000000e+00 7.815963e-01 2.184037e-01
 0.000000e+00 0.000000e+00 0.000000e+00 0.000000e+00 0.000000e+00
<ENDHMM>
~h "r"
<BEGINHMM>
<NUMSTATES> 5
<STATE> 2
<MEAN> 39
 -5.139396e+00 -1.438254e+01 2.618719e+00 -3.864823e+00 3.456588e+00 -1.139058e+01 -2.797025e+00 -1.037772e+01 -6.871524e-01 1.378481e+00 -3.403672e+00 -1.178601e+01 7.484775e+01 -8.534557e-01 9.510818e-01 -4.486006e-01 1.688963e+00 -8.993514e-02 -5.549030e-01 1.324244e+00 -1.066825e+00 1.280336e+00 -1.697965e+00 6.472825e-01 2.615882e-01 -1.094020e+00 -3.040894e-01 1.376223e-01 2.458041e-01 -3.961936e-02 -1.381154e-02 -2.773775e-02 -6.856331e-02 1.930570e-01 -3.856986e-02 -4.055669e-01 1.875574e-01 4.005893e-02 -2.298789e-01
<VARIANCE> 39
 1.005982e+01 2.539428e+01 3.130492e+01 4.718163e+01 4.817735e+01 2.162220e+01 4.940707e+01 4.349858e+01 2.329765e+01 3.412354e+01 2.323919e+01 2.268023e+01 3.023399e+01 1.648582e+00 2.106056e+00 2.999097e+00 2.630934e+00 3.098699e+00 2.575729e+00 2.753968e+00 2.887197e+00 2.882775e+00 4.853443e+00 2.160630e+00 1.502889e+00 1.921131e+00 2.974687e-01 3.696809e-01 5.281718e-01 5.086640e-01 4.719147e-01 2.938864e-01 4.838802e-01 5.087587e-01 5.377936e-01 7.961002e-01 3.724057e-01 2.801911e-01 3.068117e-01
<GCONST> 1.162352e+02
<STATE> 3
<MEAN> 39
 -1.020610e+01 -1.009564e+01 3.776476e+00 2.567996e-01 2.929078e+00 -1.376816e+01 -6.589314e-01 -1.186200e+01 1.277973e+00 -7.380722e+00 -9.871954e-01 -1.086469e+01 6.900002e+01 -6.336417e-01 4.565254e-01 5.228272e-01 3.717744e-01 -1.234245e-02 -6.807795e-02 1.549384e-02 1.425354e-01 -4.855200e-01 -6.354301e-01 -2.569143e-01 -8.618975e-02 -1.079621e+00 2.457774e-01 -1.329192e-01 2.438134e-02 -1.847968e-01 -3.771170e-02 2.188826e-01 -2.964529e-01 1.596346e-01 -3.280483e-01 5.619517e-01 -2.005223e-01 3.859009e-02 5.851411e-02
<VARIANCE> 39
 2.894118e+01 2.991770e+01 1.757392e+01 3.003740e+01 2.352294e+01 2.653132e+01 2.512061e+01 4.043782e+01 3.082491e+01 6.579120e+01 2.898103e+01 3.391201e+01 3.983352e+01 3.370697e+00 2.602340e+00 1.705108e+00 2.322259e+00 2.769935e+00 1.767439e+00 2.149496e+00 2.574636e+00 2.603888e+00 6.532271e+00 2.012419e+00 1.608920e+00 1.726208e+00 6.055804e-01 4.632120e-01 4.889292e-01 4.978836e-01 5.870765e-01 3.783759e-01 3.694280e-01 4.305882e-01 6.708056e-01 1.311430e+00 4.633936e-01 3.954645e-01 3.156770e-01
<GCONST> 1.186560e+02
<STATE> 4
<MEAN> 39
 -1.170522e+01 -9.189740e+00 2.396305e+00 1.405896e+00 2.519760e+00 -1.098314e+01 -2.985430e+00 -1.036253e+01 -9.137429e-01 -6.977518e+00 -1.668110e+00 -8.583341e+00 6.258703e+01 -1.742993e-01 3.057669e-01 -2.841839e-01 -1.701518e-01 -3.507271e-01 6.505795e-01 -4.228094e-01 2.472913e-01 -2.894825e-01 6.613796e-01 -9.375249e-02 4.942284e-01 -1.400203e+00 1.065058e-02 -4.180736e-02 2.680384e-02 -2.190078e-01 -1.999814e-02 -4.515690e-02 4.647997e-02 -1.521758e-02 6.284638e-02 1.068113e-01 -1.135204e-02 7.188054e-02 1.818565e-01
<VARIANCE> 39
 5.967103e+01 2.540990e+01 2.162926e+01 6.054588e+01 2.253121e+01 3.053082e+01 6.131338e+01 3.661786e+01 3.088999e+01 5.527214e+01 4.381627e+01 2.083137e+01 7.832246e+01 2.697775e+00 2.505652e+00 2.341475e+00 3.215218e+00 2.253584e+00 2.543267e+00 2.923112e+00 2.097165e+00 4.169025e+00 3.063172e+00 2.228072e+00 1.429585e+00 3.708291e+00 3.743481e-01 5.440329e-01 3.315464e-01 5.634144e-01 4.239384e-01 4.065813e-01 4.815374e-01 3.500721e-01 6.586593e-01 6.114379e-01 4.466565e-01 2.809307e-01 7.355968e-01
<GCONST> 1.214541e+02
<TRANSP> 5
 0.000000e+00 1.000000e+00 0.000000e+00 0.000000e+00 0.000000e+00
 0.000000e+00 7.206088e-01 2.793911e-01 0.000000e+00 0.000000e+00
 0.000000e+00 0.000000e+00 7.533389e-01 2.466611e-01 0.000000e+00
 0.000000e+00 0.000000e+00 0.000000e+00 7.353885e-01 2.646115e-01
 0.000000e+00 0.000000e+00 0.000000e+00 0.000000e+00 0.000000e+00
<ENDHMM>
~h "s"
<BEGINHMM>
<NUMSTATES> 5
<STATE> 2
<MEAN> 39
 -2.611806e+01 -6.676053e+00 4.086201e+00 -3.766896e+00 8.604069e+00 -1.310368e+01 4.230499e+00 -8.994101e+00 8.491209e-01 -1.139789e+01 -3.755605e-02 -7.586016e+00 6.876353e+01 -2.348650e+00 -1.675085e-01 -7.479089e-01 4.507470e-01 2.794420e-01 3.428180e-01 1.017915e+00 -1.153119e-01 8.824447e-01 -5.158500e-01 1.523943e+00 6.030726e-01 -7.502927e-01 5.995198e-01 -3.777388e-01 -8.197811e-02 -2.815173e-01 -1.671142e-01 5.146892e-02 -4.239178e-01 1.725071e-01 -1.818143e-01 5.180482e-01 -2.139752e-01 3.776771e-02 3.479115e-03
<VARIANCE> 39
 5.775732e+01 1.421394e+01 1.551381e+01 1.970887e+01 4.047290e+01 2.899449e+01 3.992275e+01 2.387015e+01 1.919563e+01 2.687153e+01 5.543959e+01 3.516589e+01 1.573207e+01 7.091246e+00 3.038416e+00 1.429775e+00 2.783951e+00 1.974601e+00 1.776358e+00 4.550961e+00 3.575489e+00 2.144264e+00 5.601405e+00 4.454944e+00 3.708181e+00 6.995155e-01 8.790902e-01 5.923895e-01 3.493038e-01 5.141929e-01 3.730808e-01 3.947166e-01 6.429431e-01 5.623780e-01 3.871855e-01 9.717577e-01 8.728303e-01 7.992930e-01 1.200638e-01
<GCONST> 1.192840e+02
<STATE> 3
<MEAN> 39
 -2.680704e+01 -1.050563e+01 5.455261e-01 -2.470703e+00 7.418248e+00 -1.048462e+01 3.804690e+00 -8.670856e+00 2.112550e+00 -8.039048e+00 4.887188e-01 -7.497698e+00 6.158926e+01 1.459621e+00 3.339373e-01 1.503783e-01 5.184145e-01 -1.023148e+00 -1.429772e-01 -7.509440e-01 -1.190031e-01 -3.537769e-01 6.006653e-01 -7.441200e-01 -4.713999e-01 -1.641362e+00 4.871739e-01 3.525239e-01 2.107032e-01 1.554777e-02 -2.873748e-01 -1.358739e-01 -2.353852e-01 1.008709e-01 -3.579228e-01 -8.197217e-03 -1.224531e-01 9.475594e-03 -6.487054e-02
<VARIANCE> 39
 2.886258e+01 9.455723e+00 1.779855e+01 3.018659e+01 5.213498e+01 2.635082e+01 2.040524e+01 2.548172e+01 2.619705e+01 3.306873e+01 1.590203e+01 2.005287e+01 5.031956e+01 2.375455e+00 2.209855e+00 2.281473e+00 1.934818e+00 2.817101e+00 2.355678e+00 2.239058e+00 2.423008e+00 2.430294e+00 2.280667e+00 1.515779e+00 1.676051e+00 2.662244e+00 4.977834e-01 3.827181e-01 3.956072e-01 5.260618e-01 6.220295e-01 4.435437e-01 5.080013e-01 5.481691e-01 5.755330e-01 4.877363e-01 4.338941e-01 4.369851e-01 5.119484e-01
<GCONST> 1.144533e+02
<STATE> 4
<MEAN> 39
 -1.853894e+01 -5.011401e+00 1.504381e-01 3.855716e-01 1.441783e+00 -8.871680e+00 -1.765383e+00 -6.091343e+00 -1.407904e+00 -5.200514e+00 -2.977195e+00 -8.367010e+00 5.078566e+01 1.440598e+00 -1.495838e-03 2.208282e-01 -4.544818e-01 -1.161111e+00 -9.991765e-02 -7.930976e-01 4.681636e-01 -5.271716e-01 3.772918e-01 -1.602806e-01 3.687766e-01 -7.307607e-02 -4.385575e-02 -3.666458e-01 1.025298e-01 -3.656644e-01 7.619417e-02 -4.063515e-02 5.355738e-03 1.825088e-02 -1.869618e-02 2.868991e-03 1.565373e-01 9.145910e-02 6.710922e-01
<VARIANCE> 39
 5.170230e+01 3.680815e+01 5.873184e+01 3.825340e+01 4.888751e+01 7.440332e+01 2.736217e+01 4.860345e+01 3.788354e+01 3.098783e+01 1.689850e+01 2.028013e+01 1.918073e+02 4.408700e+00 6.136162e+00 4.279307e+00 4.766213e+00 4.841164e+00 4.960433e+00 2.420626e+00 4.084397e+00 2.574498e+00 2.710872e+00 2.584396e+00 2.900987e+00 1.101505e+01 5.690960e-01 1.228796e+00 5.412924e-01 7.555695e-01 6.401056e-01 6.961458e-01 5.387090e-01 9.267308e-01 5.188127e-01 5.321448e-01 4.944186e-01 5.904241e-01 2.000532e+00
<GCONST> 1.340590e+02
<TRANSP> 5
 0.000000e+00 1.000000e+00 0.000000e+00 0.000000e+00 0.000000e+00
 0.000000e+00 8.533999e-01 1.466001e-01 0.000000e+00 0.000000e+00
 0.000000e+00 0.000000e+00 6.976174e-01 3.023827e-01 0.000000e+00
 0.000000e+00 0.000000e+00 0.000000e+00 6.761523e-01 3.238477e-01
 0.000000e+00 0.000000e+00 0.000000e+00 0.000000e+00 0.000000e+00
<ENDHMM>
~h "t"
<BEGINHMM>
<NUMSTATES> 5
<STATE> 2
<MEAN> 39
 -5.812480e+00 -1.327142e+01 5.415673e+00 -1.174123e+01 4.764277e+00 -7.922630e+00 -6.745122e+00 -8.013689e+00 -1.987850e+00 5.416855e-01 -4.044824e+00 -9.202588e+00 7.231893e+01 -7.234201e-03 -4.583453e-02 6.125444e-02 -1.191252e-01 2.211841e-01 -9.335078e-02 -2.250783e-01 3.653992e-01 4.042650e-01 1.974123e-01 -2.964064e-01 -8.453944e-02 2.584614e-02 -1.511504e-01 2.494417e-01 1.308247e-02 2.306551e-01 -3.193994e-02 4.931458e-02 1.205517e-01 -2.633078e-02 -3.408177e-03 -1.531151e-01 1.147690e-01 8.396576e-02 -3.194221e-01
<VARIANCE> 39
 2.353253e+01 4.456629e+01 2.030824e+01 6.907795e+01 2.455368e+01 4.039845e+01 2.693243e+01 6.530826e+01 5.310536e+01 3.970430e+01 5.032583e+01 1.792044e+01 7.725849e+01 2.170549e+00 5.655115e+00 2.303756e+00 8.225374e+00 3.340955e+00 4.044506e+00 2.291710e+00 6.070805e+00 4.194623e+00 4.661194e+00 4.294325e+00 2.773961e+00 8.615235e+00 4.201343e-01 1.013073e+00 4.081930e-01 1.703037e+00 6.013235e-01 6.309056e-01 4.478711e-01 8.463931e-01 7.491822e-01 1.000420e+00 7.851521e-01 5.671320e-01 1.709500e+00
<GCONST> 1.336279e+02
<STATE> 3
<MEAN> 39
 -9.329776e+00 -1.102978e+01 4.184872e+00 -5.451583e+00 2.099922e+00 -9.396536e+00 -4.397861e+00 -2.597872e+00 1.695701e+00 -1.373059e+00 -7.399522e+00 -8.526852e+00 6.400063e+01 -1.265942e+00 1.283467e+00 -9.726062e-01 1.273625e+00 -6.993074e-01 3.638338e-01 3.292089e-01 -3.302825e-01 5.571907e-01 -6.487441e-01 6.691008e-01 1.933534e-01 -2.847336e+00 -2.103435e-01 -1.157767e-01 -1.169893e-01 -2.016171e-01 -1.538399e-01 -6.235723e-02 1.278029e-01 -3.597220e-01 -1.102121e-02 -1.164268e-01 2.126087e-01 4.897201e-02 2.244566e-01
<VARIANCE> 39
 2.081579e+01 3.284082e+01 3.584595e+01 4.200069e+01 2.973213e+01 3.354678e+01 1.976244e+01 3.515444e+01 2.847657e+01 3.147713e+01 3.553849e+01 2.222544e+01 1.281326e+02 1.488266e+00 3.408153e+00 2.818560e+00 4.137933e+00 2.856895e+00 3.040686e+00 1.669123e+00 2.852605e+00 2.708776e+00 1.919422e+00 2.787853e+00 2.100907e+00 7.597306e+00 2.529506e-01 6.890965e-01 7.092229e-01 9.029064e-01 6.673596e-01 6.397491e-01 3.091342e-01 6.025485e-01 5.383605e-01 4.485926e-01 5.848655e-01 4.757254e-01 1.631210e+00
<GCONST> 1.236048e+02
<STATE> 4
<MEAN> 39
 -1.383573e+01 -7.963378e+00 5.145611e+00 -4.471297e+00 1.127877e+00 -1.013839e+01 -2.467761e-01 -7.352446e+00 3.758053e-01 -5.494160e+00 -2.410652e+00 -7.674338e+00 6.271931e+01 -1.142880e-01 -2.792544e-02 8.418044e-01 -1.268148e-01 -3.461123e-01 2.084938e-02 1.714569e-01 -5.559152e-01 -6.139777e-01 -6.317343e-02 4.609156e-01 2.611215e-01 5.139864e-01 2.239334e-01 -2.919384e-01 2.831567e-01 -1.869460e-01 4.283243e-03 8.054033e-02 -6.709850e-02 2.213642e-01 -2.164885e-01 2.211810e-01 -9.504358e-02 -1.062681e-02 3.710324e-01
<VARIANCE> 39
 4.792207e+01 3.743562e+01 5.593074e+01 4.567212e+01 5.362764e+01 3.831889e+01 4.259389e+01 4.317358e+01 4.960085e+01 3.371204e+01 4.168984e+01 1.957352e+01 1.047575e+02 7.003437e+00 4.944168e+00 6.319199e+00 4.828403e+00 4.126927e+00 3.771056e+00 3.784944e+00 5.957984e+00 5.064534e+00 3.350182e+00 5.111883e+00 1.788880e+00 8.852456e+00 1.021355e+00 1.004010e+00 9.080170e-01 9.221559e-01 9.581800e-01 7.956151e-01 7.347926e-01 1.207771e+00 9.385592e-01 6.359739e-01 9.775887e-01 3.819702e-01 1.241618e+00
<GCONST> 1.391586e+02
<TRANSP> 5
 0.000000e+00 1.000000e+00 0.000000e+00 0.000000e+00 0.000000e+00
 0.000000e+00 8.248411e-01 1.751589e-01 0.000000e+00 0.000000e+00
 0.000000e+00 0.000000e+00 7.059295e-01 2.940705e-01 0.000000e+00
 0.000000e+00 0.000000e+00 0.000000e+00 7.657495e-01 2.342505e-01
 0.000000e+00 0.000000e+00 0.000000e+00 0.000000e+00 0.000000e+00
<ENDHMM>
~h "u"
<BEGINHMM>
<NUMSTATES> 5
<STATE> 2
<MEAN> 39
 -5.617204e+00 -1.195101e+01 1.518243e+00 -1.583189e+01 3.856138e+00 -8.210472e-01 -4.713894e+00 -8.011150e+00 -6.441549e+00 6.941116e-01 -1.024758e+00 -8.814014e+00 6.669461e+01 1.458827e+00 -3.533388e-01 8.731183e-01 -1.762480e+00 3.452809e-01 1.046266e+00 -2.010322e-01 -5.166291e-01 -1.019392e+00 6.409239e-01 6.293073e-01 1.737283e-01 2.087708e+00 -2.613471e-01 2.492793e-01 -3.805767e-02 4.350203e-01 -7.454188e-02 1.482107e-01 -1.061072e-01 -3.843219e-02 3.665006e-02 -1.751819e-01 1.030936e-01 4.046903e-02 -4.554502e-01
<VARIANCE> 39
 4.167355e+01 7.790073e+01 2.835331e+01 7.224082e+01 6.526795e+01 3.444233e+01 3.848254e+01 4.302369e+01 3.535732e+01 1.774101e+01 1.693648e+01 2.395458e+01 2.497464e+02 4.340168e+00 2.775930e+00 2.800133e+00 3.775326e+00 4.145949e+00 3.806382e+00 2.085948e+00 2.513649e+00 3.609657e+00 1.967487e+00 1.949887e+00 1.925681e+00 9.286283e+00 5.995255e-01 5.163344e-01 4.256103e-01 8.405306e-01 6.005569e-01 4.449067e-01 5.748768e-01 3.905495e-01 7.573736e-01 4.050317e-01 3.781717e-01 4.815978e-01 9.470440e-01
<GCONST> 1.273059e+02
<STATE> 3
<MEAN> 39
 -3.086005e+00 -1.445240e+01 4.124344e+00 -1.919837e+01 3.812524e+00 2.283949e+00 -4.789452e+00 -1.043143e+01 -6.574138e+00 1.539734e+00 8.606088e-02 -8.455846e+00 7.244752e+01 5.603184e-01 4.623083e-02 5.608420e-01 -6.071814e-01 -3.139860e-01 1.063429e+00 -2.332436e-01 -3.827347e-01 -3.220356e-01 1.525962e-01 5.118738e-01 4.784992e-01 7.825134e-01 -2.512919e-01 2.181075e-01 -1.273987e-01 4.897362e-01 -6.592920e-02 -1.818648e-01 -6.320790e-02 1.632697e-01 1.212822e-01 -1.399916e-01 -9.626423e-02 -1.493433e-03 -4.544296e-01
<VARIANCE> 39
 6.424327e+00 4.144696e+01 1.713785e+01 2.884663e+01 7.457404e+01 3.910761e+01 3.586137e+01 3.347311e+01 2.681053e+01 1.652677e+01 1.861013e+01 1.671013e+01 5.089486e+01 2.343895e+00 2.179905e+00 1.541242e+00 3.589899e+00 7.228428e+00 2.139955e+00 1.940371e+00 2.682055e+00 4.092659e+00 2.188570e+00 1.619644e+00 2.207268e+00 4.464256e+00 2.258877e-01 2.714474e-01 2.399697e-01 8.090516e-01 1.152471e+00 3.804346e-01 3.543971e-01 4.779460e-01 5.311904e-01 3.355667e-01 4.217452e-01 3.996156e-01 4.733871e-01
<GCONST> 1.157054e+02
<STATE> 4
<MEAN> 39
 -2.678049e+00 -1.270239e+01 3.718743e+00 -1.911047e+01 2.425894e+00 4.912066e+00 -6.372915e+00 -8.518570e+00 -6.669982e+00 -4.171142e-01 2.402708e+00 -8.225444e+00 7.311168e+01 -1.127720e-01 3.943477e-01 -3.885950e-02 7.350852e-01 4.183155e-03 -2.736984e-01 -9.830336e-02 6.295049e-02 1.243718e-01 -7.331283e-02 -1.215851e-01 -7.989986e-02 -3.640084e-01 -1.019455e-01 2.522828e-02 -1.953732e-02 3.000020e-01 -1.090748e-02 -1.890499e-01 6.032509e-02 -1.918283e-02 1.370855e-01 -8.063835e-02 -1.267914e-01 -5.273495e-02 -1.728770e-01
<VARIANCE> 39
 6.156384e+00 3.430660e+01 1.410912e+01 5.102297e+01 3.721237e+01 3.275229e+01 3.525772e+01 3.348484e+01 2.544407e+01 3.517791e+01 2.417801e+01 1.680731e+01 2.693108e+01 5.507139e-01 1.778008e+00 8.573911e-01 4.512699e+00 2.846922e+00 1.929670e+00 1.359934e+00 2.311384e+00 2.248967e+00 1.665537e+00 1.696638e+00 1.384831e+00 2.116353e+00 1.421716e-01 2.739167e-01 1.633137e-01 6.251368e-01 5.312964e-01 3.208208e-01 2.628766e-01 4.251167e-01 4.358889e-01 3.873959e-01 3.264357e-01 2.484462e-01 2.984571e-01
<GCONST> 1.060032e+02
<TRANSP> 5
 0.000000e+00 1.000000e+00 0.000000e+00 0.000000e+00 0.000000e+00
 0.000000e+00 2.451106e-01 7.548894e-01 0.000000e+00 0.000000e+00
 0.000000e+00 0.000000e+00 5.061569e-01 4.938431e-01 0.000000e+00
 0.000000e+00 0.000000e+00 0.000000e+00 9.107489e-01 8.925112e-02
 0.000000e+00 0.000000e+00 0.000000e+00 0.000000e+00 0.000000e+00
<ENDHMM>
~h "ah"
<BEGINHMM>
<NUMSTATES> 5
<STATE> 2
<MEAN> 39
 -3.576453e+00 3.416461e+00 3.788783e+00 -2.445350e+01 1.085790e+00 -1.483303e+00 -6.402814e+00 -3.755038e+00 -1.088267e+01 -9.901730e+00 2.295629e+00 -8.686500e+00 7.124738e+01 -9.019354e-02 -1.452466e+00 -5.776380e-01 -5.814320e-01 5.636164e-01 1.517322e+00 -3.273485e-01 -1.365073e+00 -2.444814e-01 1.776080e+00 1.030354e+00 6.086883e-01 1.025508e+00 -6.115332e-02 -4.760827e-01 -5.141735e-03 3.706812e-01 1.099901e-01 -3.948275e-02 1.191872e-01 -9.889649e-02 2.466065e-01 7.301077e-01 -2.537018e-01 4.035935e-03 6.164242e-02
<VARIANCE> 39
 1.851547e+00 5.850414e+01 8.649969e+00 1.445269e+01 2.600223e+01 1.681388e+01 3.656911e+00 1.643613e+01 8.386635e+00 1.676018e+01 1.309840e+01 9.718348e+00 5.259125e+00 2.630386e-01 2.107804e+00 9.883598e-02 5.262266e-01 1.442085e+00 6.539155e-01 7.628158e-01 7.420794e-01 6.357863e-01 4.092362e+00 4.278099e-01 1.283202e+00 4.363113e-01 6.180618e-02 1.334239e-01 6.054752e-02 8.187726e-02 5.062370e-01 6.264767e-01 9.355550e-02 2.549659e-01 3.084096e-01 3.898370e-01 4.056964e-01 7.179393e-01 1.440975e-01
<GCONST> 7.789444e+01
<STATE> 3
<MEAN> 39
 -3.822480e+00 -1.356631e+01 2.154440e+00 -2.069184e+01 4.783450e+00 3.394626e+00 -6.386873e+00 -9.506261e+00 -4.131889e+00 2.101235e+00 -2.949139e+00 -8.825920e+00 7.760357e+01 -6.154594e-02 -1.440009e+00 6.936026e-01 8.143851e-01 -8.270848e-01 -9.816179e-02 6.542304e-01 8.117224e-01 9.684276e-01 1.315730e+00 -1.762863e+00 -4.396066e-02 6.577730e-01 -7.963422e-02 2.512888e-01 1.986535e-01 1.116552e-01 3.554836e-03 -4.896592e-01 2.083974e-01 3.382383e-01 -1.099972e-01 -8.302537e-01 -1.302822e-01 1.616415e-01 -2.179255e-01
<VARIANCE> 39
 1.132031e+01 3.490132e+01 7.699620e+00 1.016722e+01 4.460249e+01 6.694463e+01 8.446639e+00 3.064913e+01 1.454766e+01 4.523493e+01 5.055500e+01 1.507333e+01 1.042015e+01 9.012036e-01 2.099775e+00 9.542159e-01 7.694557e-01 7.669591e+00 8.145411e+00 2.187314e+00 1.445908e+00 1.906124e+00 3.858191e+00 5.302115e+00 3.393339e+00 7.340832e-01 8.641063e-02 7.322662e-02 2.184943e-01 7.310121e-02 6.839976e-01 8.403721e-01 5.651879e-01 6.069952e-01 4.962227e-01 6.237068e-01 8.997550e-01 5.196895e-01 7.735736e-02
<GCONST> 1.059192e+02
<STATE> 4
<MEAN> 39
 -4.704096e+00 -1.482600e+01 3.656359e+00 -1.530108e+01 8.372806e+00 -1.439830e+00 -5.607953e+00 -5.254921e+00 -2.723361e+00 -5.427680e+00 -4.125354e+00 -7.266558e+00 7.452188e+01 -1.493259e-01 1.911247e-01 -4.232595e-02 4.195533e-01 8.678436e-02 -4.941124e-01 1.746348e-01 4.302379e-02 1.667511e-02 -3.645164e-01 -1.809775e-01 9.280118e-02 -2.040750e-01 -5.213042e-02 7.898645e-02 -2.610659e-02 4.871794e-02 -6.015716e-02 7.707012e-02 -4.103629e-02 -3.709348e-02 2.770997e-02 -6.451540e-03 1.040531e-01 1.499787e-02 -8.009049e-02
<VARIANCE> 39
 1.540643e+01 4.554766e+01 1.668125e+01 7.799940e+01 3.583532e+01 6.824806e+01 4.665292e+01 4.646675e+01 4.093354e+01 3.173738e+01 7.787578e+01 2.354841e+01 3.722662e+01 1.874743e+00 3.905623e+00 1.503217e+00 5.049817e+00 2.645936e+00 2.438672e+00 3.869895e+00 3.638778e+00 3.634909e+00 3.455600e+00 2.950053e+00 1.769828e+00 3.715822e+00 4.343823e-01 5.325131e-01 2.934318e-01 8.738418e-01 5.111748e-01 5.390734e-01 6.479421e-01 5.465659e-01 5.994561e-01 5.829942e-01 4.117791e-01 2.711550e-01 5.449370e-01
<GCONST> 1.242064e+02
<TRANSP> 5
 0.000000e+00 1.000000e+00 0.000000e+00 0.000000e+00 0.000000e+00
 0.000000e+00 7.790259e-01 2.209741e-01 0.000000e+00 0.000000e+00
 0.000000e+00 0.000000e+00 8.089078e-01 1.910922e-01 0.000000e+00
 0.000000e+00 0.000000e+00 0.000000e+00 9.641947e-01 3.580529e-02
 0.000000e+00 0.000000e+00 0.000000e+00 0.000000e+00 0.000000e+00
<ENDHMM>
~h "al"
<BEGINHMM>
<NUMSTATES> 5
<STATE> 2
<MEAN> 39
 -4.195042e+00 -8.850052e+00 -2.040453e+00 -1.009652e+01 5.939056e+00 3.623552e-01 -8.187248e-01 -8.271212e+00 -7.940812e+00 -5.128471e+00 -3.578771e-01 -8.772453e+00 6.449624e+01 1.830908e-01 1.989023e-01 -4.700989e-01 -5.000060e-01 -9.414040e-03 9.025089e-01 2.557520e-01 2.497193e-01 -6.752067e-01 -4.934008e-01 3.990392e-02 7.110274e-01 -3.279896e-01 -1.497670e-01 4.859858e-02 2.907732e-01 5.354674e-01 1.270799e-01 6.489190e-02 -2.380493e-01 -2.282284e-01 -6.898976e-02 1.699404e-01 -2.075082e-01 4.909511e-02 -1.643428e-01
<VARIANCE> 39
 4.066788e+01 3.711277e+01 2.898595e+01 5.100523e+01 3.314686e+01 2.569744e+01 2.510131e+01 4.876368e+01 1.117190e+01 1.822882e+01 7.493915e+00 1.350947e+01 9.181668e+01 6.230614e-01 1.583893e+00 4.339433e+00 8.434299e+00 4.938015e+00 2.489592e+00 1.569434e+00 4.490248e+00 2.147597e+00 8.632458e-01 1.255447e+00 8.119061e-01 2.444022e+00 8.690266e-02 2.025116e-01 3.877185e-01 5.392807e-01 5.770677e-01 3.553859e-01 3.348075e-01 6.076406e-01 3.666099e-01 2.344697e-01 2.737091e-01 2.713140e-01 1.479623e-01
<GCONST> 1.084384e+02
<STATE> 3
<MEAN> 39
 -1.392676e+00 -9.434956e+00 1.189793e+00 -1.207037e+01 6.464932e+00 9.670175e-01 -2.170279e+00 -4.005890e+00 -8.368030e+00 -5.142606e+00 -1.330482e+00 -8.592371e+00 6.860402e+01 4.365888e-04 -2.512143e-01 9.031504e-03 -8.651664e-01 -4.067115e-01 1.055564e+00 1.557684e-02 4.539213e-01 9.251096e-02 -1.475749e-01 -1.692886e-01 4.199713e-01 3.697232e-01 -7.467961e-02 9.367157e-02 4.109964e-02 2.960189e-01 -2.453243e-01 1.187630e-02 -3.530642e-03 -4.148908e-01 1.664568e-01 1.380308e-01 1.939666e-01 8.235468e-02 -1.052185e-01
<VARIANCE> 39
 9.855136e+00 4.093182e+01 2.128049e+01 9.197282e+01 5.962943e+01 3.795837e+01 1.512692e+01 6.775751e+01 1.404513e+01 1.197805e+01 6.378244e+00 7.943893e+00 5.533607e+01 2.361815e-01 5.818534e-01 1.285372e+00 4.473317e+00 4.393031e+00 2.633869e+00 5.674794e-01 4.447529e+00 1.889077e+00 1.323002e+00 1.091753e+00 1.230301e+00 1.616832e+00 6.071493e-02 1.090365e-01 3.328499e-01 9.655283e-01 6.895859e-01 4.727373e-01 2.008052e-01 1.114302e+00 3.492836e-01 3.486854e-01 1.825249e-01 1.938085e-01 1.978209e-01
<GCONST> 1.019693e+02
<STATE> 4
<MEAN> 39
 -3.106796e+00 -1.177843e+01 3.887941e+00 -1.692767e+01 2.377643e+00 4.607222e+00 -3.967250e+00 -7.950963e+00 -6.781455e+00 -1.710739e+00 -1.908730e+00 -9.043450e+00 7.289837e+01 -3.577094e-02 7.615309e-02 7.099514e-02 1.675816e-01 -1.740324e-01 -7.645442e-02 -6.827209e-02 -3.946512e-01 8.019877e-02 -5.210154e-03 -8.870952e-02 5.917371e-02 -1.954198e-01 -1.930080e-02 4.648485e-02 1.060301e-02 2.949387e-02 3.127763e-02 -7.885221e-02 -4.935180e-03 7.427959e-02 2.936642e-03 -2.179308e-02 2.325718e-02 -2.980891e-02 -5.003893e-02
<VARIANCE> 39
 6.963797e+00 2.783547e+01 3.146615e+01 6.555305e+01 3.954500e+01 3.933327e+01 3.103474e+01 6.290760e+01 2.750239e+01 2.701151e+01 2.560868e+01 2.529464e+01 2.054984e+01 4.257203e-01 1.281210e+00 1.425251e+00 2.054549e+00 3.843570e+00 2.218392e+00 1.778962e+00 2.919179e+00 2.367943e+00 1.798929e+00 1.855785e+00 1.727812e+00 1.110476e+00 7.783546e-02 1.273097e-01 2.303234e-01 2.876413e-01 6.042702e-01 3.952774e-01 3.103895e-01 3.422020e-01 4.169579e-01 3.435005e-01 3.265384e-01 2.776484e-01 1.323992e-01
<GCONST> 1.052185e+02
<TRANSP> 5
 0.000000e+00 1.000000e+00 0.000000e+00 0.000000e+00 0.000000e+00
 0.000000e+00 5.102504e-01 4.897496e-01 0.000000e+00 0.000000e+00
 0.000000e+00 0.000000e+00 7.068092e-01 2.931909e-01 0.000000e+00
 0.000000e+00 0.000000e+00 0.000000e+00 9.579496e-01 4.205034e-02
 0.000000e+00 0.000000e+00 0.000000e+00 0.000000e+00 0.000000e+00
<ENDHMM>
~h "an"
<BEGINHMM>
<NUMSTATES> 5
<STATE> 2
<MEAN> 39
 -5.081081e+00 -1.500828e+01 5.084191e+00 -8.799857e+00 1.038873e+01 -7.537940e+00 -6.728409e+00 -2.399285e+00 -5.149232e+00 2.556211e+00 -3.416906e+00 -1.371693e+01 7.120966e+01 3.193587e-02 4.311659e-02 -2.369085e-01 1.844755e-01 4.444613e-01 4.684528e-02 3.837836e-02 2.451447e-01 -1.935437e-01 -3.073803e-01 -3.999532e-02 7.476866e-02 -4.183450e-02 -1.948393e-02 2.342288e-02 8.721144e-02 6.957503e-02 -1.550992e-01 1.361782e-02 -6.832995e-02 -1.191372e-01 1.075138e-01 -6.704076e-02 -2.640919e-02 1.182940e-01 -1.653293e-02
<VARIANCE> 39
 8.909431e+00 2.852526e+01 2.040505e+01 2.699424e+01 3.142985e+01 1.904114e+01 2.352332e+01 2.919400e+01 2.717171e+01 2.272135e+01 1.822669e+01 1.286488e+01 5.244061e+01 1.108903e+00 3.538485e+00 1.980003e+00 4.110673e+00 2.367843e+00 2.362355e+00 1.612751e+00 3.148383e+00 3.028179e+00 2.507657e+00 1.725890e+00 1.180671e+00 7.469070e+00 2.320538e-01 7.813389e-01 4.347129e-01 9.173239e-01 4.835181e-01 4.705157e-01 2.950919e-01 7.036985e-01 5.222951e-01 4.703799e-01 3.608250e-01 2.327340e-01 1.525069e+00
<GCONST> 1.147172e+02
<STATE> 3
<MEAN> 39
 -5.325714e+00 -1.480910e+01 1.082487e+01 -3.120760e+00 4.057118e+00 -7.587037e+00 -5.135600e+00 -2.039037e+00 -3.001822e+00 -3.328266e+00 -5.894676e+00 -6.967162e+00 7.266687e+01 -5.387567e-02 6.192213e-01 9.256816e-01 1.040535e+00 -1.151750e+00 -2.701247e-01 2.216455e-01 -6.923323e-01 -4.685772e-02 2.947061e-01 -6.633975e-02 3.345157e-01 -7.480046e-01 -6.495435e-02 6.645155e-02 5.947701e-02 -1.048531e-01 -1.048525e-01 4.733788e-03 1.261709e-01 -7.544441e-02 -1.828338e-01 5.866750e-02 2.361185e-01 -9.034579e-02 2.775914e-03
<VARIANCE> 39
 4.960357e+00 2.468032e+01 2.839123e+01 4.615706e+01 5.302614e+01 1.669930e+01 2.830554e+01 4.107272e+01 1.936472e+01 3.152483e+01 1.767022e+01 1.923534e+01 2.714668e+01 5.929199e-01 2.981118e+00 1.711065e+00 3.546792e+00 1.989819e+00 1.828721e+00 1.410126e+00 4.971851e+00 1.959506e+00 4.137932e+00 2.306470e+00 2.184240e+00 3.444013e+00 1.235301e-01 5.901061e-01 3.102909e-01 8.143910e-01 2.832085e-01 3.588759e-01 2.216091e-01 9.901577e-01 3.393922e-01 8.404201e-01 2.914466e-01 3.979250e-01 7.006126e-01
<GCONST> 1.120479e+02
<STATE> 4
<MEAN> 39
 -9.094063e+00 -8.819104e+00 1.936285e+01 -4.367087e+00 -6.925223e+00 -6.292923e+00 -2.083977e+00 -1.141968e+01 -8.760719e+00 -1.036599e+00 -1.298316e+00 -9.700923e+00 7.030687e+01 -1.869016e-01 2.801059e-01 -8.480866e-02 -2.413416e-01 -1.148548e-01 2.370875e-01 -3.153999e-02 -3.040096e-01 -1.140934e-01 -8.408858e-02 -5.427212e-02 -1.614045e-01 -1.962197e-01 -1.415778e-04 -2.559670e-03 -8.890630e-02 -8.067861e-04 8.394516e-02 1.566871e-02 -4.877179e-02 3.693686e-02 5.918352e-02 -3.439525e-02 -4.664426e-02 1.327698e-02 -3.369413e-02
<VARIANCE> 39
 1.353711e+01 3.453247e+01 3.036255e+01 8.735948e+01 3.173820e+01 4.840750e+01 4.006338e+01 5.083058e+01 2.168614e+01 2.507857e+01 3.993800e+01 1.955034e+01 4.497453e+01 9.981884e-01 1.887824e+00 2.173217e+00 5.575913e+00 2.204083e+00 2.807915e+00 1.516117e+00 2.432345e+00 2.225517e+00 2.246784e+00 2.957424e+00 1.126717e+00 3.203332e+00 1.701636e-01 3.604987e-01 3.624557e-01 9.696069e-01 3.894712e-01 5.189433e-01 2.596008e-01 4.485292e-01 3.906364e-01 4.847026e-01 5.480381e-01 2.295300e-01 5.033046e-01
<GCONST> 1.156522e+02
<TRANSP> 5
 0.000000e+00 1.000000e+00 0.000000e+00 0.000000e+00 0.000000e+00
 0.000000e+00 8.986335e-01 1.013665e-01 0.000000e+00 0.000000e+00
 0.000000e+00 0.000000e+00 8.981812e-01 1.018188e-01 0.000000e+00
 0.000000e+00 0.000000e+00 0.000000e+00 9.369682e-01 6.303181e-02
 0.000000e+00 0.000000e+00 0.000000e+00 0.000000e+00 0.000000e+00
<ENDHMM>
~h "ar"
<BEGINHMM>
<NUMSTATES> 5
<STATE> 2
<MEAN> 39
 -9.316705e+00 -7.688825e+00 1.968672e+01 -3.834494e+00 -1.075249e+01 -1.040518e+01 -1.783245e+00 -1.001660e+01 -9.721544e+00 -2.145812e+00 3.340723e+00 -5.599135e+00 6.391708e+01 1.247644e+00 -9.309235e-01 1.954416e+00 -9.807008e-01 -2.837946e-01 -8.293940e-01 -6.869844e-01 9.527036e-01 -1.119414e+00 2.498715e-01 3.160331e-02 1.084614e-01 3.790133e+00 -4.927155e-01 4.072254e-01 -1.998342e+00 4.784762e-01 3.528693e-01 2.953797e-01 2.135241e-01 9.431138e-01 5.725821e-01 2.098792e-01 -4.654987e-01 1.736381e-01 -1.375930e+00
<VARIANCE> 39
 3.394126e+00 1.710039e+00 7.738215e+01 4.258675e+01 3.167489e+01 7.200516e+01 9.367048e+00 9.025770e+00 1.245812e+01 1.578416e+01 1.467819e+01 1.608559e+01 1.878229e+01 1.372176e+00 1.331652e+00 1.865437e+01 8.270684e+00 3.982828e+00 1.450162e+00 7.934972e-01 5.142848e+00 7.013146e-01 3.291025e+00 1.489707e+00 1.178763e+00 1.746304e+01 3.436847e-01 1.382161e-01 1.942565e+00 7.944872e-01 1.144259e-01 4.003435e-01 1.222949e-01 6.361896e-01 1.238129e-01 3.974004e-01 2.033269e-01 5.738912e-01 1.118707e+00
<GCONST> 1.071476e+02
<STATE> 3
<MEAN> 39
 -5.770447e+00 -7.344344e+00 1.363192e+01 -1.266475e+00 -9.680298e+00 -1.106482e+01 -1.981270e+00 -3.711938e+00 -1.067519e+01 1.396450e+00 -3.428445e+00 -2.260098e+00 6.572314e+01 2.345063e-02 -7.213599e-01 -1.395437e+00 2.848444e-01 2.257485e-01 -8.521286e-02 2.001328e-01 1.012653e+00 7.864330e-01 -5.653396e-01 -1.152568e+00 -1.553832e-01 9.314157e-01 -2.851313e-01 -7.548640e-02 1.173919e-01 -4.424126e-01 1.179879e-01 2.502766e-01 1.922666e-01 -5.225127e-01 4.651231e-01 -5.576295e-01 8.775020e-02 -2.526672e-01 5.338043e-03
<VARIANCE> 39
 9.977483e+00 2.968348e+01 3.309743e+01 3.470528e+01 1.253014e+01 3.932488e+01 5.491459e+00 3.546031e+01 1.898819e+01 1.659372e+01 3.795558e+01 7.664425e+00 1.182389e+02 1.171207e+00 1.425910e+00 5.061309e+00 6.023277e+00 1.639379e+00 1.352989e+00 1.227734e+00 3.319001e+00 2.673687e+00 5.051586e+00 3.173554e+00 9.269258e-01 3.955993e+00 8.010333e-02 1.520012e-01 9.550469e-01 8.799177e-01 4.305294e-01 1.405111e-01 1.046720e-01 2.684497e-01 5.439009e-01 8.941246e-01 6.240627e-01 7.492372e-02 6.784589e-01
<GCONST> 1.081425e+02
<STATE> 4
<MEAN> 39
 -1.100677e+01 -1.091004e+01 1.295703e+01 -1.248496e+01 -9.206368e+00 -5.516993e+00 -8.722694e-01 -1.364162e+01 -4.312648e+00 -1.080156e+01 -6.004783e+00 -9.641876e+00 7.294653e+01 8.115027e-02 -6.376299e-01 -6.607257e-01 -3.048567e-01 7.326453e-01 -3.399881e-01 2.353294e-01 1.391947e-01 3.340836e-01 3.834941e-01 -3.917998e-01 -1.121673e-01 3.873666e-01 -4.100817e-03 6.936458e-02 -1.953034e-02 1.094672e-01 8.451675e-02 -4.333861e-03 4.863993e-02 -3.705282e-02 -3.951753e-02 2.066180e-01 3.868572e-03 -8.187829e-03 -1.520139e-01
<VARIANCE> 39
 1.800264e+01 3.749334e+01 6.072754e+01 7.153626e+01 5.590532e+01 6.863803e+01 5.560507e+01 1.321347e+02 8.829980e+00 2.939864e+01 1.785874e+01 3.275169e+01 3.616483e+01 9.669181e-01 7.404568e-01 1.727516e+00 3.259139e+00 2.358830e+00 1.357856e+00 2.146523e+00 3.718507e+00 1.794721e+00 2.736916e+00 1.397409e+00 2.060622e+00 1.735863e+00 1.567027e-01 1.300059e-01 2.704609e-01 3.147260e-01 2.202483e-01 1.659070e-01 3.216617e-01 4.292411e-01 3.183725e-01 3.508261e-01 3.180438e-01 2.580978e-01 1.417905e-01
<GCONST> 1.087858e+02
<TRANSP> 5
 0.000000e+00 1.000000e+00 0.000000e+00 0.000000e+00 0.000000e+00
 0.000000e+00 3.706929e-01 6.293071e-01 0.000000e+00 0.000000e+00
 0.000000e+00 0.000000e+00 7.478349e-01 2.521651e-01 0.000000e+00
 0.000000e+00 0.000000e+00 0.000000e+00 8.981400e-01 1.018600e-01
 0.000000e+00 0.000000e+00 0.000000e+00 0.000000e+00 0.000000e+00
<ENDHMM>
~h "at"
<BEGINHMM>
<NUMSTATES> 5
<STATE> 2
<MEAN> 39
 -6.033565e+00 -1.326715e+01 1.328765e+01 -1.915669e+00 1.238911e+00 -3.167319e-02 -6.387905e+00 -1.050586e+01 -5.908422e+00 -3.504478e-01 3.167883e+00 -1.188099e+01 7.115856e+01 -7.709141e-02 -3.444639e-01 -3.854017e-01 -5.869592e-01 3.944882e-01 -3.036803e-01 -5.681754e-02 3.049461e-01 4.336534e-01 2.153502e-02 -2.400145e-01 -9.911700e-02 4.481930e-01 2.211758e-02 -1.548851e-01 -1.983195e-03 -1.228606e-01 1.689193e-02 -4.861180e-03 3.965902e-02 9.159692e-02 -1.791944e-02 -7.637523e-03 -5.783862e-02 4.962136e-02 1.456793e-01
<VARIANCE> 39
 5.842487e+00 5.107289e+01 4.400435e+01 4.004939e+01 2.646389e+01 3.711162e+01 2.497549e+01 4.413099e+01 6.535992e+01 2.748822e+01 3.310162e+01 9.922398e+00 3.448732e+01 8.448876e-01 4.521654e+00 4.188424e+00 7.286763e+00 2.434035e+00 4.262899e+00 3.225111e+00 5.798796e+00 7.137383e+00 4.266625e+00 3.611988e+00 1.057289e+00 3.827886e+00 2.124738e-01 8.510621e-01 7.539105e-01 1.255645e+00 3.884118e-01 6.557665e-01 6.053262e-01 9.969845e-01 1.263407e+00 8.074781e-01 7.100812e-01 2.294797e-01 6.505550e-01
<GCONST> 1.258367e+02
<STATE> 3
<MEAN> 39
 -5.946661e+00 -1.127307e+01 6.778387e+00 -8.028507e+00 9.220367e+00 -6.957903e+00 -3.832333e+00 -5.429748e+00 -2.166350e+00 -3.121014e+00 -5.017733e+00 -8.327835e+00 7.025394e+01 -7.558449e-04 -1.125682e-01 1.395259e-01 1.224445e-01 1.618128e-02 5.899176e-03 -1.625550e-01 2.958362e-01 4.957007e-02 1.187215e-01 -5.031997e-02 -2.067448e-02 -1.354928e-02 -3.302404e-02 1.767859e-01 2.189293e-02 1.984895e-01 -6.932666e-02 6.916635e-02 -1.311415e-02 -1.044284e-01 1.311396e-02 6.326302e-03 7.246371e-02 -4.642283e-02 -2.202451e-01
<VARIANCE> 39
 6.185514e+00 6.182877e+01 1.619296e+01 8.496157e+01 2.749637e+01 3.041588e+01 2.995331e+01 6.617379e+01 3.777001e+01 4.125496e+01 4.981140e+01 2.985283e+01 8.302326e+01 8.360221e-01 5.382852e+00 9.870190e-01 7.993446e+00 2.311574e+00 1.871680e+00 2.141403e+00 6.159339e+00 4.453894e+00 2.588551e+00 3.830643e+00 1.936983e+00 6.477301e+00 1.619483e-01 6.859760e-01 1.780287e-01 1.230839e+00 4.410571e-01 3.455029e-01 4.189278e-01 9.965637e-01 7.981182e-01 5.669231e-01 6.191615e-01 2.569174e-01 7.850749e-01
<GCONST> 1.228339e+02
<STATE> 4
<MEAN> 39
 -1.001368e+01 -6.150045e+00 6.159554e+00 -3.973358e-01 6.184417e+00 -3.985726e+00 -7.846199e+00 -5.903654e+00 1.631556e+00 9.079528e-01 -3.749116e+00 -1.230229e+01 5.776376e+01 -6.328878e-01 6.983618e-01 -1.598418e-01 2.347981e-01 -8.473306e-01 -5.110388e-01 3.163634e-01 -4.167893e-01 4.218748e-01 -9.822069e-01 4.585383e-01 8.999196e-01 -1.005282e+00 8.742010e-02 -6.016330e-01 1.779067e-02 -8.476625e-01 6.254202e-02 -3.430345e-01 8.840422e-02 2.263492e-01 -1.881441e-01 -1.052919e-01 7.253015e-02 2.165885e-01 9.935074e-01
<VARIANCE> 39
 9.205479e+00 2.828950e+01 3.545281e+01 2.480368e+01 2.238972e+01 1.867481e+01 1.666871e+01 1.827481e+01 2.036828e+01 2.997246e+01 9.892124e+00 3.521323e+01 4.847727e+01 1.433968e+00 4.923248e+00 4.311656e+00 8.246537e+00 1.353556e+00 2.443059e+00 1.847758e+00 2.811223e+00 2.152122e+00 2.183248e+00 2.212780e+00 4.040439e+00 1.307541e+01 1.828260e-01 6.214094e-01 7.552981e-01 9.503056e-01 3.618113e-01 4.273133e-01 4.428439e-01 3.927108e-01 2.999551e-01 4.658539e-01 5.866089e-01 7.613233e-01 8.970430e-01
<GCONST> 1.175943e+02
<TRANSP> 5
 0.000000e+00 1.000000e+00 0.000000e+00 0.000000e+00 0.000000e+00
 0.000000e+00 9.490230e-01 5.097701e-02 0.000000e+00 0.000000e+00
 0.000000e+00 0.000000e+00 9.653750e-01 3.462496e-02 0.000000e+00
 0.000000e+00 0.000000e+00 0.000000e+00 8.463909e-01 1.536091e-01
 0.000000e+00 0.000000e+00 0.000000e+00 0.000000e+00 0.000000e+00
<ENDHMM>
~h "ba"
<BEGINHMM>
<NUMSTATES> 5
<STATE> 2
<MEAN> 39
 -1.242143e+01 -6.638762e+00 3.410769e+00 -2.277387e+00 -9.329579e-01 -5.291831e+00 -5.174157e+00 -7.781444e+00 -3.590907e+00 -2.609320e+00 1.936061e-01 -7.514123e+00 5.539557e+01 1.104038e+00 1.663975e-01 5.433176e-01 -1.326678e-01 7.759671e-01 -5.187512e-01 -8.639212e-01 -1.305558e+00 -6.105109e-01 -1.846176e-01 -1.664078e-01 -7.322644e-01 1.274457e+00 4.001311e-01 -2.985318e-01 3.511524e-01 -3.408510e-01 1.281499e-01 -3.040773e-01 1.262310e-01 9.538445e-02 -4.499532e-03 6.567204e-02 -2.708514e-01 -9.552176e-02 8.926927e-01
<VARIANCE> 39
 8.497173e+01 5.235814e+01 8.103378e+01 5.582282e+01 3.790041e+01 5.552232e+01 3.122921e+01 4.755824e+01 4.436917e+01 2.704828e+01 2.984034e+01 2.390436e+01 3.234202e+02 4.490898e+00 6.429488e+00 3.453786e+00 7.226733e+00 1.964234e+00 5.114898e+00 3.042239e+00 4.849233e+00 2.537585e+00 3.493296e+00 3.469651e+00 1.567940e+00 1.607407e+01 6.912540e-01 9.986182e-01 5.983313e-01 9.984757e-01 4.462977e-01 6.732342e-01 4.654968e-01 8.635020e-01 5.719116e-01 5.126213e-01 6.030579e-01 4.066319e-01 2.076204e+00
<GCONST> 1.362191e+02
<STATE> 3
<MEAN> 39
 -6.517328e+00 -6.855025e+00 6.444429e+00 -2.955416e+00 2.003443e+00 -7.313325e+00 -7.307206e+00 -1.186442e+01 -5.445120e+00 -1.771875e+00 -4.886557e-01 -9.988259e+00 6.253726e+01 9.248747e-01 -1.500463e+00 5.610840e-01 -1.560565e+00 6.087151e-01 -9.381210e-01 7.462645e-02 7.355539e-01 7.045556e-01 3.151728e-01 -7.607951e-01 -3.088971e-01 3.098819e+00 -2.869043e-01 -3.918640e-01 -6.830101e-02 -3.278747e-01 -1.586616e-01 8.680765e-04 3.311774e-01 6.568204e-01 2.305328e-01 -2.154822e-02 -1.520730e-01 2.318711e-01 2.142751e-01
<VARIANCE> 39
 2.517912e+01 5.764883e+01 3.383081e+01 7.223840e+01 2.606954e+01 3.271452e+01 3.401817e+01 7.592854e+01 5.044743e+01 4.195268e+01 3.655820e+01 2.039271e+01 9.836771e+01 4.780708e+00 9.141947e+00 4.675679e+00 1.028687e+01 2.858733e+00 4.632215e+00 2.889470e+00 8.472727e+00 4.845476e+00 4.100603e+00 4.292285e+00 2.242679e+00 1.886319e+01 4.769239e-01 1.379230e+00 5.062549e-01 1.717367e+00 4.452081e-01 7.844659e-01 5.671519e-01 1.065776e+00 8.277067e-01 8.661071e-01 8.444645e-01 4.315045e-01 2.157780e+00
<GCONST> 1.391599e+02
<STATE> 4
<MEAN> 39
 -7.833760e+00 -1.359515e+01 1.001158e+01 -9.075292e+00 -2.132158e-01 -1.190391e+01 -1.192232e+00 -3.833249e+00 -3.737840e+00 -3.069864e+00 -4.768896e+00 -6.665175e+00 7.252575e+01 -8.393783e-02 -2.618413e-01 1.035916e-01 -1.224511e-01 -3.211427e-03 1.230833e-02 2.923529e-01 3.708111e-01 5.373462e-03 -2.769798e-01 -2.146060e-01 1.419984e-01 4.137462e-01 -8.570368e-02 3.417049e-01 -7.606766e-02 3.074298e-01 -5.068470e-02 1.679392e-01 -7.029473e-02 -2.742857e-01 -1.055498e-01 2.135231e-02 2.047697e-01 -1.071107e-02 -4.956183e-01
<VARIANCE> 39
 1.771813e+01 3.866676e+01 4.588195e+01 4.434279e+01 3.736188e+01 2.453760e+01 4.268272e+01 4.726772e+01 4.564316e+01 4.594239e+01 3.394497e+01 2.916326e+01 8.058594e+01 1.122698e+00 3.955420e+00 2.904588e+00 4.819619e+00 2.243596e+00 1.714113e+00 2.907111e+00 4.295422e+00 2.660015e+00 2.886232e+00 2.791385e+00 1.693764e+00 6.553770e+00 2.253968e-01 6.875770e-01 4.493300e-01 8.339518e-01 4.134552e-01 3.241898e-01 4.424798e-01 6.944178e-01 5.280573e-01 5.118116e-01 5.262077e-01 3.068009e-01 8.429028e-01
<GCONST> 1.233252e+02
<TRANSP> 5
 0.000000e+00 1.000000e+00 0.000000e+00 0.000000e+00 0.000000e+00
 0.000000e+00 3.027557e-01 6.972443e-01 0.000000e+00 0.000000e+00
 0.000000e+00 0.000000e+00 7.148111e-01 2.851889e-01 0.000000e+00
 0.000000e+00 0.000000e+00 0.000000e+00 8.072882e-01 1.927118e-01
 0.000000e+00 0.000000e+00 0.000000e+00 0.000000e+00 0.000000e+00
<ENDHMM>
~h "be"
<BEGINHMM>
<NUMSTATES> 5
<STATE> 2
<MEAN> 39
 -1.761275e+01 -4.469478e+00 -2.535690e+00 5.930185e-01 -1.020053e+00 -1.067913e+00 -5.102099e+00 -6.351050e+00 -2.038886e+00 -4.342537e+00 -1.008312e+00 -4.908743e+00 4.346667e+01 -1.525007e-01 1.964294e-01 -2.033718e-01 2.585216e-01 -1.771813e-01 3.937436e-01 1.799555e-01 2.914220e-04 -5.839514e-02 -6.129484e-02 1.091371e-01 9.069332e-02 -6.291180e-01 2.233331e-01 -8.825696e-02 2.011278e-01 -1.170874e-01 3.693318e-02 -1.798815e-01 -6.658985e-02 -1.270636e-01 4.574509e-02 1.579393e-02 -1.667002e-01 -1.278363e-01 4.169673e-01
<VARIANCE> 39
 6.236709e+01 4.246275e+01 6.660603e+01 3.322917e+01 3.597252e+01 5.940549e+01 2.621214e+01 4.269325e+01 2.144265e+01 2.845921e+01 2.132260e+01 3.235083e+01 2.810396e+02 6.967219e-01 8.294988e-01 1.552931e+00 1.437184e+00 1.236089e+00 1.985539e+00 1.210323e+00 2.321723e+00 1.787616e+00 1.136332e+00 1.419008e+00 1.678394e+00 2.559274e+00 3.038273e-01 2.488603e-01 4.132466e-01 2.584663e-01 3.391671e-01 5.713004e-01 4.003052e-01 5.222200e-01 3.699459e-01 2.995204e-01 3.312025e-01 3.552122e-01 9.602231e-01
<GCONST> 1.128332e+02
<STATE> 3
<MEAN> 39
 -1.463527e+01 -7.484381e+00 5.938652e+00 -4.498062e+00 -3.456926e+00 -3.410876e+00 -1.024312e+00 -7.678427e+00 -3.526545e+00 -3.030556e+00 2.163324e-01 -5.949878e+00 5.437606e+01 4.871208e-01 -1.102170e-01 3.168665e-01 -6.440759e-03 -9.657793e-02 -2.248425e-01 -2.246651e-01 -4.834148e-01 -1.251191e-01 -1.460446e-01 -2.582264e-01 -3.297999e-01 7.361432e-01 3.302110e-01 -9.996837e-02 2.729855e-01 -6.445329e-02 6.964600e-02 -2.889199e-01 -2.238608e-01 -2.557409e-01 3.588186e-02 1.122032e-01 -1.446353e-01 -1.675437e-01 5.809556e-01
<VARIANCE> 39
 7.065223e+01 6.164486e+01 2.006609e+02 8.839053e+01 3.920348e+01 5.574253e+01 6.525246e+01 3.562534e+01 1.678510e+01 2.682489e+01 2.597370e+01 2.023160e+01 4.495095e+02 1.587336e+00 1.237746e+00 1.708569e+00 1.298110e+00 1.122673e+00 2.776859e+00 1.440978e+00 2.479735e+00 1.752954e+00 1.373247e+00 1.541644e+00 1.308795e+00 4.854723e+00 5.147826e-01 3.970980e-01 5.509161e-01 3.092414e-01 2.354171e-01 4.919612e-01 4.008800e-01 4.486524e-01 3.107840e-01 2.792031e-01 3.260093e-01 3.221264e-01 1.395168e+00
<GCONST> 1.192119e+02
<STATE> 4
<MEAN> 39
 -1.912295e+01 -1.985009e+00 -2.357546e+00 1.225525e+00 -3.260087e+00 6.045009e-01 -5.452137e+00 -5.732708e+00 -1.942111e+00 -3.114955e+00 -9.517233e-01 -4.095572e+00 3.916405e+01 1.054730e+00 -1.944037e-01 8.851725e-01 -1.061688e-02 7.383739e-02 -5.932967e-01 -6.183774e-01 -8.609157e-01 -1.720171e-01 2.608046e-01 -3.482223e-01 -4.559755e-01 1.430020e+00 2.959515e-01 -1.138710e-01 1.717757e-01 -5.154553e-02 1.503041e-01 -5.616096e-02 -1.166178e-01 -9.525569e-02 -2.649816e-02 1.001991e-01 -3.600799e-02 -6.593723e-02 4.056838e-01
<VARIANCE> 39
 6.888828e+01 3.096751e+01 6.896588e+01 3.406277e+01 3.067699e+01 5.156506e+01 3.200958e+01 6.274081e+01 3.481836e+01 2.940433e+01 2.226329e+01 2.304341e+01 2.615254e+02 6.136530e+00 2.891665e+00 6.610589e+00 2.528172e+00 2.837924e+00 5.144220e+00 3.274751e+00 7.740942e+00 4.452402e+00 2.363593e+00 2.542827e+00 1.968112e+00 1.704588e+01 5.357563e-01 3.130965e-01 7.607431e-01 4.951437e-01 4.554740e-01 8.384388e-01 4.192783e-01 1.031116e+00 7.758933e-01 3.921492e-01 3.266713e-01 3.167668e-01 1.610428e+00
<GCONST> 1.316752e+02
<TRANSP> 5
 0.000000e+00 1.000000e+00 0.000000e+00 0.000000e+00 0.000000e+00
 0.000000e+00 6.065573e-01 3.934427e-01 0.000000e+00 0.000000e+00
 0.000000e+00 0.000000e+00 4.597309e-01 5.402691e-01 0.000000e+00
 0.000000e+00 0.000000e+00 0.000000e+00 6.566445e-01 3.433555e-01
 0.000000e+00 0.000000e+00 0.000000e+00 0.000000e+00 0.000000e+00
<ENDHMM>
~h "bi"
<BEGINHMM>
<NUMSTATES> 5
<STATE> 2
<MEAN> 39
 -9.399030e+00 -4.353079e+00 1.476795e+01 1.871140e-01 -2.483232e+00 -9.912619e+00 -5.791663e+00 -9.272295e+00 -8.543379e+00 -1.990981e+00 2.749426e+00 -7.779664e+00 6.235001e+01 -3.852727e-01 -6.363896e-01 2.169085e+00 -9.435256e-01 -1.088588e+00 -1.460276e+00 4.828118e-01 3.324713e-01 -1.193065e+00 -1.144129e-01 5.916338e-01 5.764562e-01 2.280618e+00 -6.198713e-02 -1.597339e-01 2.641260e-02 -3.708908e-01 -3.732799e-02 9.151529e-02 1.434779e-01 1.046077e-02 8.701958e-03 -4.086991e-02 -1.282227e-01 2.886273e-02 3.588771e-01
<VARIANCE> 39
 3.407843e+01 4.253127e+01 1.010454e+02 4.009986e+01 5.045937e+01 5.162390e+01 2.584767e+01 4.551822e+01 5.388919e+01 3.266765e+01 2.195941e+01 2.568159e+01 1.744416e+02 4.459241e+00 4.297494e+00 8.149841e+00 6.549112e+00 4.725217e+00 5.904748e+00 2.128421e+00 3.139539e+00 3.786613e+00 3.354008e+00 1.596201e+00 2.706951e+00 1.370688e+01 4.563853e-01 7.655016e-01 1.558657e+00 1.045224e+00 9.414252e-01 8.936545e-01 5.173714e-01 7.047713e-01 9.727315e-01 6.984616e-01 2.804422e-01 3.790427e-01 1.864860e+00
<GCONST> 1.361997e+02
<STATE> 3
<MEAN> 39
 -1.100481e+01 -7.519019e+00 1.962187e+01 -5.001826e+00 -5.702379e+00 -1.461899e+01 -2.806309e+00 -8.344612e+00 -1.024821e+01 -2.043456e+00 3.797425e+00 -5.280510e+00 7.177724e+01 -8.099989e-01 2.545328e-01 -3.799599e-01 -4.753792e-01 6.102042e-01 -3.066709e-01 1.274003e+00 2.541375e-01 1.182740e+00 -1.148553e+00 -4.037002e-02 2.402745e-01 1.038810e+00 -1.676257e-01 1.079150e-01 -7.255210e-01 2.941972e-01 5.403491e-01 5.713300e-01 1.383532e-01 -6.182802e-02 5.714269e-01 -2.957696e-01 -2.061672e-01 -3.004699e-01 -5.108566e-01
<VARIANCE> 39
 1.556307e+01 2.533834e+01 4.829066e+01 3.728760e+01 4.408857e+01 3.781517e+01 4.084234e+01 3.222848e+01 4.748133e+01 3.519757e+01 1.919958e+01 1.956909e+01 6.334926e+01 4.132949e+00 4.619326e+00 6.588113e+00 3.770150e+00 4.953849e+00 3.516461e+00 3.612076e+00 3.800345e+00 6.905765e+00 6.301087e+00 1.703499e+00 2.078075e+00 6.291242e+00 5.310404e-01 5.294622e-01 9.229436e-01 5.858566e-01 6.715417e-01 7.365466e-01 4.766286e-01 5.547811e-01 8.332128e-01 7.010992e-01 3.186399e-01 4.228756e-01 8.799605e-01
<GCONST> 1.291780e+02
<STATE> 4
<MEAN> 39
 -1.433462e+01 -8.886447e+00 1.021222e+01 -5.464891e+00 -3.643568e-02 -1.167705e+01 3.846451e+00 -7.487354e+00 -3.121004e+00 -6.976769e+00 6.913270e-01 -6.807885e+00 7.099381e+01 -8.303328e-02 1.028302e-02 -5.361000e-01 2.075489e-01 4.529381e-01 4.419404e-01 1.691205e-01 -1.757404e-02 3.596155e-01 -3.938745e-01 -3.302981e-01 -1.437780e-01 -1.628122e-01 3.530706e-02 -3.740722e-02 1.111213e-02 9.236541e-04 -3.150919e-02 9.085195e-02 -1.122701e-01 -3.234171e-02 -1.060257e-01 1.530621e-01 -1.384333e-02 -8.761896e-03 -1.263211e-01
<VARIANCE> 39
 8.048904e+01 3.403152e+01 5.641612e+01 4.063530e+01 4.424903e+01 3.474973e+01 4.322259e+01 3.077797e+01 4.259911e+01 3.574051e+01 3.544066e+01 2.676981e+01 3.919190e+01 6.360121e+00 2.512635e+00 3.520920e+00 2.852897e+00 3.357987e+00 2.622494e+00 2.611831e+00 2.855290e+00 2.811722e+00 3.834351e+00 3.500806e+00 2.237972e+00 3.774428e+00 7.241109e-01 5.621197e-01 4.483543e-01 4.891711e-01 6.154907e-01 4.870479e-01 3.985737e-01 4.414839e-01 4.882278e-01 6.971759e-01 6.075451e-01 4.138243e-01 5.730136e-01
<GCONST> 1.263672e+02
<TRANSP> 5
 0.000000e+00 1.000000e+00 0.000000e+00 0.000000e+00 0.000000e+00
 0.000000e+00 7.256756e-01 2.743244e-01 0.000000e+00 0.000000e+00
 0.000000e+00 0.000000e+00 5.905862e-01 4.094138e-01 0.000000e+00
 0.000000e+00 0.000000e+00 0.000000e+00 7.853063e-01 2.146937e-01
 0.000000e+00 0.000000e+00 0.000000e+00 0.000000e+00 0.000000e+00
<ENDHMM>
~h "bo"
<BEGINHMM>
<NUMSTATES> 5
<STATE> 2
<MEAN> 39
 -2.132907e+01 -4.072118e+00 6.832952e+00 2.196715e+00 -2.038150e+00 -1.460268e+00 2.500975e+00 -6.628653e+00 -3.346897e+00 -6.862535e+00 -3.829252e+00 -7.040554e+00 4.321750e+01 1.028075e+00 -6.181368e-01 7.415293e-01 5.679983e-01 6.629713e-01 9.553925e-01 -1.948445e-01 5.030273e-01 -6.380141e-01 -3.038430e-01 8.961841e-02 6.340426e-01 1.053666e+00 9.848543e-03 -4.360969e-01 -1.463089e-01 -4.041463e-01 2.614572e-01 1.621321e-01 -5.194074e-01 -1.507977e-01 -1.051239e-02 -5.751451e-02 3.350482e-01 2.265236e-01 3.234046e-01
<VARIANCE> 39
 2.421902e+01 2.224081e+01 5.899843e+01 4.054125e+01 2.381033e+01 4.331241e+01 4.381953e+01 1.411982e+01 8.905880e+00 2.308076e+01 7.552530e+00 1.386604e+01 1.501905e+02 4.730289e-01 1.931352e+00 1.953970e+00 2.592366e+00 1.258244e+00 2.557661e+00 1.126676e+01 2.240768e+00 4.642320e-01 6.314847e-01 5.930384e-01 2.546041e+00 3.184618e+00 4.855068e-01 3.573389e-01 6.810834e-01 5.759677e-01 2.664139e-01 5.577821e-01 1.610776e+00 4.233141e-01 4.858526e-01 2.798358e-01 1.019176e-01 5.046283e-01 1.319718e+00
<GCONST> 1.107118e+02
<STATE> 3
<MEAN> 39
 -1.844539e+01 -8.970080e+00 5.863191e+00 -6.982474e-01 -5.101466e-02 3.587167e+00 -6.361930e+00 -3.965492e+00 -2.541806e+00 -4.107761e+00 1.396947e+00 -4.359009e+00 4.629316e+01 2.032609e+00 -6.346133e-01 -9.783186e-01 -3.053736e+00 1.248737e+00 -3.767921e-01 -1.847016e+00 -6.896975e-01 -4.188912e-01 8.936784e-01 1.052040e+00 -1.824717e+00 3.099711e+00 7.121964e-01 2.292386e-01 7.379395e-02 -1.012828e+00 5.689585e-01 -5.056263e-01 7.183466e-01 -5.321922e-01 -5.547664e-01 1.058972e-01 -4.198171e-01 -8.761420e-01 1.431089e+00
<VARIANCE> 39
 3.500697e+01 3.385214e+01 1.420748e+02 9.274590e+01 4.467370e+01 1.814401e+01 9.181452e+00 7.443343e+00 1.715425e+01 3.259546e+01 1.138327e+01 3.562327e+01 2.779695e+02 3.711409e+00 6.324807e-01 5.861627e+00 2.835857e+00 1.960891e+00 1.234905e+00 2.028363e+00 2.933124e+00 2.788154e+00 2.551865e+00 1.004826e+00 4.800095e+00 6.945724e+00 7.608744e-01 1.883144e-01 5.393513e-01 9.206412e-01 5.517272e-01 1.366964e-01 2.256153e-01 2.743272e-01 7.905023e-01 3.717688e-01 2.539061e-01 1.061384e+00 1.496819e+00
<GCONST> 1.187853e+02
<STATE> 4
<MEAN> 39
 -8.699151e+00 -5.923744e+00 3.485690e+00 -1.121509e+01 3.958139e+00 5.207568e-01 -8.027680e+00 -7.062680e+00 -7.217416e+00 -2.320723e+00 -8.285162e-01 -9.054752e+00 5.702327e+01 4.016041e+00 -2.310267e-01 1.694312e+00 -4.882987e+00 3.114745e+00 -1.320836e+00 4.036571e-01 -2.449121e-01 -2.778347e+00 3.310468e-01 -4.781457e-01 -8.581178e-01 6.941738e+00 -5.706974e-01 -1.853552e-01 4.663996e-01 3.552395e-01 2.048133e-01 -1.223322e-01 6.424448e-01 -6.657623e-03 3.239845e-02 2.531827e-01 -2.131833e-01 3.186108e-01 -7.304777e-02
<VARIANCE> 39
 1.806581e+01 4.590358e+01 9.621115e+01 3.138289e+01 7.280871e+01 2.348969e+01 5.643362e+01 3.575304e+01 8.318441e+00 9.256792e+00 1.669944e+01 4.648558e+01 1.573939e+02 4.701534e+00 8.817962e-01 2.236602e+00 6.149657e+00 7.093775e+00 1.796504e+00 1.674986e+00 1.710948e+00 2.374363e+00 7.918824e-01 1.650447e+00 2.282115e+00 1.352015e+01 4.231925e-01 2.349314e-01 7.918205e-01 8.866496e-01 3.553478e-01 1.725416e-01 3.720928e-01 4.264061e-01 6.838515e-01 2.544506e-01 3.269502e-01 2.510011e-01 1.110281e+00
<GCONST> 1.182857e+02
<TRANSP> 5
 0.000000e+00 1.000000e+00 0.000000e+00 0.000000e+00 0.000000e+00
 0.000000e+00 6.966020e-01 3.033980e-01 0.000000e+00 0.000000e+00
 0.000000e+00 0.000000e+00 4.129778e-01 5.870222e-01 0.000000e+00
 0.000000e+00 0.000000e+00 0.000000e+00 4.523129e-01 5.476871e-01
 0.000000e+00 0.000000e+00 0.000000e+00 0.000000e+00 0.000000e+00
<ENDHMM>
~h "bu"
<BEGINHMM>
<NUMSTATES> 5
<STATE> 2
<MEAN> 39
 -4.554533e+00 -3.730548e+00 8.518560e+00 -9.472480e+00 2.873968e+00 5.146425e-01 -4.491806e+00 -9.718484e+00 -9.538611e+00 -3.718191e+00 1.678120e+00 -8.387529e+00 6.523299e+01 4.865246e-02 3.386162e-01 -3.996925e-01 -5.351620e-01 -8.134647e-02 1.952684e-01 -8.730380e-02 -4.741245e-02 1.510923e-01 -7.357194e-02 1.014826e-01 4.327464e-02 -9.328127e-03 -2.601351e-02 -6.234242e-02 9.723207e-02 3.251342e-02 -7.113705e-02 -2.128199e-02 6.710410e-03 1.243879e-02 2.324396e-02 5.891934e-02 -6.108627e-03 -1.258494e-02 2.940843e-02
<VARIANCE> 39
 9.608932e+00 4.336638e+01 2.620734e+01 1.038752e+02 3.670052e+01 4.528998e+01 2.254522e+01 4.920549e+01 4.585663e+01 3.934141e+01 3.698203e+01 1.974510e+01 3.735813e+01 9.432572e-01 3.267815e+00 2.930930e+00 1.002892e+01 3.549103e+00 3.756766e+00 2.216282e+00 5.944151e+00 3.847900e+00 2.341355e+00 3.155511e+00 1.729742e+00 3.208946e+00 1.924076e-01 4.659648e-01 5.107706e-01 1.639441e+00 6.755058e-01 6.843407e-01 3.710192e-01 1.000604e+00 7.678635e-01 4.024956e-01 5.855635e-01 3.036996e-01 4.559621e-01
<GCONST> 1.244560e+02
<STATE> 3
<MEAN> 39
 -4.992713e+00 -5.915248e-01 5.339897e+00 -1.438059e+01 -4.035110e-01 -2.715714e+00 -5.223712e+00 -1.023149e+01 -9.276834e+00 -5.816455e+00 1.848446e+00 -8.151031e+00 6.641029e+01 -3.692242e-01 -3.128912e-01 -3.039365e-01 5.225780e-01 1.394642e-01 -2.605847e-01 2.168232e-01 -3.250107e-02 5.887121e-01 4.548135e-02 -5.143138e-02 7.862882e-02 -2.919199e-01 -9.216788e-02 -7.359296e-02 -1.484364e-01 -7.774527e-02 6.264622e-02 -1.056571e-01 7.193562e-02 9.707350e-02 -4.954386e-03 -9.819595e-02 -5.135285e-02 -2.192884e-02 -4.673265e-02
<VARIANCE> 39
 1.075872e+01 3.763625e+01 3.259805e+01 1.226489e+02 2.629665e+01 3.425022e+01 3.306949e+01 4.902578e+01 4.187649e+01 3.566485e+01 2.107532e+01 1.760680e+01 3.167505e+01 1.002324e+00 2.595834e+00 1.838890e+00 6.192751e+00 1.037647e+00 2.069972e+00 1.842318e+00 2.254897e+00 3.489980e+00 2.798168e+00 2.571359e+00 1.560467e+00 1.313968e+00 1.436406e-01 3.617151e-01 2.762296e-01 7.695875e-01 2.205043e-01 3.527196e-01 3.313506e-01 5.844694e-01 6.349209e-01 5.275675e-01 4.492586e-01 2.649479e-01 1.274403e-01
<GCONST> 1.123846e+02
<STATE> 4
<MEAN> 39
 -1.012668e+01 -4.784122e+00 2.720880e+00 -8.334871e+00 2.698076e+00 -1.401889e+00 -2.589432e+00 -1.246516e+01 -3.424615e+00 -4.262847e+00 1.977472e+00 -6.737995e+00 6.002132e+01 -7.111852e-01 -7.029319e-02 -5.752447e-01 6.244585e-01 -4.328745e-02 -2.675726e-01 3.332550e-02 1.292566e-01 5.856236e-01 -4.093311e-01 -4.455828e-01 -4.442942e-01 -9.469360e-01 6.538430e-02 2.232166e-02 1.819866e-02 -2.075596e-01 -1.057337e-01 -1.404611e-02 -1.897114e-01 2.286174e-01 -1.689471e-01 -6.656581e-02 -4.192839e-02 -1.713817e-01 1.356766e-01
<VARIANCE> 39
 3.049842e+01 3.849480e+01 8.404388e+01 7.467557e+01 1.836396e+01 3.845377e+01 4.091105e+01 4.308964e+01 3.185141e+01 3.902195e+01 2.054883e+01 2.608324e+01 3.555731e+01 7.384138e-01 2.384684e+00 1.739083e+00 2.358057e+00 1.337332e+00 1.705962e+00 1.566047e+00 3.897777e+00 1.999280e+00 2.723519e+00 2.112599e+00 2.355238e+00 1.032592e+00 1.134861e-01 4.907817e-01 3.489712e-01 7.917194e-01 3.580703e-01 3.521326e-01 2.913881e-01 4.347213e-01 4.880780e-01 4.036359e-01 4.751377e-01 4.277843e-01 3.401694e-01
<GCONST> 1.138398e+02
<TRANSP> 5
 0.000000e+00 1.000000e+00 0.000000e+00 0.000000e+00 0.000000e+00
 0.000000e+00 9.268089e-01 7.319109e-02 0.000000e+00 0.000000e+00
 0.000000e+00 0.000000e+00 8.246767e-01 1.753233e-01 0.000000e+00
 0.000000e+00 0.000000e+00 0.000000e+00 6.669595e-01 3.330405e-01
 0.000000e+00 0.000000e+00 0.000000e+00 0.000000e+00 0.000000e+00
<ENDHMM>
~h "ca"
<BEGINHMM>
<NUMSTATES> 5
<STATE> 2
<MEAN> 39
 -1.374541e+01 -2.527642e+00 1.172495e+01 2.727142e+00 -8.045231e+00 -1.117636e+01 -5.144059e+00 -1.032702e+01 -5.490055e+00 -9.730245e+00 3.109082e+00 -6.411792e+00 6.583823e+01 -1.761835e+00 4.959584e-01 5.501096e-01 -4.488138e-01 2.251962e-01 2.193305e-01 1.654150e+00 -5.269243e-02 2.476994e-01 -8.926423e-01 5.740600e-01 5.608042e-01 8.294858e-01 -5.975997e-01 -2.480059e-01 -3.436375e-01 -2.124448e-01 4.131210e-01 2.534158e-01 4.294115e-01 9.881805e-02 2.995770e-01 5.454816e-03 -1.707617e-02 -1.748725e-01 -1.647425e-02
<VARIANCE> 39
 3.238902e+01 2.536013e+01 4.807522e+01 1.103317e+01 7.506651e+01 2.915315e+01 5.217137e+01 1.031557e+01 2.989521e+01 2.200641e+01 2.330326e+01 1.614401e+01 7.684065e+01 3.696658e+00 5.206165e+00 3.849820e+00 6.858758e-01 1.369663e+01 4.445255e+00 4.869022e+00 1.754172e+00 4.492229e+00 3.769544e+00 2.301895e+00 2.408557e+00 6.935381e+00 8.669711e-01 9.202284e-01 5.401993e-01 2.036053e-01 1.971391e+00 1.080530e+00 9.563019e-01 3.854854e-01 8.274140e-01 6.536565e-01 3.635935e-01 5.750046e-01 1.330044e+00
<GCONST> 1.274932e+02
<STATE> 3
<MEAN> 39
 -2.340664e+01 -5.064222e+00 4.897056e+00 -1.737781e+00 2.935555e-01 -1.119774e+01 2.349683e+00 -9.033191e+00 -3.011605e-02 -9.533997e+00 2.001351e+00 -4.977221e+00 6.335930e+01 -7.662948e-01 -1.063236e+00 -6.187637e-01 -8.793672e-01 1.946571e-02 -1.791126e-01 2.470372e-01 4.385189e-01 6.686755e-01 3.027379e-01 -2.261818e-01 2.299521e-01 7.813212e-01 9.027931e-01 3.948222e-02 1.255950e-01 -7.996611e-03 -3.572060e-01 -2.687172e-01 -3.757859e-01 1.060738e-02 -1.169112e-01 1.216272e-01 -2.814831e-01 3.796085e-02 7.357442e-02
<VARIANCE> 39
 6.958150e+01 3.483124e+01 1.982991e+01 2.582187e+01 1.798445e+01 5.663092e+01 3.645336e+01 2.408188e+01 2.826584e+01 1.767065e+01 8.982748e+00 1.301618e+01 4.201447e+01 1.029014e+01 4.658554e+00 3.928816e+00 3.048976e+00 3.052255e+00 8.007040e+00 4.550410e+00 2.518077e+00 3.619742e+00 1.822497e+00 1.556230e+00 1.271540e+00 8.805546e+00 1.702048e+00 9.338840e-01 8.316003e-01 3.929232e-01 7.115231e-01 1.527149e+00 9.231057e-01 4.298851e-01 7.529513e-01 4.905279e-01 2.513709e-01 2.681583e-01 1.667965e+00
<GCONST> 1.261799e+02
<STATE> 4
<MEAN> 39
 -1.532798e+01 -8.563129e+00 6.552128e+00 -6.748672e+00 -2.805158e+00 -1.222866e+01 1.524895e+00 -6.326836e+00 1.341992e+00 -9.893817e+00 -6.465744e-01 -3.596830e+00 6.794875e+01 1.934475e+00 -6.577871e-01 3.444042e-01 -8.834611e-02 -2.184129e-01 -2.643944e-01 -5.986115e-02 1.554434e-01 -1.089569e-01 -1.838877e-01 -8.544700e-01 -2.915653e-01 1.048726e+00 -1.794100e-01 8.643872e-02 -8.839118e-02 2.187905e-01 1.989282e-01 1.693103e-01 1.263736e-01 -9.388016e-02 -1.549039e-02 -2.186545e-02 6.841870e-02 -1.179886e-01 -1.253024e-01
<VARIANCE> 39
 9.670265e+01 3.234242e+01 2.797428e+01 1.596257e+01 1.801031e+01 2.666445e+01 1.753391e+01 2.874401e+01 1.185308e+01 1.981403e+01 3.742983e+01 8.562895e+00 8.629486e+01 9.305372e+00 3.483883e+00 4.797472e+00 2.738727e+00 2.597567e+00 2.669290e+00 1.636252e+00 2.870140e+00 1.254430e+00 3.266313e+00 3.340546e+00 1.166851e+00 8.257326e+00 1.837809e+00 5.843236e-01 9.680872e-01 5.408765e-01 4.526933e-01 5.947233e-01 2.810507e-01 6.190001e-01 2.529774e-01 5.949955e-01 6.871448e-01 1.924745e-01 1.432329e+00
<GCONST> 1.211355e+02
<TRANSP> 5
 0.000000e+00 1.000000e+00 0.000000e+00 0.000000e+00 0.000000e+00
 0.000000e+00 8.017194e-01 1.982806e-01 0.000000e+00 0.000000e+00
 0.000000e+00 0.000000e+00 8.338036e-01 1.661964e-01 0.000000e+00
 0.000000e+00 0.000000e+00 0.000000e+00 9.015699e-01 9.843011e-02
 0.000000e+00 0.000000e+00 0.000000e+00 0.000000e+00 0.000000e+00
<ENDHMM>
~h "ce"
<BEGINHMM>
<NUMSTATES> 5
<STATE> 2
<MEAN> 39
 -1.414439e+01 -7.743544e+00 2.981896e+00 -3.338959e+00 -1.236701e+00 -4.557664e+00 -2.877691e+00 -5.862136e+00 -3.202762e+00 -3.443379e+00 -1.721877e+00 -6.371274e+00 5.579076e+01 6.232359e-03 -1.184804e-02 5.264054e-03 -6.519258e-03 1.211933e-02 -4.235122e-03 -3.513063e-03 -1.805109e-02 -5.453553e-03 -6.036517e-03 -7.011238e-03 -6.053182e-03 2.423620e-02 -9.010879e-04 1.120917e-04 9.610619e-04 -2.967312e-04 -9.533982e-04 -8.676147e-04 1.872286e-03 1.397449e-03 1.512503e-03 6.096156e-04 -1.876927e-03 -2.391097e-03 8.105883e-05
<VARIANCE> 39
 8.422131e+01 6.084932e+01 1.073184e+02 6.955961e+01 5.446898e+01 7.079699e+01 4.003558e+01 5.404599e+01 3.966318e+01 3.654010e+01 3.580028e+01 3.070767e+01 4.210256e+02 2.718939e+00 2.774098e+00 2.577951e+00 3.647006e+00 2.640604e+00 2.721262e+00 2.408642e+00 3.156995e+00 2.811726e+00 2.666955e+00 2.489032e+00 1.730701e+00 5.594233e+00 4.269344e-01 4.867565e-01 4.137163e-01 6.318190e-01 4.706055e-01 4.998690e-01 4.513081e-01 5.820021e-01 5.208251e-01 5.037160e-01 4.586603e-01 3.360357e-01 8.262613e-01
<GCONST> 1.297615e+02
<STATE> 3
<MEAN> 39
 -1.414439e+01 -7.743544e+00 2.981896e+00 -3.338959e+00 -1.236701e+00 -4.557664e+00 -2.877691e+00 -5.862136e+00 -3.202762e+00 -3.443379e+00 -1.721877e+00 -6.371274e+00 5.579076e+01 6.232359e-03 -1.184804e-02 5.264054e-03 -6.519258e-03 1.211933e-02 -4.235122e-03 -3.513063e-03 -1.805109e-02 -5.453553e-03 -6.036517e-03 -7.011238e-03 -6.053182e-03 2.423620e-02 -9.010879e-04 1.120917e-04 9.610619e-04 -2.967312e-04 -9.533982e-04 -8.676147e-04 1.872286e-03 1.397449e-03 1.512503e-03 6.096156e-04 -1.876927e-03 -2.391097e-03 8.105883e-05
<VARIANCE> 39
 8.422131e+01 6.084932e+01 1.073184e+02 6.955961e+01 5.446898e+01 7.079699e+01 4.003558e+01 5.404599e+01 3.966318e+01 3.654010e+01 3.580028e+01 3.070767e+01 4.210256e+02 2.718939e+00 2.774098e+00 2.577951e+00 3.647006e+00 2.640604e+00 2.721262e+00 2.408642e+00 3.156995e+00 2.811726e+00 2.666955e+00 2.489032e+00 1.730701e+00 5.594233e+00 4.269344e-01 4.867565e-01 4.137163e-01 6.318190e-01 4.706055e-01 4.998690e-01 4.513081e-01 5.820021e-01 5.208251e-01 5.037160e-01 4.586603e-01 3.360357e-01 8.262613e-01
<GCONST> 1.297615e+02
<STATE> 4
<MEAN> 39
 -1.414439e+01 -7.743544e+00 2.981896e+00 -3.338959e+00 -1.236701e+00 -4.557664e+00 -2.877691e+00 -5.862136e+00 -3.202762e+00 -3.443379e+00 -1.721877e+00 -6.371274e+00 5.579076e+01 6.232359e-03 -1.184804e-02 5.264054e-03 -6.519258e-03 1.211933e-02 -4.235122e-03 -3.513063e-03 -1.805109e-02 -5.453553e-03 -6.036517e-03 -7.011238e-03 -6.053182e-03 2.423620e-02 -9.010879e-04 1.120917e-04 9.610619e-04 -2.967312e-04 -9.533982e-04 -8.676147e-04 1.872286e-03 1.397449e-03 1.512503e-03 6.096156e-04 -1.876927e-03 -2.391097e-03 8.105883e-05
<VARIANCE> 39
 8.422131e+01 6.084932e+01 1.073184e+02 6.955961e+01 5.446898e+01 7.079699e+01 4.003558e+01 5.404599e+01 3.966318e+01 3.654010e+01 3.580028e+01 3.070767e+01 4.210256e+02 2.718939e+00 2.774098e+00 2.577951e+00 3.647006e+00 2.640604e+00 2.721262e+00 2.408642e+00 3.156995e+00 2.811726e+00 2.666955e+00 2.489032e+00 1.730701e+00 5.594233e+00 4.269344e-01 4.867565e-01 4.137163e-01 6.318190e-01 4.706055e-01 4.998690e-01 4.513081e-01 5.820021e-01 5.208251e-01 5.037160e-01 4.586603e-01 3.360357e-01 8.262613e-01
<GCONST> 1.297615e+02
<TRANSP> 5
 0.000000e+00 1.000000e+00 0.000000e+00 0.000000e+00 0.000000e+00
 0.000000e+00 6.000000e-01 4.000000e-01 0.000000e+00 0.000000e+00
