~o
<STREAMINFO> 1 39
<VECSIZE> 39<NULLD><MFCC_D_A_0><DIAGC>
~s "silst"
<MEAN> 39
 -2.592445e+01 1.646364e+00 -1.013688e+01 4.033383e+00 -7.044710e+00 5.191932e+00 -3.638117e+00 1.136450e+00 5.501001e-01 -9.657019e-01 1.098428e+00 -4.631084e-01 2.294571e+01 7.776106e-04 -7.316805e-04 -5.785562e-03 -4.023110e-03 1.846481e-02 3.165229e-02 -6.588561e-03 -1.732302e-02 -1.136497e-02 -7.753054e-03 -9.375744e-03 -6.565630e-03 -2.083195e-03 9.331189e-03 -4.755030e-03 1.694177e-02 -1.559257e-03 -1.867048e-03 -1.654889e-02 6.243061e-03 5.801867e-03 -2.807809e-03 -3.620323e-03 -1.570142e-02 -1.520017e-02 1.919757e-02
<VARIANCE> 39
 9.742216e-01 2.334745e+00 2.603431e+00 3.499822e+00 6.033431e+00 7.430762e+00 8.454782e+00 1.005798e+01 9.136662e+00 8.140990e+00 8.920257e+00 7.923611e+00 4.212238e+00 7.419150e-02 1.614574e-01 2.558383e-01 3.639047e-01 7.229260e-01 8.271490e-01 1.250737e+00 1.415889e+00 1.019127e+00 8.576583e-01 9.718195e-01 8.949599e-01 5.594234e-02 2.054749e-02 3.468701e-02 5.604610e-02 7.715958e-02 1.488496e-01 1.659133e-01 2.955773e-01 3.292110e-01 2.129750e-01 1.721406e-01 2.020525e-01 1.848895e-01 2.368272e-02
<GCONST> 5.400381e+01
~h "a"
<BEGINHMM>
<NUMSTATES> 5
<STATE> 2
<MEAN> 39
 -8.130033e+00 -1.378499e+01 9.398731e+00 -1.173670e+01 2.799886e-02 -8.057713e+00 -1.718736e+00 -5.687812e+00 -5.629462e+00 -1.656703e+00 -1.716633e+00 -7.874217e+00 7.284225e+01 1.455208e-01 -8.572538e-01 -2.234647e-01 -1.069838e-01 2.871887e-01 -4.206383e-01 3.226413e-01 6.537388e-01 2.992735e-01 -4.402073e-01 -7.574822e-01 -5.938029e-02 7.911914e-01 -1.386713e-02 1.442137e-01 -3.852226e-02 1.596113e-01 3.360151e-02 4.885004e-02 -2.665057e-02 -1.184198e-01 4.274286e-02 -1.163044e-01 -2.963791e-02 -2.134892e-02 -1.693248e-01
<VARIANCE> 39
 2.509492e+01 3.144035e+01 9.693040e+01 3.941624e+01 5.164744e+01 7.514996e+01 4.068346e+01 4.334815e+01 3.439298e+01 3.899506e+01 3.564642e+01 2.150607e+01 7.665746e+01 1.740101e+00 2.246721e+00 2.422470e+00 3.069074e+00 2.484825e+00 2.773610e+00 2.047076e+00 2.652560e+00 1.447378e+00 2.614618e+00 1.994981e+00 1.551197e+00 4.521915e+00 2.538233e-01 3.539492e-01 3.242251e-01 4.893242e-01 4.841549e-01 4.648833e-01 3.425857e-01 4.533713e-01 2.972752e-01 4.285989e-01 3.400316e-01 2.590049e-01 5.411519e-01
<GCONST> 1.187707e+02
<STATE> 3
<MEAN> 39
 -7.331214e+00 -1.748493e+01 7.644360e+00 -1.126639e+01 1.810160e+00 -1.055704e+01 -9.589126e-01 -3.227120e+00 -4.335515e+00 -5.007044e+00 -6.968145e+00 -7.947669e+00 7.517584e+01 4.089748e-01 -4.581119e-01 -7.628284e-02 2.096867e-01 4.311001e-01 -2.591091e-01 2.374734e-01 2.957923e-01 2.145910e-01 -5.257014e-01 -7.618918e-01 7.584329e-02 6.560791e-01 -1.042461e-01 4.925947e-01 4.881036e-02 2.509495e-01 -1.228275e-01 1.740648e-01 -9.118493e-02 -2.983216e-01 -2.147095e-02 2.021457e-01 2.753523e-01 6.796508e-02 -4.993566e-01
<VARIANCE> 39
 1.252768e+01 2.141019e+01 4.674138e+01 2.781596e+01 4.655122e+01 4.567225e+01 4.653588e+01 4.084227e+01 2.437007e+01 3.877944e+01 3.975755e+01 2.371279e+01 4.326456e+01 1.864396e+00 2.632147e+00 2.977361e+00 2.322808e+00 3.099060e+00 2.149279e+00 1.804759e+00 2.004866e+00 1.573337e+00 2.081223e+00 2.157692e+00 1.525846e+00 5.676259e+00 2.416087e-01 3.314547e-01 2.733758e-01 3.606273e-01 3.165123e-01 3.295774e-01 3.432485e-01 4.380060e-01 2.357531e-01 3.871303e-01 3.391520e-01 3.176842e-01 4.440243e-01
<GCONST> 1.135089e+02
<STATE> 4
<MEAN> 39
 -8.385505e+00 -1.424706e+01 5.628241e+00 -6.697876e+00 4.743938e+00 -8.893262e+00 1.435325e+00 -5.041925e+00 -3.005773e+00 -7.319315e+00 -6.986226e+00 -7.624656e+00 7.110796e+01 -1.979910e-01 6.965122e-01 2.339892e-04 6.413642e-01 -1.051953e-01 1.155334e-01 -1.447002e-01 -1.883036e-01 1.279339e-01 7.776946e-02 1.483054e-01 1.375220e-01 -9.252695e-01 -9.402619e-02 1.982167e-01 5.397281e-02 1.369615e-01 -9.207815e-02 9.181961e-02 -7.177614e-02 -9.454761e-02 1.978280e-02 4.675426e-02 1.160057e-01 3.978517e-04 -3.017911e-01
<VARIANCE> 39
 2.133287e+01 3.855371e+01 5.290226e+01 5.910080e+01 5.526681e+01 4.760107e+01 4.471836e+01 3.829203e+01 2.236577e+01 4.648632e+01 3.392888e+01 2.165508e+01 8.333865e+01 8.760505e-01 2.460358e+00 2.103774e+00 2.970537e+00 2.350911e+00 2.084969e+00 1.978592e+00 2.103531e+00 1.588115e+00 2.179451e+00 1.808124e+00 1.572729e+00 3.161485e+00 1.644891e-01 3.900175e-01 2.533567e-01 5.513667e-01 3.109699e-01 3.381075e-01 3.124279e-01 3.969072e-01 2.661624e-01 4.093207e-01 3.081858e-01 2.647964e-01 4.020762e-01
<GCONST> 1.140922e+02
<TRANSP> 5
 0.000000e+00 1.000000e+00 0.000000e+00 0.000000e+00 0.000000e+00
 0.000000e+00 6.869112e-01 3.130888e-01 0.000000e+00 0.000000e+00
 0.000000e+00 0.000000e+00 5.461727e-01 4.538273e-01 0.000000e+00
 0.000000e+00 0.000000e+00 0.000000e+00 8.115503e-01 1.884497e-01
 0.000000e+00 0.000000e+00 0.000000e+00 0.000000e+00 0.000000e+00
<ENDHMM>
~h "b"
<BEGINHMM>
<NUMSTATES> 5
<STATE> 2
<MEAN> 39
 -1.414439e+01 -7.743544e+00 2.981896e+00 -3.338959e+00 -1.236701e+00 -4.557664e+00 -2.877691e+00 -5.862136e+00 -3.202762e+00 -3.443379e+00 -1.721877e+00 -6.371274e+00 5.579076e+01 6.232237e-03 -1.184823e-02 5.264243e-03 -6.519453e-03 1.211909e-02 -4.235385e-03 -3.512999e-03 -1.805082e-02 -5.453523e-03 -6.036744e-03 -7.011249e-03 -6.053052e-03 2.423646e-02 -9.010978e-04 1.120651e-04 9.610648e-04 -2.967558e-04 -9.534184e-04 -8.676232e-04 1.872276e-03 1.397487e-03 1.512468e-03 6.095680e-04 -1.876877e-03 -2.391075e-03 8.105070e-05
<VARIANCE> 39
 8.422131e+01 6.084932e+01 1.073184e+02 6.955961e+01 5.446898e+01 7.079699e+01 4.003558e+01 5.404599e+01 3.966318e+01 3.654010e+01 3.580028e+01 3.070767e+01 4.210256e+02 2.718938e+00 2.774098e+00 2.577952e+00 3.647003e+00 2.640600e+00 2.721259e+00 2.408645e+00 3.156996e+00 2.811730e+00 2.666958e+00 2.489032e+00 1.730705e+00 5.594234e+00 4.269334e-01 4.867562e-01 4.137151e-01 6.318184e-01 4.706049e-01 4.998694e-01 4.513086e-01 5.820031e-01 5.208243e-01 5.037161e-01 4.586620e-01 3.360353e-01 8.262612e-01
<GCONST> 1.297615e+02
<STATE> 3
<MEAN> 39
 -1.414439e+01 -7.743544e+00 2.981896e+00 -3.338959e+00 -1.236701e+00 -4.557664e+00 -2.877691e+00 -5.862136e+00 -3.202762e+00 -3.443379e+00 -1.721877e+00 -6.371274e+00 5.579076e+01 6.232237e-03 -1.184823e-02 5.264243e-03 -6.519453e-03 1.211909e-02 -4.235385e-03 -3.512999e-03 -1.805082e-02 -5.453523e-03 -6.036744e-03 -7.011249e-03 -6.053052e-03 2.423646e-02 -9.010978e-04 1.120651e-04 9.610648e-04 -2.967558e-04 -9.534184e-04 -8.676232e-04 1.872276e-03 1.397487e-03 1.512468e-03 6.095680e-04 -1.876877e-03 -2.391075e-03 8.105070e-05
<VARIANCE> 39
 8.422131e+01 6.084932e+01 1.073184e+02 6.955961e+01 5.446898e+01 7.079699e+01 4.003558e+01 5.404599e+01 3.966318e+01 3.654010e+01 3.580028e+01 3.070767e+01 4.210256e+02 2.718938e+00 2.774098e+00 2.577952e+00 3.647003e+00 2.640600e+00 2.721259e+00 2.408645e+00 3.156996e+00 2.811730e+00 2.666958e+00 2.489032e+00 1.730705e+00 5.594234e+00 4.269334e-01 4.867562e-01 4.137151e-01 6.318184e-01 4.706049e-01 4.998694e-01 4.513086e-01 5.820031e-01 5.208243e-01 5.037161e-01 4.586620e-01 3.360353e-01 8.262612e-01
<GCONST> 1.297615e+02
<STATE> 4
<MEAN> 39
 -1.414439e+01 -7.743544e+00 2.981896e+00 -3.338959e+00 -1.236701e+00 -4.557664e+00 -2.877691e+00 -5.862136e+00 -3.202762e+00 -3.443379e+00 -1.721877e+00 -6.371274e+00 5.579076e+01 6.232237e-03 -1.184823e-02 5.264243e-03 -6.519453e-03 1.211909e-02 -4.235385e-03 -3.512999e-03 -1.805082e-02 -5.453523e-03 -6.036744e-03 -7.011249e-03 -6.053052e-03 2.423646e-02 -9.010978e-04 1.120651e-04 9.610648e-04 -2.967558e-04 -9.534184e-04 -8.676232e-04 1.872276e-03 1.397487e-03 1.512468e-03 6.095680e-04 -1.876877e-03 -2.391075e-03 8.105070e-05
<VARIANCE> 39
 8.422131e+01 6.084932e+01 1.073184e+02 6.955961e+01 5.446898e+01 7.079699e+01 4.003558e+01 5.404599e+01 3.966318e+01 3.654010e+01 3.580028e+01 3.070767e+01 4.210256e+02 2.718938e+00 2.774098e+00 2.577952e+00 3.647003e+00 2.640600e+00 2.721259e+00 2.408645e+00 3.156996e+00 2.811730e+00 2.666958e+00 2.489032e+00 1.730705e+00 5.594234e+00 4.269334e-01 4.867562e-01 4.137151e-01 6.318184e-01 4.706049e-01 4.998694e-01 4.513086e-01 5.820031e-01 5.208243e-01 5.037161e-01 4.586620e-01 3.360353e-01 8.262612e-01
<GCONST> 1.297615e+02
<TRANSP> 5
 0.000000e+00 1.000000e+00 0.000000e+00 0.000000e+00 0.000000e+00
 0.000000e+00 6.000000e-01 4.000000e-01 0.000000e+00 0.000000e+00
 0.000000e+00 0.000000e+00 6.000000e-01 4.000000e-01 0.000000e+00
 0.000000e+00 0.000000e+00 0.000000e+00 7.000000e-01 3.000000e-01
 0.000000e+00 0.000000e+00 0.000000e+00 0.000000e+00 0.000000e+00
<ENDHMM>
~h "e"
<BEGINHMM>
<NUMSTATES> 5
<STATE> 2
<MEAN> 39
 -1.856608e+01 -3.192745e+00 -7.417243e-01 3.835956e+00 -3.620525e+00 -1.903503e+00 -6.575418e-02 -6.572612e+00 -9.433878e-01 -3.304365e+00 -6.124806e-01 -3.793780e+00 4.363662e+01 -2.574197e-01 2.063601e-01 -2.782092e-01 -5.682195e-01 1.204598e-01 -4.139792e-01 8.100057e-02 1.760457e-01 1.278924e-01 9.923826e-01 -5.548469e-02 2.459016e-01 -5.126274e-01 3.344889e-01 -6.521710e-01 2.355570e-01 -9.249239e-01 2.983747e-01 -7.928470e-01 -1.272654e-01 -1.501385e-01 -1.884139e-01 4.296711e-02 -1.225463e-01 -1.543653e-01 1.334282e+00
<VARIANCE> 39
 9.927946e+01 2.876327e+01 8.140119e+01 2.717324e+01 3.571022e+01 6.601207e+01 4.365179e+01 7.998634e+01 1.240005e+01 4.937044e+01 2.424131e+01 2.424438e+01 3.187386e+02 3.755640e+00 3.623678e+00 2.508033e+00 6.024117e+00 4.540786e+00 7.993294e+00 1.677408e+00 3.346615e+00 8.663238e-01 3.463612e+00 3.420663e+00 8.765139e-01 1.485070e+01 7.593740e-01 7.066583e-01 4.725040e-01 6.401659e-01 8.136319e-01 1.316999e+00 4.206948e-01 6.462527e-01 1.267004e-01 5.912743e-01 4.263456e-01 1.911584e-01 1.946714e+00
<GCONST> 1.298708e+02
<STATE> 3
<MEAN> 39
 -1.135096e+01 -9.215514e+00 5.758811e+00 -2.562998e+00 -5.133480e-01 -1.312233e+01 -7.512500e-01 -9.717940e+00 -2.766266e+00 2.074487e+00 -3.836330e+00 -6.309115e+00 6.051434e+01 9.275543e-01 -1.350817e+00 1.645359e+00 -2.375889e+00 1.679228e+00 -1.211412e+00 -4.279861e-01 -1.629681e-01 -3.151893e-01 6.296344e-01 2.149813e-02 -5.137927e-01 3.924465e+00 -2.474994e-01 -1.021751e-01 4.257586e-02 -2.722929e-02 5.444014e-02 9.782214e-01 4.912021e-02 1.524379e-01 2.129249e-03 -7.021677e-01 8.908964e-02 9.678745e-02 -7.793641e-02
<VARIANCE> 39
 4.553991e+01 2.912686e+01 9.319814e+01 6.648273e+01 2.785904e+01 5.592701e+01 4.685167e+01 3.330717e+01 1.391154e+01 3.866390e+01 2.807040e+01 1.980011e+01 1.323935e+02 6.557096e+00 4.522496e+00 2.209147e+00 6.644763e+00 3.458410e+00 8.809484e+00 3.860789e+00 5.146045e+00 1.417125e+00 6.967135e+00 3.454316e+00 1.850347e+00 7.327850e+00 6.395301e-01 1.125786e+00 5.769494e-01 1.082805e+00 5.859022e-01 1.179291e+00 5.328453e-01 3.551479e-01 2.801659e-01 1.121504e+00 6.691443e-01 3.173505e-01 1.898443e+00
<GCONST> 1.335157e+02
<STATE> 4
<MEAN> 39
 -1.045184e+01 -7.793569e+00 1.749015e+01 -1.083021e+01 -3.501055e+00 -6.459192e+00 1.187170e+00 -1.319357e+01 -3.438170e+00 3.222768e+00 -4.500738e+00 -8.328047e+00 7.156772e+01 -3.391276e-02 -2.864336e-01 -1.899508e-01 -3.847598e-02 2.311736e-01 2.756387e-01 -1.043245e-01 2.209025e-01 8.633440e-02 -2.077816e-01 -8.195454e-03 1.062704e-01 1.228667e-01 -2.175025e-02 1.989634e-02 -1.605080e-01 1.065248e-01 -5.441554e-03 7.833478e-02 2.924426e-02 2.589827e-02 4.662364e-03 -1.178556e-01 -2.326408e-02 -2.400449e-02 -8.833401e-02
<VARIANCE> 39
 2.318818e+01 3.967173e+01 4.448721e+01 9.234966e+01 3.731118e+01 6.207581e+01 6.403223e+01 3.154802e+01 1.418046e+01 4.399541e+01 1.815216e+01 8.273531e+00 7.140640e+01 2.652246e-01 9.794991e-01 1.309622e+00 1.392530e+00 7.065523e-01 2.236657e+00 1.091215e+00 9.333065e-01 6.082343e-01 1.174440e+00 9.023378e-01 4.991320e-01 1.679944e+00 7.383712e-02 1.906804e-01 1.771583e-01 2.966957e-01 1.733814e-01 3.803919e-01 1.396120e-01 1.642892e-01 8.517984e-02 2.030617e-01 1.807241e-01 8.556025e-02 2.801042e-01
<GCONST> 9.380879e+01
<TRANSP> 5
 0.000000e+00 1.000000e+00 0.000000e+00 0.000000e+00 0.000000e+00
 0.000000e+00 6.091803e-01 3.908196e-01 0.000000e+00 0.000000e+00
 0.000000e+00 0.000000e+00 5.693124e-01 4.306876e-01 0.000000e+00
 0.000000e+00 0.000000e+00 0.000000e+00 9.078281e-01 9.217187e-02
 0.000000e+00 0.000000e+00 0.000000e+00 0.000000e+00 0.000000e+00
<ENDHMM>
~h "h"
<BEGINHMM>
<NUMSTATES> 5
<STATE> 2
<MEAN> 39
 -9.919979e+00 -8.773268e+00 6.724588e+00 -4.908971e+00 3.994825e+00 -7.203318e+00 -3.332592e-01 -9.837952e+00 -2.217667e+00 -8.057321e+00 -4.292671e+00 -8.471087e+00 6.923345e+01 -6.813676e-01 7.903124e-01 -3.639158e-01 8.705820e-01 7.778172e-01 8.611391e-01 6.576232e-01 -4.964131e-01 6.683440e-01 -4.453750e-01 -9.671661e-02 -4.934339e-01 -1.194578e+00 -1.595874e-01 -5.337976e-02 -6.727394e-02 -7.545871e-02 -1.677569e-01 -6.159904e-02 -5.136592e-02 1.427509e-01 -3.304558e-02 3.141127e-01 1.460018e-01 1.733003e-01 -1.980722e-01
<VARIANCE> 39
 4.487579e+01 4.671878e+01 4.603317e+01 4.194456e+01 3.522079e+01 6.043092e+01 3.248442e+01 4.494927e+01 4.257982e+01 4.672220e+01 4.269055e+01 2.139680e+01 7.421985e+01 3.615144e+00 4.773053e+00 2.724934e+00 5.163255e+00 2.320409e+00 3.201100e+00 2.657701e+00 3.820278e+00 3.044943e+00 3.521116e+00 3.788238e+00 2.205471e+00 4.610860e+00 4.884264e-01 7.411653e-01 3.032604e-01 9.939992e-01 3.719855e-01 5.067442e-01 4.176123e-01 7.436510e-01 8.612474e-01 6.872501e-01 5.798164e-01 3.606112e-01 5.547425e-01
<GCONST> 1.286669e+02
<STATE> 3
<MEAN> 39
 -1.157508e+01 -8.361274e+00 6.514453e+00 -3.523300e+00 5.332778e+00 -6.454574e+00 1.504134e+00 -9.114275e+00 -9.869910e-01 -7.954850e+00 -4.646608e+00 -9.265847e+00 6.740436e+01 -7.851372e-01 6.584131e-01 -5.706735e-01 5.833840e-01 4.900340e-02 5.526459e-01 2.043480e-01 -1.002807e-01 4.755718e-01 3.941119e-01 1.381965e-01 2.356099e-01 -1.737820e+00 -4.583193e-02 -1.773937e-01 -6.283642e-02 -1.572982e-01 -2.966767e-01 -1.803023e-01 -2.952684e-01 1.824477e-02 -1.022939e-01 1.943522e-01 2.284144e-01 2.628756e-01 -9.124752e-02
<VARIANCE> 39
 5.381134e+01 3.532722e+01 5.329210e+01 4.775970e+01 3.164856e+01 6.034213e+01 3.352004e+01 3.744426e+01 5.391919e+01 5.191814e+01 3.792523e+01 1.988398e+01 8.249475e+01 3.842786e+00 2.943617e+00 2.728324e+00 4.156233e+00 2.753468e+00 3.079964e+00 2.511086e+00 4.101346e+00 3.019081e+00 2.347889e+00 3.874113e+00 2.035047e+00 3.770488e+00 3.378993e-01 6.263109e-01 4.860994e-01 7.729155e-01 3.772001e-01 4.803702e-01 3.663780e-01 4.544184e-01 7.881375e-01 5.449178e-01 4.608240e-01 4.071600e-01 5.548155e-01
<GCONST> 1.262684e+02
<STATE> 4
<MEAN> 39
 -1.851032e+01 -5.416791e+00 -1.783740e+00 -1.679203e+00 -8.826702e-01 -6.268680e-01 -1.163581e+00 -7.241348e+00 -2.084975e+00 -5.458778e+00 -2.627511e+00 -5.625590e+00 4.659002e+01 -2.899411e-01 2.776211e-01 -4.309016e-01 2.478060e-01 -3.508245e-01 1.043893e-01 -1.926917e-01 3.501880e-01 1.033305e-01 2.563455e-01 2.068200e-01 2.138439e-01 -1.117342e+00 -5.590359e-03 -6.050399e-02 3.811354e-02 -1.618541e-02 -3.746828e-02 -7.254756e-02 -4.641610e-02 -1.068020e-02 4.167545e-03 -3.663312e-02 4.243737e-02 -1.934413e-03 9.560482e-02
<VARIANCE> 39
 3.523426e+01 2.450646e+01 8.539413e+01 3.186740e+01 3.193953e+01 4.017655e+01 2.404967e+01 4.164214e+01 2.482373e+01 2.905456e+01 2.389658e+01 2.077032e+01 2.205047e+02 1.698241e+00 1.784158e+00 1.369146e+00 2.051415e+00 1.793341e+00 2.670509e+00 1.750753e+00 2.269853e+00 2.612270e+00 2.400830e+00 2.302821e+00 2.030282e+00 4.457890e+00 3.330739e-01 3.971367e-01 2.977577e-01 4.234664e-01 3.766835e-01 4.993889e-01 3.432612e-01 4.581786e-01 5.156609e-01 4.678569e-01 4.900281e-01 4.617853e-01 9.908305e-01
<GCONST> 1.180268e+02
<TRANSP> 5
 0.000000e+00 1.000000e+00 0.000000e+00 0.000000e+00 0.000000e+00
 0.000000e+00 3.890390e-01 6.109610e-01 0.000000e+00 0.000000e+00
 0.000000e+00 0.000000e+00 3.610696e-01 6.389304e-01 0.000000e+00
 0.000000e+00 0.000000e+00 0.000000e+00 8.231975e-01 1.768025e-01
 0.000000e+00 0.000000e+00 0.000000e+00 0.000000e+00 0.000000e+00
<ENDHMM>
~h "i"
<BEGINHMM>
<NUMSTATES> 5
<STATE> 2
<MEAN> 39
 -1.418024e+01 -7.640021e+00 1.125514e+01 -6.370697e+00 -6.410877e+00 -5.863193e+00 -1.536505e+00 -4.975314e+00 -6.960600e+00 -2.147578e+00 1.298748e-01 -7.113885e+00 6.271904e+01 -3.773445e-01 3.904542e-01 6.700323e-01 -2.399713e-02 -6.617512e-01 7.228906e-02 1.042942e-01 -1.708019e-01 -2.795826e-01 9.445495e-02 4.704245e-01 3.839866e-02 -3.614929e-03 1.547146e-01 -1.332412e-01 2.429418e-01 -1.480644e-01 6.347816e-02 -8.226956e-02 3.250640e-02 -1.415935e-01 -1.406029e-01 1.568639e-02 -8.215091e-02 -1.127516e-01 2.840905e-01
<VARIANCE> 39
 3.641909e+01 5.022010e+01 1.464324e+02 4.785363e+01 4.893726e+01 5.103138e+01 2.403174e+01 8.226714e+01 2.501785e+01 2.032754e+01 2.574539e+01 1.739259e+01 3.447359e+02 9.035549e-01 1.824376e+00 2.011343e+00 1.646658e+00 1.807782e+00 2.162849e+00 1.596326e+00 2.144706e+00 1.621878e+00 2.310722e+00 1.548272e+00 9.328718e-01 2.311821e+00 2.257267e-01 3.842016e-01 8.707008e-01 6.152764e-01 3.987598e-01 4.238571e-01 3.185301e-01 6.002488e-01 3.556742e-01 4.020841e-01 3.146863e-01 2.617918e-01 1.214218e+00
<GCONST> 1.177043e+02
<STATE> 3
<MEAN> 39
 -1.582751e+01 -5.665945e+00 9.184930e+00 -3.885266e+00 -7.735311e+00 -4.220373e+00 -1.177266e+00 -5.304119e+00 -6.135920e+00 -1.866972e+00 1.299744e+00 -6.523512e+00 5.565903e+01 1.020204e-01 -4.932666e-01 1.367775e+00 -8.970245e-01 -5.211601e-01 -6.459489e-01 2.829900e-01 -5.693705e-01 -8.523625e-01 1.378097e-01 6.567936e-02 -3.472227e-01 1.427943e+00 3.424698e-01 -3.677878e-01 5.493959e-01 -2.589976e-01 5.191629e-02 -3.039064e-01 6.322547e-02 -1.960023e-01 -2.973523e-01 2.032657e-02 -2.936344e-01 -1.834181e-01 6.970179e-01
<VARIANCE> 39
 4.846824e+01 4.938774e+01 1.890476e+02 6.493003e+01 2.835197e+01 6.220948e+01 2.590779e+01 6.205795e+01 3.547761e+01 1.491720e+01 1.985117e+01 2.170644e+01 4.659025e+02 2.204675e+00 2.904226e+00 6.234486e+00 4.608608e+00 2.189805e+00 3.511909e+00 2.178247e+00 4.356472e+00 2.052248e+00 2.828526e+00 1.469328e+00 1.782954e+00 1.255872e+01 4.284204e-01 4.217188e-01 1.626708e+00 8.996484e-01 4.706329e-01 5.566887e-01 3.952771e-01 6.201293e-01 6.455301e-01 3.716770e-01 2.611043e-01 4.013707e-01 2.299524e+00
<GCONST> 1.300432e+02
<STATE> 4
<MEAN> 39
 -1.211273e+01 -9.998236e+00 1.734614e+01 -6.756561e+00 -8.894147e+00 -6.715305e+00 -1.207052e+00 -4.873702e+00 -9.642358e+00 8.598545e-02 1.657409e+00 -7.660378e+00 6.429002e+01 9.628270e-01 -5.817907e-01 1.539571e+00 -5.205257e-01 1.055992e-01 -7.014115e-01 7.565871e-02 -2.369757e-01 -5.000283e-01 1.373953e-02 -1.468968e-01 -3.441824e-01 2.012947e+00 1.133516e-02 1.115218e-01 -4.594039e-01 2.295798e-01 2.940247e-01 9.004150e-02 3.402782e-02 5.739584e-02 2.651026e-01 -1.578634e-01 -1.117143e-01 5.965427e-02 -3.304607e-01
<VARIANCE> 39
 3.589704e+01 3.753762e+01 9.502130e+01 6.810906e+01 3.814226e+01 4.248001e+01 2.330268e+01 5.084295e+01 4.127009e+01 2.041898e+01 2.372328e+01 1.989034e+01 1.904930e+02 3.425162e+00 4.561327e+00 1.401652e+01 8.380474e+00 3.590339e+00 2.886979e+00 1.900468e+00 3.848378e+00 4.370397e+00 2.482326e+00 1.978138e+00 1.851822e+00 1.931829e+01 4.390021e-01 6.367617e-01 1.304014e+00 9.804630e-01 5.530905e-01 5.516545e-01 3.993365e-01 6.490452e-01 6.178734e-01 4.558813e-01 3.544500e-01 3.019702e-01 1.536913e+00
<GCONST> 1.321175e+02
<TRANSP> 5
 0.000000e+00 1.000000e+00 0.000000e+00 0.000000e+00 0.000000e+00
 0.000000e+00 4.904472e-01 5.095528e-01 0.000000e+00 0.000000e+00
 0.000000e+00 0.000000e+00 1.806744e-01 8.193256e-01 0.000000e+00
 0.000000e+00 0.000000e+00 0.000000e+00 6.786016e-01 3.213985e-01
 0.000000e+00 0.000000e+00 0.000000e+00 0.000000e+00 0.000000e+00
<ENDHMM>
~h "k"
<BEGINHMM>
<NUMSTATES> 5
<STATE> 2
<MEAN> 39
 -1.439779e+01 -5.087090e+00 1.747649e-01 -3.667480e+00 -8.750749e-02 -7.250329e+00 -6.320531e+00 -7.808326e+00 -1.851771e+00 -3.413902e+00 -1.553191e+00 -5.937142e+00 5.292757e+01 -5.551955e-01 -9.132471e-02 1.725861e-01 5.773978e-01 3.038931e-01 -9.860004e-02 6.687437e-02 -2.475997e-03 1.027273e-01 -6.346601e-01 -2.617145e-01 -2.797550e-01 -2.734204e-01 1.321912e-01 -2.244214e-01 1.419968e-01 -2.230285e-01 7.442880e-02 -2.014618e-01 3.794967e-02 -1.238524e-01 -1.074619e-01 -3.310750e-02 1.747350e-01 -1.034947e-01 5.891566e-01
<VARIANCE> 39
 3.554875e+01 4.896333e+01 4.123225e+01 5.707980e+01 3.514778e+01 7.147194e+01 2.841556e+01 3.865011e+01 5.499577e+01 4.232789e+01 2.489039e+01 2.580388e+01 1.703053e+02 3.289887e+00 6.377182e+00 4.082944e+00 5.392497e+00 3.265487e+00 8.590688e+00 3.628275e+00 4.936760e+00 4.537260e+00 4.948457e+00 2.630534e+00 2.137353e+00 1.973503e+01 6.598615e-01 1.302875e+00 7.801897e-01 9.532405e-01 7.309717e-01 1.864660e+00 6.975479e-01 8.958732e-01 9.232493e-01 1.040380e+00 6.251406e-01 4.471377e-01 3.946909e+00
<GCONST> 1.407144e+02
<STATE> 3
<MEAN> 39
 -1.269934e+01 -7.456717e+00 3.453003e+00 -4.077868e+00 2.916029e+00 -9.814122e+00 -4.132965e+00 -8.719617e+00 -2.224433e+00 -6.078635e+00 -1.561752e+00 -9.318753e+00 6.146608e+01 4.180982e-01 3.077868e-01 2.065681e-01 -1.921517e-01 2.726270e-01 8.285345e-02 6.942974e-02 -2.522064e-01 -4.243338e-01 1.250661e-01 1.907170e-01 -1.039772e-01 2.451416e-01 1.695319e-01 -1.031253e-01 7.186510e-02 -3.176298e-01 -3.370381e-01 5.997869e-02 5.374037e-02 2.575309e-01 -6.022065e-02 3.110192e-01 8.795794e-02 2.645092e-01 -9.982530e-03
<VARIANCE> 39
 3.696223e+01 5.155453e+01 3.814285e+01 5.338225e+01 4.974390e+01 5.450568e+01 4.557126e+01 4.499471e+01 3.565197e+01 3.744584e+01 2.467986e+01 2.740360e+01 1.117696e+02 4.883445e+00 7.295232e+00 4.296904e+00 7.752390e+00 3.906764e+00 6.148101e+00 5.432647e+00 4.298853e+00 5.292051e+00 5.976202e+00 2.014338e+00 4.350183e+00 1.596039e+01 1.103191e+00 1.859508e+00 8.945420e-01 1.094573e+00 7.625105e-01 1.238209e+00 1.368336e+00 8.420536e-01 1.067128e+00 1.298773e+00 4.044518e-01 8.549312e-01 2.521267e+00
<GCONST> 1.435834e+02
<STATE> 4
<MEAN> 39
 -1.808871e+01 -1.899472e+00 -1.814934e+00 1.719254e+00 -3.348056e+00 -1.908587e+00 -4.667489e+00 -4.504543e+00 -3.060983e+00 -2.812242e+00 -7.109016e-01 -4.566216e+00 3.979717e+01 -5.142024e-02 -1.711792e-01 6.038317e-02 -2.742228e-01 -4.013624e-01 -7.937116e-02 1.879672e-01 2.006852e-01 7.968706e-02 2.298490e-01 1.534876e-01 2.263465e-01 -1.840685e-02 -7.529621e-03 -1.641074e-01 2.008687e-02 -2.281061e-01 -9.061582e-04 -3.528807e-02 7.502934e-02 -4.472054e-02 -6.642828e-02 -7.692934e-02 1.518810e-04 -1.574586e-02 3.352891e-01
<VARIANCE> 39
 4.744313e+01 3.654144e+01 5.339435e+01 4.432648e+01 2.853434e+01 6.925974e+01 3.157667e+01 4.318996e+01 3.523983e+01 2.223478e+01 2.083843e+01 2.214905e+01 2.305946e+02 3.801854e+00 3.722167e+00 4.995459e+00 3.548594e+00 3.422144e+00 6.676753e+00 3.766032e+00 5.199972e+00 5.158375e+00 3.121390e+00 2.395937e+00 1.972627e+00 1.488410e+01 5.780008e-01 7.582664e-01 6.731766e-01 8.649310e-01 5.618922e-01 1.576796e+00 7.037593e-01 1.147971e+00 9.783341e-01 6.867269e-01 5.439680e-01 4.322445e-01 2.601968e+00
<GCONST> 1.360221e+02
<TRANSP> 5
 0.000000e+00 1.000000e+00 0.000000e+00 0.000000e+00 0.000000e+00
 0.000000e+00 6.696448e-01 3.303552e-01 0.000000e+00 0.000000e+00
 0.000000e+00 0.000000e+00 6.118538e-01 3.881462e-01 0.000000e+00
 0.000000e+00 0.000000e+00 0.000000e+00 7.654227e-01 2.345773e-01
 0.000000e+00 0.000000e+00 0.000000e+00 0.000000e+00 0.000000e+00
<ENDHMM>
~h "l"
<BEGINHMM>
<NUMSTATES> 5
<STATE> 2
<MEAN> 39
 -3.552879e+00 -1.333091e+01 -3.448447e-01 -2.212224e+01 5.002178e+00 4.106800e+00 8.290410e-03 -1.592958e+01 -2.717861e+00 -5.596627e+00 -2.113281e+00 -9.263834e+00 7.454949e+01 2.940347e-02 9.053051e-03 1.393837e-01 -7.790883e-02 -2.500505e-01 -1.655053e-02 -3.010891e-01 1.175815e-01 -1.745697e-01 8.493106e-02 2.059456e-01 3.899294e-02 -1.672496e-02 -3.140763e-02 1.153439e-01 6.216247e-02 5.294578e-02 3.806084e-02 -1.064965e-01 -1.771487e-02 3.356403e-02 -4.215180e-02 -2.724361e-02 -4.702005e-02 3.116773e-02 -7.784498e-02
<VARIANCE> 39
 9.669665e+00 4.351222e+01 3.675715e+01 3.086245e+01 5.474603e+01 5.419323e+00 1.757136e+01 1.144175e+01 1.082617e+01 2.387512e+01 1.818287e+01 7.229917e+00 4.622932e+01 4.279710e-01 2.858201e+00 1.020859e+00 1.517009e+00 2.600443e+00 1.273282e+00 1.485624e+00 1.785589e+00 9.487446e-01 7.212988e-01 6.928770e-01 7.814882e-01 1.299551e+00 7.832593e-02 3.224567e-01 2.681364e-01 3.297315e-01 4.311398e-01 1.585304e-01 3.390689e-01 2.158575e-01 1.450671e-01 1.275049e-01 1.199127e-01 1.471939e-01 1.708859e-01
<GCONST> 9.090131e+01
<STATE> 3
<MEAN> 39
 -9.043858e+00 -6.817523e+00 1.522777e+01 -1.407203e+01 -5.538615e+00 3.326959e-01 -8.303526e+00 -1.663633e+01 -7.976665e+00 -5.189929e+00 -5.645235e-01 -1.118221e+01 7.163489e+01 -1.354573e-01 2.867064e-01 1.366321e-02 2.052930e-02 2.200018e-02 -5.926147e-01 -1.290002e-01 -2.244034e-01 -9.227835e-02 -1.401987e-01 -2.199350e-01 7.485777e-03 -4.225588e-01 -7.245307e-02 -8.685626e-03 -2.062616e-01 2.032979e-01 4.166374e-02 -8.352479e-02 1.892021e-01 -1.520264e-01 1.124953e-01 -2.233723e-02 -5.423505e-02 2.856925e-02 5.777067e-02
<VARIANCE> 39
 3.436697e+01 3.450648e+01 1.926691e+02 6.050576e+01 4.095911e+01 7.887976e+00 5.241772e+00 1.654033e+01 1.146474e+01 2.520756e+01 2.933345e+01 5.510346e+00 4.084288e+01 3.526228e-01 8.600605e-01 9.749191e-01 1.386115e+00 1.529123e+00 1.130520e+00 1.924326e+00 1.345179e+00 1.012122e+00 1.149815e+00 1.215103e+00 4.429107e-01 5.875422e-01 5.092113e-02 1.653603e-01 1.331682e-01 2.943325e-01 1.688787e-01 1.618032e-01 2.268317e-01 4.339148e-01 3.349321e-01 2.815820e-01 1.609720e-01 9.076002e-02 8.512952e-02
<GCONST> 8.944232e+01
<STATE> 4
<MEAN> 39
 -8.976557e+00 -8.754052e+00 1.646127e+00 -1.053735e+01 -2.782407e-01 -3.566320e+00 -7.133157e+00 -1.980475e+01 -8.475258e+00 -1.090928e+01 -4.786171e+00 -1.235964e+01 6.494617e+01 -6.243213e-01 1.352494e-01 -1.712734e-01 1.580888e+00 4.598738e-01 -7.622676e-01 -2.703875e-02 2.968318e-01 7.276727e-02 -1.153994e-01 6.062422e-01 1.219815e-02 -7.543411e-01 -5.437499e-03 -1.499910e-01 1.398183e-01 2.697907e-02 -5.571271e-02 -2.006151e-02 1.604268e-01 2.894737e-01 2.035275e-01 3.802626e-02 3.067845e-02 1.056175e-01 1.325694e-01
<VARIANCE> 39
 1.958596e+01 1.314243e+01 4.688413e+01 4.053891e+01 1.723245e+01 3.689530e+01 2.360822e+01 2.082243e+01 1.598095e+01 4.245850e+01 9.220422e+00 2.344245e+01 6.354348e+01 8.490374e-01 1.741027e+00 1.095327e+00 1.853899e+00 6.561788e-01 1.615159e+00 2.885959e+00 1.390159e+00 2.335039e+00 3.805721e+00 9.588723e-01 2.075340e+00 1.442712e+00 2.259500e-01 2.711317e-01 1.923485e-01 5.292147e-01 1.514905e-01 3.414279e-01 4.245679e-01 3.118510e-01 2.998514e-01 4.697631e-01 2.063479e-01 2.471443e-01 1.072400e-01
<GCONST> 1.020339e+02
<TRANSP> 5
 0.000000e+00 1.000000e+00 0.000000e+00 0.000000e+00 0.000000e+00
 0.000000e+00 8.795910e-01 1.204090e-01 0.000000e+00 0.000000e+00
 0.000000e+00 0.000000e+00 7.792876e-01 2.207124e-01 0.000000e+00
 0.000000e+00 0.000000e+00 0.000000e+00 7.377028e-01 2.622971e-01
 0.000000e+00 0.000000e+00 0.000000e+00 0.000000e+00 0.000000e+00
<ENDHMM>
~h "m"
<BEGINHMM>
<NUMSTATES> 5
<STATE> 2
<MEAN> 39
 -5.246649e+00 -1.134317e+01 6.996732e+00 -5.655562e+00 2.403866e+00 -3.352425e+00 -4.700386e+00 -8.565456e+00 -4.510186e+00 -2.191753e+00 -8.354843e-03 -9.112063e+00 6.850437e+01 2.158600e-01 2.284334e-01 7.647052e-01 4.268848e-01 2.256972e-01 6.857538e-01 -4.967442e-01 -9.420096e-01 -5.544710e-01 3.254884e-01 6.169354e-01 1.043176e-02 -2.207479e-01 -3.365241e-01 1.492884e-01 3.239691e-01 1.975355e-01 -1.548447e-01 -1.934208e-01 -7.434314e-02 -1.407954e-01 -6.036672e-02 -4.646314e-02 1.781713e-02 9.023266e-02 -2.106593e-01
<VARIANCE> 39
 2.105710e+01 4.306639e+01 4.168340e+01 7.607183e+01 2.984642e+01 4.236867e+01 3.599078e+01 4.795295e+01 2.787517e+01 2.474621e+01 3.291977e+01 2.009776e+01 6.692278e+01 2.513078e+00 3.831211e+00 4.828064e+00 6.942976e+00 2.898222e+00 3.602198e+00 3.004612e+00 5.045451e+00 3.094851e+00 2.052874e+00 4.485153e+00 2.185826e+00 7.695635e+00 5.020660e-01 6.326244e-01 7.464708e-01 1.133644e+00 4.800810e-01 4.706648e-01 4.388545e-01 8.240901e-01 5.088751e-01 4.280765e-01 6.747445e-01 3.199148e-01 8.866617e-01
<GCONST> 1.283974e+02
<STATE> 3
<MEAN> 39
 -5.273541e+00 -1.051625e+01 1.141680e+01 -5.191804e+00 1.988558e+00 -1.369750e+00 -8.376797e+00 -1.061258e+01 -8.187551e+00 -6.396738e-01 2.794886e+00 -9.368814e+00 6.953098e+01 -1.833050e-01 2.943709e-01 5.718633e-01 1.833412e-01 2.652176e-03 -1.683083e-01 -3.481666e-01 -1.466737e-01 -1.289443e-01 1.335979e-01 -1.118551e-01 3.833901e-02 -2.008049e-01 -4.492893e-02 1.849696e-02 -1.105054e-01 -3.579106e-02 -2.148326e-02 -1.064704e-01 1.140285e-01 1.130944e-01 1.607784e-01 -8.108749e-02 -2.088335e-01 5.043952e-02 -1.818174e-02
<VARIANCE> 39
 8.828199e+00 2.652663e+01 4.835886e+01 6.473461e+01 4.072248e+01 4.390134e+01 3.548564e+01 4.520222e+01 3.492366e+01 3.297246e+01 3.535422e+01 1.538556e+01 3.650517e+01 7.367041e-01 2.483409e+00 4.407068e+00 7.118956e+00 3.242345e+00 2.467594e+00 2.774112e+00 5.362580e+00 3.367838e+00 3.050592e+00 2.818986e+00 1.449342e+00 3.973549e+00 1.382732e-01 4.020879e-01 8.025106e-01 1.185233e+00 6.343847e-01 4.259542e-01 5.821984e-01 9.654712e-01 6.060081e-01 6.057120e-01 5.683549e-01 2.992218e-01 5.674760e-01
<GCONST> 1.227778e+02
<STATE> 4
<MEAN> 39
 -6.106102e+00 -7.926531e+00 1.111615e+01 -2.966778e+00 1.215465e+00 -4.929586e+00 -8.533503e+00 -1.272726e+01 -5.139151e+00 -2.433252e+00 -1.849557e+00 -8.554944e+00 6.603990e+01 -2.322469e-01 6.297741e-01 -7.928303e-02 3.677236e-01 -9.314325e-02 -2.740454e-01 3.403955e-01 -5.195519e-02 3.524656e-01 -2.314912e-01 -3.405087e-01 9.448861e-02 -5.568752e-01 -1.021220e-01 -6.527775e-03 -2.046273e-01 -1.103257e-01 5.547869e-02 -2.991454e-02 1.809528e-01 1.905635e-01 7.193288e-02 -1.347362e-01 2.233317e-02 -5.998003e-02 4.430627e-02
<VARIANCE> 39
 8.842860e+00 3.679581e+01 3.765378e+01 4.746476e+01 2.897950e+01 3.811310e+01 3.839721e+01 6.294889e+01 3.965083e+01 3.077356e+01 4.575542e+01 1.902102e+01 5.328394e+01 4.990380e-01 2.188042e+00 1.601602e+00 2.700849e+00 1.525439e+00 1.267019e+00 2.070567e+00 2.592549e+00 1.914141e+00 2.180781e+00 2.535524e+00 1.523205e+00 2.353280e+00 1.210832e-01 3.399039e-01 2.730229e-01 4.831730e-01 3.154930e-01 2.446560e-01 3.241430e-01 4.169530e-01 3.419039e-01 3.949126e-01 4.496157e-01 2.686007e-01 3.264521e-01
<GCONST> 1.101127e+02
<TRANSP> 5
 0.000000e+00 1.000000e+00 0.000000e+00 0.000000e+00 0.000000e+00
 0.000000e+00 6.572321e-01 3.427679e-01 0.000000e+00 0.000000e+00
 0.000000e+00 0.000000e+00 7.666609e-01 2.333391e-01 0.000000e+00
 0.000000e+00 0.000000e+00 0.000000e+00 8.534415e-01 1.465585e-01
 0.000000e+00 0.000000e+00 0.000000e+00 0.000000e+00 0.000000e+00
<ENDHMM>
~h "n"
<BEGINHMM>
<NUMSTATES> 5
<STATE> 2
<MEAN> 39
 -5.957294e+00 -1.098238e+01 1.025818e+01 -1.712715e+00 -1.105857e+00 -1.066420e+01 -4.223838e+00 -8.445145e+00 -5.440362e+00 -3.569939e+00 -1.016726e+01 -8.788002e+00 6.794070e+01 -8.049968e-02 1.113098e+00 3.788013e-01 8.843257e-01 -3.304225e-01 3.107584e-02 -2.371929e-01 -1.096678e+00 -7.086243e-02 7.920843e-02 -2.013922e-01 1.485907e-01 -1.316262e+00 -8.507981e-02 -1.985103e-02 -9.014978e-02 -1.103662e-01 -2.826621e-02 6.715456e-02 1.209217e-02 3.200413e-02 2.790235e-02 -1.202502e-01 2.133897e-01 5.092770e-02 1.756573e-02
<VARIANCE> 39
 8.002563e+00 3.818445e+01 3.580025e+01 4.241092e+01 5.000159e+01 3.271717e+01 3.465717e+01 5.408223e+01 3.331960e+01 4.327224e+01 4.108730e+01 1.620990e+01 5.976223e+01 5.326157e-01 2.015489e+00 2.230299e+00 2.846312e+00 2.283188e+00 1.825631e+00 1.237664e+00 3.037024e+00 1.691422e+00 3.194867e+00 2.546778e+00 1.402675e+00 2.240842e+00 8.619901e-02 3.360622e-01 2.972076e-01 4.197421e-01 3.299952e-01 2.910168e-01 2.150769e-01 5.424131e-01 3.138183e-01 5.618886e-01 3.932239e-01 2.402398e-01 3.683379e-01
<GCONST> 1.107557e+02
<STATE> 3
<MEAN> 39
 -8.509052e+00 -5.130448e+00 1.117315e+01 3.032899e+00 -2.158348e+00 -8.379947e+00 -4.798256e+00 -1.228516e+01 -3.447855e+00 -4.180446e+00 -7.431719e+00 -7.334278e+00 5.889557e+01 -5.389854e-01 6.645135e-01 -3.695953e-01 3.553229e-01 1.384619e-02 2.981839e-01 7.590447e-02 -3.181354e-01 1.811111e-01 -2.006974e-01 7.034723e-01 1.533960e-01 -1.044632e+00 -1.065350e-01 -2.168946e-01 -2.873950e-01 -2.971044e-01 2.907333e-01 8.481622e-02 1.497280e-01 3.843538e-01 -3.042568e-02 -1.484119e-01 8.613386e-02 -2.691800e-02 1.831729e-01
<VARIANCE> 39
 2.674224e+01 2.401385e+01 5.219538e+01 2.813052e+01 3.354823e+01 3.126816e+01 3.765253e+01 3.241508e+01 3.111639e+01 5.408435e+01 3.345425e+01 2.483654e+01 5.070250e+01 7.583174e-01 1.662280e+00 1.733354e+00 1.853679e+00 2.422188e+00 1.469316e+00 1.389020e+00 2.394977e+00 1.848763e+00 2.202332e+00 2.393383e+00 1.565014e+00 1.328497e+00 1.299797e-01 3.108456e-01 2.874244e-01 3.738348e-01 3.944379e-01 3.085499e-01 2.901281e-01 4.634933e-01 3.386983e-01 4.719650e-01 4.427796e-01 3.368337e-01 2.265990e-01
<GCONST> 1.096792e+02
<STATE> 4
<MEAN> 39
 -1.595399e+01 -3.560870e+00 1.423498e+00 3.477562e+00 -1.676713e+00 -3.709589e+00 -3.601083e+00 -7.251884e+00 -2.636745e+00 -5.315209e+00 -3.245714e+00 -5.586230e+00 4.577656e+01 -7.918852e-01 2.401255e-01 -9.283109e-01 -1.470335e-01 8.968755e-02 7.075278e-01 2.066180e-01 7.946154e-01 3.099846e-01 4.646464e-02 6.472458e-01 3.647900e-01 -1.215672e+00 -4.426854e-02 -2.035624e-01 -1.525652e-02 -3.143376e-01 2.665471e-02 -1.514174e-01 8.611204e-03 -1.038912e-02 -2.770896e-02 -3.361891e-02 -5.713686e-03 -3.488345e-02 2.764624e-01
<VARIANCE> 39
 5.029210e+01 3.109945e+01 7.931172e+01 2.872912e+01 3.023770e+01 4.830910e+01 3.048737e+01 4.908722e+01 2.865292e+01 3.377970e+01 2.656290e+01 2.239783e+01 1.897044e+02 1.556529e+00 2.468598e+00 2.216656e+00 3.105736e+00 2.812761e+00 3.538932e+00 2.481164e+00 3.415150e+00 2.815076e+00 3.219994e+00 2.218420e+00 2.107870e+00 5.605096e+00 3.299192e-01 5.938738e-01 3.941567e-01 6.331679e-01 4.960910e-01 6.981205e-01 4.111655e-01 6.902342e-01 4.593473e-01 5.465423e-01 4.115358e-01 4.173610e-01 1.183974e+00
<GCONST> 1.247383e+02
<TRANSP> 5
 0.000000e+00 1.000000e+00 0.000000e+00 0.000000e+00 0.000000e+00
 0.000000e+00 8.161996e-01 1.838004e-01 0.000000e+00 0.000000e+00
 0.000000e+00 0.000000e+00 6.957476e-01 3.042525e-01 0.000000e+00
 0.000000e+00 0.000000e+00 0.000000e+00 7.021527e-01 2.978473e-01
 0.000000e+00 0.000000e+00 0.000000e+00 0.000000e+00 0.000000e+00
<ENDHMM>
~h "o"
<BEGINHMM>
<NUMSTATES> 5
<STATE> 2
<MEAN> 39
 -1.972299e+01 -6.206388e+00 -2.470458e+00 1.293013e+00 -2.650728e+00 -2.780131e+00 -2.133596e+00 -4.083076e+00 -2.805365e+00 -4.897479e+00 -1.003217e+00 -3.139927e+00 4.188219e+01 -1.022749e-01 1.521084e-01 -3.611463e-01 -6.239623e-03 2.898940e-02 2.388316e-01 -1.554385e-01 1.246868e-01 4.224141e-02 1.181751e-03 1.537046e-01 2.059845e-01 -4.796716e-01 1.597781e-01 -1.703137e-01 6.824183e-02 -3.099847e-01 9.568670e-02 -3.725596e-02 5.059495e-03 -1.386475e-01 -5.603683e-02 -5.548234e-02 -2.263534e-02 -1.008171e-01 4.438736e-01
<VARIANCE> 39
 3.952211e+01 3.467518e+01 5.225146e+01 3.156700e+01 2.262334e+01 3.878991e+01 1.954138e+01 2.436288e+01 2.316092e+01 3.029662e+01 2.825692e+01 2.397850e+01 1.881302e+02 9.162250e-01 1.146981e+00 1.930276e+00 1.982960e+00 1.462271e+00 2.491621e+00 1.635809e+00 2.285163e+00 1.741008e+00 1.884137e+00 2.139676e+00 1.999391e+00 4.415587e+00 3.220140e-01 2.836368e-01 4.180861e-01 6.110983e-01 3.385709e-01 4.541273e-01 3.728963e-01 5.881259e-01 3.777837e-01 5.141863e-01 4.403834e-01 5.037974e-01 1.425300e+00
<GCONST> 1.157527e+02
<STATE> 3
<MEAN> 39
 -2.053223e+01 -1.679402e+00 -4.382380e+00 1.476465e+00 -4.062810e+00 9.922090e-01 -3.675490e+00 -1.660467e+00 -1.107405e+00 -1.376922e+00 5.906930e-01 -2.973638e+00 3.630817e+01 9.111139e-01 -8.548317e-01 -1.761663e-01 -1.538316e+00 5.019317e-01 -4.433923e-01 -1.362680e-01 -6.999272e-01 -4.223130e-01 -3.185516e-01 6.761704e-02 -3.247417e-01 1.878543e+00 8.039346e-01 -5.232016e-01 4.247755e-01 -8.350728e-01 4.914443e-01 -1.501117e-01 1.996533e-02 -4.592379e-01 -4.230167e-01 -1.721044e-01 -3.131807e-01 -4.316253e-01 1.602722e+00
<VARIANCE> 39
 7.632870e+01 3.608920e+01 9.645943e+01 4.545598e+01 2.468549e+01 5.349177e+01 1.509359e+01 3.084333e+01 2.870801e+01 1.624918e+01 1.656612e+01 1.981322e+01 3.761555e+02 3.498436e+00 2.456612e+00 2.845668e+00 3.625500e+00 4.062822e+00 2.786604e+00 1.473579e+00 2.674335e+00 2.201378e+00 2.148775e+00 2.072161e+00 2.191809e+00 1.206117e+01 6.599500e-01 3.710230e-01 5.890172e-01 1.042663e+00 4.453819e-01 3.587479e-01 5.311109e-01 4.574525e-01 3.928146e-01 5.231048e-01 4.327493e-01 3.981019e-01 1.494045e+00
<GCONST> 1.249393e+02
<STATE> 4
<MEAN> 39
 -1.031184e+01 -4.651255e+00 -1.233143e+00 -1.153181e+01 4.000453e+00 1.594527e+00 -1.938951e+00 -4.903505e+00 -6.618184e+00 -1.442525e+00 4.268007e-01 -4.378265e+00 5.280884e+01 5.255036e-01 -3.341855e-01 4.254390e-01 -5.266862e-01 3.865111e-01 -2.035134e-01 8.733086e-02 -5.115830e-01 -3.488221e-01 -3.007347e-01 -2.454766e-01 -3.151934e-01 1.213729e+00 -7.605003e-02 3.181824e-02 4.506323e-02 1.524134e-01 -4.476514e-02 -2.694512e-02 3.845809e-03 -1.200347e-02 2.167322e-03 -1.722327e-02 -5.715317e-02 -4.548431e-02 -8.977948e-02
<VARIANCE> 39
 7.581280e+01 3.274794e+01 4.966771e+01 1.438800e+02 7.295336e+01 2.745339e+01 1.982887e+01 2.199691e+01 4.389325e+01 2.354985e+01 1.921066e+01 1.297583e+01 2.837375e+02 6.661491e+00 3.794028e+00 2.830155e+00 1.103076e+01 4.795507e+00 1.860163e+00 1.639267e+00 2.155918e+00 3.542941e+00 2.806287e+00 1.946993e+00 1.851871e+00 2.051109e+01 6.186930e-01 4.310908e-01 3.940248e-01 1.124932e+00 5.301251e-01 3.148474e-01 3.034652e-01 2.629086e-01 4.903964e-01 4.584575e-01 3.723032e-01 2.522881e-01 1.729433e+00
<GCONST> 1.271145e+02
<TRANSP> 5
 0.000000e+00 1.000000e+00 0.000000e+00 0.000000e+00 0.000000e+00
 0.000000e+00 6.712465e-01 3.287535e-01 0.000000e+00 0.000000e+00
 0.000000e+00 0.000000e+00 2.793782e-01 7.206218e-01 0.000000e+00
 0.000000e+00 0.000000e+00 0.000000e+00 7.567513e-01 2.432487e-01
 0.000000e+00 0.000000e+00 0.000000e+00 0.000000e+00 0.000000e+00
<ENDHMM>
~h "p"
<BEGINHMM>
<NUMSTATES> 5
<STATE> 2
<MEAN> 39
 -9.677611e+00 -5.582083e+00 3.898381e+00 -9.995469e+00 1.332224e+00 -5.764105e+00 -1.713288e+00 -7.981375e+00 -4.994143e+00 -4.916583e+00 1.632491e-01 -6.491132e+00 6.209150e+01 -6.818522e-01 -8.311495e-02 3.818030e-01 1.717972e+00 -8.476771e-01 -3.651804e-01 3.002945e-01 3.387320e-02 8.143216e-01 -5.418190e-01 -1.743596e-02 -1.964279e-01 -9.991394e-01 -3.571491e-02 -1.021446e-01 4.608944e-02 -1.358871e-01 -1.027160e-01 -1.049789e-01 3.978642e-02 -1.527181e-01 -2.864215e-02 1.973330e-02 -3.389541e-03 1.168307e-01 9.327205e-02
<VARIANCE> 39
 4.435929e+01 5.774041e+01 2.361855e+01 7.183089e+01 1.911700e+01 3.086884e+01 4.005907e+01 3.153408e+01 5.613972e+01 3.152549e+01 2.333537e+01 3.058196e+01 1.033123e+02 5.725728e+00 6.092794e+00 3.184568e+00 7.589402e+00 3.033695e+00 3.481526e+00 3.061637e+00 4.010492e+00 6.097467e+00 3.874767e+00 2.255867e+00 3.646166e+00 1.375008e+01 1.283406e+00 8.865777e-01 6.539401e-01 1.753664e+00 7.243095e-01 5.678864e-01 7.705539e-01 8.341940e-01 1.037070e+00 8.700456e-01 4.742438e-01 8.398464e-01 2.091553e+00
<GCONST> 1.373136e+02
<STATE> 3
<MEAN> 39
 -9.607395e+00 -3.597603e+00 4.882625e+00 -7.839476e+00 -8.407143e-02 -4.765289e+00 -2.908519e+00 -7.495158e+00 -6.098252e+00 -3.641104e+00 -3.853369e-02 -6.334662e+00 5.934310e+01 -9.743986e-01 2.547064e-01 1.328905e-01 1.516181e+00 -8.500398e-01 -1.535330e-01 -1.863170e-01 -1.066073e+00 7.183804e-01 -5.585086e-01 3.382774e-01 1.527651e-01 -1.672139e+00 -1.152211e-01 -2.784323e-01 -5.805338e-02 -2.686090e-01 1.336182e-01 -3.704026e-01 7.935062e-02 -2.246032e-01 -4.070881e-02 -1.352497e-01 -3.629911e-02 1.854759e-02 3.200039e-01
<VARIANCE> 39
 3.758017e+01 3.411013e+01 5.348764e+01 1.146645e+02 3.288525e+01 3.449989e+01 4.918756e+01 3.588048e+01 5.440215e+01 2.134613e+01 2.293305e+01 1.737468e+01 1.519436e+02 4.334877e+00 4.227341e+00 3.908992e+00 1.170198e+01 3.329518e+00 3.138553e+00 2.021095e+00 3.839100e+00 5.354516e+00 3.375643e+00 2.187172e+00 1.972404e+00 1.410556e+01 8.483333e-01 6.558852e-01 8.711991e-01 1.983216e+00 9.983736e-01 6.493296e-01 7.370261e-01 7.642263e-01 1.057609e+00 5.841492e-01 5.125119e-01 3.679422e-01 2.191107e+00
<GCONST> 1.358504e+02
<STATE> 4
<MEAN> 39
 -1.414770e+01 -2.765418e+00 1.776853e-01 -4.498684e+00 -1.680401e+00 -5.144423e+00 -3.873935e+00 -8.465538e+00 -4.434455e+00 -5.330869e+00 1.154348e-01 -5.135206e+00 5.076811e+01 -1.518023e+00 -4.546539e-01 -4.236938e-01 6.822959e-01 -4.141379e-01 -6.840407e-01 2.857958e-01 -1.031694e-01 1.112948e+00 -5.010937e-01 1.468184e-01 -7.879830e-02 -1.055619e+00 8.376469e-02 -2.873181e-01 1.635597e-01 -5.026137e-01 3.674878e-01 -5.228996e-02 3.496922e-02 5.989408e-02 -8.108946e-02 5.275682e-02 3.302162e-02 -1.106121e-01 8.598900e-01
<VARIANCE> 39
 3.699256e+01 3.102033e+01 5.046660e+01 6.087280e+01 2.635415e+01 4.187622e+01 2.539932e+01 4.500638e+01 3.327407e+01 2.475043e+01 2.112681e+01 2.102730e+01 1.545063e+02 3.310616e+00 3.879149e+00 3.196407e+00 6.169065e+00 3.833776e+00 4.235030e+00 2.329439e+00 4.942677e+00 3.751527e+00 3.524991e+00 2.222050e+00 1.980505e+00 1.134957e+01 5.834109e-01 7.419350e-01 6.920584e-01 8.613957e-01 8.587579e-01 7.873886e-01 4.410372e-01 9.150397e-01 6.074395e-01 6.817317e-01 3.493268e-01 3.465762e-01 1.756226e+00
<GCONST> 1.308257e+02
<TRANSP> 5
 0.000000e+00 1.000000e+00 0.000000e+00 0.000000e+00 0.000000e+00
 0.000000e+00 6.219566e-01 3.780434e-01 0.000000e+00 0.000000e+00
 0.000000e+00 0.000000e+00 3.612127e-01 6.387873e-01 0.000000e+00
 0.000000e+00 0.000000e+00 0.000000e+00 7.815984e-01 2.184016e-01
 0.000000e+00 0.000000e+00 0.000000e+00 0.000000e+00 0.000000e+00
<ENDHMM>
~h "r"
<BEGINHMM>
<NUMSTATES> 5
<STATE> 2
<MEAN> 39
 -5.139331e+00 -1.438264e+01 2.618769e+00 -3.864988e+00 3.456647e+00 -1.139055e+01 -2.797036e+00 -1.037755e+01 -6.873347e-01 1.378642e+00 -3.403783e+00 -1.178603e+01 7.484785e+01 -8.534520e-01 9.510925e-01 -4.486370e-01 1.688992e+00 -8.992594e-02 -5.549084e-01 1.324278e+00 -1.066844e+00 1.280366e+00 -1.697963e+00 6.473040e-01 2.615872e-01 -1.094008e+00 -3.040943e-01 1.376267e-01 2.457907e-01 -3.960595e-02 -1.382188e-02 -2.774767e-02 -6.855867e-02 1.930434e-01 -3.854453e-02 -4.055954e-01 1.875740e-01 4.006582e-02 -2.298892e-01
<VARIANCE> 39
 1.005949e+01 2.539402e+01 3.130562e+01 4.718209e+01 4.817778e+01 2.162191e+01 4.940833e+01 4.349881e+01 2.329793e+01 3.412326e+01 2.323923e+01 2.268009e+01 3.023447e+01 1.648523e+00 2.106018e+00 2.999116e+00 2.630943e+00 3.098630e+00 2.575795e+00 2.753958e+00 2.887199e+00 2.882824e+00 4.853464e+00 2.160615e+00 1.502924e+00 1.921120e+00 2.974592e-01 3.696749e-01 5.281756e-01 5.086709e-01 4.719096e-01 2.938891e-01 4.838822e-01 5.087743e-01 5.377938e-01 7.960899e-01 3.724055e-01 2.801961e-01 3.068094e-01
<GCONST> 1.162351e+02
<STATE> 3
<MEAN> 39
 -1.020613e+01 -1.009566e+01 3.776471e+00 2.567052e-01 2.928941e+00 -1.376810e+01 -6.587461e-01 -1.186200e+01 1.277990e+00 -7.380490e+00 -9.871735e-01 -1.086487e+01 6.900014e+01 -6.336893e-01 4.565490e-01 5.228452e-01 3.717567e-01 -1.233056e-02 -6.811231e-02 1.551801e-02 1.425325e-01 -4.854907e-01 -6.355011e-01 -2.568988e-01 -8.620201e-02 -1.079625e+00 2.457794e-01 -1.329266e-01 2.440155e-02 -1.848063e-01 -3.770264e-02 2.188917e-01 -2.964586e-01 1.596501e-01 -3.280770e-01 5.619481e-01 -2.005442e-01 3.858400e-02 5.851715e-02
<VARIANCE> 39
 2.894120e+01 2.991834e+01 1.757367e+01 3.003759e+01 2.352337e+01 2.653149e+01 2.511913e+01 4.043781e+01 3.082510e+01 6.579307e+01 2.898058e+01 3.391207e+01 3.983455e+01 3.370745e+00 2.602410e+00 1.705184e+00 2.322261e+00 2.770009e+00 1.767459e+00 2.149455e+00 2.574678e+00 2.603922e+00 6.532528e+00 2.012468e+00 1.608961e+00 1.726180e+00 6.055877e-01 4.632269e-01 4.889523e-01 4.978913e-01 5.870857e-01 3.783790e-01 3.694133e-01 4.305924e-01 6.708009e-01 1.311479e+00 4.633974e-01 3.954767e-01 3.156619e-01
<GCONST> 1.186564e+02
<STATE> 4
<MEAN> 39
 -1.170497e+01 -9.189902e+00 2.396351e+00 1.405859e+00 2.519801e+00 -1.098343e+01 -2.985455e+00 -1.036270e+01 -9.136985e-01 -6.977637e+00 -1.668056e+00 -8.583289e+00 6.258745e+01 -1.742489e-01 3.057543e-01 -2.841398e-01 -1.700824e-01 -3.507071e-01 6.505444e-01 -4.228204e-01 2.472848e-01 -2.895232e-01 6.613343e-01 -9.377689e-02 4.942149e-01 -1.400143e+00 1.065342e-02 -4.178629e-02 2.680644e-02 -2.189895e-01 -1.999354e-02 -4.513984e-02 4.647079e-02 -1.521927e-02 6.285948e-02 1.068292e-01 -1.135016e-02 7.186672e-02 1.818241e-01
<VARIANCE> 39
 5.966970e+01 2.541002e+01 2.162902e+01 6.054176e+01 2.253191e+01 3.053097e+01 6.131146e+01 3.661813e+01 3.088857e+01 5.527074e+01 4.381551e+01 2.083166e+01 7.832084e+01 2.697685e+00 2.505601e+00 2.341384e+00 3.215189e+00 2.253541e+00 2.543254e+00 2.923039e+00 2.097151e+00 4.168762e+00 3.063183e+00 2.228035e+00 1.429524e+00 3.708133e+00 3.743421e-01 5.440018e-01 3.315482e-01 5.633876e-01 4.239359e-01 4.065768e-01 4.815430e-01 3.500715e-01 6.586215e-01 6.114232e-01 4.466469e-01 2.809131e-01 7.355450e-01
<GCONST> 1.214533e+02
<TRANSP> 5
 0.000000e+00 1.000000e+00 0.000000e+00 0.000000e+00 0.000000e+00
 0.000000e+00 7.206005e-01 2.793995e-01 0.000000e+00 0.000000e+00
 0.000000e+00 0.000000e+00 7.533310e-01 2.466690e-01 0.000000e+00
 0.000000e+00 0.000000e+00 0.000000e+00 7.354056e-01 2.645944e-01
 0.000000e+00 0.000000e+00 0.000000e+00 0.000000e+00 0.000000e+00
<ENDHMM>
~h "s"
<BEGINHMM>
<NUMSTATES> 5
<STATE> 2
<MEAN> 39
 -2.611788e+01 -6.675889e+00 4.086379e+00 -3.766880e+00 8.604046e+00 -1.310378e+01 4.230407e+00 -8.994190e+00 8.490232e-01 -1.139793e+01 -3.767788e-02 -7.586103e+00 6.876369e+01 -2.348775e+00 -1.674897e-01 -7.479218e-01 4.507556e-01 2.794828e-01 3.428195e-01 1.017991e+00 -1.153269e-01 8.824780e-01 -5.158635e-01 1.524028e+00 6.031086e-01 -7.502766e-01 5.995184e-01 -3.777675e-01 -8.199649e-02 -2.815415e-01 -1.671107e-01 5.148333e-02 -4.239296e-01 1.725144e-01 -1.818204e-01 5.180665e-01 -2.139715e-01 3.777708e-02 3.485517e-03
<VARIANCE> 39
 5.775907e+01 1.421373e+01 1.551348e+01 1.970903e+01 4.047298e+01 2.899420e+01 3.992361e+01 2.387002e+01 1.919553e+01 2.687190e+01 5.544131e+01 3.516670e+01 1.573136e+01 7.091200e+00 3.038531e+00 1.429806e+00 2.784003e+00 1.974554e+00 1.776376e+00 4.550939e+00 3.575552e+00 2.144337e+00 5.601551e+00 4.454880e+00 3.708198e+00 6.995361e-01 8.791314e-01 5.923897e-01 3.492992e-01 5.141951e-01 3.730766e-01 3.947097e-01 6.429437e-01 5.623838e-01 3.871899e-01 9.717876e-01 8.728504e-01 7.992983e-01 1.200625e-01
<GCONST> 1.192843e+02
<STATE> 3
<MEAN> 39
 -2.680730e+01 -1.050567e+01 5.454973e-01 -2.470853e+00 7.418430e+00 -1.048471e+01 3.804891e+00 -8.670650e+00 2.112527e+00 -8.039212e+00 4.889321e-01 -7.497479e+00 6.158949e+01 1.459533e+00 3.338543e-01 1.503518e-01 5.183712e-01 -1.023100e+00 -1.429346e-01 -7.509310e-01 -1.190022e-01 -3.537489e-01 6.006153e-01 -7.440992e-01 -4.713867e-01 -1.641287e+00 4.871839e-01 3.525296e-01 2.107171e-01 1.556599e-02 -2.873780e-01 -1.358590e-01 -2.353896e-01 1.008718e-01 -3.578842e-01 -8.181931e-03 -1.224809e-01 9.454655e-03 -6.490113e-02
<VARIANCE> 39
 2.886135e+01 9.455227e+00 1.779749e+01 3.018498e+01 5.213277e+01 2.635176e+01 2.040481e+01 2.548140e+01 2.619674e+01 3.306815e+01 1.590178e+01 2.005220e+01 5.031909e+01 2.375406e+00 2.209821e+00 2.281518e+00 1.934790e+00 2.817076e+00 2.355710e+00 2.239083e+00 2.422924e+00 2.430226e+00 2.280753e+00 1.515773e+00 1.676075e+00 2.662239e+00 4.977737e-01 3.826901e-01 3.955974e-01 5.260292e-01 6.220049e-01 4.435562e-01 5.079795e-01 5.481704e-01 5.755234e-01 4.877307e-01 4.338788e-01 4.369857e-01 5.119327e-01
<GCONST> 1.144526e+02
<STATE> 4
<MEAN> 39
 -1.853895e+01 -5.011302e+00 1.505114e-01 3.857356e-01 1.441818e+00 -8.871629e+00 -1.765434e+00 -6.091376e+00 -1.407858e+00 -5.200509e+00 -2.977185e+00 -8.367110e+00 5.078568e+01 1.440615e+00 -1.496244e-03 2.208003e-01 -4.544904e-01 -1.161165e+00 -9.993196e-02 -7.931198e-01 4.681973e-01 -5.271402e-01 3.772846e-01 -1.602868e-01 3.687878e-01 -7.312024e-02 -4.386538e-02 -3.666680e-01 1.025176e-01 -3.656731e-01 7.619351e-02 -4.064710e-02 5.363900e-03 1.824880e-02 -1.869444e-02 2.854563e-03 1.565431e-01 9.146151e-02 6.711162e-01
<VARIANCE> 39
 5.170291e+01 3.680798e+01 5.873320e+01 3.825254e+01 4.888825e+01 7.440359e+01 2.736222e+01 4.860447e+01 3.788470e+01 3.098785e+01 1.689828e+01 2.028049e+01 1.918092e+02 4.408765e+00 6.136223e+00 4.279193e+00 4.766200e+00 4.841293e+00 4.960348e+00 2.420554e+00 4.084458e+00 2.574477e+00 2.710885e+00 2.584329e+00 2.901001e+00 1.101507e+01 5.691015e-01 1.228812e+00 5.413162e-01 7.555501e-01 6.401357e-01 6.961378e-01 5.387009e-01 9.267388e-01 5.188097e-01 5.321510e-01 4.944151e-01 5.904346e-01 2.000522e+00
<GCONST> 1.340592e+02
<TRANSP> 5
 0.000000e+00 1.000000e+00 0.000000e+00 0.000000e+00 0.000000e+00
 0.000000e+00 8.533937e-01 1.466063e-01 0.000000e+00 0.000000e+00
 0.000000e+00 0.000000e+00 6.976433e-01 3.023567e-01 0.000000e+00
 0.000000e+00 0.000000e+00 0.000000e+00 6.761482e-01 3.238518e-01
 0.000000e+00 0.000000e+00 0.000000e+00 0.000000e+00 0.000000e+00
<ENDHMM>
~h "t"
<BEGINHMM>
<NUMSTATES> 5
<STATE> 2
<MEAN> 39
 -5.812666e+00 -1.327107e+01 5.415421e+00 -1.174107e+01 4.764211e+00 -7.922754e+00 -6.744959e+00 -8.014032e+00 -1.988163e+00 5.416695e-01 -4.044810e+00 -9.202418e+00 7.231836e+01 -7.213324e-03 -4.586549e-02 6.120084e-02 -1.191745e-01 2.212307e-01 -9.334569e-02 -2.251011e-01 3.653442e-01 4.042777e-01 1.974891e-01 -2.964033e-01 -8.457411e-02 2.593257e-02 -1.511712e-01 2.493876e-01 1.310937e-02 2.306252e-01 -3.193318e-02 4.930678e-02 1.205534e-01 -2.631993e-02 -3.389381e-03 -1.530963e-01 1.147777e-01 8.396823e-02 -3.193604e-01
<VARIANCE> 39
 2.353769e+01 4.456689e+01 2.030988e+01 6.908176e+01 2.455526e+01 4.039859e+01 2.693502e+01 6.530676e+01 5.310645e+01 3.970699e+01 5.032691e+01 1.791975e+01 7.726052e+01 2.170825e+00 5.654580e+00 2.303892e+00 8.225355e+00 3.341262e+00 4.044615e+00 2.291806e+00 6.070964e+00 4.194704e+00 4.661288e+00 4.294354e+00 2.773942e+00 8.614905e+00 4.201705e-01 1.012987e+00 4.082088e-01 1.703037e+00 6.013837e-01 6.309260e-01 4.478951e-01 8.463743e-01 7.491935e-01 1.000425e+00 7.851597e-01 5.671306e-01 1.709487e+00
<GCONST> 1.336290e+02
<STATE> 3
<MEAN> 39
 -9.329924e+00 -1.103087e+01 4.185475e+00 -5.452220e+00 2.100316e+00 -9.397208e+00 -4.397594e+00 -2.597929e+00 1.695712e+00 -1.372567e+00 -7.399616e+00 -8.526434e+00 6.400253e+01 -1.265880e+00 1.283409e+00 -9.724139e-01 1.273598e+00 -6.991782e-01 3.637655e-01 3.291479e-01 -3.301669e-01 5.572616e-01 -6.486695e-01 6.691585e-01 1.933626e-01 -2.847040e+00 -2.103478e-01 -1.156689e-01 -1.169860e-01 -2.015500e-01 -1.538711e-01 -6.228963e-02 1.278138e-01 -3.597783e-01 -1.103191e-02 -1.164610e-01 2.126627e-01 4.896598e-02 2.243293e-01
<VARIANCE> 39
 2.082019e+01 3.284443e+01 3.584560e+01 4.200625e+01 2.973414e+01 3.354703e+01 1.976449e+01 3.516014e+01 2.847487e+01 3.148026e+01 3.554070e+01 2.222539e+01 1.281428e+02 1.488550e+00 3.408241e+00 2.818864e+00 4.138306e+00 2.857286e+00 3.041076e+00 1.669212e+00 2.852965e+00 2.708735e+00 1.919450e+00 2.787833e+00 2.101146e+00 7.598220e+00 2.530040e-01 6.890982e-01 7.092173e-01 9.030233e-01 6.674317e-01 6.398479e-01 3.091136e-01 6.026525e-01 5.383419e-01 4.486306e-01 5.848603e-01 4.757533e-01 1.631407e+00
<GCONST> 1.236078e+02
<STATE> 4
<MEAN> 39
 -1.383623e+01 -7.963473e+00 5.145912e+00 -4.471283e+00 1.128071e+00 -1.013902e+01 -2.464159e-01 -7.352365e+00 3.760159e-01 -5.494053e+00 -2.410370e+00 -7.674153e+00 6.272015e+01 -1.143151e-01 -2.792566e-02 8.418155e-01 -1.267634e-01 -3.461495e-01 2.088004e-02 1.715311e-01 -5.558829e-01 -6.139820e-01 -6.320534e-02 4.609230e-01 2.611037e-01 5.139424e-01 2.239414e-01 -2.919498e-01 2.831282e-01 -1.869332e-01 4.252437e-03 8.056743e-02 -6.708647e-02 2.213589e-01 -2.164782e-01 2.211571e-01 -9.509581e-02 -1.063619e-02 3.709732e-01
<VARIANCE> 39
 4.792690e+01 3.743643e+01 5.592805e+01 4.567194e+01 5.362928e+01 3.831804e+01 4.259484e+01 4.317549e+01 4.960094e+01 3.371280e+01 4.168904e+01 1.957305e+01 1.047510e+02 7.003652e+00 4.944309e+00 6.318926e+00 4.828471e+00 4.127082e+00 3.771055e+00 3.784989e+00 5.958084e+00 5.064483e+00 3.350162e+00 5.111855e+00 1.788905e+00 8.852387e+00 1.021401e+00 1.004015e+00 9.079912e-01 9.221545e-01 9.582586e-01 7.956149e-01 7.347463e-01 1.207840e+00 9.385339e-01 6.359686e-01 9.775452e-01 3.819711e-01 1.241588e+00
<GCONST> 1.391587e+02
<TRANSP> 5
 0.000000e+00 1.000000e+00 0.000000e+00 0.000000e+00 0.000000e+00
 0.000000e+00 8.248212e-01 1.751788e-01 0.000000e+00 0.000000e+00
 0.000000e+00 0.000000e+00 7.058983e-01 2.941017e-01 0.000000e+00
 0.000000e+00 0.000000e+00 0.000000e+00 7.657495e-01 2.342505e-01
 0.000000e+00 0.000000e+00 0.000000e+00 0.000000e+00 0.000000e+00
<ENDHMM>
~h "u"
<BEGINHMM>
<NUMSTATES> 5
<STATE> 2
<MEAN> 39
 -5.617218e+00 -1.195097e+01 1.518241e+00 -1.583188e+01 3.856138e+00 -8.210700e-01 -4.713917e+00 -8.011136e+00 -6.441558e+00 6.940896e-01 -1.024768e+00 -8.814022e+00 6.669454e+01 1.458840e+00 -3.533742e-01 8.731086e-01 -1.762495e+00 3.452836e-01 1.046259e+00 -2.010354e-01 -5.166134e-01 -1.019400e+00 6.409242e-01 6.292987e-01 1.737207e-01 2.087717e+00 -2.613541e-01 2.492786e-01 -3.806576e-02 4.350240e-01 -7.453787e-02 1.482080e-01 -1.061054e-01 -3.843148e-02 3.664663e-02 -1.751837e-01 1.030893e-01 4.046895e-02 -4.554517e-01
<VARIANCE> 39
 4.167401e+01 7.790179e+01 2.835340e+01 7.224168e+01 6.526832e+01 3.444269e+01 3.848246e+01 4.302398e+01 3.535773e+01 1.774111e+01 1.693655e+01 2.395447e+01 2.497478e+02 4.340199e+00 2.775950e+00 2.800144e+00 3.775390e+00 4.145921e+00 3.806394e+00 2.085901e+00 2.513634e+00 3.609631e+00 1.967496e+00 1.949871e+00 1.925652e+00 9.286220e+00 5.995288e-01 5.163477e-01 4.256099e-01 8.405570e-01 6.005553e-01 4.449068e-01 5.748797e-01 3.905506e-01 7.573836e-01 4.050230e-01 3.781687e-01 4.816036e-01 9.470556e-01
<GCONST> 1.273060e+02
<STATE> 3
<MEAN> 39
 -3.086006e+00 -1.445235e+01 4.124366e+00 -1.919833e+01 3.812497e+00 2.283928e+00 -4.789504e+00 -1.043135e+01 -6.574190e+00 1.539744e+00 8.601230e-02 -8.455828e+00 7.244740e+01 5.603238e-01 4.620324e-02 5.608473e-01 -6.071851e-01 -3.139565e-01 1.063419e+00 -2.332549e-01 -3.827343e-01 -3.220507e-01 1.526223e-01 5.118714e-01 4.784737e-01 7.825612e-01 -2.513058e-01 2.181242e-01 -1.273993e-01 4.897519e-01 -6.593554e-02 -1.818608e-01 -6.320128e-02 1.632603e-01 1.212986e-01 -1.400017e-01 -9.625749e-02 -1.491980e-03 -4.544420e-01
<VARIANCE> 39
 6.424347e+00 4.144765e+01 1.713753e+01 2.884685e+01 7.457427e+01 3.910826e+01 3.586154e+01 3.347279e+01 2.681107e+01 1.652700e+01 1.861022e+01 1.670999e+01 5.089622e+01 2.343932e+00 2.179908e+00 1.541261e+00 3.589985e+00 7.228533e+00 2.140001e+00 1.940396e+00 2.682052e+00 4.092703e+00 2.188591e+00 1.619631e+00 2.207246e+00 4.464374e+00 2.258890e-01 2.714458e-01 2.399700e-01 8.090565e-01 1.152482e+00 3.804444e-01 3.543999e-01 4.779379e-01 5.312001e-01 3.355720e-01 4.217518e-01 3.996083e-01 4.733841e-01
<GCONST> 1.157057e+02
<STATE> 4
<MEAN> 39
 -2.678076e+00 -1.270242e+01 3.718750e+00 -1.911053e+01 2.425903e+00 4.912045e+00 -6.372894e+00 -8.518571e+00 -6.670006e+00 -4.170631e-01 2.402713e+00 -8.225473e+00 7.311172e+01 -1.127693e-01 3.943614e-01 -3.885365e-02 7.350968e-01 4.165772e-03 -2.736930e-01 -9.829971e-02 6.294727e-02 1.243746e-01 -7.332008e-02 -1.215734e-01 -7.989337e-02 -3.640249e-01 -1.019455e-01 2.523037e-02 -1.953773e-02 3.000025e-01 -1.090534e-02 -1.890475e-01 6.032241e-02 -1.918143e-02 1.370838e-01 -8.064036e-02 -1.267900e-01 -5.273214e-02 -1.728809e-01
<VARIANCE> 39
 6.156358e+00 3.430665e+01 1.410919e+01 5.102217e+01 3.721249e+01 3.275239e+01 3.525785e+01 3.348505e+01 2.544382e+01 3.517765e+01 2.417805e+01 1.680736e+01 2.693092e+01 5.507202e-01 1.777999e+00 8.573771e-01 4.512649e+00 2.846897e+00 1.929638e+00 1.359955e+00 2.311378e+00 2.248981e+00 1.665558e+00 1.696666e+00 1.384842e+00 2.116365e+00 1.421717e-01 2.739207e-01 1.633105e-01 6.251175e-01 5.312945e-01 3.208109e-01 2.628800e-01 4.251186e-01 4.358893e-01 3.873988e-01 3.264374e-01 2.484478e-01 2.984605e-01
<GCONST> 1.060032e+02
<TRANSP> 5
 0.000000e+00 1.000000e+00 0.000000e+00 0.000000e+00 0.000000e+00
 0.000000e+00 2.451075e-01 7.548925e-01 0.000000e+00 0.000000e+00
 0.000000e+00 0.000000e+00 5.061494e-01 4.938506e-01 0.000000e+00
 0.000000e+00 0.000000e+00 0.000000e+00 9.107489e-01 8.925112e-02
 0.000000e+00 0.000000e+00 0.000000e+00 0.000000e+00 0.000000e+00
<ENDHMM>
~h "ah"
<BEGINHMM>
<NUMSTATES> 5
<STATE> 2
<MEAN> 39
 -3.576528e+00 3.416086e+00 3.788643e+00 -2.445360e+01 1.085997e+00 -1.482927e+00 -6.402893e+00 -3.755322e+00 -1.088282e+01 -9.901103e+00 2.295946e+00 -8.686290e+00 7.124766e+01 -9.026008e-02 -1.452578e+00 -5.776272e-01 -5.813595e-01 5.636649e-01 1.517252e+00 -3.273532e-01 -1.365033e+00 -2.443365e-01 1.776264e+00 1.030279e+00 6.085770e-01 1.025595e+00 -6.116127e-02 -4.760490e-01 -5.129009e-03 3.706889e-01 1.099697e-01 -3.957767e-02 1.192155e-01 -9.884855e-02 2.466508e-01 7.300194e-01 -2.537716e-01 3.987238e-03 6.163411e-02
<VARIANCE> 39
 1.851606e+00 5.850376e+01 8.650361e+00 1.445231e+01 2.600150e+01 1.681574e+01 3.656857e+00 1.643696e+01 8.386575e+00 1.676636e+01 1.309953e+01 9.718593e+00 5.260354e+00 2.630895e-01 2.107783e+00 9.881463e-02 5.264000e-01 1.442155e+00 6.541396e-01 7.627737e-01 7.420305e-01 6.360825e-01 4.092729e+00 4.280030e-01 1.283567e+00 4.362377e-01 6.180333e-02 1.334208e-01 6.054015e-02 8.186941e-02 5.062147e-01 6.265391e-01 9.355656e-02 2.549919e-01 3.084333e-01 3.899179e-01 4.057852e-01 7.179651e-01 1.440673e-01
<GCONST> 7.789722e+01
<STATE> 3
<MEAN> 39
 -3.822985e+00 -1.356745e+01 2.154711e+00 -2.069142e+01 4.784143e+00 3.392976e+00 -6.386168e+00 -9.505098e+00 -4.131401e+00 2.101547e+00 -2.951278e+00 -8.825973e+00 7.760425e+01 -6.152454e-02 -1.439909e+00 6.935806e-01 8.143446e-01 -8.270551e-01 -9.837747e-02 6.544048e-01 8.116805e-01 9.681984e-01 1.315211e+00 -1.762790e+00 -4.380554e-02 6.576478e-01 -7.959279e-02 2.512907e-01 1.986064e-01 1.116150e-01 3.542922e-03 -4.895310e-01 2.083918e-01 3.380781e-01 -1.100468e-01 -8.301680e-01 -1.301048e-01 1.616729e-01 -2.179374e-01
<VARIANCE> 39
 1.132190e+01 3.489678e+01 7.698975e+00 1.016493e+01 4.460336e+01 6.695924e+01 8.449286e+00 3.065771e+01 1.454210e+01 4.523213e+01 5.056548e+01 1.507163e+01 1.042226e+01 9.011109e-01 2.099401e+00 9.540864e-01 7.693827e-01 7.668644e+00 8.145003e+00 2.187207e+00 1.445777e+00 1.906210e+00 3.858091e+00 5.301764e+00 3.392853e+00 7.340562e-01 8.642109e-02 7.322126e-02 2.184834e-01 7.309008e-02 6.839312e-01 8.402854e-01 5.651360e-01 6.070483e-01 4.961353e-01 6.237298e-01 8.996830e-01 5.195799e-01 7.735668e-02
<GCONST> 1.059177e+02
<STATE> 4
<MEAN> 39
 -4.704009e+00 -1.482592e+01 3.656351e+00 -1.530099e+01 8.372760e+00 -1.439642e+00 -5.608068e+00 -5.255046e+00 -2.723324e+00 -5.427923e+00 -4.125075e+00 -7.266549e+00 7.452168e+01 -1.493259e-01 1.911626e-01 -4.233022e-02 4.195436e-01 8.678952e-02 -4.940745e-01 1.745958e-01 4.303499e-02 1.668122e-02 -3.644840e-01 -1.809582e-01 9.278415e-02 -2.040651e-01 -5.213626e-02 7.898345e-02 -2.610471e-02 4.872327e-02 -6.015300e-02 7.706776e-02 -4.104166e-02 -3.707320e-02 2.770944e-02 -6.448194e-03 1.040363e-01 1.499736e-02 -8.008787e-02
<VARIANCE> 39
 1.540650e+01 4.554838e+01 1.668165e+01 7.800095e+01 3.583603e+01 6.824811e+01 4.665345e+01 4.646727e+01 4.093451e+01 3.173582e+01 7.787456e+01 2.354896e+01 3.722604e+01 1.874779e+00 3.905636e+00 1.503271e+00 5.049903e+00 2.646019e+00 2.438672e+00 3.869934e+00 3.638851e+00 3.635029e+00 3.455674e+00 2.950130e+00 1.769839e+00 3.715933e+00 4.343893e-01 5.325173e-01 2.934465e-01 8.738541e-01 5.111881e-01 5.390784e-01 6.479570e-01 5.465695e-01 5.994736e-01 5.830066e-01 4.117801e-01 2.711595e-01 5.449454e-01
<GCONST> 1.242069e+02
<TRANSP> 5
 0.000000e+00 1.000000e+00 0.000000e+00 0.000000e+00 0.000000e+00
 0.000000e+00 7.790395e-01 2.209605e-01 0.000000e+00 0.000000e+00
 0.000000e+00 0.000000e+00 8.089231e-01 1.910769e-01 0.000000e+00
 0.000000e+00 0.000000e+00 0.000000e+00 9.641938e-01 3.580621e-02
 0.000000e+00 0.000000e+00 0.000000e+00 0.000000e+00 0.000000e+00
<ENDHMM>
~h "al"
<BEGINHMM>
<NUMSTATES> 5
<STATE> 2
<MEAN> 39
 -4.194772e+00 -8.849991e+00 -2.040225e+00 -1.009641e+01 5.939085e+00 3.620811e-01 -8.188816e-01 -8.271164e+00 -7.940717e+00 -5.128267e+00 -3.578298e-01 -8.772510e+00 6.449651e+01 1.830810e-01 1.988695e-01 -4.701324e-01 -5.000518e-01 -9.416029e-03 9.024794e-01 2.557567e-01 2.497204e-01 -6.752146e-01 -4.934160e-01 3.989358e-02 7.109790e-01 -3.279962e-01 -1.497567e-01 4.858561e-02 2.907650e-01 5.354525e-01 1.270706e-01 6.491418e-02 -2.380223e-01 -2.282221e-01 -6.900109e-02 1.699019e-01 -2.075077e-01 4.911450e-02 -1.643317e-01
<VARIANCE> 39
 4.066560e+01 3.711337e+01 2.898564e+01 5.100706e+01 3.314784e+01 2.569801e+01 2.510178e+01 4.876122e+01 1.117254e+01 1.822786e+01 7.493960e+00 1.350941e+01 9.181135e+01 6.230847e-01 1.583814e+00 4.339528e+00 8.434422e+00 4.937984e+00 2.489616e+00 1.569415e+00 4.490501e+00 2.147621e+00 8.632872e-01 1.255399e+00 8.119022e-01 2.443983e+00 8.690859e-02 2.025084e-01 3.877189e-01 5.393369e-01 5.770609e-01 3.553817e-01 3.348062e-01 6.076314e-01 3.666277e-01 2.344705e-01 2.736978e-01 2.713013e-01 1.479613e-01
<GCONST> 1.084385e+02
<STATE> 3
<MEAN> 39
 -1.392660e+00 -9.435069e+00 1.189802e+00 -1.207059e+01 6.464825e+00 9.671464e-01 -2.170272e+00 -4.005684e+00 -8.367986e+00 -5.142629e+00 -1.330501e+00 -8.592426e+00 6.860420e+01 4.540641e-04 -2.511977e-01 9.019375e-03 -8.651853e-01 -4.067287e-01 1.055577e+00 1.559972e-02 4.539109e-01 9.251422e-02 -1.475825e-01 -1.692666e-01 4.199711e-01 3.697266e-01 -7.467482e-02 9.368296e-02 4.111619e-02 2.960377e-01 -2.453129e-01 1.186901e-02 -3.540259e-03 -4.149109e-01 1.664529e-01 1.380342e-01 1.939688e-01 8.235307e-02 -1.052271e-01
<VARIANCE> 39
 9.854815e+00 4.093224e+01 2.128059e+01 9.197047e+01 5.963041e+01 3.795846e+01 1.512697e+01 6.775756e+01 1.404476e+01 1.197797e+01 6.378154e+00 7.943875e+00 5.533443e+01 2.361857e-01 5.818356e-01 1.285402e+00 4.473262e+00 4.392927e+00 2.633913e+00 5.674663e-01 4.447551e+00 1.889091e+00 1.322979e+00 1.091689e+00 1.230340e+00 1.616715e+00 6.071246e-02 1.090429e-01 3.328568e-01 9.655067e-01 6.895939e-01 4.727359e-01 2.008100e-01 1.114314e+00 3.492739e-01 3.486853e-01 1.825148e-01 1.938119e-01 1.978073e-01
<GCONST> 1.019690e+02
<STATE> 4
<MEAN> 39
 -3.106797e+00 -1.177843e+01 3.887933e+00 -1.692768e+01 2.377650e+00 4.607240e+00 -3.967243e+00 -7.950976e+00 -6.781452e+00 -1.710725e+00 -1.908731e+00 -9.043451e+00 7.289838e+01 -3.576344e-02 7.615072e-02 7.099508e-02 1.675818e-01 -1.740233e-01 -7.645574e-02 -6.827081e-02 -3.946523e-01 8.019063e-02 -5.211160e-03 -8.870599e-02 5.917173e-02 -1.954140e-01 -1.930155e-02 4.648700e-02 1.060493e-02 2.949162e-02 3.127450e-02 -7.885475e-02 -4.937161e-03 7.428460e-02 2.931532e-03 -2.179372e-02 2.325962e-02 -2.981021e-02 -5.004051e-02
<VARIANCE> 39
 6.963768e+00 2.783535e+01 3.146622e+01 6.555308e+01 3.954491e+01 3.933295e+01 3.103459e+01 6.290757e+01 2.750242e+01 2.701148e+01 2.560872e+01 2.529466e+01 2.054947e+01 4.257178e-01 1.281220e+00 1.425226e+00 2.054589e+00 3.843593e+00 2.218375e+00 1.778950e+00 2.919164e+00 2.367964e+00 1.798930e+00 1.855821e+00 1.727803e+00 1.110462e+00 7.783595e-02 1.273094e-01 2.303184e-01 2.876454e-01 6.042706e-01 3.952773e-01 3.103917e-01 3.421986e-01 4.169582e-01 3.434969e-01 3.265423e-01 2.776496e-01 1.324014e-01
<GCONST> 1.052185e+02
<TRANSP> 5
 0.000000e+00 1.000000e+00 0.000000e+00 0.000000e+00 0.000000e+00
 0.000000e+00 5.102521e-01 4.897479e-01 0.000000e+00 0.000000e+00
 0.000000e+00 0.000000e+00 7.068125e-01 2.931875e-01 0.000000e+00
 0.000000e+00 0.000000e+00 0.000000e+00 9.579495e-01 4.205050e-02
 0.000000e+00 0.000000e+00 0.000000e+00 0.000000e+00 0.000000e+00
<ENDHMM>
~h "an"
<BEGINHMM>
<NUMSTATES> 5
<STATE> 2
<MEAN> 39
 -5.081165e+00 -1.500810e+01 5.084107e+00 -8.799761e+00 1.038879e+01 -7.537882e+00 -6.728474e+00 -2.399414e+00 -5.149094e+00 2.556035e+00 -3.417115e+00 -1.371688e+01 7.120959e+01 3.193476e-02 4.312393e-02 -2.368950e-01 1.844725e-01 4.444466e-01 4.684749e-02 3.836562e-02 2.451393e-01 -1.935438e-01 -3.073947e-01 -3.999833e-02 7.477015e-02 -4.184789e-02 -1.948098e-02 2.341981e-02 8.721066e-02 6.957673e-02 -1.551008e-01 1.361995e-02 -6.832993e-02 -1.191289e-01 1.075089e-01 -6.704130e-02 -2.640406e-02 1.182966e-01 -1.653251e-02
<VARIANCE> 39
 8.909847e+00 2.852565e+01 2.040495e+01 2.699442e+01 3.142947e+01 1.904079e+01 2.352308e+01 2.919348e+01 2.717212e+01 2.272172e+01 1.822821e+01 1.286469e+01 5.244028e+01 1.108925e+00 3.538396e+00 1.980036e+00 4.110656e+00 2.367818e+00 2.362338e+00 1.612693e+00 3.148322e+00 3.028180e+00 2.507665e+00 1.725920e+00 1.180670e+00 7.468959e+00 2.320591e-01 7.813185e-01 4.347219e-01 9.173265e-01 4.835061e-01 4.705126e-01 2.950820e-01 7.036870e-01 5.222955e-01 4.703823e-01 3.608310e-01 2.327299e-01 1.525055e+00
<GCONST> 1.147172e+02
<STATE> 3
<MEAN> 39
 -5.325733e+00 -1.480907e+01 1.082501e+01 -3.120610e+00 4.056925e+00 -7.587070e+00 -5.135592e+00 -2.039024e+00 -3.001770e+00 -3.328323e+00 -5.894713e+00 -6.967053e+00 7.266682e+01 -5.388154e-02 6.192318e-01 9.256903e-01 1.040539e+00 -1.151771e+00 -2.701321e-01 2.216595e-01 -6.923495e-01 -4.687994e-02 2.947303e-01 -6.632923e-02 3.345085e-01 -7.480260e-01 -6.495655e-02 6.645397e-02 5.947386e-02 -1.048567e-01 -1.048470e-01 4.737582e-03 1.261731e-01 -7.544810e-02 -1.828409e-01 5.866911e-02 2.361276e-01 -9.035282e-02 2.776737e-03
<VARIANCE> 39
 4.960371e+00 2.468064e+01 2.839092e+01 4.615724e+01 5.302533e+01 1.669944e+01 2.830569e+01 4.107329e+01 1.936457e+01 3.152480e+01 1.767018e+01 1.923493e+01 2.714719e+01 5.929511e-01 2.981148e+00 1.711073e+00 3.546887e+00 1.989814e+00 1.828754e+00 1.410152e+00 4.971905e+00 1.959471e+00 4.137933e+00 2.306528e+00 2.184249e+00 3.444108e+00 1.235318e-01 5.901136e-01 3.103005e-01 8.144103e-01 2.832079e-01 3.588841e-01 2.216143e-01 9.901709e-01 3.393876e-01 8.404227e-01 2.914422e-01 3.979294e-01 7.006332e-01
<GCONST> 1.120482e+02
<STATE> 4
<MEAN> 39
 -9.094078e+00 -8.819098e+00 1.936288e+01 -4.367139e+00 -6.925244e+00 -6.292909e+00 -2.083993e+00 -1.141971e+01 -8.760724e+00 -1.036605e+00 -1.298326e+00 -9.700944e+00 7.030689e+01 -1.868954e-01 2.801042e-01 -8.480888e-02 -2.413371e-01 -1.148451e-01 2.370887e-01 -3.154555e-02 -3.040126e-01 -1.140892e-01 -8.408284e-02 -5.428280e-02 -1.614055e-01 -1.962172e-01 -1.403075e-04 -2.560616e-03 -8.890750e-02 -8.056611e-04 8.394524e-02 1.566702e-02 -4.877195e-02 3.693696e-02 5.918562e-02 -3.439552e-02 -4.664390e-02 1.327671e-02 -3.369749e-02
<VARIANCE> 39
 1.353711e+01 3.453253e+01 3.036250e+01 8.735966e+01 3.173818e+01 4.840759e+01 4.006353e+01 5.083069e+01 2.168611e+01 2.507868e+01 3.993808e+01 1.955038e+01 4.497438e+01 9.981740e-01 1.887834e+00 2.173206e+00 5.575858e+00 2.204078e+00 2.807910e+00 1.516099e+00 2.432353e+00 2.225506e+00 2.246773e+00 2.957381e+00 1.126707e+00 3.203302e+00 1.701640e-01 3.604991e-01 3.624549e-01 9.696007e-01 3.894714e-01 5.189406e-01 2.596032e-01 4.485311e-01 3.906346e-01 4.847016e-01 5.480368e-01 2.295291e-01 5.032962e-01
<GCONST> 1.156521e+02
<TRANSP> 5
 0.000000e+00 1.000000e+00 0.000000e+00 0.000000e+00 0.000000e+00
 0.000000e+00 8.986385e-01 1.013615e-01 0.000000e+00 0.000000e+00
 0.000000e+00 0.000000e+00 8.981797e-01 1.018203e-01 0.000000e+00
 0.000000e+00 0.000000e+00 0.000000e+00 9.369682e-01 6.303176e-02
 0.000000e+00 0.000000e+00 0.000000e+00 0.000000e+00 0.000000e+00
<ENDHMM>
~h "ar"
<BEGINHMM>
<NUMSTATES> 5
<STATE> 2
<MEAN> 39
 -9.316612e+00 -7.688810e+00 1.968678e+01 -3.834508e+00 -1.075257e+01 -1.040507e+01 -1.783165e+00 -1.001674e+01 -9.721493e+00 -2.145733e+00 3.340669e+00 -5.599037e+00 6.391701e+01 1.247673e+00 -9.308946e-01 1.954319e+00 -9.806193e-01 -2.837951e-01 -8.294137e-01 -6.869940e-01 9.526457e-01 -1.119368e+00 2.498704e-01 3.155845e-02 1.084421e-01 3.790218e+00 -4.927150e-01 4.072297e-01 -1.998345e+00 4.784778e-01 3.528770e-01 2.953621e-01 2.135313e-01 9.430970e-01 5.725493e-01 2.098970e-01 -4.654897e-01 1.736405e-01 -1.375911e+00
<VARIANCE> 39
 3.393928e+00 1.710021e+00 7.738270e+01 4.258749e+01 3.167344e+01 7.200381e+01 9.367330e+00 9.025398e+00 1.245886e+01 1.578244e+01 1.467926e+01 1.608423e+01 1.878181e+01 1.372205e+00 1.331756e+00 1.865427e+01 8.270631e+00 3.982768e+00 1.450045e+00 7.934965e-01 5.142766e+00 7.012773e-01 3.290858e+00 1.489804e+00 1.178736e+00 1.746354e+01 3.436620e-01 1.382218e-01 1.942585e+00 7.944883e-01 1.144107e-01 4.003429e-01 1.222957e-01 6.361828e-01 1.238089e-01 3.973807e-01 2.033459e-01 5.738752e-01 1.118678e+00
<GCONST> 1.071471e+02
<STATE> 3
<MEAN> 39
 -5.770415e+00 -7.344322e+00 1.363184e+01 -1.266391e+00 -9.680285e+00 -1.106487e+01 -1.981311e+00 -3.711850e+00 -1.067521e+01 1.396554e+00 -3.428496e+00 -2.260069e+00 6.572312e+01 2.345377e-02 -7.213628e-01 -1.395468e+00 2.848632e-01 2.257662e-01 -8.522385e-02 2.001472e-01 1.012674e+00 7.864586e-01 -5.653214e-01 -1.152597e+00 -1.553817e-01 9.314117e-01 -2.851437e-01 -7.549415e-02 1.174034e-01 -4.424267e-01 1.179970e-01 2.502792e-01 1.922736e-01 -5.225166e-01 4.651186e-01 -5.576411e-01 8.775626e-02 -2.526621e-01 5.337507e-03
<VARIANCE> 39
 9.977397e+00 2.968353e+01 3.309682e+01 3.470555e+01 1.253031e+01 3.932529e+01 5.491362e+00 3.545942e+01 1.898835e+01 1.659265e+01 3.795554e+01 7.664230e+00 1.182397e+02 1.171115e+00 1.425965e+00 5.061085e+00 6.023149e+00 1.639312e+00 1.352958e+00 1.227699e+00 3.318933e+00 2.673661e+00 5.051527e+00 3.173481e+00 9.268616e-01 3.955810e+00 8.009643e-02 1.520025e-01 9.550242e-01 8.798991e-01 4.305301e-01 1.405092e-01 1.046545e-01 2.684501e-01 5.438984e-01 8.941076e-01 6.240679e-01 7.492378e-02 6.784549e-01
<GCONST> 1.081417e+02
<STATE> 4
<MEAN> 39
 -1.100672e+01 -1.091011e+01 1.295692e+01 -1.248488e+01 -9.206269e+00 -5.517107e+00 -8.722297e-01 -1.364150e+01 -4.312666e+00 -1.080142e+01 -6.004801e+00 -9.641820e+00 7.294649e+01 8.114218e-02 -6.376269e-01 -6.607039e-01 -3.048644e-01 7.326590e-01 -3.399684e-01 2.353426e-01 1.391528e-01 3.340877e-01 3.834997e-01 -3.917927e-01 -1.121827e-01 3.873726e-01 -4.107361e-03 6.937503e-02 -1.952021e-02 1.094688e-01 8.450413e-02 -4.322294e-03 4.863870e-02 -3.705609e-02 -3.951370e-02 2.066041e-01 3.868967e-03 -8.194635e-03 -1.520220e-01
<VARIANCE> 39
 1.800282e+01 3.749377e+01 6.072888e+01 7.153617e+01 5.590610e+01 6.863847e+01 5.560481e+01 1.321351e+02 8.829934e+00 2.940007e+01 1.785896e+01 3.275158e+01 3.616613e+01 9.669331e-01 7.404479e-01 1.727583e+00 3.259179e+00 2.358789e+00 1.357850e+00 2.146496e+00 3.718542e+00 1.794707e+00 2.737034e+00 1.397483e+00 2.060615e+00 1.735981e+00 1.567050e-01 1.300057e-01 2.704526e-01 3.147266e-01 2.202559e-01 1.659061e-01 3.216657e-01 4.292412e-01 3.183725e-01 3.508540e-01 3.180611e-01 2.581068e-01 1.417981e-01
<GCONST> 1.087864e+02
<TRANSP> 5
 0.000000e+00 1.000000e+00 0.000000e+00 0.000000e+00 0.000000e+00
 0.000000e+00 3.706954e-01 6.293046e-01 0.000000e+00 0.000000e+00
 0.000000e+00 0.000000e+00 7.478321e-01 2.521679e-01 0.000000e+00
 0.000000e+00 0.000000e+00 0.000000e+00 8.981412e-01 1.018588e-01
 0.000000e+00 0.000000e+00 0.000000e+00 0.000000e+00 0.000000e+00
<ENDHMM>
~h "at"
<BEGINHMM>
<NUMSTATES> 5
<STATE> 2
<MEAN> 39
 -6.033630e+00 -1.326694e+01 1.328724e+01 -1.915592e+00 1.239214e+00 -3.183603e-02 -6.387774e+00 -1.050597e+01 -5.907991e+00 -3.507378e-01 3.167588e+00 -1.188113e+01 7.115848e+01 -7.711321e-02 -3.445322e-01 -3.853952e-01 -5.870846e-01 3.944793e-01 -3.037075e-01 -5.682234e-02 3.050673e-01 4.336296e-01 2.142542e-02 -2.399852e-01 -9.909740e-02 4.482998e-01 2.214799e-02 -1.548958e-01 -1.962420e-03 -1.228741e-01 1.690672e-02 -4.838690e-03 3.963737e-02 9.160823e-02 -1.797333e-02 -7.596517e-03 -5.784912e-02 4.965264e-02 1.456654e-01
<VARIANCE> 39
 5.842631e+00 5.107533e+01 4.400387e+01 4.004751e+01 2.646196e+01 3.711362e+01 2.497701e+01 4.413079e+01 6.536253e+01 2.748907e+01 3.310358e+01 9.922233e+00 3.448844e+01 8.448059e-01 4.521807e+00 4.188412e+00 7.286736e+00 2.434141e+00 4.262963e+00 3.225117e+00 5.798931e+00 7.137318e+00 4.266574e+00 3.611754e+00 1.057332e+00 3.827862e+00 2.124519e-01 8.510485e-01 7.539094e-01 1.255611e+00 3.884280e-01 6.557562e-01 6.053364e-01 9.969613e-01 1.263371e+00 8.074665e-01 7.100610e-01 2.294878e-01 6.505238e-01
<GCONST> 1.258367e+02
<STATE> 3
<MEAN> 39
 -5.946642e+00 -1.127331e+01 6.778316e+00 -8.028734e+00 9.220555e+00 -6.957608e+00 -3.832589e+00 -5.429516e+00 -2.166638e+00 -3.120675e+00 -5.017619e+00 -8.328050e+00 7.025420e+01 -7.605504e-04 -1.124613e-01 1.395680e-01 1.226042e-01 1.612731e-02 5.951051e-03 -1.625415e-01 2.957571e-01 4.960348e-02 1.188090e-01 -5.030936e-02 -2.071579e-02 -1.371579e-02 -3.303888e-02 1.768014e-01 2.188285e-02 1.985242e-01 -6.932265e-02 6.915833e-02 -1.309953e-02 -1.044460e-01 1.313215e-02 6.310109e-03 7.246818e-02 -4.644078e-02 -2.202891e-01
<VARIANCE> 39
 6.185271e+00 6.182722e+01 1.619249e+01 8.495974e+01 2.749541e+01 3.041639e+01 2.995260e+01 6.617264e+01 3.776933e+01 4.125651e+01 4.981067e+01 2.985357e+01 8.302277e+01 8.359866e-01 5.382729e+00 9.869525e-01 7.993502e+00 2.311461e+00 1.871560e+00 2.141304e+00 6.159098e+00 4.453833e+00 2.588573e+00 3.830600e+00 1.936934e+00 6.477682e+00 1.619389e-01 6.859631e-01 1.780331e-01 1.230822e+00 4.410462e-01 3.454870e-01 4.188936e-01 9.965596e-01 7.981005e-01 5.669273e-01 6.191609e-01 2.568916e-01 7.851133e-01
<GCONST> 1.228332e+02
<STATE> 4
<MEAN> 39
 -1.001442e+01 -6.148654e+00 6.159568e+00 -3.959885e-01 6.183619e+00 -3.986160e+00 -7.845986e+00 -5.904574e+00 1.632683e+00 9.078324e-01 -3.749127e+00 -1.230170e+01 5.776075e+01 -6.330013e-01 6.981091e-01 -1.599849e-01 2.342899e-01 -8.473173e-01 -5.112635e-01 3.163841e-01 -4.167932e-01 4.218753e-01 -9.826809e-01 4.588163e-01 9.002179e-01 -1.004771e+00 8.748881e-02 -6.017863e-01 1.783976e-02 -8.479035e-01 6.249623e-02 -3.430966e-01 8.833781e-02 2.264927e-01 -1.882025e-01 -1.052931e-01 7.250465e-02 2.166078e-01 9.938661e-01
<VARIANCE> 39
 9.204821e+00 2.827980e+01 3.545605e+01 2.479384e+01 2.238797e+01 1.867536e+01 1.667257e+01 1.827164e+01 2.036079e+01 2.997127e+01 9.893013e+00 3.521647e+01 4.842758e+01 1.434106e+00 4.923594e+00 4.312103e+00 8.246021e+00 1.353597e+00 2.443282e+00 1.847959e+00 2.811632e+00 2.152195e+00 2.182054e+00 2.212648e+00 4.040552e+00 1.307577e+01 1.828393e-01 6.212815e-01 7.553716e-01 9.499589e-01 3.618168e-01 4.273330e-01 4.429110e-01 3.926658e-01 2.999504e-01 4.657604e-01 5.867364e-01 7.614596e-01 8.962197e-01
<GCONST> 1.175914e+02
<TRANSP> 5
 0.000000e+00 1.000000e+00 0.000000e+00 0.000000e+00 0.000000e+00
 0.000000e+00 9.490231e-01 5.097687e-02 0.000000e+00 0.000000e+00
 0.000000e+00 0.000000e+00 9.653754e-01 3.462459e-02 0.000000e+00
 0.000000e+00 0.000000e+00 0.000000e+00 8.463667e-01 1.536333e-01
 0.000000e+00 0.000000e+00 0.000000e+00 0.000000e+00 0.000000e+00
<ENDHMM>
~h "ba"
<BEGINHMM>
<NUMSTATES> 5
<STATE> 2
<MEAN> 39
 -1.242165e+01 -6.638932e+00 3.410857e+00 -2.277443e+00 -9.329711e-01 -5.291878e+00 -5.174073e+00 -7.781404e+00 -3.590743e+00 -2.609380e+00 1.935992e-01 -7.514235e+00 5.539567e+01 1.104050e+00 1.663616e-01 5.432943e-01 -1.327302e-01 7.759849e-01 -5.187731e-01 -8.639468e-01 -1.305570e+00 -6.104770e-01 -1.845891e-01 -1.663925e-01 -7.322903e-01 1.274538e+00 4.001647e-01 -2.985212e-01 3.511450e-01 -3.408412e-01 1.281432e-01 -3.040786e-01 1.262023e-01 9.539744e-02 -4.529297e-03 6.568079e-02 -2.708688e-01 -9.551609e-02 8.926952e-01
<VARIANCE> 39
 8.497060e+01 5.235626e+01 8.103317e+01 5.582337e+01 3.790022e+01 5.552271e+01 3.122977e+01 4.755671e+01 4.436985e+01 2.704827e+01 2.983993e+01 2.390324e+01 3.234196e+02 4.490795e+00 6.429485e+00 3.453679e+00 7.226309e+00 1.964171e+00 5.114967e+00 3.042177e+00 4.849155e+00 2.537602e+00 3.493030e+00 3.469672e+00 1.567958e+00 1.607381e+01 6.912619e-01 9.986119e-01 5.983335e-01 9.984844e-01 4.463029e-01 6.732283e-01 4.655256e-01 8.635168e-01 5.718877e-01 5.126313e-01 6.030545e-01 4.066172e-01 2.076223e+00
<GCONST> 1.362188e+02
<STATE> 3
<MEAN> 39
 -6.517490e+00 -6.855132e+00 6.444418e+00 -2.955464e+00 2.003395e+00 -7.313264e+00 -7.307242e+00 -1.186457e+01 -5.445065e+00 -1.771830e+00 -4.884940e-01 -9.988302e+00 6.253723e+01 9.249475e-01 -1.500425e+00 5.611018e-01 -1.560559e+00 6.087402e-01 -9.381295e-01 7.457237e-02 7.355102e-01 7.045101e-01 3.151943e-01 -7.607914e-01 -3.089035e-01 3.098845e+00 -2.868890e-01 -3.918560e-01 -6.829874e-02 -3.278632e-01 -1.586478e-01 8.619726e-04 3.311810e-01 6.568523e-01 2.305174e-01 -2.155125e-02 -1.520903e-01 2.318789e-01 2.142725e-01
<VARIANCE> 39
 2.518183e+01 5.764629e+01 3.383170e+01 7.223956e+01 2.606923e+01 3.271548e+01 3.401761e+01 7.592770e+01 5.044669e+01 4.195175e+01 3.655823e+01 2.039270e+01 9.836914e+01 4.780740e+00 9.142084e+00 4.675675e+00 1.028696e+01 2.858721e+00 4.632358e+00 2.889527e+00 8.472673e+00 4.845447e+00 4.100509e+00 4.292266e+00 2.242708e+00 1.886346e+01 4.769431e-01 1.379192e+00 5.062528e-01 1.717320e+00 4.452084e-01 7.844670e-01 5.671487e-01 1.065760e+00 8.276754e-01 8.660520e-01 8.444576e-01 4.315031e-01 2.157712e+00
<GCONST> 1.391599e+02
<STATE> 4
<MEAN> 39
 -7.833727e+00 -1.359525e+01 1.001155e+01 -9.075358e+00 -2.132203e-01 -1.190400e+01 -1.192318e+00 -3.833171e+00 -3.737765e+00 -3.069773e+00 -4.768911e+00 -6.665225e+00 7.252586e+01 -8.390820e-02 -2.618709e-01 1.036079e-01 -1.224763e-01 -3.201477e-03 1.228450e-02 2.923670e-01 3.708822e-01 5.355688e-03 -2.769818e-01 -2.146499e-01 1.420084e-01 4.138163e-01 -8.571410e-02 3.417208e-01 -7.606915e-02 3.074475e-01 -5.068701e-02 1.679580e-01 -7.028265e-02 -2.742923e-01 -1.055551e-01 2.133836e-02 2.047770e-01 -1.070853e-02 -4.956421e-01
<VARIANCE> 39
 1.771791e+01 3.866590e+01 4.588185e+01 4.434239e+01 3.736173e+01 2.453710e+01 4.268320e+01 4.726677e+01 4.564313e+01 4.594201e+01 3.394452e+01 2.916355e+01 8.058508e+01 1.122749e+00 3.955416e+00 2.904581e+00 4.819596e+00 2.243576e+00 1.714124e+00 2.907116e+00 4.295591e+00 2.659983e+00 2.886239e+00 2.791420e+00 1.693730e+00 6.553885e+00 2.253961e-01 6.875715e-01 4.493297e-01 8.339559e-01 4.134571e-01 3.241808e-01 4.424827e-01 6.944201e-01 5.280616e-01 5.118098e-01 5.262163e-01 3.068014e-01 8.429057e-01
<GCONST> 1.233252e+02
<TRANSP> 5
 0.000000e+00 1.000000e+00 0.000000e+00 0.000000e+00 0.000000e+00
 0.000000e+00 3.027455e-01 6.972545e-01 0.000000e+00 0.000000e+00
 0.000000e+00 0.000000e+00 7.148110e-01 2.851890e-01 0.000000e+00
 0.000000e+00 0.000000e+00 0.000000e+00 8.072879e-01 1.927121e-01
 0.000000e+00 0.000000e+00 0.000000e+00 0.000000e+00 0.000000e+00
<ENDHMM>
~h "be"
<BEGINHMM>
<NUMSTATES> 5
<STATE> 2
<MEAN> 39
 -1.760992e+01 -4.472409e+00 -2.533025e+00 5.916480e-01 -1.017763e+00 -1.070487e+00 -5.102468e+00 -6.353055e+00 -2.039473e+00 -4.343886e+00 -1.009076e+00 -4.911241e+00 4.347480e+01 -1.524227e-01 1.964420e-01 -2.031922e-01 2.585463e-01 -1.770968e-01 3.938483e-01 1.799998e-01 7.662177e-05 -5.855101e-02 -6.132957e-02 1.091347e-01 9.069244e-02 -6.289452e-01 2.234405e-01 -8.829220e-02 2.011775e-01 -1.171359e-01 3.693336e-02 -1.799770e-01 -6.662028e-02 -1.271576e-01 4.574096e-02 1.579083e-02 -1.667626e-01 -1.278977e-01 4.171124e-01
<VARIANCE> 39
 6.237522e+01 4.246651e+01 6.661600e+01 3.323703e+01 3.597102e+01 5.940104e+01 2.621896e+01 4.269118e+01 2.144446e+01 2.846259e+01 2.132602e+01 3.235051e+01 2.810419e+02 6.962563e-01 8.294367e-01 1.552035e+00 1.436938e+00 1.235168e+00 1.983228e+00 1.209719e+00 2.320899e+00 1.787139e+00 1.136020e+00 1.419106e+00 1.678708e+00 2.556739e+00 3.037665e-01 2.488921e-01 4.131078e-01 2.583635e-01 3.390138e-01 5.707644e-01 4.002141e-01 5.220292e-01 3.697713e-01 2.995041e-01 3.312455e-01 3.552801e-01 9.598217e-01
<GCONST> 1.128254e+02
<STATE> 3
<MEAN> 39
 -1.463548e+01 -7.484611e+00 5.938347e+00 -4.498040e+00 -3.456578e+00 -3.411005e+00 -1.024668e+00 -7.678446e+00 -3.526682e+00 -3.030828e+00 2.158666e-01 -5.949937e+00 5.437608e+01 4.871097e-01 -1.102299e-01 3.167613e-01 -6.426390e-03 -9.660857e-02 -2.248198e-01 -2.246979e-01 -4.834602e-01 -1.251952e-01 -1.460994e-01 -2.582102e-01 -3.298723e-01 7.360622e-01 3.301945e-01 -9.992747e-02 2.730014e-01 -6.441003e-02 6.963777e-02 -2.888847e-01 -2.238420e-01 -2.557026e-01 3.592772e-02 1.121991e-01 -1.446343e-01 -1.675421e-01 5.808665e-01
<VARIANCE> 39
 7.064550e+01 6.164192e+01 2.006498e+02 8.838454e+01 3.920371e+01 5.574117e+01 6.525134e+01 3.561966e+01 1.678505e+01 2.682557e+01 2.597548e+01 2.023185e+01 4.494814e+02 1.587302e+00 1.237689e+00 1.708726e+00 1.298189e+00 1.122662e+00 2.776991e+00 1.440921e+00 2.479573e+00 1.752980e+00 1.373178e+00 1.541665e+00 1.309010e+00 4.854948e+00 5.147665e-01 3.970984e-01 5.509052e-01 3.092714e-01 2.354241e-01 4.920095e-01 4.008847e-01 4.486019e-01 3.107663e-01 2.792201e-01 3.260177e-01 3.221842e-01 1.395285e+00
<GCONST> 1.192120e+02
<STATE> 4
<MEAN> 39
 -1.912508e+01 -1.983623e+00 -2.360258e+00 1.226345e+00 -3.261384e+00 6.061660e-01 -5.451491e+00 -5.730601e+00 -1.941262e+00 -3.114250e+00 -9.510652e-01 -4.093678e+00 3.915861e+01 1.054140e+00 -1.942222e-01 8.845657e-01 -1.049014e-02 7.366470e-02 -5.928931e-01 -6.180586e-01 -8.603211e-01 -1.718557e-01 2.607739e-01 -3.479845e-01 -4.557306e-01 1.428974e+00 2.958586e-01 -1.138103e-01 1.717632e-01 -5.152801e-02 1.502717e-01 -5.616003e-02 -1.165842e-01 -9.526580e-02 -2.653723e-02 1.001808e-01 -3.598937e-02 -6.590560e-02 4.055578e-01
<VARIANCE> 39
 6.887016e+01 3.096299e+01 6.896052e+01 3.405560e+01 3.067443e+01 5.156718e+01 3.200262e+01 6.273344e+01 3.480941e+01 2.939838e+01 2.225932e+01 2.304478e+01 2.615096e+02 6.135317e+00 2.890755e+00 6.609894e+00 2.527912e+00 2.838017e+00 5.145148e+00 3.274593e+00 7.740109e+00 4.451599e+00 2.363319e+00 2.542359e+00 1.967682e+00 1.704421e+01 5.357300e-01 3.130166e-01 7.607170e-01 4.950835e-01 4.555528e-01 8.387716e-01 4.193513e-01 1.031101e+00 7.758720e-01 3.921093e-01 3.266237e-01 3.166871e-01 1.610528e+00
<GCONST> 1.316718e+02
<TRANSP> 5
 0.000000e+00 1.000000e+00 0.000000e+00 0.000000e+00 0.000000e+00
 0.000000e+00 6.063466e-01 3.936534e-01 0.000000e+00 0.000000e+00
 0.000000e+00 0.000000e+00 4.597443e-01 5.402557e-01 0.000000e+00
 0.000000e+00 0.000000e+00 0.000000e+00 6.567916e-01 3.432085e-01
 0.000000e+00 0.000000e+00 0.000000e+00 0.000000e+00 0.000000e+00
<ENDHMM>
~h "bi"
<BEGINHMM>
<NUMSTATES> 5
<STATE> 2
<MEAN> 39
 -9.399055e+00 -4.353065e+00 1.476806e+01 1.870663e-01 -2.483207e+00 -9.912544e+00 -5.791722e+00 -9.272427e+00 -8.543391e+00 -1.990970e+00 2.749471e+00 -7.779699e+00 6.235015e+01 -3.852896e-01 -6.363875e-01 2.169044e+00 -9.435400e-01 -1.088593e+00 -1.460267e+00 4.828027e-01 3.324965e-01 -1.193065e+00 -1.143960e-01 5.916240e-01 5.764493e-01 2.280591e+00 -6.198015e-02 -1.597311e-01 2.641108e-02 -3.708820e-01 -3.732427e-02 9.150119e-02 1.434732e-01 1.046528e-02 8.700687e-03 -4.086775e-02 -1.282188e-01 2.886052e-02 3.588758e-01
<VARIANCE> 39
 3.407835e+01 4.253123e+01 1.010462e+02 4.010048e+01 5.045935e+01 5.162358e+01 2.584774e+01 4.551767e+01 5.388911e+01 3.266753e+01 2.195913e+01 2.568131e+01 1.744413e+02 4.459185e+00 4.297390e+00 8.149741e+00 6.548912e+00 4.725213e+00 5.904757e+00 2.128396e+00 3.139491e+00 3.786633e+00 3.353988e+00 1.596194e+00 2.706949e+00 1.370656e+01 4.563899e-01 7.654953e-01 1.558627e+00 1.045208e+00 9.414208e-01 8.936289e-01 5.173678e-01 7.047619e-01 9.727172e-01 6.984566e-01 2.804450e-01 3.790370e-01 1.864821e+00
<GCONST> 1.361995e+02
<STATE> 3
<MEAN> 39
 -1.100469e+01 -7.519113e+00 1.962177e+01 -5.001777e+00 -5.702398e+00 -1.461913e+01 -2.806297e+00 -8.344444e+00 -1.024831e+01 -2.043258e+00 3.797391e+00 -5.280462e+00 7.177718e+01 -8.099727e-01 2.545556e-01 -3.799638e-01 -4.753501e-01 6.102762e-01 -3.067242e-01 1.274049e+00 2.541350e-01 1.182781e+00 -1.148612e+00 -4.041266e-02 2.402914e-01 1.038814e+00 -1.676537e-01 1.079303e-01 -7.255388e-01 2.941976e-01 5.403589e-01 5.713549e-01 1.383638e-01 -6.183860e-02 5.714471e-01 -2.958019e-01 -2.061583e-01 -3.004715e-01 -5.108821e-01
<VARIANCE> 39
 1.556315e+01 2.533809e+01 4.829017e+01 3.728717e+01 4.408871e+01 3.781502e+01 4.084246e+01 3.222931e+01 4.748075e+01 3.519711e+01 1.919997e+01 1.956898e+01 6.335036e+01 4.133092e+00 4.619376e+00 6.588316e+00 3.769990e+00 4.953708e+00 3.516603e+00 3.612082e+00 3.800448e+00 6.905742e+00 6.300999e+00 1.703439e+00 2.078092e+00 6.291601e+00 5.310425e-01 5.294500e-01 9.229517e-01 5.858300e-01 6.715311e-01 7.365536e-01 4.766212e-01 5.547962e-01 8.332046e-01 7.010914e-01 3.186423e-01 4.228733e-01 8.799656e-01
<GCONST> 1.291780e+02
<STATE> 4
<MEAN> 39
 -1.433473e+01 -8.886350e+00 1.021211e+01 -5.464859e+00 -3.633189e-02 -1.167712e+01 3.846529e+00 -7.487335e+00 -3.120954e+00 -6.976878e+00 6.913326e-01 -6.807916e+00 7.099377e+01 -8.305982e-02 1.028574e-02 -5.360990e-01 2.075312e-01 4.529360e-01 4.419286e-01 1.691360e-01 -1.756003e-02 3.596241e-01 -3.939010e-01 -3.303011e-01 -1.437763e-01 -1.627913e-01 3.530507e-02 -3.740961e-02 1.111431e-02 9.238031e-04 -3.151415e-02 9.086308e-02 -1.122764e-01 -3.234317e-02 -1.060298e-01 1.530675e-01 -1.383748e-02 -8.762660e-03 -1.263196e-01
<VARIANCE> 39
 8.048898e+01 3.403149e+01 5.641592e+01 4.063554e+01 4.424890e+01 3.474909e+01 4.322248e+01 3.077778e+01 4.259930e+01 3.574011e+01 3.544123e+01 2.677021e+01 3.919212e+01 6.360181e+00 2.512687e+00 3.520907e+00 2.852861e+00 3.357991e+00 2.622455e+00 2.611840e+00 2.855294e+00 2.811753e+00 3.834378e+00 3.500804e+00 2.237974e+00 3.774400e+00 7.241290e-01 5.621250e-01 4.483467e-01 4.891654e-01 6.154826e-01 4.870344e-01 3.985677e-01 4.414814e-01 4.882353e-01 6.971743e-01 6.075461e-01 4.138283e-01 5.730094e-01
<GCONST> 1.263672e+02
<TRANSP> 5
 0.000000e+00 1.000000e+00 0.000000e+00 0.000000e+00 0.000000e+00
 0.000000e+00 7.256792e-01 2.743208e-01 0.000000e+00 0.000000e+00
 0.000000e+00 0.000000e+00 5.905790e-01 4.094210e-01 0.000000e+00
 0.000000e+00 0.000000e+00 0.000000e+00 7.853034e-01 2.146966e-01
 0.000000e+00 0.000000e+00 0.000000e+00 0.000000e+00 0.000000e+00
<ENDHMM>
~h "bo"
<BEGINHMM>
<NUMSTATES> 5
<STATE> 2
<MEAN> 39
 -2.132904e+01 -4.072153e+00 6.832980e+00 2.196770e+00 -2.037956e+00 -1.460150e+00 2.500864e+00 -6.628658e+00 -3.346974e+00 -6.862693e+00 -3.829257e+00 -7.040425e+00 4.321752e+01 1.028089e+00 -6.181405e-01 7.414833e-01 5.679866e-01 6.629497e-01 9.553986e-01 -1.949095e-01 5.030461e-01 -6.379644e-01 -3.038573e-01 8.961260e-02 6.340939e-01 1.053665e+00 9.855755e-03 -4.361020e-01 -1.463265e-01 -4.041469e-01 2.614419e-01 1.621220e-01 -5.193996e-01 -1.508065e-01 -1.049820e-02 -5.748172e-02 3.350625e-01 2.264951e-01 3.233926e-01
<VARIANCE> 39
 2.421861e+01 2.224040e+01 5.899738e+01 4.054067e+01 2.381185e+01 4.331249e+01 4.381933e+01 1.411954e+01 8.906011e+00 2.308174e+01 7.552350e+00 1.386660e+01 1.501879e+02 4.729982e-01 1.931327e+00 1.954024e+00 2.592329e+00 1.258276e+00 2.557747e+00 1.126704e+01 2.240737e+00 4.642515e-01 6.314667e-01 5.930687e-01 2.546148e+00 3.184957e+00 4.855037e-01 3.573126e-01 6.810409e-01 5.759421e-01 2.664486e-01 5.577825e-01 1.610733e+00 4.233005e-01 4.858468e-01 2.798429e-01 1.019210e-01 5.046671e-01 1.319739e+00
<GCONST> 1.107121e+02
<STATE> 3
<MEAN> 39
 -1.844533e+01 -8.970230e+00 5.863129e+00 -6.985086e-01 -5.132031e-02 3.587099e+00 -6.362051e+00 -3.965379e+00 -2.541629e+00 -4.107340e+00 1.397156e+00 -4.359161e+00 4.629329e+01 2.032706e+00 -6.345880e-01 -9.782547e-01 -3.053938e+00 1.248781e+00 -3.768234e-01 -1.846943e+00 -6.898262e-01 -4.189157e-01 8.936824e-01 1.052040e+00 -1.824927e+00 3.099911e+00 7.122201e-01 2.292504e-01 7.384776e-02 -1.012818e+00 5.689762e-01 -5.056258e-01 7.183715e-01 -5.321943e-01 -5.547990e-01 1.058754e-01 -4.198571e-01 -8.761100e-01 1.431110e+00
<VARIANCE> 39
 3.500824e+01 3.385282e+01 1.420803e+02 9.274806e+01 4.467294e+01 1.814459e+01 9.181433e+00 7.443275e+00 1.715402e+01 3.259204e+01 1.138264e+01 3.562405e+01 2.779800e+02 3.711312e+00 6.324180e-01 5.861712e+00 2.835469e+00 1.960986e+00 1.234822e+00 2.028187e+00 2.932784e+00 2.788030e+00 2.551707e+00 1.004928e+00 4.799032e+00 6.945335e+00 7.609195e-01 1.883245e-01 5.393002e-01 9.206676e-01 5.517155e-01 1.366934e-01 2.256024e-01 2.743387e-01 7.904883e-01 3.717348e-01 2.539114e-01 1.061409e+00 1.496880e+00
<GCONST> 1.187845e+02
<STATE> 4
<MEAN> 39
 -8.699107e+00 -5.923809e+00 3.485738e+00 -1.121512e+01 3.958166e+00 5.207858e-01 -8.027670e+00 -7.062693e+00 -7.217388e+00 -2.320729e+00 -8.285908e-01 -9.054856e+00 5.702341e+01 4.016041e+00 -2.309770e-01 1.694297e+00 -4.882904e+00 3.114722e+00 -1.320857e+00 4.036581e-01 -2.449333e-01 -2.778311e+00 3.310825e-01 -4.781205e-01 -8.581147e-01 6.941646e+00 -5.707036e-01 -1.853469e-01 4.664069e-01 3.552615e-01 2.048067e-01 -1.223320e-01 6.424629e-01 -6.663702e-03 3.237593e-02 2.532064e-01 -2.131578e-01 3.186138e-01 -7.306913e-02
<VARIANCE> 39
 1.806597e+01 4.590351e+01 9.621133e+01 3.138268e+01 7.280930e+01 2.348958e+01 5.643375e+01 3.575307e+01 8.318259e+00 9.256801e+00 1.669937e+01 4.648546e+01 1.573949e+02 4.701691e+00 8.817356e-01 2.236579e+00 6.149376e+00 7.093713e+00 1.796409e+00 1.675037e+00 1.710914e+00 2.374296e+00 7.918918e-01 1.650550e+00 2.282187e+00 1.352005e+01 4.231849e-01 2.349261e-01 7.917852e-01 8.866675e-01 3.553504e-01 1.725226e-01 3.720801e-01 4.263957e-01 6.838353e-01 2.544411e-01 3.269548e-01 2.510205e-01 1.110325e+00
<GCONST> 1.182855e+02
<TRANSP> 5
 0.000000e+00 1.000000e+00 0.000000e+00 0.000000e+00 0.000000e+00
 0.000000e+00 6.966079e-01 3.033921e-01 0.000000e+00 0.000000e+00
 0.000000e+00 0.000000e+00 4.129562e-01 5.870438e-01 0.000000e+00
 0.000000e+00 0.000000e+00 0.000000e+00 4.523124e-01 5.476876e-01
 0.000000e+00 0.000000e+00 0.000000e+00 0.000000e+00 0.000000e+00
<ENDHMM>
~h "bu"
<BEGINHMM>
<NUMSTATES> 5
<STATE> 2
<MEAN> 39
 -4.554695e+00 -3.730581e+00 8.518373e+00 -9.472589e+00 2.874136e+00 5.145801e-01 -4.491914e+00 -9.718580e+00 -9.538827e+00 -3.718035e+00 1.678111e+00 -8.387491e+00 6.523275e+01 4.862801e-02 3.385642e-01 -3.997001e-01 -5.350771e-01 -8.133192e-02 1.952482e-01 -8.728551e-02 -4.742777e-02 1.511397e-01 -7.359989e-02 1.014430e-01 4.325528e-02 -9.316608e-03 -2.601965e-02 -6.234919e-02 9.722010e-02 3.250661e-02 -7.114413e-02 -2.128977e-02 6.710654e-03 1.244547e-02 2.325947e-02 5.891690e-02 -6.096864e-03 -1.257732e-02 2.941374e-02
<VARIANCE> 39
 9.609900e+00 4.336656e+01 2.620872e+01 1.038755e+02 3.670090e+01 4.528874e+01 2.254559e+01 4.920417e+01 4.585932e+01 3.934120e+01 3.698399e+01 1.974480e+01 3.736096e+01 9.433364e-01 3.268009e+00 2.930880e+00 1.002907e+01 3.549019e+00 3.756724e+00 2.216285e+00 5.943970e+00 3.848323e+00 2.341355e+00 3.155749e+00 1.729744e+00 3.208899e+00 1.924287e-01 4.659868e-01 5.107631e-01 1.639473e+00 6.754943e-01 6.843334e-01 3.710198e-01 1.000587e+00 7.679180e-01 4.024911e-01 5.856085e-01 3.037006e-01 4.559693e-01
<GCONST> 1.244568e+02
<STATE> 3
<MEAN> 39
 -4.992440e+00 -5.915956e-01 5.340182e+00 -1.438055e+01 -4.040685e-01 -2.715841e+00 -5.223668e+00 -1.023143e+01 -9.276016e+00 -5.816787e+00 1.848634e+00 -8.151080e+00 6.641107e+01 -3.692166e-01 -3.128103e-01 -3.039165e-01 5.224094e-01 1.394528e-01 -2.606058e-01 2.168222e-01 -3.242532e-02 5.886046e-01 4.553898e-02 -5.139524e-02 7.867470e-02 -2.919472e-01 -9.215523e-02 -7.355726e-02 -1.484441e-01 -7.773927e-02 6.267415e-02 -1.056405e-01 7.193913e-02 9.708066e-02 -5.007572e-03 -9.823197e-02 -5.138675e-02 -2.195080e-02 -4.675183e-02
<VARIANCE> 39
 1.075755e+01 3.763973e+01 3.259966e+01 1.226505e+02 2.629190e+01 3.425138e+01 3.307100e+01 4.902794e+01 4.187075e+01 3.566321e+01 2.106917e+01 1.760737e+01 3.166774e+01 1.002115e+00 2.595429e+00 1.838869e+00 6.192237e+00 1.037595e+00 2.070067e+00 1.842337e+00 2.254965e+00 3.489113e+00 2.798083e+00 2.570777e+00 1.560452e+00 1.313834e+00 1.435964e-01 3.616748e-01 2.762327e-01 7.694359e-01 2.204794e-01 3.527211e-01 3.313578e-01 5.844805e-01 6.347940e-01 5.275739e-01 4.491470e-01 2.649441e-01 1.273955e-01
<GCONST> 1.123814e+02
<STATE> 4
<MEAN> 39
 -1.012685e+01 -4.784110e+00 2.720701e+00 -8.334883e+00 2.698125e+00 -1.401994e+00 -2.589437e+00 -1.246502e+01 -3.424638e+00 -4.262794e+00 1.977428e+00 -6.738105e+00 6.002111e+01 -7.111841e-01 -7.030044e-02 -5.752407e-01 6.245595e-01 -4.332592e-02 -2.675760e-01 3.330409e-02 1.293181e-01 5.857091e-01 -4.094039e-01 -4.455605e-01 -4.443229e-01 -9.469626e-01 6.540383e-02 2.230161e-02 1.822450e-02 -2.075980e-01 -1.057719e-01 -1.409218e-02 -1.897075e-01 2.286178e-01 -1.689236e-01 -6.654709e-02 -4.192140e-02 -1.713656e-01 1.357304e-01
<VARIANCE> 39
 3.049817e+01 3.849347e+01 8.404374e+01 7.467535e+01 1.836368e+01 3.845343e+01 4.091191e+01 4.308935e+01 3.185140e+01 3.902404e+01 2.054911e+01 2.608357e+01 3.555908e+01 7.384080e-01 2.384719e+00 1.739064e+00 2.358320e+00 1.337400e+00 1.706025e+00 1.566116e+00 3.897803e+00 1.999225e+00 2.723525e+00 2.112599e+00 2.355205e+00 1.032641e+00 1.134879e-01 4.907731e-01 3.489675e-01 7.917772e-01 3.580741e-01 3.521397e-01 2.913886e-01 4.347155e-01 4.880168e-01 4.036552e-01 4.751324e-01 4.277915e-01 3.402132e-01
<GCONST> 1.138402e+02
<TRANSP> 5
 0.000000e+00 1.000000e+00 0.000000e+00 0.000000e+00 0.000000e+00
 0.000000e+00 9.268119e-01 7.318805e-02 0.000000e+00 0.000000e+00
 0.000000e+00 0.000000e+00 8.246664e-01 1.753336e-01 0.000000e+00
 0.000000e+00 0.000000e+00 0.000000e+00 6.669592e-01 3.330408e-01
 0.000000e+00 0.000000e+00 0.000000e+00 0.000000e+00 0.000000e+00
<ENDHMM>
~h "ca"
<BEGINHMM>
<NUMSTATES> 5
<STATE> 2
<MEAN> 39
 -1.374457e+01 -2.527763e+00 1.172486e+01 2.727387e+00 -8.045826e+00 -1.117676e+01 -5.145433e+00 -1.032693e+01 -5.490176e+00 -9.729662e+00 3.109072e+00 -6.411545e+00 6.583786e+01 -1.761790e+00 4.962967e-01 5.503454e-01 -4.487468e-01 2.250819e-01 2.190812e-01 1.654170e+00 -5.274995e-02 2.477488e-01 -8.927631e-01 5.741770e-01 5.609792e-01 8.294969e-01 -5.977055e-01 -2.479841e-01 -3.436297e-01 -2.124671e-01 4.132727e-01 2.534689e-01 4.295759e-01 9.877704e-02 2.996269e-01 5.386136e-03 -1.709858e-02 -1.749095e-01 -1.645706e-02
<VARIANCE> 39
 3.238121e+01 2.535999e+01 4.807788e+01 1.103250e+01 7.506453e+01 2.914923e+01 5.215133e+01 1.031611e+01 2.989692e+01 2.200389e+01 2.330431e+01 1.614370e+01 7.684766e+01 3.696761e+00 5.205177e+00 3.849091e+00 6.858065e-01 1.369691e+01 4.444036e+00 4.868890e+00 1.754334e+00 4.492730e+00 3.769620e+00 2.301876e+00 2.408124e+00 6.935902e+00 8.668697e-01 9.202298e-01 5.402364e-01 2.036101e-01 1.971221e+00 1.080251e+00 9.560972e-01 3.854876e-01 8.274866e-01 6.536344e-01 3.635999e-01 5.749353e-01 1.330148e+00
<GCONST> 1.274914e+02
<STATE> 3
<MEAN> 39
 -2.340690e+01 -5.063854e+00 4.897666e+00 -1.737502e+00 2.937083e-01 -1.119722e+01 2.350443e+00 -9.033389e+00 -3.043038e-02 -9.534759e+00 2.001374e+00 -4.977612e+00 6.335971e+01 -7.664835e-01 -1.063609e+00 -6.189618e-01 -8.795261e-01 1.960710e-02 -1.788932e-01 2.471583e-01 4.386496e-01 6.686733e-01 3.027647e-01 -2.262220e-01 2.298239e-01 7.814368e-01 9.028007e-01 3.942827e-02 1.255385e-01 -8.021496e-03 -3.573148e-01 -2.688001e-01 -3.758858e-01 1.063837e-02 -1.168819e-01 1.217126e-01 -2.814543e-01 3.801536e-02 7.361151e-02
<VARIANCE> 39
 6.957316e+01 3.483296e+01 1.983144e+01 2.581977e+01 1.798475e+01 5.663188e+01 3.645758e+01 2.408104e+01 2.826477e+01 1.767297e+01 8.982747e+00 1.301723e+01 4.200994e+01 1.029011e+01 4.658370e+00 3.929041e+00 3.048652e+00 3.052619e+00 8.007870e+00 4.550529e+00 2.518034e+00 3.619590e+00 1.822374e+00 1.556166e+00 1.271842e+00 8.804171e+00 1.701884e+00 9.339052e-01 8.315708e-01 3.928698e-01 7.115796e-01 1.527265e+00 9.230958e-01 4.298956e-01 7.528966e-01 4.905529e-01 2.513666e-01 2.682024e-01 1.667754e+00
<GCONST> 1.261801e+02
<STATE> 4
<MEAN> 39
 -1.532861e+01 -8.563031e+00 6.551939e+00 -6.748669e+00 -2.805024e+00 -1.222853e+01 1.525070e+00 -6.326863e+00 1.342093e+00 -9.893685e+00 -6.463622e-01 -3.596748e+00 6.794849e+01 1.934451e+00 -6.577340e-01 3.443491e-01 -8.838031e-02 -2.184342e-01 -2.643830e-01 -5.986309e-02 1.554103e-01 -1.089286e-01 -1.838733e-01 -8.544801e-01 -2.915505e-01 1.048669e+00 -1.793323e-01 8.643322e-02 -8.837385e-02 2.188011e-01 1.989066e-01 1.693111e-01 1.263532e-01 -9.387744e-02 -1.552430e-02 -2.187958e-02 6.840017e-02 -1.180026e-01 -1.253152e-01
<VARIANCE> 39
 9.670942e+01 3.234175e+01 2.797462e+01 1.596218e+01 1.801033e+01 2.666496e+01 1.753410e+01 2.874401e+01 1.185347e+01 1.981369e+01 3.742859e+01 8.562828e+00 8.629436e+01 9.304934e+00 3.483906e+00 4.797400e+00 2.738635e+00 2.597530e+00 2.669268e+00 1.636272e+00 2.870018e+00 1.254414e+00 3.266284e+00 3.340501e+00 1.166836e+00 8.257471e+00 1.837839e+00 5.843344e-01 9.680806e-01 5.408658e-01 4.526905e-01 5.947200e-01 2.810536e-01 6.189982e-01 2.529831e-01 5.949931e-01 6.871386e-01 1.924734e-01 1.432344e+00
<GCONST> 1.211354e+02
<TRANSP> 5
 0.000000e+00 1.000000e+00 0.000000e+00 0.000000e+00 0.000000e+00
 0.000000e+00 8.017071e-01 1.982929e-01 0.000000e+00 0.000000e+00
 0.000000e+00 0.000000e+00 8.337932e-01 1.662068e-01 0.000000e+00
 0.000000e+00 0.000000e+00 0.000000e+00 9.015728e-01 9.842723e-02
 0.000000e+00 0.000000e+00 0.000000e+00 0.000000e+00 0.000000e+00
<ENDHMM>
~h "ce"
<BEGINHMM>
<NUMSTATES> 5
<STATE> 2
<MEAN> 39
 -1.414439e+01 -7.743544e+00 2.981896e+00 -3.338959e+00 -1.236701e+00 -4.557664e+00 -2.877691e+00 -5.862136e+00 -3.202762e+00 -3.443379e+00 -1.721877e+00 -6.371274e+00 5.579076e+01 6.232237e-03 -1.184823e-02 5.264243e-03 -6.519453e-03 1.211909e-02 -4.235385e-03 -3.512999e-03 -1.805082e-02 -5.453523e-03 -6.036744e-03 -7.011249e-03 -6.053052e-03 2.423646e-02 -9.010978e-04 1.120651e-04 9.610648e-04 -2.967558e-04 -9.534184e-04 -8.676232e-04 1.872276e-03 1.397487e-03 1.512468e-03 6.095680e-04 -1.876877e-03 -2.391075e-03 8.105070e-05
<VARIANCE> 39
 8.422131e+01 6.084932e+01 1.073184e+02 6.955961e+01 5.446898e+01 7.079699e+01 4.003558e+01 5.404599e+01 3.966318e+01 3.654010e+01 3.580028e+01 3.070767e+01 4.210256e+02 2.718938e+00 2.774098e+00 2.577952e+00 3.647003e+00 2.640600e+00 2.721259e+00 2.408645e+00 3.156996e+00 2.811730e+00 2.666958e+00 2.489032e+00 1.730705e+00 5.594234e+00 4.269334e-01 4.867562e-01 4.137151e-01 6.318184e-01 4.706049e-01 4.998694e-01 4.513086e-01 5.820031e-01 5.208243e-01 5.037161e-01 4.586620e-01 3.360353e-01 8.262612e-01
<GCONST> 1.297615e+02
<STATE> 3
<MEAN> 39
 -1.414439e+01 -7.743544e+00 2.981896e+00 -3.338959e+00 -1.236701e+00 -4.557664e+00 -2.877691e+00 -5.862136e+00 -3.202762e+00 -3.443379e+00 -1.721877e+00 -6.371274e+00 5.579076e+01 6.232237e-03 -1.184823e-02 5.264243e-03 -6.519453e-03 1.211909e-02 -4.235385e-03 -3.512999e-03 -1.805082e-02 -5.453523e-03 -6.036744e-03 -7.011249e-03 -6.053052e-03 2.423646e-02 -9.010978e-04 1.120651e-04 9.610648e-04 -2.967558e-04 -9.534184e-04 -8.676232e-04 1.872276e-03 1.397487e-03 1.512468e-03 6.095680e-04 -1.876877e-03 -2.391075e-03 8.105070e-05
<VARIANCE> 39
 8.422131e+01 6.084932e+01 1.073184e+02 6.955961e+01 5.446898e+01 7.079699e+01 4.003558e+01 5.404599e+01 3.966318e+01 3.654010e+01 3.580028e+01 3.070767e+01 4.210256e+02 2.718938e+00 2.774098e+00 2.577952e+00 3.647003e+00 2.640600e+00 2.721259e+00 2.408645e+00 3.156996e+00 2.811730e+00 2.666958e+00 2.489032e+00 1.730705e+00 5.594234e+00 4.269334e-01 4.867562e-01 4.137151e-01 6.318184e-01 4.706049e-01 4.998694e-01 4.513086e-01 5.820031e-01 5.208243e-01 5.037161e-01 4.586620e-01 3.360353e-01 8.262612e-01
<GCONST> 1.297615e+02
<STATE> 4
<MEAN> 39
 -1.414439e+01 -7.743544e+00 2.981896e+00 -3.338959e+00 -1.236701e+00 -4.557664e+00 -2.877691e+00 -5.862136e+00 -3.202762e+00 -3.443379e+00 -1.721877e+00 -6.371274e+00 5.579076e+01 6.232237e-03 -1.184823e-02 5.264243e-03 -6.519453e-03 1.211909e-02 -4.235385e-03 -3.512999e-03 -1.805082e-02 -5.453523e-03 -6.036744e-03 -7.011249e-03 -6.053052e-03 2.423646e-02 -9.010978e-04 1.120651e-04 9.610648e-04 -2.967558e-04 -9.534184e-04 -8.676232e-04 1.872276e-03 1.397487e-03 1.512468e-03 6.095680e-04 -1.876877e-03 -2.391075e-03 8.105070e-05
<VARIANCE> 39
 8.422131e+01 6.084932e+01 1.073184e+02 6.955961e+01 5.446898e+01 7.079699e+01 4.003558e+01 5.404599e+01 3.966318e+01 3.654010e+01 3.580028e+01 3.070767e+01 4.210256e+02 2.718938e+00 2.774098e+00 2.577952e+00 3.647003e+00 2.640600e+00 2.721259e+00 2.408645e+00 3.156996e+00 2.811730e+00 2.666958e+00 2.489032e+00 1.730705e+00 5.594234e+00 4.269334e-01 4.867562e-01 4.137151e-01 6.318184e-01 4.706049e-01 4.998694e-01 4.513086e-01 5.820031e-01 5.208243e-01 5.037161e-01 4.586620e-01 3.360353e-01 8.262612e-01
<GCONST> 1.297615e+02
<TRANSP> 5
 0.000000e+00 1.000000e+00 0.000000e+00 0.000000e+00 0.000000e+00
 0.000000e+00 6.000000e-01 4.000000e-01 0.000000e+00 0.000000e+00
