~o
<STREAMINFO> 1 39
<VECSIZE> 39<NULLD><MFCC_D_A_0><DIAGC>
~s "silst"
<MEAN> 39
 -2.600333e+01 1.766527e+00 -1.022233e+01 4.055200e+00 -7.112733e+00 5.294774e+00 -3.599472e+00 1.258057e+00 6.155806e-01 -9.038237e-01 1.156926e+00 -4.062983e-01 2.271532e+01 1.509864e-03 -1.726273e-03 -3.874687e-03 -3.490417e-03 2.044995e-02 2.846904e-02 -4.359977e-03 -1.743380e-02 -1.270142e-02 -1.183857e-02 -7.657702e-03 -4.134402e-03 1.037430e-03 7.111364e-03 -3.477328e-03 1.438779e-02 8.145451e-04 -5.020093e-03 -1.471206e-02 4.335186e-03 6.618751e-03 -1.817865e-03 -1.410782e-03 -1.463160e-02 -1.493772e-02 1.331003e-02
<VARIANCE> 39
 8.422131e-01 1.223562e+00 2.072219e+00 3.200588e+00 5.608034e+00 6.510249e+00 8.214211e+00 9.162540e+00 8.858625e+00 7.713461e+00 8.566757e+00 7.509033e+00 4.210256e+00 6.412277e-02 1.476172e-01 2.430320e-01 3.563917e-01 7.130130e-01 8.082639e-01 1.231149e+00 1.388048e+00 9.957002e-01 8.350084e-01 9.468521e-01 8.673449e-01 5.594233e-02 1.639056e-02 3.062924e-02 5.189981e-02 7.453440e-02 1.445456e-01 1.583927e-01 2.923717e-01 3.230049e-01 2.079737e-01 1.675119e-01 1.982576e-01 1.801312e-01 8.720276e-03
<GCONST> 5.023717e+01
~h "a"
<BEGINHMM>
<NUMSTATES> 5
<STATE> 2
<MEAN> 39
 -6.962016e+00 -1.355709e+01 6.323000e+00 -1.165570e+01 2.391941e-01 -5.991955e+00 -3.012529e+00 -6.552409e+00 -5.969615e+00 -2.060026e+00 -2.169333e+00 -8.730449e+00 7.210749e+01 3.595808e-01 -1.013788e+00 -1.337956e-01 -3.846712e-01 4.621445e-01 -2.790456e-01 1.029816e-01 7.336055e-01 3.093632e-01 -3.166091e-01 -9.048073e-01 -1.051472e-01 1.057789e+00 -3.824678e-02 1.063996e-01 8.664944e-02 2.213259e-01 4.722622e-02 -3.229675e-03 1.292779e-02 -6.669607e-02 4.601447e-02 -1.157661e-01 -6.992409e-02 9.000161e-02 -1.693126e-01
<VARIANCE> 39
 2.450566e+01 2.359820e+01 9.054101e+01 4.159238e+01 4.818605e+01 6.989775e+01 3.354259e+01 3.779796e+01 4.051665e+01 3.875024e+01 3.244583e+01 2.128952e+01 5.510454e+01 2.283509e+00 3.026502e+00 2.852941e+00 3.735307e+00 2.350781e+00 3.245044e+00 1.796953e+00 2.813208e+00 1.857356e+00 2.790836e+00 2.580250e+00 1.679989e+00 5.862196e+00 2.283829e-01 3.987741e-01 3.430530e-01 5.341916e-01 4.081507e-01 4.603766e-01 3.733075e-01 4.543618e-01 3.458208e-01 4.150619e-01 3.242213e-01 2.947136e-01 4.104723e-01
<GCONST> 1.195576e+02
<STATE> 3
<MEAN> 39
 -6.143170e+00 -1.948153e+01 6.667514e+00 -1.214997e+01 4.602742e+00 -1.018950e+01 -3.100818e+00 -2.043639e+00 -3.175254e+00 -4.993668e+00 -8.894227e+00 -8.454288e+00 7.659562e+01 2.454876e-01 -3.911939e-01 4.428952e-01 1.614413e-01 1.467035e-01 -4.043325e-01 3.423900e-01 5.781180e-01 1.331803e-01 -5.296665e-01 -5.179174e-01 4.912341e-01 6.994832e-01 -1.871334e-01 7.228782e-01 7.395090e-02 3.929102e-01 -3.453979e-01 1.941559e-01 -7.217424e-02 -4.283569e-01 -6.422561e-02 2.323368e-01 5.323355e-01 9.186644e-02 -7.536363e-01
<VARIANCE> 39
 6.635934e+00 1.454902e+01 2.908214e+01 2.009303e+01 3.810319e+01 3.236910e+01 3.786868e+01 3.073830e+01 2.236965e+01 3.187540e+01 2.967533e+01 2.182142e+01 1.717735e+01 1.300808e+00 2.389701e+00 2.847245e+00 1.943049e+00 3.198931e+00 2.013398e+00 2.136014e+00 2.638340e+00 1.694302e+00 2.350117e+00 2.316520e+00 1.509284e+00 3.339545e+00 2.732326e-01 2.913409e-01 2.954980e-01 3.789613e-01 2.898722e-01 2.881455e-01 3.571672e-01 4.385259e-01 2.385509e-01 4.106271e-01 3.619579e-01 3.047132e-01 5.122055e-01
<GCONST> 1.087035e+02
<STATE> 4
<MEAN> 39
 -7.145574e+00 -1.486756e+01 7.848731e+00 -9.474895e+00 3.869046e+00 -9.591238e+00 1.473581e+00 -4.291075e+00 -3.946315e+00 -6.448502e+00 -5.730809e+00 -7.108605e+00 7.498244e+01 -1.548470e-01 1.142130e+00 3.814914e-01 9.900561e-01 -2.002626e-01 1.570461e-02 -1.031401e-01 -4.715545e-01 5.525421e-02 3.779988e-02 2.530424e-01 1.588797e-01 -1.032958e+00 -1.126920e-01 2.395026e-01 1.856289e-02 2.924708e-01 -4.818570e-03 1.430092e-01 -1.117482e-01 -1.463134e-01 6.876977e-02 -1.389465e-02 4.040138e-02 -5.940249e-02 -4.250847e-01
<VARIANCE> 39
 1.246276e+01 3.474020e+01 5.858945e+01 4.897245e+01 6.713524e+01 4.474434e+01 3.732539e+01 4.501789e+01 2.291745e+01 4.454165e+01 3.741492e+01 2.472058e+01 2.990404e+01 4.909865e-01 2.291496e+00 1.840344e+00 2.423588e+00 2.104428e+00 1.459151e+00 1.564343e+00 1.783929e+00 1.547635e+00 1.891705e+00 1.780279e+00 1.374291e+00 2.304424e+00 1.476448e-01 2.968305e-01 2.725095e-01 4.987727e-01 2.916850e-01 2.583560e-01 2.803612e-01 3.907636e-01 2.617162e-01 3.370805e-01 2.879446e-01 2.412141e-01 3.038689e-01
<GCONST> 1.086589e+02
<TRANSP> 5
 0.000000e+00 1.000000e+00 0.000000e+00 0.000000e+00 0.000000e+00
 0.000000e+00 6.321038e-01 3.678962e-01 0.000000e+00 0.000000e+00
 0.000000e+00 0.000000e+00 6.304740e-01 3.695260e-01 0.000000e+00
 0.000000e+00 0.000000e+00 0.000000e+00 7.347380e-01 2.652620e-01
 0.000000e+00 0.000000e+00 0.000000e+00 0.000000e+00 0.000000e+00
<ENDHMM>
~h "b"
<BEGINHMM>
<NUMSTATES> 5
<STATE> 2
<MEAN> 39
 -1.414439e+01 -7.743544e+00 2.981896e+00 -3.338959e+00 -1.236701e+00 -4.557664e+00 -2.877691e+00 -5.862136e+00 -3.202762e+00 -3.443379e+00 -1.721877e+00 -6.371274e+00 5.579076e+01 6.232359e-03 -1.184804e-02 5.264054e-03 -6.519258e-03 1.211933e-02 -4.235122e-03 -3.513063e-03 -1.805109e-02 -5.453553e-03 -6.036517e-03 -7.011238e-03 -6.053182e-03 2.423620e-02 -9.010879e-04 1.120917e-04 9.610619e-04 -2.967312e-04 -9.533982e-04 -8.676147e-04 1.872286e-03 1.397449e-03 1.512503e-03 6.096156e-04 -1.876927e-03 -2.391097e-03 8.105883e-05
<VARIANCE> 39
 8.422131e+01 6.084932e+01 1.073184e+02 6.955961e+01 5.446898e+01 7.079699e+01 4.003558e+01 5.404599e+01 3.966318e+01 3.654010e+01 3.580028e+01 3.070767e+01 4.210256e+02 2.718939e+00 2.774098e+00 2.577951e+00 3.647006e+00 2.640604e+00 2.721262e+00 2.408642e+00 3.156995e+00 2.811726e+00 2.666955e+00 2.489032e+00 1.730701e+00 5.594233e+00 4.269344e-01 4.867565e-01 4.137163e-01 6.318190e-01 4.706055e-01 4.998690e-01 4.513081e-01 5.820021e-01 5.208251e-01 5.037160e-01 4.586603e-01 3.360357e-01 8.262613e-01
<GCONST> 1.297615e+02
<STATE> 3
<MEAN> 39
 -1.414439e+01 -7.743544e+00 2.981896e+00 -3.338959e+00 -1.236701e+00 -4.557664e+00 -2.877691e+00 -5.862136e+00 -3.202762e+00 -3.443379e+00 -1.721877e+00 -6.371274e+00 5.579076e+01 6.232359e-03 -1.184804e-02 5.264054e-03 -6.519258e-03 1.211933e-02 -4.235122e-03 -3.513063e-03 -1.805109e-02 -5.453553e-03 -6.036517e-03 -7.011238e-03 -6.053182e-03 2.423620e-02 -9.010879e-04 1.120917e-04 9.610619e-04 -2.967312e-04 -9.533982e-04 -8.676147e-04 1.872286e-03 1.397449e-03 1.512503e-03 6.096156e-04 -1.876927e-03 -2.391097e-03 8.105883e-05
<VARIANCE> 39
 8.422131e+01 6.084932e+01 1.073184e+02 6.955961e+01 5.446898e+01 7.079699e+01 4.003558e+01 5.404599e+01 3.966318e+01 3.654010e+01 3.580028e+01 3.070767e+01 4.210256e+02 2.718939e+00 2.774098e+00 2.577951e+00 3.647006e+00 2.640604e+00 2.721262e+00 2.408642e+00 3.156995e+00 2.811726e+00 2.666955e+00 2.489032e+00 1.730701e+00 5.594233e+00 4.269344e-01 4.867565e-01 4.137163e-01 6.318190e-01 4.706055e-01 4.998690e-01 4.513081e-01 5.820021e-01 5.208251e-01 5.037160e-01 4.586603e-01 3.360357e-01 8.262613e-01
<GCONST> 1.297615e+02
<STATE> 4
<MEAN> 39
 -1.414439e+01 -7.743544e+00 2.981896e+00 -3.338959e+00 -1.236701e+00 -4.557664e+00 -2.877691e+00 -5.862136e+00 -3.202762e+00 -3.443379e+00 -1.721877e+00 -6.371274e+00 5.579076e+01 6.232359e-03 -1.184804e-02 5.264054e-03 -6.519258e-03 1.211933e-02 -4.235122e-03 -3.513063e-03 -1.805109e-02 -5.453553e-03 -6.036517e-03 -7.011238e-03 -6.053182e-03 2.423620e-02 -9.010879e-04 1.120917e-04 9.610619e-04 -2.967312e-04 -9.533982e-04 -8.676147e-04 1.872286e-03 1.397449e-03 1.512503e-03 6.096156e-04 -1.876927e-03 -2.391097e-03 8.105883e-05
<VARIANCE> 39
 8.422131e+01 6.084932e+01 1.073184e+02 6.955961e+01 5.446898e+01 7.079699e+01 4.003558e+01 5.404599e+01 3.966318e+01 3.654010e+01 3.580028e+01 3.070767e+01 4.210256e+02 2.718939e+00 2.774098e+00 2.577951e+00 3.647006e+00 2.640604e+00 2.721262e+00 2.408642e+00 3.156995e+00 2.811726e+00 2.666955e+00 2.489032e+00 1.730701e+00 5.594233e+00 4.269344e-01 4.867565e-01 4.137163e-01 6.318190e-01 4.706055e-01 4.998690e-01 4.513081e-01 5.820021e-01 5.208251e-01 5.037160e-01 4.586603e-01 3.360357e-01 8.262613e-01
<GCONST> 1.297615e+02
<TRANSP> 5
 0.000000e+00 1.000000e+00 0.000000e+00 0.000000e+00 0.000000e+00
 0.000000e+00 6.000000e-01 4.000000e-01 0.000000e+00 0.000000e+00
 0.000000e+00 0.000000e+00 6.000000e-01 4.000000e-01 0.000000e+00
 0.000000e+00 0.000000e+00 0.000000e+00 7.000000e-01 3.000000e-01
 0.000000e+00 0.000000e+00 0.000000e+00 0.000000e+00 0.000000e+00
<ENDHMM>
~h "e"
<BEGINHMM>
<NUMSTATES> 5
<STATE> 2
<MEAN> 39
 -1.957553e+01 -6.463045e+00 5.039465e-01 2.639486e+00 4.530468e-01 -4.419291e+00 2.211412e+00 -1.026811e+01 -3.424423e-01 -4.732450e+00 3.156389e-02 -4.462222e+00 5.275609e+01 9.259149e-02 2.182321e-01 2.689196e-01 -3.024433e-01 -2.411273e-01 -1.071509e+00 1.157927e-01 -5.308944e-02 2.491429e-01 1.282911e+00 -6.118258e-01 5.457629e-02 -4.732272e-01 4.488482e-01 -5.135801e-01 4.645413e-01 -4.888938e-01 -7.670662e-02 -7.993066e-01 -3.423682e-01 -1.310247e-02 -1.348466e-01 7.356347e-02 -3.468503e-01 -2.209149e-01 9.878747e-01
<VARIANCE> 39
 1.217483e+02 2.976879e+01 4.863016e+01 3.513091e+01 4.218922e+01 4.799527e+01 4.949358e+01 6.142934e+01 1.183174e+01 4.296336e+01 3.464278e+01 2.180012e+01 2.422764e+02 4.544105e+00 4.796545e+00 3.503664e+00 3.418889e+00 3.688579e+00 9.558965e+00 1.843286e+00 3.665493e+00 8.741261e-01 5.514028e+00 3.203903e+00 1.748341e+00 1.316905e+01 6.281610e-01 5.545829e-01 4.886551e-01 4.554297e-01 5.428134e-01 1.348261e+00 3.104419e-01 6.469938e-01 1.473546e-01 6.117052e-01 3.548453e-01 1.242232e-01 1.852197e+00
<GCONST> 1.288227e+02
<STATE> 3
<MEAN> 39
 -9.346579e+00 -1.063400e+01 1.003757e+01 -1.779381e+00 -2.549917e-01 -1.431896e+01 -1.135715e+00 -9.770888e+00 -3.502766e+00 3.946619e+00 -6.143727e+00 -7.726568e+00 6.434407e+01 5.854586e-01 -9.189495e-01 1.817413e+00 -1.582865e+00 7.525156e-01 -1.026364e+00 -6.466725e-01 1.833059e-01 -2.750349e-01 1.201293e+00 -2.158699e-01 -3.971474e-01 2.368874e+00 -2.600728e-01 -1.182336e-01 -2.385694e-01 -7.477438e-02 2.928321e-02 1.009457e+00 -6.044906e-02 1.137035e-01 1.672949e-02 -8.400394e-01 2.303450e-01 1.836559e-01 -1.064064e-01
<VARIANCE> 39
 3.032725e+01 3.003870e+01 5.166882e+01 4.808427e+01 1.654845e+01 5.237641e+01 4.122121e+01 3.427589e+01 1.522129e+01 2.748020e+01 1.465438e+01 1.510415e+01 8.272323e+01 5.223295e+00 3.504954e+00 1.904284e+00 5.692957e+00 2.465219e+00 5.766563e+00 3.277779e+00 3.707103e+00 1.003878e+00 5.116271e+00 3.055521e+00 1.279147e+00 7.517416e+00 5.489495e-01 1.192361e+00 4.160461e-01 8.353388e-01 3.801781e-01 8.182071e-01 5.632760e-01 3.915247e-01 2.880505e-01 1.114161e+00 5.622337e-01 3.045978e-01 1.317664e+00
<GCONST> 1.248528e+02
<STATE> 4
<MEAN> 39
 -1.108296e+01 -6.670539e+00 1.841431e+01 -9.715150e+00 -4.830183e+00 -5.279726e+00 -8.019963e-02 -1.356485e+01 -3.835172e+00 4.562243e+00 -4.761820e+00 -8.636954e+00 6.995762e+01 -7.111689e-02 -9.511907e-02 -8.361244e-02 1.821467e-01 7.755920e-02 7.015673e-02 -2.293781e-01 1.441827e-01 7.392514e-02 -1.625946e-01 1.392236e-01 1.419745e-01 -1.681368e-01 5.635282e-03 -3.339579e-02 -1.825476e-01 -2.550803e-03 6.307148e-02 7.951514e-02 6.932022e-02 1.013924e-02 -2.190593e-03 -9.666139e-02 2.024972e-02 -2.384910e-02 1.766041e-02
<VARIANCE> 39
 2.309389e+01 2.736550e+01 4.232616e+01 1.189286e+02 2.544802e+01 5.133358e+01 5.711902e+01 3.093644e+01 1.196286e+01 1.516786e+01 1.771403e+01 6.358335e+00 8.578121e+01 2.368867e-01 6.083695e-01 8.879966e-01 8.211684e-01 6.405773e-01 2.021305e+00 1.019419e+00 9.229504e-01 6.463628e-01 1.100776e+00 7.840886e-01 4.126509e-01 1.262028e+00 5.068347e-02 1.392365e-01 1.713990e-01 1.610772e-01 1.078308e-01 3.512405e-01 8.701471e-02 1.323773e-01 9.484080e-02 1.297819e-01 1.399799e-01 7.066023e-02 1.406484e-01
<GCONST> 8.513165e+01
<TRANSP> 5
 0.000000e+00 1.000000e+00 0.000000e+00 0.000000e+00 0.000000e+00
 0.000000e+00 5.465200e-01 4.534800e-01 0.000000e+00 0.000000e+00
 0.000000e+00 0.000000e+00 5.623817e-01 4.376183e-01 0.000000e+00
 0.000000e+00 0.000000e+00 0.000000e+00 8.976722e-01 1.023278e-01
 0.000000e+00 0.000000e+00 0.000000e+00 0.000000e+00 0.000000e+00
<ENDHMM>
~h "h"
<BEGINHMM>
<NUMSTATES> 5
<STATE> 2
<MEAN> 39
 -7.135396e+00 -1.213253e+01 7.913382e+00 -7.902490e+00 5.346541e+00 -8.354375e+00 -9.304054e-01 -8.589229e+00 -3.247208e+00 -5.028779e+00 -5.028306e+00 -9.041731e+00 7.254092e+01 -3.514523e-01 1.409315e+00 -1.733058e-01 1.684504e+00 9.130346e-01 1.720560e+00 9.696864e-01 -1.268345e+00 3.541800e-01 -6.967656e-01 1.548460e-01 -5.094659e-01 -1.500932e+00 -2.853344e-01 2.962513e-01 -1.099691e-01 3.471149e-01 -1.531492e-01 9.616144e-02 -4.148190e-02 -1.281228e-01 1.409648e-02 3.073040e-02 2.802366e-01 -2.732078e-02 -4.231065e-01
<VARIANCE> 39
 1.858743e+01 4.859348e+01 5.384730e+01 3.744351e+01 4.046216e+01 4.510782e+01 2.748635e+01 3.942290e+01 3.715028e+01 4.885878e+01 4.978520e+01 2.006432e+01 3.456414e+01 9.765439e-01 2.420001e+00 2.246330e+00 4.395123e+00 1.831130e+00 1.413695e+00 2.371025e+00 3.314238e+00 2.714652e+00 4.017690e+00 2.507716e+00 1.720192e+00 3.026447e+00 2.898977e-01 5.461369e-01 2.975358e-01 6.053122e-01 4.869087e-01 2.781465e-01 3.732600e-01 6.839182e-01 6.095139e-01 6.445127e-01 5.085505e-01 3.099752e-01 2.468445e-01
<GCONST> 1.185613e+02
<STATE> 3
<MEAN> 39
 -1.058640e+01 -8.910649e+00 6.922062e+00 -1.615625e+00 6.450090e+00 -4.341218e+00 3.192254e+00 -1.141125e+01 -2.031534e+00 -9.371567e+00 -5.414247e+00 -9.942058e+00 6.795969e+01 -1.001393e+00 1.005034e+00 -5.885950e-01 9.364980e-01 3.085092e-02 7.214031e-01 3.340231e-02 -2.468501e-01 6.291482e-01 1.088537e-01 2.226194e-01 -7.478965e-02 -1.852422e+00 -1.303514e-01 -1.462887e-01 -1.476539e-01 -3.667368e-01 -2.674620e-01 -2.553825e-01 -2.972080e-01 1.755384e-01 -5.539133e-02 2.414679e-01 1.830691e-01 2.700921e-01 -7.605059e-02
<VARIANCE> 39
 3.065689e+01 3.901990e+01 4.352031e+01 3.876252e+01 4.218706e+01 5.463638e+01 3.750311e+01 2.654004e+01 5.191357e+01 5.065942e+01 3.586962e+01 1.751059e+01 4.408380e+01 3.115690e+00 2.464938e+00 2.398393e+00 4.216605e+00 2.858157e+00 3.023015e+00 2.605128e+00 4.182829e+00 3.431834e+00 3.814505e+00 3.158962e+00 1.870043e+00 2.767840e+00 3.279456e-01 4.447117e-01 3.287883e-01 7.964056e-01 3.734111e-01 4.190604e-01 4.617530e-01 4.763911e-01 7.116901e-01 3.733703e-01 3.833022e-01 3.326187e-01 4.010275e-01
<GCONST> 1.222747e+02
<STATE> 4
<MEAN> 39
 -1.627511e+01 -6.659105e+00 5.633034e+00 -4.085056e+00 1.921070e+00 -1.405824e+00 1.577381e+00 -1.151595e+01 -1.244707e+00 -6.464400e+00 -2.370845e+00 -8.054375e+00 5.938633e+01 -4.466986e-01 3.485249e-01 -7.268441e-01 4.150294e-01 -2.965529e-01 2.731586e-01 -2.341850e-01 9.067403e-02 5.189848e-02 1.134840e-01 3.093131e-01 2.518255e-01 -1.518181e+00 3.082910e-02 -2.300275e-01 2.420186e-02 -1.389606e-01 -1.120983e-01 -2.622828e-01 -1.163884e-01 6.118707e-02 -1.410545e-01 -7.345494e-02 9.301087e-02 8.412667e-02 2.783499e-01
<VARIANCE> 39
 5.161777e+01 1.883816e+01 9.717648e+01 3.233365e+01 3.465353e+01 3.518167e+01 2.007053e+01 3.255254e+01 2.995794e+01 4.137379e+01 3.172072e+01 1.782134e+01 9.691219e+01 2.324146e+00 1.982543e+00 1.619511e+00 2.449910e+00 2.142180e+00 2.601861e+00 1.949890e+00 2.611867e+00 2.091528e+00 3.260136e+00 3.062024e+00 1.888402e+00 1.569105e+00 2.118483e-01 3.777817e-01 3.455440e-01 5.675521e-01 3.301684e-01 3.404377e-01 3.445728e-01 3.742346e-01 3.854242e-01 5.900286e-01 5.323542e-01 4.664870e-01 4.553100e-01
<GCONST> 1.165589e+02
<TRANSP> 5
 0.000000e+00 1.000000e+00 0.000000e+00 0.000000e+00 0.000000e+00
 0.000000e+00 4.248399e-01 5.751601e-01 0.000000e+00 0.000000e+00
 0.000000e+00 0.000000e+00 5.124055e-01 4.875946e-01 0.000000e+00
 0.000000e+00 0.000000e+00 0.000000e+00 5.813863e-01 4.186137e-01
 0.000000e+00 0.000000e+00 0.000000e+00 0.000000e+00 0.000000e+00
<ENDHMM>
~h "i"
<BEGINHMM>
<NUMSTATES> 5
<STATE> 2
<MEAN> 39
 -1.145797e+01 -8.829376e+00 1.319712e+01 -4.521905e+00 -6.871140e+00 -9.081270e+00 -1.490260e+00 -4.985997e+00 -5.990939e+00 -2.271922e+00 -6.668557e-01 -6.530701e+00 6.622279e+01 -3.216203e-01 7.475311e-01 9.993877e-01 -2.447288e-01 -8.029219e-01 2.312603e-01 6.232438e-02 -6.016607e-01 -4.532167e-01 3.182271e-02 7.787756e-01 -2.211317e-02 6.954627e-02 3.915103e-02 -1.562627e-01 2.516128e-01 -3.587584e-01 -5.483118e-02 2.275762e-01 -2.325132e-02 -1.388927e-01 -1.920761e-01 -6.227089e-03 8.995980e-03 -2.015769e-01 3.255770e-01
<VARIANCE> 39
 4.239978e+01 5.523575e+01 9.589409e+01 5.988721e+01 3.009502e+01 5.101447e+01 2.060660e+01 8.464422e+01 3.061272e+01 2.006127e+01 2.805253e+01 1.579542e+01 2.830266e+02 1.682135e+00 1.931476e+00 2.032673e+00 3.002953e+00 2.133647e+00 2.032410e+00 1.936048e+00 1.869540e+00 1.671643e+00 2.481398e+00 1.795261e+00 1.109975e+00 3.592177e+00 2.851637e-01 4.552837e-01 7.842923e-01 7.989874e-01 4.052411e-01 4.474527e-01 3.131273e-01 6.252505e-01 4.383745e-01 4.654374e-01 3.679038e-01 2.890483e-01 1.050226e+00
<GCONST> 1.205547e+02
<STATE> 3
<MEAN> 39
 -1.600901e+01 -5.494942e+00 7.854891e+00 -1.305899e+00 -6.617262e+00 -5.588302e+00 -6.701382e-01 -5.919406e+00 -3.160522e+00 -2.054779e+00 1.431274e+00 -5.076249e+00 5.305631e+01 6.357412e-01 -1.005174e+00 3.663621e+00 -2.623748e+00 -1.278414e+00 -3.204112e-01 7.065070e-01 -1.159153e+00 -1.843996e+00 1.499636e-01 4.714127e-01 -1.014824e+00 3.706906e+00 4.559958e-01 -4.218269e-01 7.547922e-01 -4.847845e-01 -1.382174e-01 1.133773e-01 -6.683709e-02 8.351928e-02 -6.013144e-01 1.863495e-01 -2.463643e-01 -3.066923e-01 8.278501e-01
<VARIANCE> 39
 6.069255e+01 3.617966e+01 1.508380e+02 3.798503e+01 1.960682e+01 6.332758e+01 2.741819e+01 5.915997e+01 3.957449e+01 2.062551e+01 2.153937e+01 2.126341e+01 4.073028e+02 4.708376e+00 3.743871e+00 9.633965e+00 5.261114e+00 2.889389e+00 4.642134e+00 2.090674e+00 3.255454e+00 3.458646e+00 3.022191e+00 2.942295e+00 1.907523e+00 1.523871e+01 4.889170e-01 4.242996e-01 1.365018e+00 7.219830e-01 4.717793e-01 5.201139e-01 3.982775e-01 6.837640e-01 7.744604e-01 3.273849e-01 3.989828e-01 3.785110e-01 1.614866e+00
<GCONST> 1.324101e+02
<STATE> 4
<MEAN> 39
 -9.405818e+00 -9.938383e+00 2.047354e+01 -5.926425e+00 -9.451862e+00 -6.823889e+00 -1.535094e-01 -6.039264e+00 -1.136520e+01 3.178924e-01 1.706360e+00 -8.448056e+00 6.652085e+01 5.544022e-01 -2.224961e-01 1.035936e+00 -7.467850e-01 6.474716e-02 -1.053527e-02 9.681289e-02 -2.409018e-01 -6.052555e-01 -4.319302e-02 -1.086957e-01 -3.164218e-01 1.600023e+00 -1.590071e-01 1.444715e-01 -6.311223e-01 2.544197e-01 2.899714e-01 5.811841e-02 -5.494667e-02 7.745307e-02 3.887100e-01 -1.206359e-01 -1.244917e-01 9.220831e-02 -4.489264e-01
<VARIANCE> 39
 1.808101e+01 2.481046e+01 3.614484e+01 6.270264e+01 3.339128e+01 3.327241e+01 2.303796e+01 3.842906e+01 3.300896e+01 3.576674e+01 3.372481e+01 1.959995e+01 7.821754e+01 3.741002e+00 3.440468e+00 8.552594e+00 1.044781e+01 3.510203e+00 3.201781e+00 1.815063e+00 3.748484e+00 5.104308e+00 3.979616e+00 3.229837e+00 1.741710e+00 1.123144e+01 4.101131e-01 5.806231e-01 1.100871e+00 1.645325e+00 5.666164e-01 5.674587e-01 4.252585e-01 6.528856e-01 6.532122e-01 8.092480e-01 7.431442e-01 3.283184e-01 1.357550e+00
<GCONST> 1.307776e+02
<TRANSP> 5
 0.000000e+00 1.000000e+00 0.000000e+00 0.000000e+00 0.000000e+00
 0.000000e+00 5.152369e-01 4.847631e-01 0.000000e+00 0.000000e+00
 0.000000e+00 0.000000e+00 3.108169e-01 6.891831e-01 0.000000e+00
 0.000000e+00 0.000000e+00 0.000000e+00 7.643883e-01 2.356116e-01
 0.000000e+00 0.000000e+00 0.000000e+00 0.000000e+00 0.000000e+00
<ENDHMM>
~h "k"
<BEGINHMM>
<NUMSTATES> 5
<STATE> 2
<MEAN> 39
 -1.351408e+01 -3.264475e+00 -5.704870e-01 -5.618143e+00 -8.655046e-02 -6.016656e+00 -6.830894e+00 -9.375676e+00 -3.747022e+00 -3.180639e+00 4.942403e-01 -6.100596e+00 5.283038e+01 -1.033431e+00 -1.084959e-01 -4.907547e-01 9.365112e-01 -1.584481e-01 -6.466028e-02 3.297624e-01 1.509483e-01 4.867187e-01 -6.626441e-01 -5.191109e-01 1.017651e-01 -1.508546e+00 -1.161040e-02 -3.311197e-01 2.054806e-01 -1.339262e-01 -2.637047e-02 -2.469921e-01 1.834668e-02 -1.614384e-02 -1.043676e-01 -9.505969e-02 6.831069e-02 -6.273952e-02 5.489687e-01
<VARIANCE> 39
 2.950565e+01 2.975041e+01 3.355691e+01 6.375981e+01 4.436417e+01 4.407983e+01 2.882824e+01 3.526329e+01 5.817910e+01 3.085585e+01 3.057918e+01 2.243181e+01 1.266556e+02 1.625106e+00 4.546684e+00 2.733382e+00 4.086006e+00 3.065600e+00 6.383410e+00 2.868244e+00 3.556991e+00 3.912375e+00 2.939835e+00 2.929782e+00 1.636942e+00 1.174981e+01 4.094108e-01 8.338212e-01 7.525662e-01 8.312587e-01 7.597742e-01 1.400615e+00 5.733045e-01 7.554749e-01 1.031039e+00 5.573330e-01 6.642681e-01 4.310895e-01 2.454862e+00
<GCONST> 1.324496e+02
<STATE> 3
<MEAN> 39
 -1.617767e+01 -8.069510e+00 1.432498e+00 -4.765404e+00 2.606889e+00 -9.343896e+00 -3.693653e+00 -1.140713e+01 -2.881801e+00 -6.451392e+00 -9.201796e-01 -7.923021e+00 5.860501e+01 3.899307e-01 8.044366e-01 1.143352e+00 -2.379740e-01 2.271245e-02 -4.239309e-01 9.250253e-02 -2.483459e-01 -9.426330e-01 -2.013829e-02 2.371277e-01 -3.194047e-02 7.139114e-01 3.655656e-01 3.122756e-01 1.961072e-01 -1.115147e-01 -4.270331e-01 2.482602e-01 -1.486803e-01 4.905597e-01 7.013734e-02 5.122084e-01 2.500989e-01 2.062724e-01 -3.149774e-01
<VARIANCE> 39
 2.922365e+01 4.108437e+01 4.342658e+01 4.118131e+01 4.887665e+01 7.835107e+01 6.255647e+01 3.530795e+01 3.677119e+01 4.219128e+01 2.252405e+01 1.846202e+01 8.137973e+01 4.436930e+00 5.366479e+00 7.023192e+00 7.787995e+00 3.111484e+00 8.339458e+00 6.239281e+00 6.090654e+00 6.050420e+00 5.453521e+00 1.344477e+00 2.903866e+00 1.894592e+01 1.071299e+00 1.351160e+00 1.401591e+00 8.452443e-01 6.999633e-01 1.350411e+00 1.474990e+00 8.490469e-01 9.653835e-01 1.289511e+00 3.474343e-01 4.905875e-01 2.842973e+00
<GCONST> 1.420522e+02
<STATE> 4
<MEAN> 39
 -1.796664e+01 -2.615015e+00 -9.347861e-01 8.684534e-01 -3.506134e+00 -4.678258e+00 -4.915992e+00 -4.853261e+00 -2.837433e+00 -2.511553e+00 4.129738e-02 -5.498152e+00 4.216769e+01 3.513406e-01 -5.190943e-01 3.697253e-01 -3.617016e-01 -5.615066e-01 -4.864571e-01 7.216719e-02 4.750479e-01 -1.215158e-01 1.736017e-01 2.082408e-01 1.481824e-02 6.268458e-01 2.170429e-01 -3.215311e-01 1.394368e-01 -2.752616e-01 1.742009e-01 -7.005782e-02 5.391131e-02 -1.959380e-01 -4.066069e-02 -1.690089e-01 -1.074340e-01 -9.535483e-02 7.740411e-01
<VARIANCE> 39
 3.078606e+01 3.747263e+01 4.771733e+01 4.440649e+01 3.573859e+01 8.133471e+01 3.957645e+01 4.415335e+01 4.102472e+01 2.440157e+01 2.012817e+01 1.523550e+01 1.967396e+02 5.128894e+00 3.788869e+00 7.195883e+00 4.135426e+00 3.553683e+00 6.915366e+00 4.763699e+00 6.387724e+00 5.246318e+00 4.061320e+00 2.551132e+00 1.829202e+00 1.858040e+01 5.757432e-01 8.268382e-01 8.979881e-01 9.097134e-01 4.918779e-01 1.950874e+00 9.039834e-01 1.372639e+00 9.726769e-01 6.860905e-01 5.234357e-01 3.346406e-01 2.851595e+00
<GCONST> 1.383740e+02
<TRANSP> 5
 0.000000e+00 1.000000e+00 0.000000e+00 0.000000e+00 0.000000e+00
 0.000000e+00 7.475291e-01 2.524709e-01 0.000000e+00 0.000000e+00
 0.000000e+00 0.000000e+00 5.130886e-01 4.869114e-01 0.000000e+00
 0.000000e+00 0.000000e+00 0.000000e+00 6.406378e-01 3.593623e-01
 0.000000e+00 0.000000e+00 0.000000e+00 0.000000e+00 0.000000e+00
<ENDHMM>
~h "l"
<BEGINHMM>
<NUMSTATES> 5
<STATE> 2
<MEAN> 39
 -3.552827e+00 -1.293295e+01 -4.769778e-01 -2.247917e+01 5.221473e+00 3.693360e+00 2.743271e-01 -1.574461e+01 -2.988792e+00 -5.615257e+00 -1.862460e+00 -9.301806e+00 7.450893e+01 1.130743e-02 -1.096454e-01 1.582332e-01 -3.716637e-02 -2.480202e-01 -7.683659e-02 -3.638242e-01 9.259517e-02 -1.845743e-01 1.399678e-01 2.571799e-01 5.304098e-02 6.301325e-02 -4.738371e-02 1.007260e-01 6.319232e-02 7.689329e-02 9.084646e-03 -5.903464e-02 -3.671909e-02 -2.273731e-03 -2.294927e-02 -2.242426e-02 -6.993303e-02 3.232870e-02 -7.348938e-02
<VARIANCE> 39
 9.378801e+00 4.499561e+01 3.460333e+01 2.820397e+01 5.511904e+01 8.717771e+00 1.875585e+01 1.122155e+01 1.192508e+01 2.348646e+01 1.721665e+01 6.921366e+00 4.493307e+01 4.309854e-01 3.300763e+00 1.061638e+00 1.613625e+00 2.695935e+00 1.165964e+00 1.612807e+00 1.412367e+00 9.281701e-01 6.640057e-01 7.835298e-01 7.466909e-01 1.367410e+00 8.644488e-02 3.149798e-01 2.490090e-01 3.339865e-01 4.075243e-01 1.978281e-01 3.103397e-01 2.508706e-01 1.477596e-01 1.229929e-01 1.131984e-01 1.416091e-01 1.681445e-01
<GCONST> 9.141740e+01
<STATE> 3
<MEAN> 39
 -9.575839e+00 -6.264901e+00 1.640019e+01 -1.357268e+01 -5.710394e+00 3.991986e-01 -8.695082e+00 -1.674940e+01 -8.143117e+00 -4.939533e+00 1.000234e-02 -1.121652e+01 7.163882e+01 -9.173355e-02 2.408323e-01 1.032021e-03 -6.361612e-02 -9.554334e-02 -5.379472e-01 1.810165e-02 -3.716243e-01 -2.028262e-02 -2.024809e-01 -4.419223e-01 4.810344e-02 -4.268072e-01 -5.504387e-02 1.320877e-03 -2.594666e-01 1.770274e-01 3.307494e-02 -6.324435e-02 2.531762e-01 -1.096241e-01 1.229683e-01 -9.137946e-02 -7.913215e-02 1.943239e-02 4.875857e-02
<VARIANCE> 39
 3.367565e+01 3.163027e+01 1.883815e+02 5.962345e+01 3.522009e+01 6.724681e+00 3.975336e+00 1.714725e+01 1.217937e+01 2.355906e+01 2.561550e+01 5.833810e+00 4.363810e+01 3.434494e-01 8.183817e-01 8.520370e-01 1.126431e+00 1.352653e+00 1.122871e+00 1.480317e+00 1.240895e+00 9.696403e-01 1.302203e+00 7.121749e-01 3.776381e-01 5.100887e-01 4.952679e-02 1.706577e-01 1.036683e-01 3.177844e-01 1.515177e-01 1.677880e-01 1.782701e-01 3.925535e-01 3.530600e-01 2.335170e-01 1.659427e-01 6.373052e-02 9.481212e-02
<GCONST> 8.615007e+01
<STATE> 4
<MEAN> 39
 -8.621705e+00 -8.510463e+00 1.765180e+00 -1.098908e+01 -3.160783e-01 -2.882212e+00 -7.074995e+00 -1.990964e+01 -8.376562e+00 -1.111381e+01 -5.082934e+00 -1.245281e+01 6.534316e+01 -6.844459e-01 1.586470e-01 -3.495474e-01 1.564696e+00 4.696493e-01 -8.170179e-01 -1.321360e-03 1.917229e-01 1.203057e-01 -6.724507e-02 6.097265e-01 -4.817221e-02 -7.678465e-01 -9.096744e-04 -2.059796e-01 1.227837e-01 9.378507e-02 -3.546291e-02 -4.324229e-02 1.137013e-01 3.069605e-01 1.765259e-01 6.657220e-02 7.666245e-02 7.284425e-02 1.199357e-01
<VARIANCE> 39
 1.829791e+01 1.304773e+01 5.036322e+01 3.995383e+01 1.657606e+01 3.880198e+01 2.176348e+01 2.230651e+01 1.597983e+01 4.488308e+01 8.491847e+00 2.184674e+01 6.320904e+01 7.935671e-01 1.804912e+00 1.122842e+00 2.033030e+00 5.878236e-01 1.500049e+00 2.871104e+00 1.045316e+00 2.257620e+00 3.802027e+00 8.587565e-01 2.190373e+00 1.503313e+00 2.318021e-01 2.607864e-01 1.920398e-01 5.374102e-01 1.554207e-01 3.682500e-01 4.586869e-01 3.018423e-01 3.124602e-01 5.120322e-01 2.096790e-01 2.218465e-01 1.087300e-01
<GCONST> 1.016690e+02
<TRANSP> 5
 0.000000e+00 1.000000e+00 0.000000e+00 0.000000e+00 0.000000e+00
 0.000000e+00 8.844842e-01 1.155158e-01 0.000000e+00 0.000000e+00
 0.000000e+00 0.000000e+00 7.609622e-01 2.390378e-01 0.000000e+00
 0.000000e+00 0.000000e+00 0.000000e+00 7.144547e-01 2.855453e-01
 0.000000e+00 0.000000e+00 0.000000e+00 0.000000e+00 0.000000e+00
<ENDHMM>
~h "m"
<BEGINHMM>
<NUMSTATES> 5
<STATE> 2
<MEAN> 39
 -3.985439e+00 -1.301472e+01 4.440927e+00 -8.910153e+00 4.799261e+00 -3.776907e+00 -3.477660e+00 -8.475389e+00 -2.973238e+00 -2.031826e+00 -1.675592e+00 -9.693268e+00 7.039328e+01 3.356294e-01 4.398781e-01 1.176169e+00 8.565117e-01 8.160594e-02 6.939399e-01 -5.003251e-01 -1.231373e+00 -6.839809e-01 3.163261e-01 1.041732e+00 1.117797e-01 -3.749309e-01 -4.664312e-01 2.548276e-01 3.946267e-01 4.673947e-01 -1.579577e-01 -2.106123e-01 -1.651383e-01 -2.374945e-01 -1.217945e-01 -1.644973e-02 1.264949e-01 1.461761e-01 -4.241561e-01
<VARIANCE> 39
 1.283507e+01 2.763190e+01 3.110603e+01 5.552136e+01 4.056517e+01 4.262337e+01 3.507806e+01 2.965197e+01 2.188979e+01 1.571200e+01 3.708948e+01 1.689567e+01 4.326300e+01 2.065331e+00 2.691127e+00 3.700940e+00 5.774063e+00 2.796800e+00 3.406327e+00 2.985619e+00 3.317671e+00 2.124847e+00 2.005013e+00 3.787291e+00 1.833602e+00 6.565123e+00 4.540511e-01 4.004678e-01 5.767535e-01 7.456691e-01 4.555919e-01 5.810958e-01 4.047795e-01 4.721021e-01 4.366774e-01 3.381377e-01 5.600719e-01 2.823974e-01 6.194222e-01
<GCONST> 1.202781e+02
<STATE> 3
<MEAN> 39
 -4.629755e+00 -1.031568e+01 1.128055e+01 -4.178453e+00 1.691415e+00 -6.254240e-01 -9.012398e+00 -1.225345e+01 -8.652242e+00 -1.025371e+00 2.532092e+00 -9.876611e+00 6.903508e+01 -3.377408e-01 5.450324e-01 1.066968e+00 1.057016e+00 1.359724e-01 -2.858729e-01 -6.838906e-01 -7.203142e-01 -3.746631e-01 2.212095e-01 1.860574e-01 6.395380e-02 -7.769748e-01 -1.645517e-02 -6.847684e-02 -2.648625e-01 -2.297919e-01 4.276634e-02 -1.743244e-01 1.355467e-01 2.529089e-01 2.526956e-01 -1.122390e-01 -3.621016e-01 1.273088e-02 1.554987e-01
<VARIANCE> 39
 4.773008e+00 2.284417e+01 3.085469e+01 5.574247e+01 2.663349e+01 4.262959e+01 3.915058e+01 3.661768e+01 2.768761e+01 3.107479e+01 3.538697e+01 1.397690e+01 2.581034e+01 4.462402e-01 2.401990e+00 4.122365e+00 5.774004e+00 2.227080e+00 2.456950e+00 3.174867e+00 4.810340e+00 2.913934e+00 2.679911e+00 3.262931e+00 1.565904e+00 2.925856e+00 7.884876e-02 3.569978e-01 6.000177e-01 9.077313e-01 4.679726e-01 3.515813e-01 6.144603e-01 7.558672e-01 5.068343e-01 4.957036e-01 6.562598e-01 2.894075e-01 4.308864e-01
<GCONST> 1.161245e+02
<STATE> 4
<MEAN> 39
 -5.786976e+00 -7.175771e+00 1.192270e+01 -3.303297e-01 2.446674e+00 -3.838435e+00 -8.512225e+00 -1.417720e+01 -6.077796e+00 -2.091722e+00 -4.558656e-01 -8.166509e+00 6.409547e+01 -2.412196e-01 7.384953e-01 -3.242137e-02 3.854738e-01 -1.685544e-01 -2.721663e-01 2.895426e-01 -1.870064e-01 2.929418e-01 -2.678359e-01 -4.592591e-01 1.549304e-01 -6.571333e-01 -7.238142e-02 -1.085592e-02 -2.772655e-01 -2.116275e-01 2.013007e-02 -1.013715e-02 2.555436e-01 2.428747e-01 1.316865e-01 -1.547500e-01 -1.922840e-02 -5.398715e-02 8.877205e-02
<VARIANCE> 39
 4.905231e+00 2.744915e+01 3.047557e+01 3.383501e+01 1.990510e+01 4.364416e+01 3.193096e+01 4.167573e+01 3.189760e+01 3.110160e+01 4.304440e+01 1.626548e+01 3.613547e+01 3.256539e-01 1.403886e+00 1.433933e+00 1.938727e+00 1.139752e+00 1.152336e+00 1.831316e+00 1.864299e+00 1.731048e+00 1.859676e+00 2.134769e+00 1.237494e+00 1.210854e+00 9.708548e-02 2.684712e-01 2.717705e-01 3.969340e-01 2.531098e-01 2.204157e-01 3.025735e-01 3.845607e-01 3.237913e-01 3.689782e-01 4.613746e-01 2.413177e-01 2.114312e-01
<GCONST> 1.018044e+02
<TRANSP> 5
 0.000000e+00 1.000000e+00 0.000000e+00 0.000000e+00 0.000000e+00
 0.000000e+00 6.628509e-01 3.371490e-01 0.000000e+00 0.000000e+00
 0.000000e+00 0.000000e+00 7.030083e-01 2.969917e-01 0.000000e+00
 0.000000e+00 0.000000e+00 0.000000e+00 8.483467e-01 1.516533e-01
 0.000000e+00 0.000000e+00 0.000000e+00 0.000000e+00 0.000000e+00
<ENDHMM>
~h "n"
<BEGINHMM>
<NUMSTATES> 5
<STATE> 2
<MEAN> 39
 -5.401084e+00 -1.377948e+01 1.115001e+01 -2.149945e+00 3.744387e-01 -9.401891e+00 -3.795313e+00 -6.269128e+00 -4.263225e+00 -2.467347e+00 -9.540820e+00 -8.968660e+00 7.037572e+01 2.801823e-02 1.930506e+00 1.117451e+00 1.755607e+00 -8.702257e-01 -2.926553e-01 -4.205534e-01 -1.857664e+00 1.845848e-01 9.387745e-01 -2.779070e-01 -6.494185e-02 -2.115476e+00 -8.470584e-02 7.916760e-03 -1.073940e-01 -2.160934e-01 -7.391845e-02 -8.316167e-03 5.468928e-02 4.524231e-02 -2.323614e-02 -1.527066e-01 7.039774e-02 1.016898e-01 6.585646e-02
<VARIANCE> 39
 5.613398e+00 3.447966e+01 3.184937e+01 3.316291e+01 4.146789e+01 2.862379e+01 2.649448e+01 4.462806e+01 2.792329e+01 3.520889e+01 2.921418e+01 1.974302e+01 3.398210e+01 3.954922e-01 2.388839e+00 2.616550e+00 3.118843e+00 2.577750e+00 2.253007e+00 1.407069e+00 3.116091e+00 2.008500e+00 2.868937e+00 2.376440e+00 1.634375e+00 2.419564e+00 7.169784e-02 4.207154e-01 3.487593e-01 4.370962e-01 3.280444e-01 2.885673e-01 1.894436e-01 5.765370e-01 3.154510e-01 5.713965e-01 3.177433e-01 2.617455e-01 3.957644e-01
<GCONST> 1.090241e+02
<STATE> 3
<MEAN> 39
 -6.172187e+00 -5.328470e+00 1.332541e+01 3.731994e+00 -3.867135e+00 -9.887393e+00 -4.923770e+00 -1.257334e+01 -4.417964e+00 -3.119397e+00 -9.897287e+00 -7.428077e+00 6.076342e+01 -3.657064e-01 7.946602e-01 -3.603804e-01 3.371873e-01 1.067739e-01 2.726969e-01 -1.923241e-02 -5.397821e-01 -1.367454e-01 -4.799057e-01 4.270679e-01 9.578590e-02 -9.307212e-01 -1.724626e-01 -2.913596e-01 -3.263415e-01 -3.392465e-01 3.217542e-01 1.209010e-01 1.438868e-01 3.512762e-01 -1.246766e-02 -2.333470e-01 3.043429e-01 -4.044865e-02 2.762859e-01
<VARIANCE> 39
 6.885881e+00 1.835174e+01 2.903672e+01 1.640976e+01 2.669592e+01 3.364977e+01 3.308646e+01 2.424877e+01 3.606069e+01 4.738098e+01 3.393069e+01 1.810900e+01 2.487672e+01 4.613481e-01 1.246123e+00 1.093617e+00 1.111193e+00 1.895719e+00 1.280358e+00 1.210924e+00 1.676366e+00 1.784608e+00 1.955057e+00 1.916849e+00 1.419374e+00 8.420284e-01 1.090613e-01 2.706763e-01 2.820951e-01 3.488674e-01 3.661878e-01 2.966453e-01 2.946882e-01 3.740120e-01 3.998002e-01 5.040334e-01 3.934099e-01 3.089845e-01 2.319949e-01
<GCONST> 1.011269e+02
<STATE> 4
<MEAN> 39
 -1.203303e+01 -4.155721e+00 7.041345e+00 3.119721e+00 2.748336e-01 -6.789812e+00 -3.550597e+00 -1.028899e+01 -3.585289e+00 -6.122988e+00 -4.482666e+00 -7.896583e+00 5.457698e+01 -1.530359e+00 -7.638012e-01 -1.440489e+00 -1.410327e+00 5.611439e-01 1.074765e-01 6.447723e-01 7.969474e-01 5.505839e-01 -7.043740e-01 1.400578e+00 3.522788e-01 1.811767e-02 7.893550e-02 -4.142931e-01 2.516686e-02 -6.306007e-01 -1.442303e-01 -2.291456e-01 -7.456113e-02 4.499764e-02 6.145739e-02 1.506812e-01 -1.123570e-01 7.689421e-03 6.375238e-01
<VARIANCE> 39
 4.088168e+01 3.288400e+01 5.300516e+01 3.013858e+01 3.365265e+01 3.781316e+01 3.028606e+01 3.863347e+01 2.993669e+01 4.684257e+01 2.797101e+01 2.096331e+01 9.453065e+01 1.921515e+00 3.563151e+00 2.406047e+00 4.674578e+00 3.173954e+00 4.280104e+00 2.749858e+00 3.310883e+00 3.063584e+00 4.389358e+00 3.447097e+00 2.411571e+00 5.702833e+00 4.432607e-01 7.517647e-01 3.131060e-01 6.905849e-01 4.488893e-01 6.633667e-01 4.215489e-01 6.988086e-01 4.564780e-01 7.437330e-01 5.868403e-01 4.443195e-01 8.047895e-01
<GCONST> 1.265529e+02
<TRANSP> 5
 0.000000e+00 1.000000e+00 0.000000e+00 0.000000e+00 0.000000e+00
 0.000000e+00 7.413136e-01 2.586864e-01 0.000000e+00 0.000000e+00
 0.000000e+00 0.000000e+00 7.979891e-01 2.020109e-01 0.000000e+00
 0.000000e+00 0.000000e+00 0.000000e+00 6.014206e-01 3.985794e-01
 0.000000e+00 0.000000e+00 0.000000e+00 0.000000e+00 0.000000e+00
<ENDHMM>
~h "o"
<BEGINHMM>
<NUMSTATES> 5
<STATE> 2
<MEAN> 39
 -1.800482e+01 -3.813228e+00 -2.836740e+00 -6.129588e-01 -1.824524e+00 -2.126013e+00 -4.605618e+00 -3.118435e+00 -1.287046e+00 -5.131915e-01 -4.944355e-01 -4.782753e+00 4.299033e+01 -1.110439e-01 3.283816e-01 -5.977497e-01 -3.703990e-01 -5.263194e-03 7.585424e-01 -3.881049e-01 -3.382968e-01 -6.062331e-02 -1.673958e-02 3.677221e-01 2.303852e-01 -6.714956e-01 5.104545e-01 -2.939846e-01 2.233852e-01 -4.519407e-01 2.502463e-01 -8.098152e-02 4.986899e-02 -3.855096e-01 -2.267021e-01 -2.197903e-01 -1.175256e-01 -1.639036e-01 9.318075e-01
<VARIANCE> 39
 8.830888e+01 5.343223e+01 6.234978e+01 7.863228e+01 4.104537e+01 7.389924e+01 1.679477e+01 3.977825e+01 1.803671e+01 2.880201e+01 3.530699e+01 4.394421e+01 4.607912e+02 1.545222e+00 1.458800e+00 1.626308e+00 3.082746e+00 2.911623e+00 3.024907e+00 1.133953e+00 3.146699e+00 2.214980e+00 2.134001e+00 2.128719e+00 2.191890e+00 4.766216e+00 5.401202e-01 4.482914e-01 2.995170e-01 9.470795e-01 6.192444e-01 4.955186e-01 3.930801e-01 4.769235e-01 3.994628e-01 6.939346e-01 4.461982e-01 6.778867e-01 1.475652e+00
<GCONST> 1.257928e+02
<STATE> 3
<MEAN> 39
 -1.852645e+01 -2.895603e+00 -6.903512e+00 -1.756864e+00 -3.126250e+00 1.384658e+00 -5.602859e+00 -2.404904e+00 -2.197110e+00 -2.049465e+00 2.375048e-01 -3.902787e+00 3.797323e+01 2.998647e+00 -1.703553e+00 7.409871e-01 -3.079799e+00 2.072124e+00 -1.474838e-01 -4.985015e-01 -2.005883e+00 -1.404210e+00 -4.981083e-01 -2.487148e-01 -1.197487e+00 5.224467e+00 8.689310e-01 -3.502770e-01 5.930661e-01 -7.910163e-01 5.929444e-01 7.980060e-02 1.678059e-01 -2.953882e-01 -3.633050e-01 1.155291e-01 -1.643007e-01 -2.941163e-01 1.497428e+00
<VARIANCE> 39
 7.823648e+01 4.558197e+01 4.719463e+01 6.620819e+01 3.265871e+01 4.885077e+01 2.298882e+01 3.480375e+01 2.105689e+01 1.759204e+01 1.743844e+01 2.654606e+01 3.626021e+02 4.740329e+00 3.244882e+00 3.164897e+00 6.761156e+00 3.943557e+00 3.238936e+00 3.734676e+00 2.904904e+00 2.675826e+00 2.481200e+00 1.876019e+00 2.912758e+00 1.597605e+01 6.527574e-01 4.955980e-01 2.839812e-01 1.203427e+00 5.158386e-01 4.857515e-01 6.315365e-01 3.760186e-01 4.495696e-01 6.063970e-01 3.803104e-01 3.445145e-01 1.648208e+00
<GCONST> 1.291426e+02
<STATE> 4
<MEAN> 39
 -3.754245e+00 -7.248243e+00 8.241390e-01 -1.774473e+01 8.894920e+00 1.423743e+00 -2.673768e+00 -8.671457e+00 -1.015379e+01 -8.899374e-01 5.882049e-01 -6.895101e+00 6.456580e+01 6.657397e-01 4.851623e-01 6.995760e-01 3.654563e-01 5.600878e-01 2.576075e-01 4.079573e-01 -4.644161e-01 -5.771162e-01 1.737060e-01 9.533848e-02 1.961830e-02 5.762488e-01 -5.516152e-01 2.065707e-01 -1.978663e-01 6.882389e-01 -4.292207e-01 -6.004237e-02 5.289343e-03 1.915420e-01 3.789902e-01 -9.439176e-02 9.151109e-03 1.068062e-01 -9.221944e-01
<VARIANCE> 39
 1.592840e+01 2.717845e+01 1.970633e+01 7.401805e+01 3.621102e+01 2.294442e+01 4.595418e+01 2.358117e+01 3.423094e+01 2.997161e+01 2.386346e+01 1.767298e+01 7.273969e+01 5.051098e+00 3.153855e+00 2.547908e+00 1.250267e+01 4.164094e+00 1.984898e+00 1.514585e+00 1.968541e+00 3.876265e+00 2.925759e+00 1.938035e+00 1.554962e+00 1.737425e+01 3.578293e-01 5.225760e-01 3.089373e-01 1.048529e+00 4.605752e-01 3.358861e-01 3.238646e-01 3.132903e-01 6.033395e-01 5.662774e-01 3.222961e-01 3.099522e-01 1.054110e+00
<GCONST> 1.215456e+02
<TRANSP> 5
 0.000000e+00 1.000000e+00 0.000000e+00 0.000000e+00 0.000000e+00
 0.000000e+00 3.000476e-01 6.999524e-01 0.000000e+00 0.000000e+00
 0.000000e+00 0.000000e+00 4.817383e-01 5.182617e-01 0.000000e+00
 0.000000e+00 0.000000e+00 0.000000e+00 8.539446e-01 1.460554e-01
 0.000000e+00 0.000000e+00 0.000000e+00 0.000000e+00 0.000000e+00
<ENDHMM>
~h "p"
<BEGINHMM>
<NUMSTATES> 5
<STATE> 2
<MEAN> 39
 -3.209891e+00 -3.890620e+00 4.956586e+00 -1.920108e+01 4.216621e+00 -3.059320e+00 -5.530846e+00 -8.847091e+00 -1.287067e+01 -9.070597e-01 -8.040421e-02 -6.263028e+00 6.944505e+01 -7.366920e-01 2.261337e+00 -1.624382e-02 4.919812e+00 3.014283e-01 9.586644e-01 9.275464e-01 -1.694288e-01 1.730273e+00 -1.350238e+00 4.790897e-01 -1.477324e-01 -4.684966e+00 -9.310238e-01 2.001584e-02 -4.352652e-01 6.903676e-01 -3.977039e-01 -5.085268e-01 1.477471e-01 -1.018193e-02 5.819775e-01 -3.606111e-01 -8.912874e-02 1.331413e-01 -1.190923e+00
<VARIANCE> 39
 3.750805e+00 3.293780e+01 9.839974e+00 5.262573e+01 1.581593e+01 1.550638e+01 3.124600e+01 2.286826e+01 2.995291e+01 1.264639e+01 1.436374e+01 1.842782e+01 1.495342e+01 6.518605e-01 7.253479e-01 7.005706e-01 2.121431e+00 1.349863e+00 1.253324e+00 8.776307e-01 1.525199e+00 2.326527e+00 1.356012e+00 1.227490e+00 9.732142e-01 1.403880e+00 1.186689e-01 3.956596e-01 3.423252e-01 7.342402e-01 5.185547e-01 1.548195e-01 3.171438e-01 2.190520e-01 2.692889e-01 2.472866e-01 1.606579e-01 2.426213e-01 5.814140e-01
<GCONST> 9.504368e+01
<STATE> 3
<MEAN> 39
 -7.248720e+00 9.916800e-01 4.621401e+00 -4.741077e+00 3.906247e+00 -1.859294e+00 -2.318524e+00 -7.637283e+00 -7.490338e+00 -4.445433e+00 -1.764760e-01 -5.408504e+00 5.604856e+01 -2.550497e+00 4.749989e-01 -1.220048e+00 3.338133e+00 -1.631093e+00 -1.065609e+00 2.094203e-01 -1.271902e-01 2.312349e+00 -9.475351e-01 3.802481e-02 3.796085e-01 -4.665566e+00 -5.463632e-01 -1.067367e+00 -3.150716e-01 -1.457903e+00 -4.983166e-01 -7.975203e-01 -2.588187e-01 -7.836714e-03 2.965317e-02 1.608737e-01 -5.763817e-03 2.488762e-02 1.063860e+00
<VARIANCE> 39
 6.786046e+00 2.597820e+01 1.456619e+01 3.683823e+01 2.330953e+01 2.145457e+01 1.863400e+01 2.952041e+01 3.483248e+01 1.877507e+01 2.290778e+01 1.364624e+01 1.900376e+01 5.310639e-01 2.022993e+00 1.132088e+00 4.262789e+00 2.324654e+00 1.293782e+00 1.753968e+00 1.142799e+00 1.548505e+00 1.756800e+00 1.227669e+00 1.105697e+00 1.475471e+00 2.163376e-01 1.699608e-01 2.535804e-01 2.683747e-01 3.586066e-01 1.777665e-01 1.936325e-01 4.771304e-01 6.051474e-01 4.199722e-01 3.114145e-01 2.992363e-01 5.498810e-01
<GCONST> 1.005035e+02
<STATE> 4
<MEAN> 39
 -1.664738e+01 -3.780350e+00 -1.151023e+00 -3.723738e+00 -2.321294e+00 -5.994528e+00 -3.535694e+00 -7.844846e+00 -2.057328e+00 -5.226482e+00 5.973759e-01 -4.829166e+00 4.838981e+01 -1.163918e+00 -1.086030e+00 2.750340e-02 1.192757e-01 -2.422805e-01 -7.450172e-01 1.003464e-01 -3.213245e-01 5.181198e-01 -5.864365e-01 7.557104e-02 -5.993168e-01 5.040779e-01 5.224471e-01 -8.741391e-02 4.585614e-01 -2.573037e-01 5.108402e-01 1.867454e-01 8.703913e-02 2.529524e-02 -3.818012e-01 4.115307e-02 -5.197232e-02 -1.699229e-01 9.733967e-01
<VARIANCE> 39
 2.559103e+01 3.110917e+01 3.073660e+01 4.085456e+01 1.585186e+01 4.354236e+01 1.780615e+01 4.446124e+01 2.336304e+01 2.618722e+01 2.441256e+01 3.063641e+01 1.263293e+02 5.295955e+00 3.543478e+00 4.173083e+00 3.690363e+00 4.022305e+00 4.622646e+00 2.209645e+00 6.151276e+00 5.848661e+00 4.280803e+00 2.662688e+00 3.154319e+00 1.037649e+01 6.852577e-01 6.566374e-01 5.646361e-01 8.697031e-01 6.490833e-01 7.509846e-01 4.770036e-01 9.995861e-01 6.816533e-01 8.186634e-01 3.870524e-01 5.548671e-01 1.579553e+00
<GCONST> 1.308296e+02
<TRANSP> 5
 0.000000e+00 1.000000e+00 0.000000e+00 0.000000e+00 0.000000e+00
 0.000000e+00 3.773428e-01 6.226571e-01 0.000000e+00 0.000000e+00
 0.000000e+00 0.000000e+00 5.007859e-01 4.992141e-01 0.000000e+00
 0.000000e+00 0.000000e+00 0.000000e+00 8.010504e-01 1.989496e-01
 0.000000e+00 0.000000e+00 0.000000e+00 0.000000e+00 0.000000e+00
<ENDHMM>
~h "r"
<BEGINHMM>
<NUMSTATES> 5
<STATE> 2
<MEAN> 39
 -4.529549e+00 -1.693589e+01 3.218790e+00 -6.052896e+00 4.542248e+00 -1.013626e+01 -2.674741e+00 -7.882862e+00 -1.347707e+00 2.091971e+00 -4.407137e+00 -1.211150e+01 7.649507e+01 -6.546802e-01 8.781208e-01 -4.474900e-01 1.593391e+00 -3.687666e-02 -5.512683e-01 1.174847e+00 -1.066699e+00 1.145403e+00 -1.277009e+00 6.390641e-01 2.093284e-01 -9.065669e-01 -2.905165e-01 1.984249e-01 1.678758e-01 4.504841e-02 -5.107665e-02 -7.323705e-02 -7.475838e-03 3.237507e-02 2.013800e-02 -4.163808e-01 2.453749e-01 2.834937e-02 -2.509355e-01
<VARIANCE> 39
 5.196802e+00 3.356062e+01 2.906809e+01 4.900109e+01 4.602531e+01 2.738593e+01 4.514538e+01 5.070903e+01 1.829813e+01 2.002505e+01 1.611926e+01 1.909123e+01 1.439745e+01 1.394134e+00 1.934772e+00 2.626555e+00 2.767613e+00 2.545563e+00 2.077569e+00 2.443315e+00 2.656546e+00 2.671094e+00 4.029537e+00 1.995350e+00 1.379418e+00 1.737377e+00 2.327121e-01 3.292955e-01 4.791819e-01 4.431747e-01 4.216394e-01 2.483874e-01 3.838182e-01 4.893263e-01 3.548231e-01 4.958991e-01 3.073125e-01 2.131110e-01 2.497631e-01
<GCONST> 1.098307e+02
<STATE> 3
<MEAN> 39
 -1.061286e+01 -9.291563e+00 3.232588e+00 6.759002e-01 3.114133e+00 -1.466274e+01 1.088485e-03 -1.240705e+01 2.136886e+00 -8.494273e+00 5.536536e-01 -1.017241e+01 6.939867e+01 -7.320936e-01 4.662834e-01 4.133048e-01 4.807588e-01 -1.945692e-01 -2.420233e-01 6.152760e-02 1.348136e-01 -3.152506e-01 -1.123573e+00 -1.620620e-01 -3.143816e-02 -1.083225e+00 3.274034e-01 -1.920704e-01 8.797526e-02 -2.472389e-01 -7.017320e-02 2.437228e-01 -3.756233e-01 1.952640e-01 -4.941311e-01 6.340740e-01 -3.528950e-01 -5.964739e-02 5.918889e-02
<VARIANCE> 39
 2.217014e+01 1.986004e+01 1.576768e+01 1.957971e+01 2.129148e+01 2.143268e+01 2.552253e+01 3.995399e+01 3.048619e+01 3.709613e+01 2.655538e+01 3.703974e+01 2.428805e+01 2.959301e+00 2.381574e+00 1.646908e+00 1.709874e+00 2.722483e+00 1.599116e+00 2.327070e+00 1.959720e+00 2.441912e+00 4.398181e+00 2.399871e+00 1.580540e+00 1.308480e+00 5.202892e-01 4.300286e-01 4.892115e-01 4.480391e-01 5.191165e-01 3.847504e-01 3.685862e-01 4.254305e-01 6.098754e-01 8.635839e-01 4.646205e-01 3.779806e-01 2.783081e-01
<GCONST> 1.134738e+02
<STATE> 4
<MEAN> 39
 -1.204027e+01 -1.077660e+01 2.601750e+00 2.660387e+00 1.247618e+00 -1.117053e+01 -1.459607e+00 -9.049139e+00 -1.513667e+00 -5.808379e+00 -3.342686e+00 -8.975677e+00 6.143935e+01 -1.748905e-01 2.945684e-01 -2.185982e-01 1.500921e-01 -2.889252e-01 7.238657e-01 -3.549008e-01 1.418290e-01 -3.525098e-01 7.184262e-01 -2.049078e-01 2.872274e-01 -1.597504e+00 -2.641021e-02 5.144126e-02 2.112427e-02 -2.002885e-01 5.922753e-02 1.246267e-03 3.118738e-02 -8.916895e-02 1.240552e-01 1.113582e-01 6.578262e-02 4.519219e-02 1.549624e-01
<VARIANCE> 39
 6.022401e+01 3.225251e+01 2.117773e+01 4.113977e+01 2.352741e+01 3.535630e+01 6.109067e+01 3.583661e+01 2.976324e+01 5.987814e+01 3.908843e+01 2.152342e+01 8.852568e+01 2.744751e+00 2.830432e+00 2.527618e+00 3.170672e+00 2.366498e+00 2.674539e+00 2.552590e+00 2.562588e+00 4.198408e+00 3.078520e+00 2.196453e+00 1.574874e+00 3.416943e+00 5.204590e-01 5.992116e-01 3.373249e-01 5.621330e-01 5.097844e-01 4.003036e-01 4.742412e-01 4.800864e-01 6.995414e-01 6.202620e-01 4.314741e-01 2.855062e-01 8.273571e-01
<GCONST> 1.230056e+02
<TRANSP> 5
 0.000000e+00 1.000000e+00 0.000000e+00 0.000000e+00 0.000000e+00
 0.000000e+00 7.492335e-01 2.507665e-01 0.000000e+00 0.000000e+00
 0.000000e+00 0.000000e+00 7.599760e-01 2.400240e-01 0.000000e+00
 0.000000e+00 0.000000e+00 0.000000e+00 7.530474e-01 2.469526e-01
 0.000000e+00 0.000000e+00 0.000000e+00 0.000000e+00 0.000000e+00
<ENDHMM>
~h "s"
<BEGINHMM>
<NUMSTATES> 5
<STATE> 2
<MEAN> 39
 -2.418369e+01 -5.186594e+00 5.578386e+00 -3.044125e+00 8.180287e+00 -1.286121e+01 2.970787e+00 -1.047492e+01 1.118745e-01 -1.167999e+01 -1.461623e+00 -9.010670e+00 6.962089e+01 -3.565359e+00 1.092601e-01 -8.553371e-01 6.711249e-01 6.263011e-01 4.073722e-01 1.514846e+00 -7.389358e-02 1.172114e+00 -7.203288e-01 2.423484e+00 9.645866e-01 -7.832212e-01 6.128348e-01 -6.831790e-01 -2.666857e-01 -4.904467e-01 -1.479715e-01 5.007730e-02 -5.382254e-01 3.594872e-01 -2.284324e-01 7.680504e-01 -1.814950e-01 1.997747e-01 7.377136e-02
<VARIANCE> 39
 6.437592e+01 1.177320e+01 1.376773e+01 1.676538e+01 4.486322e+01 3.232992e+01 4.375534e+01 1.919619e+01 1.795969e+01 3.258542e+01 6.361259e+01 3.859814e+01 1.337837e+01 5.322318e+00 3.945517e+00 1.289646e+00 2.989043e+00 1.762903e+00 1.500280e+00 4.347384e+00 4.463438e+00 2.011338e+00 6.449105e+00 3.323102e+00 3.943192e+00 4.755079e-01 1.061335e+00 5.020115e-01 2.739256e-01 5.325974e-01 3.749167e-01 3.451546e-01 7.161792e-01 5.485806e-01 3.749418e-01 9.716093e-01 1.030045e+00 7.872492e-01 9.575547e-02
<GCONST> 1.181593e+02
<STATE> 3
<MEAN> 39
 -2.972804e+01 -9.745789e+00 8.699111e-01 -3.819566e+00 7.997519e+00 -1.185120e+01 5.915168e+00 -7.037644e+00 2.716004e+00 -9.881327e+00 2.436762e+00 -5.878766e+00 6.462576e+01 9.805069e-01 -3.374356e-01 -6.953596e-02 2.664146e-01 -8.628665e-01 -2.207533e-01 -5.552106e-01 -9.464505e-02 9.874269e-03 2.727787e-01 -5.884573e-01 -2.222591e-01 -1.177335e+00 6.626854e-01 2.985078e-01 2.537990e-01 9.418887e-02 -1.942975e-01 -1.193355e-01 -2.867289e-01 -1.460814e-01 -3.149654e-01 5.643743e-02 -2.458029e-01 -1.841620e-01 -1.111478e-01
<VARIANCE> 39
 1.523055e+01 1.257439e+01 8.328869e+00 2.526346e+01 4.464840e+01 2.619521e+01 1.818078e+01 2.499761e+01 1.948540e+01 2.622392e+01 1.635883e+01 1.757272e+01 2.266307e+01 2.425679e+00 1.227216e+00 1.779394e+00 1.804652e+00 2.875747e+00 2.291055e+00 2.261065e+00 1.853234e+00 2.205371e+00 2.443810e+00 1.642301e+00 1.807306e+00 1.555698e+00 3.995297e-01 2.556626e-01 3.453139e-01 3.589207e-01 4.719864e-01 4.040233e-01 3.850908e-01 4.017471e-01 5.299996e-01 5.553948e-01 3.912406e-01 4.839715e-01 2.758723e-01
<GCONST> 1.072054e+02
<STATE> 4
<MEAN> 39
 -1.535830e+01 -6.377752e+00 4.635915e+00 2.658665e-01 1.216781e+00 -1.415908e+01 -2.975722e+00 -1.088858e+01 -1.146199e+00 -7.325269e+00 -1.752871e+00 -8.656736e+00 6.033454e+01 2.302491e+00 2.076346e-01 5.482169e-01 -2.389976e-01 -7.554741e-01 1.739729e-01 -7.912619e-01 -7.645896e-02 -1.010434e+00 6.323452e-01 -2.423619e-01 -6.770512e-02 2.314816e-01 -2.911431e-01 -3.462178e-01 -1.391205e-02 -4.212616e-01 1.387457e-01 2.488829e-01 2.180206e-01 2.310893e-01 1.463136e-02 -3.336136e-02 2.405921e-01 2.215582e-01 6.050848e-01
<VARIANCE> 39
 5.972367e+01 4.313540e+01 5.146365e+01 4.238779e+01 6.370913e+01 3.030172e+01 2.182447e+01 3.551437e+01 3.946110e+01 2.993317e+01 2.238352e+01 2.161805e+01 6.177690e+01 5.374390e+00 8.189610e+00 4.329066e+00 4.937600e+00 4.537353e+00 3.145344e+00 2.596195e+00 3.711653e+00 4.374543e+00 3.193952e+00 3.120235e+00 2.428817e+00 7.968475e+00 5.828100e-01 1.748191e+00 6.617239e-01 8.866836e-01 7.858122e-01 4.458491e-01 4.840421e-01 8.645478e-01 8.796415e-01 5.553989e-01 6.821173e-01 4.774468e-01 1.405944e+00
<GCONST> 1.333937e+02
<TRANSP> 5
 0.000000e+00 1.000000e+00 0.000000e+00 0.000000e+00 0.000000e+00
 0.000000e+00 7.822578e-01 2.177422e-01 0.000000e+00 0.000000e+00
 0.000000e+00 0.000000e+00 8.148666e-01 1.851334e-01 0.000000e+00
 0.000000e+00 0.000000e+00 0.000000e+00 6.801920e-01 3.198080e-01
 0.000000e+00 0.000000e+00 0.000000e+00 0.000000e+00 0.000000e+00
<ENDHMM>
~h "t"
<BEGINHMM>
<NUMSTATES> 5
<STATE> 2
<MEAN> 39
 -4.816333e+00 -1.513595e+01 6.553593e+00 -1.199529e+01 4.434081e+00 -1.080381e+01 -4.974835e+00 -6.663817e+00 -5.599552e-01 1.982050e+00 -5.676879e+00 -1.003026e+01 7.555424e+01 -6.472503e-01 2.280062e+00 3.538971e-01 1.717817e+00 9.121637e-01 3.539014e-01 -3.431621e-01 2.105615e-01 3.708350e-01 1.106228e-01 3.039117e-01 -3.213853e-01 -2.781806e+00 -5.799105e-01 5.353350e-01 -5.637306e-01 8.256248e-01 -3.390712e-01 4.982970e-01 3.634816e-01 -2.113581e-01 2.929033e-01 -3.920807e-01 3.569420e-01 5.525729e-02 -1.261021e+00
<VARIANCE> 39
 6.511931e+00 2.850146e+01 2.251908e+01 5.264985e+01 1.988437e+01 3.911671e+01 3.013058e+01 7.117597e+01 3.256543e+01 2.419797e+01 4.802519e+01 1.949019e+01 1.964636e+01 9.307085e-01 3.127111e+00 1.687238e+00 6.723962e+00 2.817044e+00 3.444684e+00 1.936616e+00 3.079885e+00 1.810779e+00 2.092063e+00 1.781403e+00 2.262129e+00 7.151102e+00 2.112113e-01 4.904820e-01 3.910238e-01 6.953752e-01 5.315000e-01 5.422182e-01 3.723045e-01 6.451616e-01 4.347599e-01 3.985547e-01 4.035790e-01 5.134308e-01 4.152710e-01
<GCONST> 1.165977e+02
<STATE> 3
<MEAN> 39
 -1.026912e+01 -8.220654e+00 3.603154e+00 -2.469781e+00 1.936208e+00 -8.551742e+00 -3.669259e+00 -3.576611e+00 2.215328e+00 -1.414569e+00 -6.704739e+00 -8.960328e+00 5.926748e+01 -1.797769e+00 8.298533e-01 -1.777073e+00 1.055526e+00 -1.277220e+00 5.122926e-01 2.297732e-01 -1.055953e-01 9.784728e-01 -6.247058e-01 6.826667e-01 2.067949e-01 -3.708266e+00 -2.400165e-01 -5.942601e-01 -8.241215e-02 -7.323777e-01 -1.136028e-01 -3.715549e-01 1.281956e-01 -2.820289e-01 -2.006448e-01 -2.391440e-01 2.142666e-01 1.608364e-01 9.258552e-01
<VARIANCE> 39
 1.383872e+01 1.782431e+01 2.953552e+01 3.000763e+01 3.705041e+01 2.809082e+01 2.160458e+01 3.008150e+01 3.192268e+01 3.114837e+01 3.074743e+01 2.170663e+01 4.652376e+01 7.106932e-01 2.827300e+00 1.032007e+00 4.427274e+00 2.379409e+00 2.354591e+00 1.767802e+00 1.877492e+00 2.237843e+00 1.922578e+00 2.159873e+00 2.403678e+00 4.223721e+00 1.945475e-01 3.811067e-01 4.720405e-01 6.518341e-01 7.791965e-01 4.303826e-01 3.053750e-01 4.674125e-01 5.376915e-01 4.112421e-01 5.292366e-01 4.219214e-01 8.892044e-01
<GCONST> 1.143838e+02
<STATE> 4
<MEAN> 39
 -1.767715e+01 -7.149791e+00 1.389074e+00 -3.662911e+00 6.601274e-01 -1.010810e+01 -1.289123e+00 -8.448407e+00 1.571583e+00 -5.869641e+00 -8.820528e-01 -7.298619e+00 5.801757e+01 -2.877443e-01 -1.383007e-01 8.811002e-01 -5.419413e-01 1.758698e-01 -4.327495e-01 2.117848e-01 -9.309744e-01 -9.371459e-01 -6.026877e-01 4.870374e-01 5.163576e-02 1.243552e+00 5.671563e-01 -1.137014e-01 4.830608e-01 -7.212123e-02 1.442006e-01 1.565118e-01 -9.934568e-02 2.639314e-01 -2.211297e-01 3.148496e-01 -2.563749e-01 -1.442215e-01 5.542066e-01
<VARIANCE> 39
 4.318886e+01 2.213197e+01 3.303267e+01 3.222926e+01 3.947427e+01 2.741787e+01 3.983419e+01 3.915144e+01 4.078320e+01 3.573705e+01 3.923024e+01 2.346139e+01 5.699899e+01 7.928888e+00 3.113004e+00 4.581128e+00 2.859415e+00 3.115916e+00 3.340098e+00 4.288476e+00 5.867197e+00 4.448654e+00 3.342740e+00 5.010375e+00 2.119926e+00 4.479648e+00 8.141161e-01 6.270435e-01 6.388531e-01 4.731598e-01 7.600170e-01 7.396657e-01 7.303411e-01 1.103576e+00 7.645207e-01 5.760575e-01 8.037711e-01 4.159375e-01 7.237018e-01
<GCONST> 1.310102e+02
<TRANSP> 5
 0.000000e+00 1.000000e+00 0.000000e+00 0.000000e+00 0.000000e+00
 0.000000e+00 4.424362e-01 5.575638e-01 0.000000e+00 0.000000e+00
 0.000000e+00 0.000000e+00 7.566338e-01 2.433661e-01 0.000000e+00
 0.000000e+00 0.000000e+00 0.000000e+00 7.825385e-01 2.174614e-01
 0.000000e+00 0.000000e+00 0.000000e+00 0.000000e+00 0.000000e+00
<ENDHMM>
~h "u"
<BEGINHMM>
<NUMSTATES> 5
<STATE> 2
<MEAN> 39
 -4.527005e+00 -1.106608e+01 2.282061e+00 -1.694772e+01 5.783103e+00 -2.071981e+00 -5.967268e+00 -7.300812e+00 -8.965622e+00 1.942503e+00 -3.437923e-01 -1.022139e+01 6.763434e+01 1.677461e+00 -5.743738e-01 1.218735e+00 -1.186639e+00 3.327712e-01 1.338301e+00 -6.715127e-01 -1.943326e-01 -1.162129e+00 1.174205e+00 4.013702e-03 2.234183e-01 1.886620e+00 -4.483075e-01 3.135505e-01 -1.520536e-01 9.614273e-01 -5.261359e-01 1.657170e-01 7.171911e-02 -4.183187e-02 4.817594e-01 -2.896320e-01 -7.049011e-02 3.473840e-01 -9.582139e-01
<VARIANCE> 39
 1.366676e+01 7.778991e+01 1.346831e+01 5.439295e+01 4.688380e+01 2.517282e+01 3.836985e+01 2.603107e+01 5.022965e+01 2.184422e+01 2.536978e+01 2.246012e+01 1.326125e+02 4.528051e+00 2.625993e+00 2.337904e+00 4.627271e+00 3.592522e+00 3.110304e+00 2.817405e+00 2.406389e+00 5.731646e+00 2.320460e+00 2.224465e+00 2.748115e+00 7.539803e+00 4.404724e-01 5.436064e-01 3.831189e-01 9.374419e-01 3.973488e-01 5.884732e-01 6.289269e-01 5.178787e-01 1.010079e+00 4.232123e-01 6.278325e-01 3.962868e-01 6.177686e-01
<GCONST> 1.253079e+02
<STATE> 3
<MEAN> 39
 -2.140582e+00 -1.650322e+01 4.707914e+00 -1.873657e+01 2.538557e+00 3.286544e+00 -3.425656e+00 -1.151595e+01 -5.570820e+00 2.759047e+00 -1.234941e+00 -7.954106e+00 7.421288e+01 3.303086e-01 2.397235e-01 4.738789e-01 2.705272e-01 -1.620310e+00 1.283847e+00 4.130938e-02 -8.658234e-01 4.724282e-01 -2.267412e-01 2.934049e-01 1.060345e+00 -9.986955e-02 -2.019868e-01 2.560125e-01 -1.767576e-01 2.554394e-01 1.308219e-01 -3.001063e-01 -5.530108e-02 1.313163e-01 6.556994e-02 -3.658713e-01 5.914414e-02 -1.663141e-01 -2.223674e-01
<VARIANCE> 39
 7.188790e+00 2.328125e+01 1.327370e+01 3.184335e+01 8.010326e+01 3.170172e+01 3.306475e+01 3.965970e+01 2.098003e+01 1.432406e+01 1.712053e+01 1.933547e+01 2.083224e+01 5.186280e-01 1.402750e+00 9.067237e-01 3.744612e+00 4.501338e+00 2.069790e+00 1.530869e+00 2.344285e+00 2.190184e+00 1.724473e+00 1.943430e+00 2.366496e+00 9.501794e-01 1.652415e-01 2.236378e-01 1.677261e-01 7.086751e-01 1.245256e+00 3.028663e-01 3.363582e-01 4.445233e-01 4.239215e-01 3.280976e-01 3.440236e-01 4.364419e-01 3.243325e-01
<GCONST> 1.063262e+02
<STATE> 4
<MEAN> 39
 -2.751579e+00 -1.353221e+01 3.901730e+00 -2.190935e+01 2.500335e+00 5.713076e+00 -5.533504e+00 -7.837000e+00 -6.984979e+00 -3.259535e-01 2.280087e+00 -7.994003e+00 7.451178e+01 -6.122787e-02 5.372177e-01 -2.868957e-02 4.484943e-01 1.128403e-01 -2.410375e-01 -1.180707e-01 1.599575e-01 -6.866790e-02 -1.120878e-01 5.813678e-03 -7.752811e-02 -3.395036e-01 -4.981875e-02 4.474377e-02 2.265334e-02 2.885583e-01 -4.372383e-03 -1.585560e-01 5.772319e-02 -4.523707e-02 8.504312e-02 9.605166e-03 -1.070570e-01 -6.030524e-02 -1.599700e-01
<VARIANCE> 39
 4.902454e+00 3.039146e+01 1.282243e+01 3.253307e+01 3.124820e+01 2.845851e+01 3.302418e+01 3.116198e+01 2.084270e+01 3.153063e+01 2.453157e+01 1.800082e+01 1.351190e+01 3.564377e-01 1.572605e+00 7.214473e-01 3.311271e+00 2.939422e+00 1.346962e+00 1.143157e+00 2.031148e+00 1.595134e+00 1.258173e+00 1.500109e+00 1.167109e+00 1.537037e+00 9.884748e-02 2.092455e-01 1.317814e-01 3.821222e-01 4.698808e-01 2.301364e-01 2.325395e-01 3.422088e-01 2.628756e-01 2.626133e-01 2.929951e-01 2.350493e-01 2.072798e-01
<GCONST> 9.727547e+01
<TRANSP> 5
 0.000000e+00 1.000000e+00 0.000000e+00 0.000000e+00 0.000000e+00
 0.000000e+00 3.366756e-01 6.633244e-01 0.000000e+00 0.000000e+00
 0.000000e+00 0.000000e+00 6.070972e-01 3.929028e-01 0.000000e+00
 0.000000e+00 0.000000e+00 0.000000e+00 9.015251e-01 9.847497e-02
 0.000000e+00 0.000000e+00 0.000000e+00 0.000000e+00 0.000000e+00
<ENDHMM>
~h "ah"
<BEGINHMM>
<NUMSTATES> 5
<STATE> 2
<MEAN> 39
 -3.283924e+00 4.914503e+00 4.768069e+00 -2.425586e+01 2.786372e-01 -3.257013e+00 -5.302906e+00 -1.197179e+00 -1.151098e+01 -9.992224e+00 2.015914e+00 -8.924866e+00 6.996896e+01 -1.287126e-01 -9.775338e-01 -5.716306e-01 -8.461323e-01 8.200099e-01 1.117457e+00 -3.005583e-01 -9.936188e-01 -5.528253e-01 1.287406e+00 9.379153e-01 3.871513e-01 1.071640e+00 -1.099478e-01 -4.660032e-01 -5.241721e-02 3.149718e-01 1.917140e-01 5.496785e-02 9.219777e-04 -2.748302e-01 2.675314e-01 4.995132e-01 -4.118397e-02 -6.505989e-02 9.429853e-02
<VARIANCE> 39
 1.789006e+00 2.513326e+01 9.785352e+00 1.141573e+01 7.451731e+00 2.316176e+01 2.608179e+00 1.461987e+01 2.698159e+00 1.372018e+01 7.558939e+00 7.846894e+00 6.485241e+00 1.134272e-01 2.147996e+00 1.914749e-01 8.484833e-01 8.684072e-01 1.332571e+00 3.765385e-01 8.812388e-01 6.104102e-01 3.439342e+00 3.025907e-01 1.128909e+00 4.284084e-01 2.738040e-02 8.834155e-02 1.901291e-02 1.140105e-01 1.658106e-01 3.383632e-01 8.726528e-02 1.471526e-01 2.004273e-01 3.679761e-01 2.210420e-01 4.590021e-01 6.124936e-02
<GCONST> 6.610591e+01
<STATE> 3
<MEAN> 39
 -6.060032e+00 -1.118401e+01 1.837340e+00 -2.160873e+01 8.277209e+00 -2.303556e+00 -5.076686e+00 -4.957238e+00 -6.737965e+00 5.436715e+00 -2.738479e+00 -9.615267e+00 7.946954e+01 -4.618309e-01 -2.062215e+00 2.458632e-01 1.270816e+00 9.571338e-01 -1.835863e+00 1.251274e+00 8.335446e-01 1.030021e+00 7.467746e-01 -2.491050e+00 -5.733699e-01 8.515031e-01 7.796827e-02 3.693247e-01 2.344252e-01 7.671845e-02 -2.997777e-01 -2.711447e-01 3.588608e-01 2.548995e-01 -1.475747e-01 -8.652120e-01 -2.177402e-01 2.482335e-01 -3.464753e-01
<VARIANCE> 39
 4.888958e+00 2.912470e+01 6.158678e+00 9.809440e+00 4.184231e+00 2.384451e+01 9.701142e+00 2.010688e+01 2.426971e+01 7.836133e+00 8.088934e+01 1.107036e+01 7.369182e+00 3.060732e-01 1.233589e+00 7.740692e-01 4.484172e-01 4.449019e-01 6.211262e-01 8.600889e-01 1.748241e+00 2.333995e+00 5.245457e+00 3.453974e+00 2.117826e+00 7.111246e-01 5.962050e-02 7.832900e-02 1.340707e-01 7.342269e-02 3.047953e-02 3.575554e-01 8.787397e-02 5.107375e-01 5.493073e-01 3.096038e-01 1.070152e+00 5.326254e-01 5.400924e-02
<GCONST> 8.303671e+01
<STATE> 4
<MEAN> 39
 -5.646282e+00 -1.522867e+01 3.601924e+00 -1.232458e+01 1.001722e+01 -4.592050e+00 -4.902934e+00 -5.800898e+00 -2.427717e+00 -5.055009e+00 -6.787939e+00 -8.646470e+00 7.437528e+01 -1.935476e-01 1.827564e-01 6.387836e-02 5.916387e-01 -2.506545e-01 -2.727919e-01 5.112541e-02 -2.221950e-01 3.191613e-01 -4.921769e-01 -2.450607e-01 2.080415e-01 -3.135680e-01 -1.020459e-01 5.748811e-02 -1.730905e-02 4.834816e-02 -9.465314e-02 9.075394e-02 -6.490496e-02 -5.052289e-02 8.131478e-02 -8.950795e-03 1.569965e-01 2.876400e-02 -5.804320e-02
<VARIANCE> 39
 1.528203e+01 5.834807e+01 1.957111e+01 7.702518e+01 2.649536e+01 3.818933e+01 5.403588e+01 4.621495e+01 3.635002e+01 2.921439e+01 7.052962e+01 1.977370e+01 4.951723e+01 2.385511e+00 4.860320e+00 1.666134e+00 5.916673e+00 2.511262e+00 2.381131e+00 3.906317e+00 3.756104e+00 3.600794e+00 3.462465e+00 3.611835e+00 2.172672e+00 5.150648e+00 5.559590e-01 6.734051e-01 3.280185e-01 1.065505e+00 5.094973e-01 5.675226e-01 6.219236e-01 5.568075e-01 6.217039e-01 5.939289e-01 4.909360e-01 2.960351e-01 7.695412e-01
<GCONST> 1.265551e+02
<TRANSP> 5
 0.000000e+00 1.000000e+00 0.000000e+00 0.000000e+00 0.000000e+00
 0.000000e+00 8.124997e-01 1.875003e-01 0.000000e+00 0.000000e+00
 0.000000e+00 0.000000e+00 7.891562e-01 2.108438e-01 0.000000e+00
 0.000000e+00 0.000000e+00 0.000000e+00 9.511007e-01 4.889923e-02
 0.000000e+00 0.000000e+00 0.000000e+00 0.000000e+00 0.000000e+00
<ENDHMM>
~h "al"
<BEGINHMM>
<NUMSTATES> 5
<STATE> 2
<MEAN> 39
 -3.699283e+00 -7.850477e+00 -1.862026e+00 -9.752288e+00 6.204368e+00 3.512290e-01 -3.127224e-01 -7.901978e+00 -7.297008e+00 -4.069564e+00 -1.064348e+00 -9.517760e+00 6.462210e+01 3.129941e-02 -3.492874e-01 -9.657226e-01 -3.623152e-01 -3.271283e-01 2.758843e-01 2.911701e-01 -5.947772e-01 -4.670227e-01 -4.423152e-01 -1.468133e-01 7.335285e-01 -3.186662e-01 -7.502159e-02 -7.786378e-02 4.345109e-01 3.414989e-01 9.022673e-02 1.225830e-01 -8.859020e-02 -8.822589e-02 -1.513711e-01 8.776877e-03 -2.047550e-01 1.241839e-02 2.934489e-03
<VARIANCE> 39
 3.366699e+01 2.339426e+01 2.099350e+01 4.642495e+01 4.726366e+01 3.893165e+01 2.227042e+01 4.467165e+01 1.781496e+01 8.937990e+00 1.066425e+01 1.606385e+01 5.947281e+01 1.124194e+00 1.006211e+00 5.079357e+00 8.085306e+00 5.651070e+00 2.166215e+00 2.050866e+00 5.483338e+00 2.207742e+00 9.116178e-01 9.921437e-01 1.186916e+00 2.287089e+00 8.158287e-02 2.308014e-01 3.312638e-01 5.742921e-01 6.031051e-01 5.735760e-01 3.849402e-01 4.216839e-01 4.203062e-01 1.655178e-01 2.199215e-01 1.887247e-01 1.185587e-01
<GCONST> 1.079100e+02
<STATE> 3
<MEAN> 39
 -7.922482e-01 -6.950037e+00 4.191189e-01 -1.187633e+01 3.759816e+00 -3.074467e-01 -2.093292e+00 -3.002466e+00 -7.217903e+00 -5.703671e+00 -1.535622e+00 -8.126966e+00 6.803216e+01 -2.231433e-02 -4.735774e-01 -1.100448e-01 -9.239694e-01 -2.838875e-01 1.454443e+00 1.750933e-01 1.843410e-01 -1.624306e-01 -5.204621e-01 5.550838e-02 5.516756e-01 6.223260e-01 -8.651165e-02 -4.589220e-02 2.547442e-02 7.855791e-02 5.827559e-02 1.060236e-01 -1.325001e-01 -4.132438e-01 4.890343e-02 1.690141e-01 2.509601e-01 3.931615e-02 1.117000e-02
<VARIANCE> 39
 7.908656e+00 2.251729e+01 1.241788e+01 8.303053e+01 7.642462e+01 2.658414e+01 1.275685e+01 7.966318e+01 1.142303e+01 1.492874e+01 5.988411e+00 9.896854e+00 3.699606e+01 1.852644e-01 6.252573e-01 1.254053e+00 3.848060e+00 3.329673e+00 2.688342e+00 6.809473e-01 5.281038e+00 1.791193e+00 1.444435e+00 1.286154e+00 1.426313e+00 1.060368e+00 5.381937e-02 1.127761e-01 2.478167e-01 8.278483e-01 6.828775e-01 4.718764e-01 2.556388e-01 1.043808e+00 2.433982e-01 4.477468e-01 1.445293e-01 2.743133e-01 1.397300e-01
<GCONST> 9.912162e+01
<STATE> 4
<MEAN> 39
 -3.230109e+00 -1.319815e+01 4.129675e+00 -1.514018e+01 3.345264e+00 6.974174e+00 -4.956695e+00 -7.700430e+00 -6.535554e+00 -2.067168e+00 -3.735380e+00 -1.013957e+01 7.328979e+01 -4.194005e-02 -1.905935e-02 1.168186e-01 2.098381e-01 -5.975866e-02 -1.109655e-01 -8.224695e-02 -7.124561e-01 8.773854e-02 9.784530e-02 -2.331084e-01 1.259975e-01 -2.232511e-01 -2.625971e-02 1.181733e-01 2.743017e-02 6.087607e-02 -2.440127e-03 -1.374093e-01 -3.649720e-03 1.298030e-01 -4.473108e-03 -6.385093e-02 3.787113e-02 -3.520021e-02 -1.269631e-01
<VARIANCE> 39
 6.801816e+00 1.549765e+01 4.390524e+01 2.647084e+01 4.537934e+01 3.298580e+01 3.305637e+01 7.862015e+01 2.717058e+01 2.578746e+01 2.037244e+01 2.426445e+01 1.339673e+01 4.246893e-01 1.295245e+00 1.702770e+00 1.976524e+00 4.653496e+00 2.262138e+00 2.095234e+00 3.040707e+00 3.143811e+00 2.163460e+00 1.694044e+00 1.658924e+00 7.916300e-01 8.402127e-02 1.213265e-01 2.975157e-01 2.616241e-01 7.737380e-01 4.476456e-01 3.537152e-01 4.013995e-01 6.087019e-01 4.023040e-01 2.879746e-01 2.945771e-01 9.055813e-02
<GCONST> 1.050285e+02
<TRANSP> 5
 0.000000e+00 1.000000e+00 0.000000e+00 0.000000e+00 0.000000e+00
 0.000000e+00 4.925861e-01 5.074139e-01 0.000000e+00 0.000000e+00
 0.000000e+00 0.000000e+00 7.284706e-01 2.715294e-01 0.000000e+00
 0.000000e+00 0.000000e+00 0.000000e+00 9.300705e-01 6.992956e-02
 0.000000e+00 0.000000e+00 0.000000e+00 0.000000e+00 0.000000e+00
<ENDHMM>
~h "an"
<BEGINHMM>
<NUMSTATES> 5
<STATE> 2
<MEAN> 39
 -4.816549e+00 -1.616201e+01 4.920994e+00 -9.223098e+00 1.237083e+01 -7.346824e+00 -5.166737e+00 -1.726817e+00 -6.402260e+00 6.102805e-01 -3.293678e+00 -1.350833e+01 7.369756e+01 -1.754718e-01 -3.624462e-01 -4.988596e-02 -6.395031e-03 3.284076e-01 -1.738360e-01 -1.596443e-01 6.460884e-01 4.865409e-01 -1.074421e+00 -6.084310e-01 6.110628e-01 5.626118e-01 -1.354776e-02 -5.772534e-02 2.598340e-01 1.228010e-01 -3.348656e-01 1.189375e-01 -5.439126e-02 -4.647910e-02 1.255711e-01 -6.728459e-02 -1.837156e-01 2.917011e-01 -4.458933e-02
<VARIANCE> 39
 7.108454e+00 2.062780e+01 1.863051e+01 1.394188e+01 3.815351e+01 1.432754e+01 2.322254e+01 2.105962e+01 2.204103e+01 2.910610e+01 1.950161e+01 1.393121e+01 2.306264e+01 5.410755e-01 1.910909e+00 1.760611e+00 1.442305e+00 2.045400e+00 1.800965e+00 1.458995e+00 2.601645e+00 2.563673e+00 2.435806e+00 1.478772e+00 1.361359e+00 3.239528e+00 9.848619e-02 4.024199e-01 3.876851e-01 3.895979e-01 3.975609e-01 2.674375e-01 2.860256e-01 4.921970e-01 3.735593e-01 4.233603e-01 2.288121e-01 1.720119e-01 6.601499e-01
<GCONST> 1.024231e+02
<STATE> 3
<MEAN> 39
 -5.478624e+00 -1.591024e+01 1.087597e+01 -3.743546e+00 3.490039e+00 -7.240754e+00 -5.668969e+00 -8.501511e-01 -1.856099e+00 -5.130857e+00 -6.976152e+00 -5.269650e+00 7.405253e+01 1.973867e-01 1.017704e+00 1.328512e+00 1.934914e+00 -1.427588e+00 -3.977695e-01 5.995618e-02 -1.308057e+00 -6.195280e-02 1.136359e+00 -4.698908e-01 1.581245e-01 -1.518372e+00 -2.856172e-02 3.683164e-01 3.885826e-02 1.381940e-01 -1.020155e-01 -1.400825e-01 1.390121e-01 -3.959639e-01 -2.374330e-01 3.268953e-01 3.848313e-01 -2.982521e-01 -2.889794e-01
<VARIANCE> 39
 4.605770e+00 2.159817e+01 2.215569e+01 3.992582e+01 3.834661e+01 1.471172e+01 3.053928e+01 3.638035e+01 1.655209e+01 2.457042e+01 1.448501e+01 1.495867e+01 2.332544e+01 3.879081e-01 3.068608e+00 1.113631e+00 2.235103e+00 2.184149e+00 1.916724e+00 1.319115e+00 4.884311e+00 1.550116e+00 3.025415e+00 1.735416e+00 2.464994e+00 2.646655e+00 1.104377e-01 5.250813e-01 2.775208e-01 7.110902e-01 2.576424e-01 3.126031e-01 2.247309e-01 1.008790e+00 3.129551e-01 8.366040e-01 2.310393e-01 3.864577e-01 6.401896e-01
<GCONST> 1.066243e+02
<STATE> 4
<MEAN> 39
 -6.562241e+00 -9.478498e+00 1.712112e+01 2.264678e+00 -4.306384e+00 -8.443912e+00 -1.356498e+00 -9.076408e+00 -6.915347e+00 5.278172e-01 -2.485221e+00 -7.736291e+00 6.803756e+01 -1.042618e-01 4.929806e-01 -2.802717e-01 8.831290e-02 -5.322455e-02 3.563873e-02 2.201889e-01 -4.735519e-01 -1.725342e-01 -1.312732e-01 2.190547e-01 -4.982914e-02 -4.035446e-01 -8.176824e-02 -1.731345e-01 -1.425802e-01 -3.198277e-01 1.055619e-01 1.801622e-01 -3.695969e-02 1.937962e-01 3.481948e-02 -3.011420e-01 5.234319e-02 4.099157e-02 2.005435e-01
<VARIANCE> 39
 7.774209e+00 2.406590e+01 2.220661e+01 3.668623e+01 3.275355e+01 3.248702e+01 2.777736e+01 2.618091e+01 2.138874e+01 2.361246e+01 3.784015e+01 1.422123e+01 3.241994e+01 9.637704e-01 1.708268e+00 2.289260e+00 5.216719e+00 2.332083e+00 2.819933e+00 1.815473e+00 2.659673e+00 2.412527e+00 3.012459e+00 4.042340e+00 1.142912e+00 2.989070e+00 2.062612e-01 4.197810e-01 4.356413e-01 1.377692e+00 4.284280e-01 6.478767e-01 3.005674e-01 6.290597e-01 4.775364e-01 7.015973e-01 6.706522e-01 2.633103e-01 6.925569e-01
<GCONST> 1.151085e+02
<TRANSP> 5
 0.000000e+00 1.000000e+00 0.000000e+00 0.000000e+00 0.000000e+00
 0.000000e+00 8.049639e-01 1.950361e-01 0.000000e+00 0.000000e+00
 0.000000e+00 0.000000e+00 8.385142e-01 1.614858e-01 0.000000e+00
 0.000000e+00 0.000000e+00 0.000000e+00 8.700077e-01 1.299923e-01
 0.000000e+00 0.000000e+00 0.000000e+00 0.000000e+00 0.000000e+00
<ENDHMM>
~h "ar"
<BEGINHMM>
<NUMSTATES> 5
<STATE> 2
<MEAN> 39
 -9.530275e+00 -7.976076e+00 1.832467e+01 -5.444295e+00 -8.864193e+00 -1.326117e+01 -2.072902e+00 -8.422388e+00 -1.158603e+01 -4.551745e+00 3.038830e+00 -6.591422e+00 6.884826e+01 9.196281e-03 -1.166093e+00 -1.694039e-01 -1.705819e+00 -1.182180e+00 -4.334988e-01 -5.129225e-01 1.829560e+00 -1.392570e+00 1.267981e+00 -2.358180e-01 5.408578e-01 2.419460e+00 2.628928e-01 -5.578022e-02 -9.742042e-01 4.857762e-01 9.131534e-02 4.566882e-01 2.635257e-02 2.693017e-01 6.849266e-01 2.177495e-01 -8.506955e-01 -2.027308e-01 -5.226611e-01
<VARIANCE> 39
 4.793209e+00 2.105648e+00 7.084868e+01 5.669820e+01 3.786747e+01 6.367610e+01 7.132227e+00 1.735672e+01 1.611796e+01 4.312878e+01 6.978046e+00 2.492656e+01 9.176130e+00 6.227522e-01 1.191418e+00 4.352041e+00 6.102801e+00 1.475789e+00 2.074290e+00 1.436399e+00 7.118041e+00 7.779486e-01 2.951669e+00 1.530739e+00 1.099162e+00 3.784848e+00 1.494873e-01 1.605895e-01 5.211304e-01 4.438959e-01 7.744761e-02 3.773350e-01 4.368758e-01 1.518965e-01 9.109225e-02 7.819638e-01 2.158126e-01 3.189018e-01 2.398400e-01
<GCONST> 9.973569e+01
<STATE> 3
<MEAN> 39
 -8.478148e+00 -1.196501e+01 1.366238e+01 -5.109439e+00 -1.026753e+01 -1.463398e+01 -1.207673e+00 -7.799633e-01 -1.052271e+01 -1.691009e+00 -1.164784e+00 -3.884713e+00 7.528409e+01 1.826109e-01 -1.148802e+00 -1.592168e+00 -7.740999e-01 5.884609e-01 7.023733e-01 -2.053593e-02 1.163048e+00 1.880408e+00 -4.991947e-01 -1.789623e+00 -1.793257e-01 1.490363e+00 3.583336e-02 2.266915e-01 -3.675627e-01 2.129291e-01 6.868379e-01 5.698305e-02 2.180101e-02 -7.099457e-01 8.452035e-01 -3.995089e-01 -3.176004e-01 -3.806626e-01 -5.468707e-01
<VARIANCE> 39
 2.825738e+00 1.350267e+01 2.599483e+01 3.519474e+01 1.515417e+01 5.283196e+01 1.039038e+01 6.769233e+01 2.415872e+01 2.265121e+01 8.240862e+00 1.113494e+01 2.899934e+01 3.197384e-01 7.891961e-01 3.066478e+00 3.367490e+00 1.985752e+00 7.773741e-01 2.186403e+00 3.668353e+00 2.568365e+00 1.665714e+00 4.342415e-01 6.588712e-01 1.706419e+00 2.839009e-02 5.102778e-02 3.118558e-01 4.324189e-01 7.892421e-02 1.968482e-01 7.958342e-02 2.313509e-01 5.226607e-01 9.082066e-01 1.650484e-01 6.081538e-02 8.413020e-02
<GCONST> 8.925868e+01
<STATE> 4
<MEAN> 39
 -1.144661e+01 -1.088079e+01 1.276230e+01 -1.301168e+01 -9.399739e+00 -5.024098e+00 -9.694169e-01 -1.468352e+01 -3.718539e+00 -1.150678e+01 -6.461040e+00 -1.031389e+01 7.335489e+01 2.187399e-01 -7.190471e-01 -8.717084e-01 1.535894e-01 7.153388e-01 -5.492396e-01 4.095466e-01 4.313559e-01 2.941984e-01 4.640421e-01 -4.429281e-01 8.912613e-02 1.236655e-01 -1.451699e-02 -9.347878e-03 1.433701e-02 4.051904e-02 7.722856e-02 -7.171236e-02 1.423776e-01 5.935507e-03 -9.866862e-02 1.541180e-01 7.450547e-02 2.832283e-02 -6.547315e-02
<VARIANCE> 39
 1.807561e+01 3.631076e+01 5.229917e+01 7.646870e+01 5.907360e+01 7.011921e+01 6.150792e+01 1.301432e+02 6.827596e+00 2.404600e+01 1.476082e+01 3.425062e+01 3.033680e+01 7.744085e-01 7.645646e-01 6.676909e-01 1.107919e+00 2.436487e+00 1.110845e+00 1.793213e+00 3.436598e+00 1.805395e+00 1.853886e+00 7.647392e-01 2.142931e+00 6.600333e-01 1.327750e-01 1.138838e-01 1.275836e-01 2.346687e-01 1.980847e-01 1.308168e-01 2.217324e-01 4.492953e-01 3.041855e-01 1.558484e-01 1.146380e-01 2.894601e-01 9.012730e-02
<GCONST> 9.926785e+01
<TRANSP> 5
 0.000000e+00 1.000000e+00 0.000000e+00 0.000000e+00 0.000000e+00
 0.000000e+00 2.005024e-01 7.994976e-01 0.000000e+00 0.000000e+00
 0.000000e+00 0.000000e+00 5.537590e-01 4.462410e-01 0.000000e+00
 0.000000e+00 0.000000e+00 0.000000e+00 8.806370e-01 1.193629e-01
 0.000000e+00 0.000000e+00 0.000000e+00 0.000000e+00 0.000000e+00
<ENDHMM>
~h "at"
<BEGINHMM>
<NUMSTATES> 5
<STATE> 2
<MEAN> 39
 -6.421270e+00 -1.407344e+01 1.463319e+01 -1.632931e+00 4.485287e-02 -3.880647e-01 -5.851145e+00 -9.805596e+00 -6.244104e+00 -7.450033e-01 4.174573e+00 -1.199661e+01 7.206527e+01 1.923532e-02 -5.842453e-02 -2.429873e-01 -2.427448e-01 4.319472e-01 1.120842e-02 -4.884399e-02 4.598450e-02 1.509167e-01 5.948913e-02 -2.301421e-01 5.003698e-03 4.785921e-02 4.015023e-02 -9.025195e-02 -6.065850e-02 -6.196284e-02 9.046812e-02 -4.322555e-03 -5.459913e-02 2.038793e-02 -1.352274e-02 4.460911e-02 -8.788063e-02 3.515473e-02 4.934821e-02
<VARIANCE> 39
 8.346254e+00 3.708812e+01 4.304680e+01 2.349571e+01 3.337045e+01 3.590221e+01 2.991397e+01 4.164289e+01 6.025861e+01 2.556271e+01 4.022372e+01 7.459216e+00 2.554501e+01 1.235473e+00 3.049047e+00 4.301620e+00 6.308499e+00 2.448058e+00 3.586596e+00 3.646955e+00 4.959302e+00 6.508384e+00 4.051940e+00 4.168670e+00 8.291844e-01 2.804203e+00 3.133134e-01 7.657009e-01 7.436182e-01 1.062525e+00 3.746864e-01 6.417397e-01 7.486833e-01 9.921927e-01 1.205981e+00 8.585563e-01 7.767771e-01 1.685503e-01 6.471331e-01
<GCONST> 1.242508e+02
<STATE> 3
<MEAN> 39
 -5.509189e+00 -1.369798e+01 6.422984e+00 -1.282205e+01 1.295913e+01 -3.524816e+00 -6.214746e+00 -5.946418e+00 -4.140328e+00 1.647646e+00 -2.321587e+00 -1.054733e+01 7.425480e+01 -7.292398e-03 -5.724869e-01 5.820388e-02 -7.490754e-03 2.158946e-01 -2.190935e-01 -5.708479e-01 8.282341e-01 6.078222e-01 6.277758e-01 -6.209317e-01 -4.560655e-01 2.882022e-01 -6.472363e-02 3.983975e-01 7.277273e-02 6.905648e-01 -1.724893e-01 1.235732e-01 5.326791e-02 -1.868272e-01 5.389564e-02 -7.107812e-02 2.485505e-02 -1.349031e-01 -5.964170e-01
<VARIANCE> 39
 1.307831e+00 2.155301e+01 7.597724e+00 8.007220e+01 1.299104e+01 2.549585e+01 1.195154e+01 3.157536e+01 3.602164e+01 4.112719e+01 4.948566e+01 2.521137e+01 1.739322e+01 2.551424e-01 5.810345e+00 5.719801e-01 9.947021e+00 2.519764e+00 1.906621e+00 1.576239e+00 2.995226e+00 3.263705e+00 3.589939e+00 3.776090e+00 1.204801e+00 7.389668e+00 5.370843e-02 5.324855e-01 1.378251e-01 9.317476e-01 5.718088e-01 3.631816e-01 3.293856e-01 5.880165e-01 5.184907e-01 6.748692e-01 7.371317e-01 1.928404e-01 6.382125e-01
<GCONST> 1.094085e+02
<STATE> 4
<MEAN> 39
 -1.044299e+01 -4.821089e+00 5.348171e+00 7.581491e-01 8.608788e+00 -3.889617e+00 -8.760196e+00 -7.292672e+00 2.295454e+00 1.558357e+00 -4.018377e+00 -1.335193e+01 5.614819e+01 -6.913348e-01 1.128313e+00 -5.116281e-01 8.591596e-01 -9.453570e-01 -2.226814e-01 4.887767e-01 -1.241112e+00 -4.510980e-03 -1.406870e+00 4.504161e-01 4.830540e-01 -1.553071e+00 2.363872e-01 -5.444267e-01 1.556904e-01 -8.676254e-01 -2.109464e-01 -3.906133e-01 1.071931e-01 1.136566e-01 -2.629690e-01 -1.439635e-01 6.102140e-02 3.072254e-01 1.162091e+00
<VARIANCE> 39
 7.781562e+00 2.067622e+01 2.102407e+01 1.492254e+01 1.808790e+01 1.228252e+01 2.445699e+01 1.206493e+01 1.351048e+01 2.384815e+01 1.598012e+01 1.529393e+01 1.578310e+01 1.438424e+00 2.214596e+00 3.420603e+00 6.921272e+00 9.590203e-01 2.872789e+00 1.766395e+00 9.374638e-01 3.057724e+00 1.316220e+00 2.088895e+00 3.138141e+00 9.475736e+00 1.833732e-01 3.767590e-01 6.057473e-01 5.708777e-01 1.906493e-01 3.569512e-01 4.366007e-01 2.694142e-01 2.204592e-01 3.644369e-01 7.451664e-01 6.374881e-01 3.581222e-01
<GCONST> 1.061377e+02
<TRANSP> 5
 0.000000e+00 1.000000e+00 0.000000e+00 0.000000e+00 0.000000e+00
 0.000000e+00 9.497266e-01 5.027343e-02 0.000000e+00 0.000000e+00
 0.000000e+00 0.000000e+00 9.232621e-01 7.673797e-02 0.000000e+00
 0.000000e+00 0.000000e+00 0.000000e+00 8.495164e-01 1.504837e-01
 0.000000e+00 0.000000e+00 0.000000e+00 0.000000e+00 0.000000e+00
<ENDHMM>
~h "ba"
<BEGINHMM>
<NUMSTATES> 5
<STATE> 2
<MEAN> 39
 -9.688860e+00 -3.390773e+00 3.513544e+00 4.432750e-01 2.365416e-01 -3.397030e+00 -6.199161e+00 -1.088451e+01 -6.278327e+00 -2.998813e+00 3.115003e-01 -6.667515e+00 5.291633e+01 1.894087e+00 9.197153e-02 1.137562e+00 2.612077e-01 8.605013e-01 -7.617067e-01 -8.302788e-01 -1.378824e+00 -4.979843e-01 -6.505255e-02 -2.698379e-01 -9.020312e-01 2.025882e+00 1.040204e-01 -6.802069e-01 2.796968e-01 -7.638201e-01 5.836770e-02 -4.211575e-01 1.664038e-01 5.017970e-01 2.997221e-01 2.265843e-01 -1.907744e-01 -1.648311e-01 1.147931e+00
<VARIANCE> 39
 6.410171e+01 3.488821e+01 7.166912e+01 4.029171e+01 3.886507e+01 4.462554e+01 2.409583e+01 5.977348e+01 2.977094e+01 2.684147e+01 2.671510e+01 2.288454e+01 2.367770e+02 6.591769e+00 8.969854e+00 5.013264e+00 1.028927e+01 3.018091e+00 6.536739e+00 2.449754e+00 5.134934e+00 2.733065e+00 4.279022e+00 3.494927e+00 1.933223e+00 3.005811e+01 5.485799e-01 6.849488e-01 6.497749e-01 8.476859e-01 4.869719e-01 8.120087e-01 5.013846e-01 8.225929e-01 5.166723e-01 5.555307e-01 6.152025e-01 3.816707e-01 1.359329e+00
<GCONST> 1.361862e+02
<STATE> 3
<MEAN> 39
 -4.838043e+00 -5.819125e+00 6.957381e+00 -2.499799e+00 3.293992e+00 -5.691154e+00 -8.169098e+00 -1.386627e+01 -5.498769e+00 -8.517482e-01 1.617580e+00 -1.003241e+01 6.455602e+01 2.359820e-01 -2.133681e+00 -2.082486e-01 -2.257134e+00 2.415299e-01 -1.106096e+00 -4.767422e-02 1.505963e+00 1.713652e+00 7.852275e-01 -8.287994e-01 -3.751986e-01 3.018865e+00 -2.535367e-01 -6.390839e-01 -1.497158e-02 -5.220575e-01 -1.864338e-01 -1.940450e-01 2.926874e-01 8.532236e-01 2.894176e-01 -9.203026e-02 -4.693205e-01 1.995523e-01 4.731161e-01
<VARIANCE> 39
 6.793938e+00 4.969265e+01 1.755076e+01 7.272795e+01 1.752356e+01 3.480211e+01 2.723142e+01 6.075751e+01 4.569608e+01 4.198241e+01 2.822916e+01 1.575126e+01 6.336069e+01 2.091465e+00 8.053257e+00 3.513023e+00 8.931579e+00 2.382933e+00 3.445086e+00 2.766069e+00 7.899131e+00 4.400732e+00 4.401050e+00 4.420536e+00 1.991491e+00 1.262583e+01 3.060709e-01 1.276725e+00 4.418468e-01 1.920883e+00 4.213447e-01 6.854856e-01 5.119103e-01 9.331250e-01 8.553578e-01 9.918787e-01 7.700714e-01 4.574966e-01 2.010458e+00
<GCONST> 1.318211e+02
<STATE> 4
<MEAN> 39
 -6.571970e+00 -1.611068e+01 8.505170e+00 -1.107307e+01 2.291744e+00 -1.083196e+01 -1.752234e+00 -1.210202e+00 -6.073285e-01 -3.106412e+00 -6.698981e+00 -6.903896e+00 7.694439e+01 -1.195016e-01 -1.878833e-01 4.872306e-01 5.904698e-02 -7.316839e-02 -2.261616e-01 5.408231e-01 7.610926e-01 -2.951393e-01 -4.951726e-01 -4.752567e-01 4.652138e-01 3.160985e-01 -6.185684e-02 6.711873e-01 1.599710e-02 5.813951e-01 -4.856146e-02 2.659319e-01 -1.234097e-01 -5.469869e-01 -2.427413e-01 6.401361e-03 4.198313e-01 -1.954976e-02 -8.424464e-01
<VARIANCE> 39
 6.901175e+00 2.595627e+01 2.994442e+01 2.576843e+01 3.408047e+01 2.179590e+01 4.108612e+01 3.287110e+01 3.878926e+01 4.195925e+01 2.993762e+01 3.004849e+01 2.421426e+01 6.294118e-01 3.182254e+00 1.682264e+00 3.011626e+00 1.987817e+00 1.321377e+00 2.181199e+00 4.205186e+00 2.320075e+00 2.144442e+00 2.894004e+00 1.467534e+00 4.173940e+00 1.784195e-01 4.598797e-01 3.384038e-01 6.195644e-01 3.635318e-01 2.668282e-01 3.674332e-01 5.856701e-01 5.728585e-01 5.178583e-01 4.191108e-01 2.741659e-01 5.611544e-01
<GCONST> 1.128065e+02
<TRANSP> 5
 0.000000e+00 1.000000e+00 0.000000e+00 0.000000e+00 0.000000e+00
 0.000000e+00 3.047578e-01 6.952422e-01 0.000000e+00 0.000000e+00
 0.000000e+00 0.000000e+00 7.586840e-01 2.413160e-01 0.000000e+00
 0.000000e+00 0.000000e+00 0.000000e+00 8.503327e-01 1.496674e-01
 0.000000e+00 0.000000e+00 0.000000e+00 0.000000e+00 0.000000e+00
<ENDHMM>
~h "be"
<BEGINHMM>
<NUMSTATES> 5
<STATE> 2
<MEAN> 39
 -1.423736e+01 -3.900740e+00 1.597596e-01 2.293038e+00 2.337374e-01 -3.096843e+00 -6.771320e+00 -9.525246e+00 -4.501448e+00 -3.654493e+00 -3.110557e-01 -5.149488e+00 4.728517e+01 -9.258780e-02 6.484227e-01 6.484486e-02 5.022451e-01 -1.979312e-01 3.875817e-01 2.416135e-01 -6.939660e-01 -4.401380e-01 -1.299759e-01 1.877542e-01 2.303533e-01 -9.319646e-01 1.351775e-01 -3.151591e-01 4.851485e-02 -3.392463e-01 -4.475924e-02 -2.883433e-01 3.953705e-02 1.668848e-01 2.928050e-01 -2.280040e-02 -2.084275e-01 -1.969480e-01 6.417962e-01
<VARIANCE> 39
 8.510400e+01 3.094002e+01 6.232463e+01 1.839429e+01 2.496796e+01 3.782416e+01 1.731993e+01 5.741874e+01 4.318349e+01 3.426818e+01 3.113895e+01 2.508154e+01 2.248758e+02 4.207095e-01 1.391852e+00 1.313086e+00 1.959255e+00 1.089904e+00 1.460458e+00 1.221396e+00 2.763086e+00 1.874913e+00 1.353851e+00 1.923850e+00 1.982812e+00 2.460393e+00 2.245101e-01 3.590313e-01 3.703271e-01 4.899382e-01 2.471289e-01 4.424308e-01 3.434701e-01 5.160987e-01 4.822980e-01 2.919401e-01 3.953930e-01 4.299104e-01 7.923198e-01
<GCONST> 1.128540e+02
<STATE> 3
<MEAN> 39
 -1.330658e+01 -3.445464e+00 2.725616e+00 -3.326654e-02 -5.445983e-01 -2.979033e-01 -4.742515e+00 -9.706737e+00 -5.835093e+00 -1.382277e+00 1.510885e+00 -4.850457e+00 4.896463e+01 6.519811e-01 -3.129138e-01 4.578516e-01 -2.301290e-01 -1.955292e-01 -7.722802e-01 4.673722e-02 -5.553851e-01 4.367811e-01 -1.957346e-02 -2.521774e-01 -3.097631e-01 1.282717e+00 5.298145e-01 -5.261529e-01 2.953552e-01 -4.111420e-01 2.610086e-02 -5.577656e-01 -3.174912e-01 -1.639399e-01 3.226939e-01 1.691052e-01 -3.508989e-01 -2.455563e-01 1.328329e+00
<VARIANCE> 39
 9.972961e+01 4.699279e+01 1.369446e+02 5.780740e+01 4.623087e+01 5.170533e+01 3.939841e+01 6.145612e+01 2.727385e+01 3.670597e+01 2.447930e+01 1.875866e+01 4.081096e+02 1.678828e+00 1.536846e+00 2.343819e+00 1.221204e+00 1.162883e+00 2.298162e+00 2.049625e+00 2.266623e+00 3.758105e+00 1.956798e+00 2.527247e+00 7.656919e-01 3.839172e+00 6.460391e-01 7.041493e-01 1.083607e+00 6.508743e-01 3.541005e-01 4.738787e-01 3.295347e-01 8.219235e-01 4.951709e-01 4.341704e-01 3.296069e-01 2.440977e-01 1.386432e+00
<GCONST> 1.242881e+02
<STATE> 4
<MEAN> 39
 -1.538821e+01 -9.898196e-01 -6.581473e-01 1.603865e+00 -3.169630e+00 3.745759e-02 -7.092590e+00 -8.906966e+00 -4.268424e+00 -1.448577e+00 2.744344e-01 -3.821498e+00 4.131265e+01 2.094514e+00 -8.405012e-01 1.644330e+00 -5.638520e-01 2.098822e-01 -1.267199e+00 -7.741032e-01 -1.389200e+00 1.346675e-01 5.519071e-01 -3.107769e-01 -5.986852e-01 3.626319e+00 2.129579e-01 -3.551696e-01 1.200729e-01 -4.858999e-02 1.236197e-01 -1.063019e-02 -1.242586e-01 1.907194e-01 1.292839e-01 2.471216e-01 -9.320785e-02 -4.317594e-02 4.834031e-01
<VARIANCE> 39
 8.023302e+01 1.963014e+01 8.982026e+01 3.414519e+01 3.275150e+01 5.154096e+01 4.034204e+01 8.556741e+01 4.453653e+01 2.698677e+01 2.675067e+01 2.193272e+01 2.644678e+02 7.037183e+00 4.079255e+00 1.072235e+01 4.561999e+00 2.375877e+00 4.951135e+00 4.199567e+00 7.048507e+00 5.758812e+00 2.411103e+00 3.064733e+00 1.635762e+00 1.745371e+01 7.190471e-01 3.744375e-01 1.077906e+00 6.273971e-01 5.410227e-01 9.553295e-01 7.573943e-01 1.119842e+00 9.899966e-01 5.327815e-01 4.215027e-01 2.651226e-01 1.627790e+00
<GCONST> 1.370201e+02
<TRANSP> 5
 0.000000e+00 1.000000e+00 0.000000e+00 0.000000e+00 0.000000e+00
 0.000000e+00 6.527530e-01 3.472470e-01 0.000000e+00 0.000000e+00
 0.000000e+00 0.000000e+00 1.083400e-01 8.916600e-01 0.000000e+00
 0.000000e+00 0.000000e+00 0.000000e+00 6.585227e-01 3.414773e-01
 0.000000e+00 0.000000e+00 0.000000e+00 0.000000e+00 0.000000e+00
<ENDHMM>
~h "bi"
<BEGINHMM>
<NUMSTATES> 5
<STATE> 2
<MEAN> 39
 -7.345100e+00 -2.544341e+00 1.124887e+01 3.018314e+00 7.446296e-01 -9.557334e+00 -6.636432e+00 -1.226311e+01 -6.775545e+00 -3.276281e+00 2.371094e+00 -9.772700e+00 5.986478e+01 -4.487908e-01 -1.222271e+00 2.686380e+00 -1.061123e+00 -1.213702e+00 -1.762245e+00 3.256967e-01 5.828332e-01 -9.023166e-01 -5.164483e-01 6.583925e-01 5.702509e-01 2.861660e+00 -2.438645e-01 -5.627773e-01 5.446593e-01 -8.750760e-01 -5.919584e-01 -2.152890e-03 1.179852e-01 4.224440e-01 -3.389730e-01 2.226715e-01 -1.516201e-01 3.083898e-01 8.208395e-01
<VARIANCE> 39
 2.423945e+01 3.754603e+01 3.703953e+01 2.541102e+01 3.553628e+01 3.719524e+01 3.383357e+01 5.583172e+01 2.609453e+01 3.284050e+01 2.624127e+01 3.081727e+01 8.739519e+01 4.960513e+00 3.896314e+00 9.015858e+00 6.412336e+00 4.018817e+00 4.888286e+00 1.637382e+00 4.370991e+00 3.762955e+00 2.871769e+00 1.820344e+00 2.740816e+00 1.486555e+01 3.524163e-01 6.780943e-01 8.429483e-01 6.008491e-01 5.476131e-01 7.582017e-01 4.199533e-01 7.479299e-01 5.436655e-01 6.497715e-01 2.947513e-01 3.668710e-01 1.151534e+00
<GCONST> 1.293663e+02
<STATE> 3
<MEAN> 39
 -1.003439e+01 -9.726683e+00 2.257472e+01 -6.502388e+00 -8.296356e+00 -1.331692e+01 -4.565221e+00 -7.167266e+00 -1.336978e+01 1.001719e-01 3.531819e+00 -6.042877e+00 7.399773e+01 -4.166996e-01 -1.019930e-01 1.709810e-01 -8.453704e-01 -1.658365e-01 -5.572096e-01 9.687758e-01 6.389608e-01 2.329306e-01 -2.996070e-01 -2.158744e-01 7.952573e-01 1.329076e+00 -6.467015e-02 4.781581e-01 -1.031068e+00 5.965313e-01 8.408071e-01 4.126908e-01 1.578566e-01 -3.288140e-01 8.293849e-01 -4.364913e-01 -1.189680e-01 -2.413815e-01 -7.969007e-01
<VARIANCE> 39
 7.828547e+00 1.632610e+01 2.947196e+01 2.349615e+01 3.552982e+01 3.102616e+01 2.952614e+01 2.885500e+01 2.803009e+01 1.774648e+01 1.629413e+01 1.592939e+01 1.460752e+01 1.782812e+00 3.160051e+00 5.593090e+00 3.586592e+00 5.523018e+00 2.386507e+00 2.624862e+00 2.995741e+00 5.915665e+00 4.642681e+00 1.372864e+00 1.615333e+00 3.602643e+00 3.885004e-01 3.734432e-01 6.175966e-01 4.031727e-01 5.540867e-01 6.849042e-01 3.977281e-01 6.549933e-01 5.258400e-01 5.065538e-01 2.684550e-01 3.441876e-01 4.505564e-01
<GCONST> 1.158937e+02
<STATE> 4
<MEAN> 39
 -1.391891e+01 -9.816555e+00 9.494687e+00 -4.984406e+00 5.159097e-01 -1.134115e+01 1.535053e+00 -7.883456e+00 -1.547179e+00 -7.004771e+00 5.845606e-02 -6.629201e+00 7.155093e+01 -1.910221e-01 3.056518e-01 -6.523447e-01 3.886347e-01 5.191547e-01 5.016826e-01 2.852638e-01 -3.695486e-01 5.580266e-01 -4.986202e-01 -2.454597e-01 -2.238617e-01 -4.467676e-01 -3.998152e-02 -4.579879e-02 4.601723e-02 -3.764519e-02 -6.238731e-02 1.267710e-01 -7.789418e-02 1.176524e-02 -1.289661e-01 1.394112e-01 1.916821e-02 -7.661811e-02 -6.496757e-02
<VARIANCE> 39
 8.820685e+01 2.940988e+01 5.383822e+01 3.439593e+01 4.009923e+01 4.530552e+01 7.669051e+01 3.160149e+01 3.939032e+01 3.153251e+01 4.757236e+01 2.793032e+01 2.631746e+01 6.426621e+00 2.670186e+00 2.612960e+00 2.777285e+00 3.411233e+00 2.932412e+00 3.303725e+00 2.338044e+00 3.875024e+00 4.623559e+00 4.385099e+00 2.072917e+00 2.588388e+00 6.862851e-01 4.346811e-01 4.278270e-01 4.659080e-01 5.104325e-01 6.801981e-01 4.300460e-01 3.653038e-01 4.985944e-01 6.218384e-01 6.628534e-01 4.797553e-01 4.675056e-01
<GCONST> 1.263542e+02
<TRANSP> 5
 0.000000e+00 1.000000e+00 0.000000e+00 0.000000e+00 0.000000e+00
 0.000000e+00 6.547942e-01 3.452059e-01 0.000000e+00 0.000000e+00
 0.000000e+00 0.000000e+00 7.408629e-01 2.591371e-01 0.000000e+00
 0.000000e+00 0.000000e+00 0.000000e+00 7.650040e-01 2.349960e-01
 0.000000e+00 0.000000e+00 0.000000e+00 0.000000e+00 0.000000e+00
<ENDHMM>
~h "bo"
<BEGINHMM>
<NUMSTATES> 5
<STATE> 2
<MEAN> 39
 -2.131339e+01 -4.095807e+00 6.850942e+00 2.223030e+00 -1.926013e+00 -1.400915e+00 2.440652e+00 -6.634469e+00 -3.389701e+00 -6.952427e+00 -3.835285e+00 -6.964265e+00 4.323823e+01 1.023483e+00 -6.276896e-01 7.247915e-01 5.642937e-01 6.682120e-01 9.632023e-01 -2.444950e-01 5.190637e-01 -6.294644e-01 -3.087701e-01 9.866735e-02 6.710412e-01 1.031366e+00 9.342921e-03 -4.325848e-01 -1.568756e-01 -4.062144e-01 2.548033e-01 1.514919e-01 -5.120607e-01 -1.571478e-01 -4.180970e-03 -4.665014e-02 3.362836e-01 2.069283e-01 3.245691e-01
<VARIANCE> 39
 2.399843e+01 2.198615e+01 5.840430e+01 4.017625e+01 2.467795e+01 4.341391e+01 4.367513e+01 1.396226e+01 8.963186e+00 2.368763e+01 7.415606e+00 1.416250e+01 1.489073e+02 4.704274e-01 1.917177e+00 1.961821e+00 2.570017e+00 1.251664e+00 2.533386e+00 1.135961e+01 2.238415e+00 4.708935e-01 6.266781e-01 5.926563e-01 2.627829e+00 3.212780e+00 4.810725e-01 3.531640e-01 6.830248e-01 5.695435e-01 2.675030e-01 5.636273e-01 1.597400e+00 4.222105e-01 4.839472e-01 2.912668e-01 1.007335e-01 5.316110e-01 1.304264e+00
<GCONST> 1.107825e+02
<STATE> 3
<MEAN> 39
 -1.840328e+01 -9.071507e+00 5.842782e+00 -8.672768e-01 -2.384702e-01 3.542804e+00 -6.438077e+00 -3.888293e+00 -2.440063e+00 -3.852272e+00 1.527331e+00 -4.448474e+00 4.639558e+01 2.073647e+00 -6.196377e-01 -9.731962e-01 -3.133923e+00 1.247704e+00 -4.194188e-01 -1.783766e+00 -7.432382e-01 -4.372708e-01 9.307091e-01 1.059878e+00 -1.954800e+00 3.204293e+00 7.268551e-01 2.391903e-01 9.845661e-02 -1.018047e+00 5.901017e-01 -4.959313e-01 7.315953e-01 -5.274236e-01 -5.785909e-01 8.411369e-02 -4.370887e-01 -8.632728e-01 1.450164e+00
<VARIANCE> 39
 3.582067e+01 3.415601e+01 1.456167e+02 9.413433e+01 4.417926e+01 1.850293e+01 9.059134e+00 7.315779e+00 1.704450e+01 3.051838e+01 1.099786e+01 3.607482e+01 2.846685e+02 3.712445e+00 6.329859e-01 5.994982e+00 2.609378e+00 2.002409e+00 1.171568e+00 1.891129e+00 2.866601e+00 2.833341e+00 2.547210e+00 1.023768e+00 4.169440e+00 6.610269e+00 7.701641e-01 1.852324e-01 5.218539e-01 9.410463e-01 5.438646e-01 1.373145e-01 2.227679e-01 2.791881e-01 7.827201e-01 3.613949e-01 2.459931e-01 1.074956e+00 1.511467e+00
<GCONST> 1.183546e+02
<STATE> 4
<MEAN> 39
 -6.902747e+00 -5.135355e+00 3.183243e+00 -1.508712e+01 7.135451e+00 2.011808e-01 -7.598510e+00 -6.976470e+00 -8.417136e+00 -1.546015e+00 -5.139472e-01 -6.987215e+00 5.931965e+01 3.341277e+00 -7.379419e-01 1.633890e+00 -4.685143e+00 3.292968e+00 -1.070313e+00 4.275246e-01 -4.332989e-01 -1.881521e+00 5.978535e-01 -8.849844e-01 -7.026935e-01 6.692148e+00 -8.714263e-01 -1.630637e-01 2.323112e-01 8.739725e-01 -3.027677e-01 8.039201e-02 4.786783e-01 5.040260e-02 5.064272e-01 1.915989e-01 -2.559724e-01 1.394165e-01 -7.265366e-01
<VARIANCE> 39
 1.958704e+01 3.653193e+01 6.668430e+01 5.835687e+01 7.374716e+01 1.704536e+01 4.044574e+01 2.501201e+01 9.940838e+00 1.113801e+01 1.665318e+01 5.349224e+01 1.239601e+02 4.515099e+00 1.430167e+00 1.688622e+00 5.067417e+00 5.596257e+00 1.801262e+00 1.614717e+00 1.721836e+00 4.986165e+00 8.292680e-01 1.828641e+00 1.642377e+00 1.038643e+01 4.980406e-01 1.665609e-01 7.148716e-01 1.222478e+00 8.718821e-01 2.335271e-01 3.354577e-01 3.498510e-01 1.140960e+00 3.267584e-01 3.473727e-01 2.994494e-01 1.707513e+00
<GCONST> 1.200234e+02
<TRANSP> 5
 0.000000e+00 1.000000e+00 0.000000e+00 0.000000e+00 0.000000e+00
 0.000000e+00 6.999999e-01 3.000001e-01 0.000000e+00 0.000000e+00
 0.000000e+00 0.000000e+00 4.000032e-01 5.999968e-01 0.000000e+00
 0.000000e+00 0.000000e+00 0.000000e+00 6.237238e-01 3.762762e-01
 0.000000e+00 0.000000e+00 0.000000e+00 0.000000e+00 0.000000e+00
<ENDHMM>
~h "bu"
<BEGINHMM>
<NUMSTATES> 5
<STATE> 2
<MEAN> 39
 -4.903610e+00 -1.995564e+00 8.098304e+00 -8.044827e+00 1.949624e+00 -3.406937e-01 -3.883543e+00 -1.006744e+01 -9.121939e+00 -4.059743e+00 1.650201e+00 -9.140314e+00 6.393952e+01 2.578958e-02 3.610219e-01 -6.611310e-01 -8.140782e-01 1.050390e-01 -1.524586e-02 -1.352775e-01 2.517821e-02 1.059853e-02 -8.129746e-03 2.601155e-01 -7.720082e-02 2.154268e-01 -2.355347e-02 -1.392516e-01 9.680231e-02 -8.010520e-02 -5.378718e-02 -1.228656e-02 -6.977686e-02 5.772979e-02 4.523352e-02 4.828120e-02 -2.738357e-02 3.679965e-02 1.351038e-01
<VARIANCE> 39
 1.274510e+01 3.412574e+01 2.631266e+01 1.189885e+02 4.034924e+01 4.329353e+01 2.476423e+01 5.238745e+01 4.459373e+01 4.285512e+01 3.507558e+01 2.043081e+01 3.558900e+01 1.279795e+00 4.066997e+00 3.096697e+00 1.177341e+01 3.675257e+00 4.727737e+00 2.656772e+00 6.938286e+00 4.659545e+00 2.955157e+00 3.761799e+00 2.102098e+00 3.734555e+00 2.803301e-01 5.268602e-01 5.863321e-01 1.794525e+00 6.843023e-01 8.296236e-01 4.435502e-01 1.161934e+00 9.939878e-01 5.189085e-01 7.162912e-01 3.360460e-01 5.043625e-01
<GCONST> 1.292987e+02
<STATE> 3
<MEAN> 39
 -4.057816e+00 1.024817e+00 4.407651e+00 -1.944110e+01 -3.297659e-01 -4.525500e+00 -5.164174e+00 -9.842443e+00 -1.150138e+01 -6.546436e+00 4.229991e-01 -7.988709e+00 6.699763e+01 -2.054493e-01 -2.760163e-01 -3.174019e-02 2.555483e-01 -5.692388e-02 6.231897e-02 -1.942832e-01 1.251331e-01 5.532113e-01 1.808887e-01 -1.068030e-01 2.163904e-01 -2.173695e-01 -2.075161e-01 -1.442548e-01 -6.990153e-02 2.901504e-01 6.653437e-02 -8.271293e-02 1.637072e-01 8.405446e-02 1.624271e-01 -1.395696e-01 4.864323e-02 3.631204e-02 -1.846671e-01
<VARIANCE> 39
 3.272652e+00 2.612681e+01 1.454266e+01 9.278932e+01 2.866202e+01 2.371262e+01 1.942349e+01 3.870617e+01 3.785431e+01 3.823781e+01 1.946972e+01 2.631001e+01 2.483539e+01 6.646380e-01 1.532158e+00 1.554315e+00 3.385361e+00 8.299552e-01 1.484552e+00 1.059240e+00 1.182370e+00 2.495220e+00 1.897441e+00 1.513921e+00 1.263669e+00 8.200979e-01 8.409628e-02 2.641044e-01 2.583398e-01 8.966002e-01 2.248595e-01 2.738000e-01 1.722378e-01 6.192002e-01 3.447931e-01 4.114475e-01 3.730531e-01 2.820151e-01 1.653545e-01
<GCONST> 1.010236e+02
<STATE> 4
<MEAN> 39
 -1.184521e+01 -6.965172e+00 -2.020164e+00 -1.014554e+01 2.831506e+00 -3.676676e+00 -3.329045e+00 -1.150165e+01 -3.456530e+00 -4.817164e+00 3.267651e+00 -7.507841e+00 5.978357e+01 -9.080030e-01 -1.085900e+00 -5.662987e-01 7.380598e-01 -2.428007e-01 -4.907305e-01 1.064786e-01 4.202086e-01 1.161040e+00 -7.064766e-01 1.981779e-01 -5.549332e-01 -5.056900e-01 2.141733e-01 2.096672e-01 2.284074e-01 -4.217492e-01 6.633713e-02 -5.025346e-02 -1.127465e-01 1.312577e-01 -5.205631e-01 -2.929226e-02 -2.668387e-01 -1.342647e-01 1.368726e-01
<VARIANCE> 39
 2.709374e+01 4.300465e+01 5.318323e+01 7.258658e+01 3.302486e+01 3.423643e+01 4.854074e+01 5.346902e+01 3.455949e+01 4.487784e+01 2.418377e+01 3.219661e+01 4.706178e+01 1.103402e+00 3.492168e+00 3.145026e+00 5.842438e+00 1.822360e+00 2.441737e+00 1.885695e+00 5.085152e+00 4.646583e+00 3.592545e+00 3.590931e+00 2.873779e+00 2.157438e+00 1.550165e-01 6.517044e-01 3.650562e-01 1.146479e+00 4.628917e-01 5.057038e-01 4.111071e-01 9.133722e-01 7.398257e-01 5.644345e-01 5.484461e-01 6.933060e-01 5.836115e-01
<GCONST> 1.257016e+02
<TRANSP> 5
 0.000000e+00 1.000000e+00 0.000000e+00 0.000000e+00 0.000000e+00
 0.000000e+00 9.084752e-01 9.152488e-02 0.000000e+00 0.000000e+00
 0.000000e+00 0.000000e+00 7.566290e-01 2.433710e-01 0.000000e+00
 0.000000e+00 0.000000e+00 0.000000e+00 6.445868e-01 3.554132e-01
 0.000000e+00 0.000000e+00 0.000000e+00 0.000000e+00 0.000000e+00
<ENDHMM>
~h "ca"
<BEGINHMM>
<NUMSTATES> 5
<STATE> 2
<MEAN> 39
 -1.276227e+01 -2.862252e+00 1.156426e+01 3.671295e+00 -8.365024e+00 -1.115823e+01 -6.025478e+00 -1.009131e+01 -6.466874e+00 -8.262643e+00 3.653060e+00 -5.861647e+00 6.393282e+01 -2.048707e+00 8.102883e-01 5.023226e-01 -3.519138e-01 2.353179e-01 1.769063e-01 1.947289e+00 7.305746e-02 6.941457e-01 -1.184452e+00 7.006046e-01 6.702102e-01 6.146131e-01 -7.163877e-01 -1.872495e-01 -2.413718e-01 -2.977113e-01 5.956850e-01 1.171777e-01 6.465859e-01 5.969984e-02 4.687681e-01 -9.379356e-02 -8.181530e-02 -2.023281e-01 1.780715e-01
<VARIANCE> 39
 1.855116e+01 2.062609e+01 4.665557e+01 6.918773e+00 6.930384e+01 2.498998e+01 3.322668e+01 1.831600e+01 2.694064e+01 1.450993e+01 1.764482e+01 1.513724e+01 9.424178e+01 2.316778e+00 3.560884e+00 3.356035e+00 6.217848e-01 1.353911e+01 3.005403e+00 3.194974e+00 2.244798e+00 5.566984e+00 3.221598e+00 1.858257e+00 1.666470e+00 7.346468e+00 5.770510e-01 7.801754e-01 5.611739e-01 2.002856e-01 1.693690e+00 1.070933e+00 7.163985e-01 4.579811e-01 9.910083e-01 4.926367e-01 2.712547e-01 4.907990e-01 1.524268e+00
<GCONST> 1.220899e+02
<STATE> 3
<MEAN> 39
 -2.934685e+01 -4.236117e+00 4.051918e+00 -3.144510e+00 2.297121e+00 -8.012406e+00 5.586454e+00 -9.994568e+00 1.731189e+00 -1.034182e+01 2.671282e+00 -4.287641e+00 6.265166e+01 -9.088325e-01 -1.116327e+00 -1.362683e+00 -1.381352e+00 -2.206086e-02 5.069104e-01 2.862812e-01 2.281030e-01 5.968182e-01 1.499155e-01 -3.519048e-01 -4.990901e-02 3.528689e-01 1.391039e+00 -2.274218e-01 2.266622e-01 1.377411e-01 -7.729071e-01 -4.495158e-01 -7.758391e-01 1.414037e-01 -3.262987e-01 1.102344e-01 -2.964671e-01 -2.092869e-02 7.724626e-02
<VARIANCE> 39
 1.327254e+01 3.661589e+01 2.300700e+01 1.595469e+01 6.883714e+00 3.231096e+01 2.306793e+01 1.333068e+01 2.540061e+01 1.721032e+01 6.791858e+00 1.512656e+01 2.663251e+01 8.195391e+00 4.227886e+00 2.086878e+00 1.462043e+00 2.865153e+00 6.340589e+00 3.559403e+00 1.932778e+00 1.928378e+00 1.330336e+00 1.513623e+00 1.418823e+00 7.073921e+00 9.536350e-01 9.118642e-01 8.141825e-01 3.227321e-01 2.575284e-01 1.033336e+00 2.562057e-01 2.968321e-01 4.663457e-01 5.846410e-01 4.271740e-01 2.173007e-01 1.210542e+00
<GCONST> 1.131864e+02
<STATE> 4
<MEAN> 39
 -1.335958e+01 -9.035702e+00 7.281199e+00 -6.853001e+00 -3.405511e+00 -1.307577e+01 1.276768e+00 -5.738822e+00 9.612452e-01 -1.007222e+01 -1.169617e+00 -3.868026e+00 6.920589e+01 2.071479e+00 -8.868592e-01 4.484934e-01 -1.251885e-01 -1.947956e-01 -3.938667e-01 1.354783e-02 2.761603e-01 -1.125960e-01 -4.675594e-02 -9.358704e-01 -3.295168e-01 1.406560e+00 -3.422304e-01 1.602842e-01 -1.657112e-01 1.830446e-01 2.682311e-01 2.291779e-01 1.820495e-01 -1.596017e-01 5.657475e-02 1.985197e-02 8.657290e-02 -1.037602e-01 -1.429604e-01
<VARIANCE> 39
 7.077775e+01 3.291251e+01 2.397868e+01 1.696004e+01 1.777242e+01 2.430252e+01 1.768995e+01 2.938843e+01 1.063326e+01 1.982010e+01 3.838139e+01 8.035965e+00 7.461810e+01 1.012578e+01 3.327868e+00 5.051597e+00 2.766520e+00 2.735681e+00 2.874019e+00 2.091197e+00 2.999619e+00 1.239854e+00 3.542956e+00 3.455691e+00 1.212330e+00 6.604999e+00 1.620392e+00 5.463781e-01 9.477360e-01 5.399953e-01 4.456073e-01 6.165695e-01 2.629208e-01 6.506226e-01 2.219285e-01 6.290589e-01 6.480045e-01 1.919047e-01 1.321509e+00
<GCONST> 1.203844e+02
<TRANSP> 5
 0.000000e+00 1.000000e+00 0.000000e+00 0.000000e+00 0.000000e+00
 0.000000e+00 7.951819e-01 2.048181e-01 0.000000e+00 0.000000e+00
 0.000000e+00 0.000000e+00 8.092116e-01 1.907885e-01 0.000000e+00
 0.000000e+00 0.000000e+00 0.000000e+00 8.969323e-01 1.030677e-01
 0.000000e+00 0.000000e+00 0.000000e+00 0.000000e+00 0.000000e+00
<ENDHMM>
~h "ce"
<BEGINHMM>
<NUMSTATES> 5
<STATE> 2
<MEAN> 39
 -1.414439e+01 -7.743544e+00 2.981896e+00 -3.338959e+00 -1.236701e+00 -4.557664e+00 -2.877691e+00 -5.862136e+00 -3.202762e+00 -3.443379e+00 -1.721877e+00 -6.371274e+00 5.579076e+01 6.232359e-03 -1.184804e-02 5.264054e-03 -6.519258e-03 1.211933e-02 -4.235122e-03 -3.513063e-03 -1.805109e-02 -5.453553e-03 -6.036517e-03 -7.011238e-03 -6.053182e-03 2.423620e-02 -9.010879e-04 1.120917e-04 9.610619e-04 -2.967312e-04 -9.533982e-04 -8.676147e-04 1.872286e-03 1.397449e-03 1.512503e-03 6.096156e-04 -1.876927e-03 -2.391097e-03 8.105883e-05
<VARIANCE> 39
 8.422131e+01 6.084932e+01 1.073184e+02 6.955961e+01 5.446898e+01 7.079699e+01 4.003558e+01 5.404599e+01 3.966318e+01 3.654010e+01 3.580028e+01 3.070767e+01 4.210256e+02 2.718939e+00 2.774098e+00 2.577951e+00 3.647006e+00 2.640604e+00 2.721262e+00 2.408642e+00 3.156995e+00 2.811726e+00 2.666955e+00 2.489032e+00 1.730701e+00 5.594233e+00 4.269344e-01 4.867565e-01 4.137163e-01 6.318190e-01 4.706055e-01 4.998690e-01 4.513081e-01 5.820021e-01 5.208251e-01 5.037160e-01 4.586603e-01 3.360357e-01 8.262613e-01
<GCONST> 1.297615e+02
<STATE> 3
<MEAN> 39
 -1.414439e+01 -7.743544e+00 2.981896e+00 -3.338959e+00 -1.236701e+00 -4.557664e+00 -2.877691e+00 -5.862136e+00 -3.202762e+00 -3.443379e+00 -1.721877e+00 -6.371274e+00 5.579076e+01 6.232359e-03 -1.184804e-02 5.264054e-03 -6.519258e-03 1.211933e-02 -4.235122e-03 -3.513063e-03 -1.805109e-02 -5.453553e-03 -6.036517e-03 -7.011238e-03 -6.053182e-03 2.423620e-02 -9.010879e-04 1.120917e-04 9.610619e-04 -2.967312e-04 -9.533982e-04 -8.676147e-04 1.872286e-03 1.397449e-03 1.512503e-03 6.096156e-04 -1.876927e-03 -2.391097e-03 8.105883e-05
<VARIANCE> 39
 8.422131e+01 6.084932e+01 1.073184e+02 6.955961e+01 5.446898e+01 7.079699e+01 4.003558e+01 5.404599e+01 3.966318e+01 3.654010e+01 3.580028e+01 3.070767e+01 4.210256e+02 2.718939e+00 2.774098e+00 2.577951e+00 3.647006e+00 2.640604e+00 2.721262e+00 2.408642e+00 3.156995e+00 2.811726e+00 2.666955e+00 2.489032e+00 1.730701e+00 5.594233e+00 4.269344e-01 4.867565e-01 4.137163e-01 6.318190e-01 4.706055e-01 4.998690e-01 4.513081e-01 5.820021e-01 5.208251e-01 5.037160e-01 4.586603e-01 3.360357e-01 8.262613e-01
<GCONST> 1.297615e+02
<STATE> 4
<MEAN> 39
 -1.414439e+01 -7.743544e+00 2.981896e+00 -3.338959e+00 -1.236701e+00 -4.557664e+00 -2.877691e+00 -5.862136e+00 -3.202762e+00 -3.443379e+00 -1.721877e+00 -6.371274e+00 5.579076e+01 6.232359e-03 -1.184804e-02 5.264054e-03 -6.519258e-03 1.211933e-02 -4.235122e-03 -3.513063e-03 -1.805109e-02 -5.453553e-03 -6.036517e-03 -7.011238e-03 -6.053182e-03 2.423620e-02 -9.010879e-04 1.120917e-04 9.610619e-04 -2.967312e-04 -9.533982e-04 -8.676147e-04 1.872286e-03 1.397449e-03 1.512503e-03 6.096156e-04 -1.876927e-03 -2.391097e-03 8.105883e-05
<VARIANCE> 39
 8.422131e+01 6.084932e+01 1.073184e+02 6.955961e+01 5.446898e+01 7.079699e+01 4.003558e+01 5.404599e+01 3.966318e+01 3.654010e+01 3.580028e+01 3.070767e+01 4.210256e+02 2.718939e+00 2.774098e+00 2.577951e+00 3.647006e+00 2.640604e+00 2.721262e+00 2.408642e+00 3.156995e+00 2.811726e+00 2.666955e+00 2.489032e+00 1.730701e+00 5.594233e+00 4.269344e-01 4.867565e-01 4.137163e-01 6.318190e-01 4.706055e-01 4.998690e-01 4.513081e-01 5.820021e-01 5.208251e-01 5.037160e-01 4.586603e-01 3.360357e-01 8.262613e-01
<GCONST> 1.297615e+02
<TRANSP> 5
 0.000000e+00 1.000000e+00 0.000000e+00 0.000000e+00 0.000000e+00
 0.000000e+00 6.000000e-01 4.000000e-01 0.000000e+00 0.000000e+00
