~o
<STREAMINFO> 1 39
<VECSIZE> 39<NULLD><MFCC_D_A_0><DIAGC>
~h "a"
<BEGINHMM>
<NUMSTATES> 5
<STATE> 2
<MEAN> 39
 -1.205106e+01 -9.381131e+00 4.975675e+00 -5.412011e+00 -5.056086e-01 -6.194280e+00 -2.665782e+00 -6.372715e+00 -3.614362e+00 -4.143931e+00 -2.671633e+00 -7.054192e+00 6.165760e+01 7.445482e-04 -1.454283e-02 -4.592712e-03 -3.804982e-03 3.234510e-03 -1.031169e-02 -1.388621e-02 3.430879e-03 -2.851339e-03 2.332666e-03 -1.615267e-02 9.512380e-03 -5.243452e-03 -5.842893e-04 9.264844e-05 -4.335491e-04 2.301523e-03 -2.534187e-06 6.950759e-04 -8.000222e-04 -1.106902e-04 -5.583162e-05 3.453937e-04 1.304822e-03 5.021621e-04 -2.601844e-03
<VARIANCE> 39
 7.122499e+01 6.307908e+01 1.058560e+02 7.168735e+01 5.914803e+01 7.479625e+01 4.161666e+01 5.297446e+01 4.009999e+01 3.856628e+01 4.005933e+01 3.063449e+01 3.488393e+02 2.407298e+00 3.053500e+00 2.741027e+00 3.895444e+00 2.827333e+00 2.675743e+00 2.283936e+00 3.088059e+00 2.738370e+00 2.723512e+00 2.470256e+00 1.802480e+00 5.735468e+00 3.872918e-01 4.981889e-01 4.259844e-01 6.605791e-01 4.931164e-01 4.759594e-01 4.148019e-01 5.577225e-01 5.014348e-01 5.051158e-01 4.258619e-01 3.505777e-01 8.095423e-01
<GCONST> 1.297022e+02
<STATE> 3
<MEAN> 39
 -1.205034e+01 -9.447698e+00 4.949572e+00 -5.407413e+00 -4.824961e-01 -6.233811e+00 -2.723342e+00 -6.347847e+00 -3.618979e+00 -4.138489e+00 -2.736997e+00 -7.019038e+00 6.161945e+01 -1.208985e-03 -1.360967e-02 -5.283413e-03 3.855391e-03 3.443590e-03 -5.901994e-03 -1.484244e-02 5.546348e-03 -1.892538e-03 3.362134e-03 -1.255640e-02 8.029799e-03 -1.532311e-02 -4.128797e-04 -2.455512e-05 1.217080e-04 1.661692e-03 1.808375e-04 7.044412e-04 1.904124e-05 4.219547e-04 1.537134e-04 -3.659935e-05 6.752802e-04 -6.934723e-04 -1.586759e-03
<VARIANCE> 39
 7.004123e+01 6.274805e+01 1.050425e+02 7.200392e+01 5.934108e+01 7.416790e+01 4.111909e+01 5.272053e+01 3.957067e+01 3.835511e+01 3.978110e+01 3.048325e+01 3.463083e+02 2.377531e+00 3.060550e+00 2.752295e+00 3.905836e+00 2.856413e+00 2.709767e+00 2.284918e+00 3.097782e+00 2.707232e+00 2.716121e+00 2.456748e+00 1.794833e+00 5.917248e+00 3.817313e-01 5.013764e-01 4.255421e-01 6.633936e-01 4.979226e-01 4.837889e-01 4.157862e-01 5.603867e-01 4.947366e-01 5.029180e-01 4.250495e-01 3.495321e-01 8.340136e-01
<GCONST> 1.296826e+02
<STATE> 4
<MEAN> 39
 -1.198686e+01 -9.674595e+00 4.915992e+00 -5.399424e+00 -3.240253e-01 -6.355713e+00 -2.706719e+00 -6.303035e+00 -3.574167e+00 -4.235086e+00 -2.884481e+00 -7.024496e+00 6.184599e+01 -7.508289e-03 -8.915229e-03 -1.064928e-02 1.583597e-02 1.344733e-03 -1.438330e-03 -1.416391e-02 1.304165e-02 1.992084e-03 7.232580e-03 -7.526335e-03 5.929370e-03 -3.650686e-02 -7.679058e-04 3.478371e-04 -1.187968e-04 1.304756e-03 -3.968260e-04 2.202767e-04 2.534592e-04 4.436229e-04 1.298109e-04 3.101498e-04 7.515863e-04 -6.015929e-04 -1.592699e-03
<VARIANCE> 39
 6.783903e+01 6.168214e+01 1.015548e+02 7.201122e+01 5.974589e+01 7.201141e+01 4.098890e+01 5.213229e+01 3.876112e+01 3.814631e+01 3.970845e+01 2.979492e+01 3.339167e+02 2.375969e+00 3.074412e+00 2.717513e+00 3.898826e+00 2.885750e+00 2.760889e+00 2.287387e+00 3.102831e+00 2.658566e+00 2.702869e+00 2.465567e+00 1.785999e+00 6.160331e+00 3.781219e-01 5.059531e-01 4.179013e-01 6.642398e-01 5.033540e-01 4.962336e-01 4.177957e-01 5.631751e-01 4.849295e-01 4.987504e-01 4.284839e-01 3.478985e-01 8.645220e-01
<GCONST> 1.295521e+02
<TRANSP> 5
 0.000000e+00 1.000000e+00 0.000000e+00 0.000000e+00 0.000000e+00
 0.000000e+00 7.555588e-01 2.444412e-01 0.000000e+00 0.000000e+00
 0.000000e+00 0.000000e+00 7.555592e-01 2.444408e-01 0.000000e+00
 0.000000e+00 0.000000e+00 0.000000e+00 8.820829e-01 1.179171e-01
 0.000000e+00 0.000000e+00 0.000000e+00 0.000000e+00 0.000000e+00
<ENDHMM>
~h "b"
<BEGINHMM>
<NUMSTATES> 5
<STATE> 2
<MEAN> 39
 -1.414439e+01 -7.743544e+00 2.981896e+00 -3.338959e+00 -1.236701e+00 -4.557664e+00 -2.877691e+00 -5.862136e+00 -3.202762e+00 -3.443379e+00 -1.721877e+00 -6.371274e+00 5.579076e+01 6.232237e-03 -1.184823e-02 5.264243e-03 -6.519453e-03 1.211909e-02 -4.235385e-03 -3.512999e-03 -1.805082e-02 -5.453523e-03 -6.036744e-03 -7.011249e-03 -6.053052e-03 2.423646e-02 -9.010978e-04 1.120651e-04 9.610648e-04 -2.967558e-04 -9.534184e-04 -8.676232e-04 1.872276e-03 1.397487e-03 1.512468e-03 6.095680e-04 -1.876877e-03 -2.391075e-03 8.105070e-05
<VARIANCE> 39
 8.422131e+01 6.084932e+01 1.073184e+02 6.955961e+01 5.446898e+01 7.079699e+01 4.003558e+01 5.404599e+01 3.966318e+01 3.654010e+01 3.580028e+01 3.070767e+01 4.210256e+02 2.718938e+00 2.774098e+00 2.577952e+00 3.647003e+00 2.640600e+00 2.721259e+00 2.408645e+00 3.156996e+00 2.811730e+00 2.666958e+00 2.489032e+00 1.730705e+00 5.594234e+00 4.269334e-01 4.867562e-01 4.137151e-01 6.318184e-01 4.706049e-01 4.998694e-01 4.513086e-01 5.820031e-01 5.208243e-01 5.037161e-01 4.586620e-01 3.360353e-01 8.262612e-01
<GCONST> 1.297615e+02
<STATE> 3
<MEAN> 39
 -1.414439e+01 -7.743544e+00 2.981896e+00 -3.338959e+00 -1.236701e+00 -4.557664e+00 -2.877691e+00 -5.862136e+00 -3.202762e+00 -3.443379e+00 -1.721877e+00 -6.371274e+00 5.579076e+01 6.232237e-03 -1.184823e-02 5.264243e-03 -6.519453e-03 1.211909e-02 -4.235385e-03 -3.512999e-03 -1.805082e-02 -5.453523e-03 -6.036744e-03 -7.011249e-03 -6.053052e-03 2.423646e-02 -9.010978e-04 1.120651e-04 9.610648e-04 -2.967558e-04 -9.534184e-04 -8.676232e-04 1.872276e-03 1.397487e-03 1.512468e-03 6.095680e-04 -1.876877e-03 -2.391075e-03 8.105070e-05
<VARIANCE> 39
 8.422131e+01 6.084932e+01 1.073184e+02 6.955961e+01 5.446898e+01 7.079699e+01 4.003558e+01 5.404599e+01 3.966318e+01 3.654010e+01 3.580028e+01 3.070767e+01 4.210256e+02 2.718938e+00 2.774098e+00 2.577952e+00 3.647003e+00 2.640600e+00 2.721259e+00 2.408645e+00 3.156996e+00 2.811730e+00 2.666958e+00 2.489032e+00 1.730705e+00 5.594234e+00 4.269334e-01 4.867562e-01 4.137151e-01 6.318184e-01 4.706049e-01 4.998694e-01 4.513086e-01 5.820031e-01 5.208243e-01 5.037161e-01 4.586620e-01 3.360353e-01 8.262612e-01
<GCONST> 1.297615e+02
<STATE> 4
<MEAN> 39
 -1.414439e+01 -7.743544e+00 2.981896e+00 -3.338959e+00 -1.236701e+00 -4.557664e+00 -2.877691e+00 -5.862136e+00 -3.202762e+00 -3.443379e+00 -1.721877e+00 -6.371274e+00 5.579076e+01 6.232237e-03 -1.184823e-02 5.264243e-03 -6.519453e-03 1.211909e-02 -4.235385e-03 -3.512999e-03 -1.805082e-02 -5.453523e-03 -6.036744e-03 -7.011249e-03 -6.053052e-03 2.423646e-02 -9.010978e-04 1.120651e-04 9.610648e-04 -2.967558e-04 -9.534184e-04 -8.676232e-04 1.872276e-03 1.397487e-03 1.512468e-03 6.095680e-04 -1.876877e-03 -2.391075e-03 8.105070e-05
<VARIANCE> 39
 8.422131e+01 6.084932e+01 1.073184e+02 6.955961e+01 5.446898e+01 7.079699e+01 4.003558e+01 5.404599e+01 3.966318e+01 3.654010e+01 3.580028e+01 3.070767e+01 4.210256e+02 2.718938e+00 2.774098e+00 2.577952e+00 3.647003e+00 2.640600e+00 2.721259e+00 2.408645e+00 3.156996e+00 2.811730e+00 2.666958e+00 2.489032e+00 1.730705e+00 5.594234e+00 4.269334e-01 4.867562e-01 4.137151e-01 6.318184e-01 4.706049e-01 4.998694e-01 4.513086e-01 5.820031e-01 5.208243e-01 5.037161e-01 4.586620e-01 3.360353e-01 8.262612e-01
<GCONST> 1.297615e+02
<TRANSP> 5
 0.000000e+00 1.000000e+00 0.000000e+00 0.000000e+00 0.000000e+00
 0.000000e+00 6.000000e-01 4.000000e-01 0.000000e+00 0.000000e+00
 0.000000e+00 0.000000e+00 6.000000e-01 4.000000e-01 0.000000e+00
 0.000000e+00 0.000000e+00 0.000000e+00 7.000000e-01 3.000000e-01
 0.000000e+00 0.000000e+00 0.000000e+00 0.000000e+00 0.000000e+00
<ENDHMM>
~h "e"
<BEGINHMM>
<NUMSTATES> 5
<STATE> 2
<MEAN> 39
 -1.326456e+01 -7.388968e+00 6.230166e+00 -4.580546e+00 -1.762536e+00 -6.061622e+00 -8.708351e-01 -7.787711e+00 -2.801521e+00 -1.083377e+00 -3.248287e+00 -6.727996e+00 5.994219e+01 1.127134e-01 -9.515044e-02 9.341388e-02 -5.334785e-02 8.344519e-02 -4.535363e-02 1.294023e-02 -4.290435e-02 1.769592e-03 -5.549085e-04 -4.853841e-02 -5.623780e-02 2.384025e-01 7.522758e-04 -5.803243e-05 1.951226e-03 5.715984e-04 1.655614e-03 7.051896e-04 -2.342697e-03 -1.315768e-04 1.060632e-04 -1.507364e-03 5.653204e-04 -4.636738e-04 1.996508e-03
<VARIANCE> 39
 7.822680e+01 5.465668e+01 1.156582e+02 9.041803e+01 5.569364e+01 7.978615e+01 4.329698e+01 6.084325e+01 2.593263e+01 4.203212e+01 2.934675e+01 2.290510e+01 3.619446e+02 3.195462e+00 2.793071e+00 2.704815e+00 3.823090e+00 2.454491e+00 3.155468e+00 2.158991e+00 3.555793e+00 2.253074e+00 2.792773e+00 2.166749e+00 1.330275e+00 6.967847e+00 5.067690e-01 5.192424e-01 4.300454e-01 6.399533e-01 4.325398e-01 6.235282e-01 3.796273e-01 6.092229e-01 4.271180e-01 5.118693e-01 4.098049e-01 2.669551e-01 1.018914e+00
<GCONST> 1.292997e+02
<STATE> 3
<MEAN> 39
 -1.281369e+01 -7.781804e+00 6.645538e+00 -4.789565e+00 -1.398877e+00 -6.260785e+00 -8.197181e-01 -7.980143e+00 -2.790462e+00 -1.124881e+00 -3.431016e+00 -6.967293e+00 6.097499e+01 1.127320e-01 -9.356421e-02 1.001454e-01 -4.867353e-02 8.781695e-02 -4.311891e-02 4.295499e-03 -4.217953e-02 2.626244e-03 -7.264424e-03 -4.525845e-02 -5.590993e-02 2.423352e-01 -3.198022e-04 6.314812e-04 1.558582e-03 1.061612e-03 1.023199e-03 5.028956e-04 -2.096653e-03 1.889516e-04 1.531321e-04 -1.510379e-03 1.010417e-03 3.780681e-04 5.609455e-04
<VARIANCE> 39
 7.550475e+01 5.426368e+01 1.103335e+02 9.049040e+01 5.668689e+01 7.651926e+01 4.466475e+01 5.870018e+01 2.529415e+01 4.383112e+01 2.949965e+01 2.254007e+01 3.323969e+02 3.177853e+00 2.849290e+00 2.737049e+00 3.916890e+00 2.449605e+00 3.187187e+00 2.145004e+00 3.515410e+00 2.180356e+00 2.855157e+00 2.230979e+00 1.351007e+00 7.056369e+00 5.034139e-01 5.308501e-01 4.367377e-01 6.539559e-01 4.325101e-01 6.320440e-01 3.744024e-01 5.990394e-01 4.110945e-01 5.211829e-01 4.233243e-01 2.706825e-01 1.031350e+00
<GCONST> 1.292636e+02
<STATE> 4
<MEAN> 39
 -1.231387e+01 -8.205529e+00 7.524272e+00 -5.262007e+00 -9.654597e-01 -6.363929e+00 -5.242579e-01 -8.334152e+00 -2.806644e+00 -1.243025e+00 -3.686007e+00 -7.172805e+00 6.251264e+01 9.778763e-02 -8.725688e-02 1.037039e-01 -3.052101e-02 8.301187e-02 -4.796121e-02 -2.491232e-03 -3.377827e-02 5.414642e-03 -2.120457e-02 -3.311017e-02 -4.656649e-02 2.341368e-01 -1.560555e-03 1.075358e-03 1.992753e-04 2.160405e-03 -5.287519e-04 6.773038e-05 -1.735455e-03 1.510146e-03 1.603649e-04 -8.687901e-04 1.481807e-03 1.690794e-03 -2.469077e-03
<VARIANCE> 39
 6.989650e+01 5.366348e+01 1.053035e+02 9.174548e+01 5.733270e+01 7.121237e+01 4.624648e+01 5.654033e+01 2.385276e+01 4.811017e+01 2.962980e+01 2.149964e+01 2.900833e+02 3.046680e+00 2.914177e+00 2.755088e+00 4.010633e+00 2.366313e+00 3.287006e+00 2.112702e+00 3.367892e+00 1.983561e+00 2.925460e+00 2.302500e+00 1.371727e+00 7.047859e+00 4.766774e-01 5.453845e-01 4.473353e-01 6.704757e-01 4.212682e-01 6.579345e-01 3.642527e-01 5.629300e-01 3.699503e-01 5.287223e-01 4.396344e-01 2.724610e-01 1.029868e+00
<GCONST> 1.287561e+02
<TRANSP> 5
 0.000000e+00 1.000000e+00 0.000000e+00 0.000000e+00 0.000000e+00
 0.000000e+00 7.581343e-01 2.418656e-01 0.000000e+00 0.000000e+00
 0.000000e+00 0.000000e+00 7.581343e-01 2.418657e-01 0.000000e+00
 0.000000e+00 0.000000e+00 0.000000e+00 8.859900e-01 1.140100e-01
 0.000000e+00 0.000000e+00 0.000000e+00 0.000000e+00 0.000000e+00
<ENDHMM>
~h "h"
<BEGINHMM>
<NUMSTATES> 5
<STATE> 2
<MEAN> 39
 -1.398885e+01 -8.247071e+00 3.103219e+00 -3.138160e+00 -3.580363e-01 -5.660912e+00 -2.467249e+00 -6.188911e+00 -2.719855e+00 -3.588009e+00 -2.113383e+00 -6.498718e+00 5.807997e+01 1.937439e-02 -1.895756e-02 1.846105e-02 2.062731e-02 -3.251900e-03 -1.478524e-02 -1.791238e-02 2.022079e-02 2.594464e-03 1.291067e-02 -1.637259e-02 -7.714279e-03 1.216222e-02 -1.854085e-03 2.449720e-03 -1.403459e-03 4.246850e-04 2.791337e-04 2.985874e-03 -1.498333e-04 4.638108e-04 1.049198e-04 -3.442783e-04 1.880241e-03 7.826944e-04 -3.681513e-03
<VARIANCE> 39
 8.266958e+01 5.913780e+01 9.559165e+01 6.282853e+01 4.842075e+01 7.090182e+01 4.548426e+01 5.215946e+01 3.907267e+01 3.871993e+01 3.948671e+01 2.700498e+01 3.773724e+02 3.522750e+00 3.134188e+00 2.432372e+00 4.222175e+00 2.667161e+00 3.061857e+00 2.728550e+00 3.141039e+00 3.274196e+00 3.124687e+00 3.096854e+00 1.825148e+00 5.706272e+00 5.398632e-01 5.648203e-01 3.866022e-01 7.147881e-01 4.726254e-01 5.644320e-01 5.080529e-01 5.901850e-01 6.068128e-01 6.005361e-01 5.731399e-01 3.510452e-01 8.758655e-01
<GCONST> 1.320453e+02
<STATE> 3
<MEAN> 39
 -1.393315e+01 -8.306340e+00 3.137335e+00 -3.049112e+00 -3.686631e-01 -5.688037e+00 -2.552878e+00 -6.087724e+00 -2.701861e+00 -3.537274e+00 -2.174737e+00 -6.519181e+00 5.805191e+01 8.428953e-03 -5.728247e-03 7.126612e-03 2.251577e-02 -7.509282e-04 1.567905e-04 -1.831414e-02 2.298703e-02 4.981179e-03 1.157866e-02 -7.047222e-03 -3.161665e-03 -1.069202e-02 -2.430794e-03 2.777920e-03 -2.780120e-03 2.440506e-04 2.258779e-04 3.211855e-03 -1.269488e-04 1.037544e-03 6.291033e-04 -7.264073e-04 2.306818e-03 1.127523e-03 -5.047670e-03
<VARIANCE> 39
 8.188002e+01 5.895087e+01 9.547295e+01 6.141186e+01 4.780022e+01 6.969803e+01 4.450054e+01 5.252379e+01 3.845306e+01 3.777142e+01 3.971372e+01 2.692024e+01 3.778217e+02 3.421226e+00 3.120397e+00 2.439965e+00 4.197860e+00 2.656192e+00 3.046292e+00 2.688817e+00 3.145172e+00 3.257009e+00 3.092490e+00 3.088560e+00 1.831267e+00 5.680208e+00 5.243756e-01 5.592915e-01 3.899265e-01 7.108009e-01 4.705478e-01 5.570436e-01 5.000983e-01 5.874400e-01 6.060896e-01 5.968056e-01 5.708316e-01 3.540082e-01 8.657898e-01
<GCONST> 1.317596e+02
<STATE> 4
<MEAN> 39
 -1.455571e+01 -8.104655e+00 2.686726e+00 -2.722412e+00 -5.303065e-01 -5.245927e+00 -2.691314e+00 -5.925225e+00 -2.631305e+00 -3.472588e+00 -2.133640e+00 -6.366325e+00 5.646595e+01 -1.544331e-02 2.117242e-02 -3.618373e-02 2.732665e-02 3.176800e-03 3.125428e-02 -2.221919e-02 3.109119e-02 1.315213e-02 1.044184e-02 6.407368e-03 9.222003e-03 -8.377270e-02 -1.953818e-03 2.236607e-03 -3.444164e-03 -1.168563e-04 1.172871e-04 2.083331e-03 -6.119350e-04 2.263470e-04 3.828355e-04 -1.490939e-03 1.463712e-03 1.184227e-03 -5.063975e-03
<VARIANCE> 39
 8.100907e+01 5.858764e+01 9.638759e+01 5.775440e+01 4.655666e+01 6.792289e+01 4.045688e+01 5.260392e+01 3.650697e+01 3.551874e+01 3.768908e+01 2.696160e+01 3.947268e+02 3.079358e+00 2.939378e+00 2.353830e+00 3.907606e+00 2.558032e+00 2.937672e+00 2.548137e+00 3.041048e+00 3.117698e+00 2.946697e+00 2.938483e+00 1.804374e+00 5.346467e+00 4.748349e-01 5.225967e-01 3.818910e-01 6.660008e-01 4.604317e-01 5.383354e-01 4.798760e-01 5.668522e-01 5.910155e-01 5.702047e-01 5.461347e-01 3.523335e-01 8.124670e-01
<GCONST> 1.302041e+02
<TRANSP> 5
 0.000000e+00 1.000000e+00 0.000000e+00 0.000000e+00 0.000000e+00
 0.000000e+00 7.623983e-01 2.376017e-01 0.000000e+00 0.000000e+00
 0.000000e+00 0.000000e+00 7.623982e-01 2.376018e-01 0.000000e+00
 0.000000e+00 0.000000e+00 0.000000e+00 8.940952e-01 1.059049e-01
 0.000000e+00 0.000000e+00 0.000000e+00 0.000000e+00 0.000000e+00
<ENDHMM>
~h "i"
<BEGINHMM>
<NUMSTATES> 5
<STATE> 2
<MEAN> 39
 -1.509594e+01 -6.096701e+00 3.774876e+00 -2.817833e+00 -3.065741e+00 -2.571116e+00 -2.751840e+00 -4.552062e+00 -3.963388e+00 -1.800090e+00 -2.245079e-01 -5.812057e+00 5.225706e+01 1.503768e-02 -1.874295e-02 1.244079e-01 -3.050783e-02 -4.968273e-02 -3.921170e-02 2.261133e-02 -4.839092e-02 -3.776719e-02 -8.357294e-03 1.713334e-03 -2.881819e-02 1.394679e-01 -1.916609e-03 -1.588036e-04 8.617718e-04 1.024994e-03 -2.485469e-03 -1.713070e-03 -1.252292e-03 -1.552673e-03 1.605282e-03 -7.763231e-04 -1.111019e-03 7.519249e-04 -1.078011e-03
<VARIANCE> 39
 8.820389e+01 6.133139e+01 1.585776e+02 6.837248e+01 6.146522e+01 7.147844e+01 3.181265e+01 5.840809e+01 4.256910e+01 2.886280e+01 2.930457e+01 3.415435e+01 5.213546e+02 2.000203e+00 2.118451e+00 2.752208e+00 3.456689e+00 2.519287e+00 2.473651e+00 2.015903e+00 3.077302e+00 2.718716e+00 2.253734e+00 2.081041e+00 1.484102e+00 4.938375e+00 3.099936e-01 3.718402e-01 4.212501e-01 5.862783e-01 4.109681e-01 4.417109e-01 3.847814e-01 5.810248e-01 5.167684e-01 4.347888e-01 3.916515e-01 2.853894e-01 7.024761e-01
<GCONST> 1.268464e+02
<STATE> 3
<MEAN> 39
 -1.502482e+01 -6.195672e+00 4.325644e+00 -2.963266e+00 -3.278005e+00 -2.738739e+00 -2.661268e+00 -4.790431e+00 -4.117795e+00 -1.840038e+00 -2.387167e-01 -5.937016e+00 5.288671e+01 1.320546e-02 -2.298443e-02 1.299461e-01 -3.353050e-02 -5.446033e-02 -4.243450e-02 2.126942e-02 -5.646192e-02 -3.600665e-02 -1.130371e-02 -3.252225e-03 -3.030157e-02 1.463657e-01 2.212586e-04 -1.291861e-03 1.318340e-03 -1.278074e-03 -9.764003e-04 -1.111075e-03 -2.951152e-04 -1.709720e-03 3.974768e-06 -5.538781e-04 -1.174652e-03 -5.649017e-04 2.431624e-03
<VARIANCE> 39
 8.656310e+01 6.072239e+01 1.616180e+02 6.897420e+01 6.034658e+01 7.212258e+01 3.222581e+01 5.923568e+01 4.374300e+01 2.969953e+01 3.005735e+01 3.419813e+01 5.149769e+02 2.066853e+00 2.131091e+00 2.944267e+00 3.535126e+00 2.553084e+00 2.547446e+00 2.047895e+00 3.138414e+00 2.795859e+00 2.329506e+00 2.121087e+00 1.491631e+00 5.056846e+00 3.177143e-01 3.740501e-01 4.475203e-01 5.981292e-01 4.195670e-01 4.526493e-01 3.899136e-01 5.931557e-01 5.283594e-01 4.456705e-01 3.971916e-01 2.869852e-01 7.140116e-01
<GCONST> 1.275216e+02
<STATE> 4
<MEAN> 39
 -1.476823e+01 -6.568717e+00 5.478756e+00 -3.504194e+00 -3.661060e+00 -2.965387e+00 -2.398444e+00 -5.344811e+00 -4.432955e+00 -1.781646e+00 -4.036843e-01 -6.187509e+00 5.434157e+01 3.526903e-02 -4.263697e-02 1.419885e-01 -5.289241e-02 -4.524378e-02 -6.164122e-02 2.542557e-02 -6.822608e-02 -3.787605e-02 -1.334745e-02 -1.756088e-02 -3.974526e-02 1.986991e-01 2.397291e-03 -2.104291e-03 4.595274e-05 -1.935056e-03 1.141943e-03 -2.612219e-03 3.385434e-04 -7.440001e-04 -3.726627e-04 -2.795336e-04 -1.586075e-03 -9.739837e-04 4.911638e-03
<VARIANCE> 39
 8.350963e+01 6.113659e+01 1.667212e+02 7.204849e+01 5.857999e+01 7.207172e+01 3.368014e+01 6.119209e+01 4.520243e+01 3.082253e+01 3.220707e+01 3.361073e+01 5.026162e+02 2.224066e+00 2.203508e+00 3.335022e+00 3.795060e+00 2.566113e+00 2.631703e+00 2.118887e+00 3.251409e+00 2.882296e+00 2.434907e+00 2.164105e+00 1.507999e+00 5.581489e+00 3.330811e-01 3.843341e-01 4.973094e-01 6.372659e-01 4.268623e-01 4.650830e-01 4.029694e-01 6.105011e-01 5.387991e-01 4.593093e-01 3.997408e-01 2.909409e-01 7.679722e-01
<GCONST> 1.288166e+02
<TRANSP> 5
 0.000000e+00 1.000000e+00 0.000000e+00 0.000000e+00 0.000000e+00
 0.000000e+00 7.573091e-01 2.426908e-01 0.000000e+00 0.000000e+00
 0.000000e+00 0.000000e+00 7.573092e-01 2.426908e-01 0.000000e+00
 0.000000e+00 0.000000e+00 0.000000e+00 8.862216e-01 1.137784e-01
 0.000000e+00 0.000000e+00 0.000000e+00 0.000000e+00 0.000000e+00
<ENDHMM>
~h "k"
<BEGINHMM>
<NUMSTATES> 5
<STATE> 2
<MEAN> 39
 -1.311572e+01 -7.856446e+00 4.238678e+00 -3.651484e+00 -2.920858e-01 -5.648937e+00 -4.680617e+00 -6.090064e+00 -2.867989e+00 -2.309059e+00 -4.683861e-01 -7.060857e+00 5.862187e+01 -2.815436e-02 2.727420e-02 3.240109e-02 1.498653e-02 -3.708952e-02 -2.168942e-02 2.501973e-02 -2.010003e-03 -2.194334e-02 -1.230095e-02 3.721206e-04 1.007802e-02 -3.033210e-02 6.620703e-04 5.786197e-04 -1.185925e-03 -3.144174e-04 -4.564798e-04 8.736195e-04 -1.222009e-04 -2.843629e-03 2.238728e-04 -4.149744e-04 -9.811991e-04 7.151989e-04 -1.818733e-03
<VARIANCE> 39
 7.684830e+01 6.464719e+01 1.017061e+02 7.383707e+01 5.297114e+01 6.679841e+01 4.826648e+01 5.203483e+01 4.493364e+01 3.595451e+01 3.302348e+01 3.053405e+01 3.705753e+02 3.093325e+00 3.824909e+00 3.347566e+00 4.872392e+00 2.919810e+00 3.388162e+00 2.977295e+00 3.466185e+00 3.650053e+00 3.175166e+00 2.654490e+00 2.055243e+00 7.826945e+00 5.256650e-01 7.155531e-01 5.528824e-01 8.964494e-01 5.517933e-01 6.488481e-01 5.715429e-01 6.503364e-01 6.699197e-01 6.251270e-01 5.042844e-01 4.247768e-01 1.293021e+00
<GCONST> 1.355726e+02
<STATE> 3
<MEAN> 39
 -1.324227e+01 -7.721665e+00 4.336368e+00 -3.588864e+00 -4.591883e-01 -5.703784e+00 -4.569777e+00 -6.099267e+00 -2.959707e+00 -2.354955e+00 -4.711293e-01 -7.005147e+00 5.842874e+01 -2.589872e-02 2.876556e-02 2.642082e-02 1.316958e-02 -3.832387e-02 -1.725220e-02 2.414955e-02 -1.273192e-02 -2.112044e-02 -1.387090e-02 -4.014867e-03 1.339986e-02 -3.842682e-02 2.629342e-04 2.261283e-04 -1.836534e-03 -3.019318e-04 1.328828e-04 1.199302e-03 -4.674606e-04 -2.723404e-03 1.142030e-04 -4.932965e-04 -1.240696e-03 8.889055e-04 -2.301144e-03
<VARIANCE> 39
 7.655041e+01 6.521290e+01 1.049935e+02 7.450764e+01 5.299988e+01 6.728212e+01 4.891753e+01 5.182671e+01 4.453479e+01 3.548096e+01 3.261164e+01 3.065646e+01 3.751889e+02 3.066188e+00 3.828824e+00 3.381210e+00 4.937349e+00 2.992122e+00 3.357339e+00 3.014024e+00 3.444512e+00 3.588526e+00 3.142664e+00 2.653471e+00 2.048332e+00 7.771771e+00 5.238007e-01 7.163763e-01 5.596547e-01 9.048029e-01 5.675105e-01 6.418667e-01 5.812989e-01 6.497951e-01 6.584960e-01 6.186507e-01 5.030752e-01 4.240805e-01 1.292317e+00
<GCONST> 1.356360e+02
<STATE> 4
<MEAN> 39
 -1.402669e+01 -6.976919e+00 3.654846e+00 -3.184711e+00 -9.221641e-01 -5.232807e+00 -4.426407e+00 -5.888624e+00 -2.951738e+00 -2.447789e+00 -4.395376e-01 -6.608026e+00 5.636728e+01 -2.753302e-02 3.040642e-02 1.019060e-02 1.271633e-02 -3.821091e-02 -2.920290e-03 2.279030e-02 -2.036854e-02 -2.219854e-02 -1.465504e-02 -1.194036e-02 2.042297e-02 -6.139078e-02 1.470675e-04 -8.052751e-04 -1.358038e-03 2.665390e-05 1.323150e-03 6.684943e-04 -1.034746e-03 -2.706795e-03 -6.497976e-04 -6.975716e-04 -2.025251e-03 8.424227e-04 -1.033981e-03
<VARIANCE> 39
 7.903864e+01 6.616180e+01 1.123036e+02 7.523122e+01 5.261062e+01 7.023740e+01 4.771561e+01 5.212515e+01 4.281588e+01 3.345834e+01 3.172421e+01 3.143399e+01 4.166330e+02 2.877203e+00 3.588119e+00 3.224124e+00 4.764698e+00 2.957590e+00 3.170355e+00 2.987006e+00 3.371492e+00 3.405073e+00 2.986280e+00 2.613827e+00 1.980208e+00 7.221298e+00 4.917406e-01 6.690567e-01 5.393082e-01 8.599650e-01 5.661856e-01 6.047826e-01 5.817756e-01 6.426110e-01 6.266781e-01 5.879627e-01 4.964467e-01 4.116120e-01 1.197479e+00
<GCONST> 1.347319e+02
<TRANSP> 5
 0.000000e+00 1.000000e+00 0.000000e+00 0.000000e+00 0.000000e+00
 0.000000e+00 7.568372e-01 2.431628e-01 0.000000e+00 0.000000e+00
 0.000000e+00 0.000000e+00 7.568373e-01 2.431627e-01 0.000000e+00
 0.000000e+00 0.000000e+00 0.000000e+00 8.842833e-01 1.157167e-01
 0.000000e+00 0.000000e+00 0.000000e+00 0.000000e+00 0.000000e+00
<ENDHMM>
~h "l"
<BEGINHMM>
<NUMSTATES> 5
<STATE> 2
<MEAN> 39
 -9.305767e+00 -9.427560e+00 3.176898e+00 -1.302484e+01 9.980273e-01 -9.180729e-01 -2.703002e+00 -1.159895e+01 -3.180221e+00 -5.480160e+00 -3.136270e+00 -7.233225e+00 6.699464e+01 -7.779057e-02 3.356006e-02 2.330332e-02 7.753675e-02 -8.445404e-02 -8.130411e-02 -5.185854e-02 -1.922266e-02 -5.384899e-02 -3.498144e-02 -1.714115e-02 -5.291834e-02 -1.073890e-01 -1.536703e-03 1.962124e-04 -1.544191e-03 7.537406e-03 -4.392996e-04 -2.171791e-03 1.525745e-03 -7.913651e-03 -1.823154e-03 -9.729193e-03 -7.859903e-04 -3.479600e-03 -6.761236e-03
<VARIANCE> 39
 5.203753e+01 4.793819e+01 1.011639e+02 1.428740e+02 5.576017e+01 4.886723e+01 6.099035e+01 6.067350e+01 3.903874e+01 3.905058e+01 3.226064e+01 1.845275e+01 2.345507e+02 1.730086e+00 2.642569e+00 1.944198e+00 4.038550e+00 2.646379e+00 2.407098e+00 1.938543e+00 3.054743e+00 2.790806e+00 2.257151e+00 2.196176e+00 1.437015e+00 3.742567e+00 2.806486e-01 3.817429e-01 3.240127e-01 6.812152e-01 4.605750e-01 4.029106e-01 3.207007e-01 5.402054e-01 5.001993e-01 3.814625e-01 3.635654e-01 2.797768e-01 6.134191e-01
<GCONST> 1.242881e+02
<STATE> 3
<MEAN> 39
 -9.629517e+00 -9.322034e+00 3.269653e+00 -1.264191e+01 6.449893e-01 -1.299740e+00 -2.937853e+00 -1.167324e+01 -3.391976e+00 -5.624382e+00 -3.212350e+00 -7.457059e+00 6.652466e+01 -8.342069e-02 3.126744e-02 1.843970e-02 1.109957e-01 -8.553652e-02 -9.136120e-02 -4.716416e-02 -4.935722e-02 -5.790397e-02 -7.125679e-02 -2.018108e-02 -6.363727e-02 -1.319436e-01 -4.412192e-03 -3.080242e-03 -1.380168e-03 1.212067e-02 3.183194e-03 -3.047769e-03 3.259066e-03 -2.907038e-03 4.096553e-03 -4.845380e-03 3.428076e-04 3.229478e-03 -9.345607e-03
<VARIANCE> 39
 5.281697e+01 4.591455e+01 1.028947e+02 1.391786e+02 5.284761e+01 4.571518e+01 5.983289e+01 6.402448e+01 3.963257e+01 3.693430e+01 3.153065e+01 2.007846e+01 2.408666e+02 1.799031e+00 2.661113e+00 1.911156e+00 4.043059e+00 2.568683e+00 2.430190e+00 2.007583e+00 3.132389e+00 2.765754e+00 2.304986e+00 2.254887e+00 1.431989e+00 3.632657e+00 2.913552e-01 3.939724e-01 3.145205e-01 6.776109e-01 4.536822e-01 4.086809e-01 3.297070e-01 5.505636e-01 4.960456e-01 3.881679e-01 3.804917e-01 2.763946e-01 5.997445e-01
<GCONST> 1.243869e+02
<STATE> 4
<MEAN> 39
 -1.030944e+01 -9.244706e+00 2.717818e+00 -1.180612e+01 7.572210e-02 -1.738636e+00 -3.029009e+00 -1.177928e+01 -3.457092e+00 -6.039546e+00 -3.473908e+00 -7.558098e+00 6.497889e+01 -9.443669e-02 6.572438e-03 2.336478e-02 1.701126e-01 -7.611833e-02 -1.194786e-01 -5.009235e-02 -4.583583e-02 -3.339563e-02 -6.788822e-02 -1.737510e-02 -4.550426e-02 -1.544203e-01 -5.737004e-03 -5.028094e-03 1.148247e-03 9.782772e-03 7.041235e-03 -4.194938e-03 3.287129e-03 3.794323e-03 9.376504e-03 5.229809e-03 2.324455e-03 9.934489e-03 -5.859409e-03
<VARIANCE> 39
 5.614573e+01 4.239091e+01 9.762808e+01 1.380702e+02 4.814102e+01 4.269746e+01 5.700546e+01 7.033252e+01 3.862713e+01 3.535684e+01 3.072336e+01 2.146148e+01 2.659773e+02 1.938600e+00 2.629394e+00 1.827910e+00 3.937836e+00 2.406554e+00 2.474781e+00 2.092148e+00 3.144353e+00 2.689859e+00 2.292376e+00 2.332044e+00 1.428460e+00 3.489137e+00 3.139301e-01 4.026912e-01 3.001181e-01 6.544024e-01 4.261591e-01 4.187247e-01 3.448910e-01 5.461907e-01 4.922645e-01 3.863290e-01 4.100357e-01 2.705913e-01 5.798822e-01
<GCONST> 1.242306e+02
<TRANSP> 5
 0.000000e+00 1.000000e+00 0.000000e+00 0.000000e+00 0.000000e+00
 0.000000e+00 7.585675e-01 2.414325e-01 0.000000e+00 0.000000e+00
 0.000000e+00 0.000000e+00 7.585676e-01 2.414325e-01 0.000000e+00
 0.000000e+00 0.000000e+00 0.000000e+00 8.856045e-01 1.143955e-01
 0.000000e+00 0.000000e+00 0.000000e+00 0.000000e+00 0.000000e+00
<ENDHMM>
~h "m"
<BEGINHMM>
<NUMSTATES> 5
<STATE> 2
<MEAN> 39
 -1.074483e+01 -8.858222e+00 6.433861e+00 -4.614074e+00 1.450385e-01 -4.885185e+00 -3.839851e+00 -7.842808e+00 -4.561753e+00 -3.817982e+00 -8.402241e-01 -7.808740e+00 6.237123e+01 1.198901e-02 -2.776488e-02 9.371284e-03 -1.071754e-02 4.664500e-03 -1.194422e-02 -2.005774e-03 2.055895e-03 -2.724673e-03 -2.550199e-02 -1.605459e-02 -6.191961e-03 3.875849e-02 -2.530398e-03 3.498260e-04 -8.765580e-04 7.978650e-04 -1.874121e-03 -1.268700e-03 1.025588e-03 1.843696e-03 1.056368e-03 4.001505e-04 -5.635393e-04 1.270239e-03 -2.641986e-03
<VARIANCE> 39
 7.003620e+01 5.127504e+01 9.581350e+01 7.020534e+01 5.008458e+01 6.301197e+01 4.640898e+01 5.378067e+01 4.278769e+01 3.901765e+01 3.969650e+01 2.821148e+01 2.525715e+02 2.818729e+00 3.092783e+00 3.197432e+00 4.508097e+00 2.751004e+00 2.927582e+00 2.745315e+00 3.557488e+00 3.118144e+00 2.757830e+00 2.889833e+00 1.818784e+00 4.911257e+00 4.455741e-01 5.317162e-01 5.156583e-01 7.693260e-01 4.975342e-01 5.142665e-01 4.941736e-01 6.393232e-01 5.774434e-01 5.190913e-01 5.385330e-01 3.499373e-01 7.491024e-01
<GCONST> 1.310884e+02
<STATE> 3
<MEAN> 39
 -1.070597e+01 -8.978414e+00 6.461938e+00 -4.661242e+00 1.677387e-01 -4.948229e+00 -3.832705e+00 -7.830633e+00 -4.566487e+00 -3.924076e+00 -9.194246e-01 -7.835206e+00 6.253315e+01 1.015192e-03 -2.535530e-02 4.599364e-03 -6.955344e-03 -1.254320e-03 -1.665091e-02 2.348025e-03 8.089384e-03 2.360568e-03 -2.349180e-02 -1.970582e-02 -1.997732e-03 2.611873e-02 -2.560834e-03 9.108576e-04 -8.228432e-04 9.930807e-04 -1.372348e-03 -1.024266e-03 9.873144e-04 1.142781e-03 8.881445e-04 7.162652e-04 -6.500233e-04 8.564575e-04 -3.142715e-03
<VARIANCE> 39
 6.832188e+01 5.058883e+01 9.517278e+01 6.934941e+01 4.995605e+01 6.211625e+01 4.679607e+01 5.328484e+01 4.253676e+01 3.924952e+01 3.967683e+01 2.792545e+01 2.451416e+02 2.777093e+00 3.119451e+00 3.166705e+00 4.469783e+00 2.743732e+00 2.910751e+00 2.747483e+00 3.538336e+00 3.125510e+00 2.747572e+00 2.869903e+00 1.803282e+00 4.890038e+00 4.403639e-01 5.366542e-01 5.109591e-01 7.614428e-01 4.956340e-01 5.107108e-01 4.931030e-01 6.354387e-01 5.805265e-01 5.164253e-01 5.330373e-01 3.466882e-01 7.420191e-01
<GCONST> 1.308442e+02
<STATE> 4
<MEAN> 39
 -1.079193e+01 -9.041116e+00 6.196870e+00 -4.824479e+00 2.034215e-01 -4.938257e+00 -3.705181e+00 -7.872270e+00 -4.545506e+00 -4.084233e+00 -1.042384e+00 -7.846464e+00 6.241289e+01 -1.660085e-02 -1.856312e-02 -9.049247e-03 -7.616598e-04 -5.908685e-03 -2.479184e-02 9.519729e-03 7.753240e-03 1.076722e-02 -1.778146e-02 -2.577975e-02 -1.651156e-04 3.361031e-03 -2.911032e-03 1.810448e-03 -1.350393e-03 1.484337e-03 -1.142276e-03 -7.728869e-04 7.971826e-04 2.511212e-04 9.041357e-04 1.408361e-03 -3.243096e-04 7.572735e-04 -4.537205e-03
<VARIANCE> 39
 6.713386e+01 4.924176e+01 9.507634e+01 7.049235e+01 5.009367e+01 6.032261e+01 4.570768e+01 5.274749e+01 4.221688e+01 3.923912e+01 3.935384e+01 2.743983e+01 2.427982e+02 2.655557e+00 3.072770e+00 3.035963e+00 4.426502e+00 2.706446e+00 2.821401e+00 2.677083e+00 3.423816e+00 3.076328e+00 2.707740e+00 2.802528e+00 1.740853e+00 4.788911e+00 4.220588e-01 5.288923e-01 4.888274e-01 7.504566e-01 4.874497e-01 4.948322e-01 4.811018e-01 6.129718e-01 5.717016e-01 5.088886e-01 5.164728e-01 3.342201e-01 7.181215e-01
<GCONST> 1.300302e+02
<TRANSP> 5
 0.000000e+00 1.000000e+00 0.000000e+00 0.000000e+00 0.000000e+00
 0.000000e+00 7.523529e-01 2.476471e-01 0.000000e+00 0.000000e+00
 0.000000e+00 0.000000e+00 7.523531e-01 2.476469e-01 0.000000e+00
 0.000000e+00 0.000000e+00 0.000000e+00 8.800861e-01 1.199139e-01
 0.000000e+00 0.000000e+00 0.000000e+00 0.000000e+00 0.000000e+00
<ENDHMM>
~h "n"
<BEGINHMM>
<NUMSTATES> 5
<STATE> 2
<MEAN> 39
 -1.305524e+01 -7.594133e+00 4.119665e+00 -3.047415e+00 -1.429759e+00 -5.119503e+00 -3.308536e+00 -6.549596e+00 -3.626628e+00 -3.926205e+00 -3.013919e+00 -6.706030e+00 5.681093e+01 -5.371002e-02 7.187884e-03 -5.235613e-02 4.241849e-02 -3.222716e-02 1.752229e-02 -1.067465e-02 2.167435e-02 1.588715e-02 5.112174e-03 1.978675e-02 2.028577e-02 -1.181818e-01 -1.010198e-03 2.779363e-04 -1.620988e-03 -8.096558e-05 2.753582e-04 -2.916891e-05 -4.587686e-04 1.024664e-03 1.589832e-03 3.254414e-04 3.868049e-04 4.531683e-04 -1.888192e-03
<VARIANCE> 39
 7.293900e+01 5.730166e+01 9.698854e+01 6.959985e+01 5.595794e+01 6.189412e+01 4.162392e+01 5.568660e+01 4.218794e+01 4.182736e+01 4.134764e+01 2.944040e+01 3.578991e+02 2.322847e+00 2.984390e+00 2.637429e+00 3.840982e+00 2.733408e+00 2.881902e+00 2.491928e+00 3.444527e+00 2.715646e+00 3.038357e+00 2.789635e+00 1.841909e+00 5.926486e+00 3.753735e-01 5.347724e-01 4.219010e-01 6.586752e-01 4.970119e-01 5.431601e-01 4.683318e-01 6.221732e-01 5.117957e-01 5.735645e-01 5.089096e-01 3.499968e-01 8.954861e-01
<GCONST> 1.306931e+02
<STATE> 3
<MEAN> 39
 -1.330829e+01 -7.549633e+00 3.874923e+00 -2.864234e+00 -1.558789e+00 -5.036750e+00 -3.359781e+00 -6.445586e+00 -3.546226e+00 -3.909336e+00 -2.923144e+00 -6.619140e+00 5.626651e+01 -5.712846e-02 8.483274e-03 -5.947097e-02 4.313126e-02 -3.023647e-02 1.762347e-02 -1.136499e-02 2.670475e-02 2.259551e-02 6.161331e-03 2.042876e-02 2.190229e-02 -1.253362e-01 -5.324804e-04 1.292377e-04 -1.286493e-03 2.586600e-05 4.421584e-04 2.156426e-04 -1.630129e-05 8.212377e-04 1.535416e-03 2.546309e-04 -2.255555e-04 8.099433e-05 -1.084943e-03
<VARIANCE> 39
 7.307668e+01 5.757832e+01 9.879661e+01 6.829517e+01 5.441355e+01 6.220468e+01 4.076091e+01 5.576210e+01 4.161279e+01 4.084041e+01 4.064199e+01 2.932159e+01 3.652005e+02 2.305919e+00 3.012807e+00 2.623510e+00 3.806459e+00 2.738546e+00 2.887590e+00 2.480168e+00 3.434737e+00 2.677055e+00 3.008446e+00 2.806281e+00 1.839617e+00 5.961971e+00 3.747916e-01 5.412550e-01 4.233581e-01 6.593426e-01 5.005332e-01 5.479922e-01 4.679049e-01 6.222864e-01 5.052625e-01 5.712011e-01 5.156096e-01 3.523337e-01 9.143775e-01
<GCONST> 1.306424e+02
<STATE> 4
<MEAN> 39
 -1.360572e+01 -7.475201e+00 3.579201e+00 -2.582422e+00 -1.647747e+00 -4.984298e+00 -3.477683e+00 -6.347442e+00 -3.423725e+00 -3.929749e+00 -2.855788e+00 -6.517080e+00 5.563158e+01 -6.839748e-02 1.468784e-02 -7.272160e-02 4.950980e-02 -2.952021e-02 2.633687e-02 -9.818189e-03 3.825595e-02 3.086515e-02 6.233574e-03 2.099449e-02 2.458822e-02 -1.500663e-01 -1.255255e-04 -3.499065e-04 -5.461533e-04 -2.856436e-05 3.384093e-04 7.119066e-04 2.956078e-04 4.270155e-04 7.763395e-04 5.619039e-04 -5.080758e-04 -8.802395e-06 -2.039907e-04
<VARIANCE> 39
 7.282333e+01 5.787087e+01 9.960038e+01 6.633766e+01 5.208463e+01 6.269268e+01 4.046281e+01 5.586740e+01 4.065240e+01 3.973340e+01 3.958932e+01 2.873815e+01 3.713559e+02 2.256847e+00 3.025098e+00 2.572557e+00 3.726538e+00 2.719768e+00 2.865965e+00 2.466716e+00 3.447478e+00 2.625332e+00 2.956181e+00 2.802326e+00 1.851155e+00 5.935216e+00 3.691640e-01 5.457941e-01 4.199759e-01 6.523209e-01 5.001128e-01 5.482116e-01 4.669307e-01 6.262115e-01 4.950597e-01 5.637063e-01 5.192595e-01 3.596567e-01 9.329077e-01
<GCONST> 1.303824e+02
<TRANSP> 5
 0.000000e+00 1.000000e+00 0.000000e+00 0.000000e+00 0.000000e+00
 0.000000e+00 7.567064e-01 2.432936e-01 0.000000e+00 0.000000e+00
 0.000000e+00 0.000000e+00 7.567061e-01 2.432939e-01 0.000000e+00
 0.000000e+00 0.000000e+00 0.000000e+00 8.835558e-01 1.164442e-01
 0.000000e+00 0.000000e+00 0.000000e+00 0.000000e+00 0.000000e+00
<ENDHMM>
~h "o"
<BEGINHMM>
<NUMSTATES> 5
<STATE> 2
<MEAN> 39
 -1.815917e+01 -4.665341e+00 -1.966261e+00 -1.292887e+00 -3.338005e+00 -6.094041e-01 -2.695410e+00 -2.506456e+00 -1.769510e+00 -2.429822e+00 -4.011641e-01 -3.910798e+00 4.392591e+01 1.291903e-01 -5.451566e-02 9.525569e-02 -1.199590e-01 5.691454e-02 -5.690234e-02 -8.560396e-03 -6.377440e-02 -4.677693e-02 -4.046367e-03 5.392029e-03 -4.179678e-02 2.538321e-01 4.280575e-03 -2.716304e-03 5.157289e-03 -5.268865e-03 3.763466e-03 -1.177993e-03 -2.375024e-04 -1.397010e-03 -3.452566e-03 -2.715632e-04 -8.840440e-04 8.053198e-04 1.079737e-02
<VARIANCE> 39
 9.030692e+01 6.796339e+01 1.017950e+02 6.936405e+01 4.212492e+01 6.662646e+01 2.349635e+01 4.031693e+01 3.157527e+01 2.851867e+01 2.772285e+01 2.922796e+01 5.279926e+02 1.954914e+00 2.096276e+00 2.074809e+00 3.205158e+00 2.070035e+00 2.124465e+00 1.675789e+00 2.494255e+00 2.313509e+00 2.146217e+00 1.995349e+00 1.466093e+00 5.249981e+00 2.831323e-01 3.576618e-01 3.346744e-01 5.527089e-01 3.623040e-01 3.706198e-01 3.322772e-01 4.721156e-01 4.275670e-01 4.268598e-01 3.821702e-01 2.980266e-01 7.479017e-01
<GCONST> 1.223735e+02
<STATE> 3
<MEAN> 39
 -1.756004e+01 -4.945607e+00 -1.480341e+00 -1.878929e+00 -3.032431e+00 -8.481121e-01 -2.689890e+00 -2.796896e+00 -2.012549e+00 -2.472748e+00 -4.075563e-01 -4.113031e+00 4.517138e+01 1.430120e-01 -6.449874e-02 1.172440e-01 -1.402528e-01 7.347479e-02 -5.715407e-02 2.745898e-04 -7.192847e-02 -6.068878e-02 -7.502537e-03 1.209192e-04 -4.858937e-02 2.969637e-01 3.175641e-03 -2.248875e-03 4.630059e-03 -4.667356e-03 3.960741e-03 -1.143508e-04 2.746886e-03 -1.999042e-03 -3.202945e-03 -8.169576e-04 -1.015163e-03 -1.824281e-03 1.007796e-02
<VARIANCE> 39
 9.227564e+01 6.641214e+01 1.039393e+02 7.588436e+01 4.497542e+01 6.657455e+01 2.450284e+01 4.187597e+01 3.416229e+01 2.920377e+01 2.828969e+01 2.936367e+01 5.220793e+02 2.116551e+00 2.230068e+00 2.232045e+00 3.553698e+00 2.193949e+00 2.188134e+00 1.755149e+00 2.619372e+00 2.468157e+00 2.200460e+00 2.034492e+00 1.496142e+00 5.883198e+00 3.028565e-01 3.818548e-01 3.535967e-01 6.037294e-01 3.748784e-01 3.758139e-01 3.443978e-01 4.921794e-01 4.533906e-01 4.366304e-01 3.874554e-01 3.027668e-01 8.276130e-01
<GCONST> 1.241007e+02
<STATE> 4
<MEAN> 39
 -1.666796e+01 -5.283845e+00 -4.112320e-01 -3.000462e+00 -2.559997e+00 -1.274656e+00 -2.468999e+00 -3.426185e+00 -2.586587e+00 -2.422955e+00 -3.227783e-01 -4.452667e+00 4.712610e+01 1.593465e-01 -8.298582e-02 1.565089e-01 -1.493879e-01 7.982527e-02 -8.193564e-02 1.187195e-02 -8.841672e-02 -6.571051e-02 -4.972653e-03 -1.174731e-02 -6.876928e-02 3.678525e-01 1.348984e-03 -1.319878e-03 2.528851e-03 -5.615333e-04 7.149801e-04 -2.042159e-03 1.074550e-03 -1.847472e-03 -5.096138e-04 1.052547e-04 -9.462668e-04 -1.579410e-03 5.684028e-03
<VARIANCE> 39
 9.280272e+01 6.210437e+01 1.103459e+02 8.735801e+01 5.091413e+01 6.701952e+01 2.686635e+01 4.343075e+01 3.751563e+01 2.871440e+01 2.746538e+01 2.832749e+01 5.000850e+02 2.445203e+00 2.446001e+00 2.429586e+00 4.090279e+00 2.375755e+00 2.253513e+00 1.899516e+00 2.762316e+00 2.677048e+00 2.167220e+00 1.975716e+00 1.511844e+00 6.930671e+00 3.501950e-01 4.261419e-01 3.748904e-01 6.709327e-01 3.828947e-01 3.842223e-01 3.710381e-01 5.149752e-01 4.875436e-01 4.256600e-01 3.744517e-01 2.994168e-01 9.571112e-01
<GCONST> 1.261111e+02
<TRANSP> 5
 0.000000e+00 1.000000e+00 0.000000e+00 0.000000e+00 0.000000e+00
 0.000000e+00 7.630612e-01 2.369389e-01 0.000000e+00 0.000000e+00
 0.000000e+00 0.000000e+00 7.630610e-01 2.369390e-01 0.000000e+00
 0.000000e+00 0.000000e+00 0.000000e+00 8.965992e-01 1.034009e-01
 0.000000e+00 0.000000e+00 0.000000e+00 0.000000e+00 0.000000e+00
<ENDHMM>
~h "p"
<BEGINHMM>
<NUMSTATES> 5
<STATE> 2
<MEAN> 39
 -1.432013e+01 -7.336143e+00 3.651688e+00 -5.241705e+00 -9.709290e-01 -6.214106e+00 -3.020883e+00 -7.577813e+00 -4.036250e+00 -4.448254e+00 -1.897533e+00 -6.427934e+00 5.714579e+01 2.555862e-02 -2.623357e-02 -9.481786e-03 1.775608e-02 5.210397e-02 1.102234e-02 -5.076992e-02 -4.401965e-02 -3.630221e-02 -2.429151e-02 -2.702265e-02 -1.912108e-02 -9.515069e-03 -1.979738e-03 3.648003e-03 -1.050454e-02 2.261291e-03 1.747989e-03 6.118878e-03 -1.023092e-03 3.897350e-03 3.253071e-03 1.898339e-03 -7.389546e-04 2.628486e-03 -1.239540e-02
<VARIANCE> 39
 6.830080e+01 5.138908e+01 1.133678e+02 7.514472e+01 5.305478e+01 6.384344e+01 4.936466e+01 5.231932e+01 4.351190e+01 3.266722e+01 3.762254e+01 2.574038e+01 3.186348e+02 3.440312e+00 2.765530e+00 4.135997e+00 4.472361e+00 3.461834e+00 3.281890e+00 3.202998e+00 3.268083e+00 3.708069e+00 2.920621e+00 2.284349e+00 1.960422e+00 8.196774e+00 5.495651e-01 4.955322e-01 6.169665e-01 7.955709e-01 6.381107e-01 6.084380e-01 6.383669e-01 6.143307e-01 6.570770e-01 5.699494e-01 4.235037e-01 4.076174e-01 1.180451e+00
<GCONST> 1.342409e+02
<STATE> 3
<MEAN> 39
 -1.424862e+01 -7.409992e+00 3.542043e+00 -5.106109e+00 -7.770289e-01 -6.138386e+00 -3.223454e+00 -7.723160e+00 -4.146814e+00 -4.531330e+00 -2.025557e+00 -6.475116e+00 5.698438e+01 1.217066e-02 -8.200599e-03 -5.581930e-02 3.044968e-02 5.455817e-02 3.792869e-02 -5.235267e-02 -2.575048e-02 -2.167571e-02 -1.711321e-02 -2.902487e-02 -5.688646e-03 -7.097162e-02 -3.877787e-03 4.572805e-03 -1.031858e-02 3.319347e-03 -2.282754e-04 6.351094e-03 3.376126e-04 4.817432e-03 3.314536e-03 1.771037e-03 -1.896560e-04 3.383764e-03 -1.469124e-02
<VARIANCE> 39
 6.732693e+01 4.944867e+01 1.100231e+02 7.500446e+01 5.357113e+01 6.308258e+01 4.934962e+01 5.135237e+01 4.252613e+01 3.273337e+01 3.641663e+01 2.570443e+01 3.081917e+02 3.336507e+00 2.761628e+00 3.973066e+00 4.420478e+00 3.489092e+00 3.314580e+00 3.166356e+00 3.275867e+00 3.664614e+00 2.905040e+00 2.267956e+00 1.959924e+00 8.135384e+00 5.301103e-01 5.007949e-01 5.934294e-01 7.830527e-01 6.376441e-01 6.184602e-01 6.303110e-01 6.156144e-01 6.514660e-01 5.668104e-01 4.204839e-01 4.057777e-01 1.189481e+00
<GCONST> 1.338460e+02
<STATE> 4
<MEAN> 39
 -1.411549e+01 -7.474080e+00 3.440107e+00 -4.985294e+00 -5.031701e-01 -6.100688e+00 -3.402201e+00 -7.943339e+00 -4.270967e+00 -4.603653e+00 -2.267556e+00 -6.514424e+00 5.700856e+01 -2.317480e-02 2.338797e-02 -1.088133e-01 6.269933e-02 3.231674e-02 6.946786e-02 -4.177641e-02 5.659925e-03 -1.661275e-03 -9.241935e-03 -2.714502e-02 1.877207e-02 -1.782094e-01 -5.461892e-03 4.548977e-03 -7.221008e-03 3.178564e-03 -2.982616e-03 5.492372e-03 1.940809e-03 5.190512e-03 2.455285e-03 1.399326e-03 1.056376e-03 3.484437e-03 -1.459408e-02
<VARIANCE> 39
 6.702917e+01 4.745433e+01 1.071103e+02 7.484669e+01 5.420202e+01 6.340493e+01 4.941395e+01 5.026437e+01 4.229084e+01 3.311859e+01 3.529270e+01 2.553712e+01 2.980089e+02 3.113242e+00 2.727844e+00 3.617150e+00 4.321474e+00 3.496611e+00 3.266866e+00 3.147003e+00 3.207536e+00 3.638094e+00 2.887974e+00 2.222550e+00 1.941349e+00 7.757456e+00 4.831039e-01 5.072703e-01 5.444642e-01 7.532316e-01 6.292351e-01 6.114846e-01 6.215192e-01 5.986809e-01 6.457049e-01 5.586060e-01 4.061422e-01 4.007604e-01 1.173050e+00
<GCONST> 1.330187e+02
<TRANSP> 5
 0.000000e+00 1.000000e+00 0.000000e+00 0.000000e+00 0.000000e+00
 0.000000e+00 7.565188e-01 2.434811e-01 0.000000e+00 0.000000e+00
 0.000000e+00 0.000000e+00 7.565188e-01 2.434812e-01 0.000000e+00
 0.000000e+00 0.000000e+00 0.000000e+00 8.832024e-01 1.167975e-01
 0.000000e+00 0.000000e+00 0.000000e+00 0.000000e+00 0.000000e+00
<ENDHMM>
~h "r"
<BEGINHMM>
<NUMSTATES> 5
<STATE> 2
<MEAN> 39
 -1.200768e+01 -9.848353e+00 5.364511e+00 -2.425209e+00 1.113991e-01 -7.882270e+00 -3.087335e+00 -7.782170e+00 -3.129976e+00 -3.689553e+00 -1.430547e+00 -7.890486e+00 6.325862e+01 -2.659527e-02 2.554676e-03 -5.989104e-02 3.462906e-02 1.489846e-02 9.356515e-03 3.907722e-03 1.541784e-03 4.545718e-02 -3.630029e-02 -1.243947e-02 2.092236e-02 -1.042613e-01 1.057389e-05 -1.341703e-04 2.993802e-03 1.964658e-04 -1.362096e-03 1.368839e-03 1.424787e-03 2.330590e-03 -2.804033e-03 -6.048268e-04 1.190375e-03 -8.739450e-04 -2.262588e-03
<VARIANCE> 39
 7.048817e+01 4.846647e+01 7.018964e+01 5.605414e+01 5.107796e+01 5.902546e+01 5.422047e+01 4.507661e+01 4.636954e+01 4.674376e+01 3.782879e+01 2.625740e+01 2.235216e+02 2.921666e+00 3.049491e+00 2.724376e+00 3.885087e+00 2.790045e+00 2.777352e+00 3.003143e+00 3.276352e+00 3.540912e+00 3.580480e+00 2.368605e+00 1.760689e+00 5.632076e+00 4.755556e-01 5.765307e-01 4.275516e-01 6.542943e-01 4.881267e-01 5.159416e-01 5.335975e-01 6.184990e-01 6.334806e-01 6.686593e-01 4.406337e-01 3.402043e-01 8.747960e-01
<GCONST> 1.305266e+02
<STATE> 3
<MEAN> 39
 -1.210410e+01 -9.831380e+00 5.133857e+00 -2.306839e+00 1.722124e-01 -7.822243e+00 -3.084893e+00 -7.766022e+00 -2.960818e+00 -3.836889e+00 -1.471866e+00 -7.823747e+00 6.283361e+01 -2.740637e-02 2.974607e-03 -4.941762e-02 3.339187e-02 9.637867e-03 1.682586e-02 9.394948e-03 9.271601e-03 3.291043e-02 -3.693152e-02 -6.981111e-03 1.718743e-02 -1.135307e-01 -3.816625e-04 -1.796430e-04 1.507178e-03 -1.480147e-03 -6.628502e-04 3.327588e-03 9.873966e-04 1.180391e-03 -4.236495e-03 7.575784e-04 1.502694e-03 -1.542285e-03 -2.145258e-03
<VARIANCE> 39
 7.036694e+01 4.879972e+01 6.821569e+01 5.611697e+01 4.989633e+01 5.885651e+01 5.280167e+01 4.502222e+01 4.392868e+01 4.606871e+01 3.736432e+01 2.607334e+01 2.292328e+02 2.901311e+00 3.055378e+00 2.698330e+00 3.894886e+00 2.786928e+00 2.772974e+00 2.972892e+00 3.287200e+00 3.467790e+00 3.544579e+00 2.388026e+00 1.777754e+00 5.684525e+00 4.745488e-01 5.739344e-01 4.264780e-01 6.583706e-01 4.930479e-01 5.161847e-01 5.303499e-01 6.185291e-01 6.234273e-01 6.637182e-01 4.453569e-01 3.438895e-01 8.815012e-01
<GCONST> 1.303692e+02
<STATE> 4
<MEAN> 39
 -1.235619e+01 -9.795732e+00 4.823963e+00 -2.132133e+00 2.540699e-01 -7.519754e+00 -3.066710e+00 -7.632425e+00 -2.779829e+00 -4.029310e+00 -1.537372e+00 -7.734437e+00 6.198602e+01 -3.089597e-02 1.006559e-02 -4.775275e-02 1.916952e-02 4.228984e-03 3.816541e-02 8.603533e-03 1.145625e-02 1.283171e-02 -2.996984e-02 3.289352e-04 8.446056e-03 -1.276723e-01 -1.144499e-03 6.587325e-04 -1.344585e-03 -2.997690e-03 -4.453798e-04 3.827115e-03 -2.138491e-04 -1.560290e-04 -3.463614e-03 1.901518e-03 8.204709e-04 -1.395044e-03 -2.446839e-03
<VARIANCE> 39
 6.950968e+01 5.028509e+01 6.698328e+01 5.620229e+01 4.801780e+01 5.889070e+01 5.132259e+01 4.503685e+01 4.092308e+01 4.489233e+01 3.731195e+01 2.607923e+01 2.446121e+02 2.841208e+00 3.017763e+00 2.631275e+00 3.914157e+00 2.732006e+00 2.727628e+00 2.903496e+00 3.276059e+00 3.326440e+00 3.445902e+00 2.386434e+00 1.785716e+00 5.724311e+00 4.694583e-01 5.580481e-01 4.213801e-01 6.716818e-01 4.871592e-01 5.121241e-01 5.236185e-01 6.129344e-01 6.022138e-01 6.459287e-01 4.461833e-01 3.444299e-01 8.908567e-01
<GCONST> 1.299748e+02
<TRANSP> 5
 0.000000e+00 1.000000e+00 0.000000e+00 0.000000e+00 0.000000e+00
 0.000000e+00 7.529653e-01 2.470347e-01 0.000000e+00 0.000000e+00
 0.000000e+00 0.000000e+00 7.529652e-01 2.470348e-01 0.000000e+00
 0.000000e+00 0.000000e+00 0.000000e+00 8.798181e-01 1.201819e-01
 0.000000e+00 0.000000e+00 0.000000e+00 0.000000e+00 0.000000e+00
<ENDHMM>
~h "s"
<BEGINHMM>
<NUMSTATES> 5
<STATE> 2
<MEAN> 39
 -1.499878e+01 -8.401394e+00 1.922120e+00 -4.019274e+00 6.610341e-01 -6.162567e+00 -2.596919e+00 -6.354698e+00 -2.193046e+00 -3.892874e+00 -2.028183e+00 -7.334217e+00 5.815998e+01 2.104795e-02 2.554853e-02 -4.549035e-02 2.772833e-02 -7.013392e-02 5.437932e-02 -2.294028e-02 1.435632e-02 -3.328338e-02 2.863691e-02 -4.089376e-03 2.581473e-03 -1.570416e-01 -1.822041e-03 1.077354e-03 2.484780e-03 -7.943553e-04 -1.740180e-04 -7.785988e-04 7.999559e-04 -2.461733e-03 -6.859266e-04 2.834695e-04 2.829782e-03 1.999505e-03 2.405779e-03
<VARIANCE> 39
 9.644080e+01 5.390540e+01 6.982852e+01 5.543830e+01 5.679422e+01 7.759617e+01 4.684777e+01 5.638112e+01 3.857563e+01 3.443135e+01 3.188745e+01 2.818748e+01 3.361357e+02 4.258143e+00 3.268489e+00 2.719537e+00 3.958286e+00 2.899329e+00 3.079722e+00 3.078095e+00 3.698070e+00 3.129287e+00 3.131331e+00 2.801742e+00 2.241869e+00 6.069664e+00 5.662777e-01 6.339881e-01 4.845518e-01 7.390834e-01 5.355538e-01 5.340780e-01 5.576117e-01 6.979746e-01 5.916424e-01 6.196062e-01 5.226114e-01 4.720647e-01 9.230483e-01
<GCONST> 1.333991e+02
<STATE> 3
<MEAN> 39
 -1.490956e+01 -8.289976e+00 1.769935e+00 -3.906849e+00 3.584903e-01 -5.951970e+00 -2.700988e+00 -6.325109e+00 -2.336285e+00 -3.766348e+00 -2.031971e+00 -7.316567e+00 5.756301e+01 1.133767e-02 2.991997e-02 -3.359652e-02 2.487701e-02 -6.961164e-02 5.003203e-02 -1.840398e-02 4.781961e-03 -3.585569e-02 2.927424e-02 7.713626e-03 1.130820e-02 -1.460520e-01 -3.261691e-03 1.131681e-03 2.945999e-03 -5.905139e-04 1.005504e-03 -1.271924e-03 1.346712e-03 -1.765149e-03 -3.870048e-04 2.405315e-04 2.757478e-03 2.601296e-03 2.631938e-03
<VARIANCE> 39
 9.299755e+01 5.294983e+01 7.168336e+01 5.569984e+01 5.638171e+01 7.682116e+01 4.535052e+01 5.553000e+01 3.910883e+01 3.410537e+01 3.061041e+01 2.818577e+01 3.401023e+02 4.151251e+00 3.243980e+00 2.793328e+00 3.945391e+00 2.856882e+00 3.057850e+00 2.990417e+00 3.667379e+00 3.218883e+00 3.122714e+00 2.700468e+00 2.249354e+00 6.148628e+00 5.539177e-01 6.340488e-01 4.995674e-01 7.373893e-01 5.257861e-01 5.363082e-01 5.453168e-01 6.915725e-01 6.087681e-01 6.198156e-01 5.075803e-01 4.734407e-01 9.382289e-01
<GCONST> 1.332015e+02
<STATE> 4
<MEAN> 39
 -1.479684e+01 -8.091621e+00 1.827296e+00 -3.868128e+00 -2.129221e-02 -5.571040e+00 -2.839607e+00 -6.476096e+00 -2.610390e+00 -3.551585e+00 -1.922975e+00 -7.232333e+00 5.710387e+01 -6.547815e-03 3.772376e-02 -9.656220e-03 2.413939e-02 -6.867938e-02 4.134149e-02 -1.328003e-02 -5.900418e-03 -3.770371e-02 3.042750e-02 2.141529e-02 2.456085e-02 -1.271634e-01 -4.348192e-03 1.582384e-03 2.479829e-03 4.688577e-04 1.543797e-03 -1.242852e-03 2.185296e-04 -1.557976e-03 -3.268974e-04 -2.323531e-04 2.718162e-03 3.138043e-03 4.175671e-04
<VARIANCE> 39
 8.958118e+01 5.078208e+01 7.585000e+01 5.783990e+01 5.615439e+01 7.596773e+01 4.433700e+01 5.477999e+01 4.009192e+01 3.517236e+01 2.966501e+01 2.815335e+01 3.434792e+02 4.052182e+00 3.207506e+00 2.847036e+00 3.953555e+00 2.796972e+00 3.001936e+00 2.868450e+00 3.582255e+00 3.330631e+00 3.142321e+00 2.604853e+00 2.232445e+00 6.199711e+00 5.417365e-01 6.336221e-01 5.074370e-01 7.353309e-01 5.079455e-01 5.341341e-01 5.268755e-01 6.783455e-01 6.322288e-01 6.203307e-01 4.943982e-01 4.680704e-01 9.525948e-01
<GCONST> 1.329978e+02
<TRANSP> 5
 0.000000e+00 1.000000e+00 0.000000e+00 0.000000e+00 0.000000e+00
 0.000000e+00 7.568275e-01 2.431726e-01 0.000000e+00 0.000000e+00
 0.000000e+00 0.000000e+00 7.568276e-01 2.431724e-01 0.000000e+00
 0.000000e+00 0.000000e+00 0.000000e+00 8.831046e-01 1.168954e-01
 0.000000e+00 0.000000e+00 0.000000e+00 0.000000e+00 0.000000e+00
<ENDHMM>
~h "t"
<BEGINHMM>
<NUMSTATES> 5
<STATE> 2
<MEAN> 39
 -1.113072e+01 -9.666655e+00 6.693390e+00 -5.494136e+00 5.185481e-01 -7.568139e+00 -2.373266e+00 -7.227506e+00 -2.587272e+00 -2.524957e+00 -1.876654e+00 -7.476262e+00 6.476495e+01 -1.653302e-02 4.129101e-02 6.842656e-03 1.909064e-02 -1.451379e-02 -5.663896e-03 -2.716256e-02 -1.660826e-02 -2.057980e-03 -1.326328e-02 3.199938e-02 1.950535e-02 -4.895850e-02 -6.257833e-04 1.345564e-04 -1.298786e-03 1.508869e-03 -4.644519e-04 1.346562e-03 -3.918505e-04 2.101020e-03 8.738786e-05 -1.415114e-03 -1.345255e-04 1.405522e-03 -4.132380e-03
<VARIANCE> 39
 6.349577e+01 5.349305e+01 8.211076e+01 6.971346e+01 4.784989e+01 5.896700e+01 4.253004e+01 5.420247e+01 4.812201e+01 3.568721e+01 4.412711e+01 2.329351e+01 1.996632e+02 3.714428e+00 3.662754e+00 3.347019e+00 5.161644e+00 3.033532e+00 3.358005e+00 2.795998e+00 4.166222e+00 3.723321e+00 3.126625e+00 3.164547e+00 1.752781e+00 7.299420e+00 5.912176e-01 6.493661e-01 5.442767e-01 9.347688e-01 5.627096e-01 5.941042e-01 5.152045e-01 7.568564e-01 6.833943e-01 6.050058e-01 5.886941e-01 3.420028e-01 1.121620e+00
<GCONST> 1.341785e+02
<STATE> 3
<MEAN> 39
 -1.120843e+01 -9.490015e+00 6.720902e+00 -5.395545e+00 4.404012e-01 -7.584716e+00 -2.492788e+00 -7.273738e+00 -2.605364e+00 -2.591630e+00 -1.742161e+00 -7.388237e+00 6.451598e+01 -1.694325e-02 3.910940e-02 4.322660e-03 2.325941e-02 -1.516965e-02 -1.706873e-03 -2.898210e-02 -1.011609e-02 -2.370656e-03 -1.834139e-02 3.095370e-02 2.275702e-02 -5.878239e-02 -1.673218e-04 -5.898029e-04 -3.675713e-04 9.727557e-04 -1.215737e-04 7.747263e-04 -8.418339e-04 1.363282e-03 3.639190e-04 -1.277154e-03 -3.819101e-04 5.101135e-04 -2.149207e-03
<VARIANCE> 39
 6.331339e+01 5.291732e+01 8.335520e+01 7.058490e+01 4.734121e+01 5.895817e+01 4.274918e+01 5.372300e+01 4.816978e+01 3.563408e+01 4.365302e+01 2.335711e+01 2.023096e+02 3.698114e+00 3.696140e+00 3.311556e+00 5.238610e+00 3.040013e+00 3.333641e+00 2.855021e+00 4.194064e+00 3.757479e+00 3.123978e+00 3.161596e+00 1.781718e+00 7.305729e+00 5.937822e-01 6.580231e-01 5.396671e-01 9.460530e-01 5.694192e-01 5.921839e-01 5.324873e-01 7.642558e-01 6.889825e-01 6.032891e-01 5.885809e-01 3.481267e-01 1.131413e+00
<GCONST> 1.343420e+02
<STATE> 4
<MEAN> 39
 -1.131956e+01 -9.207438e+00 6.837947e+00 -5.079048e+00 3.668607e-01 -7.707378e+00 -2.694205e+00 -7.358619e+00 -2.678077e+00 -2.741691e+00 -1.595404e+00 -7.264194e+00 6.404948e+01 -1.379855e-02 3.066013e-02 5.809983e-03 2.356290e-02 -1.397052e-02 1.585718e-03 -3.344306e-02 -7.007238e-03 -4.106699e-03 -2.487178e-02 2.820209e-02 1.922866e-02 -5.675025e-02 3.222185e-04 -1.438988e-03 -1.162501e-04 2.147179e-05 7.076236e-04 4.531691e-04 -4.793976e-04 5.625489e-04 7.459928e-04 -9.340951e-04 -6.595708e-04 -8.173165e-04 4.153529e-04
<VARIANCE> 39
 6.302261e+01 5.231278e+01 8.548260e+01 7.100331e+01 4.715845e+01 5.826208e+01 4.322364e+01 5.284577e+01 4.828743e+01 3.607191e+01 4.305547e+01 2.336223e+01 2.041180e+02 3.751338e+00 3.772442e+00 3.340894e+00 5.375053e+00 3.122966e+00 3.295384e+00 2.981895e+00 4.193400e+00 3.820876e+00 3.141036e+00 3.193011e+00 1.828961e+00 7.496876e+00 6.126417e-01 6.778154e-01 5.477720e-01 9.718650e-01 5.957281e-01 5.911456e-01 5.664654e-01 7.723951e-01 7.037709e-01 6.057703e-01 5.975324e-01 3.593351e-01 1.174909e+00
<GCONST> 1.348863e+02
<TRANSP> 5
 0.000000e+00 1.000000e+00 0.000000e+00 0.000000e+00 0.000000e+00
 0.000000e+00 7.517235e-01 2.482765e-01 0.000000e+00 0.000000e+00
 0.000000e+00 0.000000e+00 7.517233e-01 2.482767e-01 0.000000e+00
 0.000000e+00 0.000000e+00 0.000000e+00 8.781399e-01 1.218601e-01
 0.000000e+00 0.000000e+00 0.000000e+00 0.000000e+00 0.000000e+00
<ENDHMM>
~h "u"
<BEGINHMM>
<NUMSTATES> 5
<STATE> 2
<MEAN> 39
 -1.230985e+01 -7.956528e+00 8.006580e-01 -6.470615e+00 6.854892e-02 -1.972960e+00 -4.493231e+00 -6.185043e+00 -3.183321e+00 -2.190698e+00 -8.295016e-01 -6.402189e+00 5.618863e+01 1.325842e-01 -7.930657e-02 1.181781e-01 -9.572374e-02 5.673351e-02 -5.152334e-02 1.838214e-03 -5.653321e-02 -1.837089e-02 6.301715e-03 -1.118592e-03 -4.533843e-02 3.254609e-01 -1.096595e-03 3.676510e-04 6.980563e-04 2.445910e-03 -2.032984e-03 -1.508293e-03 2.284887e-03 1.356806e-03 4.710313e-04 -9.344639e-04 2.817494e-04 1.491813e-03 -1.802465e-04
<VARIANCE> 39
 9.841306e+01 6.837456e+01 8.064554e+01 1.153634e+02 5.980449e+01 7.820116e+01 4.049339e+01 5.141111e+01 3.583439e+01 3.341259e+01 3.200693e+01 3.189125e+01 4.543089e+02 2.676471e+00 2.702481e+00 2.085041e+00 4.582870e+00 3.521296e+00 2.639579e+00 2.228010e+00 2.784894e+00 2.812797e+00 2.535729e+00 2.216969e+00 1.798715e+00 6.452187e+00 4.200841e-01 4.715515e-01 3.464105e-01 7.312299e-01 6.276783e-01 4.623570e-01 4.390410e-01 5.231291e-01 5.419069e-01 5.040859e-01 4.087468e-01 3.485424e-01 8.938642e-01
<GCONST> 1.302997e+02
<STATE> 3
<MEAN> 39
 -1.175970e+01 -8.292647e+00 1.307324e+00 -6.849096e+00 2.926621e-01 -2.214919e+00 -4.460848e+00 -6.416065e+00 -3.267189e+00 -2.172741e+00 -8.450627e-01 -6.584776e+00 5.756091e+01 1.266973e-01 -7.717203e-02 1.224195e-01 -8.394839e-02 4.992505e-02 -6.015030e-02 1.103538e-02 -5.060560e-02 -1.902277e-02 2.263934e-03 -4.457889e-03 -4.219629e-02 3.226929e-01 -1.578524e-03 7.753752e-04 1.000394e-03 3.021008e-03 -1.833730e-03 -2.150303e-03 2.157836e-03 1.502647e-03 -2.449764e-04 -1.136420e-03 -1.072123e-03 6.919533e-04 -1.222784e-03
<VARIANCE> 39
 9.517350e+01 6.744466e+01 7.906497e+01 1.166682e+02 5.877344e+01 7.972821e+01 4.272132e+01 5.056725e+01 3.685426e+01 3.393105e+01 3.303849e+01 3.107136e+01 4.275498e+02 2.757246e+00 2.778009e+00 2.098325e+00 4.687182e+00 3.564648e+00 2.695544e+00 2.287783e+00 2.817509e+00 2.914982e+00 2.608988e+00 2.259631e+00 1.817219e+00 6.490792e+00 4.324308e-01 4.876373e-01 3.472607e-01 7.471408e-01 6.319417e-01 4.708498e-01 4.484965e-01 5.270665e-01 5.607675e-01 5.184317e-01 4.158140e-01 3.534876e-01 9.035020e-01
<GCONST> 1.307728e+02
<STATE> 4
<MEAN> 39
 -1.088545e+01 -8.815267e+00 2.190453e+00 -7.418228e+00 5.933585e-01 -2.703323e+00 -4.178821e+00 -6.824401e+00 -3.419666e+00 -2.250340e+00 -9.257628e-01 -6.815301e+00 5.980927e+01 1.160783e-01 -7.564327e-02 1.325625e-01 -6.161777e-02 4.331274e-02 -8.479785e-02 2.473483e-02 -4.113960e-02 -2.543413e-02 -6.582456e-03 -1.876198e-02 -3.854938e-02 3.202354e-01 -2.555816e-03 1.216349e-03 6.396669e-04 4.000159e-03 -1.601155e-03 -2.702904e-03 1.711984e-03 1.773853e-03 -4.614325e-04 -1.447643e-03 -1.824738e-03 7.837443e-04 -3.098347e-03
<VARIANCE> 39
 8.834947e+01 6.507037e+01 7.576225e+01 1.200848e+02 5.601984e+01 8.036658e+01 4.704752e+01 4.964800e+01 3.853837e+01 3.460724e+01 3.548095e+01 2.888253e+01 3.755210e+02 2.846029e+00 2.889520e+00 2.120764e+00 4.826364e+00 3.527146e+00 2.744839e+00 2.337018e+00 2.826339e+00 3.028375e+00 2.686534e+00 2.357011e+00 1.809430e+00 6.520772e+00 4.418145e-01 5.110871e-01 3.453178e-01 7.613140e-01 6.189461e-01 4.783364e-01 4.504012e-01 5.242940e-01 5.784454e-01 5.310628e-01 4.320632e-01 3.528760e-01 9.142698e-01
<GCONST> 1.310518e+02
<TRANSP> 5
 0.000000e+00 1.000000e+00 0.000000e+00 0.000000e+00 0.000000e+00
 0.000000e+00 7.543702e-01 2.456298e-01 0.000000e+00 0.000000e+00
 0.000000e+00 0.000000e+00 7.543696e-01 2.456304e-01 0.000000e+00
 0.000000e+00 0.000000e+00 0.000000e+00 8.807636e-01 1.192364e-01
 0.000000e+00 0.000000e+00 0.000000e+00 0.000000e+00 0.000000e+00
<ENDHMM>
~h "ah"
<BEGINHMM>
<NUMSTATES> 5
<STATE> 2
<MEAN> 39
 -9.453329e+00 -9.660933e+00 3.024235e+00 -9.930599e+00 1.886506e+00 -3.049413e+00 -1.729961e+00 -5.480371e+00 -3.289983e+00 -4.110827e+00 -3.402192e+00 -6.528017e+00 6.584383e+01 1.124406e-01 -1.227786e-01 8.442436e-02 -4.597273e-02 1.593231e-02 -6.982932e-02 3.917337e-02 -7.302358e-02 1.521639e-02 -2.904152e-02 -3.806500e-02 4.627947e-03 3.533598e-01 -1.099758e-03 2.531595e-03 3.613957e-04 2.807515e-03 -1.587646e-03 3.299848e-04 4.879502e-04 3.371471e-03 -8.455174e-04 -3.186850e-04 1.159959e-03 2.844881e-04 -5.324650e-03
<VARIANCE> 39
 8.026080e+01 8.264438e+01 4.763569e+01 1.119393e+02 5.717966e+01 7.843902e+01 4.013037e+01 3.794744e+01 3.217487e+01 4.861951e+01 5.618879e+01 2.649183e+01 2.874837e+02 3.857864e+00 3.945317e+00 1.779115e+00 3.961318e+00 3.590392e+00 3.231574e+00 2.235086e+00 2.647176e+00 2.817000e+00 3.720678e+00 4.392327e+00 2.244724e+00 5.716414e+00 6.099844e-01 5.394870e-01 2.978999e-01 5.717508e-01 5.658598e-01 5.654876e-01 4.555659e-01 4.556822e-01 5.686733e-01 6.301320e-01 7.529107e-01 4.658465e-01 6.624988e-01
<GCONST> 1.323241e+02
<STATE> 3
<MEAN> 39
 -8.945223e+00 -1.014357e+01 3.416378e+00 -1.011712e+01 1.936263e+00 -3.355430e+00 -1.561326e+00 -5.751698e+00 -3.247615e+00 -4.241825e+00 -3.547142e+00 -6.510185e+00 6.736617e+01 1.028755e-01 -1.056227e-01 8.305179e-02 -2.894858e-02 9.433384e-03 -7.057725e-02 4.038936e-02 -5.476738e-02 1.113423e-02 -2.853007e-02 -3.369127e-02 4.093187e-03 3.174931e-01 -2.142095e-03 3.939293e-03 -4.848555e-04 4.069372e-03 -1.197169e-03 -4.271034e-05 3.698037e-05 3.828187e-03 -8.355450e-04 4.201488e-04 9.797955e-04 -4.509207e-04 -8.680927e-03
<VARIANCE> 39
 7.562265e+01 8.007529e+01 4.357828e+01 1.089119e+02 5.583366e+01 8.012473e+01 4.291899e+01 3.829354e+01 3.237973e+01 4.790648e+01 5.767911e+01 2.670078e+01 2.367682e+02 4.071949e+00 4.102044e+00 1.798615e+00 4.035563e+00 3.532478e+00 3.305687e+00 2.318724e+00 2.744366e+00 2.844435e+00 3.807358e+00 4.386847e+00 2.301868e+00 5.598458e+00 6.551387e-01 5.720712e-01 3.033653e-01 5.903825e-01 5.566488e-01 5.888141e-01 4.694493e-01 4.717289e-01 5.700375e-01 6.520005e-01 7.452298e-01 4.765948e-01 6.779822e-01
<GCONST> 1.326003e+02
<STATE> 4
<MEAN> 39
 -8.010128e+00 -1.064729e+01 4.169646e+00 -1.011030e+01 2.055594e+00 -3.863008e+00 -1.413329e+00 -5.994579e+00 -3.295197e+00 -4.305138e+00 -3.665740e+00 -6.601824e+00 6.954496e+01 7.105474e-02 -6.096797e-02 7.191088e-02 1.443966e-02 3.340923e-03 -7.885717e-02 3.483596e-02 -1.950721e-02 4.555804e-03 -1.842965e-02 -3.432036e-02 -2.923952e-04 2.196414e-01 -3.597140e-03 3.542549e-03 -1.418184e-03 5.697614e-03 -2.896657e-04 -9.356122e-04 -4.494090e-04 2.821364e-03 -1.927319e-04 1.335723e-03 -3.455444e-04 -8.575978e-04 -1.101007e-02
<VARIANCE> 39
 6.383759e+01 7.607346e+01 3.801048e+01 1.062905e+02 5.481581e+01 7.749780e+01 4.597734e+01 3.991981e+01 3.360352e+01 4.482673e+01 5.760144e+01 2.780071e+01 1.512275e+02 4.114416e+00 4.312198e+00 1.847450e+00 4.264797e+00 3.350115e+00 3.247095e+00 2.475235e+00 2.951458e+00 2.940524e+00 3.819572e+00 4.139436e+00 2.459270e+00 5.291363e+00 6.904730e-01 6.182172e-01 3.170099e-01 6.403235e-01 5.397427e-01 5.998449e-01 4.884167e-01 5.073887e-01 5.811757e-01 6.726862e-01 6.954637e-01 5.092006e-01 7.098797e-01
<GCONST> 1.324855e+02
<TRANSP> 5
 0.000000e+00 1.000000e+00 0.000000e+00 0.000000e+00 0.000000e+00
 0.000000e+00 7.820665e-01 2.179335e-01 0.000000e+00 0.000000e+00
 0.000000e+00 0.000000e+00 7.820665e-01 2.179336e-01 0.000000e+00
 0.000000e+00 0.000000e+00 0.000000e+00 9.107324e-01 8.926760e-02
 0.000000e+00 0.000000e+00 0.000000e+00 0.000000e+00 0.000000e+00
<ENDHMM>
~h "al"
<BEGINHMM>
<NUMSTATES> 5
<STATE> 2
<MEAN> 39
 -5.686310e+00 -1.013689e+01 2.640794e+00 -1.322153e+01 3.269681e+00 1.669154e+00 -2.222304e+00 -7.717305e+00 -5.415916e+00 -3.348351e+00 -1.270081e+00 -8.668646e+00 6.851749e+01 9.325339e-02 -5.147665e-02 4.453751e-02 -1.587825e-01 1.772882e-03 6.916231e-03 9.156022e-03 -4.189168e-02 -5.215003e-02 -4.008490e-02 -1.980809e-02 -1.713364e-02 1.839047e-01 -8.240263e-03 4.193255e-03 -4.309233e-03 1.003823e-02 -5.025698e-03 -3.038611e-03 -3.297192e-04 -1.988264e-03 1.617525e-03 -3.494481e-03 -1.710131e-03 2.750925e-03 -1.489619e-02
<VARIANCE> 39
 5.019682e+01 3.586285e+01 4.332805e+01 1.006728e+02 5.524226e+01 6.405991e+01 3.932298e+01 6.360067e+01 2.904821e+01 2.875324e+01 2.490509e+01 2.254387e+01 1.387479e+02 2.126802e+00 1.646912e+00 1.692712e+00 3.147654e+00 3.606242e+00 2.298765e+00 1.954763e+00 3.264885e+00 2.453197e+00 1.904068e+00 1.857983e+00 1.400302e+00 3.065819e+00 2.942923e-01 2.305459e-01 2.853866e-01 4.469774e-01 5.748561e-01 3.989739e-01 3.355955e-01 4.767103e-01 4.449959e-01 3.591138e-01 3.361831e-01 2.553863e-01 3.540484e-01
<GCONST> 1.186713e+02
<STATE> 3
<MEAN> 39
 -5.357057e+00 -1.032407e+01 2.786987e+00 -1.382775e+01 3.251365e+00 1.671942e+00 -2.178531e+00 -7.892726e+00 -5.629688e+00 -3.536617e+00 -1.370635e+00 -8.731544e+00 6.918913e+01 5.196929e-02 -3.081637e-02 2.211366e-02 -1.077626e-01 -2.133063e-02 -6.829311e-03 7.379388e-03 -4.995261e-02 -4.304591e-02 -5.672345e-02 -2.705891e-02 -4.089503e-03 1.086884e-01 -1.048204e-02 5.237049e-03 -6.102099e-03 1.201032e-02 -5.871243e-03 -2.603950e-03 -8.497136e-04 -5.765585e-04 2.858154e-03 -3.536515e-03 -8.502682e-04 3.784649e-03 -1.921153e-02
<VARIANCE> 39
 4.191727e+01 3.339547e+01 4.063676e+01 9.826850e+01 5.603781e+01 6.520634e+01 4.047440e+01 6.595003e+01 2.810670e+01 2.978905e+01 2.485726e+01 2.196526e+01 1.116971e+02 1.863254e+00 1.593307e+00 1.656618e+00 3.036549e+00 3.560434e+00 2.256600e+00 1.889623e+00 3.211757e+00 2.335228e+00 1.828625e+00 1.803928e+00 1.399132e+00 2.836375e+00 2.574757e-01 2.218793e-01 2.757918e-01 4.299945e-01 5.676142e-01 3.909631e-01 3.220972e-01 4.577066e-01 4.238731e-01 3.385054e-01 3.246784e-01 2.546484e-01 3.221101e-01
<GCONST> 1.170844e+02
<STATE> 4
<MEAN> 39
 -5.131075e+00 -1.049764e+01 2.913628e+00 -1.474286e+01 3.241059e+00 1.981379e+00 -1.939161e+00 -8.193135e+00 -5.953987e+00 -3.777013e+00 -1.558480e+00 -8.785035e+00 6.981822e+01 -2.203626e-02 3.772175e-03 -2.350616e-02 -1.425985e-02 -5.462377e-02 -2.552247e-02 3.421421e-03 -4.968061e-02 -2.103902e-02 -7.632484e-02 -3.531405e-02 1.613975e-02 -3.017948e-02 -1.216975e-02 6.215742e-03 -6.640915e-03 1.399636e-02 -6.775456e-03 -1.919995e-03 -1.602870e-03 3.467160e-03 5.511726e-03 -6.223723e-04 3.396359e-05 4.479763e-03 -2.366967e-02
<VARIANCE> 39
 3.187067e+01 3.105133e+01 3.896339e+01 9.698172e+01 5.695926e+01 6.600125e+01 4.200762e+01 6.916847e+01 2.739035e+01 3.207521e+01 2.500812e+01 2.155837e+01 8.482768e+01 1.496560e+00 1.545708e+00 1.624252e+00 2.896317e+00 3.463022e+00 2.146352e+00 1.803197e+00 3.104716e+00 2.231364e+00 1.754363e+00 1.753852e+00 1.413974e+00 2.517399e+00 2.102884e-01 2.123596e-01 2.652563e-01 4.145175e-01 5.534018e-01 3.702061e-01 3.058640e-01 4.311842e-01 4.063031e-01 3.147143e-01 3.138878e-01 2.558985e-01 2.818901e-01
<GCONST> 1.150663e+02
<TRANSP> 5
 0.000000e+00 1.000000e+00 0.000000e+00 0.000000e+00 0.000000e+00
 0.000000e+00 7.691644e-01 2.308356e-01 0.000000e+00 0.000000e+00
 0.000000e+00 0.000000e+00 7.691643e-01 2.308357e-01 0.000000e+00
 0.000000e+00 0.000000e+00 0.000000e+00 8.962983e-01 1.037017e-01
 0.000000e+00 0.000000e+00 0.000000e+00 0.000000e+00 0.000000e+00
<ENDHMM>
~h "an"
<BEGINHMM>
<NUMSTATES> 5
<STATE> 2
<MEAN> 39
 -1.004201e+01 -9.362155e+00 9.661299e+00 -3.720762e+00 4.087210e-02 -6.117825e+00 -4.294577e+00 -6.842371e+00 -4.812026e+00 -2.060552e+00 -2.215539e+00 -8.169625e+00 6.460959e+01 -4.076277e-02 2.826337e-02 2.513014e-02 -6.109245e-03 -5.029739e-02 3.816606e-03 1.838842e-02 -1.421482e-02 -4.308964e-02 -2.074549e-02 1.539613e-02 -3.676085e-03 1.178890e-02 -5.768608e-03 3.708152e-03 -3.782805e-03 1.201833e-03 -6.132877e-03 2.733136e-03 2.380720e-03 1.537452e-04 1.742203e-03 -5.038538e-04 1.598775e-04 2.900538e-03 -9.798065e-03
<VARIANCE> 39
 5.277218e+01 5.698051e+01 1.012163e+02 6.318345e+01 7.832428e+01 4.937378e+01 4.291019e+01 6.321130e+01 3.632886e+01 3.684451e+01 3.201675e+01 2.870707e+01 2.362107e+02 2.124969e+00 3.232805e+00 3.070175e+00 4.659789e+00 3.016043e+00 2.885579e+00 2.365759e+00 3.890083e+00 2.921657e+00 2.598156e+00 2.519561e+00 1.703556e+00 6.598575e+00 3.620042e-01 5.764450e-01 5.105966e-01 8.388795e-01 5.103852e-01 5.519242e-01 4.472395e-01 6.948258e-01 5.573617e-01 5.003009e-01 4.630385e-01 3.172021e-01 1.024802e+00
<GCONST> 1.304229e+02
<STATE> 3
<MEAN> 39
 -1.027467e+01 -9.193673e+00 9.729407e+00 -3.720568e+00 -2.396831e-01 -6.056778e+00 -4.213593e+00 -6.907805e+00 -4.977681e+00 -2.155666e+00 -2.144953e+00 -8.158317e+00 6.452972e+01 -6.177785e-02 4.101337e-02 1.004458e-02 -2.680084e-03 -7.313859e-02 1.455450e-02 2.591054e-02 -1.354242e-02 -3.480252e-02 -2.190553e-02 1.527999e-02 5.959566e-03 -2.440577e-02 -4.872488e-03 3.302060e-03 -2.533254e-03 9.731997e-04 -5.363989e-03 2.526059e-03 2.112607e-03 -4.116273e-04 1.930817e-03 -8.055319e-04 -8.522614e-05 1.965116e-03 -7.947735e-03
<VARIANCE> 39
 5.322106e+01 5.603191e+01 1.039365e+02 6.466245e+01 7.848783e+01 5.113911e+01 4.196026e+01 6.287685e+01 3.720419e+01 3.702983e+01 3.203719e+01 2.881032e+01 2.392382e+02 2.106782e+00 3.129182e+00 2.996937e+00 4.622361e+00 3.020311e+00 2.886247e+00 2.374641e+00 3.868387e+00 2.946818e+00 2.636401e+00 2.529205e+00 1.704007e+00 6.313039e+00 3.619455e-01 5.602282e-01 5.007718e-01 8.251293e-01 5.135523e-01 5.515432e-01 4.479219e-01 6.961997e-01 5.555855e-01 5.074468e-01 4.648718e-01 3.188806e-01 1.002425e+00
<GCONST> 1.303715e+02
<STATE> 4
<MEAN> 39
 -1.074774e+01 -8.926502e+00 1.018892e+01 -3.764438e+00 -9.123149e-01 -5.911026e+00 -3.964591e+00 -7.209577e+00 -5.278800e+00 -2.368538e+00 -1.982444e+00 -8.149295e+00 6.459410e+01 -8.465677e-02 5.234099e-02 -1.561894e-02 1.287878e-03 -9.408399e-02 3.309317e-02 2.454384e-02 -1.235424e-02 -2.007617e-02 -2.257270e-02 1.358384e-02 1.131410e-02 -7.544293e-02 -2.941381e-03 1.530578e-03 -2.188445e-03 5.153124e-05 -2.785880e-03 1.542739e-03 9.055314e-04 -7.430294e-04 2.000864e-03 -7.303394e-04 -4.895475e-04 4.496966e-04 -5.065797e-03
<VARIANCE> 39
 5.373704e+01 5.502437e+01 1.114975e+02 6.673392e+01 7.661719e+01 5.448758e+01 4.098128e+01 6.274130e+01 3.930415e+01 3.730297e+01 3.276785e+01 2.861465e+01 2.418970e+02 2.100008e+00 2.990639e+00 2.865109e+00 4.537032e+00 3.000197e+00 2.881085e+00 2.373079e+00 3.821315e+00 2.991107e+00 2.711621e+00 2.521201e+00 1.681314e+00 5.774753e+00 3.579335e-01 5.371589e-01 4.766665e-01 7.940423e-01 5.115554e-01 5.460882e-01 4.435885e-01 6.925027e-01 5.545790e-01 5.209085e-01 4.609828e-01 3.180503e-01 9.332951e-01
<GCONST> 1.301432e+02
<TRANSP> 5
 0.000000e+00 1.000000e+00 0.000000e+00 0.000000e+00 0.000000e+00
 0.000000e+00 7.601240e-01 2.398760e-01 0.000000e+00 0.000000e+00
 0.000000e+00 0.000000e+00 7.601249e-01 2.398750e-01 0.000000e+00
 0.000000e+00 0.000000e+00 0.000000e+00 8.873542e-01 1.126459e-01
 0.000000e+00 0.000000e+00 0.000000e+00 0.000000e+00 0.000000e+00
<ENDHMM>
~h "ar"
<BEGINHMM>
<NUMSTATES> 5
<STATE> 2
<MEAN> 39
 -1.339278e+01 -7.086322e+00 5.333743e+00 -3.427765e+00 -5.604959e+00 -4.623869e+00 -1.896822e+00 -6.499718e+00 -3.745104e+00 -2.674167e+00 -6.716603e-01 -5.885657e+00 5.696780e+01 2.429450e-01 -1.271695e-01 1.859821e-01 -1.844643e-01 7.510421e-02 -1.420703e-01 7.858361e-02 -1.701223e-01 -5.104529e-02 -4.032318e-02 -9.709543e-02 -8.963642e-02 5.449569e-01 6.508169e-04 -2.621882e-03 -2.232293e-03 -4.431999e-03 4.951617e-03 -1.009094e-03 -3.997148e-04 -3.253528e-03 2.696516e-03 -4.332317e-03 -4.236235e-03 -3.958600e-03 8.988034e-03
<VARIANCE> 39
 7.602069e+01 5.560443e+01 1.545506e+02 6.939343e+01 5.272158e+01 7.159256e+01 2.850623e+01 6.557366e+01 3.384800e+01 2.974210e+01 3.514339e+01 3.319998e+01 4.594897e+02 2.319374e+00 2.291554e+00 6.816580e+00 4.019445e+00 2.985116e+00 2.389967e+00 1.809776e+00 3.353967e+00 2.535983e+00 2.522655e+00 2.297531e+00 1.838984e+00 8.612228e+00 3.363822e-01 3.804545e-01 1.078797e+00 6.970962e-01 5.338227e-01 3.958789e-01 3.698041e-01 5.439638e-01 4.369273e-01 4.700698e-01 4.275950e-01 3.289452e-01 1.066148e+00
<GCONST> 1.304030e+02
<STATE> 3
<MEAN> 39
 -1.237743e+01 -7.662158e+00 6.022972e+00 -4.250043e+00 -5.175802e+00 -5.254747e+00 -1.546334e+00 -7.235892e+00 -3.889230e+00 -2.898272e+00 -1.143859e+00 -6.317778e+00 5.937713e+01 2.231987e-01 -1.274486e-01 1.503946e-01 -1.912403e-01 1.004732e-01 -1.329158e-01 7.349060e-02 -1.747701e-01 -2.975338e-02 -5.939523e-02 -1.108884e-01 -1.030648e-01 5.386642e-01 -5.572392e-03 1.197480e-04 -8.625949e-03 -1.287144e-03 5.486412e-03 2.360245e-03 -1.783181e-03 -4.233532e-04 4.919102e-03 -4.646939e-03 -2.603875e-03 -2.954992e-03 -2.787111e-03
<VARIANCE> 39
 7.055173e+01 5.148614e+01 1.398488e+02 7.370125e+01 5.705655e+01 7.008836e+01 3.046758e+01 6.694117e+01 3.326465e+01 3.278369e+01 3.562008e+01 3.271909e+01 3.978864e+02 2.481218e+00 2.422263e+00 6.858162e+00 4.301294e+00 3.103917e+00 2.589360e+00 1.911137e+00 3.470205e+00 2.529662e+00 2.702283e+00 2.417586e+00 1.933735e+00 8.871393e+00 3.570165e-01 4.027123e-01 1.095469e+00 7.394426e-01 5.512820e-01 4.342740e-01 3.858281e-01 5.520802e-01 4.378710e-01 5.104885e-01 4.483933e-01 3.437861e-01 1.105990e+00
<GCONST> 1.314788e+02
<STATE> 4
<MEAN> 39
 -1.109242e+01 -8.666018e+00 6.292675e+00 -5.644654e+00 -3.746439e+00 -6.340828e+00 -7.435541e-01 -8.270335e+00 -3.686097e+00 -3.470293e+00 -2.085551e+00 -7.084364e+00 6.323341e+01 1.162478e-01 -9.148611e-02 2.709680e-02 -1.497768e-01 1.458378e-01 -9.000827e-02 6.364089e-02 -1.371563e-01 2.744506e-02 -8.659104e-02 -1.084043e-01 -1.000300e-01 3.791423e-01 -1.248921e-02 4.025689e-03 -1.256154e-02 4.645440e-03 3.099561e-03 5.287016e-03 -2.656882e-03 5.053883e-03 5.108602e-03 -3.108565e-03 1.504459e-03 6.967993e-04 -1.918383e-02
<VARIANCE> 39
 6.120315e+01 4.418638e+01 1.107889e+02 7.666500e+01 6.463464e+01 6.793868e+01 3.570819e+01 6.639889e+01 3.209430e+01 3.706818e+01 3.655357e+01 3.025868e+01 2.849133e+02 2.703347e+00 2.654566e+00 5.843714e+00 4.453341e+00 3.187268e+00 3.090595e+00 2.151736e+00 3.545695e+00 2.398730e+00 2.842654e+00 2.600460e+00 2.089877e+00 8.323472e+00 3.893452e-01 4.441478e-01 9.414616e-01 7.533920e-01 5.614889e-01 5.391780e-01 4.288059e-01 5.406700e-01 4.241888e-01 5.438082e-01 4.783844e-01 3.739466e-01 1.038378e+00
<GCONST> 1.319034e+02
<TRANSP> 5
 0.000000e+00 1.000000e+00 0.000000e+00 0.000000e+00 0.000000e+00
 0.000000e+00 7.653016e-01 2.346984e-01 0.000000e+00 0.000000e+00
 0.000000e+00 0.000000e+00 7.653018e-01 2.346982e-01 0.000000e+00
 0.000000e+00 0.000000e+00 0.000000e+00 8.923669e-01 1.076331e-01
 0.000000e+00 0.000000e+00 0.000000e+00 0.000000e+00 0.000000e+00
<ENDHMM>
~h "at"
<BEGINHMM>
<NUMSTATES> 5
<STATE> 2
<MEAN> 39
 -6.924054e+00 -1.106450e+01 8.265900e+00 -4.856885e+00 6.258355e+00 -4.787784e+00 -3.438379e+00 -6.943315e+00 -2.532278e+00 -2.406800e+00 -3.174585e+00 -8.829588e+00 6.819959e+01 -4.091427e-02 -6.313752e-04 -2.970782e-02 6.514907e-03 4.677349e-02 -7.329795e-02 4.619017e-02 2.762830e-02 5.062684e-02 -4.491260e-02 -4.205054e-02 3.725950e-02 -9.526409e-03 -3.228341e-03 -4.575803e-04 4.266518e-03 -7.984394e-04 -8.115933e-03 -3.985482e-03 5.118927e-03 -1.389971e-03 -3.073481e-03 -4.066066e-03 3.681984e-03 4.490977e-03 1.400819e-03
<VARIANCE> 39
 1.284176e+01 5.802302e+01 3.163437e+01 7.328478e+01 3.736892e+01 3.708886e+01 4.424347e+01 5.677284e+01 4.111102e+01 3.684643e+01 3.945684e+01 2.960880e+01 7.451515e+01 1.346568e+00 5.191984e+00 2.322969e+00 7.499414e+00 2.216148e+00 2.480486e+00 2.529037e+00 5.509872e+00 3.469191e+00 3.246590e+00 3.098651e+00 2.028952e+00 6.525322e+00 2.563254e-01 8.156401e-01 3.959035e-01 1.228828e+00 4.007491e-01 4.576932e-01 4.655913e-01 9.578916e-01 5.918030e-01 6.353604e-01 5.588725e-01 3.443780e-01 9.007128e-01
<GCONST> 1.275566e+02
<STATE> 3
<MEAN> 39
 -7.109486e+00 -1.109132e+01 8.148312e+00 -4.819481e+00 6.404118e+00 -5.097399e+00 -3.171820e+00 -6.836483e+00 -2.346889e+00 -2.646151e+00 -3.344193e+00 -8.650867e+00 6.817942e+01 -5.527896e-02 -1.930319e-03 -1.365072e-02 2.806488e-03 1.512770e-02 -8.854567e-02 6.790572e-02 2.176213e-02 3.743443e-02 -6.228392e-02 -2.796159e-02 5.557591e-02 -5.009484e-03 -3.702839e-03 1.267375e-04 3.965111e-03 -8.972460e-04 -7.821257e-03 -3.154056e-03 4.934634e-03 -1.898226e-03 -2.812854e-03 -4.237887e-03 3.440457e-03 4.478351e-03 7.256428e-04
<VARIANCE> 39
 1.381779e+01 5.737640e+01 3.007286e+01 7.291148e+01 3.690102e+01 3.654339e+01 4.729617e+01 5.475167e+01 3.840584e+01 3.676354e+01 3.751969e+01 3.086829e+01 7.426060e+01 1.406837e+00 5.157712e+00 2.159124e+00 7.453458e+00 2.261004e+00 2.395127e+00 2.509680e+00 5.446006e+00 3.398036e+00 3.246106e+00 3.119522e+00 2.084807e+00 6.687197e+00 2.695620e-01 8.080174e-01 3.597256e-01 1.215603e+00 4.115772e-01 4.354957e-01 4.541334e-01 9.492670e-01 5.871398e-01 6.413727e-01 5.664658e-01 3.560604e-01 9.330744e-01
<GCONST> 1.274056e+02
<STATE> 4
<MEAN> 39
 -7.501851e+00 -1.132190e+01 8.114654e+00 -4.634658e+00 6.240312e+00 -5.496119e+00 -2.391700e+00 -6.656140e+00 -2.154997e+00 -3.161707e+00 -3.596120e+00 -8.205348e+00 6.810145e+01 -7.974512e-02 -5.760184e-03 -7.645927e-03 1.995808e-03 -1.676137e-02 -9.712269e-02 1.081552e-01 1.209629e-02 2.078985e-02 -9.545970e-02 -1.762850e-02 7.725903e-02 -5.522896e-03 -4.453592e-03 1.234645e-03 2.288310e-03 -7.697796e-04 -6.248011e-03 -1.102034e-03 3.365638e-03 -2.453849e-03 -2.216617e-03 -3.574719e-03 3.411378e-03 3.359556e-03 -1.593379e-03
<VARIANCE> 39
 1.634179e+01 5.648922e+01 2.891115e+01 7.085349e+01 3.660101e+01 3.554336e+01 5.522409e+01 5.105751e+01 3.489528e+01 3.824157e+01 3.428209e+01 3.195070e+01 7.404478e+01 1.505593e+00 5.078578e+00 1.982436e+00 7.240086e+00 2.334689e+00 2.290788e+00 2.496079e+00 5.267374e+00 3.229173e+00 3.215188e+00 2.995684e+00 2.165326e+00 6.805583e+00 2.890678e-01 7.986905e-01 3.202246e-01 1.184245e+00 4.252657e-01 4.090571e-01 4.330349e-01 9.277533e-01 5.657234e-01 6.405675e-01 5.510786e-01 3.758055e-01 9.677390e-01
<GCONST> 1.271048e+02
<TRANSP> 5
 0.000000e+00 1.000000e+00 0.000000e+00 0.000000e+00 0.000000e+00
 0.000000e+00 7.527416e-01 2.472584e-01 0.000000e+00 0.000000e+00
 0.000000e+00 0.000000e+00 7.527420e-01 2.472580e-01 0.000000e+00
 0.000000e+00 0.000000e+00 0.000000e+00 8.780996e-01 1.219004e-01
 0.000000e+00 0.000000e+00 0.000000e+00 0.000000e+00 0.000000e+00
<ENDHMM>
~h "ba"
<BEGINHMM>
<NUMSTATES> 5
<STATE> 2
<MEAN> 39
 -1.353434e+01 -7.501049e+00 3.419640e+00 -4.384594e+00 -8.184235e-01 -4.879500e+00 -2.850515e+00 -5.819112e+00 -3.086862e+00 -3.200992e+00 -1.461677e+00 -6.120543e+00 5.654935e+01 2.095513e-02 -1.888664e-02 1.868200e-02 -2.844953e-02 2.483354e-02 -2.115532e-02 -2.241350e-02 -2.440017e-02 1.065463e-02 -3.282030e-03 4.658002e-03 -2.475245e-02 5.571802e-02 -1.126378e-03 3.403265e-04 -2.369408e-03 1.090764e-03 -1.066260e-03 1.166533e-03 2.628627e-04 4.994946e-04 7.581220e-04 6.157260e-04 7.707305e-04 1.727923e-03 -2.385798e-03
<VARIANCE> 39
 8.257824e+01 6.222118e+01 9.910095e+01 7.501326e+01 5.574468e+01 6.783420e+01 3.692750e+01 5.708974e+01 4.289985e+01 3.876772e+01 3.840009e+01 3.000576e+01 4.123953e+02 2.307459e+00 3.119136e+00 2.514407e+00 4.030470e+00 2.338661e+00 2.652729e+00 2.405020e+00 3.557709e+00 2.861055e+00 2.672823e+00 2.702728e+00 1.716746e+00 6.175957e+00 3.544281e-01 5.277771e-01 3.884291e-01 6.828747e-01 4.025803e-01 4.745373e-01 4.560169e-01 6.362033e-01 5.278534e-01 5.074906e-01 4.992439e-01 3.320036e-01 8.377994e-01
<GCONST> 1.299783e+02
<STATE> 3
<MEAN> 39
 -1.343106e+01 -7.591828e+00 3.507286e+00 -4.508576e+00 -7.279816e-01 -4.967912e+00 -2.926103e+00 -5.929825e+00 -3.054209e+00 -3.223488e+00 -1.450297e+00 -6.223414e+00 5.682140e+01 1.684020e-02 -1.764669e-02 1.317207e-02 -2.376249e-02 1.797478e-02 -1.720552e-02 -1.873217e-02 -2.179548e-02 1.033105e-02 -1.871577e-03 5.315045e-03 -1.978127e-02 4.678802e-02 -7.057135e-04 2.957815e-04 -1.066320e-03 1.202679e-03 -1.545040e-03 9.383438e-04 1.132841e-03 7.714476e-04 -2.321915e-04 3.010711e-04 -3.726248e-04 1.101725e-03 -1.966585e-03
<VARIANCE> 39
 8.153743e+01 6.148269e+01 9.769450e+01 7.548524e+01 5.524377e+01 6.735715e+01 3.712558e+01 5.629502e+01 4.301649e+01 3.896679e+01 3.794918e+01 2.974901e+01 4.017839e+02 2.301583e+00 3.181549e+00 2.512336e+00 4.118381e+00 2.355493e+00 2.651865e+00 2.422220e+00 3.584115e+00 2.882431e+00 2.696762e+00 2.703763e+00 1.726215e+00 6.383080e+00 3.550698e-01 5.397636e-01 3.868607e-01 7.002320e-01 4.089200e-01 4.736768e-01 4.601675e-01 6.419209e-01 5.317687e-01 5.122345e-01 5.000862e-01 3.343697e-01 8.690149e-01
<GCONST> 1.301361e+02
<STATE> 4
<MEAN> 39
 -1.341894e+01 -7.595070e+00 3.731071e+00 -4.650412e+00 -9.090908e-01 -5.064491e+00 -2.864628e+00 -6.182647e+00 -3.168391e+00 -3.304322e+00 -1.529986e+00 -6.345709e+00 5.684214e+01 8.408569e-03 -1.354359e-02 1.015215e-02 -1.149337e-02 2.674837e-03 -1.624334e-02 -1.180401e-02 -1.333000e-02 3.657488e-03 -3.996236e-03 2.433531e-03 -1.387461e-02 3.062519e-02 -1.225373e-03 5.836511e-04 -2.534622e-04 2.075704e-03 -1.940536e-03 2.393098e-04 7.653562e-04 1.545439e-03 -6.237087e-04 8.171995e-05 -6.219636e-04 1.183136e-03 -2.844644e-03
<VARIANCE> 39
 7.848286e+01 6.056765e+01 1.014398e+02 7.678641e+01 5.457536e+01 6.558258e+01 3.730570e+01 5.614526e+01 4.202043e+01 3.777588e+01 3.643451e+01 2.969049e+01 3.911404e+02 2.237339e+00 3.215744e+00 2.541287e+00 4.120165e+00 2.373298e+00 2.651193e+00 2.426281e+00 3.542412e+00 2.818687e+00 2.628612e+00 2.607351e+00 1.704386e+00 6.783820e+00 3.494415e-01 5.478414e-01 3.865808e-01 7.030502e-01 4.229004e-01 4.780997e-01 4.630460e-01 6.374184e-01 5.200772e-01 4.986480e-01 4.800496e-01 3.302952e-01 9.265290e-01
<GCONST> 1.299384e+02
<TRANSP> 5
 0.000000e+00 1.000000e+00 0.000000e+00 0.000000e+00 0.000000e+00
 0.000000e+00 7.624307e-01 2.375693e-01 0.000000e+00 0.000000e+00
 0.000000e+00 0.000000e+00 7.624304e-01 2.375696e-01 0.000000e+00
 0.000000e+00 0.000000e+00 0.000000e+00 8.955798e-01 1.044202e-01
 0.000000e+00 0.000000e+00 0.000000e+00 0.000000e+00 0.000000e+00
<ENDHMM>
~h "be"
<BEGINHMM>
<NUMSTATES> 5
<STATE> 2
<MEAN> 39
 -1.590658e+01 -6.422285e+00 -6.164029e-01 -1.775824e+00 -1.182453e+00 -2.314868e+00 -3.312568e+00 -4.776707e+00 -2.411800e+00 -3.155466e+00 -1.960853e+00 -5.484373e+00 4.973076e+01 9.735070e-03 -3.177380e-02 5.150594e-02 -7.221208e-03 2.912455e-02 -2.719511e-02 -5.991811e-03 -7.983806e-03 4.817024e-02 4.655919e-02 1.960492e-02 -2.788749e-02 7.863794e-02 2.132608e-03 -8.495833e-04 3.200776e-03 3.888447e-03 -2.115213e-03 1.245492e-03 -1.279085e-03 4.962161e-04 -4.078872e-03 -3.057881e-05 2.822932e-03 2.609496e-03 -1.383495e-03
<VARIANCE> 39
 8.989841e+01 7.045328e+01 1.029722e+02 6.364384e+01 5.826538e+01 6.303455e+01 3.611234e+01 5.639157e+01 3.646871e+01 3.195224e+01 3.882128e+01 2.898964e+01 5.169295e+02 1.849141e+00 2.186685e+00 1.936174e+00 2.832293e+00 2.092056e+00 2.332007e+00 1.997629e+00 2.805592e+00 2.434374e+00 2.330721e+00 2.118483e+00 1.350692e+00 4.526699e+00 2.944534e-01 3.760392e-01 3.208412e-01 4.913731e-01 3.850055e-01 4.392318e-01 3.795383e-01 5.392156e-01 4.432253e-01 4.426037e-01 3.747021e-01 2.665361e-01 6.802220e-01
<GCONST> 1.243556e+02
<STATE> 3
<MEAN> 39
 -1.581769e+01 -6.564017e+00 -3.537099e-01 -1.771107e+00 -1.082529e+00 -2.400736e+00 -3.354553e+00 -4.831684e+00 -2.296811e+00 -2.971199e+00 -1.873661e+00 -5.582155e+00 5.006273e+01 2.560283e-02 -3.219925e-02 7.049230e-02 1.185250e-03 1.715092e-02 -1.909025e-02 -1.159527e-02 -1.811832e-02 2.369814e-02 4.293923e-02 2.274697e-02 -2.324014e-02 8.096501e-02 4.172397e-03 2.816465e-04 4.628482e-03 1.609568e-03 -3.006606e-03 1.977324e-03 -1.689946e-03 -3.077039e-03 -6.120875e-03 -1.521003e-03 8.603849e-05 6.939867e-04 8.739473e-04
<VARIANCE> 39
 9.094613e+01 7.128369e+01 1.057277e+02 6.255132e+01 5.762399e+01 6.232248e+01 3.735115e+01 5.711166e+01 3.607530e+01 3.141242e+01 3.881668e+01 2.878131e+01 5.164325e+02 1.910473e+00 2.222502e+00 1.952640e+00 2.843352e+00 2.065839e+00 2.313879e+00 2.030609e+00 2.816523e+00 2.392096e+00 2.332266e+00 2.123490e+00 1.369616e+00 4.679269e+00 3.005723e-01 3.807735e-01 3.216781e-01 4.998126e-01 3.766606e-01 4.378875e-01 3.863527e-01 5.358444e-01 4.315986e-01 4.431524e-01 3.760161e-01 2.691907e-01 6.978789e-01
<GCONST> 1.245225e+02
<STATE> 4
<MEAN> 39
 -1.514287e+01 -6.930390e+00 3.712287e-01 -2.002460e+00 -8.514386e-01 -2.504940e+00 -3.805099e+00 -5.288152e+00 -2.367739e+00 -2.753141e+00 -1.921753e+00 -5.960836e+00 5.132658e+01 5.847519e-02 -3.541401e-02 1.019893e-01 -6.230637e-03 1.200592e-02 -1.873636e-02 -2.767509e-02 -3.915025e-02 -2.194500e-03 3.089462e-02 1.205410e-02 -3.059685e-02 1.159649e-01 4.653946e-03 -3.709666e-04 3.959135e-03 -1.289110e-03 -6.469202e-04 -1.116348e-04 -2.059730e-03 -2.964414e-03 -3.238499e-03 -2.140780e-03 -1.569139e-03 -1.329642e-03 5.341993e-03
<VARIANCE> 39
 9.277559e+01 7.156944e+01 1.073304e+02 6.352712e+01 5.697836e+01 6.074094e+01 3.917961e+01 5.933297e+01 3.689057e+01 3.250324e+01 3.991721e+01 2.949552e+01 5.026289e+02 2.061628e+00 2.354301e+00 2.131635e+00 3.013845e+00 2.130380e+00 2.354506e+00 2.163607e+00 3.008736e+00 2.522940e+00 2.421742e+00 2.167639e+00 1.427379e+00 5.250617e+00 3.195559e-01 3.991288e-01 3.515610e-01 5.330592e-01 3.829260e-01 4.495551e-01 4.142500e-01 5.600336e-01 4.528207e-01 4.592306e-01 3.838582e-01 2.766390e-01 7.569273e-01
<GCONST> 1.260640e+02
<TRANSP> 5
 0.000000e+00 1.000000e+00 0.000000e+00 0.000000e+00 0.000000e+00
 0.000000e+00 7.573554e-01 2.426446e-01 0.000000e+00 0.000000e+00
 0.000000e+00 0.000000e+00 7.573550e-01 2.426450e-01 0.000000e+00
 0.000000e+00 0.000000e+00 0.000000e+00 8.846601e-01 1.153398e-01
 0.000000e+00 0.000000e+00 0.000000e+00 0.000000e+00 0.000000e+00
<ENDHMM>
~h "bi"
<BEGINHMM>
<NUMSTATES> 5
<STATE> 2
<MEAN> 39
 -1.251117e+01 -8.350707e+00 6.962687e+00 -3.631824e+00 -1.120245e+00 -7.280358e+00 -2.324322e+00 -6.692396e+00 -3.774629e+00 -3.330381e+00 -1.044746e+00 -6.891485e+00 6.218453e+01 1.710047e-02 6.308639e-03 1.518691e-02 -1.726295e-02 4.145486e-02 -4.741649e-02 2.649822e-02 1.751024e-03 5.271886e-02 -3.865300e-02 -3.044691e-02 7.919148e-04 8.588096e-02 -6.085284e-04 1.017037e-03 -2.888898e-03 -2.513927e-03 6.506820e-04 2.805736e-03 -4.257471e-04 1.933826e-03 5.666655e-05 7.097148e-04 -5.841535e-04 2.870635e-03 -5.128429e-03
<VARIANCE> 39
 7.946217e+01 6.002961e+01 1.044313e+02 6.705450e+01 5.332905e+01 7.195415e+01 4.633457e+01 5.600635e+01 4.493473e+01 4.234320e+01 3.741321e+01 2.978180e+01 3.506548e+02 3.702156e+00 3.386842e+00 2.884235e+00 4.205219e+00 3.008234e+00 3.131617e+00 2.827373e+00 3.317657e+00 2.992955e+00 3.319209e+00 2.833234e+00 1.861330e+00 5.097460e+00 5.923392e-01 6.039397e-01 4.517080e-01 7.162046e-01 5.210238e-01 6.065043e-01 5.214640e-01 6.000031e-01 5.363122e-01 6.208019e-01 5.120752e-01 3.558950e-01 7.818481e-01
<GCONST> 1.331167e+02
<STATE> 3
<MEAN> 39
 -1.244313e+01 -8.341619e+00 7.009055e+00 -3.729358e+00 -9.412272e-01 -7.449910e+00 -2.185865e+00 -6.672667e+00 -3.595942e+00 -3.489543e+00 -1.186168e+00 -6.862905e+00 6.251826e+01 1.920796e-02 3.740034e-03 8.469330e-03 -2.942567e-02 4.602495e-02 -3.223196e-02 3.093110e-02 4.939687e-03 4.083582e-02 -3.406205e-02 -3.307538e-02 7.721680e-03 7.553586e-02 8.961721e-05 -2.989562e-04 -1.343610e-03 -2.857768e-03 7.796082e-04 3.995794e-03 1.317349e-03 4.264567e-04 -3.544754e-03 1.347479e-03 -4.033219e-04 1.706052e-03 -3.015285e-03
<VARIANCE> 39
 7.824599e+01 5.958047e+01 1.022527e+02 6.443084e+01 5.331583e+01 7.073192e+01 4.664072e+01 5.552176e+01 4.389052e+01 4.244485e+01 3.853788e+01 2.956721e+01 3.415989e+02 3.721858e+00 3.395211e+00 2.934558e+00 4.145363e+00 3.003310e+00 3.141560e+00 2.819165e+00 3.334985e+00 2.960624e+00 3.315361e+00 2.834176e+00 1.855158e+00 5.050002e+00 5.960000e-01 6.051468e-01 4.585570e-01 7.054397e-01 5.195788e-01 6.091760e-01 5.171039e-01 5.963668e-01 5.294647e-01 6.161234e-01 5.045743e-01 3.536769e-01 7.700566e-01
<GCONST> 1.329171e+02
<STATE> 4
<MEAN> 39
 -1.220435e+01 -8.540352e+00 7.124535e+00 -4.089387e+00 -3.386248e-01 -7.717100e+00 -1.628432e+00 -6.727382e+00 -3.413415e+00 -3.848062e+00 -1.572825e+00 -6.835628e+00 6.351700e+01 3.705812e-02 -8.324054e-03 6.473577e-03 -4.027996e-02 5.301782e-02 -2.328264e-02 3.653813e-02 1.157148e-03 1.500480e-02 -2.819715e-02 -4.731967e-02 4.405131e-03 8.023995e-02 1.665448e-03 -2.721401e-04 -6.581983e-05 -1.662397e-03 5.153628e-04 2.137596e-03 1.008388e-04 -7.519780e-04 -3.799642e-03 1.531963e-03 -7.217681e-04 -2.397669e-04 -1.156567e-03
<VARIANCE> 39
 7.520380e+01 5.868361e+01 9.646397e+01 6.059760e+01 5.416096e+01 6.602422e+01 4.635435e+01 5.366624e+01 4.285825e+01 4.276132e+01 4.107354e+01 2.876829e+01 3.077358e+02 3.841049e+00 3.427128e+00 3.115545e+00 4.063695e+00 2.942655e+00 3.099560e+00 2.761767e+00 3.382833e+00 2.893252e+00 3.308406e+00 2.885157e+00 1.844587e+00 5.118138e+00 6.110889e-01 6.063728e-01 4.840491e-01 6.908295e-01 5.115579e-01 5.960439e-01 4.988692e-01 5.936527e-01 5.157388e-01 6.089626e-01 5.019701e-01 3.506663e-01 7.540229e-01
<GCONST> 1.325157e+02
<TRANSP> 5
 0.000000e+00 1.000000e+00 0.000000e+00 0.000000e+00 0.000000e+00
 0.000000e+00 7.545815e-01 2.454185e-01 0.000000e+00 0.000000e+00
 0.000000e+00 0.000000e+00 7.545810e-01 2.454190e-01 0.000000e+00
 0.000000e+00 0.000000e+00 0.000000e+00 8.824379e-01 1.175620e-01
 0.000000e+00 0.000000e+00 0.000000e+00 0.000000e+00 0.000000e+00
<ENDHMM>
~h "bo"
<BEGINHMM>
<NUMSTATES> 5
<STATE> 2
<MEAN> 39
 -1.729125e+01 -5.287816e+00 1.640396e+00 -1.593962e+00 -2.971563e+00 6.686783e-02 -2.449182e+00 -3.953538e+00 -3.334745e+00 -9.289036e-01 -1.283041e-01 -5.479342e+00 4.620274e+01 2.461863e-01 -1.949334e-01 2.607152e-01 -1.878219e-01 8.961877e-02 -1.605216e-01 9.898559e-03 -9.052964e-02 -5.695024e-02 4.261969e-02 -2.085887e-02 -8.880902e-02 6.519995e-01 9.266706e-05 -1.008192e-03 -6.415104e-03 -1.877513e-03 5.350242e-04 7.300591e-05 1.489567e-03 3.560614e-03 4.020548e-03 2.708231e-03 5.315372e-05 5.091286e-03 3.136448e-04
<VARIANCE> 39
 8.781699e+01 7.103439e+01 1.424329e+02 7.569498e+01 4.868818e+01 4.957448e+01 3.664726e+01 4.531898e+01 3.862066e+01 2.710176e+01 1.790404e+01 3.354613e+01 5.452774e+02 2.042758e+00 2.664081e+00 3.195776e+00 4.435714e+00 2.356192e+00 2.027634e+00 3.257395e+00 2.855471e+00 2.417246e+00 2.464278e+00 1.178381e+00 1.611112e+00 7.212169e+00 3.190215e-01 4.815010e-01 5.250243e-01 7.165591e-01 3.886622e-01 3.239626e-01 6.305638e-01 5.603380e-01 4.340977e-01 4.650938e-01 2.063631e-01 2.956771e-01 1.087929e+00
<GCONST> 1.268231e+02
<STATE> 3
<MEAN> 39
 -1.608447e+01 -6.257693e+00 2.795274e+00 -2.552956e+00 -2.528237e+00 -7.274020e-01 -2.387859e+00 -4.321531e+00 -3.560725e+00 -6.957211e-01 -2.032183e-01 -5.799323e+00 4.938362e+01 2.459409e-01 -1.997316e-01 2.299398e-01 -1.971064e-01 9.109273e-02 -1.627726e-01 1.271172e-02 -7.089196e-02 -4.243299e-02 4.673258e-02 -1.597927e-02 -5.953136e-02 6.495241e-01 -2.314405e-04 -8.990976e-04 -6.031094e-03 -1.811135e-03 3.313525e-04 -4.591322e-04 2.525700e-04 3.893651e-03 2.996313e-03 2.722568e-04 7.540969e-04 5.930424e-03 -7.783137e-04
<VARIANCE> 39
 9.146751e+01 7.600650e+01 1.416377e+02 8.134161e+01 5.170808e+01 5.207047e+01 3.968328e+01 4.555402e+01 4.160201e+01 2.883161e+01 2.001614e+01 3.278773e+01 5.622256e+02 2.177815e+00 2.720577e+00 3.141859e+00 4.846392e+00 2.577067e+00 2.088044e+00 3.290522e+00 2.876943e+00 2.637870e+00 2.654167e+00 1.260152e+00 1.584429e+00 7.494498e+00 3.326861e-01 4.727509e-01 5.003082e-01 7.717237e-01 4.232185e-01 3.334951e-01 6.288160e-01 5.436552e-01 4.709039e-01 5.055355e-01 2.156278e-01 2.902305e-01 1.082834e+00
<GCONST> 1.283070e+02
<STATE> 4
<MEAN> 39
 -1.338155e+01 -8.615292e+00 5.085052e+00 -4.955185e+00 -1.268081e+00 -2.644722e+00 -2.414717e+00 -4.930811e+00 -3.636556e+00 -4.606383e-01 -6.691900e-01 -6.045019e+00 5.676437e+01 2.289393e-01 -2.110988e-01 1.899315e-01 -2.038765e-01 1.159545e-01 -1.685406e-01 -1.895940e-06 -5.113983e-02 -1.347978e-04 1.296863e-02 -5.281901e-02 -1.881481e-02 6.393362e-01 -2.390566e-03 -4.576037e-04 -3.660572e-03 3.818745e-04 1.873893e-03 -1.490689e-04 -9.223393e-04 1.368156e-03 3.812139e-03 -3.312068e-03 -3.435724e-03 2.946993e-03 -2.627959e-03
<VARIANCE> 39
 9.213014e+01 8.168066e+01 1.249323e+02 9.226030e+01 5.681636e+01 5.520697e+01 4.339946e+01 4.762200e+01 4.681816e+01 3.312083e+01 2.818799e+01 2.922511e+01 5.346355e+02 2.549462e+00 2.796853e+00 2.854357e+00 5.780349e+00 3.093948e+00 2.232110e+00 3.081237e+00 3.219924e+00 3.162638e+00 2.947514e+00 1.573612e+00 1.452102e+00 7.831101e+00 3.653588e-01 4.407664e-01 4.205248e-01 8.819892e-01 5.019471e-01 3.588615e-01 5.759344e-01 5.681998e-01 5.655742e-01 5.653189e-01 2.557685e-01 2.720686e-01 1.029444e+00
<GCONST> 1.306684e+02
<TRANSP> 5
 0.000000e+00 1.000000e+00 0.000000e+00 0.000000e+00 0.000000e+00
 0.000000e+00 7.955093e-01 2.044907e-01 0.000000e+00 0.000000e+00
 0.000000e+00 0.000000e+00 7.955093e-01 2.044907e-01 0.000000e+00
 0.000000e+00 0.000000e+00 0.000000e+00 9.249894e-01 7.501061e-02
 0.000000e+00 0.000000e+00 0.000000e+00 0.000000e+00 0.000000e+00
<ENDHMM>
~h "bu"
<BEGINHMM>
<NUMSTATES> 5
<STATE> 2
<MEAN> 39
 -9.571901e+00 -7.464829e+00 5.178387e+00 -7.173571e+00 8.821115e-01 -3.677383e+00 -3.278704e+00 -7.060665e+00 -5.019849e+00 -4.507447e+00 -1.230928e+00 -7.845826e+00 6.247931e+01 -8.375300e-02 3.359181e-02 -9.610550e-02 6.321076e-02 -1.358364e-02 8.258156e-03 2.520543e-02 6.573756e-02 6.077196e-02 7.151254e-05 -3.705566e-02 2.256530e-02 -1.710248e-01 -9.627095e-04 -2.369434e-03 1.553449e-03 1.611779e-03 -1.280084e-03 -2.002767e-03 -6.384621e-04 -2.060360e-03 1.084911e-03 1.614703e-03 -8.306161e-04 1.261428e-03 1.735738e-03
<VARIANCE> 39
 4.894703e+01 5.801715e+01 7.852894e+01 8.368083e+01 5.036935e+01 5.652075e+01 3.886604e+01 5.354863e+01 5.226092e+01 3.842050e+01 4.046624e+01 2.414087e+01 1.865745e+02 1.902841e+00 3.535210e+00 2.389203e+00 5.234531e+00 2.886230e+00 3.117587e+00 2.317856e+00 4.261233e+00 3.572701e+00 2.564914e+00 2.951323e+00 1.857140e+00 4.187047e+00 3.052654e-01 5.463464e-01 4.053033e-01 8.560877e-01 5.224081e-01 5.617133e-01 4.225799e-01 7.468331e-01 6.567119e-01 4.541853e-01 5.335232e-01 3.501996e-01 5.598384e-01
<GCONST> 1.293036e+02
<STATE> 3
<MEAN> 39
 -9.950258e+00 -7.360410e+00 4.769187e+00 -6.871481e+00 8.003738e-01 -3.660468e+00 -3.166643e+00 -6.797699e+00 -4.730127e+00 -4.492115e+00 -1.413072e+00 -7.725273e+00 6.175180e+01 -8.572153e-02 2.296048e-02 -8.641918e-02 6.785725e-02 -1.882609e-02 -5.497413e-04 2.097405e-02 5.655681e-02 6.323197e-02 5.681369e-03 -4.001989e-02 2.778970e-02 -1.593432e-01 -4.536525e-05 -2.902748e-03 2.724895e-03 4.670818e-04 -9.148607e-04 -2.253958e-03 -1.296920e-03 -2.764164e-03 1.827880e-04 1.395420e-03 -4.928408e-04 1.134230e-03 3.835265e-03
<VARIANCE> 39
 5.293197e+01 5.867163e+01 8.000822e+01 8.316754e+01 5.010880e+01 5.591357e+01 3.845740e+01 5.192983e+01 5.003310e+01 3.865627e+01 4.085609e+01 2.458880e+01 2.077511e+02 1.910626e+00 3.510533e+00 2.337196e+00 5.060881e+00 2.799652e+00 3.096932e+00 2.278392e+00 4.188030e+00 3.450693e+00 2.563764e+00 2.954580e+00 1.835369e+00 4.102462e+00 3.063629e-01 5.412735e-01 3.987639e-01 8.282443e-01 5.042128e-01 5.563563e-01 4.178960e-01 7.323118e-01 6.388016e-01 4.544044e-01 5.399209e-01 3.461250e-01 5.521046e-01
<GCONST> 1.290781e+02
<STATE> 4
<MEAN> 39
 -1.072061e+01 -7.380850e+00 4.049916e+00 -6.238021e+00 6.031317e-01 -3.780077e+00 -2.848233e+00 -6.511891e+00 -4.213875e+00 -4.393224e+00 -1.796407e+00 -7.396703e+00 6.055531e+01 -8.552489e-02 5.850365e-03 -6.578999e-02 7.413074e-02 -3.043954e-02 -1.440648e-02 1.355952e-02 4.330225e-02 6.361820e-02 9.168152e-03 -4.506904e-02 3.664179e-02 -1.371232e-01 8.803859e-04 -2.502365e-03 3.939060e-03 -3.870514e-04 -5.926541e-04 -2.086463e-03 -1.485552e-03 -2.654122e-03 -9.072794e-04 6.113686e-04 2.489275e-04 6.946460e-04 4.986931e-03
<VARIANCE> 39
 5.919981e+01 5.940555e+01 8.027100e+01 8.240176e+01 4.892391e+01 5.349529e+01 3.812025e+01 4.829976e+01 4.614857e+01 3.873038e+01 4.104818e+01 2.519744e+01 2.389082e+02 2.013637e+00 3.417787e+00 2.218069e+00 4.758720e+00 2.637462e+00 2.947671e+00 2.213312e+00 3.922454e+00 3.232907e+00 2.585449e+00 3.030614e+00 1.860696e+00 4.010619e+00 3.225622e-01 5.256903e-01 3.791122e-01 7.765848e-01 4.723759e-01 5.282879e-01 4.091623e-01 6.804368e-01 6.093692e-01 4.589144e-01 5.655620e-01 3.567603e-01 5.473498e-01
<GCONST> 1.285316e+02
<TRANSP> 5
 0.000000e+00 1.000000e+00 0.000000e+00 0.000000e+00 0.000000e+00
 0.000000e+00 7.627178e-01 2.372822e-01 0.000000e+00 0.000000e+00
 0.000000e+00 0.000000e+00 7.627178e-01 2.372822e-01 0.000000e+00
 0.000000e+00 0.000000e+00 0.000000e+00 8.901402e-01 1.098597e-01
 0.000000e+00 0.000000e+00 0.000000e+00 0.000000e+00 0.000000e+00
<ENDHMM>
~h "ca"
<BEGINHMM>
<NUMSTATES> 5
<STATE> 2
<MEAN> 39
 -1.351558e+01 -4.838878e+00 3.045725e+00 -2.663177e+00 -3.386237e+00 -6.462764e+00 -4.216343e+00 -6.704094e+00 -1.821212e+00 -6.176737e+00 -9.758058e-01 -5.742910e+00 5.821780e+01 1.014884e-01 -6.150456e-02 2.939381e-02 -1.484226e-01 7.955663e-02 -9.103082e-03 -4.140850e-03 -3.057875e-02 -3.613173e-02 7.969964e-02 -3.238093e-02 -3.731122e-02 1.496283e-01 6.039423e-04 -8.379441e-03 1.859971e-04 -3.641122e-03 1.214901e-03 -6.219670e-03 2.446386e-03 -3.905455e-03 1.808340e-03 5.690435e-03 -7.335952e-03 -2.884322e-03 3.979555e-03
<VARIANCE> 39
 1.030877e+02 5.466588e+01 8.407826e+01 6.272395e+01 3.778669e+01 7.992825e+01 5.053102e+01 4.896517e+01 3.854625e+01 4.503958e+01 4.135585e+01 2.452647e+01 3.980439e+02 5.036063e+00 3.830100e+00 2.643816e+00 2.949492e+00 3.343478e+00 3.972446e+00 2.930784e+00 3.274632e+00 2.678325e+00 2.892883e+00 3.344165e+00 1.649067e+00 4.994380e+00 8.640443e-01 6.483888e-01 4.754407e-01 4.532109e-01 6.350291e-01 8.116186e-01 5.170922e-01 6.655636e-01 4.853272e-01 5.564896e-01 5.633141e-01 3.232057e-01 7.410416e-01
<GCONST> 1.331478e+02
<STATE> 3
<MEAN> 39
 -1.304597e+01 -5.169338e+00 3.218169e+00 -3.288903e+00 -3.042657e+00 -6.573660e+00 -4.232440e+00 -6.898917e+00 -1.972799e+00 -5.834831e+00 -1.157306e+00 -5.922468e+00 5.895121e+01 1.020609e-01 -9.333533e-02 3.288380e-02 -1.560048e-01 8.115017e-02 -3.773622e-02 6.270366e-03 -4.819545e-02 -2.929087e-02 9.709021e-02 -5.938465e-02 -4.803188e-02 1.650141e-01 -1.782177e-03 -6.833744e-03 3.500982e-04 1.443329e-03 -1.176477e-03 -7.267115e-03 3.448997e-03 -3.618933e-03 2.058214e-03 3.137831e-03 -6.265009e-03 -2.015316e-03 6.194705e-05
<VARIANCE> 39
 1.003881e+02 5.474170e+01 8.245301e+01 6.505750e+01 4.059853e+01 7.855258e+01 5.067802e+01 4.757453e+01 4.065004e+01 4.507090e+01 4.279914e+01 2.531581e+01 3.766764e+02 4.883722e+00 3.864569e+00 2.677466e+00 2.930485e+00 3.328528e+00 3.987973e+00 2.849695e+00 3.262036e+00 2.781191e+00 2.910517e+00 3.352945e+00 1.671381e+00 5.401297e+00 8.227649e-01 6.508116e-01 4.785916e-01 4.516240e-01 6.196113e-01 8.145317e-01 4.969199e-01 6.596435e-01 5.022221e-01 5.553098e-01 5.545663e-01 3.203869e-01 7.754341e-01
<GCONST> 1.332641e+02
<STATE> 4
<MEAN> 39
 -1.245535e+01 -5.869964e+00 3.421324e+00 -4.043862e+00 -2.466445e+00 -6.906886e+00 -4.182479e+00 -7.411422e+00 -2.148132e+00 -5.247346e+00 -1.601746e+00 -6.114398e+00 5.975606e+01 9.626067e-02 -1.240075e-01 4.939735e-02 -1.358716e-01 7.172929e-02 -8.348057e-02 1.792941e-02 -8.073799e-02 -2.698081e-02 9.711401e-02 -7.701027e-02 -5.871027e-02 1.802160e-01 -6.765367e-03 -1.686814e-03 -1.150540e-03 8.211210e-03 -4.754340e-03 -5.029467e-03 3.553613e-03 -1.323098e-03 1.662291e-03 -6.866971e-04 -1.695412e-03 2.343059e-04 -9.246493e-03
<VARIANCE> 39
 9.420210e+01 5.366777e+01 7.908833e+01 6.483183e+01 4.540493e+01 7.416853e+01 4.898257e+01 4.619732e+01 4.284042e+01 4.372646e+01 4.390645e+01 2.579152e+01 3.407967e+02 4.683416e+00 3.840025e+00 2.715979e+00 2.941278e+00 3.324459e+00 3.899055e+00 2.733608e+00 3.184068e+00 2.931292e+00 2.870258e+00 3.305386e+00 1.668643e+00 6.272819e+00 7.630850e-01 6.432646e-01 4.771377e-01 4.568425e-01 5.996883e-01 7.909680e-01 4.676984e-01 6.352667e-01 5.293478e-01 5.418973e-01 5.364947e-01 3.110477e-01 8.480950e-01
<GCONST> 1.329615e+02
<TRANSP> 5
 0.000000e+00 1.000000e+00 0.000000e+00 0.000000e+00 0.000000e+00
 0.000000e+00 7.468949e-01 2.531050e-01 0.000000e+00 0.000000e+00
 0.000000e+00 0.000000e+00 7.468952e-01 2.531048e-01 0.000000e+00
 0.000000e+00 0.000000e+00 0.000000e+00 8.701397e-01 1.298604e-01
 0.000000e+00 0.000000e+00 0.000000e+00 0.000000e+00 0.000000e+00
<ENDHMM>
~h "ce"
<BEGINHMM>
<NUMSTATES> 5
<STATE> 2
<MEAN> 39
 -1.414439e+01 -7.743544e+00 2.981896e+00 -3.338959e+00 -1.236701e+00 -4.557664e+00 -2.877691e+00 -5.862136e+00 -3.202762e+00 -3.443379e+00 -1.721877e+00 -6.371274e+00 5.579076e+01 6.232237e-03 -1.184823e-02 5.264243e-03 -6.519453e-03 1.211909e-02 -4.235385e-03 -3.512999e-03 -1.805082e-02 -5.453523e-03 -6.036744e-03 -7.011249e-03 -6.053052e-03 2.423646e-02 -9.010978e-04 1.120651e-04 9.610648e-04 -2.967558e-04 -9.534184e-04 -8.676232e-04 1.872276e-03 1.397487e-03 1.512468e-03 6.095680e-04 -1.876877e-03 -2.391075e-03 8.105070e-05
<VARIANCE> 39
 8.422131e+01 6.084932e+01 1.073184e+02 6.955961e+01 5.446898e+01 7.079699e+01 4.003558e+01 5.404599e+01 3.966318e+01 3.654010e+01 3.580028e+01 3.070767e+01 4.210256e+02 2.718938e+00 2.774098e+00 2.577952e+00 3.647003e+00 2.640600e+00 2.721259e+00 2.408645e+00 3.156996e+00 2.811730e+00 2.666958e+00 2.489032e+00 1.730705e+00 5.594234e+00 4.269334e-01 4.867562e-01 4.137151e-01 6.318184e-01 4.706049e-01 4.998694e-01 4.513086e-01 5.820031e-01 5.208243e-01 5.037161e-01 4.586620e-01 3.360353e-01 8.262612e-01
<GCONST> 1.297615e+02
<STATE> 3
<MEAN> 39
 -1.414439e+01 -7.743544e+00 2.981896e+00 -3.338959e+00 -1.236701e+00 -4.557664e+00 -2.877691e+00 -5.862136e+00 -3.202762e+00 -3.443379e+00 -1.721877e+00 -6.371274e+00 5.579076e+01 6.232237e-03 -1.184823e-02 5.264243e-03 -6.519453e-03 1.211909e-02 -4.235385e-03 -3.512999e-03 -1.805082e-02 -5.453523e-03 -6.036744e-03 -7.011249e-03 -6.053052e-03 2.423646e-02 -9.010978e-04 1.120651e-04 9.610648e-04 -2.967558e-04 -9.534184e-04 -8.676232e-04 1.872276e-03 1.397487e-03 1.512468e-03 6.095680e-04 -1.876877e-03 -2.391075e-03 8.105070e-05
<VARIANCE> 39
 8.422131e+01 6.084932e+01 1.073184e+02 6.955961e+01 5.446898e+01 7.079699e+01 4.003558e+01 5.404599e+01 3.966318e+01 3.654010e+01 3.580028e+01 3.070767e+01 4.210256e+02 2.718938e+00 2.774098e+00 2.577952e+00 3.647003e+00 2.640600e+00 2.721259e+00 2.408645e+00 3.156996e+00 2.811730e+00 2.666958e+00 2.489032e+00 1.730705e+00 5.594234e+00 4.269334e-01 4.867562e-01 4.137151e-01 6.318184e-01 4.706049e-01 4.998694e-01 4.513086e-01 5.820031e-01 5.208243e-01 5.037161e-01 4.586620e-01 3.360353e-01 8.262612e-01
<GCONST> 1.297615e+02
<STATE> 4
<MEAN> 39
 -1.414439e+01 -7.743544e+00 2.981896e+00 -3.338959e+00 -1.236701e+00 -4.557664e+00 -2.877691e+00 -5.862136e+00 -3.202762e+00 -3.443379e+00 -1.721877e+00 -6.371274e+00 5.579076e+01 6.232237e-03 -1.184823e-02 5.264243e-03 -6.519453e-03 1.211909e-02 -4.235385e-03 -3.512999e-03 -1.805082e-02 -5.453523e-03 -6.036744e-03 -7.011249e-03 -6.053052e-03 2.423646e-02 -9.010978e-04 1.120651e-04 9.610648e-04 -2.967558e-04 -9.534184e-04 -8.676232e-04 1.872276e-03 1.397487e-03 1.512468e-03 6.095680e-04 -1.876877e-03 -2.391075e-03 8.105070e-05
<VARIANCE> 39
 8.422131e+01 6.084932e+01 1.073184e+02 6.955961e+01 5.446898e+01 7.079699e+01 4.003558e+01 5.404599e+01 3.966318e+01 3.654010e+01 3.580028e+01 3.070767e+01 4.210256e+02 2.718938e+00 2.774098e+00 2.577952e+00 3.647003e+00 2.640600e+00 2.721259e+00 2.408645e+00 3.156996e+00 2.811730e+00 2.666958e+00 2.489032e+00 1.730705e+00 5.594234e+00 4.269334e-01 4.867562e-01 4.137151e-01 6.318184e-01 4.706049e-01 4.998694e-01 4.513086e-01 5.820031e-01 5.208243e-01 5.037161e-01 4.586620e-01 3.360353e-01 8.262612e-01
<GCONST> 1.297615e+02
<TRANSP> 5
 0.000000e+00 1.000000e+00 0.000000e+00 0.000000e+00 0.000000e+00
 0.000000e+00 6.000000e-01 4.000000e-01 0.000000e+00 0.000000e+00
 0.000000e+00 0.000000e+00 6.000000e-01 4.000000e-01 0.000000e+00
 0.000000e+00 0.000000e+00 0.000000e+00 7.000000e-01 3.000000e-01
 0.000000e+00 0.000000e+00 0.000000e+00 0.000000e+00 0.000000e+00
<ENDHMM>
~h "co"
<BEGINHMM>
<NUMSTATES> 5
<STATE> 2
<MEAN> 39
 -1.680152e+01 -8.572350e+00 2.165818e+00 -3.773754e+00 -3.212723e+00 -4.630446e+00 -1.708851e+00 -6.009721e+00 -2.111112e+00 -4.679675e+00 -1.162909e-01 -7.309358e+00 5.532310e+01 2.720135e-02 -4.869093e-02 -6.620068e-03 1.966468e-02 7.987455e-02 -1.785634e-02 3.781185e-02 -2.012790e-02 4.928777e-02 -3.972695e-02 9.143885e-03 -2.121756e-02 8.580151e-02 8.331978e-04 -2.392967e-03 6.219494e-03 -5.905993e-04 -2.984035e-03 -2.541378e-03 -1.696854e-03 4.988505e-04 -1.745756e-04 -6.678011e-04 6.778581e-04 1.384821e-03 6.433108e-03
<VARIANCE> 39
