~o
<STREAMINFO> 1 39
<VECSIZE> 39<NULLD><MFCC_D_A_0><DIAGC>
~h "a"
<BEGINHMM>
<NUMSTATES> 5
<STATE> 2
<MEAN> 39
 -1.205106e+01 -9.381131e+00 4.975675e+00 -5.412011e+00 -5.056086e-01 -6.194280e+00 -2.665782e+00 -6.372715e+00 -3.614362e+00 -4.143931e+00 -2.671633e+00 -7.054192e+00 6.165760e+01 7.446636e-04 -1.454230e-02 -4.593121e-03 -3.804976e-03 3.235027e-03 -1.031043e-02 -1.388637e-02 3.431238e-03 -2.851021e-03 2.332723e-03 -1.615342e-02 9.511199e-03 -5.242806e-03 -5.844532e-04 9.258516e-05 -4.332029e-04 2.301584e-03 -2.518296e-06 6.954705e-04 -7.999174e-04 -1.111046e-04 -5.583302e-05 3.450433e-04 1.304544e-03 5.018476e-04 -2.601997e-03
<VARIANCE> 39
 7.122499e+01 6.307908e+01 1.058560e+02 7.168735e+01 5.914803e+01 7.479625e+01 4.161666e+01 5.297446e+01 4.009999e+01 3.856628e+01 4.005933e+01 3.063449e+01 3.488393e+02 2.407298e+00 3.053504e+00 2.741033e+00 3.895452e+00 2.827343e+00 2.675742e+00 2.283935e+00 3.088057e+00 2.738375e+00 2.723514e+00 2.470260e+00 1.802481e+00 5.735467e+00 3.872918e-01 4.981907e-01 4.259852e-01 6.605777e-01 4.931169e-01 4.759590e-01 4.148008e-01 5.577223e-01 5.014363e-01 5.051163e-01 4.258623e-01 3.505776e-01 8.095423e-01
<GCONST> 1.297022e+02
<STATE> 3
<MEAN> 39
 -1.205034e+01 -9.447698e+00 4.949572e+00 -5.407413e+00 -4.824961e-01 -6.233811e+00 -2.723342e+00 -6.347847e+00 -3.618979e+00 -4.138489e+00 -2.736997e+00 -7.019038e+00 6.161945e+01 -1.209006e-03 -1.360910e-02 -5.283798e-03 3.855208e-03 3.443826e-03 -5.900725e-03 -1.484255e-02 5.546778e-03 -1.892303e-03 3.362196e-03 -1.255735e-02 8.028809e-03 -1.532301e-02 -4.129566e-04 -2.470690e-05 1.220533e-04 1.661750e-03 1.808550e-04 7.048640e-04 1.917582e-05 4.215084e-04 1.537182e-04 -3.691379e-05 6.750415e-04 -6.937759e-04 -1.586916e-03
<VARIANCE> 39
 7.004123e+01 6.274805e+01 1.050425e+02 7.200392e+01 5.934108e+01 7.416790e+01 4.111909e+01 5.272053e+01 3.957067e+01 3.835511e+01 3.978110e+01 3.048325e+01 3.463083e+02 2.377529e+00 3.060555e+00 2.752297e+00 3.905837e+00 2.856419e+00 2.709758e+00 2.284917e+00 3.097777e+00 2.707230e+00 2.716121e+00 2.456744e+00 1.794838e+00 5.917233e+00 3.817306e-01 5.013776e-01 4.255437e-01 6.633929e-01 4.979230e-01 4.837877e-01 4.157870e-01 5.603871e-01 4.947379e-01 5.029176e-01 4.250501e-01 3.495321e-01 8.340128e-01
<GCONST> 1.296826e+02
<STATE> 4
<MEAN> 39
 -1.198686e+01 -9.674595e+00 4.915992e+00 -5.399424e+00 -3.240253e-01 -6.355713e+00 -2.706719e+00 -6.303035e+00 -3.574167e+00 -4.235086e+00 -2.884481e+00 -7.024496e+00 6.184599e+01 -7.508011e-03 -8.914845e-03 -1.064953e-02 1.583569e-02 1.344807e-03 -1.436947e-03 -1.416412e-02 1.304222e-02 1.992231e-03 7.232806e-03 -7.527444e-03 5.928738e-03 -3.650758e-02 -7.678696e-04 3.475444e-04 -1.185774e-04 1.304744e-03 -3.967462e-04 2.206290e-04 2.535629e-04 4.432115e-04 1.298792e-04 3.099333e-04 7.514304e-04 -6.019520e-04 -1.592731e-03
<VARIANCE> 39
 6.783903e+01 6.168214e+01 1.015548e+02 7.201122e+01 5.974589e+01 7.201141e+01 4.098890e+01 5.213229e+01 3.876112e+01 3.814631e+01 3.970845e+01 2.979492e+01 3.339167e+02 2.375966e+00 3.074414e+00 2.717515e+00 3.898831e+00 2.885758e+00 2.760881e+00 2.287385e+00 3.102830e+00 2.658563e+00 2.702873e+00 2.465570e+00 1.786002e+00 6.160323e+00 3.781214e-01 5.059544e-01 4.179035e-01 6.642405e-01 5.033559e-01 4.962335e-01 4.177968e-01 5.631752e-01 4.849313e-01 4.987501e-01 4.284840e-01 3.478989e-01 8.645183e-01
<GCONST> 1.295521e+02
<TRANSP> 5
 0.000000e+00 1.000000e+00 0.000000e+00 0.000000e+00 0.000000e+00
 0.000000e+00 7.555588e-01 2.444412e-01 0.000000e+00 0.000000e+00
 0.000000e+00 0.000000e+00 7.555592e-01 2.444408e-01 0.000000e+00
 0.000000e+00 0.000000e+00 0.000000e+00 8.820829e-01 1.179171e-01
 0.000000e+00 0.000000e+00 0.000000e+00 0.000000e+00 0.000000e+00
<ENDHMM>
~h "b"
<BEGINHMM>
<NUMSTATES> 5
<STATE> 2
<MEAN> 39
 -1.414439e+01 -7.743544e+00 2.981896e+00 -3.338959e+00 -1.236701e+00 -4.557664e+00 -2.877691e+00 -5.862136e+00 -3.202762e+00 -3.443379e+00 -1.721877e+00 -6.371274e+00 5.579076e+01 6.232359e-03 -1.184804e-02 5.264054e-03 -6.519258e-03 1.211933e-02 -4.235122e-03 -3.513063e-03 -1.805109e-02 -5.453553e-03 -6.036517e-03 -7.011238e-03 -6.053182e-03 2.423620e-02 -9.010879e-04 1.120917e-04 9.610619e-04 -2.967312e-04 -9.533982e-04 -8.676147e-04 1.872286e-03 1.397449e-03 1.512503e-03 6.096156e-04 -1.876927e-03 -2.391097e-03 8.105883e-05
<VARIANCE> 39
 8.422131e+01 6.084932e+01 1.073184e+02 6.955961e+01 5.446898e+01 7.079699e+01 4.003558e+01 5.404599e+01 3.966318e+01 3.654010e+01 3.580028e+01 3.070767e+01 4.210256e+02 2.718939e+00 2.774098e+00 2.577951e+00 3.647006e+00 2.640604e+00 2.721262e+00 2.408642e+00 3.156995e+00 2.811726e+00 2.666955e+00 2.489032e+00 1.730701e+00 5.594233e+00 4.269344e-01 4.867565e-01 4.137163e-01 6.318190e-01 4.706055e-01 4.998690e-01 4.513081e-01 5.820021e-01 5.208251e-01 5.037160e-01 4.586603e-01 3.360357e-01 8.262613e-01
<GCONST> 1.297615e+02
<STATE> 3
<MEAN> 39
 -1.414439e+01 -7.743544e+00 2.981896e+00 -3.338959e+00 -1.236701e+00 -4.557664e+00 -2.877691e+00 -5.862136e+00 -3.202762e+00 -3.443379e+00 -1.721877e+00 -6.371274e+00 5.579076e+01 6.232359e-03 -1.184804e-02 5.264054e-03 -6.519258e-03 1.211933e-02 -4.235122e-03 -3.513063e-03 -1.805109e-02 -5.453553e-03 -6.036517e-03 -7.011238e-03 -6.053182e-03 2.423620e-02 -9.010879e-04 1.120917e-04 9.610619e-04 -2.967312e-04 -9.533982e-04 -8.676147e-04 1.872286e-03 1.397449e-03 1.512503e-03 6.096156e-04 -1.876927e-03 -2.391097e-03 8.105883e-05
<VARIANCE> 39
 8.422131e+01 6.084932e+01 1.073184e+02 6.955961e+01 5.446898e+01 7.079699e+01 4.003558e+01 5.404599e+01 3.966318e+01 3.654010e+01 3.580028e+01 3.070767e+01 4.210256e+02 2.718939e+00 2.774098e+00 2.577951e+00 3.647006e+00 2.640604e+00 2.721262e+00 2.408642e+00 3.156995e+00 2.811726e+00 2.666955e+00 2.489032e+00 1.730701e+00 5.594233e+00 4.269344e-01 4.867565e-01 4.137163e-01 6.318190e-01 4.706055e-01 4.998690e-01 4.513081e-01 5.820021e-01 5.208251e-01 5.037160e-01 4.586603e-01 3.360357e-01 8.262613e-01
<GCONST> 1.297615e+02
<STATE> 4
<MEAN> 39
 -1.414439e+01 -7.743544e+00 2.981896e+00 -3.338959e+00 -1.236701e+00 -4.557664e+00 -2.877691e+00 -5.862136e+00 -3.202762e+00 -3.443379e+00 -1.721877e+00 -6.371274e+00 5.579076e+01 6.232359e-03 -1.184804e-02 5.264054e-03 -6.519258e-03 1.211933e-02 -4.235122e-03 -3.513063e-03 -1.805109e-02 -5.453553e-03 -6.036517e-03 -7.011238e-03 -6.053182e-03 2.423620e-02 -9.010879e-04 1.120917e-04 9.610619e-04 -2.967312e-04 -9.533982e-04 -8.676147e-04 1.872286e-03 1.397449e-03 1.512503e-03 6.096156e-04 -1.876927e-03 -2.391097e-03 8.105883e-05
<VARIANCE> 39
 8.422131e+01 6.084932e+01 1.073184e+02 6.955961e+01 5.446898e+01 7.079699e+01 4.003558e+01 5.404599e+01 3.966318e+01 3.654010e+01 3.580028e+01 3.070767e+01 4.210256e+02 2.718939e+00 2.774098e+00 2.577951e+00 3.647006e+00 2.640604e+00 2.721262e+00 2.408642e+00 3.156995e+00 2.811726e+00 2.666955e+00 2.489032e+00 1.730701e+00 5.594233e+00 4.269344e-01 4.867565e-01 4.137163e-01 6.318190e-01 4.706055e-01 4.998690e-01 4.513081e-01 5.820021e-01 5.208251e-01 5.037160e-01 4.586603e-01 3.360357e-01 8.262613e-01
<GCONST> 1.297615e+02
<TRANSP> 5
 0.000000e+00 1.000000e+00 0.000000e+00 0.000000e+00 0.000000e+00
 0.000000e+00 6.000000e-01 4.000000e-01 0.000000e+00 0.000000e+00
 0.000000e+00 0.000000e+00 6.000000e-01 4.000000e-01 0.000000e+00
 0.000000e+00 0.000000e+00 0.000000e+00 7.000000e-01 3.000000e-01
 0.000000e+00 0.000000e+00 0.000000e+00 0.000000e+00 0.000000e+00
<ENDHMM>
~h "e"
<BEGINHMM>
<NUMSTATES> 5
<STATE> 2
<MEAN> 39
 -1.326456e+01 -7.388968e+00 6.230166e+00 -4.580546e+00 -1.762536e+00 -6.061622e+00 -8.708351e-01 -7.787711e+00 -2.801521e+00 -1.083377e+00 -3.248287e+00 -6.727996e+00 5.994219e+01 1.127126e-01 -9.515068e-02 9.341230e-02 -5.334828e-02 8.344277e-02 -4.534661e-02 1.293989e-02 -4.290401e-02 1.770250e-03 -5.544149e-04 -4.853875e-02 -5.623786e-02 2.383996e-01 7.511105e-04 -5.782502e-05 1.953049e-03 5.707305e-04 1.655320e-03 7.049995e-04 -2.342223e-03 -1.330842e-04 1.051754e-04 -1.506566e-03 5.650423e-04 -4.622403e-04 1.997696e-03
<VARIANCE> 39
 7.822680e+01 5.465668e+01 1.156582e+02 9.041803e+01 5.569364e+01 7.978615e+01 4.329698e+01 6.084325e+01 2.593263e+01 4.203212e+01 2.934675e+01 2.290510e+01 3.619446e+02 3.195462e+00 2.793074e+00 2.704831e+00 3.823104e+00 2.454479e+00 3.155467e+00 2.158973e+00 3.555783e+00 2.253081e+00 2.792747e+00 2.166753e+00 1.330277e+00 6.967855e+00 5.067704e-01 5.192426e-01 4.300457e-01 6.399555e-01 4.325351e-01 6.235307e-01 3.796246e-01 6.092247e-01 4.271211e-01 5.118641e-01 4.098051e-01 2.669572e-01 1.018915e+00
<GCONST> 1.292998e+02
<STATE> 3
<MEAN> 39
 -1.281369e+01 -7.781804e+00 6.645538e+00 -4.789565e+00 -1.398877e+00 -6.260785e+00 -8.197181e-01 -7.980143e+00 -2.790462e+00 -1.124881e+00 -3.431016e+00 -6.967293e+00 6.097499e+01 1.127310e-01 -9.356430e-02 1.001438e-01 -4.867399e-02 8.781508e-02 -4.311141e-02 4.295129e-03 -4.217853e-02 2.626962e-03 -7.264312e-03 -4.525922e-02 -5.590995e-02 2.423317e-01 -3.209487e-04 6.315279e-04 1.560276e-03 1.060864e-03 1.022942e-03 5.026580e-04 -2.096238e-03 1.874248e-04 1.521104e-04 -1.509679e-03 1.010183e-03 3.794006e-04 5.620808e-04
<VARIANCE> 39
 7.550475e+01 5.426368e+01 1.103335e+02 9.049040e+01 5.668689e+01 7.651926e+01 4.466475e+01 5.870018e+01 2.529415e+01 4.383112e+01 2.949965e+01 2.254007e+01 3.323969e+02 3.177855e+00 2.849296e+00 2.737067e+00 3.916906e+00 2.449596e+00 3.187182e+00 2.144984e+00 3.515397e+00 2.180360e+00 2.855132e+00 2.230982e+00 1.351007e+00 7.056376e+00 5.034149e-01 5.308500e-01 4.367378e-01 6.539583e-01 4.325052e-01 6.320466e-01 3.743997e-01 5.990404e-01 4.110975e-01 5.211779e-01 4.233249e-01 2.706847e-01 1.031351e+00
<GCONST> 1.292636e+02
<STATE> 4
<MEAN> 39
 -1.231387e+01 -8.205529e+00 7.524272e+00 -5.262007e+00 -9.654597e-01 -6.363929e+00 -5.242579e-01 -8.334152e+00 -2.806644e+00 -1.243025e+00 -3.686007e+00 -7.172805e+00 6.251264e+01 9.778665e-02 -8.725695e-02 1.037019e-01 -3.052120e-02 8.301036e-02 -4.795266e-02 -2.491726e-03 -3.377580e-02 5.416524e-03 -2.120528e-02 -3.311164e-02 -4.656685e-02 2.341325e-01 -1.561623e-03 1.075222e-03 2.008285e-04 2.160056e-03 -5.288705e-04 6.754429e-05 -1.735195e-03 1.508536e-03 1.590634e-04 -8.682818e-04 1.481650e-03 1.691838e-03 -2.467789e-03
<VARIANCE> 39
 6.989650e+01 5.366348e+01 1.053035e+02 9.174548e+01 5.733270e+01 7.121237e+01 4.624648e+01 5.654033e+01 2.385276e+01 4.811017e+01 2.962980e+01 2.149964e+01 2.900833e+02 3.046683e+00 2.914181e+00 2.755099e+00 4.010649e+00 2.366300e+00 3.287000e+00 2.112684e+00 3.367880e+00 1.983564e+00 2.925437e+00 2.302504e+00 1.371727e+00 7.047868e+00 4.766788e-01 5.453836e-01 4.473354e-01 6.704760e-01 4.212631e-01 6.579369e-01 3.642503e-01 5.629291e-01 3.699522e-01 5.287170e-01 4.396353e-01 2.724625e-01 1.029869e+00
<GCONST> 1.287560e+02
<TRANSP> 5
 0.000000e+00 1.000000e+00 0.000000e+00 0.000000e+00 0.000000e+00
 0.000000e+00 7.581343e-01 2.418656e-01 0.000000e+00 0.000000e+00
 0.000000e+00 0.000000e+00 7.581343e-01 2.418657e-01 0.000000e+00
 0.000000e+00 0.000000e+00 0.000000e+00 8.859900e-01 1.140100e-01
 0.000000e+00 0.000000e+00 0.000000e+00 0.000000e+00 0.000000e+00
<ENDHMM>
~h "h"
<BEGINHMM>
<NUMSTATES> 5
<STATE> 2
<MEAN> 39
 -1.398885e+01 -8.247071e+00 3.103219e+00 -3.138160e+00 -3.580363e-01 -5.660912e+00 -2.467249e+00 -6.188911e+00 -2.719855e+00 -3.588009e+00 -2.113383e+00 -6.498718e+00 5.807997e+01 1.937417e-02 -1.895674e-02 1.845952e-02 2.062776e-02 -3.252147e-03 -1.478319e-02 -1.791315e-02 2.021970e-02 2.593790e-03 1.291186e-02 -1.637139e-02 -7.713846e-03 1.216091e-02 -1.854682e-03 2.450012e-03 -1.404117e-03 4.248068e-04 2.794077e-04 2.985738e-03 -1.497939e-04 4.641625e-04 1.051667e-04 -3.437101e-04 1.880934e-03 7.822046e-04 -3.681725e-03
<VARIANCE> 39
 8.266958e+01 5.913780e+01 9.559165e+01 6.282853e+01 4.842075e+01 7.090182e+01 4.548426e+01 5.215946e+01 3.907267e+01 3.871993e+01 3.948671e+01 2.700498e+01 3.773724e+02 3.522748e+00 3.134183e+00 2.432374e+00 4.222185e+00 2.667164e+00 3.061864e+00 2.728550e+00 3.141036e+00 3.274205e+00 3.124692e+00 3.096858e+00 1.825144e+00 5.706247e+00 5.398629e-01 5.648211e-01 3.866026e-01 7.147900e-01 4.726267e-01 5.644293e-01 5.080517e-01 5.901850e-01 6.068154e-01 6.005369e-01 5.731404e-01 3.510444e-01 8.758625e-01
<GCONST> 1.320453e+02
<STATE> 3
<MEAN> 39
 -1.393315e+01 -8.306340e+00 3.137335e+00 -3.049112e+00 -3.686631e-01 -5.688037e+00 -2.552878e+00 -6.087724e+00 -2.701861e+00 -3.537274e+00 -2.174737e+00 -6.519181e+00 5.805191e+01 8.428705e-03 -5.727295e-03 7.125002e-03 2.251644e-02 -7.510167e-04 1.584603e-04 -1.831522e-02 2.298537e-02 4.980027e-03 1.157970e-02 -7.046174e-03 -3.161386e-03 -1.069324e-02 -2.431416e-03 2.778203e-03 -2.780765e-03 2.439005e-04 2.260872e-04 3.211717e-03 -1.268473e-04 1.038002e-03 6.293806e-04 -7.259632e-04 2.307460e-03 1.127027e-03 -5.047827e-03
<VARIANCE> 39
 8.188002e+01 5.895087e+01 9.547295e+01 6.141186e+01 4.780022e+01 6.969803e+01 4.450054e+01 5.252379e+01 3.845306e+01 3.777142e+01 3.971372e+01 2.692024e+01 3.778217e+02 3.421222e+00 3.120394e+00 2.439965e+00 4.197861e+00 2.656198e+00 3.046292e+00 2.688815e+00 3.145168e+00 3.257015e+00 3.092490e+00 3.088559e+00 1.831264e+00 5.680191e+00 5.243763e-01 5.592920e-01 3.899268e-01 7.108026e-01 4.705483e-01 5.570415e-01 5.000979e-01 5.874403e-01 6.060919e-01 5.968067e-01 5.708296e-01 3.540073e-01 8.657864e-01
<GCONST> 1.317596e+02
<STATE> 4
<MEAN> 39
 -1.455571e+01 -8.104655e+00 2.686726e+00 -2.722412e+00 -5.303065e-01 -5.245927e+00 -2.691314e+00 -5.925225e+00 -2.631305e+00 -3.472588e+00 -2.133640e+00 -6.366325e+00 5.646595e+01 -1.544354e-02 2.117354e-02 -3.618554e-02 2.732714e-02 3.176843e-03 3.125515e-02 -2.222109e-02 3.108850e-02 1.315006e-02 1.044263e-02 6.408019e-03 9.222273e-03 -8.377393e-02 -1.954292e-03 2.236989e-03 -3.444701e-03 -1.173717e-04 1.171142e-04 2.083515e-03 -6.116733e-04 2.270801e-04 3.830740e-04 -1.490684e-03 1.464322e-03 1.183834e-03 -5.064089e-03
<VARIANCE> 39
 8.100907e+01 5.858764e+01 9.638759e+01 5.775440e+01 4.655666e+01 6.792289e+01 4.045688e+01 5.260392e+01 3.650697e+01 3.551874e+01 3.768908e+01 2.696160e+01 3.947268e+02 3.079357e+00 2.939378e+00 2.353832e+00 3.907615e+00 2.558038e+00 2.937681e+00 2.548131e+00 3.041040e+00 3.117707e+00 2.946702e+00 2.938483e+00 1.804368e+00 5.346460e+00 4.748351e-01 5.225975e-01 3.818916e-01 6.660028e-01 4.604328e-01 5.383335e-01 4.798750e-01 5.668517e-01 5.910171e-01 5.702053e-01 5.461332e-01 3.523327e-01 8.124644e-01
<GCONST> 1.302041e+02
<TRANSP> 5
 0.000000e+00 1.000000e+00 0.000000e+00 0.000000e+00 0.000000e+00
 0.000000e+00 7.623983e-01 2.376017e-01 0.000000e+00 0.000000e+00
 0.000000e+00 0.000000e+00 7.623982e-01 2.376018e-01 0.000000e+00
 0.000000e+00 0.000000e+00 0.000000e+00 8.940952e-01 1.059049e-01
 0.000000e+00 0.000000e+00 0.000000e+00 0.000000e+00 0.000000e+00
<ENDHMM>
~h "i"
<BEGINHMM>
<NUMSTATES> 5
<STATE> 2
<MEAN> 39
 -1.509594e+01 -6.096701e+00 3.774876e+00 -2.817833e+00 -3.065741e+00 -2.571116e+00 -2.751840e+00 -4.552062e+00 -3.963388e+00 -1.800090e+00 -2.245079e-01 -5.812057e+00 5.225706e+01 1.503729e-02 -1.874271e-02 1.244076e-01 -3.050754e-02 -4.968331e-02 -3.921318e-02 2.261170e-02 -4.839144e-02 -3.776758e-02 -8.356906e-03 1.714307e-03 -2.881871e-02 1.394680e-01 -1.916645e-03 -1.590538e-04 8.616423e-04 1.025452e-03 -2.485355e-03 -1.713398e-03 -1.252546e-03 -1.553401e-03 1.605360e-03 -7.769249e-04 -1.110905e-03 7.520900e-04 -1.078057e-03
<VARIANCE> 39
 8.820389e+01 6.133139e+01 1.585776e+02 6.837248e+01 6.146522e+01 7.147844e+01 3.181265e+01 5.840809e+01 4.256910e+01 2.886280e+01 2.930457e+01 3.415435e+01 5.213546e+02 2.000204e+00 2.118456e+00 2.752207e+00 3.456701e+00 2.519287e+00 2.473656e+00 2.015899e+00 3.077296e+00 2.718721e+00 2.253734e+00 2.081036e+00 1.484098e+00 4.938385e+00 3.099949e-01 3.718401e-01 4.212514e-01 5.862802e-01 4.109671e-01 4.417128e-01 3.847804e-01 5.810251e-01 5.167689e-01 4.347888e-01 3.916506e-01 2.853889e-01 7.024763e-01
<GCONST> 1.268464e+02
<STATE> 3
<MEAN> 39
 -1.502482e+01 -6.195672e+00 4.325644e+00 -2.963266e+00 -3.278005e+00 -2.738739e+00 -2.661268e+00 -4.790431e+00 -4.117795e+00 -1.840038e+00 -2.387167e-01 -5.937016e+00 5.288671e+01 1.320509e-02 -2.298427e-02 1.299460e-01 -3.353031e-02 -5.446068e-02 -4.243588e-02 2.126973e-02 -5.646260e-02 -3.600675e-02 -1.130331e-02 -3.251354e-03 -3.030207e-02 1.463662e-01 2.210980e-04 -1.292019e-03 1.318088e-03 -1.277607e-03 -9.760819e-04 -1.111385e-03 -2.954537e-04 -1.710525e-03 4.103640e-06 -5.543687e-04 -1.174671e-03 -5.647368e-04 2.431651e-03
<VARIANCE> 39
 8.656310e+01 6.072239e+01 1.616180e+02 6.897420e+01 6.034658e+01 7.212258e+01 3.222581e+01 5.923568e+01 4.374300e+01 2.969953e+01 3.005735e+01 3.419813e+01 5.149769e+02 2.066849e+00 2.131095e+00 2.944271e+00 3.535134e+00 2.553086e+00 2.547453e+00 2.047893e+00 3.138409e+00 2.795863e+00 2.329502e+00 2.121086e+00 1.491626e+00 5.056867e+00 3.177153e-01 3.740505e-01 4.475231e-01 5.981313e-01 4.195670e-01 4.526505e-01 3.899126e-01 5.931544e-01 5.283604e-01 4.456718e-01 3.971906e-01 2.869847e-01 7.140131e-01
<GCONST> 1.275216e+02
<STATE> 4
<MEAN> 39
 -1.476823e+01 -6.568717e+00 5.478756e+00 -3.504194e+00 -3.661060e+00 -2.965387e+00 -2.398444e+00 -5.344811e+00 -4.432955e+00 -1.781646e+00 -4.036843e-01 -6.187509e+00 5.434157e+01 3.526895e-02 -4.263681e-02 1.419884e-01 -5.289289e-02 -4.524461e-02 -6.164233e-02 2.542521e-02 -6.822642e-02 -3.787610e-02 -1.334738e-02 -1.755988e-02 -3.974589e-02 1.986997e-01 2.396942e-03 -2.104406e-03 4.579156e-05 -1.934596e-03 1.142490e-03 -2.612451e-03 3.382283e-04 -7.446995e-04 -3.725408e-04 -2.798830e-04 -1.586203e-03 -9.737943e-04 4.911798e-03
<VARIANCE> 39
 8.350963e+01 6.113659e+01 1.667212e+02 7.204849e+01 5.857999e+01 7.207172e+01 3.368014e+01 6.119209e+01 4.520243e+01 3.082253e+01 3.220707e+01 3.361073e+01 5.026162e+02 2.224064e+00 2.203514e+00 3.335026e+00 3.795064e+00 2.566112e+00 2.631707e+00 2.118888e+00 3.251407e+00 2.882294e+00 2.434906e+00 2.164103e+00 1.507995e+00 5.581520e+00 3.330825e-01 3.843342e-01 4.973114e-01 6.372682e-01 4.268619e-01 4.650844e-01 4.029690e-01 6.105011e-01 5.388011e-01 4.593102e-01 3.997397e-01 2.909411e-01 7.679729e-01
<GCONST> 1.288166e+02
<TRANSP> 5
 0.000000e+00 1.000000e+00 0.000000e+00 0.000000e+00 0.000000e+00
 0.000000e+00 7.573091e-01 2.426908e-01 0.000000e+00 0.000000e+00
 0.000000e+00 0.000000e+00 7.573092e-01 2.426908e-01 0.000000e+00
 0.000000e+00 0.000000e+00 0.000000e+00 8.862216e-01 1.137784e-01
 0.000000e+00 0.000000e+00 0.000000e+00 0.000000e+00 0.000000e+00
<ENDHMM>
~h "k"
<BEGINHMM>
<NUMSTATES> 5
<STATE> 2
<MEAN> 39
 -1.311572e+01 -7.856446e+00 4.238678e+00 -3.651484e+00 -2.920858e-01 -5.648937e+00 -4.680617e+00 -6.090064e+00 -2.867989e+00 -2.309059e+00 -4.683861e-01 -7.060857e+00 5.862187e+01 -2.815342e-02 2.727459e-02 3.240167e-02 1.498585e-02 -3.708838e-02 -2.168956e-02 2.502240e-02 -2.008285e-03 -2.194295e-02 -1.229876e-02 3.710212e-04 1.007837e-02 -3.033197e-02 6.612807e-04 5.801008e-04 -1.186147e-03 -3.139053e-04 -4.561518e-04 8.727084e-04 -1.223227e-04 -2.843963e-03 2.245090e-04 -4.148270e-04 -9.809812e-04 7.147838e-04 -1.819158e-03
<VARIANCE> 39
 7.684830e+01 6.464719e+01 1.017061e+02 7.383707e+01 5.297114e+01 6.679841e+01 4.826648e+01 5.203483e+01 4.493364e+01 3.595451e+01 3.302348e+01 3.053405e+01 3.705753e+02 3.093316e+00 3.824903e+00 3.347554e+00 4.872412e+00 2.919808e+00 3.388153e+00 2.977304e+00 3.466185e+00 3.650048e+00 3.175170e+00 2.654485e+00 2.055243e+00 7.826920e+00 5.256639e-01 7.155507e-01 5.528822e-01 8.964517e-01 5.517938e-01 6.488455e-01 5.715415e-01 6.503372e-01 6.699213e-01 6.251279e-01 5.042835e-01 4.247769e-01 1.293019e+00
<GCONST> 1.355726e+02
<STATE> 3
<MEAN> 39
 -1.324227e+01 -7.721665e+00 4.336368e+00 -3.588864e+00 -4.591883e-01 -5.703784e+00 -4.569777e+00 -6.099267e+00 -2.959707e+00 -2.354955e+00 -4.711293e-01 -7.005147e+00 5.842874e+01 -2.589770e-02 2.876609e-02 2.642148e-02 1.316900e-02 -3.832271e-02 -1.725242e-02 2.415236e-02 -1.273010e-02 -2.112006e-02 -1.386894e-02 -4.015639e-03 1.340015e-02 -3.842656e-02 2.619391e-04 2.276435e-04 -1.836640e-03 -3.012916e-04 1.331547e-04 1.198377e-03 -4.675956e-04 -2.723636e-03 1.148526e-04 -4.931206e-04 -1.240411e-03 8.885504e-04 -2.301485e-03
<VARIANCE> 39
 7.655041e+01 6.521290e+01 1.049935e+02 7.450764e+01 5.299988e+01 6.728212e+01 4.891753e+01 5.182671e+01 4.453479e+01 3.548096e+01 3.261164e+01 3.065646e+01 3.751889e+02 3.066182e+00 3.828815e+00 3.381199e+00 4.937371e+00 2.992127e+00 3.357338e+00 3.014030e+00 3.444513e+00 3.588527e+00 3.142668e+00 2.653464e+00 2.048336e+00 7.771770e+00 5.238005e-01 7.163740e-01 5.596535e-01 9.048069e-01 5.675113e-01 6.418646e-01 5.812980e-01 6.497956e-01 6.584975e-01 6.186512e-01 5.030746e-01 4.240816e-01 1.292314e+00
<GCONST> 1.356359e+02
<STATE> 4
<MEAN> 39
 -1.402669e+01 -6.976919e+00 3.654846e+00 -3.184711e+00 -9.221641e-01 -5.232807e+00 -4.426407e+00 -5.888624e+00 -2.951738e+00 -2.447789e+00 -4.395376e-01 -6.608026e+00 5.636728e+01 -2.753192e-02 3.040662e-02 1.019125e-02 1.271566e-02 -3.820942e-02 -2.920921e-03 2.279284e-02 -2.036680e-02 -2.219842e-02 -1.465357e-02 -1.194087e-02 2.042302e-02 -6.139038e-02 1.458912e-04 -8.037977e-04 -1.357943e-03 2.741150e-05 1.323354e-03 6.674191e-04 -1.034780e-03 -2.706691e-03 -6.491074e-04 -6.973671e-04 -2.025081e-03 8.421724e-04 -1.034291e-03
<VARIANCE> 39
 7.903864e+01 6.616180e+01 1.123036e+02 7.523122e+01 5.261062e+01 7.023740e+01 4.771561e+01 5.212515e+01 4.281588e+01 3.345834e+01 3.172421e+01 3.143399e+01 4.166330e+02 2.877195e+00 3.588111e+00 3.224111e+00 4.764715e+00 2.957594e+00 3.170351e+00 2.987011e+00 3.371497e+00 3.405065e+00 2.986282e+00 2.613824e+00 1.980211e+00 7.221296e+00 4.917403e-01 6.690533e-01 5.393074e-01 8.599699e-01 5.661874e-01 6.047804e-01 5.817754e-01 6.426125e-01 6.266795e-01 5.879630e-01 4.964475e-01 4.116144e-01 1.197478e+00
<GCONST> 1.347319e+02
<TRANSP> 5
 0.000000e+00 1.000000e+00 0.000000e+00 0.000000e+00 0.000000e+00
 0.000000e+00 7.568372e-01 2.431628e-01 0.000000e+00 0.000000e+00
 0.000000e+00 0.000000e+00 7.568373e-01 2.431627e-01 0.000000e+00
 0.000000e+00 0.000000e+00 0.000000e+00 8.842833e-01 1.157167e-01
 0.000000e+00 0.000000e+00 0.000000e+00 0.000000e+00 0.000000e+00
<ENDHMM>
~h "l"
<BEGINHMM>
<NUMSTATES> 5
<STATE> 2
<MEAN> 39
 -9.305767e+00 -9.427560e+00 3.176898e+00 -1.302484e+01 9.980273e-01 -9.180729e-01 -2.703002e+00 -1.159895e+01 -3.180221e+00 -5.480160e+00 -3.136270e+00 -7.233225e+00 6.699464e+01 -7.779174e-02 3.355920e-02 2.330378e-02 7.753968e-02 -8.445340e-02 -8.130324e-02 -5.186108e-02 -1.922295e-02 -5.384920e-02 -3.497871e-02 -1.714471e-02 -5.291855e-02 -1.073868e-01 -1.535865e-03 1.956657e-04 -1.544500e-03 7.536574e-03 -4.388885e-04 -2.171486e-03 1.525263e-03 -7.913504e-03 -1.823365e-03 -9.728933e-03 -7.851187e-04 -3.479635e-03 -6.761895e-03
<VARIANCE> 39
 5.203753e+01 4.793819e+01 1.011639e+02 1.428740e+02 5.576017e+01 4.886723e+01 6.099035e+01 6.067350e+01 3.903874e+01 3.905058e+01 3.226064e+01 1.845275e+01 2.345507e+02 1.730090e+00 2.642563e+00 1.944176e+00 4.038558e+00 2.646396e+00 2.407093e+00 1.938538e+00 3.054741e+00 2.790799e+00 2.257154e+00 2.196173e+00 1.437007e+00 3.742602e+00 2.806493e-01 3.817388e-01 3.240113e-01 6.812190e-01 4.605755e-01 4.029080e-01 3.206986e-01 5.402056e-01 5.002055e-01 3.814628e-01 3.635647e-01 2.797768e-01 6.134173e-01
<GCONST> 1.242881e+02
<STATE> 3
<MEAN> 39
 -9.629517e+00 -9.322034e+00 3.269653e+00 -1.264191e+01 6.449893e-01 -1.299740e+00 -2.937853e+00 -1.167324e+01 -3.391976e+00 -5.624382e+00 -3.212350e+00 -7.457059e+00 6.652466e+01 -8.342372e-02 3.126737e-02 1.843960e-02 1.109997e-01 -8.553668e-02 -9.135991e-02 -4.716686e-02 -4.935703e-02 -5.790427e-02 -7.125358e-02 -2.018458e-02 -6.363813e-02 -1.319420e-01 -4.411386e-03 -3.080852e-03 -1.380337e-03 1.211951e-02 3.183439e-03 -3.047755e-03 3.258221e-03 -2.906934e-03 4.096325e-03 -4.845304e-03 3.439579e-04 3.229517e-03 -9.346037e-03
<VARIANCE> 39
 5.281697e+01 4.591455e+01 1.028947e+02 1.391786e+02 5.284761e+01 4.571518e+01 5.983289e+01 6.402448e+01 3.963257e+01 3.693430e+01 3.153065e+01 2.007846e+01 2.408666e+02 1.799037e+00 2.661106e+00 1.911134e+00 4.043061e+00 2.568698e+00 2.430185e+00 2.007578e+00 3.132390e+00 2.765748e+00 2.304986e+00 2.254884e+00 1.431981e+00 3.632691e+00 2.913562e-01 3.939688e-01 3.145193e-01 6.776152e-01 4.536827e-01 4.086783e-01 3.297051e-01 5.505635e-01 4.960516e-01 3.881676e-01 3.804913e-01 2.763944e-01 5.997431e-01
<GCONST> 1.243869e+02
<STATE> 4
<MEAN> 39
 -1.030944e+01 -9.244706e+00 2.717818e+00 -1.180612e+01 7.572210e-02 -1.738636e+00 -3.029009e+00 -1.177928e+01 -3.457092e+00 -6.039546e+00 -3.473908e+00 -7.558098e+00 6.497889e+01 -9.444170e-02 6.572759e-03 2.336433e-02 1.701166e-01 -7.611965e-02 -1.194778e-01 -5.009460e-02 -4.583535e-02 -3.339680e-02 -6.788418e-02 -1.737926e-02 -4.550543e-02 -1.544186e-01 -5.736222e-03 -5.028819e-03 1.148328e-03 9.781241e-03 7.041039e-03 -4.195284e-03 3.286005e-03 3.794099e-03 9.376389e-03 5.229728e-03 2.326269e-03 9.934773e-03 -5.859322e-03
<VARIANCE> 39
 5.614573e+01 4.239091e+01 9.762808e+01 1.380702e+02 4.814102e+01 4.269746e+01 5.700546e+01 7.033252e+01 3.862713e+01 3.535684e+01 3.072336e+01 2.146148e+01 2.659773e+02 1.938605e+00 2.629390e+00 1.827894e+00 3.937834e+00 2.406567e+00 2.474776e+00 2.092146e+00 3.144363e+00 2.689852e+00 2.292377e+00 2.332042e+00 1.428450e+00 3.489166e+00 3.139320e-01 4.026885e-01 3.001173e-01 6.544067e-01 4.261578e-01 4.187213e-01 3.448895e-01 5.461906e-01 4.922690e-01 3.863281e-01 4.100360e-01 2.705911e-01 5.798811e-01
<GCONST> 1.242306e+02
<TRANSP> 5
 0.000000e+00 1.000000e+00 0.000000e+00 0.000000e+00 0.000000e+00
 0.000000e+00 7.585675e-01 2.414325e-01 0.000000e+00 0.000000e+00
 0.000000e+00 0.000000e+00 7.585676e-01 2.414325e-01 0.000000e+00
 0.000000e+00 0.000000e+00 0.000000e+00 8.856045e-01 1.143955e-01
 0.000000e+00 0.000000e+00 0.000000e+00 0.000000e+00 0.000000e+00
<ENDHMM>
~h "m"
<BEGINHMM>
<NUMSTATES> 5
<STATE> 2
<MEAN> 39
 -1.074483e+01 -8.858222e+00 6.433861e+00 -4.614074e+00 1.450385e-01 -4.885185e+00 -3.839851e+00 -7.842808e+00 -4.561753e+00 -3.817982e+00 -8.402241e-01 -7.808740e+00 6.237123e+01 1.198815e-02 -2.776546e-02 9.370789e-03 -1.071739e-02 4.665265e-03 -1.194420e-02 -2.005855e-03 2.056079e-03 -2.725272e-03 -2.550156e-02 -1.605489e-02 -6.192358e-03 3.875769e-02 -2.530775e-03 3.497914e-04 -8.764515e-04 7.977177e-04 -1.874277e-03 -1.268803e-03 1.025835e-03 1.843276e-03 1.056715e-03 4.001901e-04 -5.636289e-04 1.270269e-03 -2.642009e-03
<VARIANCE> 39
 7.003620e+01 5.127504e+01 9.581350e+01 7.020534e+01 5.008458e+01 6.301197e+01 4.640898e+01 5.378067e+01 4.278769e+01 3.901765e+01 3.969650e+01 2.821148e+01 2.525715e+02 2.818732e+00 3.092783e+00 3.197437e+00 4.508119e+00 2.751003e+00 2.927581e+00 2.745314e+00 3.557500e+00 3.118143e+00 2.757832e+00 2.889834e+00 1.818786e+00 4.911272e+00 4.455753e-01 5.317172e-01 5.156571e-01 7.693272e-01 4.975336e-01 5.142673e-01 4.941743e-01 6.393235e-01 5.774441e-01 5.190919e-01 5.385324e-01 3.499371e-01 7.491052e-01
<GCONST> 1.310884e+02
<STATE> 3
<MEAN> 39
 -1.070597e+01 -8.978414e+00 6.461938e+00 -4.661242e+00 1.677387e-01 -4.948229e+00 -3.832705e+00 -7.830633e+00 -4.566487e+00 -3.924076e+00 -9.194246e-01 -7.835206e+00 6.253315e+01 1.014544e-03 -2.535580e-02 4.598889e-03 -6.955230e-03 -1.253713e-03 -1.665079e-02 2.347971e-03 8.089496e-03 2.359814e-03 -2.349131e-02 -1.970603e-02 -1.998013e-03 2.611796e-02 -2.561192e-03 9.108541e-04 -8.227922e-04 9.929782e-04 -1.372438e-03 -1.024328e-03 9.875312e-04 1.142278e-03 8.885937e-04 7.162496e-04 -6.501287e-04 8.564629e-04 -3.142669e-03
<VARIANCE> 39
 6.832188e+01 5.058883e+01 9.517278e+01 6.934941e+01 4.995605e+01 6.211625e+01 4.679607e+01 5.328484e+01 4.253676e+01 3.924952e+01 3.967683e+01 2.792545e+01 2.451416e+02 2.777096e+00 3.119454e+00 3.166708e+00 4.469789e+00 2.743730e+00 2.910757e+00 2.747482e+00 3.538336e+00 3.125506e+00 2.747579e+00 2.869904e+00 1.803277e+00 4.890049e+00 4.403643e-01 5.366540e-01 5.109598e-01 7.614436e-01 4.956352e-01 5.107132e-01 4.931028e-01 6.354385e-01 5.805263e-01 5.164255e-01 5.330374e-01 3.466879e-01 7.420210e-01
<GCONST> 1.308442e+02
<STATE> 4
<MEAN> 39
 -1.079193e+01 -9.041116e+00 6.196870e+00 -4.824479e+00 2.034215e-01 -4.938257e+00 -3.705181e+00 -7.872270e+00 -4.545506e+00 -4.084233e+00 -1.042384e+00 -7.846464e+00 6.241289e+01 -1.660122e-02 -1.856324e-02 -9.049636e-03 -7.615737e-04 -5.907911e-03 -2.479173e-02 9.519847e-03 7.753391e-03 1.076656e-02 -1.778080e-02 -2.577974e-02 -1.653861e-04 3.359964e-03 -2.911330e-03 1.810589e-03 -1.350451e-03 1.484288e-03 -1.142319e-03 -7.730695e-04 7.972474e-04 2.505828e-04 9.047755e-04 1.408289e-03 -3.244965e-04 7.572072e-04 -4.537218e-03
<VARIANCE> 39
 6.713386e+01 4.924176e+01 9.507634e+01 7.049235e+01 5.009367e+01 6.032261e+01 4.570768e+01 5.274749e+01 4.221688e+01 3.923912e+01 3.935384e+01 2.743983e+01 2.427982e+02 2.655567e+00 3.072774e+00 3.035965e+00 4.426507e+00 2.706444e+00 2.821410e+00 2.677088e+00 3.423815e+00 3.076328e+00 2.707738e+00 2.802526e+00 1.740850e+00 4.788925e+00 4.220594e-01 5.288923e-01 4.888268e-01 7.504572e-01 4.874498e-01 4.948324e-01 4.811016e-01 6.129717e-01 5.717022e-01 5.088887e-01 5.164723e-01 3.342210e-01 7.181249e-01
<GCONST> 1.300302e+02
<TRANSP> 5
 0.000000e+00 1.000000e+00 0.000000e+00 0.000000e+00 0.000000e+00
 0.000000e+00 7.523529e-01 2.476471e-01 0.000000e+00 0.000000e+00
 0.000000e+00 0.000000e+00 7.523531e-01 2.476469e-01 0.000000e+00
 0.000000e+00 0.000000e+00 0.000000e+00 8.800861e-01 1.199139e-01
 0.000000e+00 0.000000e+00 0.000000e+00 0.000000e+00 0.000000e+00
<ENDHMM>
~h "n"
<BEGINHMM>
<NUMSTATES> 5
<STATE> 2
<MEAN> 39
 -1.305524e+01 -7.594133e+00 4.119665e+00 -3.047415e+00 -1.429759e+00 -5.119503e+00 -3.308536e+00 -6.549596e+00 -3.626628e+00 -3.926205e+00 -3.013919e+00 -6.706030e+00 5.681093e+01 -5.370995e-02 7.186580e-03 -5.235653e-02 4.241827e-02 -3.222601e-02 1.752381e-02 -1.067441e-02 2.167553e-02 1.588810e-02 5.113360e-03 1.978632e-02 2.028566e-02 -1.181814e-01 -1.010212e-03 2.778400e-04 -1.620488e-03 -8.060677e-05 2.754170e-04 -2.884469e-05 -4.588049e-04 1.024149e-03 1.589719e-03 3.254729e-04 3.868628e-04 4.531757e-04 -1.888714e-03
<VARIANCE> 39
 7.293900e+01 5.730166e+01 9.698854e+01 6.959985e+01 5.595794e+01 6.189412e+01 4.162392e+01 5.568660e+01 4.218794e+01 4.182736e+01 4.134764e+01 2.944040e+01 3.578991e+02 2.322849e+00 2.984398e+00 2.637432e+00 3.840983e+00 2.733410e+00 2.881902e+00 2.491925e+00 3.444526e+00 2.715654e+00 3.038363e+00 2.789629e+00 1.841908e+00 5.926470e+00 3.753734e-01 5.347725e-01 4.219015e-01 6.586791e-01 4.970136e-01 5.431615e-01 4.683324e-01 6.221730e-01 5.117966e-01 5.735645e-01 5.089092e-01 3.499965e-01 8.954847e-01
<GCONST> 1.306931e+02
<STATE> 3
<MEAN> 39
 -1.330829e+01 -7.549633e+00 3.874923e+00 -2.864234e+00 -1.558789e+00 -5.036750e+00 -3.359781e+00 -6.445586e+00 -3.546226e+00 -3.909336e+00 -2.923144e+00 -6.619140e+00 5.626651e+01 -5.712845e-02 8.482171e-03 -5.947117e-02 4.313103e-02 -3.023526e-02 1.762508e-02 -1.136480e-02 2.670562e-02 2.259667e-02 6.162730e-03 2.042828e-02 2.190218e-02 -1.253351e-01 -5.324454e-04 1.291850e-04 -1.286127e-03 2.627881e-05 4.421977e-04 2.159443e-04 -1.630851e-05 8.206915e-04 1.535289e-03 2.546565e-04 -2.254675e-04 8.095149e-05 -1.085380e-03
<VARIANCE> 39
 7.307668e+01 5.757832e+01 9.879661e+01 6.829517e+01 5.441355e+01 6.220468e+01 4.076091e+01 5.576210e+01 4.161279e+01 4.084041e+01 4.064199e+01 2.932159e+01 3.652005e+02 2.305924e+00 3.012810e+00 2.623514e+00 3.806467e+00 2.738555e+00 2.887592e+00 2.480162e+00 3.434732e+00 2.677060e+00 3.008449e+00 2.806277e+00 1.839615e+00 5.961957e+00 3.747912e-01 5.412553e-01 4.233587e-01 6.593440e-01 5.005344e-01 5.479926e-01 4.679057e-01 6.222862e-01 5.052630e-01 5.712012e-01 5.156091e-01 3.523335e-01 9.143790e-01
<GCONST> 1.306425e+02
<STATE> 4
<MEAN> 39
 -1.360572e+01 -7.475201e+00 3.579201e+00 -2.582422e+00 -1.647747e+00 -4.984298e+00 -3.477683e+00 -6.347442e+00 -3.423725e+00 -3.929749e+00 -2.855788e+00 -6.517080e+00 5.563158e+01 -6.839738e-02 1.468673e-02 -7.272159e-02 4.951002e-02 -2.951862e-02 2.633854e-02 -9.818158e-03 3.825662e-02 3.086622e-02 6.235297e-03 2.099417e-02 2.458819e-02 -1.500656e-01 -1.253998e-04 -3.499066e-04 -5.459707e-04 -2.808985e-05 3.385101e-04 7.121041e-04 2.955748e-04 4.265553e-04 7.762131e-04 5.618735e-04 -5.079327e-04 -8.900650e-06 -2.043425e-04
<VARIANCE> 39
 7.282333e+01 5.787087e+01 9.960038e+01 6.633766e+01 5.208463e+01 6.269268e+01 4.046281e+01 5.586740e+01 4.065240e+01 3.973340e+01 3.958932e+01 2.873815e+01 3.713559e+02 2.256850e+00 3.025102e+00 2.572563e+00 3.726547e+00 2.719774e+00 2.865973e+00 2.466713e+00 3.447468e+00 2.625332e+00 2.956184e+00 2.802322e+00 1.851155e+00 5.935194e+00 3.691641e-01 5.457938e-01 4.199760e-01 6.523230e-01 5.001134e-01 5.482121e-01 4.669315e-01 6.262099e-01 4.950597e-01 5.637062e-01 5.192606e-01 3.596558e-01 9.329059e-01
<GCONST> 1.303824e+02
<TRANSP> 5
 0.000000e+00 1.000000e+00 0.000000e+00 0.000000e+00 0.000000e+00
 0.000000e+00 7.567064e-01 2.432936e-01 0.000000e+00 0.000000e+00
 0.000000e+00 0.000000e+00 7.567061e-01 2.432939e-01 0.000000e+00
 0.000000e+00 0.000000e+00 0.000000e+00 8.835558e-01 1.164442e-01
 0.000000e+00 0.000000e+00 0.000000e+00 0.000000e+00 0.000000e+00
<ENDHMM>
~h "o"
<BEGINHMM>
<NUMSTATES> 5
<STATE> 2
<MEAN> 39
 -1.815917e+01 -4.665341e+00 -1.966261e+00 -1.292887e+00 -3.338005e+00 -6.094041e-01 -2.695410e+00 -2.506456e+00 -1.769510e+00 -2.429822e+00 -4.011641e-01 -3.910798e+00 4.392591e+01 1.291920e-01 -5.451622e-02 9.525649e-02 -1.199555e-01 5.691488e-02 -5.690206e-02 -8.562020e-03 -6.377514e-02 -4.677989e-02 -4.047086e-03 5.394753e-03 -4.179738e-02 2.538281e-01 4.279958e-03 -2.715576e-03 5.157775e-03 -5.268644e-03 3.763300e-03 -1.177898e-03 -2.374172e-04 -1.397148e-03 -3.452016e-03 -2.712847e-04 -8.836741e-04 8.048911e-04 1.079862e-02
<VARIANCE> 39
 9.030692e+01 6.796339e+01 1.017950e+02 6.936405e+01 4.212492e+01 6.662646e+01 2.349635e+01 4.031693e+01 3.157527e+01 2.851867e+01 2.772285e+01 2.922796e+01 5.279926e+02 1.954917e+00 2.096274e+00 2.074808e+00 3.205159e+00 2.070035e+00 2.124461e+00 1.675793e+00 2.494257e+00 2.313504e+00 2.146221e+00 1.995350e+00 1.466092e+00 5.250008e+00 2.831315e-01 3.576612e-01 3.346741e-01 5.527087e-01 3.623056e-01 3.706194e-01 3.322783e-01 4.721160e-01 4.275663e-01 4.268613e-01 3.821693e-01 2.980271e-01 7.479041e-01
<GCONST> 1.223735e+02
<STATE> 3
<MEAN> 39
 -1.756004e+01 -4.945607e+00 -1.480341e+00 -1.878929e+00 -3.032431e+00 -8.481121e-01 -2.689890e+00 -2.796896e+00 -2.012549e+00 -2.472748e+00 -4.075563e-01 -4.113031e+00 4.517138e+01 1.430131e-01 -6.449982e-02 1.172449e-01 -1.402501e-01 7.347479e-02 -5.715358e-02 2.729797e-04 -7.192858e-02 -6.069165e-02 -7.503342e-03 1.237495e-04 -4.858997e-02 2.969593e-01 3.174924e-03 -2.248042e-03 4.630696e-03 -4.667128e-03 3.960426e-03 -1.143228e-04 2.747010e-03 -1.999247e-03 -3.202670e-03 -8.169512e-04 -1.015075e-03 -1.824780e-03 1.007948e-02
<VARIANCE> 39
 9.227564e+01 6.641214e+01 1.039393e+02 7.588436e+01 4.497542e+01 6.657455e+01 2.450284e+01 4.187597e+01 3.416229e+01 2.920377e+01 2.828969e+01 2.936367e+01 5.220793e+02 2.116553e+00 2.230064e+00 2.232047e+00 3.553705e+00 2.193954e+00 2.188126e+00 1.755152e+00 2.619371e+00 2.468155e+00 2.200465e+00 2.034488e+00 1.496136e+00 5.883226e+00 3.028552e-01 3.818534e-01 3.535961e-01 6.037285e-01 3.748796e-01 3.758134e-01 3.443993e-01 4.921795e-01 4.533907e-01 4.366304e-01 3.874547e-01 3.027668e-01 8.276147e-01
<GCONST> 1.241007e+02
<STATE> 4
<MEAN> 39
 -1.666796e+01 -5.283845e+00 -4.112320e-01 -3.000462e+00 -2.559997e+00 -1.274656e+00 -2.468999e+00 -3.426185e+00 -2.586587e+00 -2.422955e+00 -3.227783e-01 -4.452667e+00 4.712610e+01 1.593470e-01 -8.298726e-02 1.565098e-01 -1.493862e-01 7.982500e-02 -8.193541e-02 1.187114e-02 -8.841626e-02 -6.571274e-02 -4.973574e-03 -1.174516e-02 -6.876989e-02 3.678492e-01 1.348336e-03 -1.318931e-03 2.529576e-03 -5.612822e-04 7.146429e-04 -2.042326e-03 1.074943e-03 -1.847657e-03 -5.097326e-04 1.049319e-04 -9.462700e-04 -1.579816e-03 5.685223e-03
<VARIANCE> 39
 9.280272e+01 6.210437e+01 1.103459e+02 8.735801e+01 5.091413e+01 6.701952e+01 2.686635e+01 4.343075e+01 3.751563e+01 2.871440e+01 2.746538e+01 2.832749e+01 5.000850e+02 2.445201e+00 2.445999e+00 2.429583e+00 4.090271e+00 2.375758e+00 2.253511e+00 1.899515e+00 2.762314e+00 2.677053e+00 2.167220e+00 1.975718e+00 1.511839e+00 6.930706e+00 3.501949e-01 4.261416e-01 3.748895e-01 6.709321e-01 3.828956e-01 3.842215e-01 3.710397e-01 5.149749e-01 4.875437e-01 4.256608e-01 3.744506e-01 2.994170e-01 9.571137e-01
<GCONST> 1.261112e+02
<TRANSP> 5
 0.000000e+00 1.000000e+00 0.000000e+00 0.000000e+00 0.000000e+00
 0.000000e+00 7.630612e-01 2.369389e-01 0.000000e+00 0.000000e+00
 0.000000e+00 0.000000e+00 7.630610e-01 2.369390e-01 0.000000e+00
 0.000000e+00 0.000000e+00 0.000000e+00 8.965992e-01 1.034009e-01
 0.000000e+00 0.000000e+00 0.000000e+00 0.000000e+00 0.000000e+00
<ENDHMM>
~h "p"
<BEGINHMM>
<NUMSTATES> 5
<STATE> 2
<MEAN> 39
 -1.432013e+01 -7.336143e+00 3.651688e+00 -5.241705e+00 -9.709290e-01 -6.214106e+00 -3.020883e+00 -7.577813e+00 -4.036250e+00 -4.448254e+00 -1.897533e+00 -6.427934e+00 5.714579e+01 2.556043e-02 -2.623113e-02 -9.480920e-03 1.775420e-02 5.210312e-02 1.102308e-02 -5.077060e-02 -4.402202e-02 -3.630144e-02 -2.429188e-02 -2.702199e-02 -1.912078e-02 -9.513484e-03 -1.979277e-03 3.649190e-03 -1.050397e-02 2.261959e-03 1.748465e-03 6.118494e-03 -1.023533e-03 3.897296e-03 3.252517e-03 1.897528e-03 -7.387818e-04 2.628279e-03 -1.239672e-02
<VARIANCE> 39
 6.830080e+01 5.138908e+01 1.133678e+02 7.514472e+01 5.305478e+01 6.384344e+01 4.936466e+01 5.231932e+01 4.351190e+01 3.266722e+01 3.762254e+01 2.574038e+01 3.186348e+02 3.440310e+00 2.765525e+00 4.136014e+00 4.472332e+00 3.461830e+00 3.281896e+00 3.202995e+00 3.268079e+00 3.708068e+00 2.920622e+00 2.284354e+00 1.960423e+00 8.196764e+00 5.495631e-01 4.955317e-01 6.169704e-01 7.955660e-01 6.381111e-01 6.084375e-01 6.383682e-01 6.143317e-01 6.570798e-01 5.699498e-01 4.235040e-01 4.076174e-01 1.180451e+00
<GCONST> 1.342409e+02
<STATE> 3
<MEAN> 39
 -1.424862e+01 -7.409992e+00 3.542043e+00 -5.106109e+00 -7.770289e-01 -6.138386e+00 -3.223454e+00 -7.723160e+00 -4.146814e+00 -4.531330e+00 -2.025557e+00 -6.475116e+00 5.698438e+01 1.217235e-02 -8.198399e-03 -5.581815e-02 3.044804e-02 5.455764e-02 3.792918e-02 -5.235362e-02 -2.575256e-02 -2.167533e-02 -1.711330e-02 -2.902444e-02 -5.688332e-03 -7.097086e-02 -3.877505e-03 4.573834e-03 -1.031779e-02 3.319995e-03 -2.276711e-04 6.350749e-03 3.374068e-04 4.817491e-03 3.313971e-03 1.770502e-03 -1.896059e-04 3.383552e-03 -1.469254e-02
<VARIANCE> 39
 6.732693e+01 4.944867e+01 1.100231e+02 7.500446e+01 5.357113e+01 6.308258e+01 4.934962e+01 5.135237e+01 4.252613e+01 3.273337e+01 3.641663e+01 2.570443e+01 3.081917e+02 3.336503e+00 2.761626e+00 3.973084e+00 4.420456e+00 3.489089e+00 3.314584e+00 3.166355e+00 3.275865e+00 3.664619e+00 2.905042e+00 2.267960e+00 1.959926e+00 8.135370e+00 5.301089e-01 5.007946e-01 5.934324e-01 7.830479e-01 6.376458e-01 6.184598e-01 6.303127e-01 6.156163e-01 6.514687e-01 5.668111e-01 4.204838e-01 4.057785e-01 1.189481e+00
<GCONST> 1.338460e+02
<STATE> 4
<MEAN> 39
 -1.411549e+01 -7.474080e+00 3.440107e+00 -4.985294e+00 -5.031701e-01 -6.100688e+00 -3.402201e+00 -7.943339e+00 -4.270967e+00 -4.603653e+00 -2.267556e+00 -6.514424e+00 5.700856e+01 -2.317340e-02 2.338936e-02 -1.088123e-01 6.269766e-02 3.231725e-02 6.946856e-02 -4.177802e-02 5.658448e-03 -1.661500e-03 -9.240885e-03 -2.714497e-02 1.877197e-02 -1.782097e-01 -5.461708e-03 4.549758e-03 -7.220236e-03 3.179174e-03 -2.981834e-03 5.492055e-03 1.941066e-03 5.190644e-03 2.454691e-03 1.399140e-03 1.056254e-03 3.484292e-03 -1.459546e-02
<VARIANCE> 39
 6.702917e+01 4.745433e+01 1.071103e+02 7.484669e+01 5.420202e+01 6.340493e+01 4.941395e+01 5.026437e+01 4.229084e+01 3.311859e+01 3.529270e+01 2.553712e+01 2.980089e+02 3.113243e+00 2.727847e+00 3.617161e+00 4.321465e+00 3.496606e+00 3.266870e+00 3.147000e+00 3.207535e+00 3.638097e+00 2.887975e+00 2.222550e+00 1.941351e+00 7.757446e+00 4.831034e-01 5.072709e-01 5.444674e-01 7.532284e-01 6.292364e-01 6.114845e-01 6.215203e-01 5.986811e-01 6.457076e-01 5.586074e-01 4.061415e-01 4.007606e-01 1.173051e+00
<GCONST> 1.330187e+02
<TRANSP> 5
 0.000000e+00 1.000000e+00 0.000000e+00 0.000000e+00 0.000000e+00
 0.000000e+00 7.565188e-01 2.434811e-01 0.000000e+00 0.000000e+00
 0.000000e+00 0.000000e+00 7.565188e-01 2.434812e-01 0.000000e+00
 0.000000e+00 0.000000e+00 0.000000e+00 8.832024e-01 1.167975e-01
 0.000000e+00 0.000000e+00 0.000000e+00 0.000000e+00 0.000000e+00
<ENDHMM>
~h "r"
<BEGINHMM>
<NUMSTATES> 5
<STATE> 2
<MEAN> 39
 -1.200768e+01 -9.848353e+00 5.364511e+00 -2.425209e+00 1.113991e-01 -7.882270e+00 -3.087335e+00 -7.782170e+00 -3.129976e+00 -3.689553e+00 -1.430547e+00 -7.890486e+00 6.325862e+01 -2.659429e-02 2.555729e-03 -5.989118e-02 3.462876e-02 1.489929e-02 9.358121e-03 3.906948e-03 1.538519e-03 4.545643e-02 -3.630054e-02 -1.244038e-02 2.092207e-02 -1.042629e-01 1.151446e-05 -1.350367e-04 2.993192e-03 1.965161e-04 -1.361945e-03 1.369326e-03 1.424666e-03 2.329874e-03 -2.804549e-03 -6.043686e-04 1.190363e-03 -8.737985e-04 -2.261954e-03
<VARIANCE> 39
 7.048817e+01 4.846647e+01 7.018964e+01 5.605414e+01 5.107796e+01 5.902546e+01 5.422047e+01 4.507661e+01 4.636954e+01 4.674376e+01 3.782879e+01 2.625740e+01 2.235216e+02 2.921663e+00 3.049489e+00 2.724363e+00 3.885067e+00 2.790037e+00 2.777363e+00 3.003145e+00 3.276345e+00 3.540897e+00 3.580468e+00 2.368605e+00 1.760691e+00 5.632063e+00 4.755545e-01 5.765309e-01 4.275501e-01 6.542909e-01 4.881255e-01 5.159420e-01 5.335975e-01 6.184975e-01 6.334797e-01 6.686565e-01 4.406314e-01 3.402048e-01 8.747939e-01
<GCONST> 1.305265e+02
<STATE> 3
<MEAN> 39
 -1.210410e+01 -9.831380e+00 5.133857e+00 -2.306839e+00 1.722124e-01 -7.822243e+00 -3.084893e+00 -7.766022e+00 -2.960818e+00 -3.836889e+00 -1.471866e+00 -7.823747e+00 6.283361e+01 -2.740524e-02 2.975752e-03 -4.941785e-02 3.339164e-02 9.638921e-03 1.682726e-02 9.394439e-03 9.268411e-03 3.290940e-02 -3.693176e-02 -6.982163e-03 1.718704e-02 -1.135320e-01 -3.805380e-04 -1.804928e-04 1.506477e-03 -1.480342e-03 -6.626754e-04 3.328162e-03 9.873359e-04 1.179600e-03 -4.237039e-03 7.579454e-04 1.502645e-03 -1.542187e-03 -2.144688e-03
<VARIANCE> 39
 7.036694e+01 4.879972e+01 6.821569e+01 5.611697e+01 4.989633e+01 5.885651e+01 5.280167e+01 4.502222e+01 4.392868e+01 4.606871e+01 3.736432e+01 2.607334e+01 2.292328e+02 2.901308e+00 3.055378e+00 2.698317e+00 3.894868e+00 2.786922e+00 2.772984e+00 2.972896e+00 3.287188e+00 3.467782e+00 3.544563e+00 2.388023e+00 1.777757e+00 5.684512e+00 4.745484e-01 5.739362e-01 4.264761e-01 6.583681e-01 4.930468e-01 5.161850e-01 5.303504e-01 6.185287e-01 6.234264e-01 6.637157e-01 4.453546e-01 3.438903e-01 8.815006e-01
<GCONST> 1.303691e+02
<STATE> 4
<MEAN> 39
 -1.235619e+01 -9.795732e+00 4.823963e+00 -2.132133e+00 2.540699e-01 -7.519754e+00 -3.066710e+00 -7.632425e+00 -2.779829e+00 -4.029310e+00 -1.537372e+00 -7.734437e+00 6.198602e+01 -3.089465e-02 1.006644e-02 -4.775332e-02 1.916926e-02 4.230052e-03 3.816636e-02 8.603205e-03 1.145347e-02 1.283073e-02 -2.997025e-02 3.274833e-04 8.445723e-03 -1.276736e-01 -1.143179e-03 6.579181e-04 -1.345338e-03 -2.998071e-03 -4.452046e-04 3.827711e-03 -2.138084e-04 -1.568004e-04 -3.464179e-03 1.901793e-03 8.205075e-04 -1.395071e-03 -2.446350e-03
<VARIANCE> 39
 6.950968e+01 5.028509e+01 6.698328e+01 5.620229e+01 4.801780e+01 5.889070e+01 5.132259e+01 4.503685e+01 4.092308e+01 4.489233e+01 3.731195e+01 2.607923e+01 2.446121e+02 2.841211e+00 3.017763e+00 2.631259e+00 3.914144e+00 2.732000e+00 2.727632e+00 2.903499e+00 3.276047e+00 3.326440e+00 3.445894e+00 2.386429e+00 1.785719e+00 5.724301e+00 4.694579e-01 5.580484e-01 4.213777e-01 6.716805e-01 4.871580e-01 5.121245e-01 5.236197e-01 6.129330e-01 6.022128e-01 6.459255e-01 4.461811e-01 3.444308e-01 8.908570e-01
<GCONST> 1.299748e+02
<TRANSP> 5
 0.000000e+00 1.000000e+00 0.000000e+00 0.000000e+00 0.000000e+00
 0.000000e+00 7.529653e-01 2.470347e-01 0.000000e+00 0.000000e+00
 0.000000e+00 0.000000e+00 7.529652e-01 2.470348e-01 0.000000e+00
 0.000000e+00 0.000000e+00 0.000000e+00 8.798181e-01 1.201819e-01
 0.000000e+00 0.000000e+00 0.000000e+00 0.000000e+00 0.000000e+00
<ENDHMM>
~h "s"
<BEGINHMM>
<NUMSTATES> 5
<STATE> 2
<MEAN> 39
 -1.499878e+01 -8.401394e+00 1.922120e+00 -4.019274e+00 6.610341e-01 -6.162567e+00 -2.596919e+00 -6.354698e+00 -2.193046e+00 -3.892874e+00 -2.028183e+00 -7.334217e+00 5.815998e+01 2.105077e-02 2.554651e-02 -4.549048e-02 2.772937e-02 -7.013302e-02 5.437640e-02 -2.294140e-02 1.435651e-02 -3.328159e-02 2.863684e-02 -4.089459e-03 2.582576e-03 -1.570384e-01 -1.821403e-03 1.077846e-03 2.485520e-03 -7.953363e-04 -1.726553e-04 -7.771995e-04 8.003911e-04 -2.462142e-03 -6.853847e-04 2.836508e-04 2.830218e-03 2.000491e-03 2.404318e-03
<VARIANCE> 39
 9.644080e+01 5.390540e+01 6.982852e+01 5.543830e+01 5.679422e+01 7.759617e+01 4.684777e+01 5.638112e+01 3.857563e+01 3.443135e+01 3.188745e+01 2.818748e+01 3.361357e+02 4.258147e+00 3.268484e+00 2.719546e+00 3.958309e+00 2.899321e+00 3.079715e+00 3.078105e+00 3.698066e+00 3.129278e+00 3.131327e+00 2.801750e+00 2.241867e+00 6.069664e+00 5.662768e-01 6.339874e-01 4.845533e-01 7.390866e-01 5.355506e-01 5.340762e-01 5.576146e-01 6.979758e-01 5.916408e-01 6.196055e-01 5.226150e-01 4.720647e-01 9.230499e-01
<GCONST> 1.333991e+02
<STATE> 3
<MEAN> 39
 -1.490956e+01 -8.289976e+00 1.769935e+00 -3.906849e+00 3.584903e-01 -5.951970e+00 -2.700988e+00 -6.325109e+00 -2.336285e+00 -3.766348e+00 -2.031971e+00 -7.316567e+00 5.756301e+01 1.133994e-02 2.991811e-02 -3.359659e-02 2.487778e-02 -6.961093e-02 5.002936e-02 -1.840463e-02 4.781803e-03 -3.585432e-02 2.927461e-02 7.713185e-03 1.130977e-02 -1.460487e-01 -3.261225e-03 1.132163e-03 2.946751e-03 -5.914500e-04 1.006807e-03 -1.270493e-03 1.347075e-03 -1.765834e-03 -3.860649e-04 2.408659e-04 2.757992e-03 2.602358e-03 2.630597e-03
<VARIANCE> 39
 9.299755e+01 5.294983e+01 7.168336e+01 5.569984e+01 5.638171e+01 7.682116e+01 4.535052e+01 5.553000e+01 3.910883e+01 3.410537e+01 3.061041e+01 2.818577e+01 3.401023e+02 4.151260e+00 3.243976e+00 2.793338e+00 3.945423e+00 2.856875e+00 3.057842e+00 2.990427e+00 3.667378e+00 3.218871e+00 3.122711e+00 2.700474e+00 2.249350e+00 6.148632e+00 5.539160e-01 6.340473e-01 4.995694e-01 7.373914e-01 5.257829e-01 5.363065e-01 5.453185e-01 6.915727e-01 6.087662e-01 6.198151e-01 5.075849e-01 4.734396e-01 9.382315e-01
<GCONST> 1.332016e+02
<STATE> 4
<MEAN> 39
 -1.479684e+01 -8.091621e+00 1.827296e+00 -3.868128e+00 -2.129221e-02 -5.571040e+00 -2.839607e+00 -6.476096e+00 -2.610390e+00 -3.551585e+00 -1.922975e+00 -7.232333e+00 5.710387e+01 -6.546589e-03 3.772216e-02 -9.656255e-03 2.414013e-02 -6.867829e-02 4.133921e-02 -1.328025e-02 -5.901129e-03 -3.770280e-02 3.042807e-02 2.141463e-02 2.456296e-02 -1.271608e-01 -4.347785e-03 1.582982e-03 2.480563e-03 4.681039e-04 1.544955e-03 -1.241566e-03 2.188823e-04 -1.559002e-03 -3.255461e-04 -2.317975e-04 2.718853e-03 3.139197e-03 4.164440e-04
<VARIANCE> 39
 8.958118e+01 5.078208e+01 7.585000e+01 5.783990e+01 5.615439e+01 7.596773e+01 4.433700e+01 5.477999e+01 4.009192e+01 3.517236e+01 2.966501e+01 2.815335e+01 3.434792e+02 4.052189e+00 3.207502e+00 2.847049e+00 3.953591e+00 2.796968e+00 3.001931e+00 2.868456e+00 3.582243e+00 3.330621e+00 3.142319e+00 2.604848e+00 2.232442e+00 6.199714e+00 5.417348e-01 6.336213e-01 5.074393e-01 7.353342e-01 5.079425e-01 5.341323e-01 5.268765e-01 6.783450e-01 6.322260e-01 6.203292e-01 4.944017e-01 4.680693e-01 9.525967e-01
<GCONST> 1.329978e+02
<TRANSP> 5
 0.000000e+00 1.000000e+00 0.000000e+00 0.000000e+00 0.000000e+00
 0.000000e+00 7.568275e-01 2.431726e-01 0.000000e+00 0.000000e+00
 0.000000e+00 0.000000e+00 7.568276e-01 2.431724e-01 0.000000e+00
 0.000000e+00 0.000000e+00 0.000000e+00 8.831046e-01 1.168954e-01
 0.000000e+00 0.000000e+00 0.000000e+00 0.000000e+00 0.000000e+00
<ENDHMM>
~h "t"
<BEGINHMM>
<NUMSTATES> 5
<STATE> 2
<MEAN> 39
 -1.113072e+01 -9.666655e+00 6.693390e+00 -5.494136e+00 5.185481e-01 -7.568139e+00 -2.373266e+00 -7.227506e+00 -2.587272e+00 -2.524957e+00 -1.876654e+00 -7.476262e+00 6.476495e+01 -1.653260e-02 4.129241e-02 6.843850e-03 1.909271e-02 -1.451326e-02 -5.662240e-03 -2.716128e-02 -1.660698e-02 -2.058817e-03 -1.326394e-02 3.199828e-02 1.950600e-02 -4.896296e-02 -6.252679e-04 1.345459e-04 -1.298881e-03 1.508638e-03 -4.648746e-04 1.346947e-03 -3.916256e-04 2.100206e-03 8.758053e-05 -1.414681e-03 -1.343995e-04 1.405485e-03 -4.131486e-03
<VARIANCE> 39
 6.349577e+01 5.349305e+01 8.211076e+01 6.971346e+01 4.784989e+01 5.896700e+01 4.253004e+01 5.420247e+01 4.812201e+01 3.568721e+01 4.412711e+01 2.329351e+01 1.996632e+02 3.714411e+00 3.662749e+00 3.347026e+00 5.161637e+00 3.033527e+00 3.357995e+00 2.795993e+00 4.166213e+00 3.723315e+00 3.126629e+00 3.164542e+00 1.752779e+00 7.299411e+00 5.912160e-01 6.493648e-01 5.442781e-01 9.347674e-01 5.627083e-01 5.941039e-01 5.152043e-01 7.568541e-01 6.833932e-01 6.050060e-01 5.886906e-01 3.420028e-01 1.121618e+00
<GCONST> 1.341784e+02
<STATE> 3
<MEAN> 39
 -1.120843e+01 -9.490015e+00 6.720902e+00 -5.395545e+00 4.404012e-01 -7.584716e+00 -2.492788e+00 -7.273738e+00 -2.605364e+00 -2.591630e+00 -1.742161e+00 -7.388237e+00 6.451598e+01 -1.694306e-02 3.911052e-02 4.324003e-03 2.326126e-02 -1.516917e-02 -1.705065e-03 -2.898065e-02 -1.011479e-02 -2.370952e-03 -1.834223e-02 3.095242e-02 2.275779e-02 -5.878683e-02 -1.667975e-04 -5.897859e-04 -3.675487e-04 9.724800e-04 -1.219531e-04 7.751564e-04 -8.417042e-04 1.362479e-03 3.641294e-04 -1.276778e-03 -3.818116e-04 5.100821e-04 -2.148479e-03
<VARIANCE> 39
 6.331339e+01 5.291732e+01 8.335520e+01 7.058490e+01 4.734121e+01 5.895817e+01 4.274918e+01 5.372300e+01 4.816978e+01 3.563408e+01 4.365302e+01 2.335711e+01 2.023096e+02 3.698107e+00 3.696131e+00 3.311563e+00 5.238615e+00 3.040006e+00 3.333632e+00 2.855018e+00 4.194054e+00 3.757479e+00 3.123982e+00 3.161595e+00 1.781714e+00 7.305725e+00 5.937808e-01 6.580213e-01 5.396692e-01 9.460531e-01 5.694181e-01 5.921845e-01 5.324879e-01 7.642535e-01 6.889817e-01 6.032898e-01 5.885788e-01 3.481272e-01 1.131408e+00
<GCONST> 1.343420e+02
<STATE> 4
<MEAN> 39
 -1.131956e+01 -9.207438e+00 6.837947e+00 -5.079048e+00 3.668607e-01 -7.707378e+00 -2.694205e+00 -7.358619e+00 -2.678077e+00 -2.741691e+00 -1.595404e+00 -7.264194e+00 6.404948e+01 -1.379848e-02 3.066098e-02 5.811349e-03 2.356462e-02 -1.396996e-02 1.587529e-03 -3.344167e-02 -7.005937e-03 -4.106465e-03 -2.487296e-02 2.820076e-02 1.922927e-02 -5.675436e-02 3.225984e-04 -1.438935e-03 -1.160594e-04 2.117114e-05 7.073799e-04 4.537026e-04 -4.793883e-04 5.618415e-04 7.462139e-04 -9.337204e-04 -6.594873e-04 -8.173788e-04 4.157858e-04
<VARIANCE> 39
 6.302261e+01 5.231278e+01 8.548260e+01 7.100331e+01 4.715845e+01 5.826208e+01 4.322364e+01 5.284577e+01 4.828743e+01 3.607191e+01 4.305547e+01 2.336223e+01 2.041180e+02 3.751330e+00 3.772431e+00 3.340904e+00 5.375059e+00 3.122957e+00 3.295376e+00 2.981896e+00 4.193392e+00 3.820873e+00 3.141039e+00 3.193013e+00 1.828957e+00 7.496857e+00 6.126408e-01 6.778142e-01 5.477750e-01 9.718660e-01 5.957268e-01 5.911458e-01 5.664660e-01 7.723942e-01 7.037694e-01 6.057701e-01 5.975303e-01 3.593352e-01 1.174906e+00
<GCONST> 1.348863e+02
<TRANSP> 5
 0.000000e+00 1.000000e+00 0.000000e+00 0.000000e+00 0.000000e+00
 0.000000e+00 7.517235e-01 2.482765e-01 0.000000e+00 0.000000e+00
 0.000000e+00 0.000000e+00 7.517233e-01 2.482767e-01 0.000000e+00
 0.000000e+00 0.000000e+00 0.000000e+00 8.781399e-01 1.218601e-01
 0.000000e+00 0.000000e+00 0.000000e+00 0.000000e+00 0.000000e+00
<ENDHMM>
~h "u"
<BEGINHMM>
<NUMSTATES> 5
<STATE> 2
<MEAN> 39
 -1.230985e+01 -7.956528e+00 8.006580e-01 -6.470615e+00 6.854892e-02 -1.972960e+00 -4.493231e+00 -6.185043e+00 -3.183321e+00 -2.190698e+00 -8.295016e-01 -6.402189e+00 5.618863e+01 1.325841e-01 -7.930613e-02 1.181782e-01 -9.572531e-02 5.673572e-02 -5.152309e-02 1.838038e-03 -5.653417e-02 -1.836974e-02 6.302962e-03 -1.120351e-03 -4.533789e-02 3.254614e-01 -1.096409e-03 3.671740e-04 6.984634e-04 2.445820e-03 -2.032218e-03 -1.508245e-03 2.284531e-03 1.356726e-03 4.718447e-04 -9.337818e-04 2.822462e-04 1.491680e-03 -1.814517e-04
<VARIANCE> 39
 9.841306e+01 6.837456e+01 8.064554e+01 1.153634e+02 5.980449e+01 7.820116e+01 4.049339e+01 5.141111e+01 3.583439e+01 3.341259e+01 3.200693e+01 3.189125e+01 4.543089e+02 2.676480e+00 2.702477e+00 2.085030e+00 4.582872e+00 3.521315e+00 2.639581e+00 2.228001e+00 2.784903e+00 2.812792e+00 2.535725e+00 2.216969e+00 1.798720e+00 6.452172e+00 4.200853e-01 4.715527e-01 3.464083e-01 7.312306e-01 6.276813e-01 4.623570e-01 4.390393e-01 5.231326e-01 5.419072e-01 5.040851e-01 4.087482e-01 3.485418e-01 8.938615e-01
<GCONST> 1.302997e+02
<STATE> 3
<MEAN> 39
 -1.175970e+01 -8.292647e+00 1.307324e+00 -6.849096e+00 2.926621e-01 -2.214919e+00 -4.460848e+00 -6.416065e+00 -3.267189e+00 -2.172741e+00 -8.450627e-01 -6.584776e+00 5.756091e+01 1.266967e-01 -7.717138e-02 1.224196e-01 -8.394935e-02 4.992759e-02 -6.015019e-02 1.103515e-02 -5.060633e-02 -1.902174e-02 2.265234e-03 -4.459125e-03 -4.219597e-02 3.226939e-01 -1.578325e-03 7.749283e-04 1.000845e-03 3.020901e-03 -1.832846e-03 -2.150235e-03 2.157536e-03 1.502561e-03 -2.441469e-04 -1.135651e-03 -1.071664e-03 6.919252e-04 -1.223942e-03
<VARIANCE> 39
 9.517350e+01 6.744466e+01 7.906497e+01 1.166682e+02 5.877344e+01 7.972821e+01 4.272132e+01 5.056725e+01 3.685426e+01 3.393105e+01 3.303849e+01 3.107136e+01 4.275498e+02 2.757255e+00 2.778010e+00 2.098315e+00 4.687184e+00 3.564663e+00 2.695544e+00 2.287773e+00 2.817519e+00 2.914976e+00 2.608984e+00 2.259634e+00 1.817221e+00 6.490782e+00 4.324318e-01 4.876371e-01 3.472596e-01 7.471407e-01 6.319463e-01 4.708482e-01 4.484949e-01 5.270698e-01 5.607677e-01 5.184311e-01 4.158151e-01 3.534878e-01 9.035017e-01
<GCONST> 1.307728e+02
<STATE> 4
<MEAN> 39
 -1.088545e+01 -8.815267e+00 2.190453e+00 -7.418228e+00 5.933585e-01 -2.703323e+00 -4.178821e+00 -6.824401e+00 -3.419666e+00 -2.250340e+00 -9.257628e-01 -6.815301e+00 5.980927e+01 1.160783e-01 -7.564327e-02 1.325628e-01 -6.161806e-02 4.331525e-02 -8.479793e-02 2.473502e-02 -4.113968e-02 -2.543334e-02 -6.581343e-03 -1.876206e-02 -3.854927e-02 3.202363e-01 -2.555641e-03 1.215833e-03 6.401638e-04 3.999988e-03 -1.600207e-03 -2.702864e-03 1.711801e-03 1.773841e-03 -4.605649e-04 -1.446747e-03 -1.824557e-03 7.838060e-04 -3.099414e-03
<VARIANCE> 39
 8.834947e+01 6.507037e+01 7.576225e+01 1.200848e+02 5.601984e+01 8.036658e+01 4.704752e+01 4.964800e+01 3.853837e+01 3.460724e+01 3.548095e+01 2.888253e+01 3.755210e+02 2.846038e+00 2.889518e+00 2.120755e+00 4.826368e+00 3.527169e+00 2.744836e+00 2.337008e+00 2.826342e+00 3.028373e+00 2.686529e+00 2.357011e+00 1.809432e+00 6.520769e+00 4.418161e-01 5.110874e-01 3.453159e-01 7.613155e-01 6.189501e-01 4.783351e-01 4.503993e-01 5.242959e-01 5.784458e-01 5.310616e-01 4.320645e-01 3.528759e-01 9.142703e-01
<GCONST> 1.310518e+02
<TRANSP> 5
 0.000000e+00 1.000000e+00 0.000000e+00 0.000000e+00 0.000000e+00
 0.000000e+00 7.543702e-01 2.456298e-01 0.000000e+00 0.000000e+00
 0.000000e+00 0.000000e+00 7.543696e-01 2.456304e-01 0.000000e+00
 0.000000e+00 0.000000e+00 0.000000e+00 8.807636e-01 1.192364e-01
 0.000000e+00 0.000000e+00 0.000000e+00 0.000000e+00 0.000000e+00
<ENDHMM>
~h "ah"
<BEGINHMM>
<NUMSTATES> 5
<STATE> 2
<MEAN> 39
 -9.453329e+00 -9.660933e+00 3.024235e+00 -9.930599e+00 1.886506e+00 -3.049413e+00 -1.729961e+00 -5.480371e+00 -3.289983e+00 -4.110827e+00 -3.402192e+00 -6.528017e+00 6.584383e+01 1.124473e-01 -1.227770e-01 8.442444e-02 -4.596971e-02 1.593198e-02 -6.983176e-02 3.917558e-02 -7.302192e-02 1.521427e-02 -2.904182e-02 -3.807221e-02 4.624626e-03 3.533558e-01 -1.098373e-03 2.529705e-03 3.621119e-04 2.805999e-03 -1.587472e-03 3.327289e-04 4.854091e-04 3.370442e-03 -8.449920e-04 -3.188539e-04 1.159535e-03 2.828778e-04 -5.322443e-03
<VARIANCE> 39
 8.026080e+01 8.264438e+01 4.763569e+01 1.119393e+02 5.717966e+01 7.843902e+01 4.013037e+01 3.794744e+01 3.217487e+01 4.861951e+01 5.618879e+01 2.649183e+01 2.874837e+02 3.857848e+00 3.945304e+00 1.779130e+00 3.961336e+00 3.590427e+00 3.231554e+00 2.235101e+00 2.647173e+00 2.817001e+00 3.720670e+00 4.392324e+00 2.244739e+00 5.716406e+00 6.099816e-01 5.394896e-01 2.979033e-01 5.717552e-01 5.658668e-01 5.654868e-01 4.555709e-01 4.556808e-01 5.686716e-01 6.301343e-01 7.529106e-01 4.658483e-01 6.625075e-01
<GCONST> 1.323242e+02
<STATE> 3
<MEAN> 39
 -8.945223e+00 -1.014357e+01 3.416378e+00 -1.011712e+01 1.936263e+00 -3.355430e+00 -1.561326e+00 -5.751698e+00 -3.247615e+00 -4.241825e+00 -3.547142e+00 -6.510185e+00 6.736617e+01 1.028819e-01 -1.056221e-01 8.305202e-02 -2.894694e-02 9.432535e-03 -7.058021e-02 4.039149e-02 -5.476709e-02 1.113183e-02 -2.853080e-02 -3.369921e-02 4.089752e-03 3.174895e-01 -2.140887e-03 3.937493e-03 -4.842597e-04 4.067747e-03 -1.197038e-03 -3.983115e-05 3.448653e-05 3.826713e-03 -8.350010e-04 4.200190e-04 9.792258e-04 -4.523097e-04 -8.678567e-03
<VARIANCE> 39
 7.562265e+01 8.007529e+01 4.357828e+01 1.089119e+02 5.583366e+01 8.012473e+01 4.291899e+01 3.829354e+01 3.237973e+01 4.790648e+01 5.767911e+01 2.670078e+01 2.367682e+02 4.071933e+00 4.102038e+00 1.798631e+00 4.035584e+00 3.532512e+00 3.305669e+00 2.318738e+00 2.744360e+00 2.844434e+00 3.807353e+00 4.386848e+00 2.301884e+00 5.598444e+00 6.551360e-01 5.720742e-01 3.033677e-01 5.903878e-01 5.566555e-01 5.888137e-01 4.694544e-01 4.717272e-01 5.700358e-01 6.520025e-01 7.452309e-01 4.765975e-01 6.779916e-01
<GCONST> 1.326004e+02
<STATE> 4
<MEAN> 39
 -8.010128e+00 -1.064729e+01 4.169646e+00 -1.011030e+01 2.055594e+00 -3.863008e+00 -1.413329e+00 -5.994579e+00 -3.295197e+00 -4.305138e+00 -3.665740e+00 -6.601824e+00 6.954496e+01 7.106096e-02 -6.096860e-02 7.191103e-02 1.443910e-02 3.339304e-03 -7.886077e-02 3.483775e-02 -1.950898e-02 4.552614e-03 -1.843128e-02 -3.432943e-02 -2.958099e-04 2.196381e-01 -3.596190e-03 3.540890e-03 -1.417917e-03 5.695974e-03 -2.894405e-04 -9.331296e-04 -4.517776e-04 2.818912e-03 -1.925955e-04 1.336119e-03 -3.462699e-04 -8.582248e-04 -1.100742e-02
<VARIANCE> 39
 6.383759e+01 7.607346e+01 3.801048e+01 1.062905e+02 5.481581e+01 7.749780e+01 4.597734e+01 3.991981e+01 3.360352e+01 4.482673e+01 5.760144e+01 2.780071e+01 1.512275e+02 4.114398e+00 4.312206e+00 1.847461e+00 4.264818e+00 3.350147e+00 3.247078e+00 2.475250e+00 2.951448e+00 2.940522e+00 3.819574e+00 4.139442e+00 2.459291e+00 5.291353e+00 6.904702e-01 6.182226e-01 3.170110e-01 6.403300e-01 5.397496e-01 5.998449e-01 4.884222e-01 5.073864e-01 5.811755e-01 6.726876e-01 6.954665e-01 5.092038e-01 7.098886e-01
<GCONST> 1.324855e+02
<TRANSP> 5
 0.000000e+00 1.000000e+00 0.000000e+00 0.000000e+00 0.000000e+00
 0.000000e+00 7.820665e-01 2.179335e-01 0.000000e+00 0.000000e+00
 0.000000e+00 0.000000e+00 7.820665e-01 2.179336e-01 0.000000e+00
 0.000000e+00 0.000000e+00 0.000000e+00 9.107324e-01 8.926760e-02
 0.000000e+00 0.000000e+00 0.000000e+00 0.000000e+00 0.000000e+00
<ENDHMM>
~h "al"
<BEGINHMM>
<NUMSTATES> 5
<STATE> 2
<MEAN> 39
 -5.686310e+00 -1.013689e+01 2.640794e+00 -1.322153e+01 3.269681e+00 1.669154e+00 -2.222304e+00 -7.717305e+00 -5.415916e+00 -3.348351e+00 -1.270081e+00 -8.668646e+00 6.851749e+01 9.324960e-02 -5.147526e-02 4.453835e-02 -1.587811e-01 1.772230e-03 6.915285e-03 9.155701e-03 -4.189549e-02 -5.214837e-02 -4.008682e-02 -1.980952e-02 -1.713236e-02 1.839020e-01 -8.240176e-03 4.191264e-03 -4.309944e-03 1.003899e-02 -5.023878e-03 -3.038571e-03 -3.292011e-04 -1.990274e-03 1.619292e-03 -3.494070e-03 -1.711364e-03 2.751272e-03 -1.489543e-02
<VARIANCE> 39
 5.019682e+01 3.586285e+01 4.332805e+01 1.006728e+02 5.524226e+01 6.405991e+01 3.932298e+01 6.360067e+01 2.904821e+01 2.875324e+01 2.490509e+01 2.254387e+01 1.387479e+02 2.126807e+00 1.646914e+00 1.692734e+00 3.147628e+00 3.606261e+00 2.298785e+00 1.954771e+00 3.264891e+00 2.453180e+00 1.904066e+00 1.857978e+00 1.400308e+00 3.065821e+00 2.942937e-01 2.305444e-01 2.853898e-01 4.469745e-01 5.748607e-01 3.989750e-01 3.355928e-01 4.767129e-01 4.449950e-01 3.591135e-01 3.361827e-01 2.553850e-01 3.540488e-01
<GCONST> 1.186713e+02
<STATE> 3
<MEAN> 39
 -5.357057e+00 -1.032407e+01 2.786987e+00 -1.382775e+01 3.251365e+00 1.671942e+00 -2.178531e+00 -7.892726e+00 -5.629688e+00 -3.536617e+00 -1.370635e+00 -8.731544e+00 6.918913e+01 5.196570e-02 -3.081479e-02 2.211434e-02 -1.077608e-01 -2.133120e-02 -6.830291e-03 7.379558e-03 -4.995620e-02 -4.304429e-02 -5.672588e-02 -2.706031e-02 -4.088165e-03 1.086858e-01 -1.048198e-02 5.235064e-03 -6.102806e-03 1.201085e-02 -5.869425e-03 -2.603667e-03 -8.491473e-04 -5.786140e-04 2.859928e-03 -3.535957e-03 -8.512150e-04 3.784874e-03 -1.921061e-02
<VARIANCE> 39
 4.191727e+01 3.339547e+01 4.063676e+01 9.826850e+01 5.603781e+01 6.520634e+01 4.047440e+01 6.595003e+01 2.810670e+01 2.978905e+01 2.485726e+01 2.196526e+01 1.116971e+02 1.863255e+00 1.593310e+00 1.656640e+00 3.036525e+00 3.560450e+00 2.256620e+00 1.889631e+00 3.211760e+00 2.335213e+00 1.828624e+00 1.803921e+00 1.399139e+00 2.836378e+00 2.574766e-01 2.218779e-01 2.757958e-01 4.299920e-01 5.676181e-01 3.909647e-01 3.220948e-01 4.577091e-01 4.238720e-01 3.385054e-01 3.246775e-01 2.546478e-01 3.221104e-01
<GCONST> 1.170844e+02
<STATE> 4
<MEAN> 39
 -5.131075e+00 -1.049764e+01 2.913628e+00 -1.474286e+01 3.241059e+00 1.981379e+00 -1.939161e+00 -8.193135e+00 -5.953987e+00 -3.777013e+00 -1.558480e+00 -8.785035e+00 6.981822e+01 -2.203941e-02 3.774257e-03 -2.350595e-02 -1.425737e-02 -5.462456e-02 -2.552341e-02 3.422092e-03 -4.968409e-02 -2.103748e-02 -7.632806e-02 -3.531566e-02 1.614140e-02 -3.018193e-02 -1.216982e-02 6.213942e-03 -6.641623e-03 1.399643e-02 -6.773650e-03 -1.919477e-03 -1.602260e-03 3.464983e-03 5.513385e-03 -6.216157e-04 3.339536e-05 4.479737e-03 -2.366868e-02
<VARIANCE> 39
 3.187067e+01 3.105133e+01 3.896339e+01 9.698172e+01 5.695926e+01 6.600125e+01 4.200762e+01 6.916847e+01 2.739035e+01 3.207521e+01 2.500812e+01 2.155837e+01 8.482768e+01 1.496557e+00 1.545708e+00 1.624274e+00 2.896299e+00 3.463033e+00 2.146375e+00 1.803207e+00 3.104715e+00 2.231348e+00 1.754365e+00 1.753842e+00 1.413983e+00 2.517404e+00 2.102889e-01 2.123586e-01 2.652599e-01 4.145152e-01 5.534034e-01 3.702084e-01 3.058614e-01 4.311858e-01 4.063016e-01 3.147147e-01 3.138859e-01 2.558990e-01 2.818907e-01
<GCONST> 1.150663e+02
<TRANSP> 5
 0.000000e+00 1.000000e+00 0.000000e+00 0.000000e+00 0.000000e+00
 0.000000e+00 7.691644e-01 2.308356e-01 0.000000e+00 0.000000e+00
 0.000000e+00 0.000000e+00 7.691643e-01 2.308357e-01 0.000000e+00
 0.000000e+00 0.000000e+00 0.000000e+00 8.962983e-01 1.037017e-01
 0.000000e+00 0.000000e+00 0.000000e+00 0.000000e+00 0.000000e+00
<ENDHMM>
~h "an"
<BEGINHMM>
<NUMSTATES> 5
<STATE> 2
<MEAN> 39
 -1.004201e+01 -9.362155e+00 9.661299e+00 -3.720762e+00 4.087210e-02 -6.117825e+00 -4.294577e+00 -6.842371e+00 -4.812026e+00 -2.060552e+00 -2.215539e+00 -8.169625e+00 6.460959e+01 -4.076203e-02 2.826331e-02 2.512886e-02 -6.107993e-03 -5.029732e-02 3.817016e-03 1.838794e-02 -1.421383e-02 -4.308904e-02 -2.074663e-02 1.539772e-02 -3.676038e-03 1.178903e-02 -5.768415e-03 3.707993e-03 -3.783280e-03 1.202375e-03 -6.133014e-03 2.732610e-03 2.380843e-03 1.530086e-04 1.742133e-03 -5.033090e-04 1.603246e-04 2.900876e-03 -9.797773e-03
<VARIANCE> 39
 5.277218e+01 5.698051e+01 1.012163e+02 6.318345e+01 7.832428e+01 4.937378e+01 4.291019e+01 6.321130e+01 3.632886e+01 3.684451e+01 3.201675e+01 2.870707e+01 2.362107e+02 2.124966e+00 3.232807e+00 3.070183e+00 4.659801e+00 3.016039e+00 2.885571e+00 2.365756e+00 3.890085e+00 2.921665e+00 2.598153e+00 2.519553e+00 1.703552e+00 6.598541e+00 3.620054e-01 5.764454e-01 5.105968e-01 8.388807e-01 5.103838e-01 5.519229e-01 4.472378e-01 6.948267e-01 5.573626e-01 5.003003e-01 4.630367e-01 3.172010e-01 1.024796e+00
<GCONST> 1.304229e+02
<STATE> 3
<MEAN> 39
 -1.027467e+01 -9.193673e+00 9.729407e+00 -3.720568e+00 -2.396831e-01 -6.056778e+00 -4.213593e+00 -6.907805e+00 -4.977681e+00 -2.155666e+00 -2.144953e+00 -8.158317e+00 6.452972e+01 -6.177711e-02 4.101396e-02 1.004328e-02 -2.678730e-03 -7.313867e-02 1.455473e-02 2.591004e-02 -1.354163e-02 -3.480180e-02 -2.190659e-02 1.528124e-02 5.959395e-03 -2.440664e-02 -4.872349e-03 3.301859e-03 -2.533515e-03 9.737322e-04 -5.364210e-03 2.525532e-03 2.112786e-03 -4.122518e-04 1.930606e-03 -8.051294e-04 -8.480099e-05 1.965454e-03 -7.947627e-03
<VARIANCE> 39
 5.322106e+01 5.603191e+01 1.039365e+02 6.466245e+01 7.848783e+01 5.113911e+01 4.196026e+01 6.287685e+01 3.720419e+01 3.702983e+01 3.203719e+01 2.881032e+01 2.392382e+02 2.106780e+00 3.129174e+00 2.996938e+00 4.622373e+00 3.020305e+00 2.886235e+00 2.374634e+00 3.868391e+00 2.946826e+00 2.636402e+00 2.529199e+00 1.704003e+00 6.313015e+00 3.619470e-01 5.602273e-01 5.007719e-01 8.251305e-01 5.135509e-01 5.515417e-01 4.479197e-01 6.961989e-01 5.555865e-01 5.074463e-01 4.648704e-01 3.188798e-01 1.002421e+00
<GCONST> 1.303715e+02
<STATE> 4
<MEAN> 39
 -1.074774e+01 -8.926502e+00 1.018892e+01 -3.764438e+00 -9.123149e-01 -5.911026e+00 -3.964591e+00 -7.209577e+00 -5.278800e+00 -2.368538e+00 -1.982444e+00 -8.149295e+00 6.459410e+01 -8.465583e-02 5.234259e-02 -1.562029e-02 1.289119e-03 -9.408377e-02 3.309336e-02 2.454349e-02 -1.235360e-02 -2.007512e-02 -2.257342e-02 1.358482e-02 1.131367e-02 -7.544511e-02 -2.941342e-03 1.530385e-03 -2.188334e-03 5.209725e-05 -2.786171e-03 1.542303e-03 9.058634e-04 -7.433665e-04 2.000416e-03 -7.301738e-04 -4.891289e-04 4.500397e-04 -5.065691e-03
<VARIANCE> 39
 5.373704e+01 5.502437e+01 1.114975e+02 6.673392e+01 7.661719e+01 5.448758e+01 4.098128e+01 6.274130e+01 3.930415e+01 3.730297e+01 3.276785e+01 2.861465e+01 2.418970e+02 2.100009e+00 2.990644e+00 2.865106e+00 4.537041e+00 3.000198e+00 2.881079e+00 2.373076e+00 3.821314e+00 2.991115e+00 2.711621e+00 2.521198e+00 1.681316e+00 5.774737e+00 3.579345e-01 5.371587e-01 4.766674e-01 7.940426e-01 5.115538e-01 5.460871e-01 4.435865e-01 6.925032e-01 5.545803e-01 5.209081e-01 4.609819e-01 3.180496e-01 9.332930e-01
<GCONST> 1.301432e+02
<TRANSP> 5
 0.000000e+00 1.000000e+00 0.000000e+00 0.000000e+00 0.000000e+00
 0.000000e+00 7.601240e-01 2.398760e-01 0.000000e+00 0.000000e+00
 0.000000e+00 0.000000e+00 7.601249e-01 2.398750e-01 0.000000e+00
 0.000000e+00 0.000000e+00 0.000000e+00 8.873542e-01 1.126459e-01
 0.000000e+00 0.000000e+00 0.000000e+00 0.000000e+00 0.000000e+00
<ENDHMM>
~h "ar"
<BEGINHMM>
<NUMSTATES> 5
<STATE> 2
<MEAN> 39
 -1.339278e+01 -7.086322e+00 5.333743e+00 -3.427765e+00 -5.604959e+00 -4.623869e+00 -1.896822e+00 -6.499718e+00 -3.745104e+00 -2.674167e+00 -6.716603e-01 -5.885657e+00 5.696780e+01 2.429426e-01 -1.271695e-01 1.859807e-01 -1.844696e-01 7.510816e-02 -1.420732e-01 7.858411e-02 -1.701211e-01 -5.104407e-02 -4.032843e-02 -9.708674e-02 -8.963477e-02 5.449495e-01 6.517405e-04 -2.621776e-03 -2.231363e-03 -4.429068e-03 4.954217e-03 -1.007851e-03 -3.999700e-04 -3.253947e-03 2.697583e-03 -4.331526e-03 -4.236788e-03 -3.958188e-03 8.987877e-03
<VARIANCE> 39
 7.602069e+01 5.560443e+01 1.545506e+02 6.939343e+01 5.272158e+01 7.159256e+01 2.850623e+01 6.557366e+01 3.384800e+01 2.974210e+01 3.514339e+01 3.319998e+01 4.594897e+02 2.319359e+00 2.291535e+00 6.816629e+00 4.019459e+00 2.985113e+00 2.389971e+00 1.809775e+00 3.353978e+00 2.535973e+00 2.522643e+00 2.297541e+00 1.838981e+00 8.612257e+00 3.363800e-01 3.804485e-01 1.078804e+00 6.971002e-01 5.338236e-01 3.958791e-01 3.698067e-01 5.439672e-01 4.369289e-01 4.700695e-01 4.275959e-01 3.289440e-01 1.066152e+00
<GCONST> 1.304029e+02
<STATE> 3
<MEAN> 39
 -1.237743e+01 -7.662158e+00 6.022972e+00 -4.250043e+00 -5.175802e+00 -5.254747e+00 -1.546334e+00 -7.235892e+00 -3.889230e+00 -2.898272e+00 -1.143859e+00 -6.317778e+00 5.937713e+01 2.231963e-01 -1.274488e-01 1.503934e-01 -1.912442e-01 1.004774e-01 -1.329184e-01 7.348979e-02 -1.747679e-01 -2.975307e-02 -5.940013e-02 -1.108801e-01 -1.030633e-01 5.386561e-01 -5.571296e-03 1.197170e-04 -8.625014e-03 -1.284576e-03 5.488949e-03 2.360789e-03 -1.783467e-03 -4.236690e-04 4.920529e-03 -4.646380e-03 -2.604408e-03 -2.954763e-03 -2.787287e-03
<VARIANCE> 39
 7.055173e+01 5.148614e+01 1.398488e+02 7.370125e+01 5.705655e+01 7.008836e+01 3.046758e+01 6.694117e+01 3.326465e+01 3.278369e+01 3.562008e+01 3.271909e+01 3.978864e+02 2.481205e+00 2.422245e+00 6.858213e+00 4.301308e+00 3.103914e+00 2.589367e+00 1.911132e+00 3.470216e+00 2.529649e+00 2.702268e+00 2.417597e+00 1.933730e+00 8.871410e+00 3.570145e-01 4.027058e-01 1.095477e+00 7.394472e-01 5.512829e-01 4.342749e-01 3.858297e-01 5.520824e-01 4.378728e-01 5.104876e-01 4.483940e-01 3.437847e-01 1.105991e+00
<GCONST> 1.314787e+02
<STATE> 4
<MEAN> 39
 -1.109242e+01 -8.666018e+00 6.292675e+00 -5.644654e+00 -3.746439e+00 -6.340828e+00 -7.435541e-01 -8.270335e+00 -3.686097e+00 -3.470293e+00 -2.085551e+00 -7.084364e+00 6.323341e+01 1.162458e-01 -9.148563e-02 2.709449e-02 -1.497777e-01 1.458415e-01 -9.001086e-02 6.363817e-02 -1.371533e-01 2.744325e-02 -8.659481e-02 -1.083978e-01 -1.000285e-01 3.791344e-01 -1.248798e-02 4.025368e-03 -1.256098e-02 4.646781e-03 3.101645e-03 5.286090e-03 -2.657302e-03 5.053703e-03 5.110105e-03 -3.108392e-03 1.503880e-03 6.966160e-04 -1.918376e-02
<VARIANCE> 39
 6.120315e+01 4.418638e+01 1.107889e+02 7.666500e+01 6.463464e+01 6.793868e+01 3.570819e+01 6.639889e+01 3.209430e+01 3.706818e+01 3.655357e+01 3.025868e+01 2.849133e+02 2.703338e+00 2.654543e+00 5.843765e+00 4.453362e+00 3.187261e+00 3.090607e+00 2.151725e+00 3.545703e+00 2.398715e+00 2.842637e+00 2.600468e+00 2.089867e+00 8.323460e+00 3.893432e-01 4.441397e-01 9.414679e-01 7.533958e-01 5.614883e-01 5.391806e-01 4.288042e-01 5.406711e-01 4.241893e-01 5.438059e-01 4.783848e-01 3.739443e-01 1.038375e+00
<GCONST> 1.319034e+02
<TRANSP> 5
 0.000000e+00 1.000000e+00 0.000000e+00 0.000000e+00 0.000000e+00
 0.000000e+00 7.653016e-01 2.346984e-01 0.000000e+00 0.000000e+00
 0.000000e+00 0.000000e+00 7.653018e-01 2.346982e-01 0.000000e+00
 0.000000e+00 0.000000e+00 0.000000e+00 8.923669e-01 1.076331e-01
 0.000000e+00 0.000000e+00 0.000000e+00 0.000000e+00 0.000000e+00
<ENDHMM>
~h "at"
<BEGINHMM>
<NUMSTATES> 5
<STATE> 2
<MEAN> 39
 -6.924054e+00 -1.106450e+01 8.265900e+00 -4.856885e+00 6.258355e+00 -4.787784e+00 -3.438379e+00 -6.943315e+00 -2.532278e+00 -2.406800e+00 -3.174585e+00 -8.829588e+00 6.819959e+01 -4.091351e-02 -6.303918e-04 -2.971108e-02 6.511682e-03 4.677685e-02 -7.330020e-02 4.619329e-02 2.763034e-02 5.062799e-02 -4.490813e-02 -4.205639e-02 3.725968e-02 -9.532837e-03 -3.228088e-03 -4.573459e-04 4.267914e-03 -7.979758e-04 -8.117655e-03 -3.984898e-03 5.120629e-03 -1.391604e-03 -3.073643e-03 -4.068180e-03 3.681251e-03 4.492625e-03 1.399378e-03
<VARIANCE> 39
 1.284176e+01 5.802302e+01 3.163437e+01 7.328478e+01 3.736892e+01 3.708886e+01 4.424347e+01 5.677284e+01 4.111102e+01 3.684643e+01 3.945684e+01 2.960880e+01 7.451515e+01 1.346583e+00 5.191954e+00 2.322963e+00 7.499400e+00 2.216175e+00 2.480482e+00 2.529072e+00 5.509841e+00 3.469191e+00 3.246589e+00 3.098609e+00 2.028962e+00 6.525322e+00 2.563291e-01 8.156395e-01 3.959011e-01 1.228832e+00 4.007505e-01 4.576942e-01 4.655969e-01 9.578862e-01 5.917954e-01 6.353645e-01 5.588678e-01 3.443814e-01 9.007158e-01
<GCONST> 1.275567e+02
<STATE> 3
<MEAN> 39
 -7.109486e+00 -1.109132e+01 8.148312e+00 -4.819481e+00 6.404118e+00 -5.097399e+00 -3.171820e+00 -6.836483e+00 -2.346889e+00 -2.646151e+00 -3.344193e+00 -8.650867e+00 6.817942e+01 -5.527764e-02 -1.929097e-03 -1.365329e-02 2.802721e-03 1.513082e-02 -8.854818e-02 6.790913e-02 2.176295e-02 3.743602e-02 -6.228046e-02 -2.796778e-02 5.557580e-02 -5.014693e-03 -3.702563e-03 1.273345e-04 3.966189e-03 -8.968480e-04 -7.823007e-03 -3.153343e-03 4.936242e-03 -1.899937e-03 -2.813045e-03 -4.240058e-03 3.439533e-03 4.480074e-03 7.242937e-04
<VARIANCE> 39
 1.381779e+01 5.737640e+01 3.007286e+01 7.291148e+01 3.690102e+01 3.654339e+01 4.729617e+01 5.475167e+01 3.840584e+01 3.676354e+01 3.751969e+01 3.086829e+01 7.426060e+01 1.406848e+00 5.157681e+00 2.159120e+00 7.453453e+00 2.261036e+00 2.395121e+00 2.509715e+00 5.445975e+00 3.398031e+00 3.246101e+00 3.119483e+00 2.084820e+00 6.687187e+00 2.695654e-01 8.080165e-01 3.597245e-01 1.215607e+00 4.115798e-01 4.354958e-01 4.541391e-01 9.492612e-01 5.871325e-01 6.413765e-01 5.664610e-01 3.560638e-01 9.330764e-01
<GCONST> 1.274056e+02
<STATE> 4
<MEAN> 39
 -7.501851e+00 -1.132190e+01 8.114654e+00 -4.634658e+00 6.240312e+00 -5.496119e+00 -2.391700e+00 -6.656140e+00 -2.154997e+00 -3.161707e+00 -3.596120e+00 -8.205348e+00 6.810145e+01 -7.974282e-02 -5.758293e-03 -7.647657e-03 1.991025e-03 -1.675893e-02 -9.712513e-02 1.081587e-01 1.209567e-02 2.079167e-02 -9.545725e-02 -1.763444e-02 7.725855e-02 -5.526738e-03 -4.453373e-03 1.235647e-03 2.288916e-03 -7.693067e-04 -6.249709e-03 -1.101117e-03 3.366817e-03 -2.455695e-03 -2.217068e-03 -3.576943e-03 3.410101e-03 3.361325e-03 -1.594614e-03
<VARIANCE> 39
 1.634179e+01 5.648922e+01 2.891115e+01 7.085349e+01 3.660101e+01 3.554336e+01 5.522409e+01 5.105751e+01 3.489528e+01 3.824157e+01 3.428209e+01 3.195070e+01 7.404478e+01 1.505594e+00 5.078542e+00 1.982435e+00 7.240071e+00 2.334728e+00 2.290785e+00 2.496114e+00 5.267351e+00 3.229167e+00 3.215174e+00 2.995649e+00 2.165344e+00 6.805553e+00 2.890702e-01 7.986884e-01 3.202242e-01 1.184247e+00 4.252699e-01 4.090559e-01 4.330399e-01 9.277492e-01 5.657163e-01 6.405700e-01 5.510743e-01 3.758088e-01 9.677374e-01
<GCONST> 1.271048e+02
<TRANSP> 5
 0.000000e+00 1.000000e+00 0.000000e+00 0.000000e+00 0.000000e+00
 0.000000e+00 7.527416e-01 2.472584e-01 0.000000e+00 0.000000e+00
 0.000000e+00 0.000000e+00 7.527420e-01 2.472580e-01 0.000000e+00
 0.000000e+00 0.000000e+00 0.000000e+00 8.780996e-01 1.219004e-01
 0.000000e+00 0.000000e+00 0.000000e+00 0.000000e+00 0.000000e+00
<ENDHMM>
~h "ba"
<BEGINHMM>
<NUMSTATES> 5
<STATE> 2
<MEAN> 39
 -1.353434e+01 -7.501049e+00 3.419640e+00 -4.384594e+00 -8.184235e-01 -4.879500e+00 -2.850515e+00 -5.819112e+00 -3.086862e+00 -3.200992e+00 -1.461677e+00 -6.120543e+00 5.654935e+01 2.095543e-02 -1.888629e-02 1.868093e-02 -2.844902e-02 2.483384e-02 -2.115432e-02 -2.241341e-02 -2.440065e-02 1.065352e-02 -3.281596e-03 4.658740e-03 -2.475247e-02 5.571596e-02 -1.126246e-03 3.406594e-04 -2.369028e-03 1.090928e-03 -1.065929e-03 1.166293e-03 2.630113e-04 4.992805e-04 7.583728e-04 6.158430e-04 7.706336e-04 1.727761e-03 -2.385555e-03
<VARIANCE> 39
 8.257824e+01 6.222118e+01 9.910095e+01 7.501326e+01 5.574468e+01 6.783420e+01 3.692750e+01 5.708974e+01 4.289985e+01 3.876772e+01 3.840009e+01 3.000576e+01 4.123953e+02 2.307453e+00 3.119145e+00 2.514411e+00 4.030468e+00 2.338668e+00 2.652731e+00 2.405013e+00 3.557716e+00 2.861053e+00 2.672831e+00 2.702723e+00 1.716743e+00 6.175971e+00 3.544277e-01 5.277790e-01 3.884306e-01 6.828721e-01 4.025802e-01 4.745356e-01 4.560157e-01 6.362025e-01 5.278529e-01 5.074918e-01 4.992428e-01 3.320040e-01 8.378019e-01
<GCONST> 1.299783e+02
<STATE> 3
<MEAN> 39
 -1.343106e+01 -7.591828e+00 3.507286e+00 -4.508576e+00 -7.279816e-01 -4.967912e+00 -2.926103e+00 -5.929825e+00 -3.054209e+00 -3.223488e+00 -1.450297e+00 -6.223414e+00 5.682140e+01 1.684004e-02 -1.764609e-02 1.317118e-02 -2.376191e-02 1.797515e-02 -1.720444e-02 -1.873206e-02 -2.179584e-02 1.033010e-02 -1.871407e-03 5.315816e-03 -1.978139e-02 4.678566e-02 -7.055503e-04 2.960781e-04 -1.065972e-03 1.202872e-03 -1.544703e-03 9.379057e-04 1.132969e-03 7.712311e-04 -2.319026e-04 3.012228e-04 -3.726584e-04 1.101587e-03 -1.966382e-03
<VARIANCE> 39
 8.153743e+01 6.148269e+01 9.769450e+01 7.548524e+01 5.524377e+01 6.735715e+01 3.712558e+01 5.629502e+01 4.301649e+01 3.896679e+01 3.794918e+01 2.974901e+01 4.017839e+02 2.301581e+00 3.181554e+00 2.512343e+00 4.118367e+00 2.355501e+00 2.651862e+00 2.422216e+00 3.584112e+00 2.882429e+00 2.696763e+00 2.703757e+00 1.726211e+00 6.383080e+00 3.550688e-01 5.397645e-01 3.868625e-01 7.002308e-01 4.089200e-01 4.736762e-01 4.601676e-01 6.419203e-01 5.317706e-01 5.122359e-01 5.000852e-01 3.343696e-01 8.690163e-01
<GCONST> 1.301361e+02
<STATE> 4
<MEAN> 39
 -1.341894e+01 -7.595070e+00 3.731071e+00 -4.650412e+00 -9.090908e-01 -5.064491e+00 -2.864628e+00 -6.182647e+00 -3.168391e+00 -3.304322e+00 -1.529986e+00 -6.345709e+00 5.684214e+01 8.407922e-03 -1.354254e-02 1.015154e-02 -1.149299e-02 2.675159e-03 -1.624251e-02 -1.180399e-02 -1.332987e-02 3.656720e-03 -3.996341e-03 2.434502e-03 -1.387473e-02 3.062317e-02 -1.225236e-03 5.839503e-04 -2.531006e-04 2.076075e-03 -1.940397e-03 2.385971e-04 7.654887e-04 1.545234e-03 -6.235435e-04 8.195563e-05 -6.219561e-04 1.183014e-03 -2.844329e-03
<VARIANCE> 39
 7.848286e+01 6.056765e+01 1.014398e+02 7.678641e+01 5.457536e+01 6.558258e+01 3.730570e+01 5.614526e+01 4.202043e+01 3.777588e+01 3.643451e+01 2.969049e+01 3.911404e+02 2.237333e+00 3.215746e+00 2.541289e+00 4.120156e+00 2.373307e+00 2.651194e+00 2.426274e+00 3.542419e+00 2.818690e+00 2.628623e+00 2.607351e+00 1.704391e+00 6.783806e+00 3.494412e-01 5.478426e-01 3.865819e-01 7.030488e-01 4.228993e-01 4.781003e-01 4.630446e-01 6.374152e-01 5.200772e-01 4.986501e-01 4.800478e-01 3.302953e-01 9.265301e-01
<GCONST> 1.299384e+02
<TRANSP> 5
 0.000000e+00 1.000000e+00 0.000000e+00 0.000000e+00 0.000000e+00
 0.000000e+00 7.624307e-01 2.375693e-01 0.000000e+00 0.000000e+00
 0.000000e+00 0.000000e+00 7.624304e-01 2.375696e-01 0.000000e+00
 0.000000e+00 0.000000e+00 0.000000e+00 8.955798e-01 1.044202e-01
 0.000000e+00 0.000000e+00 0.000000e+00 0.000000e+00 0.000000e+00
<ENDHMM>
~h "be"
<BEGINHMM>
<NUMSTATES> 5
<STATE> 2
<MEAN> 39
 -1.590658e+01 -6.422285e+00 -6.164029e-01 -1.775824e+00 -1.182453e+00 -2.314868e+00 -3.312568e+00 -4.776707e+00 -2.411800e+00 -3.155466e+00 -1.960853e+00 -5.484373e+00 4.973076e+01 9.733223e-03 -3.177502e-02 5.150422e-02 -7.222904e-03 2.912518e-02 -2.719736e-02 -5.991970e-03 -7.981529e-03 4.817116e-02 4.655791e-02 1.960693e-02 -2.788655e-02 7.863738e-02 2.132559e-03 -8.495107e-04 3.201248e-03 3.888172e-03 -2.115991e-03 1.245942e-03 -1.279790e-03 4.959849e-04 -4.077608e-03 -3.032002e-05 2.822564e-03 2.608775e-03 -1.383424e-03
<VARIANCE> 39
 8.989841e+01 7.045328e+01 1.029722e+02 6.364384e+01 5.826538e+01 6.303455e+01 3.611234e+01 5.639157e+01 3.646871e+01 3.195224e+01 3.882128e+01 2.898964e+01 5.169295e+02 1.849139e+00 2.186686e+00 1.936173e+00 2.832287e+00 2.092058e+00 2.332006e+00 1.997632e+00 2.805610e+00 2.434379e+00 2.330723e+00 2.118479e+00 1.350698e+00 4.526681e+00 2.944530e-01 3.760391e-01 3.208402e-01 4.913716e-01 3.850054e-01 4.392326e-01 3.795398e-01 5.392177e-01 4.432254e-01 4.426042e-01 3.747018e-01 2.665374e-01 6.802204e-01
<GCONST> 1.243556e+02
<STATE> 3
<MEAN> 39
 -1.581769e+01 -6.564017e+00 -3.537099e-01 -1.771107e+00 -1.082529e+00 -2.400736e+00 -3.354553e+00 -4.831684e+00 -2.296811e+00 -2.971199e+00 -1.873661e+00 -5.582155e+00 5.006273e+01 2.560060e-02 -3.220025e-02 7.049052e-02 1.183561e-03 1.715133e-02 -1.909164e-02 -1.159531e-02 -1.811586e-02 2.369922e-02 4.293779e-02 2.274915e-02 -2.323911e-02 8.096506e-02 4.172423e-03 2.817345e-04 4.628828e-03 1.609189e-03 -3.007352e-03 1.977631e-03 -1.690621e-03 -3.077096e-03 -6.119809e-03 -1.520715e-03 8.588075e-05 6.933389e-04 8.735338e-04
<VARIANCE> 39
 9.094613e+01 7.128369e+01 1.057277e+02 6.255132e+01 5.762399e+01 6.232248e+01 3.735115e+01 5.711166e+01 3.607530e+01 3.141242e+01 3.881668e+01 2.878131e+01 5.164325e+02 1.910472e+00 2.222499e+00 1.952638e+00 2.843345e+00 2.065833e+00 2.313881e+00 2.030612e+00 2.816535e+00 2.392106e+00 2.332267e+00 2.123486e+00 1.369619e+00 4.679249e+00 3.005720e-01 3.807731e-01 3.216774e-01 4.998123e-01 3.766615e-01 4.378878e-01 3.863535e-01 5.358459e-01 4.315992e-01 4.431525e-01 3.760159e-01 2.691917e-01 6.978775e-01
<GCONST> 1.245225e+02
<STATE> 4
<MEAN> 39
 -1.514287e+01 -6.930390e+00 3.712287e-01 -2.002460e+00 -8.514386e-01 -2.504940e+00 -3.805099e+00 -5.288152e+00 -2.367739e+00 -2.753141e+00 -1.921753e+00 -5.960836e+00 5.132658e+01 5.847333e-02 -3.541478e-02 1.019876e-01 -6.233125e-03 1.200657e-02 -1.873749e-02 -2.767508e-02 -3.914724e-02 -2.193613e-03 3.089276e-02 1.205718e-02 -3.059640e-02 1.159651e-01 4.654275e-03 -3.708850e-04 3.959289e-03 -1.289312e-03 -6.477825e-04 -1.115603e-04 -2.060178e-03 -2.964436e-03 -3.237689e-03 -2.140530e-03 -1.569196e-03 -1.330272e-03 5.341269e-03
<VARIANCE> 39
 9.277559e+01 7.156944e+01 1.073304e+02 6.352712e+01 5.697836e+01 6.074094e+01 3.917961e+01 5.933297e+01 3.689057e+01 3.250324e+01 3.991721e+01 2.949552e+01 5.026289e+02 2.061626e+00 2.354300e+00 2.131633e+00 3.013842e+00 2.130380e+00 2.354506e+00 2.163606e+00 3.008747e+00 2.522947e+00 2.421738e+00 2.167635e+00 1.427381e+00 5.250597e+00 3.195558e-01 3.991284e-01 3.515601e-01 5.330585e-01 3.829268e-01 4.495554e-01 4.142510e-01 5.600342e-01 4.528201e-01 4.592289e-01 3.838581e-01 2.766399e-01 7.569250e-01
<GCONST> 1.260640e+02
<TRANSP> 5
 0.000000e+00 1.000000e+00 0.000000e+00 0.000000e+00 0.000000e+00
 0.000000e+00 7.573554e-01 2.426446e-01 0.000000e+00 0.000000e+00
 0.000000e+00 0.000000e+00 7.573550e-01 2.426450e-01 0.000000e+00
 0.000000e+00 0.000000e+00 0.000000e+00 8.846601e-01 1.153398e-01
 0.000000e+00 0.000000e+00 0.000000e+00 0.000000e+00 0.000000e+00
<ENDHMM>
~h "bi"
<BEGINHMM>
<NUMSTATES> 5
<STATE> 2
<MEAN> 39
 -1.251117e+01 -8.350707e+00 6.962687e+00 -3.631824e+00 -1.120245e+00 -7.280358e+00 -2.324322e+00 -6.692396e+00 -3.774629e+00 -3.330381e+00 -1.044746e+00 -6.891485e+00 6.218453e+01 1.710147e-02 6.308801e-03 1.518576e-02 -1.726187e-02 4.145493e-02 -4.741611e-02 2.650087e-02 1.751032e-03 5.271909e-02 -3.865316e-02 -3.044666e-02 7.918277e-04 8.587947e-02 -6.091282e-04 1.016199e-03 -2.888154e-03 -2.513812e-03 6.506442e-04 2.805594e-03 -4.261353e-04 1.933622e-03 5.676399e-05 7.095325e-04 -5.845188e-04 2.869507e-03 -5.128066e-03
<VARIANCE> 39
 7.946217e+01 6.002961e+01 1.044313e+02 6.705450e+01 5.332905e+01 7.195415e+01 4.633457e+01 5.600635e+01 4.493473e+01 4.234320e+01 3.741321e+01 2.978180e+01 3.506548e+02 3.702167e+00 3.386842e+00 2.884234e+00 4.205225e+00 3.008238e+00 3.131632e+00 2.827373e+00 3.317645e+00 2.992944e+00 3.319209e+00 2.833240e+00 1.861333e+00 5.097454e+00 5.923396e-01 6.039402e-01 4.517075e-01 7.162086e-01 5.210243e-01 6.065081e-01 5.214632e-01 6.000009e-01 5.363134e-01 6.208016e-01 5.120764e-01 3.558945e-01 7.818474e-01
<GCONST> 1.331167e+02
<STATE> 3
<MEAN> 39
 -1.244313e+01 -8.341619e+00 7.009055e+00 -3.729358e+00 -9.412272e-01 -7.449910e+00 -2.185865e+00 -6.672667e+00 -3.595942e+00 -3.489543e+00 -1.186168e+00 -6.862905e+00 6.251826e+01 1.920897e-02 3.740221e-03 8.468112e-03 -2.942426e-02 4.602500e-02 -3.223152e-02 3.093370e-02 4.939355e-03 4.083650e-02 -3.406227e-02 -3.307459e-02 7.721589e-03 7.553443e-02 8.899742e-05 -2.996144e-04 -1.342653e-03 -2.857945e-03 7.796487e-04 3.995822e-03 1.317085e-03 4.263246e-04 -3.544799e-03 1.347138e-03 -4.038598e-04 1.704943e-03 -3.014878e-03
<VARIANCE> 39
 7.824599e+01 5.958047e+01 1.022527e+02 6.443084e+01 5.331583e+01 7.073192e+01 4.664072e+01 5.552176e+01 4.389052e+01 4.244485e+01 3.853788e+01 2.956721e+01 3.415989e+02 3.721869e+00 3.395212e+00 2.934562e+00 4.145373e+00 3.003317e+00 3.141575e+00 2.819164e+00 3.334973e+00 2.960619e+00 3.315361e+00 2.834182e+00 1.855161e+00 5.049978e+00 5.960004e-01 6.051465e-01 4.585573e-01 7.054421e-01 5.195806e-01 6.091791e-01 5.171024e-01 5.963656e-01 5.294652e-01 6.161215e-01 5.045748e-01 3.536764e-01 7.700554e-01
<GCONST> 1.329171e+02
<STATE> 4
<MEAN> 39
 -1.220435e+01 -8.540352e+00 7.124535e+00 -4.089387e+00 -3.386248e-01 -7.717100e+00 -1.628432e+00 -6.727382e+00 -3.413415e+00 -3.848062e+00 -1.572825e+00 -6.835628e+00 6.351700e+01 3.705899e-02 -8.323672e-03 6.472818e-03 -4.027895e-02 5.301804e-02 -2.328237e-02 3.654027e-02 1.156952e-03 1.500582e-02 -2.819725e-02 -4.731849e-02 4.405424e-03 8.023818e-02 1.665104e-03 -2.726882e-04 -6.476021e-05 -1.662849e-03 5.156880e-04 2.137780e-03 1.009150e-04 -7.518565e-04 -3.800005e-03 1.531597e-03 -7.226145e-04 -2.407827e-04 -1.156142e-03
<VARIANCE> 39
 7.520380e+01 5.868361e+01 9.646397e+01 6.059760e+01 5.416096e+01 6.602422e+01 4.635435e+01 5.366624e+01 4.285825e+01 4.276132e+01 4.107354e+01 2.876829e+01 3.077358e+02 3.841058e+00 3.427132e+00 3.115558e+00 4.063704e+00 2.942663e+00 3.099566e+00 2.761765e+00 3.382827e+00 2.893246e+00 3.308397e+00 2.885160e+00 1.844590e+00 5.118128e+00 6.110890e-01 6.063727e-01 4.840501e-01 6.908312e-01 5.115603e-01 5.960447e-01 4.988696e-01 5.936524e-01 5.157396e-01 6.089602e-01 5.019708e-01 3.506667e-01 7.540210e-01
<GCONST> 1.325157e+02
<TRANSP> 5
 0.000000e+00 1.000000e+00 0.000000e+00 0.000000e+00 0.000000e+00
 0.000000e+00 7.545815e-01 2.454185e-01 0.000000e+00 0.000000e+00
 0.000000e+00 0.000000e+00 7.545810e-01 2.454190e-01 0.000000e+00
 0.000000e+00 0.000000e+00 0.000000e+00 8.824379e-01 1.175620e-01
 0.000000e+00 0.000000e+00 0.000000e+00 0.000000e+00 0.000000e+00
<ENDHMM>
~h "bo"
<BEGINHMM>
<NUMSTATES> 5
<STATE> 2
<MEAN> 39
 -1.729125e+01 -5.287816e+00 1.640396e+00 -1.593962e+00 -2.971563e+00 6.686783e-02 -2.449182e+00 -3.953538e+00 -3.334745e+00 -9.289036e-01 -1.283041e-01 -5.479342e+00 4.620274e+01 2.461820e-01 -1.949354e-01 2.607183e-01 -1.878229e-01 8.962473e-02 -1.605198e-01 9.900602e-03 -9.053032e-02 -5.694734e-02 4.262361e-02 -2.085908e-02 -8.880852e-02 6.520029e-01 9.238487e-05 -1.007402e-03 -6.415953e-03 -1.879508e-03 5.377093e-04 7.090875e-05 1.488575e-03 3.562349e-03 4.020503e-03 2.707119e-03 5.334162e-05 5.091521e-03 3.104143e-04
<VARIANCE> 39
 8.781699e+01 7.103439e+01 1.424329e+02 7.569498e+01 4.868818e+01 4.957448e+01 3.664726e+01 4.531898e+01 3.862066e+01 2.710176e+01 1.790404e+01 3.354613e+01 5.452774e+02 2.042759e+00 2.664082e+00 3.195807e+00 4.435702e+00 2.356184e+00 2.027614e+00 3.257378e+00 2.855469e+00 2.417262e+00 2.464287e+00 1.178387e+00 1.611108e+00 7.212201e+00 3.190221e-01 4.815002e-01 5.250297e-01 7.165546e-01 3.886601e-01 3.239632e-01 6.305645e-01 5.603380e-01 4.340936e-01 4.650979e-01 2.063614e-01 2.956755e-01 1.087927e+00
<GCONST> 1.268232e+02
<STATE> 3
<MEAN> 39
 -1.608447e+01 -6.257693e+00 2.795274e+00 -2.552956e+00 -2.528237e+00 -7.274020e-01 -2.387859e+00 -4.321531e+00 -3.560725e+00 -6.957211e-01 -2.032183e-01 -5.799323e+00 4.938362e+01 2.459350e-01 -1.997332e-01 2.299424e-01 -1.971066e-01 9.109899e-02 -1.627705e-01 1.271331e-02 -7.089489e-02 -4.242981e-02 4.673672e-02 -1.597947e-02 -5.953056e-02 6.495270e-01 -2.318099e-04 -8.988224e-04 -6.031799e-03 -1.812832e-03 3.336706e-04 -4.619033e-04 2.519240e-04 3.895748e-03 2.996433e-03 2.711513e-04 7.541429e-04 5.930804e-03 -7.806917e-04
<VARIANCE> 39
 9.146751e+01 7.600650e+01 1.416377e+02 8.134161e+01 5.170808e+01 5.207047e+01 3.968328e+01 4.555402e+01 4.160201e+01 2.883161e+01 2.001614e+01 3.278773e+01 5.622256e+02 2.177816e+00 2.720579e+00 3.141900e+00 4.846388e+00 2.577061e+00 2.088023e+00 3.290511e+00 2.876946e+00 2.637893e+00 2.654171e+00 1.260157e+00 1.584425e+00 7.494546e+00 3.326864e-01 4.727508e-01 5.003152e-01 7.717202e-01 4.232164e-01 3.334961e-01 6.288166e-01 5.436574e-01 4.709017e-01 5.055388e-01 2.156261e-01 2.902283e-01 1.082834e+00
<GCONST> 1.283070e+02
<STATE> 4
<MEAN> 39
 -1.338155e+01 -8.615292e+00 5.085052e+00 -4.955185e+00 -1.268081e+00 -2.644722e+00 -2.414717e+00 -4.930811e+00 -3.636556e+00 -4.606383e-01 -6.691900e-01 -6.045019e+00 5.676437e+01 2.289333e-01 -2.111001e-01 1.899324e-01 -2.038745e-01 1.159595e-01 -1.685384e-01 -7.529743e-07 -5.114464e-02 -1.301039e-04 1.297219e-02 -5.281927e-02 -1.881368e-02 6.393383e-01 -2.390519e-03 -4.581453e-04 -3.660972e-03 3.810280e-04 1.875381e-03 -1.522896e-04 -9.221444e-04 1.370748e-03 3.811409e-03 -3.313164e-03 -3.435914e-03 2.947346e-03 -2.628929e-03
<VARIANCE> 39
 9.213014e+01 8.168066e+01 1.249323e+02 9.226030e+01 5.681636e+01 5.520697e+01 4.339946e+01 4.762200e+01 4.681816e+01 3.312083e+01 2.818799e+01 2.922511e+01 5.346355e+02 2.549469e+00 2.796856e+00 2.854403e+00 5.780358e+00 3.093943e+00 2.232099e+00 3.081234e+00 3.219934e+00 3.162681e+00 2.947510e+00 1.573616e+00 1.452097e+00 7.831163e+00 3.653589e-01 4.407667e-01 4.205320e-01 8.819897e-01 5.019462e-01 3.588626e-01 5.759345e-01 5.682043e-01 5.655730e-01 5.653188e-01 2.557667e-01 2.720661e-01 1.029447e+00
<GCONST> 1.306684e+02
<TRANSP> 5
 0.000000e+00 1.000000e+00 0.000000e+00 0.000000e+00 0.000000e+00
 0.000000e+00 7.955093e-01 2.044907e-01 0.000000e+00 0.000000e+00
 0.000000e+00 0.000000e+00 7.955093e-01 2.044907e-01 0.000000e+00
 0.000000e+00 0.000000e+00 0.000000e+00 9.249894e-01 7.501061e-02
 0.000000e+00 0.000000e+00 0.000000e+00 0.000000e+00 0.000000e+00
<ENDHMM>
~h "bu"
<BEGINHMM>
<NUMSTATES> 5
<STATE> 2
<MEAN> 39
 -9.571901e+00 -7.464829e+00 5.178387e+00 -7.173571e+00 8.821115e-01 -3.677383e+00 -3.278704e+00 -7.060665e+00 -5.019849e+00 -4.507447e+00 -1.230928e+00 -7.845826e+00 6.247931e+01 -8.375137e-02 3.359269e-02 -9.610622e-02 6.321192e-02 -1.358248e-02 8.257575e-03 2.520508e-02 6.573746e-02 6.077166e-02 7.408019e-05 -3.705626e-02 2.256341e-02 -1.710253e-01 -9.618152e-04 -2.369720e-03 1.554417e-03 1.612545e-03 -1.280365e-03 -2.002721e-03 -6.385122e-04 -2.059799e-03 1.085403e-03 1.615410e-03 -8.311457e-04 1.260872e-03 1.735542e-03
<VARIANCE> 39
 4.894703e+01 5.801715e+01 7.852894e+01 8.368083e+01 5.036935e+01 5.652075e+01 3.886604e+01 5.354863e+01 5.226092e+01 3.842050e+01 4.046624e+01 2.414087e+01 1.865745e+02 1.902851e+00 3.535198e+00 2.389202e+00 5.234536e+00 2.886249e+00 3.117592e+00 2.317845e+00 4.261225e+00 3.572699e+00 2.564923e+00 2.951316e+00 1.857138e+00 4.187053e+00 3.052651e-01 5.463449e-01 4.053037e-01 8.560869e-01 5.224102e-01 5.617166e-01 4.225782e-01 7.468309e-01 6.567117e-01 4.541874e-01 5.335209e-01 3.502006e-01 5.598389e-01
<GCONST> 1.293037e+02
<STATE> 3
<MEAN> 39
 -9.950258e+00 -7.360410e+00 4.769187e+00 -6.871481e+00 8.003738e-01 -3.660468e+00 -3.166643e+00 -6.797699e+00 -4.730127e+00 -4.492115e+00 -1.413072e+00 -7.725273e+00 6.175180e+01 -8.572023e-02 2.296104e-02 -8.641957e-02 6.785785e-02 -1.882504e-02 -5.496989e-04 2.097375e-02 5.655653e-02 6.323139e-02 5.683539e-03 -4.002061e-02 2.778752e-02 -1.593433e-01 -4.452467e-05 -2.902901e-03 2.725382e-03 4.677105e-04 -9.149161e-04 -2.253813e-03 -1.297046e-03 -2.763549e-03 1.835244e-04 1.396098e-03 -4.933471e-04 1.133569e-03 3.835046e-03
<VARIANCE> 39
 5.293197e+01 5.867163e+01 8.000822e+01 8.316754e+01 5.010880e+01 5.591357e+01 3.845740e+01 5.192983e+01 5.003310e+01 3.865627e+01 4.085609e+01 2.458880e+01 2.077511e+02 1.910637e+00 3.510523e+00 2.337194e+00 5.060889e+00 2.799673e+00 3.096935e+00 2.278383e+00 4.188022e+00 3.450694e+00 2.563768e+00 2.954571e+00 1.835368e+00 4.102460e+00 3.063630e-01 5.412719e-01 3.987640e-01 8.282446e-01 5.042158e-01 5.563596e-01 4.178945e-01 7.323093e-01 6.388021e-01 4.544063e-01 5.399193e-01 3.461262e-01 5.521040e-01
<GCONST> 1.290782e+02
<STATE> 4
<MEAN> 39
 -1.072061e+01 -7.380850e+00 4.049916e+00 -6.238021e+00 6.031317e-01 -3.780077e+00 -2.848233e+00 -6.511891e+00 -4.213875e+00 -4.393224e+00 -1.796407e+00 -7.396703e+00 6.055531e+01 -8.552344e-02 5.850520e-03 -6.579008e-02 7.413056e-02 -3.043852e-02 -1.440535e-02 1.355911e-02 4.330160e-02 6.361668e-02 9.169631e-03 -4.507027e-02 3.663946e-02 -1.371239e-01 8.810874e-04 -2.502397e-03 3.938855e-03 -3.867749e-04 -5.923444e-04 -2.086041e-03 -1.485874e-03 -2.653626e-03 -9.063445e-04 6.120773e-04 2.484464e-04 6.938458e-04 4.986758e-03
<VARIANCE> 39
 5.919981e+01 5.940555e+01 8.027100e+01 8.240176e+01 4.892391e+01 5.349529e+01 3.812025e+01 4.829976e+01 4.614857e+01 3.873038e+01 4.104818e+01 2.519744e+01 2.389082e+02 2.013647e+00 3.417775e+00 2.218067e+00 4.758734e+00 2.637478e+00 2.947673e+00 2.213310e+00 3.922447e+00 3.232913e+00 2.585454e+00 3.030602e+00 1.860699e+00 4.010615e+00 3.225625e-01 5.256893e-01 3.791131e-01 7.765863e-01 4.723791e-01 5.282914e-01 4.091618e-01 6.804357e-01 6.093702e-01 4.589159e-01 5.655591e-01 3.567622e-01 5.473490e-01
<GCONST> 1.285316e+02
<TRANSP> 5
 0.000000e+00 1.000000e+00 0.000000e+00 0.000000e+00 0.000000e+00
 0.000000e+00 7.627178e-01 2.372822e-01 0.000000e+00 0.000000e+00
 0.000000e+00 0.000000e+00 7.627178e-01 2.372822e-01 0.000000e+00
 0.000000e+00 0.000000e+00 0.000000e+00 8.901402e-01 1.098597e-01
 0.000000e+00 0.000000e+00 0.000000e+00 0.000000e+00 0.000000e+00
<ENDHMM>
~h "ca"
<BEGINHMM>
<NUMSTATES> 5
<STATE> 2
<MEAN> 39
 -1.351558e+01 -4.838878e+00 3.045725e+00 -2.663177e+00 -3.386237e+00 -6.462764e+00 -4.216343e+00 -6.704094e+00 -1.821212e+00 -6.176737e+00 -9.758058e-01 -5.742910e+00 5.821780e+01 1.014890e-01 -6.150327e-02 2.939459e-02 -1.484176e-01 7.955824e-02 -9.107063e-03 -4.142829e-03 -3.057852e-02 -3.613011e-02 7.969870e-02 -3.238555e-02 -3.730597e-02 1.496268e-01 6.021395e-04 -8.377559e-03 1.864159e-04 -3.639926e-03 1.216658e-03 -6.220697e-03 2.445576e-03 -3.904050e-03 1.807434e-03 5.691982e-03 -7.335999e-03 -2.884621e-03 3.978167e-03
<VARIANCE> 39
 1.030877e+02 5.466588e+01 8.407826e+01 6.272395e+01 3.778669e+01 7.992825e+01 5.053102e+01 4.896517e+01 3.854625e+01 4.503958e+01 4.135585e+01 2.452647e+01 3.980439e+02 5.036111e+00 3.830087e+00 2.643809e+00 2.949511e+00 3.343476e+00 3.972460e+00 2.930807e+00 3.274675e+00 2.678320e+00 2.892892e+00 3.344156e+00 1.649090e+00 4.994416e+00 8.640597e-01 6.483793e-01 4.754382e-01 4.532136e-01 6.350275e-01 8.116202e-01 5.171004e-01 6.655732e-01 4.853259e-01 5.564934e-01 5.633140e-01 3.232090e-01 7.410455e-01
<GCONST> 1.331478e+02
<STATE> 3
<MEAN> 39
 -1.304597e+01 -5.169338e+00 3.218169e+00 -3.288903e+00 -3.042657e+00 -6.573660e+00 -4.232440e+00 -6.898917e+00 -1.972799e+00 -5.834831e+00 -1.157306e+00 -5.922468e+00 5.895121e+01 1.020620e-01 -9.333382e-02 3.288439e-02 -1.560000e-01 8.115146e-02 -3.774010e-02 6.268195e-03 -4.819571e-02 -2.928931e-02 9.708945e-02 -5.938911e-02 -4.802592e-02 1.650122e-01 -1.784008e-03 -6.831872e-03 3.505909e-04 1.444602e-03 -1.174755e-03 -7.267904e-03 3.448382e-03 -3.617493e-03 2.057683e-03 3.139252e-03 -6.264849e-03 -2.015981e-03 6.018896e-05
<VARIANCE> 39
 1.003881e+02 5.474170e+01 8.245301e+01 6.505750e+01 4.059853e+01 7.855258e+01 5.067802e+01 4.757453e+01 4.065004e+01 4.507090e+01 4.279914e+01 2.531581e+01 3.766764e+02 4.883767e+00 3.864555e+00 2.677462e+00 2.930503e+00 3.328523e+00 3.987984e+00 2.849715e+00 3.262075e+00 2.781183e+00 2.910527e+00 3.352937e+00 1.671402e+00 5.401333e+00 8.227791e-01 6.508015e-01 4.785896e-01 4.516271e-01 6.196098e-01 8.145336e-01 4.969274e-01 6.596525e-01 5.022203e-01 5.553133e-01 5.545663e-01 3.203903e-01 7.754377e-01
<GCONST> 1.332641e+02
<STATE> 4
<MEAN> 39
 -1.245535e+01 -5.869964e+00 3.421324e+00 -4.043862e+00 -2.466445e+00 -6.906886e+00 -4.182479e+00 -7.411422e+00 -2.148132e+00 -5.247346e+00 -1.601746e+00 -6.114398e+00 5.975606e+01 9.626176e-02 -1.240056e-01 4.939710e-02 -1.358675e-01 7.172986e-02 -8.348431e-02 1.792730e-02 -8.073874e-02 -2.697924e-02 9.711341e-02 -7.701444e-02 -5.870361e-02 1.802144e-01 -6.767071e-03 -1.685053e-03 -1.150083e-03 8.212217e-03 -4.752805e-03 -5.029679e-03 3.553518e-03 -1.321696e-03 1.662099e-03 -6.857562e-04 -1.695011e-03 2.331357e-04 -9.248729e-03
<VARIANCE> 39
 9.420210e+01 5.366777e+01 7.908833e+01 6.483183e+01 4.540493e+01 7.416853e+01 4.898257e+01 4.619732e+01 4.284042e+01 4.372646e+01 4.390645e+01 2.579152e+01 3.407967e+02 4.683453e+00 3.840007e+00 2.715974e+00 2.941297e+00 3.324449e+00 3.899065e+00 2.733618e+00 3.184101e+00 2.931281e+00 2.870271e+00 3.305376e+00 1.668661e+00 6.272861e+00 7.630980e-01 6.432545e-01 4.771358e-01 4.568454e-01 5.996860e-01 7.909694e-01 4.677039e-01 6.352746e-01 5.293446e-01 5.419005e-01 5.364934e-01 3.110502e-01 8.480985e-01
<GCONST> 1.329616e+02
<TRANSP> 5
 0.000000e+00 1.000000e+00 0.000000e+00 0.000000e+00 0.000000e+00
 0.000000e+00 7.468949e-01 2.531050e-01 0.000000e+00 0.000000e+00
 0.000000e+00 0.000000e+00 7.468952e-01 2.531048e-01 0.000000e+00
 0.000000e+00 0.000000e+00 0.000000e+00 8.701397e-01 1.298604e-01
 0.000000e+00 0.000000e+00 0.000000e+00 0.000000e+00 0.000000e+00
<ENDHMM>
~h "ce"
<BEGINHMM>
<NUMSTATES> 5
<STATE> 2
<MEAN> 39
 -1.414439e+01 -7.743544e+00 2.981896e+00 -3.338959e+00 -1.236701e+00 -4.557664e+00 -2.877691e+00 -5.862136e+00 -3.202762e+00 -3.443379e+00 -1.721877e+00 -6.371274e+00 5.579076e+01 6.232359e-03 -1.184804e-02 5.264054e-03 -6.519258e-03 1.211933e-02 -4.235122e-03 -3.513063e-03 -1.805109e-02 -5.453553e-03 -6.036517e-03 -7.011238e-03 -6.053182e-03 2.423620e-02 -9.010879e-04 1.120917e-04 9.610619e-04 -2.967312e-04 -9.533982e-04 -8.676147e-04 1.872286e-03 1.397449e-03 1.512503e-03 6.096156e-04 -1.876927e-03 -2.391097e-03 8.105883e-05
<VARIANCE> 39
 8.422131e+01 6.084932e+01 1.073184e+02 6.955961e+01 5.446898e+01 7.079699e+01 4.003558e+01 5.404599e+01 3.966318e+01 3.654010e+01 3.580028e+01 3.070767e+01 4.210256e+02 2.718939e+00 2.774098e+00 2.577951e+00 3.647006e+00 2.640604e+00 2.721262e+00 2.408642e+00 3.156995e+00 2.811726e+00 2.666955e+00 2.489032e+00 1.730701e+00 5.594233e+00 4.269344e-01 4.867565e-01 4.137163e-01 6.318190e-01 4.706055e-01 4.998690e-01 4.513081e-01 5.820021e-01 5.208251e-01 5.037160e-01 4.586603e-01 3.360357e-01 8.262613e-01
<GCONST> 1.297615e+02
<STATE> 3
<MEAN> 39
 -1.414439e+01 -7.743544e+00 2.981896e+00 -3.338959e+00 -1.236701e+00 -4.557664e+00 -2.877691e+00 -5.862136e+00 -3.202762e+00 -3.443379e+00 -1.721877e+00 -6.371274e+00 5.579076e+01 6.232359e-03 -1.184804e-02 5.264054e-03 -6.519258e-03 1.211933e-02 -4.235122e-03 -3.513063e-03 -1.805109e-02 -5.453553e-03 -6.036517e-03 -7.011238e-03 -6.053182e-03 2.423620e-02 -9.010879e-04 1.120917e-04 9.610619e-04 -2.967312e-04 -9.533982e-04 -8.676147e-04 1.872286e-03 1.397449e-03 1.512503e-03 6.096156e-04 -1.876927e-03 -2.391097e-03 8.105883e-05
<VARIANCE> 39
 8.422131e+01 6.084932e+01 1.073184e+02 6.955961e+01 5.446898e+01 7.079699e+01 4.003558e+01 5.404599e+01 3.966318e+01 3.654010e+01 3.580028e+01 3.070767e+01 4.210256e+02 2.718939e+00 2.774098e+00 2.577951e+00 3.647006e+00 2.640604e+00 2.721262e+00 2.408642e+00 3.156995e+00 2.811726e+00 2.666955e+00 2.489032e+00 1.730701e+00 5.594233e+00 4.269344e-01 4.867565e-01 4.137163e-01 6.318190e-01 4.706055e-01 4.998690e-01 4.513081e-01 5.820021e-01 5.208251e-01 5.037160e-01 4.586603e-01 3.360357e-01 8.262613e-01
<GCONST> 1.297615e+02
<STATE> 4
<MEAN> 39
 -1.414439e+01 -7.743544e+00 2.981896e+00 -3.338959e+00 -1.236701e+00 -4.557664e+00 -2.877691e+00 -5.862136e+00 -3.202762e+00 -3.443379e+00 -1.721877e+00 -6.371274e+00 5.579076e+01 6.232359e-03 -1.184804e-02 5.264054e-03 -6.519258e-03 1.211933e-02 -4.235122e-03 -3.513063e-03 -1.805109e-02 -5.453553e-03 -6.036517e-03 -7.011238e-03 -6.053182e-03 2.423620e-02 -9.010879e-04 1.120917e-04 9.610619e-04 -2.967312e-04 -9.533982e-04 -8.676147e-04 1.872286e-03 1.397449e-03 1.512503e-03 6.096156e-04 -1.876927e-03 -2.391097e-03 8.105883e-05
<VARIANCE> 39
 8.422131e+01 6.084932e+01 1.073184e+02 6.955961e+01 5.446898e+01 7.079699e+01 4.003558e+01 5.404599e+01 3.966318e+01 3.654010e+01 3.580028e+01 3.070767e+01 4.210256e+02 2.718939e+00 2.774098e+00 2.577951e+00 3.647006e+00 2.640604e+00 2.721262e+00 2.408642e+00 3.156995e+00 2.811726e+00 2.666955e+00 2.489032e+00 1.730701e+00 5.594233e+00 4.269344e-01 4.867565e-01 4.137163e-01 6.318190e-01 4.706055e-01 4.998690e-01 4.513081e-01 5.820021e-01 5.208251e-01 5.037160e-01 4.586603e-01 3.360357e-01 8.262613e-01
<GCONST> 1.297615e+02
<TRANSP> 5
 0.000000e+00 1.000000e+00 0.000000e+00 0.000000e+00 0.000000e+00
 0.000000e+00 6.000000e-01 4.000000e-01 0.000000e+00 0.000000e+00
 0.000000e+00 0.000000e+00 6.000000e-01 4.000000e-01 0.000000e+00
 0.000000e+00 0.000000e+00 0.000000e+00 7.000000e-01 3.000000e-01
 0.000000e+00 0.000000e+00 0.000000e+00 0.000000e+00 0.000000e+00
<ENDHMM>
~h "co"
<BEGINHMM>
<NUMSTATES> 5
<STATE> 2
<MEAN> 39
 -1.680152e+01 -8.572350e+00 2.165818e+00 -3.773754e+00 -3.212723e+00 -4.630446e+00 -1.708851e+00 -6.009721e+00 -2.111112e+00 -4.679675e+00 -1.162909e-01 -7.309358e+00 5.532310e+01 2.719958e-02 -4.869378e-02 -6.622162e-03 1.966656e-02 7.987591e-02 -1.785748e-02 3.781050e-02 -2.012694e-02 4.929058e-02 -3.972437e-02 9.144679e-03 -2.121800e-02 8.579995e-02 8.342033e-04 -2.391599e-03 6.219984e-03 -5.903656e-04 -2.983717e-03 -2.539610e-03 -1.698185e-03 4.993748e-04 -1.723005e-04 -6.680494e-04 6.769896e-04 1.385075e-03 6.433792e-03
<VARIANCE> 39
