~o
<STREAMINFO> 1 39
<VECSIZE> 39<NULLD><MFCC_D_A_0><DIAGC>
~h "proto"
<BEGINHMM>
<NUMSTATES> 5
<STATE> 2
<MEAN> 39
 -1.414439e+01 -7.743544e+00 2.981896e+00 -3.338959e+00 -1.236701e+00 -4.557664e+00 -2.877691e+00 -5.862136e+00 -3.202762e+00 -3.443379e+00 -1.721877e+00 -6.371274e+00 5.579076e+01 6.232237e-03 -1.184823e-02 5.264243e-03 -6.519453e-03 1.211909e-02 -4.235385e-03 -3.512999e-03 -1.805082e-02 -5.453523e-03 -6.036744e-03 -7.011249e-03 -6.053052e-03 2.423646e-02 -9.010978e-04 1.120651e-04 9.610648e-04 -2.967558e-04 -9.534184e-04 -8.676232e-04 1.872276e-03 1.397487e-03 1.512468e-03 6.095680e-04 -1.876877e-03 -2.391075e-03 8.105070e-05
<VARIANCE> 39
 8.422131e+01 6.084932e+01 1.073184e+02 6.955961e+01 5.446898e+01 7.079699e+01 4.003558e+01 5.404599e+01 3.966318e+01 3.654010e+01 3.580028e+01 3.070767e+01 4.210256e+02 2.718938e+00 2.774098e+00 2.577952e+00 3.647003e+00 2.640600e+00 2.721259e+00 2.408645e+00 3.156996e+00 2.811730e+00 2.666958e+00 2.489032e+00 1.730705e+00 5.594234e+00 4.269334e-01 4.867562e-01 4.137151e-01 6.318184e-01 4.706049e-01 4.998694e-01 4.513086e-01 5.820031e-01 5.208243e-01 5.037161e-01 4.586620e-01 3.360353e-01 8.262612e-01
<GCONST> 1.297615e+02
<STATE> 3
<MEAN> 39
 -1.414439e+01 -7.743544e+00 2.981896e+00 -3.338959e+00 -1.236701e+00 -4.557664e+00 -2.877691e+00 -5.862136e+00 -3.202762e+00 -3.443379e+00 -1.721877e+00 -6.371274e+00 5.579076e+01 6.232237e-03 -1.184823e-02 5.264243e-03 -6.519453e-03 1.211909e-02 -4.235385e-03 -3.512999e-03 -1.805082e-02 -5.453523e-03 -6.036744e-03 -7.011249e-03 -6.053052e-03 2.423646e-02 -9.010978e-04 1.120651e-04 9.610648e-04 -2.967558e-04 -9.534184e-04 -8.676232e-04 1.872276e-03 1.397487e-03 1.512468e-03 6.095680e-04 -1.876877e-03 -2.391075e-03 8.105070e-05
<VARIANCE> 39
 8.422131e+01 6.084932e+01 1.073184e+02 6.955961e+01 5.446898e+01 7.079699e+01 4.003558e+01 5.404599e+01 3.966318e+01 3.654010e+01 3.580028e+01 3.070767e+01 4.210256e+02 2.718938e+00 2.774098e+00 2.577952e+00 3.647003e+00 2.640600e+00 2.721259e+00 2.408645e+00 3.156996e+00 2.811730e+00 2.666958e+00 2.489032e+00 1.730705e+00 5.594234e+00 4.269334e-01 4.867562e-01 4.137151e-01 6.318184e-01 4.706049e-01 4.998694e-01 4.513086e-01 5.820031e-01 5.208243e-01 5.037161e-01 4.586620e-01 3.360353e-01 8.262612e-01
<GCONST> 1.297615e+02
<STATE> 4
<MEAN> 39
 -1.414439e+01 -7.743544e+00 2.981896e+00 -3.338959e+00 -1.236701e+00 -4.557664e+00 -2.877691e+00 -5.862136e+00 -3.202762e+00 -3.443379e+00 -1.721877e+00 -6.371274e+00 5.579076e+01 6.232237e-03 -1.184823e-02 5.264243e-03 -6.519453e-03 1.211909e-02 -4.235385e-03 -3.512999e-03 -1.805082e-02 -5.453523e-03 -6.036744e-03 -7.011249e-03 -6.053052e-03 2.423646e-02 -9.010978e-04 1.120651e-04 9.610648e-04 -2.967558e-04 -9.534184e-04 -8.676232e-04 1.872276e-03 1.397487e-03 1.512468e-03 6.095680e-04 -1.876877e-03 -2.391075e-03 8.105070e-05
<VARIANCE> 39
 8.422131e+01 6.084932e+01 1.073184e+02 6.955961e+01 5.446898e+01 7.079699e+01 4.003558e+01 5.404599e+01 3.966318e+01 3.654010e+01 3.580028e+01 3.070767e+01 4.210256e+02 2.718938e+00 2.774098e+00 2.577952e+00 3.647003e+00 2.640600e+00 2.721259e+00 2.408645e+00 3.156996e+00 2.811730e+00 2.666958e+00 2.489032e+00 1.730705e+00 5.594234e+00 4.269334e-01 4.867562e-01 4.137151e-01 6.318184e-01 4.706049e-01 4.998694e-01 4.513086e-01 5.820031e-01 5.208243e-01 5.037161e-01 4.586620e-01 3.360353e-01 8.262612e-01
<GCONST> 1.297615e+02
<TRANSP> 5
 0.000000e+00 1.000000e+00 0.000000e+00 0.000000e+00 0.000000e+00
 0.000000e+00 6.000000e-01 4.000000e-01 0.000000e+00 0.000000e+00
 0.000000e+00 0.000000e+00 6.000000e-01 4.000000e-01 0.000000e+00
 0.000000e+00 0.000000e+00 0.000000e+00 7.000000e-01 3.000000e-01
 0.000000e+00 0.000000e+00 0.000000e+00 0.000000e+00 0.000000e+00
<ENDHMM>
