~o
<STREAMINFO> 1 39
<VECSIZE> 39<NULLD><MFCC_D_A_0><DIAGC>
~h "a"
<BEGINHMM>
<NUMSTATES> 5
<STATE> 2
<MEAN> 39
 -8.198892e+00 -1.388474e+01 7.668583e+00 -1.055593e+01 7.149063e-01 -8.287121e+00 -1.364101e+00 -5.517699e+00 -5.249829e+00 -4.298972e+00 -3.801361e+00 -7.952544e+00 7.152995e+01 1.575720e-01 -5.299117e-01 -8.100239e-02 7.729267e-03 1.459697e-01 -2.772040e-01 1.882048e-01 3.952358e-01 1.287647e-01 -4.509841e-01 -5.701315e-01 2.506747e-02 4.748131e-01 -1.183366e-02 1.226502e-01 -6.364385e-03 9.605389e-02 3.017223e-03 1.086582e-02 -2.540924e-02 -1.229792e-01 -7.634338e-03 -2.148145e-02 2.227959e-02 -3.258185e-02 -1.001822e-01
<VARIANCE> 39
 3.433669e+01 4.533427e+01 8.248172e+01 4.732795e+01 4.907362e+01 6.954491e+01 4.369367e+01 4.489512e+01 3.288886e+01 4.235585e+01 4.274578e+01 2.629112e+01 1.268951e+02 1.490507e+00 2.453607e+00 2.370185e+00 3.097539e+00 2.523360e+00 2.354056e+00 1.992203e+00 2.505397e+00 1.879302e+00 2.405985e+00 2.137007e+00 1.666137e+00 4.241156e+00 3.012842e-01 4.373601e-01 3.326965e-01 4.960660e-01 4.003859e-01 3.659838e-01 3.458862e-01 4.440358e-01 3.155951e-01 4.496367e-01 3.590328e-01 3.012756e-01 7.371393e-01
<GCONST> 1.209204e+02
<STATE> 3
<MEAN> 39
 -7.962801e+00 -1.443874e+01 7.324724e+00 -9.975370e+00 8.864504e-01 -8.974524e+00 -1.192779e+00 -5.035442e+00 -5.130699e+00 -5.260881e+00 -4.942618e+00 -8.027015e+00 7.184982e+01 1.537828e-01 -2.275251e-01 -7.674683e-02 1.977680e-01 1.728573e-01 -1.991464e-01 5.953105e-02 1.139832e-01 1.055723e-01 -3.171078e-01 -4.571920e-01 -3.177885e-03 2.291117e-01 -2.427815e-02 1.552614e-01 3.071432e-02 9.619320e-02 -2.520804e-03 4.098658e-02 -5.471282e-02 -1.209116e-01 -9.283081e-03 7.562461e-02 7.757957e-02 3.855830e-03 -1.387532e-01
<VARIANCE> 39
 2.804790e+01 4.257802e+01 7.177592e+01 4.518192e+01 4.642868e+01 6.602197e+01 4.454018e+01 4.380784e+01 3.332613e+01 4.028856e+01 4.184974e+01 2.766265e+01 1.138253e+02 1.672746e+00 2.811373e+00 2.424750e+00 3.019599e+00 2.755050e+00 2.261240e+00 1.833789e+00 2.264602e+00 1.853484e+00 2.214076e+00 2.223105e+00 1.760985e+00 5.740515e+00 2.486719e-01 4.198221e-01 2.958290e-01 4.974270e-01 3.779641e-01 3.797389e-01 3.350534e-01 4.189337e-01 3.111879e-01 4.223148e-01 3.481416e-01 3.336003e-01 6.857302e-01
<GCONST> 1.201183e+02
<STATE> 4
<MEAN> 39
 -8.689537e+00 -1.339097e+01 5.631625e+00 -7.566281e+00 2.334440e+00 -8.751295e+00 -7.967417e-01 -5.134946e+00 -4.579113e+00 -6.590745e+00 -6.094704e+00 -7.712335e+00 6.917680e+01 -1.117174e-01 3.371979e-01 -5.583603e-02 4.585158e-01 1.308903e-02 -1.424551e-02 -1.036799e-01 -6.654897e-02 1.035713e-01 4.189113e-03 -1.252524e-01 1.172631e-01 -5.742254e-01 -7.230414e-02 1.530748e-01 2.005849e-02 9.141347e-02 -4.571043e-02 3.809290e-02 -1.564018e-02 -5.432777e-02 1.564080e-02 3.023850e-02 9.162146e-02 1.425074e-02 -1.960207e-01
<VARIANCE> 39
 2.916523e+01 4.365579e+01 6.632412e+01 5.741335e+01 5.648859e+01 6.048045e+01 4.376625e+01 4.012778e+01 3.109801e+01 4.076014e+01 3.989921e+01 2.412291e+01 1.442686e+02 1.313251e+00 2.868082e+00 2.089500e+00 3.108501e+00 2.642121e+00 2.329152e+00 1.924246e+00 2.363972e+00 1.741912e+00 2.220223e+00 2.234981e+00 1.859167e+00 5.185827e+00 2.084888e-01 4.251835e-01 2.699100e-01 5.044931e-01 4.223782e-01 3.861614e-01 3.418860e-01 4.271054e-01 3.268994e-01 4.027000e-01 3.519744e-01 3.423364e-01 6.151732e-01
<GCONST> 1.198327e+02
<TRANSP> 5
 0.000000e+00 1.000000e+00 0.000000e+00 0.000000e+00 0.000000e+00
 0.000000e+00 5.830063e-01 4.169936e-01 0.000000e+00 0.000000e+00
 0.000000e+00 0.000000e+00 5.794559e-01 4.205441e-01 0.000000e+00
 0.000000e+00 0.000000e+00 0.000000e+00 8.051302e-01 1.948698e-01
 0.000000e+00 0.000000e+00 0.000000e+00 0.000000e+00 0.000000e+00
<ENDHMM>
~h "b"
<BEGINHMM>
<NUMSTATES> 5
<STATE> 2
<MEAN> 39
 -1.414439e+01 -7.743544e+00 2.981896e+00 -3.338959e+00 -1.236701e+00 -4.557664e+00 -2.877691e+00 -5.862136e+00 -3.202762e+00 -3.443379e+00 -1.721877e+00 -6.371274e+00 5.579076e+01 6.232237e-03 -1.184823e-02 5.264243e-03 -6.519453e-03 1.211909e-02 -4.235385e-03 -3.512999e-03 -1.805082e-02 -5.453523e-03 -6.036744e-03 -7.011249e-03 -6.053052e-03 2.423646e-02 -9.010978e-04 1.120651e-04 9.610648e-04 -2.967558e-04 -9.534184e-04 -8.676232e-04 1.872276e-03 1.397487e-03 1.512468e-03 6.095680e-04 -1.876877e-03 -2.391075e-03 8.105070e-05
<VARIANCE> 39
 8.422131e+01 6.084932e+01 1.073184e+02 6.955961e+01 5.446898e+01 7.079699e+01 4.003558e+01 5.404599e+01 3.966318e+01 3.654010e+01 3.580028e+01 3.070767e+01 4.210256e+02 2.718938e+00 2.774098e+00 2.577952e+00 3.647003e+00 2.640600e+00 2.721259e+00 2.408645e+00 3.156996e+00 2.811730e+00 2.666958e+00 2.489032e+00 1.730705e+00 5.594234e+00 4.269334e-01 4.867562e-01 4.137151e-01 6.318184e-01 4.706049e-01 4.998694e-01 4.513086e-01 5.820031e-01 5.208243e-01 5.037161e-01 4.586620e-01 3.360353e-01 8.262612e-01
<GCONST> 1.297615e+02
<STATE> 3
<MEAN> 39
 -1.414439e+01 -7.743544e+00 2.981896e+00 -3.338959e+00 -1.236701e+00 -4.557664e+00 -2.877691e+00 -5.862136e+00 -3.202762e+00 -3.443379e+00 -1.721877e+00 -6.371274e+00 5.579076e+01 6.232237e-03 -1.184823e-02 5.264243e-03 -6.519453e-03 1.211909e-02 -4.235385e-03 -3.512999e-03 -1.805082e-02 -5.453523e-03 -6.036744e-03 -7.011249e-03 -6.053052e-03 2.423646e-02 -9.010978e-04 1.120651e-04 9.610648e-04 -2.967558e-04 -9.534184e-04 -8.676232e-04 1.872276e-03 1.397487e-03 1.512468e-03 6.095680e-04 -1.876877e-03 -2.391075e-03 8.105070e-05
<VARIANCE> 39
 8.422131e+01 6.084932e+01 1.073184e+02 6.955961e+01 5.446898e+01 7.079699e+01 4.003558e+01 5.404599e+01 3.966318e+01 3.654010e+01 3.580028e+01 3.070767e+01 4.210256e+02 2.718938e+00 2.774098e+00 2.577952e+00 3.647003e+00 2.640600e+00 2.721259e+00 2.408645e+00 3.156996e+00 2.811730e+00 2.666958e+00 2.489032e+00 1.730705e+00 5.594234e+00 4.269334e-01 4.867562e-01 4.137151e-01 6.318184e-01 4.706049e-01 4.998694e-01 4.513086e-01 5.820031e-01 5.208243e-01 5.037161e-01 4.586620e-01 3.360353e-01 8.262612e-01
<GCONST> 1.297615e+02
<STATE> 4
<MEAN> 39
 -1.414439e+01 -7.743544e+00 2.981896e+00 -3.338959e+00 -1.236701e+00 -4.557664e+00 -2.877691e+00 -5.862136e+00 -3.202762e+00 -3.443379e+00 -1.721877e+00 -6.371274e+00 5.579076e+01 6.232237e-03 -1.184823e-02 5.264243e-03 -6.519453e-03 1.211909e-02 -4.235385e-03 -3.512999e-03 -1.805082e-02 -5.453523e-03 -6.036744e-03 -7.011249e-03 -6.053052e-03 2.423646e-02 -9.010978e-04 1.120651e-04 9.610648e-04 -2.967558e-04 -9.534184e-04 -8.676232e-04 1.872276e-03 1.397487e-03 1.512468e-03 6.095680e-04 -1.876877e-03 -2.391075e-03 8.105070e-05
<VARIANCE> 39
 8.422131e+01 6.084932e+01 1.073184e+02 6.955961e+01 5.446898e+01 7.079699e+01 4.003558e+01 5.404599e+01 3.966318e+01 3.654010e+01 3.580028e+01 3.070767e+01 4.210256e+02 2.718938e+00 2.774098e+00 2.577952e+00 3.647003e+00 2.640600e+00 2.721259e+00 2.408645e+00 3.156996e+00 2.811730e+00 2.666958e+00 2.489032e+00 1.730705e+00 5.594234e+00 4.269334e-01 4.867562e-01 4.137151e-01 6.318184e-01 4.706049e-01 4.998694e-01 4.513086e-01 5.820031e-01 5.208243e-01 5.037161e-01 4.586620e-01 3.360353e-01 8.262612e-01
<GCONST> 1.297615e+02
<TRANSP> 5
 0.000000e+00 1.000000e+00 0.000000e+00 0.000000e+00 0.000000e+00
 0.000000e+00 6.000000e-01 4.000000e-01 0.000000e+00 0.000000e+00
 0.000000e+00 0.000000e+00 6.000000e-01 4.000000e-01 0.000000e+00
 0.000000e+00 0.000000e+00 0.000000e+00 7.000000e-01 3.000000e-01
 0.000000e+00 0.000000e+00 0.000000e+00 0.000000e+00 0.000000e+00
<ENDHMM>
~h "e"
<BEGINHMM>
<NUMSTATES> 5
<STATE> 2
<MEAN> 39
 -1.480415e+01 -4.851485e+00 2.170383e+00 2.966536e+00 -4.105641e+00 -4.280662e+00 -1.246732e+00 -7.833542e+00 -1.595695e+00 -9.333977e-01 -2.427209e+00 -5.133199e+00 4.847583e+01 -4.080166e-02 1.091817e-01 4.962184e-02 -6.440405e-01 2.504015e-01 -4.194801e-01 -3.219544e-01 1.176581e-01 1.582426e-01 7.840843e-01 -3.556005e-02 1.662511e-01 -1.141302e-01 2.366976e-01 -5.140122e-01 1.831951e-01 -7.107213e-01 3.787478e-01 -5.146106e-01 -7.906469e-02 -3.149734e-02 -1.628403e-01 -5.078323e-02 -2.943067e-02 -1.226961e-01 1.073514e+00
<VARIANCE> 39
 1.048183e+02 3.538743e+01 1.002061e+02 3.584471e+01 3.268208e+01 7.733183e+01 4.424825e+01 7.169541e+01 1.521549e+01 5.014273e+01 2.912922e+01 2.630229e+01 3.330587e+02 3.727380e+00 3.089370e+00 2.620461e+00 5.358171e+00 3.700905e+00 5.787303e+00 1.862060e+00 3.012833e+00 1.066611e+00 2.574321e+00 2.427616e+00 9.522985e-01 1.203232e+01 6.212553e-01 6.575423e-01 3.836708e-01 7.560589e-01 6.500678e-01 1.204768e+00 4.059589e-01 5.763986e-01 2.095210e-01 6.371617e-01 3.901464e-01 1.679702e-01 1.693929e+00
<GCONST> 1.292349e+02
<STATE> 3
<MEAN> 39
 -1.060279e+01 -8.062811e+00 6.811357e+00 -1.064718e+00 -1.589525e+00 -9.728105e+00 -1.874532e+00 -9.744897e+00 -2.049699e+00 1.017055e+00 -4.078728e+00 -6.261381e+00 5.882831e+01 7.027360e-01 -9.322541e-01 1.007246e+00 -1.681232e+00 1.148670e+00 -1.082863e+00 -5.032589e-01 8.622788e-02 -1.419404e-01 6.363838e-01 -1.835764e-01 -1.718344e-01 2.413519e+00 1.647974e-02 -2.481137e-01 1.095389e-01 -1.475431e-01 2.060603e-01 1.831092e-01 3.002078e-02 5.982694e-02 -9.125849e-02 -2.398964e-01 5.531959e-02 -4.666323e-02 4.231128e-01
<VARIANCE> 39
 6.813775e+01 3.147272e+01 1.065420e+02 6.510023e+01 2.981082e+01 6.248555e+01 5.280661e+01 4.188895e+01 1.208952e+01 4.374655e+01 2.765507e+01 2.159356e+01 2.187661e+02 4.500539e+00 3.784463e+00 2.448328e+00 5.801819e+00 3.637021e+00 6.275707e+00 2.467270e+00 3.711361e+00 1.118286e+00 3.950034e+00 2.043312e+00 1.576684e+00 1.034302e+01 5.501244e-01 7.633345e-01 5.536758e-01 1.029396e+00 5.377860e-01 1.337950e+00 3.638276e-01 4.493897e-01 1.782129e-01 6.688536e-01 4.175324e-01 2.149105e-01 1.953154e+00
<GCONST> 1.298591e+02
<STATE> 4
<MEAN> 39
 -1.041066e+01 -8.448754e+00 1.629636e+01 -1.052815e+01 -2.420954e+00 -6.246860e+00 5.080092e-01 -1.250894e+01 -3.524610e+00 3.325325e+00 -4.581568e+00 -8.237648e+00 7.131286e+01 -4.486203e-03 -3.631779e-01 -2.182433e-01 -1.721106e-01 3.674771e-01 2.144655e-01 1.366290e-03 1.919991e-01 2.408789e-02 -2.095151e-01 -1.428271e-02 1.777603e-02 3.049403e-01 -6.326110e-02 5.639071e-02 -1.356350e-01 1.092960e-01 -6.943868e-02 1.142982e-01 4.250011e-02 2.075412e-02 2.004228e-02 -1.609827e-01 -1.241998e-02 -1.814309e-03 -1.357601e-01
<VARIANCE> 39
 2.642372e+01 4.619758e+01 6.221707e+01 9.188274e+01 5.106206e+01 6.482087e+01 6.140410e+01 3.804753e+01 1.343994e+01 3.596750e+01 1.990152e+01 8.779443e+00 7.827942e+01 7.829926e-01 2.000678e+00 1.774482e+00 2.745701e+00 1.303878e+00 3.262744e+00 1.304469e+00 1.574026e+00 6.828200e-01 1.871570e+00 1.267710e+00 8.025577e-01 4.017070e+00 1.471260e-01 3.983655e-01 2.270937e-01 4.546314e-01 2.386702e-01 6.178047e-01 2.006142e-01 2.290152e-01 1.170651e-01 3.312787e-01 2.737615e-01 1.534457e-01 5.092763e-01
<GCONST> 1.076571e+02
<TRANSP> 5
 0.000000e+00 1.000000e+00 0.000000e+00 0.000000e+00 0.000000e+00
 0.000000e+00 5.933575e-01 4.066425e-01 0.000000e+00 0.000000e+00
 0.000000e+00 0.000000e+00 5.623531e-01 4.376470e-01 0.000000e+00
 0.000000e+00 0.000000e+00 0.000000e+00 9.126652e-01 8.733482e-02
 0.000000e+00 0.000000e+00 0.000000e+00 0.000000e+00 0.000000e+00
<ENDHMM>
~h "h"
<BEGINHMM>
<NUMSTATES> 5
<STATE> 2
<MEAN> 39
 -1.273114e+01 -8.760639e+00 5.468503e+00 -4.053407e+00 2.608108e+00 -7.932550e+00 -1.347175e-01 -8.488086e+00 -1.539723e+00 -6.860402e+00 -3.562710e+00 -7.252808e+00 6.584984e+01 -3.200637e-01 1.534795e-01 -3.017927e-01 5.908481e-02 3.395179e-01 1.521540e-01 1.218653e-01 3.241142e-03 4.764774e-01 5.517169e-02 -1.476565e-01 2.182548e-02 -5.796156e-01 -5.596180e-02 -1.450442e-01 4.124158e-02 -5.471290e-02 -1.629077e-01 1.765219e-02 5.245485e-02 1.189352e-01 -3.784724e-02 1.366062e-01 1.176247e-01 9.919102e-02 -1.913935e-02
<VARIANCE> 39
 6.351254e+01 5.169707e+01 5.304323e+01 4.060031e+01 3.261039e+01 6.012884e+01 3.457794e+01 4.846623e+01 3.530815e+01 4.082121e+01 4.095249e+01 2.379612e+01 1.430631e+02 5.344824e+00 4.667367e+00 1.943663e+00 3.899897e+00 2.986648e+00 3.262616e+00 2.428263e+00 3.933945e+00 2.961200e+00 2.988860e+00 4.362407e+00 2.548141e+00 5.273980e+00 8.294932e-01 8.420123e-01 2.909022e-01 6.898866e-01 4.063194e-01 6.823254e-01 4.265702e-01 7.089543e-01 6.217091e-01 5.797479e-01 6.569908e-01 4.449720e-01 6.988734e-01
<GCONST> 1.305476e+02
<STATE> 3
<MEAN> 39
 -1.280511e+01 -9.239644e+00 4.877846e+00 -4.255813e+00 2.759932e+00 -7.804359e+00 1.554198e-01 -7.738938e+00 -1.069621e+00 -6.572302e+00 -3.833704e+00 -7.087180e+00 6.512473e+01 -3.712503e-01 -2.708334e-02 -3.038917e-01 9.029748e-02 5.238560e-02 3.458104e-01 2.171042e-01 3.502903e-01 4.301431e-01 1.649610e-01 -3.084259e-02 2.960303e-01 -7.586139e-01 -9.251573e-02 -8.305676e-02 -9.860661e-03 -7.535678e-03 -1.904849e-01 7.433856e-02 -2.443294e-02 3.006382e-02 -1.615337e-02 -4.005432e-03 1.747402e-01 4.985010e-02 -2.784275e-02
<VARIANCE> 39
 6.210961e+01 4.387704e+01 5.696196e+01 4.186504e+01 3.406267e+01 6.404269e+01 3.610655e+01 4.742492e+01 3.566117e+01 4.219426e+01 3.527276e+01 2.737394e+01 1.650818e+02 4.853583e+00 3.664640e+00 2.110266e+00 3.432239e+00 2.689144e+00 3.116817e+00 2.541284e+00 3.426764e+00 3.516557e+00 3.366215e+00 3.879180e+00 2.399342e+00 5.186666e+00 5.910014e-01 7.281478e-01 3.250156e-01 6.870462e-01 4.402119e-01 5.548208e-01 4.325627e-01 5.261641e-01 6.571301e-01 5.608175e-01 6.086503e-01 5.103942e-01 7.263477e-01
<GCONST> 1.295709e+02
<STATE> 4
<MEAN> 39
 -1.707876e+01 -7.455957e+00 1.849272e-01 -2.086073e+00 -3.575373e-01 -3.889602e+00 -1.396668e+00 -7.183388e+00 -1.498078e+00 -5.288101e+00 -2.999589e+00 -5.702498e+00 5.150399e+01 -2.534237e-01 1.897615e-01 -3.688453e-01 2.082134e-01 -2.915180e-01 2.156000e-01 -9.518526e-02 3.592893e-01 1.789302e-01 2.107204e-01 1.784592e-01 1.720390e-01 -8.788112e-01 -3.614125e-02 5.099623e-03 2.479974e-02 -1.359365e-02 -6.721403e-02 -1.368082e-02 -1.456465e-02 -1.506706e-02 -1.601320e-03 -8.430995e-03 7.250883e-02 -2.704430e-02 1.831096e-02
<VARIANCE> 39
 4.450555e+01 3.134848e+01 6.853642e+01 3.667518e+01 3.589894e+01 4.717288e+01 2.680290e+01 3.934109e+01 2.520381e+01 2.770989e+01 2.519545e+01 2.214993e+01 2.475305e+02 1.944499e+00 2.069445e+00 1.721162e+00 2.267244e+00 2.208063e+00 3.150333e+00 1.831611e+00 2.239472e+00 2.945117e+00 2.563539e+00 2.250280e+00 1.961746e+00 5.145512e+00 3.748236e-01 4.148707e-01 3.154370e-01 4.499257e-01 4.156976e-01 5.983951e-01 3.385305e-01 4.315352e-01 5.724100e-01 4.399908e-01 4.636678e-01 4.197052e-01 1.098851e+00
<GCONST> 1.207272e+02
<TRANSP> 5
 0.000000e+00 1.000000e+00 0.000000e+00 0.000000e+00 0.000000e+00
 0.000000e+00 4.173348e-01 5.826653e-01 0.000000e+00 0.000000e+00
 0.000000e+00 0.000000e+00 3.909760e-01 6.090240e-01 0.000000e+00
 0.000000e+00 0.000000e+00 0.000000e+00 7.442187e-01 2.557813e-01
 0.000000e+00 0.000000e+00 0.000000e+00 0.000000e+00 0.000000e+00
<ENDHMM>
~h "i"
<BEGINHMM>
<NUMSTATES> 5
<STATE> 2
<MEAN> 39
 -1.327513e+01 -7.887458e+00 1.126525e+01 -6.611928e+00 -6.315560e+00 -4.196604e+00 -1.458735e+00 -6.242489e+00 -6.506315e+00 -1.788588e+00 1.168253e-01 -7.166863e+00 6.200909e+01 -3.200284e-01 2.542582e-01 3.437743e-01 -9.994752e-02 -4.241500e-01 -5.833380e-03 7.833567e-02 -2.058358e-01 -2.359050e-01 1.812700e-01 2.086182e-01 2.915069e-03 -4.316120e-02 1.353509e-01 -1.371534e-01 2.256844e-01 -1.362560e-01 9.535992e-02 -1.721463e-01 8.657958e-02 -1.452610e-01 -1.285615e-01 -3.363341e-02 -6.773949e-02 -9.747856e-02 3.196723e-01
<VARIANCE> 39
 4.233597e+01 5.511428e+01 1.512174e+02 5.987577e+01 4.063290e+01 6.945590e+01 2.439992e+01 8.088283e+01 2.992683e+01 1.962662e+01 2.288990e+01 2.467435e+01 3.644697e+02 8.650858e-01 1.704927e+00 2.134981e+00 2.409940e+00 1.697397e+00 1.898086e+00 1.688474e+00 2.375950e+00 1.807766e+00 1.967077e+00 1.509499e+00 8.776333e-01 2.425688e+00 2.359417e-01 3.291996e-01 8.370717e-01 6.147381e-01 3.330435e-01 4.147195e-01 2.989725e-01 5.030667e-01 3.955864e-01 3.757990e-01 2.745404e-01 2.459208e-01 1.166493e+00
<GCONST> 1.181672e+02
<STATE> 3
<MEAN> 39
 -1.375565e+01 -7.204695e+00 1.204105e+01 -6.494697e+00 -7.249713e+00 -4.039383e+00 -1.541842e+00 -6.786731e+00 -7.170293e+00 -1.442811e+00 5.878090e-01 -7.557464e+00 6.155520e+01 -1.230656e-02 -1.229586e-01 7.519029e-01 -3.528228e-01 -3.104126e-01 -3.524933e-01 2.527157e-01 -4.381275e-01 -4.891345e-01 1.034954e-01 1.409651e-01 -1.550961e-01 6.491666e-01 2.073182e-01 -1.853309e-01 2.926665e-01 -8.376253e-02 6.344292e-02 -1.544296e-01 5.602599e-02 -6.878482e-02 -8.459678e-02 -3.499894e-02 -1.423122e-01 -7.607026e-02 3.605381e-01
<VARIANCE> 39
 4.131114e+01 4.990944e+01 1.652043e+02 6.072379e+01 3.750397e+01 6.638211e+01 2.296201e+01 6.932455e+01 3.289629e+01 1.616760e+01 2.078050e+01 2.590497e+01 3.674878e+02 1.367752e+00 2.246521e+00 3.839190e+00 3.625482e+00 1.745932e+00 2.660298e+00 1.708713e+00 2.875645e+00 1.699709e+00 1.832414e+00 1.340036e+00 1.153282e+00 6.909653e+00 2.765211e-01 3.239766e-01 1.160891e+00 6.860141e-01 3.712637e-01 3.558499e-01 3.092237e-01 4.480038e-01 4.794639e-01 3.151673e-01 2.341015e-01 2.718028e-01 1.452760e+00
<GCONST> 1.216620e+02
<STATE> 4
<MEAN> 39
 -1.274742e+01 -8.112598e+00 1.585632e+01 -7.805107e+00 -8.160212e+00 -4.199546e+00 -1.544680e+00 -6.625456e+00 -8.282065e+00 -4.497101e-01 8.997205e-01 -7.750819e+00 6.332896e+01 5.360489e-01 -4.563367e-01 8.838941e-01 -2.872344e-01 9.547722e-02 -6.234034e-01 1.908967e-01 -5.177791e-02 -4.045300e-01 -7.612433e-02 -1.285579e-01 -1.555302e-01 1.262051e+00 4.944990e-02 5.992027e-03 -2.195900e-01 1.527542e-01 1.715546e-01 -4.138518e-02 3.431510e-02 6.507732e-02 1.113755e-01 -8.685046e-02 -1.369083e-01 2.339614e-02 -1.289078e-01
<VARIANCE> 39
 3.589588e+01 4.359562e+01 1.442293e+02 6.832722e+01 3.371107e+01 5.777499e+01 2.214938e+01 5.791297e+01 3.722753e+01 1.701072e+01 2.517683e+01 2.544571e+01 2.846274e+02 2.506064e+00 2.775736e+00 1.101897e+01 5.805680e+00 2.503576e+00 2.554502e+00 1.858065e+00 3.251338e+00 2.536195e+00 1.649754e+00 1.623051e+00 1.626290e+00 1.479841e+01 3.182507e-01 3.653848e-01 1.156610e+00 6.574646e-01 4.134860e-01 3.966157e-01 3.578113e-01 5.421119e-01 4.713098e-01 3.193381e-01 2.913932e-01 2.594309e-01 1.264649e+00
<GCONST> 1.262580e+02
<TRANSP> 5
 0.000000e+00 1.000000e+00 0.000000e+00 0.000000e+00 0.000000e+00
 0.000000e+00 3.963597e-01 6.036404e-01 0.000000e+00 0.000000e+00
 0.000000e+00 0.000000e+00 4.020003e-01 5.979997e-01 0.000000e+00
 0.000000e+00 0.000000e+00 0.000000e+00 6.754827e-01 3.245173e-01
 0.000000e+00 0.000000e+00 0.000000e+00 0.000000e+00 0.000000e+00
<ENDHMM>
~h "k"
<BEGINHMM>
<NUMSTATES> 5
<STATE> 2
<MEAN> 39
 -1.193308e+01 -6.997981e+00 3.203292e+00 -3.431295e+00 4.132194e-01 -6.705630e+00 -6.723070e+00 -7.771154e+00 -1.083023e+00 -2.345763e+00 -1.023140e+00 -7.259030e+00 5.784435e+01 -9.138747e-02 -1.580019e-01 2.108255e-01 1.850151e-02 1.127877e-01 -2.325941e-01 -1.351723e-01 1.460200e-02 1.867844e-01 3.807532e-02 -1.889544e-01 -2.600333e-01 4.136706e-01 6.372478e-02 -9.129474e-02 6.675550e-02 -1.018000e-01 5.120664e-03 -6.914892e-02 8.632356e-03 -1.570282e-02 -8.339946e-02 -3.244731e-02 4.858740e-02 1.647900e-02 1.830509e-01
<VARIANCE> 39
 5.308866e+01 6.707072e+01 6.121914e+01 6.114681e+01 3.920597e+01 7.098746e+01 3.830855e+01 4.614390e+01 5.557434e+01 4.410269e+01 2.454531e+01 3.000942e+01 2.687209e+02 4.227398e+00 7.220952e+00 3.913517e+00 7.212440e+00 3.452664e+00 6.499831e+00 4.087990e+00 5.688239e+00 5.906871e+00 4.497648e+00 3.007849e+00 2.813413e+00 1.807045e+01 8.024529e-01 1.358244e+00 7.691376e-01 1.264555e+00 7.249034e-01 1.371983e+00 7.835681e-01 1.051855e+00 1.110434e+00 9.381512e-01 6.269362e-01 5.882124e-01 3.177386e+00
<GCONST> 1.448761e+02
<STATE> 3
<MEAN> 39
 -1.192444e+01 -7.666624e+00 6.043511e+00 -3.181310e+00 8.355694e-01 -9.021379e+00 -5.735141e+00 -7.233867e+00 -2.350699e+00 -3.291013e+00 -9.431121e-01 -7.710144e+00 6.119310e+01 3.967920e-02 -8.372467e-02 7.263234e-02 -1.752938e-01 1.164748e-01 -1.099686e-01 3.522474e-02 -5.523741e-03 -1.909945e-01 1.880310e-01 7.849336e-02 -1.544989e-01 1.928076e-01 6.657723e-02 -9.978628e-02 -6.297381e-02 -1.765580e-01 -3.293471e-02 -8.780854e-03 4.670799e-02 4.336717e-02 -6.357639e-02 6.283219e-02 1.538144e-02 6.458923e-02 3.849127e-02
<VARIANCE> 39
 4.031302e+01 6.282479e+01 6.886397e+01 6.296386e+01 5.533786e+01 5.973368e+01 4.059535e+01 4.738940e+01 4.825949e+01 3.819612e+01 2.594803e+01 2.904186e+01 2.171612e+02 4.270086e+00 7.076117e+00 4.333611e+00 7.714299e+00 5.240038e+00 5.522510e+00 4.197628e+00 5.554989e+00 5.474150e+00 4.645307e+00 2.537340e+00 3.744699e+00 1.691495e+01 8.207454e-01 1.535698e+00 8.110252e-01 1.444450e+00 1.055225e+00 1.185155e+00 8.693951e-01 1.103315e+00 1.070060e+00 9.793242e-01 5.140667e-01 7.667051e-01 3.178994e+00
<GCONST> 1.456710e+02
<STATE> 4
<MEAN> 39
 -1.588474e+01 -3.692709e+00 1.186341e+00 -5.254185e-01 -1.853260e+00 -4.200719e+00 -4.823807e+00 -5.628172e+00 -2.996022e+00 -2.391057e+00 -4.676339e-01 -5.889296e+00 4.739346e+01 -3.095826e-02 -1.687936e-01 -7.242721e-02 -3.872619e-01 -1.384847e-01 -7.251951e-02 1.907337e-01 6.429362e-02 -1.009635e-01 1.403452e-01 1.357848e-02 1.744881e-01 -1.404684e-02 -7.722339e-03 -1.479637e-01 2.009173e-02 -1.468290e-01 -3.995651e-02 -2.251114e-02 7.474998e-02 1.175862e-01 4.197184e-02 -9.443668e-02 -1.355999e-02 6.733382e-02 2.519879e-01
<VARIANCE> 39
 5.608011e+01 5.402228e+01 8.561846e+01 6.105033e+01 4.787173e+01 7.693285e+01 3.558006e+01 4.531204e+01 3.448638e+01 2.422688e+01 2.256618e+01 2.489595e+01 3.427593e+02 4.181516e+00 4.548776e+00 5.253183e+00 5.401456e+00 3.823565e+00 5.347625e+00 3.476894e+00 4.741904e+00 5.052148e+00 3.236413e+00 2.376119e+00 2.319941e+00 1.422968e+01 6.911469e-01 9.019556e-01 8.535232e-01 1.004760e+00 7.379149e-01 1.181552e+00 5.941733e-01 1.003090e+00 9.961994e-01 6.594635e-01 4.529439e-01 5.590185e-01 2.422988e+00
<GCONST> 1.398265e+02
<TRANSP> 5
 0.000000e+00 1.000000e+00 0.000000e+00 0.000000e+00 0.000000e+00
 0.000000e+00 7.982380e-01 2.017621e-01 0.000000e+00 0.000000e+00
 0.000000e+00 0.000000e+00 7.582116e-01 2.417884e-01 0.000000e+00
 0.000000e+00 0.000000e+00 0.000000e+00 7.318184e-01 2.681816e-01
 0.000000e+00 0.000000e+00 0.000000e+00 0.000000e+00 0.000000e+00
<ENDHMM>
~h "l"
<BEGINHMM>
<NUMSTATES> 5
<STATE> 2
<MEAN> 39
 -4.228205e+00 -1.193304e+01 1.021042e+00 -1.959084e+01 4.466255e+00 3.637858e+00 -1.347300e+00 -1.571008e+01 -3.119967e+00 -6.243959e+00 -3.266156e+00 -9.615150e+00 7.308409e+01 4.353368e-02 2.205122e-01 9.829614e-02 -3.397124e-02 1.399503e-02 -1.984083e-01 -7.542457e-02 1.962699e-01 -1.466793e-01 5.686257e-02 1.842711e-01 4.532018e-02 -1.637157e-01 -3.522393e-02 2.782650e-02 3.756508e-02 5.948823e-02 -2.161230e-02 -7.897200e-02 1.072592e-02 -1.502277e-02 2.228622e-02 -8.050049e-03 -2.568508e-02 3.942876e-02 -2.056754e-02
<VARIANCE> 39
 1.787045e+01 5.445990e+01 8.947617e+01 4.306733e+01 7.355112e+01 7.686907e+00 2.464710e+01 1.380090e+01 1.463246e+01 2.602906e+01 1.943013e+01 8.632370e+00 4.683331e+01 4.058323e-01 2.613439e+00 1.102797e+00 1.628633e+00 2.743829e+00 1.251359e+00 1.501170e+00 1.935096e+00 6.855241e-01 8.602498e-01 7.451597e-01 8.422943e-01 1.423576e+00 6.235964e-02 3.179838e-01 2.773019e-01 3.409756e-01 4.560731e-01 1.543118e-01 3.774692e-01 2.678742e-01 1.377571e-01 1.631168e-01 1.275683e-01 1.644028e-01 1.885841e-01
<GCONST> 9.564369e+01
<STATE> 3
<MEAN> 39
 -7.752419e+00 -8.306342e+00 1.010765e+01 -1.505528e+01 -3.110896e+00 -2.312994e-02 -7.456253e+00 -1.647754e+01 -7.231780e+00 -5.687739e+00 -2.222657e+00 -1.092598e+01 7.070082e+01 -2.627252e-01 4.780631e-01 6.753766e-02 2.299042e-01 4.805658e-02 -6.475598e-01 -3.745655e-01 -7.880687e-02 -2.105358e-01 -2.323931e-01 2.514114e-02 -2.076538e-01 -4.810973e-01 -8.345959e-02 -3.086528e-02 -8.795974e-02 2.082606e-01 2.036911e-02 -2.997006e-02 1.075368e-01 -1.304922e-01 6.889106e-02 -3.678581e-02 -4.816509e-02 -6.040435e-04 8.951926e-02
<VARIANCE> 39
 3.518268e+01 3.358577e+01 1.858089e+02 6.805888e+01 4.877290e+01 1.542276e+01 1.485932e+01 2.526940e+01 1.246605e+01 3.468109e+01 3.003787e+01 7.568542e+00 6.048389e+01 3.694806e-01 1.160806e+00 8.652089e-01 1.949968e+00 1.466285e+00 1.261341e+00 2.055985e+00 1.738707e+00 1.140948e+00 1.470929e+00 1.301128e+00 6.697654e-01 6.777673e-01 1.070281e-01 2.114709e-01 1.655126e-01 3.672292e-01 2.274314e-01 1.734405e-01 3.536769e-01 4.656084e-01 3.094102e-01 2.795249e-01 1.671352e-01 1.174391e-01 8.635090e-02
<GCONST> 9.744943e+01
<STATE> 4
<MEAN> 39
 -9.770128e+00 -8.444397e+00 3.896910e+00 -1.066267e+01 -4.110985e-01 -2.713078e+00 -7.005050e+00 -1.845799e+01 -7.963750e+00 -9.700972e+00 -3.666978e+00 -1.177476e+01 6.532546e+01 -6.088195e-01 1.260850e-01 -7.046925e-02 1.126076e+00 2.927743e-01 -5.193092e-01 -5.057871e-02 2.881464e-01 1.288502e-01 -1.215898e-01 3.281886e-01 8.694416e-02 -6.672783e-01 -3.576151e-02 -4.837922e-02 2.557204e-02 3.334427e-02 -4.178503e-02 -6.261516e-02 1.973318e-01 9.128266e-02 1.562709e-01 5.494390e-02 7.103520e-02 9.080577e-02 8.364777e-02
<VARIANCE> 39
 2.961649e+01 1.447049e+01 1.044658e+02 4.935566e+01 3.127234e+01 2.724231e+01 2.005032e+01 2.066939e+01 1.746817e+01 4.076552e+01 1.352093e+01 2.166526e+01 7.659641e+01 9.230012e-01 1.635456e+00 9.614605e-01 2.526934e+00 8.378515e-01 1.386455e+00 2.080300e+00 1.893487e+00 1.995230e+00 3.203464e+00 1.089608e+00 1.574873e+00 1.201316e+00 1.993174e-01 2.030625e-01 2.138177e-01 4.193704e-01 1.880809e-01 2.868563e-01 3.872972e-01 3.206174e-01 2.926921e-01 4.061460e-01 2.186727e-01 2.248291e-01 8.994577e-02
<GCONST> 1.028701e+02
<TRANSP> 5
 0.000000e+00 1.000000e+00 0.000000e+00 0.000000e+00 0.000000e+00
 0.000000e+00 8.614001e-01 1.386000e-01 0.000000e+00 0.000000e+00
 0.000000e+00 0.000000e+00 6.720282e-01 3.279718e-01 0.000000e+00
 0.000000e+00 0.000000e+00 0.000000e+00 8.045715e-01 1.954284e-01
 0.000000e+00 0.000000e+00 0.000000e+00 0.000000e+00 0.000000e+00
<ENDHMM>
~h "m"
<BEGINHMM>
<NUMSTATES> 5
<STATE> 2
<MEAN> 39
 -5.777229e+00 -1.065525e+01 9.063667e+00 -4.920419e+00 1.484972e+00 -2.832053e+00 -5.800108e+00 -9.890545e+00 -6.167722e+00 -2.288783e+00 7.578085e-01 -9.237640e+00 6.784184e+01 2.126976e-01 9.490819e-02 3.970474e-01 1.845921e-01 1.781761e-01 2.713580e-01 -3.606680e-01 -4.180476e-01 -2.295970e-01 1.199282e-01 2.532434e-01 -1.050253e-01 1.078832e-02 -1.861389e-01 5.100755e-02 5.977597e-02 1.170662e-02 -6.387644e-02 -1.397524e-01 3.285417e-02 -1.810371e-02 5.134084e-02 -4.485939e-02 -4.798784e-02 5.111873e-02 -3.360188e-02
<VARIANCE> 39
 2.165053e+01 3.700971e+01 5.651310e+01 6.639854e+01 3.720935e+01 4.919767e+01 4.323918e+01 5.479986e+01 3.697512e+01 3.025744e+01 3.615896e+01 2.019274e+01 8.893095e+01 2.075023e+00 2.993558e+00 4.335917e+00 5.979215e+00 2.557635e+00 3.230970e+00 2.753404e+00 5.033751e+00 3.142033e+00 2.459419e+00 3.724630e+00 1.822413e+00 5.653900e+00 3.942121e-01 5.003775e-01 7.295142e-01 9.984896e-01 4.962770e-01 4.425179e-01 4.788879e-01 8.826441e-01 5.256628e-01 4.617977e-01 6.850080e-01 3.297601e-01 7.791674e-01
<GCONST> 1.280222e+02
<STATE> 3
<MEAN> 39
 -6.003251e+00 -1.030799e+01 1.012533e+01 -5.084933e+00 1.579910e+00 -3.059224e+00 -7.219309e+00 -1.075864e+01 -6.531069e+00 -2.213896e+00 7.926252e-01 -9.374904e+00 6.822935e+01 -9.487616e-02 1.901464e-01 3.388871e-01 4.056683e-02 5.658006e-02 -1.090847e-01 -2.074394e-01 -2.289389e-01 -2.256171e-02 7.169079e-04 -1.064486e-01 7.526534e-03 -5.302818e-02 -7.787022e-02 4.569684e-02 -3.505865e-02 -1.483151e-02 -1.602954e-02 -7.631407e-02 9.732696e-02 7.668851e-02 6.112697e-02 -5.200298e-02 -1.135584e-01 4.083745e-02 -2.761715e-02
<VARIANCE> 39
 1.618074e+01 3.497889e+01 5.380316e+01 6.390833e+01 3.821749e+01 4.297681e+01 5.070779e+01 5.036957e+01 3.775431e+01 3.459733e+01 3.901657e+01 1.997213e+01 6.077063e+01 1.482796e+00 3.063003e+00 3.899191e+00 6.035884e+00 2.693242e+00 2.722681e+00 2.852558e+00 4.695952e+00 3.344778e+00 2.759622e+00 3.342644e+00 1.744852e+00 4.938734e+00 2.621400e-01 4.852049e-01 6.850997e-01 1.026461e+00 5.214441e-01 4.556276e-01 5.172181e-01 7.610283e-01 5.505312e-01 5.117474e-01 6.330509e-01 3.240268e-01 6.741517e-01
<GCONST> 1.261614e+02
<STATE> 4
<MEAN> 39
 -6.540911e+00 -9.209570e+00 9.736059e+00 -5.015455e+00 1.539306e+00 -4.571487e+00 -7.471252e+00 -1.185283e+01 -5.394953e+00 -3.169777e+00 -6.908640e-01 -9.146630e+00 6.753590e+01 -2.621601e-01 3.632772e-01 -4.171121e-02 1.573548e-01 -2.338105e-02 -2.592092e-01 2.722295e-01 4.475186e-02 2.206508e-01 -1.547481e-01 -2.679089e-01 9.010297e-02 -2.984144e-01 -8.287130e-02 -8.884277e-04 -1.053683e-01 -1.146366e-02 1.788958e-02 -3.234637e-02 1.118888e-01 1.096053e-01 4.599044e-02 -7.465421e-02 -2.569625e-02 -8.071142e-03 -6.579797e-03
<VARIANCE> 39
 1.614205e+01 3.928611e+01 4.797687e+01 5.922982e+01 3.371540e+01 4.210110e+01 4.622490e+01 5.308998e+01 4.283487e+01 4.184601e+01 4.124919e+01 1.993177e+01 5.913253e+01 1.241175e+00 3.010757e+00 2.484988e+00 4.287745e+00 2.220075e+00 1.968626e+00 2.446475e+00 3.137404e+00 2.649639e+00 2.624133e+00 2.866364e+00 1.594539e+00 3.605141e+00 2.054015e-01 4.273050e-01 4.203179e-01 7.285069e-01 4.197398e-01 3.508290e-01 4.009234e-01 5.151926e-01 4.479579e-01 4.818620e-01 4.963804e-01 3.051147e-01 4.463327e-01
<GCONST> 1.200300e+02
<TRANSP> 5
 0.000000e+00 1.000000e+00 0.000000e+00 0.000000e+00 0.000000e+00
 0.000000e+00 7.139180e-01 2.860819e-01 0.000000e+00 0.000000e+00
 0.000000e+00 0.000000e+00 7.184607e-01 2.815393e-01 0.000000e+00
 0.000000e+00 0.000000e+00 0.000000e+00 8.546600e-01 1.453400e-01
 0.000000e+00 0.000000e+00 0.000000e+00 0.000000e+00 0.000000e+00
<ENDHMM>
~h "n"
<BEGINHMM>
<NUMSTATES> 5
<STATE> 2
<MEAN> 39
 -9.174283e+00 -8.423666e+00 7.515204e+00 -1.956972e+00 -5.696535e-03 -8.158892e+00 -3.563441e+00 -9.203611e+00 -5.533638e+00 -5.447631e+00 -8.276915e+00 -8.234625e+00 6.236972e+01 -2.975732e-01 5.390885e-01 -7.424448e-02 6.098892e-01 -1.458436e-01 2.019037e-01 -5.904832e-02 -4.157453e-01 1.520988e-01 -2.067065e-01 -3.066196e-02 1.638048e-01 -9.468130e-01 -5.627750e-02 1.324862e-02 -6.332229e-02 -2.574973e-02 -2.078380e-02 6.539375e-02 2.435844e-03 7.508378e-02 4.381025e-02 4.954836e-03 1.609136e-01 3.773274e-02 -7.756443e-02
<VARIANCE> 39
 3.704382e+01 4.385586e+01 5.592956e+01 4.950052e+01 5.398217e+01 4.103236e+01 3.818120e+01 5.538908e+01 3.942699e+01 5.283715e+01 5.048013e+01 2.111300e+01 1.251111e+02 1.141963e+00 2.112709e+00 2.379545e+00 2.935324e+00 2.383281e+00 2.190603e+00 1.826209e+00 3.512811e+00 2.288934e+00 3.961809e+00 3.446780e+00 1.875223e+00 3.128237e+00 1.749098e-01 3.734517e-01 3.200817e-01 5.024855e-01 3.916081e-01 3.894670e-01 3.283728e-01 6.151109e-01 4.050272e-01 7.312074e-01 5.399747e-01 3.372030e-01 5.115045e-01
<GCONST> 1.217191e+02
<STATE> 3
<MEAN> 39
 -1.098023e+01 -7.053879e+00 6.660666e+00 -2.312605e-01 -6.712875e-01 -7.014007e+00 -3.899922e+00 -9.571871e+00 -4.445771e+00 -5.504908e+00 -6.695882e+00 -7.627213e+00 5.823122e+01 -4.140362e-01 4.502202e-01 -3.210171e-01 4.411463e-01 -1.291419e-01 3.189659e-01 -2.056904e-02 -7.047756e-02 2.660543e-01 3.115883e-03 4.322129e-01 2.387247e-01 -1.041540e+00 -3.524477e-02 -4.765608e-02 -9.244753e-02 -8.942009e-02 3.911757e-02 1.235268e-02 4.475309e-02 1.094387e-01 2.973779e-02 1.782979e-03 8.667298e-02 1.153082e-02 2.860588e-03
<VARIANCE> 39
 4.536362e+01 3.748056e+01 7.340379e+01 4.560975e+01 4.265488e+01 4.153383e+01 3.481123e+01 5.070194e+01 3.473797e+01 5.253915e+01 4.507439e+01 2.203781e+01 1.574395e+02 1.242586e+00 2.062252e+00 2.366461e+00 2.702330e+00 2.485265e+00 2.268104e+00 2.041253e+00 3.585264e+00 2.257889e+00 3.217184e+00 2.857211e+00 1.900482e+00 3.062498e+00 1.652687e-01 3.727478e-01 3.532816e-01 4.776070e-01 4.375955e-01 4.014891e-01 3.447221e-01 6.295404e-01 3.999267e-01 6.126287e-01 5.439590e-01 3.787032e-01 5.631481e-01
<GCONST> 1.215734e+02
<STATE> 4
<MEAN> 39
 -1.478950e+01 -4.761229e+00 2.410736e+00 1.952121e+00 -1.669606e+00 -4.325270e+00 -3.915194e+00 -7.554554e+00 -3.272496e+00 -5.458544e+00 -4.305128e+00 -5.961402e+00 4.887741e+01 -4.796959e-01 3.082188e-01 -5.935128e-01 1.293689e-01 -4.734116e-02 4.042819e-01 7.284745e-02 3.525420e-01 2.892748e-01 1.568287e-01 4.659630e-01 2.488424e-01 -1.035757e+00 -1.795874e-02 -8.917261e-02 -2.142251e-02 -1.389163e-01 5.027995e-02 -6.712931e-02 1.148590e-02 2.779861e-05 -1.161259e-02 -1.683386e-02 -3.624928e-03 -3.947499e-02 1.301808e-01
<VARIANCE> 39
 5.118126e+01 3.566556e+01 8.431396e+01 3.897054e+01 3.148695e+01 4.774984e+01 3.005554e+01 5.040787e+01 2.964846e+01 3.986925e+01 3.387972e+01 2.460056e+01 2.189422e+02 1.461201e+00 2.473584e+00 2.418592e+00 2.767528e+00 2.668505e+00 3.410212e+00 2.313652e+00 3.460231e+00 2.388957e+00 3.091434e+00 2.393001e+00 2.225251e+00 5.996508e+00 2.484697e-01 4.987498e-01 4.309364e-01 5.282664e-01 4.855094e-01 6.533631e-01 4.108363e-01 6.459555e-01 4.220712e-01 5.481262e-01 4.636695e-01 4.444445e-01 1.141360e+00
<GCONST> 1.250960e+02
<TRANSP> 5
 0.000000e+00 1.000000e+00 0.000000e+00 0.000000e+00 0.000000e+00
 0.000000e+00 6.252433e-01 3.747567e-01 0.000000e+00 0.000000e+00
 0.000000e+00 0.000000e+00 5.610715e-01 4.389285e-01 0.000000e+00
 0.000000e+00 0.000000e+00 0.000000e+00 7.438323e-01 2.561677e-01
 0.000000e+00 0.000000e+00 0.000000e+00 0.000000e+00 0.000000e+00
<ENDHMM>
~h "o"
<BEGINHMM>
<NUMSTATES> 5
<STATE> 2
<MEAN> 39
 -1.955684e+01 -6.544065e+00 -2.268313e+00 6.007469e-01 -3.024145e+00 -2.360179e+00 -2.010690e+00 -3.604104e+00 -2.795117e+00 -4.988097e+00 -8.093642e-01 -2.932250e+00 4.257896e+01 -1.485589e-02 8.018273e-02 -2.497709e-01 3.946511e-02 6.463624e-02 1.369717e-01 -2.076278e-01 4.245052e-02 -1.052254e-02 -6.629507e-02 8.847087e-02 1.097668e-01 -2.622598e-01 1.759946e-01 -1.460876e-01 5.990842e-02 -2.769037e-01 1.284687e-01 -7.100828e-02 -2.378204e-03 -1.614076e-01 -6.546271e-02 -4.542122e-02 -4.671374e-02 -1.345734e-01 4.226610e-01
<VARIANCE> 39
 4.644110e+01 4.089617e+01 5.726015e+01 4.297840e+01 2.138929e+01 3.716412e+01 1.938504e+01 2.394131e+01 2.406487e+01 3.146822e+01 2.884890e+01 2.445212e+01 2.440708e+02 6.915535e-01 1.008951e+00 1.700703e+00 1.945109e+00 1.333469e+00 2.109298e+00 1.692327e+00 2.202913e+00 1.593848e+00 1.878039e+00 2.107995e+00 1.814194e+00 4.013903e+00 3.033657e-01 2.662875e-01 3.716391e-01 5.284778e-01 3.102402e-01 3.958915e-01 3.417985e-01 5.212111e-01 3.400528e-01 4.244459e-01 4.131120e-01 4.573186e-01 1.400275e+00
<GCONST> 1.143219e+02
<STATE> 3
<MEAN> 39
 -1.945623e+01 -4.248063e+00 -3.182307e+00 2.545477e-01 -3.288063e+00 -1.252276e-01 -3.523020e+00 -2.488570e+00 -1.724722e+00 -3.425403e+00 -5.130528e-01 -3.433251e+00 4.079915e+01 4.745868e-01 -3.433081e-01 -8.741450e-02 -8.032027e-01 3.619459e-01 -1.561882e-01 -1.100295e-01 -4.378774e-01 -2.040906e-01 -5.659597e-03 9.237060e-02 -1.993645e-01 9.067389e-01 5.531256e-01 -2.913259e-01 2.496459e-01 -5.336002e-01 3.023062e-01 -1.286196e-01 3.277289e-02 -3.059202e-01 -2.661908e-01 -9.204309e-02 -1.845780e-01 -2.737639e-01 9.842595e-01
<VARIANCE> 39
 7.069545e+01 5.108527e+01 8.641037e+01 6.460361e+01 2.530827e+01 4.670089e+01 1.495885e+01 2.936321e+01 2.841244e+01 2.839372e+01 2.677949e+01 2.393331e+01 4.099478e+02 2.261193e+00 2.284570e+00 2.626563e+00 3.533332e+00 3.057298e+00 2.188152e+00 1.647588e+00 2.778358e+00 1.948785e+00 1.809732e+00 1.750717e+00 2.052285e+00 9.186361e+00 6.231807e-01 4.029270e-01 5.301456e-01 9.775016e-01 4.372173e-01 3.121198e-01 3.702278e-01 5.149664e-01 3.876674e-01 3.998949e-01 4.358740e-01 4.650372e-01 2.150202e+00
<GCONST> 1.244943e+02
<STATE> 4
<MEAN> 39
 -1.352176e+01 -4.280835e+00 -1.694421e+00 -9.112615e+00 1.828047e+00 1.574288e+00 -2.008170e+00 -3.955117e+00 -4.363018e+00 -1.902059e+00 7.595662e-01 -3.977598e+00 4.896354e+01 5.759807e-01 -4.069351e-01 3.052331e-01 -5.548380e-01 3.612727e-01 -2.493480e-01 3.229189e-02 -5.373314e-01 -2.620740e-01 -1.884554e-01 -1.935254e-01 -3.342681e-01 1.199913e+00 1.458106e-01 -2.921773e-02 1.293563e-01 -2.905304e-02 6.257656e-02 -4.534265e-02 1.657392e-02 -7.085367e-02 -1.139274e-01 -2.678182e-02 -8.229064e-02 -7.867274e-02 2.123092e-01
<VARIANCE> 39
 8.927637e+01 3.871144e+01 6.185755e+01 1.714679e+02 7.061395e+01 3.359972e+01 1.818259e+01 2.533686e+01 4.114347e+01 2.143130e+01 1.576052e+01 1.402519e+01 3.820419e+02 5.385832e+00 3.254520e+00 2.797494e+00 9.447252e+00 3.782418e+00 1.853928e+00 1.398474e+00 2.267618e+00 2.760040e+00 1.883417e+00 1.676686e+00 2.010459e+00 1.838203e+01 5.679348e-01 3.565307e-01 3.941131e-01 1.040016e+00 4.523113e-01 3.192686e-01 3.185417e-01 3.012060e-01 4.547875e-01 3.543920e-01 3.644354e-01 2.852153e-01 1.716476e+00
<GCONST> 1.258226e+02
<TRANSP> 5
 0.000000e+00 1.000000e+00 0.000000e+00 0.000000e+00 0.000000e+00
 0.000000e+00 6.113248e-01 3.886752e-01 0.000000e+00 0.000000e+00
 0.000000e+00 0.000000e+00 3.322189e-01 6.677811e-01 0.000000e+00
 0.000000e+00 0.000000e+00 0.000000e+00 6.884959e-01 3.115041e-01
 0.000000e+00 0.000000e+00 0.000000e+00 0.000000e+00 0.000000e+00
<ENDHMM>
~h "p"
<BEGINHMM>
<NUMSTATES> 5
<STATE> 2
<MEAN> 39
 -1.184818e+01 -5.783467e+00 3.662381e+00 -8.895474e+00 1.812310e-01 -8.211999e+00 -3.611398e+00 -6.982193e+00 -6.176965e+00 -3.498526e+00 -9.574681e-01 -6.556930e+00 5.958996e+01 -4.493675e-02 1.593010e-01 4.083039e-01 4.259316e-01 -5.336001e-01 2.409832e-01 -2.784097e-01 -2.564161e-01 -2.537251e-01 2.191581e-01 9.215367e-02 -1.982519e-01 -3.337618e-01 -5.862770e-02 -1.935967e-02 -1.397262e-02 6.701818e-02 -5.472622e-02 3.749983e-02 -8.899409e-02 -1.326132e-01 6.894141e-02 7.086878e-02 4.226412e-02 2.867872e-02 -6.658108e-02
<VARIANCE> 39
 5.009200e+01 4.322514e+01 7.229515e+01 1.010678e+02 5.009909e+01 5.487462e+01 4.572520e+01 3.871627e+01 5.491637e+01 3.292322e+01 2.521485e+01 2.315247e+01 1.646792e+02 4.872602e+00 3.779815e+00 6.491146e+00 8.565288e+00 5.112368e+00 4.586487e+00 4.554000e+00 4.001224e+00 6.602129e+00 4.567166e+00 1.806678e+00 2.781057e+00 1.550669e+01 8.475086e-01 7.422019e-01 1.153065e+00 1.478699e+00 1.081205e+00 8.158137e-01 1.002388e+00 8.169382e-01 1.037208e+00 9.600755e-01 3.411314e-01 6.375303e-01 2.450856e+00
<GCONST> 1.424875e+02
<STATE> 3
<MEAN> 39
 -1.193787e+01 -5.292163e+00 3.139363e+00 -8.603054e+00 -4.556818e-01 -7.042089e+00 -4.697685e+00 -8.150832e+00 -6.519472e+00 -2.740307e+00 -7.872889e-01 -6.976263e+00 5.841919e+01 -2.732877e-01 8.167047e-02 1.725162e-01 4.253148e-01 -3.802283e-01 2.729133e-01 -2.544698e-01 -6.557961e-01 1.798911e-01 -2.691526e-02 6.482256e-02 -7.980794e-02 -3.358414e-01 -2.759799e-02 -4.326442e-02 -2.365949e-02 -2.089897e-02 9.841982e-02 -4.491630e-02 2.326895e-02 -7.064867e-02 2.769457e-02 -5.910337e-03 2.349669e-02 2.154393e-02 7.218204e-02
<VARIANCE> 39
 4.961248e+01 3.346912e+01 6.788747e+01 1.096437e+02 4.586343e+01 5.132101e+01 4.953675e+01 4.487414e+01 5.485133e+01 3.226414e+01 2.651738e+01 1.948526e+01 1.835964e+02 4.205587e+00 3.633775e+00 6.659013e+00 8.505152e+00 4.604805e+00 4.799636e+00 4.402603e+00 4.203477e+00 5.281388e+00 3.798134e+00 1.741588e+00 2.436193e+00 1.692380e+01 7.341002e-01 6.347264e-01 1.047935e+00 1.529527e+00 1.094126e+00 8.476706e-01 9.541031e-01 8.667216e-01 9.531984e-01 7.476269e-01 3.172571e-01 5.172548e-01 2.484732e+00
<GCONST> 1.406729e+02
<STATE> 4
<MEAN> 39
 -1.254621e+01 -4.803256e+00 2.404606e+00 -8.021776e+00 -9.731147e-01 -6.723578e+00 -5.176733e+00 -9.495419e+00 -6.359927e+00 -4.044998e+00 -1.205921e+00 -6.744428e+00 5.711834e+01 -8.442577e-01 1.598458e-01 -1.922818e-01 1.049131e+00 -1.217711e-01 6.854770e-02 1.904768e-01 -1.904554e-01 7.116044e-01 -2.580802e-01 2.653073e-01 2.070870e-02 -1.125051e+00 -1.053183e-01 -1.326591e-01 -2.757291e-02 -1.648795e-01 1.507558e-01 -6.128323e-02 1.273944e-01 1.336147e-01 4.114584e-02 2.852092e-02 9.975845e-02 1.033946e-03 2.341822e-01
<VARIANCE> 39
 5.196561e+01 3.037240e+01 4.883759e+01 1.028077e+02 3.428764e+01 4.201400e+01 4.084945e+01 4.540685e+01 4.965839e+01 3.000492e+01 3.073504e+01 1.638823e+01 1.715914e+02 3.425757e+00 3.375265e+00 4.488910e+00 6.020152e+00 3.776389e+00 4.095069e+00 3.110044e+00 4.813762e+00 4.198418e+00 3.118797e+00 2.101630e+00 1.862563e+00 1.250189e+01 5.817578e-01 7.052774e-01 6.381813e-01 1.132633e+00 7.612695e-01 7.898641e-01 5.712339e-01 9.823741e-01 7.887053e-01 6.671913e-01 3.452129e-01 3.549601e-01 2.365242e+00
<GCONST> 1.345042e+02
<TRANSP> 5
 0.000000e+00 1.000000e+00 0.000000e+00 0.000000e+00 0.000000e+00
 0.000000e+00 6.697368e-01 3.302632e-01 0.000000e+00 0.000000e+00
 0.000000e+00 0.000000e+00 6.365831e-01 3.634169e-01 0.000000e+00
 0.000000e+00 0.000000e+00 0.000000e+00 7.068937e-01 2.931062e-01
 0.000000e+00 0.000000e+00 0.000000e+00 0.000000e+00 0.000000e+00
<ENDHMM>
~h "r"
<BEGINHMM>
<NUMSTATES> 5
<STATE> 2
<MEAN> 39
 -7.755542e+00 -1.182784e+01 3.765674e+00 -3.229135e+00 2.800673e+00 -1.166134e+01 -4.279260e+00 -1.059257e+01 -1.155735e+00 -1.317021e+00 -2.001087e+00 -1.049028e+01 7.131966e+01 -6.249252e-01 4.412066e-01 -3.026776e-01 8.948187e-01 -7.471098e-02 -2.907964e-01 7.585844e-01 -4.836390e-01 6.830804e-01 -1.043258e+00 1.578805e-01 1.100669e-01 -8.465226e-01 -8.934245e-02 3.270081e-02 9.997953e-02 -8.004577e-02 -3.560467e-02 4.492965e-02 -3.998753e-02 8.580709e-02 -8.362082e-02 -1.646773e-01 4.918461e-02 1.383878e-02 -9.448412e-02
<VARIANCE> 39
 2.912646e+01 2.542842e+01 3.649693e+01 5.105896e+01 4.833961e+01 2.961988e+01 5.167134e+01 4.707087e+01 3.570182e+01 6.597797e+01 3.125830e+01 2.437210e+01 5.452890e+01 2.352335e+00 2.349693e+00 2.655741e+00 3.934052e+00 3.482321e+00 2.719735e+00 3.410373e+00 3.299645e+00 3.475467e+00 6.731779e+00 2.302642e+00 1.558532e+00 3.339653e+00 4.405369e-01 4.423197e-01 4.686767e-01 7.446374e-01 6.039497e-01 4.113320e-01 5.838690e-01 5.737776e-01 6.931906e-01 1.278579e+00 4.067244e-01 3.025346e-01 5.595114e-01
<GCONST> 1.256674e+02
<STATE> 3
<MEAN> 39
 -1.016627e+01 -1.051914e+01 3.551146e+00 -1.024846e+00 2.458824e+00 -1.201950e+01 -2.583069e+00 -1.122805e+01 -3.002443e-01 -5.138320e+00 -1.643517e+00 -1.025016e+01 6.814118e+01 -5.240985e-01 3.080181e-01 -2.383365e-02 2.916529e-01 2.107212e-03 6.844697e-02 2.853707e-01 2.650169e-02 -4.597449e-02 -5.548876e-01 4.331067e-02 1.369727e-01 -8.985401e-01 6.062292e-02 -7.621153e-02 2.785039e-02 -1.653047e-01 -1.170393e-02 1.313935e-01 -1.171089e-01 1.191296e-01 -1.394439e-01 2.039061e-01 -4.793170e-02 4.342565e-02 5.212119e-02
<VARIANCE> 39
 4.939076e+01 2.723754e+01 3.056959e+01 4.521550e+01 3.545698e+01 3.390572e+01 4.336555e+01 4.356768e+01 3.312756e+01 6.601624e+01 3.173122e+01 2.561819e+01 6.413553e+01 2.932751e+00 2.467059e+00 2.614875e+00 3.481903e+00 3.126030e+00 2.513142e+00 2.921060e+00 3.090842e+00 3.167022e+00 6.484447e+00 2.086674e+00 1.542117e+00 2.966156e+00 5.085489e-01 4.811392e-01 4.756469e-01 6.637404e-01 5.855014e-01 3.929096e-01 5.056784e-01 5.420396e-01 6.289363e-01 1.205602e+00 3.697778e-01 3.201752e-01 6.065633e-01
<GCONST> 1.247935e+02
<STATE> 4
<MEAN> 39
 -1.141041e+01 -9.627364e+00 3.015825e+00 -4.747012e-01 2.402094e+00 -1.022752e+01 -3.164431e+00 -1.024302e+01 -1.151528e+00 -5.726057e+00 -1.042747e+00 -8.898311e+00 6.379050e+01 -3.025088e-01 1.362806e-01 -2.377362e-01 -9.661019e-02 -1.229433e-01 4.155906e-01 -1.493118e-02 2.374064e-01 -1.606599e-01 1.126722e-01 -5.590366e-02 3.462385e-01 -9.474894e-01 5.707309e-03 -4.370533e-02 4.729635e-03 -1.018664e-01 -3.810478e-02 4.981666e-02 6.361927e-03 3.194245e-02 -5.805482e-03 7.145613e-02 -2.446444e-02 5.322108e-02 9.353521e-02
<VARIANCE> 39
 6.621920e+01 2.736519e+01 2.804660e+01 5.925033e+01 2.734857e+01 4.300254e+01 5.220078e+01 4.151720e+01 3.684945e+01 5.347500e+01 3.774336e+01 2.066282e+01 9.033722e+01 2.375313e+00 2.360226e+00 2.327581e+00 3.839121e+00 2.264827e+00 2.703986e+00 3.064023e+00 2.937207e+00 3.396590e+00 4.035602e+00 2.091572e+00 1.509210e+00 4.085833e+00 3.553174e-01 4.744968e-01 3.898369e-01 6.623310e-01 4.340898e-01 4.777624e-01 5.384616e-01 5.056241e-01 6.820750e-01 7.613835e-01 3.901058e-01 3.023811e-01 7.377656e-01
<GCONST> 1.240881e+02
<TRANSP> 5
 0.000000e+00 1.000000e+00 0.000000e+00 0.000000e+00 0.000000e+00
 0.000000e+00 7.150880e-01 2.849120e-01 0.000000e+00 0.000000e+00
 0.000000e+00 0.000000e+00 7.001058e-01 2.998942e-01 0.000000e+00
 0.000000e+00 0.000000e+00 0.000000e+00 8.151720e-01 1.848280e-01
 0.000000e+00 0.000000e+00 0.000000e+00 0.000000e+00 0.000000e+00
<ENDHMM>
~h "s"
<BEGINHMM>
<NUMSTATES> 5
<STATE> 2
<MEAN> 39
 -2.312965e+01 -7.910338e+00 2.999488e+00 -3.380102e+00 7.135763e+00 -1.053165e+01 3.482067e+00 -9.268667e+00 4.283440e-01 -8.969468e+00 -1.459735e+00 -8.250196e+00 6.613681e+01 -1.326731e+00 -4.920749e-02 -6.324432e-01 5.300689e-01 -1.590614e-02 1.619329e-01 3.609833e-01 -3.527582e-01 4.037927e-01 -6.981270e-02 9.797071e-01 2.073775e-01 -8.140978e-01 4.060016e-01 -2.201216e-01 -2.640119e-02 -2.011160e-01 -9.049204e-02 3.534524e-02 -3.156422e-01 2.036442e-01 -1.347449e-01 3.083811e-01 -1.291797e-01 3.299071e-02 6.297175e-03
<VARIANCE> 39
 8.948507e+01 2.115495e+01 2.693349e+01 3.152110e+01 4.930616e+01 3.800787e+01 3.530237e+01 2.639577e+01 3.047239e+01 4.141871e+01 4.954128e+01 2.568137e+01 4.971615e+01 8.028972e+00 3.312476e+00 2.088881e+00 3.570350e+00 2.138198e+00 2.509090e+00 4.096988e+00 3.533122e+00 2.914587e+00 4.473361e+00 4.733182e+00 3.072098e+00 2.415630e+00 9.040947e-01 7.015170e-01 3.863894e-01 6.985644e-01 4.218791e-01 3.850882e-01 6.989990e-01 7.551332e-01 5.494965e-01 8.305119e-01 8.203919e-01 6.635191e-01 3.778579e-01
<GCONST> 1.277176e+02
<STATE> 3
<MEAN> 39
 -2.208281e+01 -8.572182e+00 1.080365e+00 -2.614500e+00 5.199628e+00 -9.042768e+00 1.972639e+00 -8.928991e+00 3.956618e-01 -6.231893e+00 -4.814500e-01 -8.102015e+00 6.107127e+01 4.867151e-01 4.603028e-02 -1.877719e-01 3.201689e-01 -5.310381e-01 1.780898e-01 -5.041197e-01 8.855537e-02 -8.497816e-02 3.807857e-01 -6.698693e-03 -9.201145e-02 -9.707189e-01 3.280724e-01 3.384448e-02 1.466222e-01 -1.362207e-01 -1.922759e-01 -8.973107e-03 -1.426999e-01 1.464524e-01 -1.175221e-01 1.461023e-03 -1.158492e-01 -2.845733e-02 5.024939e-02
<VARIANCE> 39
 7.938789e+01 2.592188e+01 3.632986e+01 4.250006e+01 5.692311e+01 4.378557e+01 3.665213e+01 3.037851e+01 3.830795e+01 3.924425e+01 2.179543e+01 2.208065e+01 1.048558e+02 5.856766e+00 3.273126e+00 3.328238e+00 3.832752e+00 3.188902e+00 3.268640e+00 3.029732e+00 3.099317e+00 3.506195e+00 2.770047e+00 2.796028e+00 3.122732e+00 5.567479e+00 7.169578e-01 7.036057e-01 5.134639e-01 7.100219e-01 6.578364e-01 5.294773e-01 6.055532e-01 6.650162e-01 6.087165e-01 5.867475e-01 5.658245e-01 7.176012e-01 9.443756e-01
<GCONST> 1.302241e+02
<STATE> 4
<MEAN> 39
 -1.880568e+01 -7.099808e+00 3.701081e-01 -1.555188e+00 1.779350e+00 -7.121842e+00 -6.947949e-01 -6.990149e+00 -1.321656e+00 -4.756622e+00 -1.299359e+00 -8.354125e+00 5.482829e+01 8.082170e-01 3.616243e-02 1.138933e-01 -9.129674e-02 -8.818930e-01 8.321372e-02 -5.012789e-01 2.770457e-01 -2.364712e-01 1.499904e-01 1.128439e-01 9.213129e-02 -4.158437e-01 6.793171e-02 -1.943225e-01 9.154964e-02 -2.362889e-01 -4.331391e-02 -8.844388e-02 5.589267e-02 3.108361e-02 -4.166268e-03 -4.763652e-02 6.605754e-02 8.899999e-02 3.588782e-01
<VARIANCE> 39
 7.132250e+01 3.826894e+01 6.265318e+01 4.664923e+01 5.301227e+01 5.597441e+01 3.692702e+01 4.047898e+01 3.979498e+01 3.105253e+01 2.026373e+01 2.169976e+01 1.991309e+02 4.530909e+00 4.128105e+00 4.058964e+00 4.039333e+00 3.816786e+00 4.263407e+00 2.485139e+00 3.603306e+00 3.401003e+00 2.782120e+00 2.049422e+00 3.080367e+00 9.800490e+00 6.380613e-01 9.329751e-01 6.705318e-01 7.291039e-01 7.023370e-01 6.817130e-01 5.485674e-01 7.323866e-01 5.443180e-01 5.224009e-01 4.229976e-01 6.864687e-01 1.698469e+00
<GCONST> 1.336066e+02
<TRANSP> 5
 0.000000e+00 1.000000e+00 0.000000e+00 0.000000e+00 0.000000e+00
 0.000000e+00 7.621954e-01 2.378046e-01 0.000000e+00 0.000000e+00
 0.000000e+00 0.000000e+00 6.329756e-01 3.670243e-01 0.000000e+00
 0.000000e+00 0.000000e+00 0.000000e+00 6.804019e-01 3.195982e-01
 0.000000e+00 0.000000e+00 0.000000e+00 0.000000e+00 0.000000e+00
<ENDHMM>
~h "t"
<BEGINHMM>
<NUMSTATES> 5
<STATE> 2
<MEAN> 39
 -8.430613e+00 -1.263968e+01 5.768126e+00 -7.681071e+00 3.083239e+00 -9.489482e+00 -3.567190e+00 -7.441677e+00 -2.567155e+00 -1.423205e+00 -4.044579e+00 -8.617468e+00 7.018286e+01 1.930744e-01 -2.142888e-01 -1.859894e-01 -1.007008e-01 9.858140e-03 -2.274850e-01 -2.818440e-01 2.752356e-01 2.530372e-01 1.623426e-01 -1.488674e-01 -4.071455e-02 1.677869e-01 -7.029330e-02 1.098854e-01 1.622272e-02 7.913630e-02 -6.998039e-02 1.085192e-01 3.338140e-02 -7.481950e-03 -3.159411e-02 -6.713717e-02 6.477524e-02 7.356636e-02 -1.667187e-01
<VARIANCE> 39
 3.912157e+01 4.412082e+01 4.297991e+01 6.183609e+01 3.610431e+01 4.386501e+01 3.965525e+01 6.690675e+01 5.096786e+01 4.385148e+01 5.428191e+01 1.692048e+01 9.217012e+01 3.812823e+00 4.789251e+00 3.725907e+00 6.112269e+00 3.794564e+00 4.502803e+00 2.994757e+00 6.110101e+00 4.392290e+00 3.877604e+00 4.574822e+00 2.289299e+00 1.005641e+01 6.230862e-01 7.136174e-01 6.602684e-01 1.171262e+00 6.966199e-01 7.489851e-01 5.331193e-01 8.916665e-01 7.417965e-01 7.630453e-01 8.725441e-01 4.712085e-01 1.459768e+00
<GCONST> 1.370516e+02
<STATE> 3
<MEAN> 39
 -8.887459e+00 -1.181095e+01 5.574892e+00 -6.471623e+00 1.998543e+00 -9.746876e+00 -3.605488e+00 -6.671310e+00 -1.760361e+00 -1.830230e+00 -3.749030e+00 -7.919977e+00 6.821675e+01 -1.524517e-01 2.822229e-01 7.001219e-02 3.171405e-01 -2.539060e-01 -3.163558e-03 2.822307e-02 9.477000e-02 7.437876e-02 -1.743612e-01 9.960594e-02 1.641175e-01 -5.513946e-01 -7.722087e-02 4.563603e-02 2.340762e-02 1.455813e-02 -2.868962e-02 5.090373e-02 4.542506e-02 -4.216029e-02 -2.173834e-02 -4.231421e-02 1.950584e-02 1.652650e-02 -5.882613e-02
<VARIANCE> 39
 3.984347e+01 4.135037e+01 4.109959e+01 6.240405e+01 3.813470e+01 4.401533e+01 3.841639e+01 6.266082e+01 5.094247e+01 4.416404e+01 4.976508e+01 1.811601e+01 1.023186e+02 3.960059e+00 4.423271e+00 4.044576e+00 6.277389e+00 3.792377e+00 4.093271e+00 2.614771e+00 5.493419e+00 4.341152e+00 3.638366e+00 4.421961e+00 2.109832e+00 1.026836e+01 6.074489e-01 7.690964e-01 6.982648e-01 1.197880e+00 7.769406e-01 6.738684e-01 4.630302e-01 9.647316e-01 7.743412e-01 7.401860e-01 8.349160e-01 4.513916e-01 1.509259e+00
<GCONST> 1.366096e+02
<STATE> 4
<MEAN> 39
 -1.046666e+01 -9.826558e+00 7.663975e+00 -5.219216e+00 1.683802e+00 -1.028616e+01 -2.602047e+00 -7.130649e+00 -1.597066e+00 -3.321146e+00 -2.337935e+00 -7.438185e+00 6.700015e+01 -1.059246e-01 -1.150289e-02 1.551037e-01 3.143937e-02 -1.629766e-01 5.398776e-02 4.864724e-02 -1.898360e-02 -6.058413e-03 -8.704667e-02 8.283459e-02 7.152027e-02 3.526177e-03 -1.276641e-02 -4.396882e-02 6.072104e-03 -2.688191e-02 1.203052e-02 2.583879e-02 8.665456e-03 5.017231e-03 -1.213114e-02 1.034873e-02 2.659394e-03 -6.166467e-03 5.758820e-02
<VARIANCE> 39
 5.051167e+01 4.708096e+01 5.370460e+01 6.705645e+01 4.854598e+01 4.110596e+01 4.495589e+01 4.953320e+01 5.505066e+01 3.816258e+01 4.311874e+01 1.984921e+01 9.011359e+01 5.128601e+00 5.429808e+00 4.626846e+00 6.840402e+00 4.151767e+00 3.783840e+00 3.164422e+00 5.515929e+00 4.750323e+00 4.069163e+00 4.381733e+00 2.228106e+00 9.751284e+00 8.564844e-01 1.007600e+00 8.056344e-01 1.366017e+00 8.744947e-01 6.807483e-01 5.862713e-01 1.045740e+00 8.945795e-01 7.964650e-01 8.591441e-01 4.713393e-01 1.649784e+00
<GCONST> 1.399618e+02
<TRANSP> 5
 0.000000e+00 1.000000e+00 0.000000e+00 0.000000e+00 0.000000e+00
 0.000000e+00 7.908980e-01 2.091021e-01 0.000000e+00 0.000000e+00
 0.000000e+00 0.000000e+00 7.525935e-01 2.474065e-01 0.000000e+00
 0.000000e+00 0.000000e+00 0.000000e+00 9.405760e-01 5.942398e-02
 0.000000e+00 0.000000e+00 0.000000e+00 0.000000e+00 0.000000e+00
<ENDHMM>
~h "u"
<BEGINHMM>
<NUMSTATES> 5
<STATE> 2
<MEAN> 39
 -5.851441e+00 -1.267377e+01 1.830136e+00 -1.615681e+01 2.979294e+00 1.623599e+00 -4.918083e+00 -8.263758e+00 -4.947270e+00 -6.403306e-01 -1.433309e-01 -8.264861e+00 6.756353e+01 8.053302e-01 -2.871800e-01 4.603015e-01 -1.189222e+00 1.003429e-01 6.049957e-01 -7.614683e-02 -2.086245e-01 -2.698167e-01 2.690113e-01 4.546783e-01 1.105880e-01 1.521704e+00 -5.253902e-02 8.984906e-02 -2.634168e-03 2.257310e-01 1.147389e-01 -1.190066e-01 -3.965624e-02 -7.685834e-03 -6.170268e-02 -2.232934e-02 1.243578e-02 -5.544957e-02 -7.707715e-02
<VARIANCE> 39
 5.649346e+01 6.348980e+01 3.244714e+01 7.576785e+01 5.921366e+01 5.193727e+01 3.645310e+01 3.857080e+01 2.990273e+01 2.652749e+01 2.179828e+01 2.070938e+01 2.317781e+02 2.665219e+00 2.166270e+00 1.826863e+00 3.581838e+00 3.988512e+00 2.774669e+00 1.826003e+00 2.560887e+00 2.272367e+00 2.050137e+00 1.849530e+00 1.766389e+00 5.887293e+00 5.770598e-01 3.402812e-01 3.451218e-01 7.097991e-01 7.397581e-01 3.569410e-01 4.341671e-01 4.432094e-01 5.336262e-01 3.464119e-01 3.431097e-01 4.116423e-01 1.117610e+00
<GCONST> 1.237088e+02
<STATE> 3
<MEAN> 39
 -4.276535e+00 -1.292871e+01 2.815206e+00 -1.800896e+01 3.005656e+00 2.869047e+00 -5.199387e+00 -8.896884e+00 -5.590873e+00 -3.775625e-01 7.658743e-01 -8.028952e+00 7.057213e+01 5.649927e-01 -3.097213e-02 3.843881e-01 -4.838328e-01 2.642778e-01 2.592792e-01 -1.260293e-01 -1.545295e-01 -3.315458e-01 2.400886e-01 2.368715e-01 2.807288e-02 1.038095e+00 -1.290871e-01 1.139163e-01 -3.961655e-02 3.694718e-01 -6.965454e-03 -1.423634e-01 -1.787027e-02 3.789588e-02 2.772980e-02 -1.319776e-02 -1.189504e-01 -2.592454e-04 -2.835458e-01
<VARIANCE> 39
 2.753655e+01 5.187089e+01 2.495905e+01 5.546831e+01 5.313070e+01 5.160403e+01 3.610039e+01 3.445553e+01 2.759361e+01 2.869518e+01 2.373687e+01 1.811560e+01 1.246998e+02 3.062508e+00 1.990399e+00 1.730812e+00 4.225107e+00 4.934193e+00 2.482332e+00 1.782656e+00 2.834945e+00 3.210018e+00 1.814980e+00 1.764201e+00 1.785976e+00 6.455522e+00 3.153747e-01 2.873961e-01 2.406962e-01 6.777914e-01 7.607820e-01 4.401631e-01 3.440647e-01 4.320943e-01 4.685664e-01 3.141723e-01 3.302989e-01 3.334619e-01 6.148136e-01
<GCONST> 1.196562e+02
<STATE> 4
<MEAN> 39
 -3.402984e+00 -1.188648e+01 3.093313e+00 -1.771815e+01 2.550301e+00 3.635003e+00 -6.303143e+00 -8.507292e+00 -6.127276e+00 -3.763083e-01 2.042649e+00 -8.252218e+00 7.115238e+01 -1.633517e-03 2.375453e-01 1.144083e-01 7.416301e-01 3.901798e-02 -3.250742e-01 -1.537910e-01 5.252991e-02 1.033344e-01 -1.680388e-02 -2.411121e-01 -6.947197e-02 -1.619282e-01 -1.219908e-01 6.647728e-02 -4.287190e-03 2.485013e-01 -6.786504e-02 -1.029497e-01 4.313164e-02 -3.375404e-03 1.175069e-01 -1.017370e-01 -7.942954e-02 -5.785740e-03 -2.158824e-01
<VARIANCE> 39
 1.490670e+01 3.957709e+01 2.102831e+01 8.614030e+01 4.103798e+01 4.235216e+01 3.996312e+01 3.933733e+01 3.726820e+01 3.356145e+01 3.013391e+01 1.781115e+01 6.583459e+01 1.352183e+00 2.183207e+00 1.315762e+00 5.150523e+00 3.506943e+00 2.171969e+00 1.565193e+00 2.297926e+00 3.205547e+00 1.846447e+00 2.183481e+00 1.316520e+00 3.490313e+00 2.294383e-01 3.515695e-01 2.088130e-01 7.641141e-01 6.433595e-01 3.958602e-01 2.887431e-01 4.452360e-01 5.661882e-01 3.910055e-01 3.923525e-01 2.504282e-01 5.162525e-01
<GCONST> 1.161133e+02
<TRANSP> 5
 0.000000e+00 1.000000e+00 0.000000e+00 0.000000e+00 0.000000e+00
 0.000000e+00 5.072196e-01 4.927804e-01 0.000000e+00 0.000000e+00
 0.000000e+00 0.000000e+00 5.889961e-01 4.110039e-01 0.000000e+00
 0.000000e+00 0.000000e+00 0.000000e+00 8.878872e-01 1.121128e-01
 0.000000e+00 0.000000e+00 0.000000e+00 0.000000e+00 0.000000e+00
<ENDHMM>
~h "ah"
<BEGINHMM>
<NUMSTATES> 5
<STATE> 2
<MEAN> 39
 -4.261199e+00 -4.119184e+00 2.334610e+00 -2.326784e+01 4.912420e+00 -2.664142e-01 -7.229265e+00 -7.094131e+00 -8.308153e+00 -7.582681e+00 1.171274e+00 -9.303947e+00 7.373071e+01 4.351563e-02 -1.754234e+00 -5.375737e-01 -1.021107e-01 3.264613e-01 1.113858e+00 1.582857e-01 -1.334189e+00 2.991130e-01 2.025105e+00 4.056943e-01 5.321970e-01 1.115834e+00 2.507262e-02 -1.808925e-01 1.305686e-01 3.704223e-01 -2.173606e-01 -1.854278e-03 1.679098e-01 2.223467e-01 1.486147e-01 5.938656e-01 -5.463579e-01 1.025681e-01 -1.562508e-01
<VARIANCE> 39
 3.926769e+00 1.197693e+02 9.882897e+00 2.528461e+01 4.790098e+01 1.647093e+01 6.289528e+00 2.686848e+01 2.993230e+01 5.826650e+01 2.858365e+01 1.703929e+01 1.141517e+01 5.135094e-01 1.980341e+00 4.554230e-01 8.866135e-01 3.837229e+00 3.223274e+00 1.374973e+00 1.682230e+00 1.517231e+00 4.666906e+00 3.498842e+00 2.376454e+00 5.531911e-01 1.028424e-01 3.026846e-01 1.021655e-01 9.435582e-02 9.319713e-01 9.260237e-01 2.230716e-01 3.178360e-01 4.077784e-01 9.591022e-01 4.578173e-01 9.332150e-01 4.024273e-01
<GCONST> 1.035817e+02
<STATE> 3
<MEAN> 39
 -4.041033e+00 -1.109747e+01 2.138094e+00 -2.165503e+01 5.348606e+00 1.691121e+00 -6.032454e+00 -8.672274e+00 -5.914741e+00 -7.803986e-01 -2.160242e+00 -8.085738e+00 7.664110e+01 -1.760713e-02 -1.574799e+00 2.229633e-01 5.785174e-01 -4.434179e-01 3.624279e-01 5.942448e-01 -4.898552e-02 7.272976e-01 1.759488e+00 -1.023157e+00 2.680250e-01 7.627492e-01 -6.028594e-02 1.073755e-01 2.158823e-01 1.764072e-01 -1.037292e-01 -3.222084e-01 9.148441e-02 3.730604e-01 5.495448e-02 -2.956554e-01 -3.027177e-01 -5.558705e-02 -1.419891e-01
<VARIANCE> 39
 8.722380e+00 7.774180e+01 7.008853e+00 1.730511e+01 4.090567e+01 5.478750e+01 1.332704e+01 3.156894e+01 2.521720e+01 5.600884e+01 6.019640e+01 1.307869e+01 1.320244e+01 8.691899e-01 2.337143e+00 1.036005e+00 9.290541e-01 7.677012e+00 7.117220e+00 2.121885e+00 2.474801e+00 1.845032e+00 5.119761e+00 4.651740e+00 3.220335e+00 8.829895e-01 8.018064e-02 1.467507e-01 1.667658e-01 1.304554e-01 6.840183e-01 8.776872e-01 4.556129e-01 4.597690e-01 4.620930e-01 1.006249e+00 8.098935e-01 6.671945e-01 1.142279e-01
<GCONST> 1.105164e+02
<STATE> 4
<MEAN> 39
 -4.727476e+00 -1.448715e+01 3.534169e+00 -1.541028e+01 7.816058e+00 -1.078948e+00 -5.664318e+00 -5.614472e+00 -2.711554e+00 -4.965841e+00 -4.063192e+00 -7.342996e+00 7.454493e+01 -2.256763e-01 7.002325e-02 1.285519e-02 4.671601e-01 2.125043e-04 -4.334455e-01 1.954461e-01 8.942775e-02 1.211004e-01 -2.501385e-01 -2.054329e-01 7.042954e-02 -1.673381e-01 -6.787410e-02 6.636771e-02 -2.033766e-02 3.136161e-02 -2.834750e-02 1.049956e-02 2.814964e-03 -2.353406e-02 7.254309e-03 -7.194141e-02 9.102803e-02 2.613009e-02 -6.302900e-02
<VARIANCE> 39
 1.616936e+01 4.584895e+01 1.604974e+01 7.932005e+01 3.910715e+01 7.206541e+01 4.299801e+01 4.619478e+01 3.923090e+01 3.703599e+01 7.470667e+01 2.333183e+01 3.740835e+01 2.009693e+00 4.062737e+00 1.524045e+00 4.754718e+00 2.981959e+00 2.822105e+00 3.692370e+00 3.536420e+00 3.533719e+00 3.624598e+00 3.677648e+00 1.863208e+00 3.674563e+00 4.214902e-01 5.305151e-01 2.882643e-01 8.542489e-01 5.267873e-01 5.944227e-01 6.431819e-01 5.723202e-01 6.062909e-01 6.441576e-01 4.465817e-01 3.062107e-01 5.682971e-01
<GCONST> 1.253406e+02
<TRANSP> 5
 0.000000e+00 1.000000e+00 0.000000e+00 0.000000e+00 0.000000e+00
 0.000000e+00 6.279597e-01 3.720402e-01 0.000000e+00 0.000000e+00
 0.000000e+00 0.000000e+00 6.849436e-01 3.150564e-01 0.000000e+00
 0.000000e+00 0.000000e+00 0.000000e+00 9.675970e-01 3.240302e-02
 0.000000e+00 0.000000e+00 0.000000e+00 0.000000e+00 0.000000e+00
<ENDHMM>
~h "al"
<BEGINHMM>
<NUMSTATES> 5
<STATE> 2
<MEAN> 39
 -3.277288e+00 -1.051349e+01 4.148459e-02 -9.260260e+00 6.935503e+00 -1.314046e+00 -1.832301e+00 -7.465615e+00 -7.177497e+00 -4.102292e+00 -1.181781e+00 -8.986224e+00 6.777740e+01 1.755312e-01 -1.534631e-01 9.484553e-02 -5.173248e-01 -9.901082e-02 6.955953e-01 1.047502e-01 3.906076e-01 -3.019450e-01 -4.998082e-01 1.786771e-01 3.152331e-01 2.367210e-02 -2.168419e-01 1.419370e-01 1.688564e-01 2.815507e-01 -2.048566e-01 -4.304576e-02 -1.200745e-01 -2.057508e-01 8.680374e-03 1.661507e-02 -1.200819e-01 5.351949e-02 -2.938973e-01
<VARIANCE> 39
 2.281305e+01 3.478093e+01 3.282104e+01 6.335266e+01 3.620412e+01 4.023823e+01 2.130565e+01 4.840744e+01 1.853754e+01 2.064054e+01 9.706011e+00 1.349471e+01 7.516633e+01 5.885065e-01 2.138299e+00 2.998488e+00 6.631257e+00 3.560900e+00 1.652408e+00 1.267094e+00 3.875604e+00 1.956627e+00 6.868808e-01 1.346447e+00 1.103892e+00 2.348900e+00 1.475778e-01 2.394120e-01 3.929617e-01 6.848798e-01 6.105291e-01 2.921850e-01 2.894355e-01 6.308589e-01 5.172474e-01 2.869245e-01 2.681864e-01 2.042502e-01 2.825986e-01
<GCONST> 1.093313e+02
<STATE> 3
<MEAN> 39
 -2.801312e+00 -1.096192e+01 1.601369e+00 -1.062181e+01 5.705498e+00 -7.221985e-02 -2.364333e+00 -6.161772e+00 -7.245729e+00 -4.629411e+00 -9.930564e-01 -8.694422e+00 6.885680e+01 3.330894e-04 -1.314288e-01 3.059574e-01 -4.247940e-01 -5.767086e-01 6.310841e-01 -6.216785e-02 2.890768e-01 1.853926e-02 -1.718901e-01 8.544831e-02 3.030990e-01 6.710409e-02 -9.861002e-02 1.261269e-01 6.746444e-02 2.655098e-01 -2.091747e-01 -9.351368e-02 -2.086281e-02 -1.899683e-01 7.968140e-02 1.279422e-01 4.482682e-02 7.889614e-02 -1.943787e-01
<VARIANCE> 39
 1.976987e+01 3.543268e+01 2.974305e+01 7.668849e+01 4.397037e+01 5.164016e+01 1.943303e+01 6.465250e+01 1.921590e+01 1.626395e+01 1.143996e+01 1.088908e+01 6.977588e+01 3.414428e-01 9.180930e-01 1.581094e+00 5.213074e+00 4.596746e+00 2.242623e+00 9.624164e-01 4.256038e+00 2.172197e+00 1.101290e+00 1.687886e+00 9.766308e-01 1.894398e+00 7.147337e-02 1.589329e-01 3.443843e-01 7.779864e-01 5.287331e-01 3.072336e-01 2.341767e-01 8.551405e-01 3.879423e-01 2.119673e-01 2.641770e-01 2.310988e-01 2.228242e-01
<GCONST> 1.063273e+02
<STATE> 4
<MEAN> 39
 -3.415336e+00 -1.123042e+01 4.533825e+00 -1.446284e+01 1.895909e+00 2.344403e+00 -3.729314e+00 -7.073017e+00 -6.969582e+00 -2.995666e+00 -1.656167e+00 -9.043615e+00 7.189622e+01 -8.318061e-02 1.716680e-01 2.309485e-02 8.832355e-02 -1.627153e-01 5.014712e-03 -6.824480e-02 -2.048169e-01 3.447447e-02 -1.049549e-01 -4.461269e-02 8.333598e-02 -2.257226e-01 -2.573717e-02 3.031778e-02 -2.438201e-02 2.113595e-02 3.164970e-02 -3.857663e-02 -1.541565e-03 2.600011e-02 1.308450e-02 7.981578e-03 1.340574e-02 -6.805602e-03 -4.114864e-02
<VARIANCE> 39
 1.081510e+01 2.710795e+01 3.368090e+01 7.337012e+01 5.034219e+01 6.966211e+01 3.756739e+01 6.574473e+01 2.471217e+01 2.642853e+01 2.431318e+01 2.196523e+01 2.773139e+01 4.077009e-01 1.149681e+00 1.510323e+00 2.461076e+00 3.623181e+00 2.457978e+00 1.614569e+00 3.138832e+00 2.256666e+00 1.644293e+00 1.780027e+00 1.477506e+00 1.098919e+00 7.267925e-02 1.310198e-01 2.353118e-01 3.327776e-01 6.073028e-01 4.332731e-01 2.956784e-01 4.067383e-01 3.969496e-01 3.158132e-01 3.093197e-01 2.582447e-01 1.175413e-01
<GCONST> 1.065678e+02
<TRANSP> 5
 0.000000e+00 1.000000e+00 0.000000e+00 0.000000e+00 0.000000e+00
 0.000000e+00 5.020193e-01 4.979807e-01 0.000000e+00 0.000000e+00
 0.000000e+00 0.000000e+00 5.971673e-01 4.028328e-01 0.000000e+00
 0.000000e+00 0.000000e+00 0.000000e+00 9.663088e-01 3.369121e-02
 0.000000e+00 0.000000e+00 0.000000e+00 0.000000e+00 0.000000e+00
<ENDHMM>
~h "an"
<BEGINHMM>
<NUMSTATES> 5
<STATE> 2
<MEAN> 39
 -5.598313e+00 -1.436986e+01 7.299104e+00 -5.741535e+00 7.103387e+00 -6.951634e+00 -6.672982e+00 -3.933454e+00 -4.484795e+00 1.278277e+00 -3.821506e+00 -1.153309e+01 7.006744e+01 1.026106e-02 1.223789e-01 2.695775e-02 2.111071e-01 7.733393e-02 1.831275e-02 9.340987e-02 -5.023723e-02 -1.043263e-01 -9.757589e-02 -3.104052e-02 6.412748e-02 -1.432936e-01 -7.783331e-03 2.605030e-02 4.334823e-02 1.722295e-02 -6.378549e-02 -1.420223e-02 1.583306e-02 -6.424486e-02 2.023399e-02 -1.988339e-02 1.959522e-02 1.857379e-02 6.621862e-03
<VARIANCE> 39
 1.129963e+01 3.714680e+01 4.187899e+01 5.038970e+01 5.051264e+01 2.126075e+01 2.573265e+01 5.400383e+01 2.577235e+01 3.055303e+01 2.441319e+01 2.159267e+01 6.590884e+01 1.255259e+00 4.233372e+00 2.735447e+00 4.975533e+00 2.868354e+00 2.235208e+00 1.604964e+00 4.287104e+00 2.840144e+00 2.917567e+00 2.149182e+00 1.544720e+00 7.186441e+00 2.584526e-01 8.659940e-01 5.127727e-01 9.815842e-01 5.280105e-01 4.503277e-01 3.087724e-01 8.156822e-01 5.538599e-01 5.689394e-01 4.058147e-01 2.861156e-01 1.312230e+00
<GCONST> 1.220315e+02
<STATE> 3
<MEAN> 39
 -5.885088e+00 -1.346802e+01 1.087108e+01 -3.694057e+00 4.288205e+00 -7.360049e+00 -4.674731e+00 -3.761860e+00 -4.625688e+00 -1.557084e+00 -3.857944e+00 -8.980707e+00 7.136768e+01 -1.097203e-01 3.307507e-01 5.735399e-01 4.024653e-01 -6.957963e-01 -2.616709e-02 2.640415e-01 -3.352666e-01 -1.168463e-01 -6.225507e-02 1.189262e-01 1.810444e-01 -2.135172e-01 -3.111595e-02 1.822994e-02 3.966449e-03 -5.542867e-02 -5.303295e-02 1.823675e-02 2.434964e-02 -2.936859e-02 -4.915752e-02 -2.582489e-03 6.270663e-02 -2.332751e-02 1.556592e-02
<VARIANCE> 39
 1.069887e+01 3.797392e+01 5.136928e+01 4.779321e+01 7.616014e+01 2.081193e+01 2.983344e+01 4.434721e+01 2.663085e+01 3.201471e+01 2.763225e+01 2.492050e+01 3.849251e+01 9.490042e-01 3.206962e+00 2.409555e+00 4.711900e+00 2.535123e+00 2.115211e+00 1.658884e+00 4.420702e+00 2.516040e+00 3.463304e+00 2.407369e+00 1.934968e+00 4.184902e+00 1.947791e-01 6.273001e-01 3.926003e-01 9.213316e-01 3.727174e-01 4.112630e-01 2.960490e-01 8.722671e-01 4.349869e-01 6.737382e-01 3.960712e-01 3.691427e-01 7.900113e-01
<GCONST> 1.195947e+02
<STATE> 4
<MEAN> 39
 -8.784260e+00 -8.454526e+00 1.765644e+01 -4.624722e+00 -5.620249e+00 -6.400628e+00 -3.646622e+00 -9.736692e+00 -8.606104e+00 -2.468809e+00 -1.454721e+00 -9.264580e+00 7.007124e+01 -1.716367e-01 2.392121e-01 1.028057e-02 -1.323366e-01 -2.255692e-01 1.629867e-01 -9.808533e-03 -2.778305e-01 -1.645544e-01 -8.698241e-02 -3.476719e-02 -1.148548e-01 -1.871861e-01 -1.912795e-02 -1.192212e-02 -5.090735e-02 -3.338525e-02 3.694373e-02 9.568526e-03 2.587672e-03 3.610263e-02 1.232555e-02 -2.710615e-02 -1.267331e-03 1.106381e-02 -4.888425e-03
<VARIANCE> 39
 1.839152e+01 4.136654e+01 5.801114e+01 7.972923e+01 5.459814e+01 3.965582e+01 4.026958e+01 5.964710e+01 3.218266e+01 3.089658e+01 4.163763e+01 1.921067e+01 4.871653e+01 1.070638e+00 2.199535e+00 2.381899e+00 5.313745e+00 2.395315e+00 2.882597e+00 1.825480e+00 3.063395e+00 2.389369e+00 2.507742e+00 2.809180e+00 1.320411e+00 3.282511e+00 1.751158e-01 4.142984e-01 3.584565e-01 9.449677e-01 3.757588e-01 5.235112e-01 3.036741e-01 5.594886e-01 4.298453e-01 5.034342e-01 4.917214e-01 2.571771e-01 5.369945e-01
<GCONST> 1.197010e+02
<TRANSP> 5
 0.000000e+00 1.000000e+00 0.000000e+00 0.000000e+00 0.000000e+00
 0.000000e+00 9.332273e-01 6.677274e-02 0.000000e+00 0.000000e+00
 0.000000e+00 0.000000e+00 8.509254e-01 1.490745e-01 0.000000e+00
 0.000000e+00 0.000000e+00 0.000000e+00 9.479639e-01 5.203612e-02
 0.000000e+00 0.000000e+00 0.000000e+00 0.000000e+00 0.000000e+00
<ENDHMM>
~h "ar"
<BEGINHMM>
<NUMSTATES> 5
<STATE> 2
<MEAN> 39
 -9.912979e+00 -6.911644e+00 1.413041e+01 -2.367267e+00 -1.013145e+01 -9.476480e+00 -1.062002e+00 -7.264688e+00 -9.804885e+00 5.537415e-02 4.150292e-01 -3.944838e+00 5.948323e+01 1.377555e+00 -9.426456e-01 1.676031e+00 -2.891377e-01 5.179243e-02 -9.390179e-01 -4.902915e-01 3.435844e-01 -8.610246e-01 6.702074e-02 -4.900717e-01 -2.310646e-01 3.206281e+00 -3.801642e-01 2.263916e-01 -9.408574e-01 2.335698e-01 3.369814e-01 3.347518e-01 3.717146e-02 2.729872e-01 5.629650e-01 -1.658152e-01 -2.411293e-01 -2.041816e-03 -7.349204e-01
<VARIANCE> 39
 2.509174e+01 1.441272e+01 1.275270e+02 5.628519e+01 3.491785e+01 5.829942e+01 9.037978e+00 2.927070e+01 2.395937e+01 1.793246e+01 2.668407e+01 2.013203e+01 1.590134e+02 4.008607e+00 2.065524e+00 2.624759e+01 7.635023e+00 2.832848e+00 2.499398e+00 9.566816e-01 6.537149e+00 2.792997e+00 2.532563e+00 1.763868e+00 1.359290e+00 2.340999e+01 2.769408e-01 2.189459e-01 3.122284e+00 1.434557e+00 4.638531e-01 2.983933e-01 2.385662e-01 1.017281e+00 2.878133e-01 6.918269e-01 3.095993e-01 3.463901e-01 2.175056e+00
<GCONST> 1.264838e+02
<STATE> 3
<MEAN> 39
 -7.554660e+00 -8.150929e+00 1.413735e+01 -2.466450e+00 -9.414972e+00 -1.056283e+01 -1.600232e+00 -4.725786e+00 -1.001118e+01 2.034764e-01 -2.052099e+00 -3.293239e+00 6.477395e+01 2.705488e-01 -6.275674e-01 -9.620625e-01 1.162033e-01 4.972427e-01 -3.517359e-01 -2.412580e-02 8.301305e-01 5.256982e-01 -2.441749e-01 -1.009937e+00 -3.295636e-02 1.187772e+00 -3.047319e-01 5.453185e-02 -3.634524e-01 -1.075926e-01 1.053586e-01 2.626913e-01 1.328501e-01 -1.021958e-01 3.904779e-01 -2.366350e-01 2.720273e-03 -6.635666e-02 -4.378762e-01
<VARIANCE> 39
 1.982231e+01 2.652960e+01 7.572921e+01 4.241748e+01 2.661539e+01 3.242126e+01 6.165506e+00 3.989522e+01 2.193033e+01 1.968090e+01 3.724626e+01 1.378809e+01 1.238145e+02 1.581507e+00 1.460353e+00 9.432474e+00 5.556433e+00 1.743404e+00 1.622461e+00 1.026464e+00 3.472695e+00 2.903504e+00 3.638298e+00 2.457174e+00 1.339191e+00 9.048846e+00 1.689210e-01 2.075259e-01 2.037182e+00 1.011496e+00 3.983472e-01 1.781985e-01 1.503071e-01 7.842436e-01 4.609046e-01 9.126128e-01 5.530839e-01 2.428136e-01 1.092795e+00
<GCONST> 1.180722e+02
<STATE> 4
<MEAN> 39
 -1.104325e+01 -1.011489e+01 1.258361e+01 -1.156019e+01 -9.029478e+00 -5.324646e+00 -1.129843e+00 -1.325953e+01 -4.635964e+00 -9.204449e+00 -6.017909e+00 -8.867356e+00 7.117147e+01 -7.803369e-02 -4.731516e-01 -5.011494e-01 -3.200831e-01 5.791650e-01 -2.561921e-02 3.323364e-01 2.010521e-01 3.895065e-01 -5.018985e-02 -2.192698e-01 -4.500282e-02 2.558466e-01 2.115192e-03 7.199766e-02 1.790435e-02 3.273628e-02 1.569632e-02 5.897103e-02 6.079842e-03 -4.088623e-02 -2.705773e-02 6.254524e-02 7.794189e-02 -9.468895e-03 -1.196123e-01
<VARIANCE> 39
 2.576590e+01 3.648322e+01 6.308154e+01 7.979947e+01 5.758865e+01 6.451911e+01 5.161372e+01 1.262770e+02 1.127231e+01 4.624457e+01 2.010725e+01 3.751126e+01 8.787294e+01 1.256382e+00 1.363824e+00 2.211679e+00 3.453773e+00 2.344673e+00 2.205994e+00 2.047796e+00 4.135018e+00 1.871367e+00 3.172149e+00 2.409432e+00 2.590035e+00 3.224307e+00 1.578778e-01 1.610782e-01 3.610507e-01 4.614829e-01 2.644511e-01 1.974319e-01 2.988675e-01 4.858959e-01 3.574900e-01 4.764967e-01 4.337073e-01 3.243313e-01 2.625606e-01
<GCONST> 1.171273e+02
<TRANSP> 5
 0.000000e+00 1.000000e+00 0.000000e+00 0.000000e+00 0.000000e+00
 0.000000e+00 5.699613e-01 4.300387e-01 0.000000e+00 0.000000e+00
 0.000000e+00 0.000000e+00 6.797442e-01 3.202558e-01 0.000000e+00
 0.000000e+00 0.000000e+00 0.000000e+00 9.052746e-01 9.472542e-02
 0.000000e+00 0.000000e+00 0.000000e+00 0.000000e+00 0.000000e+00
<ENDHMM>
~h "at"
<BEGINHMM>
<NUMSTATES> 5
<STATE> 2
<MEAN> 39
 -6.251526e+00 -1.202646e+01 1.060781e+01 -5.053435e+00 4.524070e+00 -3.172254e+00 -6.024792e+00 -8.113966e+00 -3.553571e+00 -8.054316e-01 -5.250289e-01 -9.932103e+00 6.976768e+01 -4.152247e-02 -2.690557e-01 -1.551432e-01 -2.539219e-01 2.265320e-01 -1.303008e-01 -7.410580e-02 2.664834e-01 2.487371e-01 -7.098477e-03 -1.192669e-01 -4.982757e-02 2.425299e-01 1.079044e-02 -3.068657e-02 9.637641e-03 -1.069560e-02 -2.498775e-02 2.266553e-02 2.967019e-02 1.478705e-02 -3.305682e-02 -8.819411e-03 5.353523e-03 1.224582e-02 1.956693e-02
<VARIANCE> 39
 7.268360e+00 5.774061e+01 4.141830e+01 7.206905e+01 3.692540e+01 4.259588e+01 2.720401e+01 5.589205e+01 5.529840e+01 3.740886e+01 5.128661e+01 2.201477e+01 6.455463e+01 8.702274e-01 5.231389e+00 3.228716e+00 7.712721e+00 2.196925e+00 3.369276e+00 2.533400e+00 5.522168e+00 5.457099e+00 3.337522e+00 3.345486e+00 1.701735e+00 5.618445e+00 1.766457e-01 9.147472e-01 5.753496e-01 1.360628e+00 3.738844e-01 6.005108e-01 4.887577e-01 9.497887e-01 9.336457e-01 6.485665e-01 6.305237e-01 3.025655e-01 8.425050e-01
<GCONST> 1.283166e+02
<STATE> 3
<MEAN> 39
 -6.050565e+00 -1.012032e+01 7.766157e+00 -8.548428e+00 8.772189e+00 -6.279762e+00 -4.904083e+00 -7.002417e+00 -1.271458e+00 -2.180739e+00 -3.019245e+00 -7.820384e+00 6.936044e+01 2.112336e-03 -8.838228e-02 -8.076034e-02 -8.196422e-02 2.946453e-02 6.843913e-02 4.060851e-02 5.297070e-02 4.769079e-03 -1.180076e-02 -7.772446e-05 -5.191408e-02 3.571582e-02 -1.595630e-02 1.359745e-02 6.211202e-03 3.801868e-02 -1.867633e-02 -4.779807e-03 1.665160e-02 -1.834475e-02 1.006495e-02 -4.396045e-03 -1.911803e-03 1.874329e-03 -3.266560e-02
<VARIANCE> 39
 6.329279e+00 5.847846e+01 2.103419e+01 8.773545e+01 2.678938e+01 2.993669e+01 2.535739e+01 6.242674e+01 3.507762e+01 3.117183e+01 4.765762e+01 2.905060e+01 7.432819e+01 7.776800e-01 5.934349e+00 1.459604e+00 8.015293e+00 2.226609e+00 2.260681e+00 1.909581e+00 5.354647e+00 4.046220e+00 2.696997e+00 3.556384e+00 1.941834e+00 7.056600e+00 1.487737e-01 9.694025e-01 2.511970e-01 1.348739e+00 4.344723e-01 4.357906e-01 3.698669e-01 8.583298e-01 7.629125e-01 5.518643e-01 6.049974e-01 3.207667e-01 1.046216e+00
<GCONST> 1.236206e+02
<STATE> 4
<MEAN> 39
 -7.236297e+00 -1.133546e+01 7.293663e+00 -3.771576e+00 5.878223e+00 -4.817329e+00 -2.223006e+00 -6.756369e+00 1.165004e-01 -2.631255e+00 -4.494498e+00 -9.679600e+00 6.694106e+01 -4.490576e-01 2.411357e-01 -9.644014e-02 4.575184e-01 -5.352449e-01 -3.972778e-01 3.230098e-01 1.193487e-01 1.391111e-01 -1.739374e-01 -1.564458e-01 3.800230e-01 -7.113158e-01 -8.480150e-02 -3.095938e-02 -9.790159e-02 -1.734258e-01 -3.206998e-02 -5.258771e-02 4.456455e-02 6.393286e-03 -3.134849e-02 -5.357202e-02 1.432676e-01 8.229343e-02 7.828955e-02
<VARIANCE> 39
 1.064242e+01 5.662210e+01 1.887953e+01 9.838676e+01 3.289041e+01 2.787872e+01 2.568855e+01 4.191106e+01 2.007508e+01 2.254924e+01 2.424406e+01 2.975385e+01 8.485637e+01 1.575095e+00 6.513477e+00 1.790131e+00 8.211266e+00 1.637625e+00 1.893197e+00 2.570193e+00 4.457574e+00 1.622177e+00 2.621190e+00 2.264760e+00 2.701419e+00 1.034431e+01 2.976578e-01 1.042932e+00 2.868269e-01 1.370989e+00 3.384809e-01 3.554277e-01 4.504846e-01 6.582406e-01 2.853855e-01 5.499654e-01 4.153194e-01 4.428872e-01 1.665788e+00
<GCONST> 1.222554e+02
<TRANSP> 5
 0.000000e+00 1.000000e+00 0.000000e+00 0.000000e+00 0.000000e+00
 0.000000e+00 9.735231e-01 2.647687e-02 0.000000e+00 0.000000e+00
 0.000000e+00 0.000000e+00 9.598956e-01 4.010434e-02 0.000000e+00
 0.000000e+00 0.000000e+00 0.000000e+00 9.107578e-01 8.924221e-02
 0.000000e+00 0.000000e+00 0.000000e+00 0.000000e+00 0.000000e+00
<ENDHMM>
~h "ba"
<BEGINHMM>
<NUMSTATES> 5
<STATE> 2
<MEAN> 39
 -1.053770e+01 -8.665758e+00 5.727014e+00 -5.704849e+00 -1.297276e+00 -6.459500e+00 -3.361701e+00 -5.808073e+00 -4.447135e+00 -2.401628e+00 -8.955806e-01 -6.355661e+00 6.196881e+01 6.000937e-01 8.744036e-02 2.136696e-01 -3.850514e-02 4.505204e-01 -1.609110e-01 -2.755638e-01 -3.879147e-01 -2.781364e-01 2.135085e-02 -1.060501e-01 -2.078520e-01 5.727627e-01 1.509091e-01 -8.103395e-02 1.727747e-01 -7.422937e-02 1.143522e-01 -1.249067e-01 5.487107e-02 -1.267787e-01 -1.528649e-02 -1.463729e-02 -4.596375e-02 -5.693428e-02 3.065335e-01
<VARIANCE> 39
 5.942493e+01 6.110531e+01 8.658189e+01 8.019984e+01 4.288337e+01 6.676562e+01 3.453851e+01 6.328225e+01 4.907077e+01 3.830683e+01 3.472176e+01 2.691005e+01 3.372403e+02 3.359710e+00 4.271718e+00 3.048556e+00 4.836670e+00 2.028849e+00 3.586454e+00 2.587762e+00 4.102412e+00 2.463381e+00 2.539563e+00 3.236882e+00 1.451817e+00 1.231301e+01 5.142023e-01 6.472719e-01 4.665880e-01 7.942313e-01 3.252036e-01 5.700687e-01 4.183941e-01 7.641149e-01 5.089887e-01 4.321193e-01 5.267484e-01 3.041258e-01 1.888398e+00
<GCONST> 1.325339e+02
<STATE> 3
<MEAN> 39
 -8.800785e+00 -8.908392e+00 6.643597e+00 -5.713212e+00 -6.297433e-02 -7.219274e+00 -3.715949e+00 -6.460287e+00 -4.667326e+00 -2.374516e+00 -1.513325e+00 -6.865448e+00 6.382217e+01 6.825851e-01 -3.456321e-01 5.636259e-01 -3.987029e-01 5.256661e-01 -4.510857e-01 1.131477e-01 -1.407938e-01 -3.610170e-02 -1.064816e-01 -2.744771e-01 -2.062301e-01 1.378487e+00 -8.850186e-02 -5.784661e-02 5.462264e-02 -1.046578e-01 -2.100826e-02 -2.230082e-02 1.069101e-01 6.337725e-02 3.834796e-02 -3.524384e-02 -1.439791e-02 3.986351e-02 7.073130e-02
<VARIANCE> 39
 4.195445e+01 5.689251e+01 7.112630e+01 7.600006e+01 4.173380e+01 5.173851e+01 3.908841e+01 6.642356e+01 4.966304e+01 3.987950e+01 3.798940e+01 2.609681e+01 2.139860e+02 4.508510e+00 5.468330e+00 3.967759e+00 7.021860e+00 2.462923e+00 4.060839e+00 2.701342e+00 4.908226e+00 3.182706e+00 2.864940e+00 3.706547e+00 1.798590e+00 1.924704e+01 4.516021e-01 7.577405e-01 5.267456e-01 9.773796e-01 3.965905e-01 5.389888e-01 4.832423e-01 8.896382e-01 5.864018e-01 5.208341e-01 6.122844e-01 3.328737e-01 1.718573e+00
<GCONST> 1.355715e+02
<STATE> 4
<MEAN> 39
 -8.840050e+00 -1.023217e+01 9.644283e+00 -7.245238e+00 -9.845105e-01 -9.372595e+00 -1.604972e+00 -5.835181e+00 -5.473268e+00 -2.923080e+00 -2.526134e+00 -6.233407e+00 6.704569e+01 -2.154579e-03 -7.159496e-02 1.577859e-01 -1.233503e-01 6.206149e-02 -1.412220e-01 1.578572e-01 -7.767036e-02 1.449820e-02 -1.103005e-01 -1.186959e-01 -4.013650e-02 3.065797e-01 -1.228714e-01 7.714242e-02 -8.470441e-02 6.743687e-02 -9.101801e-02 4.729296e-02 -5.539997e-02 -2.816574e-02 2.786426e-02 1.884760e-02 3.751014e-02 1.970797e-02 -2.244425e-01
<VARIANCE> 39
 2.843192e+01 4.629930e+01 7.806909e+01 6.140221e+01 4.718433e+01 4.078982e+01 3.833945e+01 6.335447e+01 4.485415e+01 3.875164e+01 3.384055e+01 2.411175e+01 1.320078e+02 1.946902e+00 3.858889e+00 3.425647e+00 5.143987e+00 2.521558e+00 2.595817e+00 2.585918e+00 4.293404e+00 2.908298e+00 2.624052e+00 2.666605e+00 1.665278e+00 1.075961e+01 2.731612e-01 6.207082e-01 4.292743e-01 7.912543e-01 4.280119e-01 4.645505e-01 4.596729e-01 7.269739e-01 4.850720e-01 4.863058e-01 4.748870e-01 2.853236e-01 1.074824e+00
<GCONST> 1.278742e+02
<TRANSP> 5
 0.000000e+00 1.000000e+00 0.000000e+00 0.000000e+00 0.000000e+00
 0.000000e+00 4.726049e-01 5.273951e-01 0.000000e+00 0.000000e+00
 0.000000e+00 0.000000e+00 5.337383e-01 4.662618e-01 0.000000e+00
 0.000000e+00 0.000000e+00 0.000000e+00 8.224480e-01 1.775521e-01
 0.000000e+00 0.000000e+00 0.000000e+00 0.000000e+00 0.000000e+00
<ENDHMM>
~h "be"
<BEGINHMM>
<NUMSTATES> 5
<STATE> 2
<MEAN> 39
 -1.721594e+01 -6.103263e+00 -2.178655e+00 3.553354e-01 -1.068467e+00 -7.827476e-01 -3.957662e+00 -4.358077e+00 -2.245431e+00 -4.296797e+00 -1.814095e+00 -3.892260e+00 4.485682e+01 -6.147130e-02 1.642865e-01 -7.527329e-02 6.387697e-02 -1.652828e-01 3.836597e-01 5.934668e-02 -1.254465e-01 -5.364978e-02 2.508065e-02 -6.301225e-02 -9.715632e-02 -3.360432e-01 1.554941e-01 -6.083693e-02 1.445240e-01 -5.346704e-02 3.793423e-02 -1.641784e-01 -5.161048e-02 -1.330647e-01 -1.428816e-02 -3.770013e-02 -9.282535e-02 -7.667826e-02 3.183710e-01
<VARIANCE> 39
 6.874210e+01 5.791765e+01 9.097818e+01 5.481671e+01 4.450368e+01 6.317565e+01 3.399313e+01 4.511105e+01 2.450557e+01 2.971587e+01 2.827407e+01 3.387628e+01 3.870991e+02 9.149154e-01 9.506441e-01 1.679172e+00 1.304160e+00 1.488777e+00 2.152176e+00 1.706390e+00 2.478004e+00 1.742159e+00 1.437016e+00 1.746436e+00 1.313764e+00 2.811253e+00 2.537840e-01 2.107942e-01 3.957360e-01 2.587681e-01 3.435735e-01 4.718357e-01 3.792025e-01 4.166629e-01 3.341946e-01 3.301302e-01 3.897711e-01 2.266665e-01 7.774009e-01
<GCONST> 1.154501e+02
<STATE> 3
<MEAN> 39
 -1.691635e+01 -5.991889e+00 -5.412389e-01 -9.813771e-01 -1.257510e+00 -1.233047e+00 -3.148850e+00 -5.377701e+00 -2.563608e+00 -4.004919e+00 -1.290072e+00 -4.956212e+00 4.728434e+01 2.803644e-01 -9.358469e-02 1.892689e-01 3.835334e-02 -3.718215e-02 -4.254578e-02 -1.015404e-01 -3.800607e-01 -1.460198e-01 -1.017924e-01 -1.054729e-01 -1.105397e-01 3.803863e-01 2.286814e-01 -9.558587e-02 1.638040e-01 -3.842289e-02 7.275324e-02 -1.937887e-01 -9.745596e-02 -1.450342e-01 4.976068e-02 5.099909e-02 -9.237207e-02 -7.919542e-02 3.862279e-01
<VARIANCE> 39
 8.577537e+01 6.205758e+01 1.099946e+02 5.345964e+01 4.793818e+01 6.138345e+01 4.003663e+01 5.023719e+01 1.918483e+01 2.363521e+01 2.923828e+01 2.287557e+01 4.333153e+02 1.543030e+00 1.202624e+00 1.892225e+00 1.396732e+00 1.313959e+00 2.711709e+00 1.640316e+00 2.874991e+00 1.821283e+00 1.412708e+00 1.936740e+00 1.410658e+00 5.762203e+00 3.974392e-01 3.060397e-01 5.045925e-01 2.926846e-01 2.902125e-01 4.675057e-01 3.937692e-01 4.871664e-01 3.020524e-01 2.843790e-01 3.351136e-01 2.957101e-01 1.252828e+00
<GCONST> 1.191281e+02
<STATE> 4
<MEAN> 39
 -1.723977e+01 -5.487401e+00 -5.583815e-01 -9.361053e-01 -1.712029e+00 -1.857263e+00 -3.791040e+00 -6.457097e+00 -2.920486e+00 -4.006901e+00 -1.248181e+00 -5.197703e+00 4.686068e+01 5.159341e-01 -1.258145e-01 5.903932e-01 -3.308647e-02 2.808177e-02 -4.853059e-01 -2.549689e-01 -6.525111e-01 7.998285e-02 2.947963e-02 -1.565289e-01 -2.667221e-01 9.341732e-01 2.242292e-01 -6.237122e-02 1.239464e-01 -2.638111e-02 1.078583e-01 -1.579691e-01 -1.109456e-01 -7.840200e-02 3.187317e-02 7.175916e-02 -2.922669e-02 -1.012861e-01 3.389779e-01
<VARIANCE> 39
 8.821295e+01 5.145285e+01 9.125977e+01 4.811915e+01 4.322318e+01 5.389258e+01 4.568894e+01 5.533201e+01 2.676715e+01 3.087189e+01 3.121191e+01 2.080260e+01 3.571847e+02 3.410385e+00 2.267661e+00 4.182106e+00 2.225205e+00 2.006828e+00 3.931850e+00 2.232275e+00 5.122625e+00 2.386040e+00 1.936874e+00 2.577352e+00 1.770501e+00 1.209574e+01 4.413773e-01 3.811168e-01 6.063236e-01 4.142609e-01 3.682995e-01 5.260592e-01 3.772434e-01 7.359215e-01 5.140714e-01 3.908574e-01 3.519063e-01 3.369291e-01 1.383621e+00
<GCONST> 1.279658e+02
<TRANSP> 5
 0.000000e+00 1.000000e+00 0.000000e+00 0.000000e+00 0.000000e+00
 0.000000e+00 6.377079e-01 3.622921e-01 0.000000e+00 0.000000e+00
 0.000000e+00 0.000000e+00 5.575733e-01 4.424267e-01 0.000000e+00
 0.000000e+00 0.000000e+00 0.000000e+00 6.114008e-01 3.885992e-01
 0.000000e+00 0.000000e+00 0.000000e+00 0.000000e+00 0.000000e+00
<ENDHMM>
~h "bi"
<BEGINHMM>
<NUMSTATES> 5
<STATE> 2
<MEAN> 39
 -1.005135e+01 -7.326059e+00 1.320665e+01 -2.410625e+00 -2.101034e+00 -1.067935e+01 -3.924625e+00 -8.166424e+00 -6.873934e+00 -1.516327e+00 1.554842e+00 -6.362005e+00 6.461345e+01 -3.096167e-01 1.446003e-01 8.621454e-01 -1.227003e-01 -5.136967e-02 -7.892861e-01 3.755589e-01 5.755642e-02 -2.029798e-01 -3.714936e-01 3.213597e-01 2.710312e-01 9.913207e-01 -3.193137e-02 3.545918e-02 -3.926654e-02 -6.611738e-02 7.652937e-02 6.215965e-02 1.358005e-01 -2.210527e-02 5.529695e-02 -1.758039e-01 -8.821554e-02 -1.119398e-01 1.207236e-01
<VARIANCE> 39
 4.877448e+01 4.755931e+01 1.056819e+02 5.148603e+01 4.660012e+01 6.280677e+01 4.312438e+01 5.166106e+01 6.252783e+01 4.151712e+01 3.150254e+01 2.183645e+01 2.128234e+02 3.851243e+00 4.479545e+00 6.928246e+00 5.344336e+00 3.563956e+00 5.655153e+00 3.163935e+00 3.476875e+00 4.551339e+00 3.965094e+00 1.680638e+00 2.312852e+00 1.023817e+01 5.963668e-01 7.629046e-01 1.279157e+00 8.814425e-01 6.606146e-01 1.064682e+00 5.895490e-01 6.971834e-01 9.887788e-01 8.061988e-01 3.411478e-01 4.036531e-01 1.536552e+00
<GCONST> 1.382238e+02
<STATE> 3
<MEAN> 39
 -1.130981e+01 -7.010890e+00 1.453591e+01 -3.522468e+00 -2.253985e+00 -1.259593e+01 -2.106476e+00 -7.746916e+00 -6.411829e+00 -3.461261e+00 1.691885e+00 -5.909812e+00 6.790054e+01 -6.371156e-01 1.188927e-01 6.170512e-02 -2.734000e-01 3.580238e-01 -3.791578e-01 7.769175e-01 1.460555e-01 4.724610e-01 -8.364974e-01 -1.338080e-02 -2.697719e-02 8.492466e-01 -4.884499e-02 -9.250730e-02 -2.151806e-01 -7.335190e-02 1.191524e-01 2.001217e-01 4.811987e-02 -3.214567e-02 1.127166e-01 -1.256133e-02 -1.162431e-01 -1.015293e-01 -6.173420e-02
<VARIANCE> 39
 4.040582e+01 4.468550e+01 8.435749e+01 4.980668e+01 4.301454e+01 5.261063e+01 5.126496e+01 4.783085e+01 6.082796e+01 4.643605e+01 2.969922e+01 2.028211e+01 1.347932e+02 5.430895e+00 4.765415e+00 7.899464e+00 4.324409e+00 3.961668e+00 5.308306e+00 3.556887e+00 3.101222e+00 5.911187e+00 4.728894e+00 2.061713e+00 1.996333e+00 9.291391e+00 7.277196e-01 7.829682e-01 1.059973e+00 7.658986e-01 6.698017e-01 9.610219e-01 5.882067e-01 5.296048e-01 9.215029e-01 8.741423e-01 3.486255e-01 4.164910e-01 1.206734e+00
<GCONST> 1.371688e+02
<STATE> 4
<MEAN> 39
 -1.302336e+01 -8.775380e+00 1.053110e+01 -5.285235e+00 1.368620e-01 -1.219243e+01 1.799510e+00 -8.547960e+00 -2.978660e+00 -5.794827e+00 -6.623332e-01 -7.176705e+00 7.016649e+01 -1.147324e-02 -3.464567e-01 -2.770522e-01 -2.598261e-01 2.475855e-01 1.227694e-01 9.850061e-02 8.986522e-02 1.414953e-01 -6.674027e-02 -1.850585e-01 -1.432036e-01 2.478701e-01 7.183424e-02 -7.659047e-02 -1.433678e-03 -2.532871e-02 -3.097175e-02 4.532208e-02 -5.982574e-02 2.899792e-02 -4.592789e-02 8.264836e-02 -4.156691e-02 2.715904e-02 -4.480138e-02
<VARIANCE> 39
 6.921304e+01 4.589423e+01 5.475389e+01 4.302812e+01 3.756420e+01 3.328226e+01 4.554940e+01 4.941161e+01 3.983559e+01 4.259891e+01 3.536879e+01 2.214745e+01 5.321033e+01 7.020404e+00 4.686975e+00 4.468445e+00 3.825181e+00 3.108356e+00 3.188325e+00 3.330996e+00 3.377880e+00 3.477978e+00 4.473680e+00 2.645562e+00 1.866312e+00 5.212070e+00 1.085143e+00 8.187560e-01 6.663736e-01 6.427715e-01 5.540808e-01 6.162159e-01 5.559373e-01 5.231524e-01 5.643718e-01 8.170610e-01 4.718916e-01 3.765437e-01 6.966775e-01
<GCONST> 1.313298e+02
<TRANSP> 5
 0.000000e+00 1.000000e+00 0.000000e+00 0.000000e+00 0.000000e+00
 0.000000e+00 6.433271e-01 3.566729e-01 0.000000e+00 0.000000e+00
 0.000000e+00 0.000000e+00 6.201888e-01 3.798112e-01 0.000000e+00
 0.000000e+00 0.000000e+00 0.000000e+00 8.894002e-01 1.105999e-01
 0.000000e+00 0.000000e+00 0.000000e+00 0.000000e+00 0.000000e+00
<ENDHMM>
~h "bo"
<BEGINHMM>
<NUMSTATES> 5
<STATE> 2
<MEAN> 39
 -2.042469e+01 -4.818894e+00 7.796144e+00 1.123555e+00 -2.364878e+00 -1.032814e+00 1.571017e+00 -5.929606e+00 -3.534946e+00 -6.542542e+00 -2.823379e+00 -7.026371e+00 4.497136e+01 8.766134e-01 -5.644994e-01 6.356651e-01 3.707444e-01 5.344303e-01 8.649687e-01 1.685811e-02 2.218392e-01 -3.233734e-01 -2.011505e-01 2.083270e-01 2.308908e-01 1.099546e+00 1.086064e-01 -2.827474e-01 -9.743784e-02 -4.644281e-01 2.592393e-01 9.114584e-02 -3.534460e-01 -2.824946e-01 -5.212113e-02 4.565103e-02 1.722023e-01 1.189864e-01 3.927421e-01
<VARIANCE> 39
 3.371014e+01 2.647797e+01 8.075398e+01 6.969910e+01 2.750631e+01 3.635168e+01 4.636894e+01 1.539125e+01 9.389019e+00 2.059345e+01 1.283632e+01 2.094182e+01 2.109591e+02 5.474106e-01 1.558478e+00 2.401685e+00 2.823292e+00 1.179277e+00 2.303441e+00 1.002074e+01 1.937873e+00 6.033062e-01 9.750083e-01 8.690645e-01 2.685126e+00 2.341818e+00 4.946503e-01 4.115938e-01 5.999399e-01 6.417947e-01 2.766517e-01 5.311108e-01 1.606519e+00 4.423558e-01 5.071073e-01 2.121672e-01 1.590475e-01 7.463678e-01 1.478193e+00
<GCONST> 1.149086e+02
<STATE> 3
<MEAN> 39
 -1.721515e+01 -7.900222e+00 9.211267e+00 -2.225504e+00 -2.208395e+00 1.881744e+00 -2.245652e+00 -5.895335e+00 -3.496954e+00 -4.235324e+00 -2.456303e-02 -6.261763e+00 5.024805e+01 1.602075e+00 -4.719112e-01 -2.848930e-01 -1.995972e+00 1.027202e+00 1.802686e-01 -1.535403e+00 -4.573823e-01 -5.432623e-01 3.052778e-01 5.030428e-01 -4.345430e-01 2.223452e+00 4.871058e-01 5.631763e-02 -1.133032e-01 -7.699875e-01 5.714738e-01 -4.818798e-01 7.655297e-02 -2.749498e-01 -3.860115e-01 1.679671e-01 -1.780450e-01 -3.749699e-01 8.815679e-01
<VARIANCE> 39
 4.496261e+01 2.823900e+01 1.631645e+02 1.082664e+02 5.405666e+01 2.956279e+01 4.973053e+01 1.402564e+01 1.529414e+01 3.071888e+01 1.286313e+01 3.556989e+01 3.327454e+02 3.779576e+00 7.520164e-01 4.268235e+00 4.473823e+00 2.607853e+00 2.259030e+00 5.380784e+00 2.075808e+00 2.168062e+00 1.890915e+00 8.981676e-01 5.890186e+00 8.806701e+00 5.319706e-01 1.841865e-01 5.818164e-01 8.276246e-01 5.002079e-01 2.145436e-01 1.039636e+00 4.006511e-01 6.197840e-01 2.362186e-01 2.757283e-01 1.112019e+00 1.791929e+00
<GCONST> 1.253640e+02
<STATE> 4
<MEAN> 39
 -9.796923e+00 -7.667360e+00 9.440500e+00 -1.010810e+01 9.908500e-01 -6.226170e-01 -4.244393e+00 -7.839173e+00 -7.518196e+00 6.750760e-01 -7.975491e-01 -1.076885e+01 6.087712e+01 1.522934e+00 -2.685896e-01 3.358334e-01 -1.816373e+00 1.227308e+00 -9.957231e-01 2.415108e-01 -1.342600e-01 -1.075747e+00 3.311927e-01 -9.271449e-02 -3.646275e-01 2.797108e+00 -7.032315e-02 -1.834682e-01 2.090139e-01 9.255607e-02 2.380370e-01 -2.780338e-01 2.469541e-01 7.262076e-02 -1.469857e-01 5.175036e-02 -7.359046e-02 1.411747e-01 2.342839e-01
<VARIANCE> 39
 2.516325e+01 4.039337e+01 1.501398e+02 5.851318e+01 9.967863e+01 2.675303e+01 5.478757e+01 2.863202e+01 1.723100e+01 2.432248e+01 1.402529e+01 2.875589e+01 2.165659e+02 7.247577e+00 1.933193e+00 4.253626e+00 1.162500e+01 6.941000e+00 2.062591e+00 3.351673e+00 1.866255e+00 4.003016e+00 3.271914e+00 1.147320e+00 2.920302e+00 2.075938e+01 4.395491e-01 3.294932e-01 7.746240e-01 1.348572e+00 7.991123e-01 2.913705e-01 7.330728e-01 3.977380e-01 4.242516e-01 6.008151e-01 2.178216e-01 2.756803e-01 1.548589e+00
<GCONST> 1.298739e+02
<TRANSP> 5
 0.000000e+00 1.000000e+00 0.000000e+00 0.000000e+00 0.000000e+00
 0.000000e+00 6.685219e-01 3.314781e-01 0.000000e+00 0.000000e+00
 0.000000e+00 0.000000e+00 5.080800e-01 4.919200e-01 0.000000e+00
 0.000000e+00 0.000000e+00 0.000000e+00 6.697266e-01 3.302734e-01
 0.000000e+00 0.000000e+00 0.000000e+00 0.000000e+00 0.000000e+00
<ENDHMM>
~h "bu"
<BEGINHMM>
<NUMSTATES> 5
<STATE> 2
<MEAN> 39
 -5.308957e+00 -4.541753e+00 8.553542e+00 -1.100857e+01 3.083013e+00 -1.055927e+00 -4.115221e+00 -9.618987e+00 -8.771709e+00 -4.029683e+00 -4.691985e-01 -8.514349e+00 6.625410e+01 -3.041298e-02 3.110665e-01 -2.726889e-01 -2.703101e-01 -7.637306e-02 1.048586e-01 -9.147216e-02 -9.419258e-02 7.794508e-02 -1.306757e-02 6.854784e-02 -4.606035e-03 -1.771062e-01 -4.163754e-02 -2.502163e-02 7.692874e-03 1.110888e-02 -2.968210e-02 -4.103900e-02 2.640940e-02 4.723274e-03 4.617487e-02 3.124026e-03 1.955717e-02 -1.885381e-02 -8.100683e-04
<VARIANCE> 39
 1.355382e+01 5.578318e+01 4.902693e+01 9.699613e+01 3.937742e+01 4.828883e+01 2.867534e+01 5.069039e+01 4.703559e+01 3.886145e+01 3.340145e+01 2.250280e+01 4.208772e+01 8.400272e-01 2.871281e+00 3.079134e+00 7.692437e+00 3.275698e+00 3.261389e+00 2.005771e+00 5.124736e+00 3.865678e+00 2.458385e+00 2.995773e+00 1.794924e+00 2.336919e+00 1.550862e-01 4.526628e-01 5.034764e-01 1.292075e+00 6.525333e-01 5.976063e-01 3.526608e-01 9.361628e-01 7.723392e-01 4.523585e-01 5.276191e-01 3.174706e-01 3.662880e-01
<GCONST> 1.240253e+02
<STATE> 3
<MEAN> 39
 -6.772269e+00 -2.597881e+00 6.238749e+00 -1.215030e+01 4.097082e-01 -1.664800e+00 -4.487723e+00 -1.025380e+01 -7.987818e+00 -5.321935e+00 1.418262e+00 -8.260252e+00 6.469360e+01 -4.025103e-01 -1.268845e-01 -4.564795e-01 3.173097e-01 1.065760e-01 -1.103005e-01 1.151046e-01 -8.532700e-02 5.816080e-01 -1.919462e-01 -5.415458e-03 -1.595821e-02 -3.806179e-01 -5.717662e-02 -7.202561e-03 -3.142384e-02 -1.042788e-02 4.413071e-02 -6.668045e-02 2.189693e-02 1.634804e-01 -1.853419e-02 -4.072708e-02 -4.381288e-02 -1.005326e-02 -3.089752e-02
<VARIANCE> 39
 2.362998e+01 4.318886e+01 7.292830e+01 1.035483e+02 2.494444e+01 3.595403e+01 3.898695e+01 5.098148e+01 4.121780e+01 3.310461e+01 2.348365e+01 1.953962e+01 4.248395e+01 1.089256e+00 3.182827e+00 2.433712e+00 5.556891e+00 1.664730e+00 2.429226e+00 1.846278e+00 3.641241e+00 3.392679e+00 2.533411e+00 2.610608e+00 1.831931e+00 1.710775e+00 1.849322e-01 4.228315e-01 3.601681e-01 8.562957e-01 3.763897e-01 4.350174e-01 3.335605e-01 7.201994e-01 6.488079e-01 4.897669e-01 4.935369e-01 3.185502e-01 1.897240e-01
<GCONST> 1.188091e+02
<STATE> 4
<MEAN> 39
 -1.018942e+01 -4.123864e+00 1.942837e+00 -1.025209e+01 1.717347e+00 -1.315414e+00 -2.492147e+00 -9.849925e+00 -5.341600e+00 -5.926125e+00 7.039716e-01 -7.956093e+00 5.997812e+01 -4.933452e-01 1.640510e-01 -4.979847e-01 4.897529e-01 2.203463e-02 -5.912262e-03 9.497567e-02 4.669845e-01 3.951052e-01 -1.584000e-01 -2.874852e-01 -1.914378e-01 -8.456811e-01 -1.757924e-02 -7.982381e-02 1.398055e-05 -3.003070e-02 -3.627281e-02 -7.347327e-02 -1.009924e-01 7.051074e-02 -5.044185e-02 4.404261e-02 -2.038828e-02 -4.729677e-02 6.859628e-02
<VARIANCE> 39
 3.639734e+01 4.314683e+01 7.564841e+01 8.672649e+01 1.767850e+01 3.858892e+01 4.131100e+01 4.485262e+01 3.291076e+01 3.293182e+01 2.601358e+01 2.127740e+01 7.830794e+01 1.363484e+00 2.148767e+00 1.581366e+00 3.224080e+00 1.588670e+00 2.719690e+00 1.634793e+00 3.145139e+00 2.086889e+00 2.103043e+00 2.542099e+00 1.916404e+00 1.460286e+00 1.769461e-01 4.144900e-01 2.924390e-01 5.303520e-01 3.379271e-01 4.473047e-01 2.926832e-01 5.746579e-01 4.068411e-01 4.539213e-01 4.749487e-01 4.007584e-01 2.415019e-01
<GCONST> 1.158686e+02
<TRANSP> 5
 0.000000e+00 1.000000e+00 0.000000e+00 0.000000e+00 0.000000e+00
 0.000000e+00 9.387229e-01 6.127709e-02 0.000000e+00 0.000000e+00
 0.000000e+00 0.000000e+00 7.813101e-01 2.186898e-01 0.000000e+00
 0.000000e+00 0.000000e+00 0.000000e+00 7.627090e-01 2.372909e-01
 0.000000e+00 0.000000e+00 0.000000e+00 0.000000e+00 0.000000e+00
<ENDHMM>
~h "ca"
<BEGINHMM>
<NUMSTATES> 5
<STATE> 2
<MEAN> 39
 -1.654692e+01 -5.689732e+00 6.750601e+00 -3.698308e-01 -4.113652e+00 -1.064759e+01 -3.392131e+00 -9.869406e+00 -1.196368e+00 -1.104410e+01 -1.632566e-01 -6.750622e+00 6.727899e+01 -9.251978e-01 1.275499e-01 2.291110e-01 -1.308921e-01 -8.028546e-02 -3.433476e-01 8.048875e-01 1.843926e-01 1.625971e-01 -3.782347e-01 3.700100e-01 3.334183e-01 4.910174e-01 9.594063e-02 -4.044653e-02 -4.919554e-02 -9.063249e-02 7.162695e-02 1.823650e-02 4.638354e-03 3.685215e-02 -2.310817e-02 7.068901e-02 -3.926908e-02 -1.289259e-02 -7.495950e-04
<VARIANCE> 39
 8.382423e+01 3.655668e+01 4.962967e+01 2.450967e+01 5.048868e+01 3.611429e+01 6.223994e+01 2.040876e+01 3.490156e+01 2.906569e+01 4.318041e+01 1.472018e+01 5.539703e+01 9.919805e+00 5.613556e+00 3.930479e+00 1.908826e+00 6.977588e+00 4.863565e+00 5.448104e+00 2.637899e+00 3.007048e+00 3.682405e+00 3.471107e+00 1.869642e+00 5.830856e+00 1.958533e+00 1.115878e+00 7.060152e-01 2.906363e-01 1.211985e+00 1.064785e+00 1.029800e+00 5.543981e-01 5.663075e-01 6.896557e-01 6.818662e-01 4.666770e-01 1.030432e+00
<GCONST> 1.339550e+02
<STATE> 3
<MEAN> 39
 -1.932114e+01 -5.896279e+00 6.718169e+00 -2.789049e+00 -2.506646e+00 -1.183246e+01 7.513885e-01 -7.978391e+00 -4.666300e-01 -9.683346e+00 1.234000e+00 -4.732277e+00 6.623443e+01 3.389474e-01 -4.845588e-01 -1.633745e-03 -4.790910e-01 5.615674e-02 -1.735417e-01 2.152160e-01 2.766299e-01 2.593334e-01 5.355331e-02 -3.537101e-01 1.692339e-01 4.841301e-01 2.997379e-01 -1.066986e-02 -2.102898e-02 6.343500e-02 -7.051604e-03 1.926977e-02 -9.896427e-02 -9.231753e-03 -9.620246e-03 1.441243e-02 -1.266171e-01 -5.381242e-02 -1.020675e-01
<VARIANCE> 39
 9.385993e+01 3.827464e+01 3.500788e+01 2.660901e+01 3.815521e+01 4.494283e+01 3.848071e+01 2.885509e+01 2.693410e+01 2.040634e+01 2.098912e+01 1.309846e+01 5.694947e+01 1.140052e+01 5.468145e+00 4.122066e+00 2.455501e+00 4.570765e+00 5.951897e+00 4.190753e+00 2.576588e+00 2.687543e+00 2.895832e+00 2.517419e+00 1.514853e+00 7.917394e+00 1.856581e+00 8.758158e-01 8.072553e-01 3.833213e-01 8.935772e-01 1.289006e+00 7.583153e-01 4.628891e-01 5.355688e-01 6.040964e-01 4.255210e-01 3.185825e-01 1.419590e+00
<GCONST> 1.303488e+02
<STATE> 4
<MEAN> 39
 -1.616685e+01 -7.821868e+00 6.470748e+00 -5.303691e+00 -2.044564e+00 -1.192633e+01 1.175125e+00 -7.378688e+00 1.125932e+00 -1.000542e+01 -1.473829e-01 -3.907107e+00 6.672231e+01 1.243232e+00 -6.333004e-01 1.319349e-01 -1.636936e-01 -1.406541e-01 -1.388848e-01 1.112034e-01 1.069785e-01 5.510012e-02 -2.847489e-01 -7.160293e-01 -2.394336e-01 1.024449e+00 -5.122686e-03 3.848512e-02 -9.477743e-02 1.200769e-01 8.864181e-02 5.859102e-02 6.755760e-02 -4.071578e-02 -2.089278e-02 4.649058e-02 -1.717234e-02 -7.788859e-02 -3.976246e-02
<VARIANCE> 39
 9.363225e+01 3.503499e+01 2.641745e+01 2.868266e+01 1.932905e+01 3.134570e+01 2.209070e+01 2.698963e+01 2.004193e+01 2.085976e+01 3.460598e+01 1.016909e+01 8.907144e+01 1.093805e+01 3.394809e+00 4.722506e+00 3.170641e+00 2.785574e+00 3.502040e+00 2.490741e+00 2.839182e+00 2.447225e+00 2.727608e+00 3.146678e+00 1.210274e+00 9.144958e+00 1.986878e+00 5.848159e-01 9.643233e-01 5.907028e-01 5.559857e-01 6.883289e-01 5.150131e-01 5.920628e-01 4.710057e-01 5.634562e-01 5.978750e-01 2.203421e-01 1.559313e+00
<GCONST> 1.261223e+02
<TRANSP> 5
 0.000000e+00 1.000000e+00 0.000000e+00 0.000000e+00 0.000000e+00
 0.000000e+00 8.969715e-01 1.030284e-01 0.000000e+00 0.000000e+00
 0.000000e+00 0.000000e+00 8.107293e-01 1.892706e-01 0.000000e+00
 0.000000e+00 0.000000e+00 0.000000e+00 8.894422e-01 1.105578e-01
 0.000000e+00 0.000000e+00 0.000000e+00 0.000000e+00 0.000000e+00
<ENDHMM>
~h "ce"
<BEGINHMM>
<NUMSTATES> 5
<STATE> 2
<MEAN> 39
 -1.414439e+01 -7.743544e+00 2.981896e+00 -3.338959e+00 -1.236701e+00 -4.557664e+00 -2.877691e+00 -5.862136e+00 -3.202762e+00 -3.443379e+00 -1.721877e+00 -6.371274e+00 5.579076e+01 6.232237e-03 -1.184823e-02 5.264243e-03 -6.519453e-03 1.211909e-02 -4.235385e-03 -3.512999e-03 -1.805082e-02 -5.453523e-03 -6.036744e-03 -7.011249e-03 -6.053052e-03 2.423646e-02 -9.010978e-04 1.120651e-04 9.610648e-04 -2.967558e-04 -9.534184e-04 -8.676232e-04 1.872276e-03 1.397487e-03 1.512468e-03 6.095680e-04 -1.876877e-03 -2.391075e-03 8.105070e-05
<VARIANCE> 39
 8.422131e+01 6.084932e+01 1.073184e+02 6.955961e+01 5.446898e+01 7.079699e+01 4.003558e+01 5.404599e+01 3.966318e+01 3.654010e+01 3.580028e+01 3.070767e+01 4.210256e+02 2.718938e+00 2.774098e+00 2.577952e+00 3.647003e+00 2.640600e+00 2.721259e+00 2.408645e+00 3.156996e+00 2.811730e+00 2.666958e+00 2.489032e+00 1.730705e+00 5.594234e+00 4.269334e-01 4.867562e-01 4.137151e-01 6.318184e-01 4.706049e-01 4.998694e-01 4.513086e-01 5.820031e-01 5.208243e-01 5.037161e-01 4.586620e-01 3.360353e-01 8.262612e-01
<GCONST> 1.297615e+02
<STATE> 3
<MEAN> 39
 -1.414439e+01 -7.743544e+00 2.981896e+00 -3.338959e+00 -1.236701e+00 -4.557664e+00 -2.877691e+00 -5.862136e+00 -3.202762e+00 -3.443379e+00 -1.721877e+00 -6.371274e+00 5.579076e+01 6.232237e-03 -1.184823e-02 5.264243e-03 -6.519453e-03 1.211909e-02 -4.235385e-03 -3.512999e-03 -1.805082e-02 -5.453523e-03 -6.036744e-03 -7.011249e-03 -6.053052e-03 2.423646e-02 -9.010978e-04 1.120651e-04 9.610648e-04 -2.967558e-04 -9.534184e-04 -8.676232e-04 1.872276e-03 1.397487e-03 1.512468e-03 6.095680e-04 -1.876877e-03 -2.391075e-03 8.105070e-05
<VARIANCE> 39
 8.422131e+01 6.084932e+01 1.073184e+02 6.955961e+01 5.446898e+01 7.079699e+01 4.003558e+01 5.404599e+01 3.966318e+01 3.654010e+01 3.580028e+01 3.070767e+01 4.210256e+02 2.718938e+00 2.774098e+00 2.577952e+00 3.647003e+00 2.640600e+00 2.721259e+00 2.408645e+00 3.156996e+00 2.811730e+00 2.666958e+00 2.489032e+00 1.730705e+00 5.594234e+00 4.269334e-01 4.867562e-01 4.137151e-01 6.318184e-01 4.706049e-01 4.998694e-01 4.513086e-01 5.820031e-01 5.208243e-01 5.037161e-01 4.586620e-01 3.360353e-01 8.262612e-01
<GCONST> 1.297615e+02
<STATE> 4
<MEAN> 39
 -1.414439e+01 -7.743544e+00 2.981896e+00 -3.338959e+00 -1.236701e+00 -4.557664e+00 -2.877691e+00 -5.862136e+00 -3.202762e+00 -3.443379e+00 -1.721877e+00 -6.371274e+00 5.579076e+01 6.232237e-03 -1.184823e-02 5.264243e-03 -6.519453e-03 1.211909e-02 -4.235385e-03 -3.512999e-03 -1.805082e-02 -5.453523e-03 -6.036744e-03 -7.011249e-03 -6.053052e-03 2.423646e-02 -9.010978e-04 1.120651e-04 9.610648e-04 -2.967558e-04 -9.534184e-04 -8.676232e-04 1.872276e-03 1.397487e-03 1.512468e-03 6.095680e-04 -1.876877e-03 -2.391075e-03 8.105070e-05
<VARIANCE> 39
 8.422131e+01 6.084932e+01 1.073184e+02 6.955961e+01 5.446898e+01 7.079699e+01 4.003558e+01 5.404599e+01 3.966318e+01 3.654010e+01 3.580028e+01 3.070767e+01 4.210256e+02 2.718938e+00 2.774098e+00 2.577952e+00 3.647003e+00 2.640600e+00 2.721259e+00 2.408645e+00 3.156996e+00 2.811730e+00 2.666958e+00 2.489032e+00 1.730705e+00 5.594234e+00 4.269334e-01 4.867562e-01 4.137151e-01 6.318184e-01 4.706049e-01 4.998694e-01 4.513086e-01 5.820031e-01 5.208243e-01 5.037161e-01 4.586620e-01 3.360353e-01 8.262612e-01
<GCONST> 1.297615e+02
<TRANSP> 5
 0.000000e+00 1.000000e+00 0.000000e+00 0.000000e+00 0.000000e+00
 0.000000e+00 6.000000e-01 4.000000e-01 0.000000e+00 0.000000e+00
 0.000000e+00 0.000000e+00 6.000000e-01 4.000000e-01 0.000000e+00
 0.000000e+00 0.000000e+00 0.000000e+00 7.000000e-01 3.000000e-01
 0.000000e+00 0.000000e+00 0.000000e+00 0.000000e+00 0.000000e+00
<ENDHMM>
~h "co"
<BEGINHMM>
<NUMSTATES> 5
<STATE> 2
<MEAN> 39
 -1.181316e+01 -1.757713e+01 1.821499e+00 -7.920332e+00 -2.307184e+00 -1.041708e+01 -3.969274e+00 -2.677041e+00 -2.373442e+00 -3.932638e+00 -1.011538e+01 -1.007791e+01 7.014790e+01 -2.726158e-01 3.502233e-01 -3.126934e-01 2.009874e-01 -3.844313e-02 -3.984091e-02 6.351730e-02 -3.126200e-01 2.557383e-01 -1.222889e-01 1.370232e-01 2.087007e-01 -7.819921e-01 7.298405e-03 1.473231e-03 1.242762e-01 1.447320e-02 7.990962e-02 1.089182e-03 -4.750966e-02 -4.469860e-02 -1.516105e-02 8.904093e-03 4.464345e-02 -5.209792e-02 1.154398e-01
<VARIANCE> 39
